1005 128
160 0.04046832 -0.08386985 -0.12612605 -0.14185522 -0.0072363843 0.12160956 0.06362896 -0.07367618 0.19871046 0.13789889 -0.020496475 0.2088688 0.1598272 0.028467877 -0.066716455 -0.10338243 -0.037162084 -0.110495515 0.15171556 -0.12915546 0.051761806 -0.20497987 -0.047056496 0.043856613 -0.023280103 0.018870296 0.062318265 -0.2588516 -0.09399743 -0.11768063 0.034833953 0.15810463 0.014671472 -0.018896949 0.17238408 -0.14632416 0.08692815 -0.07659183 0.1131049 -0.06230337 0.009208455 0.10846924 0.1519473 0.14894503 0.09243975 -0.0485559 -0.046940353 -0.009510237 0.049982335 -0.11295075 0.06776514 -0.060073327 0.08634192 -0.03448979 0.14813153 0.10126782 0.048603702 0.033340868 0.1662638 0.06130698 0.033247795 0.0016080621 -0.10647089 -0.017234059 -0.22886592 -0.08299232 -0.048125505 -0.18661655 -0.062651835 0.06842556 0.15441701 -0.14083713 -0.03600969 -0.13544762 -0.018755052 0.04424956 0.08573318 0.28396815 0.034885153 -0.021081692 -0.07449975 0.02995795 -0.062365495 -0.15876782 -0.059394248 -0.17268302 0.10578174 0.047238927 0.0738532 -0.13130485 0.22343151 0.013439832 -0.086854495 -0.067339174 -0.0006251541 -0.042185575 0.0168339 -0.09669546 -0.11919812 -0.14212093 0.15113647 -0.14781295 -0.20664644 -0.02039362 -0.21123612 0.06108274 -0.061089706 -0.0929427 -0.14582464 0.1819628 0.09425569 0.1783641 -0.18941768 0.08996695 -0.019465752 -0.025704011 -0.040223714 0.03602186 0.14051309 0.09761946 -0.2893579 0.09652349 -0.036655664 0.02057937 -0.0925683 0.15706904 0.12843728 0.26809305
86 -0.1073095 -0.020251699 0.07615231 -0.0043769167 0.03929366 -0.095157735 -0.025808966 -0.1518498 0.21811838 0.23808886 0.089848414 0.043973874 0.29655388 0.14136967 -0.03708026 -0.019998213 0.0037887977 0.1335916 0.08782021 -0.2067321 0.04512204 -0.038165886 -0.05592189 0.076344006 0.02379214 0.024707053 -0.15898497 -0.36260533 -0.07017351 -0.29412895 0.14987428 0.12323266 -0.031071838 -0.074507944 0.12526599 -0.088388704 0.15112548 0.16237998 0.0471144 0.03391315 0.005118406 0.17514338 -0.049025103 0.088730015 -0.0024254625 0.07175708 -0.062828325 -0.10743799 -0.0772887 -0.0971766 0.16743074 0.0687203 0.10086083 0.05351947 -0.11412922 -0.03478213 0.08219939 -0.013753658 0.29020184 0.06702162 -0.048535313 -0.02812384 -0.1799937 -0.11177042 -0.11054326 -0.17540304 -0.12080947 -0.20940317 -0.06181999 -0.059804566 0.14259796 -0.068663225 -0.08402533 -0.197938 -0.035657715 0.099850565 -0.09920115 -0.051945515 0.14832757 -0.06691568 -0.05699156 -0.073282845 0.112325326 -0.009278328 0.1786865 -0.021272844 0.07505345 0.1525345 0.14277172 -0.14778125 0.24297649 0.0059748287 -0.058607515 -0.045665473 0.09311179 -0.052795477 0.082708925 0.14064713 -0.09720325 -0.18370709 0.18383615 -0.2833959 -0.21995953 -0.20712867 -0.21349089 0.015934812 0.05369168 -0.21628574 -0.045543022 0.21640348 0.084455274 0.09522209 -0.06964164 0.0408881 0.11690676 -0.006430881 -0.15726598 0.050757937 0.21036637 0.071134046 -0.09214339 0.09684582 0.13148351 0.017289799 0.14596488 0.12498973 0.11481242 0.097674154
62 0.08959634 -0.18267673 -0.19233045 -0.21203916 -0.05120653 0.052351903 0.019759456 -0.08785584 0.11767123 0.11586131 0.017177619 -0.112501636 0.14381021 0.14920796 -0.19155248 -0.11210449 -0.080537535 0.07900345 0.124583155 -0.18733992 0.10842381 -0.18473627 -0.19057393 0.33539307 -0.11787871 -0.061673515 -0.0048321174 -0.15460403 -0.028399112 -0.26396042 0.009202549 0.25774378 -0.0091991685 0.10588208 0.19120423 -0.088813536 0.048460044 0.026759306 0.24399851 -0.17308652 0.06515914 0.23374625 0.04448645 0.09884238 -0.042574808 -0.107345946 -0.0039103385 0.036582854 -0.026474087 -0.21139641 0.07038546 -0.044061296 0.0875792 0.1322347 0.037366554 -0.061099954 0.09883963 0.049285486 0.22566153 0.024068506 -0.013552493 -0.17129302 -0.25639284 -0.17180143 -0.027418753 -0.07427682 -0.029452031 -0.205874 -0.09772919 0.06689594 -0.020219268 -0.26371437 -0.029393766 -0.13230988 0.00077358756 0.12270541 0.020793602 0.16878067 -0.084021345 -0.068917274 0.014464626 -0.009574471 -0.081696846 -0.24497904 0.048827827 -0.12825938 0.18245794 0.13615124 0.19502316 -0.06972022 0.25377932 -0.058795698 -0.009692869 -0.12016431 0.01657286 0.078600705 0.07789041 -0.049621575 -0.14388445 -0.034092754 0.078663275 -0.22162314 -0.23515107 -0.056277514 -0.20477794 -0.03703426 -0.083006255 -0.04921766 -0.13402326 0.055418864 0.058205873 0.057203956 -0.039974064 -0.12446381 0.04356984 -0.21638449 -0.12078454 -0.005165222 0.22934449 0.22127984 -0.16208114 0.12263871 0.11566123 -0.10000603 -0.19988349 0.18863127 0.09467691 0.22109146
82 -0.21113452 0.13795316 -0.14946292 -0.11690372 -0.073690176 0.013681036 -0.0014166438 -0.047984723 0.059637967 0.08792521 -0.07352706 -0.01715529 0.20072062 0.019922908 -0.055190258 0.049197696 -0.21538195 -0.06941782 0.011077485 -0.07901226 -0.00024176587 -0.17199682 0.01770649 0.21720298 -0.13662052 0.027665919 0.01674059 -0.16176713 -0.070202336 -0.032761298 0.029449027 0.093869366 -0.024239037 -0.04933269 0.18128057 -0.25634125 0.09297427 0.06265106 0.27573082 -0.13654105 -0.03384913 0.17457408 0.10546408 0.07382325 0.008973645 -0.09929534 -0.12964159 -0.02130143 -0.033693735 -0.14853281 0.1722694 -0.08886039 0.05302212 -0.07700168 0.038330074 0.02324013 -0.021551738 -0.009850418 0.34214076 -0.0061161406 -0.004989755 -0.058603745 -0.067055784 -0.17446205 -0.22593965 -0.064647354 -0.060083188 -0.2682033 -0.16700615 0.016518693 0.103193015 -0.012585958 0.030182116 -0.25849202 -0.034324948 0.09510393 0.032616448 0.093653776 0.017838562 -0.044583526 -0.019839698 0.054349944 -0.073561646 -0.17949522 0.016883412 -0.057942696 0.033960063 0.10967779 0.0714188 -0.09607745 0.15724455 -0.00971309 -0.053755865 -0.03011928 -0.07082824 -0.044102825 0.06785121 0.0024222068 -0.15184744 -0.20126548 0.02788837 -0.23754123 -0.097522825 -0.15261456 -0.15539235 -0.12726049 0.050326116 -0.18230212 -0.0042638797 0.019622529 0.15065731 0.12416312 -0.027484924 0.025806997 0.10804056 -0.08370659 -0.117458425 0.12632592 0.14138038 0.10302385 -0.48462203 0.068478085 0.14284939 -0.052967347 0.085106075 0.21388279 0.098794386 0.13400306
13 0.056539387 -0.011355146 -0.14016101 -0.20148587 0.011409186 0.02862979 0.08043426 -0.099663645 0.023141017 0.19684696 -0.015785074 0.05004872 0.22221915 0.011562077 -0.12272368 -0.13263568 -0.22119753 -0.32917857 0.14061593 -0.108099155 0.058695294 -0.020695549 0.015130057 0.1594729 -0.26600492 0.11681364 0.16947393 -0.25990686 -0.0073468657 0.024984084 0.08752892 -0.06595857 -0.045079943 -0.099144205 0.07923106 -0.14066155 0.14372094 0.18936421 0.14719108 -0.19550739 0.10602746 0.019569337 0.1270634 0.19554158 0.12076017 0.03446758 0.058980957 -0.12020577 -0.083717436 -0.04709498 0.15918693 0.041583624 0.16575544 -0.09647539 0.06796092 0.02946031 -0.07272166 -0.1593825 0.40814543 0.08545977 0.0017563009 0.059181444 -0.14111996 -0.08153496 -0.27749562 -0.016829865 0.03220143 -0.20699981 0.050811753 0.07713246 0.09233323 -0.24295507 -0.1004229 -0.26170105 0.08808694 -0.0461279 0.12859827 0.30063313 -0.023071336 0.024901766 0.047381163 -0.14090824 -0.012726623 0.006888557 0.015948588 -0.15370631 -0.07751413 0.084367946 0.0117220385 -0.12526348 0.28768694 -0.16600119 0.07002202 0.07868249 -0.055387467 0.059346527 0.035229534 -0.058345336 -0.26090366 -0.16591215 0.24355245 -0.28132477 0.01550174 -0.074238755 -0.3103328 -0.030817954 0.011955639 -0.09912928 0.018656496 0.17149864 -0.02431861 0.119776815 -0.17024656 0.098608315 0.15807447 -0.13471727 -0.17279893 0.00012027849 0.1393577 0.081782416 -0.21989545 0.046904583 0.05501358 0.015014562 0.020878319 0.37410116 0.099375375 0.23447092
5 0.20656379 0.027194798 -0.00026587502 -0.14960031 0.0215197 -0.08047165 0.13171685 -0.123299696 0.02425936 0.23836213 -0.0142126195 0.07537305 0.03602696 -0.11235501 -0.05603324 0.03651621 -0.01736672 -0.14354363 -0.007680554 -0.055746764 0.13368498 -0.24443421 -0.18552487 0.066602916 -0.038811114 0.053172 0.077200614 -0.30652308 -0.1617992 -0.18310511 -0.043761 0.05845963 -0.054375857 -0.20705394 0.11152762 -0.20099619 0.093840875 -0.061329864 -0.07941094 -0.09999263 0.1899206 0.16096094 0.10570501 0.030724987 -0.12620929 -0.24760875 -0.013732198 0.055488903 -0.19743472 -0.045774966 0.060832273 -0.111386396 0.21415298 -0.12227852 0.38269916 0.097196266 0.050666705 0.045726124 0.2569174 0.23180053 -0.1755305 -0.098666646 -0.0797035 -0.04208577 -0.11620282 -0.11806773 0.07348886 -0.19309022 -0.12940672 0.08711348 0.23982285 -0.26761785 0.11760347 -0.1339942 0.11944886 -0.040909342 -0.15448332 0.22717184 -0.12908697 -0.028151225 -0.063634835 -0.012172654 0.05613035 -0.015792644 0.014148749 -0.12226431 0.034659453 0.19516696 0.08037414 -0.07042614 0.13841021 0.16662538 -0.101499625 -0.014068963 0.020189028 -0.2652612 0.090495735 -0.10713796 -0.13634777 -0.3982017 0.12605736 -0.07229451 -0.005973427 -0.2034524 -0.27613685 0.119976565 0.044607732 -0.30952388 -0.06806306 0.043476008 -0.16667658 -0.03253426 -0.06983711 0.15699686 0.18003811 0.007872134 -0.08462333 0.09521877 0.44429725 0.16006236 -0.2985529 0.11013445 0.04119806 -0.062074922 -0.12961288 0.117317356 0.2545937 0.10127307
121 -0.043462478 0.014197129 -0.105070084 -0.15354592 -0.04009358 -0.120679855 -0.012736809 -0.18954012 0.08995143 0.20476401 -0.04242373 0.036782786 0.16828904 0.18742423 -0.048066255 -0.08274276 -0.18715627 0.10156073 0.096961826 -0.109565035 -0.016358724 -0.11148339 0.006890211 0.25402778 -0.026187824 0.007691672 -0.04707064 0.009951014 0.034809694 -0.11057075 0.13933268 0.21606763 0.010830563 -0.13822874 0.20558469 -0.18532817 0.08886722 0.011095331 0.2829698 -0.163007 0.06617494 0.26205415 0.13038522 0.03264473 -0.013557048 -0.022474468 -0.0556842 -0.020247774 0.024401449 -0.07538775 0.27641645 -0.00048265787 0.09760484 -0.015869627 0.02467285 0.093052514 0.09724519 0.03799736 0.14147331 0.15479657 0.00891591 -0.15459426 -0.112373665 -0.12741892 -0.13399625 -0.04149045 -0.10032076 -0.22594602 -0.056426857 0.09204014 0.10075766 0.08209567 -0.01638637 -0.22322665 -0.011740247 0.14768869 0.069687754 0.17284511 -0.032810997 0.010047846 0.008451231 -0.05222498 -0.021148503 -0.20362718 0.065476164 -0.053173367 0.2515071 0.031747203 -0.002762051 -0.08307854 0.15425509 0.07563769 -0.0082656 -0.06292091 0.07038478 -0.05006202 0.08476995 -0.01570854 -0.11806248 -0.30073404 0.094716854 -0.3603023 -0.15676865 -0.025158033 -0.20875917 -0.19871749 -0.0756716 -0.1737262 0.015762405 0.03974268 0.1384944 0.08445416 -0.021793185 -0.12398389 -0.0029178069 -0.16048163 -0.06414258 0.19543901 -0.13186035 0.16097194 -0.281642 0.10918421 0.17798974 -0.10647402 -0.012095757 0.35628775 0.12460432 0.3021533
107 0.02820323 -0.063938595 -0.09000402 0.007896596 0.074779674 0.03639034 -0.04166483 -0.02100307 0.13357112 0.114779525 -0.12778786 0.10027938 0.19284543 0.12782712 -0.13924032 -0.108178794 -0.15427355 0.05244949 0.23080775 -0.045827296 -0.0048326403 -0.09149377 -0.13623884 0.31843823 -0.059225533 0.112029016 -0.07509108 -0.09571111 -0.07828582 -0.1194933 0.09741371 0.30020994 0.0015646857 -0.11157308 0.037056558 -0.27135828 0.10807333 -0.022758486 0.1276289 -0.2687244 -0.05302546 0.13032912 0.123018645 0.05157301 -0.07063183 -0.017648237 -0.08269816 0.020825746 -0.06837745 -0.16780572 0.23305443 -0.024391254 0.080263354 -0.064276665 0.031303626 0.040788442 -0.0104227085 0.00033738327 0.24751303 0.11851856 0.025789127 -0.08928649 -0.29031548 -0.11696685 -0.059675224 -0.071644925 -0.1932054 -0.09687172 -0.17742364 0.0038816712 0.09674755 -0.16509569 -0.16780606 -0.23081249 0.021412395 0.048985843 0.083653755 0.15157431 -0.019925598 -0.029590396 0.110793576 -0.13556854 -0.058479045 -0.098874375 -0.048130047 -0.07487983 0.1772678 0.018794723 0.14891063 -0.06280637 0.3206708 0.034383208 -0.10773234 -0.09289022 -0.083814174 0.004313534 0.25453636 -0.05890856 -0.28473148 -0.19136134 0.028309288 -0.29792446 -0.04184362 -0.025719948 -0.16187586 0.052506864 -0.06810613 -0.23465155 -0.0692314 0.07598567 0.12515599 0.11015226 0.06313842 -0.09295675 -0.059168573 0.03203576 -0.09786026 0.11699224 0.22380288 0.19735561 -0.26591948 0.26676133 0.095336884 -0.020359062 -0.06695339 0.26895943 0.10218259 0.29280445
64 -0.077208504 0.08557403 -0.13707083 -0.22660239 -0.014780613 -0.002418212 0.10970235 -0.11591737 0.26782525 0.00043446443 -0.1160715 0.07963176 0.163266 0.099041566 -0.025750255 -0.02988033 -0.024521112 -0.15998752 0.086265124 -0.116494104 0.1519034 -0.14300463 -0.03686501 -0.14744334 -0.21353011 0.22570865 -0.0053684553 -0.3439921 -0.06834361 -0.11042625 -0.010482663 0.078160614 -0.02783561 -0.08441197 0.11287506 -0.13869141 0.16366732 0.13293676 -0.041860573 0.015051558 0.15165585 0.1394019 -0.0087269815 0.10498217 -0.008705486 -0.17949347 -0.028911049 -0.0512354 -0.24902084 0.15535077 0.2166833 -0.15342456 0.12695268 0.08873665 0.06527218 -0.0932718 -0.04825267 -0.109702736 0.2555438 0.03183446 -0.06872572 0.03576527 -0.01627474 -0.028867267 -0.06701835 -0.105690174 -0.075007275 -0.14296056 -0.068737686 0.0074654967 0.3318616 -0.19061136 0.19683827 -0.046831068 0.004318336 -0.06939929 -0.0197256 0.14273454 0.22490291 -0.012261091 -0.015706375 -0.17507415 -0.072668634 0.076793164 0.22107637 -0.048690908 -0.037219364 0.29009798 0.20846723 -0.0728276 0.19925952 -0.104007445 -0.07537755 -0.023584863 0.0874631 0.056233793 0.1433188 -0.04738232 -0.2760981 -0.27109244 0.22759433 -0.20401923 -0.001798204 -0.2009376 -0.22639988 -0.016931908 0.024830393 -0.083972126 -0.070342876 0.0048282333 0.08038969 0.09980955 0.06955557 0.09604991 -0.0033923064 0.0057371617 -0.0523627 0.14320546 0.2090668 0.15812019 -0.24013004 0.16779813 0.03209167 0.22625627 0.091578946 0.099430144 0.2520203 0.18058385
166 -0.120508894 -0.067397855 -0.23221263 -0.22725834 0.016260771 0.022910088 -0.028739467 -0.01718391 0.108692914 0.07738613 0.00290452 0.10844353 0.14269812 0.059751928 0.063057125 -0.10551806 0.090761125 -0.007998767 0.0789431 -0.11524487 -0.08730846 -0.22824588 -0.13650896 0.15122953 0.011463341 0.12835833 -0.057096694 -0.2950565 -0.043127175 -0.16901152 0.111300476 0.19842315 -0.010586658 0.06466568 0.15619169 -0.16669846 0.1427449 0.058246892 0.11601046 0.05577407 -0.033403095 0.08486526 0.18918982 0.08568751 0.14991887 -0.036541183 -0.13518927 0.027043467 -0.07337519 -0.19646265 0.2974103 -0.1483143 0.1893245 0.10690724 0.040366825 0.028592609 -0.07690874 0.09225239 0.22239548 -0.027684908 0.11063104 -0.06889665 -0.13632175 -0.21051267 -0.11790908 0.046963777 -0.026823532 -0.2571206 -0.1541056 0.19365522 0.07869818 -0.109036796 -0.030768206 -0.06269884 0.060305443 -0.041540854 0.225225 0.16770375 0.010714924 -0.019149534 0.15602323 -0.12273471 0.05572662 -0.113294914 0.12912062 -0.041067906 0.136212 0.10230186 0.1392655 -0.095943905 0.18624356 0.06864762 -0.10986025 0.0361501 0.055255987 0.02201499 0.10318655 -0.04224607 -0.03778406 -0.049004443 0.10575032 -0.23116691 -0.29156506 -0.006196857 -0.2490182 -0.033436123 -0.1014404 -0.13049595 -0.123004936 -0.008788705 0.059197366 0.22482996 0.0023464684 -0.07710754 0.032432586 -0.048485417 0.020240966 -0.15271448 0.036682803 0.037901714 -0.16906473 0.05616858 0.23034726 0.07276158 -0.024967898 -0.004732447 -0.011018068 0.24526548
533 -0.015629984 0.0769289 -0.14193279 -0.115258284 0.026876673 0.038432397 0.15852006 -0.10709514 0.14868774 0.073548324 0.04994786 0.08482604 0.30862 0.11269316 0.066929586 -0.051158927 0.0858798 -0.17488214 0.2464639 -0.17047668 -0.0884838 -0.21679421 -0.078850344 0.25304383 0.024802022 -0.019626135 -0.0032368477 -0.2673648 0.011362433 -0.006399466 0.2508659 0.037221707 0.045457784 0.12749605 0.0971305 -0.2097625 0.22196716 0.07392316 0.21318467 0.026105944 0.05552259 0.046560064 0.22900207 0.06608321 0.030470654 0.0295788 -0.080755875 -0.052152388 -0.031741243 -0.26390028 0.04058837 0.014906758 0.22701141 -0.0034811215 0.032578837 0.017805388 0.05483275 -0.116875246 0.15103015 -0.012609382 0.098351546 0.09495726 -0.0538277 -0.05852059 -0.21640964 -0.03700352 -0.11589399 -0.053732026 -0.05102902 0.13570927 0.07963921 -0.017149098 0.014872362 -0.104511864 0.14493452 0.018267559 0.13103847 0.13724472 0.14022374 0.14830668 0.007385932 -0.013756388 0.010052427 0.034672108 0.089044906 -0.05393063 0.05544259 0.17920025 0.040997826 -0.08301704 0.14983706 0.022084242 -0.010995005 0.027332434 -0.040965777 -0.02523914 -0.031139938 -0.106783465 -0.115781546 -0.16664754 -0.042669762 -0.29657048 -0.3341459 -0.11338984 -0.18174835 0.10016095 -0.06320892 -0.19007862 -0.19081205 0.29071918 0.025212334 0.20262091 0.026252778 0.06330606 0.1264455 -0.046045642 -0.15834144 -0.101503976 0.20621407 0.101403244 -0.3947093 -0.08605529 0.11407627 -0.03313446 0.0039558364 0.26416957 -0.05224042 0.2432161
434 -0.101972125 0.09919017 -0.18590738 -0.16745895 -0.010946706 -0.071367785 -0.12788653 -0.11129434 0.21952017 0.2197036 -0.019710297 -0.026736595 0.27432892 0.09751087 -0.13900886 0.0072826985 0.008408867 -0.059664357 0.11943163 -0.08481513 0.04995563 -0.1282551 -0.006940773 0.14364311 -0.08054876 0.11677936 -0.006674034 -0.21236657 -0.1307113 -0.23781832 0.110968314 0.2535716 0.07438346 -0.034571923 0.11899052 -0.19261569 0.075449556 0.07697487 0.19167465 -0.06529206 -0.058519926 0.12624878 0.040090393 0.06407517 0.04161156 -0.1596837 -0.23039716 -0.020123124 0.00898778 -0.16723113 0.14523725 -0.045403592 0.09052404 0.13199404 0.09771265 0.010462569 -0.102580175 -0.04667623 0.19352661 0.035277106 0.14420378 -0.11875301 -0.030992433 -0.11522207 -0.1610791 -0.13009696 -0.14738326 -0.093076915 -0.23961478 0.011813842 0.11386277 -0.049948063 0.06518199 -0.07688553 -0.089067325 0.21039967 0.11005477 0.08268652 0.17957997 0.044115882 -0.03792711 0.09494915 -0.027005307 -0.18978485 0.019918105 -0.03639067 -0.05226314 0.14363095 -0.020617262 -0.027829392 0.01360851 -0.034318157 0.0135731865 -0.23661767 0.12065021 -0.041184988 0.044366274 -0.0935475 -0.24939388 -0.08487736 0.01365854 -0.2369194 -0.13944723 -0.12392062 -0.114833735 0.02925973 0.08635475 -0.19815454 -0.06292865 0.10491491 -0.05901959 0.12276689 0.12775178 -0.15514734 0.04458792 -0.13949436 -0.098007046 0.008376785 0.047526438 0.13385607 -0.22662292 0.043720897 0.16135165 -0.06258078 -0.08556457 0.18867622 0.1656409 0.20352086
301 0.1078699 -0.093189105 -0.22298725 -0.26411992 0.15115973 0.18025257 -0.0025608384 -0.054056447 -0.10074919 0.062058423 -0.15822963 -0.08262032 0.20325345 0.06312619 -0.16678883 -0.17167257 -0.096548125 0.05951642 0.21115772 -0.21737397 0.07404723 -0.08006881 -0.19957924 0.20789951 -0.36596468 0.14080586 0.26098952 -0.22590937 0.0070670014 -0.14775068 -0.003963617 0.26953676 0.0878127 0.06993006 0.3150721 -0.11873154 0.0028363182 -0.05490476 0.21027921 -0.25554842 0.026569167 -0.028033858 0.10995672 0.16822116 -0.08146396 -0.06354537 -0.11966202 -0.022326328 0.05085228 -0.21296628 0.34782967 -0.13699573 0.2188132 0.0882756 0.19293278 0.038441833 -0.05636688 0.15135269 0.19865294 0.21087804 -0.15736319 -0.19599412 -0.10304837 -0.22786377 -0.25714394 0.0042808168 0.05500227 0.0074049397 0.09398189 0.06636267 0.017312953 -0.23349763 -0.10170992 -0.22380304 -0.1806601 0.13787293 -0.008178426 0.2835709 -0.0052153147 -0.31324774 0.1299533 0.10247658 0.18319036 -0.3707532 0.09886765 -0.17022263 0.28932598 0.03957325 0.07369644 -0.0067820637 0.30232772 -0.09232452 -0.13565178 -0.1507968 0.09918038 0.002619308 0.0875018 -0.23870936 -0.23198229 -0.10449305 0.23719774 -0.0052725812 -0.14868115 -0.07845983 -0.15386482 -0.08812579 0.10183694 -0.002963546 -0.0737974 0.10371695 -0.0042598653 0.09816568 -0.222975 0.19295658 -0.055295903 -0.13743053 -0.08097868 0.012835225 0.12637234 0.024168737 -0.14894646 -0.028621547 0.12263726 0.08144564 -0.061938055 -0.094410226 0.054654423 0.33089155
183 -0.17895536 0.052041423 -0.083404504 -0.17444108 0.019191755 -0.051377896 0.038194872 -0.17747387 0.02393842 0.09077714 0.12674086 0.048162177 0.19202228 0.08787838 -0.11126805 -0.06925842 -0.13667648 -0.17082755 0.1051813 -0.029006595 0.031533316 0.19384047 -0.025126407 0.20619024 -0.10504485 0.15272826 0.10105954 -0.08009881 -0.066921085 -0.08747154 -0.06305381 -0.11462257 -0.10511565 0.14780283 0.17374067 -0.16783524 0.2153253 0.19695117 0.19519645 0.065892085 0.012029215 0.02756378 0.05506165 0.19125912 0.061725527 -0.10033744 -0.06474692 -0.034612224 -0.14324418 -0.044121303 0.24820127 -0.03571348 0.09428187 -0.056217242 0.17156349 0.11605114 -0.13641025 0.11067859 0.15806764 0.13787234 -0.075415246 -0.23173954 -0.032885183 -0.09847788 -0.1050918 -0.23323573 -0.1889066 -0.1274746 -0.02239002 0.116973095 0.11349283 -0.020469546 -0.043113016 -0.13641083 0.04852914 -0.034534268 0.06377654 0.037958432 0.007824389 0.022818347 0.019900216 0.036913645 0.023110937 -0.1714349 0.059128337 0.009433049 -0.020713057 0.14480858 0.04668139 -0.20654042 0.2895933 -0.08398748 -0.031534284 -0.044853784 0.1351174 -0.119508654 0.12179045 -0.014195751 -0.23253933 -0.12342368 0.05182457 -0.22745861 -0.112802535 -0.25826007 -0.17452882 -0.069416806 -0.009855083 -0.2744391 -0.06701648 0.011858355 0.059596825 0.18891288 -0.10318376 0.022275541 0.11044753 -0.05062704 -0.057456337 0.082227424 0.16167116 -0.02090882 -0.23092379 -0.17602648 0.18391275 -0.0046426784 0.08722138 0.32330787 0.17091624 0.046324987
84 -0.056045014 -0.14183965 -0.048669823 0.010998968 -0.30495945 -0.13214259 -0.13094643 -0.4121999 0.26314056 0.19289836 -0.0009647267 0.19904889 0.13543005 0.15672486 -0.030138578 -0.27343017 0.024601074 -0.08499059 0.32256752 0.0019666469 -0.17904918 -0.055954482 -0.07049081 0.10446822 0.059264604 0.12214215 -0.20297025 0.06428034 -0.0017484989 -0.14328578 0.07748465 0.2680541 -0.080363415 -0.05033023 0.007195787 -0.18574789 0.052099124 0.23522153 0.2996464 -0.09898716 0.065503106 0.2977584 -0.03503658 0.072973855 0.006351145 0.15816818 -0.137175 0.028577097 -0.06776309 0.12072314 0.11210482 -0.121103205 0.23140159 -0.14575247 -0.023499915 0.09414751 0.023880966 0.08287387 0.20408456 0.12409009 0.14066215 -0.08920286 -0.28228846 -0.027087446 -0.20207325 -0.043312993 -0.025994562 -0.06130313 -0.018478772 0.020748755 -0.03034643 -0.036114708 -0.070927404 -0.23226866 -0.17081681 0.18006451 -0.058674496 0.045533713 0.01754071 0.19854604 0.012203772 0.016348733 0.03762278 -0.12891933 -0.05061995 -0.080447875 0.09132804 -0.013644763 0.08569986 -0.13418947 0.045498084 0.037561245 -0.02675436 -0.27176723 0.049833182 -0.17600147 0.20566587 0.2832683 -0.17788035 -0.23278084 0.30892712 -0.27791804 -0.4738675 -0.051668882 0.017133396 -0.21136972 -0.04804475 -0.26470864 0.013862921 0.109619066 -0.10215482 0.0025696612 0.05563643 -0.1740356 -0.047528435 -0.10444965 0.0048740054 0.015451135 0.06532865 0.051841974 -0.25722128 0.17946422 0.15308282 -0.08636591 -0.1947643 0.14494902 0.119132966 0.1069575
129 -0.4440978 0.060023177 -0.11901117 -0.18453945 0.065997384 -0.070445694 -0.048648525 -0.03776227 0.14318027 0.16916604 0.17122799 0.037575267 0.12836093 0.22673242 -0.17688896 -0.13277623 0.01346019 -0.24242371 0.010687641 -0.09941297 -0.12849197 0.1188771 0.032747358 0.124030635 -0.05539931 0.060276784 -0.07435589 -0.15567338 -0.07316557 -0.0021960174 0.0067221117 0.0006058163 0.051911447 0.24670489 0.15768753 -0.31928286 0.08844 0.17339644 0.06015868 0.14690535 0.0485089 0.18502223 0.0064458214 0.106929526 0.017095918 -0.116419256 -0.18520382 -0.055062383 -0.08832834 -0.021423757 0.15843566 0.13085014 0.081675544 0.003942662 0.06440629 -0.05944508 -0.020097043 0.07978425 0.2162962 0.03328703 0.04560182 -0.18462119 -0.024275098 -0.05589653 -0.12200613 -0.3195508 -0.14041705 -0.1933633 -0.19172598 0.174883 0.017677125 -0.09016154 -0.15150388 -0.08754267 0.060954724 0.14263946 -0.059704047 0.17259449 0.26574215 0.06920073 0.068868846 0.046138164 -0.08004393 -0.11286932 -0.07473951 0.031303037 -0.14481254 0.07591389 0.07982496 -0.07231661 0.117701225 -0.068291076 -0.06446467 -0.19916573 0.09674126 -0.22841458 0.0494955 0.114070244 -0.144122 0.0012845878 0.043225043 -0.18317337 -0.19157757 -0.1069918 -0.08280855 -0.12675683 0.11386096 -0.17863898 -0.14304607 0.024086863 0.08298484 0.15276408 -0.03169763 -0.06033434 0.07768626 -0.06640024 -0.03229655 -0.11456484 0.28100783 -0.033364683 -0.38746136 0.021097247 0.036139127 -0.008261891 0.10073156 0.17447399 0.1814725 0.099722065
971 -0.043122582 -0.035444625 0.050797343 0.29258344 -0.19406912 0.14612116 0.13144621 -0.1471254 0.26038736 -0.12660268 0.01168661 -0.2210196 0.033305522 0.06320018 -0.2155738 -0.15382096 -0.06393156 0.07089475 0.28166083 -0.28858003 -0.054612063 -0.062208235 -0.016687311 0.22971137 -0.2470994 -0.25305772 -0.014220534 -0.30131236 0.14294913 -0.3642868 0.094503395 0.16116649 0.0071135233 0.037626274 0.43075368 -0.14606078 0.2491453 0.19984563 0.051277943 -0.115821026 0.22535107 0.08971146 0.14739095 0.13954026 0.2627282 0.28934643 0.301309 -0.0659018 0.045327734 -0.016494567 0.0723729 0.026279263 -0.24730662 -0.21956761 0.082127996 0.06942958 0.10038639 0.061652273 -0.008513238 -0.14102215 0.07940368 0.04990522 -0.42682865 -0.047863122 0.0034865132 0.14143336 -0.00845664 -0.3271 -0.056951392 -0.07792088 0.2674573 -0.21343817 -0.2014963 -0.2849353 0.12376948 0.1171434 -0.08003938 0.5021746 -0.0980884 -0.049442433 -0.042336572 0.17677796 -0.006155864 -0.14494234 0.2435445 -0.36286935 0.22705916 -0.08057256 -0.045950856 -0.33110952 0.32604906 -0.0005398841 -0.023272485 -0.06356913 0.078328304 -0.007858172 0.03978482 -0.042950325 -0.015551283 0.005351331 -0.055785783 -0.20895432 -0.34447297 -0.20082311 -0.11793785 -0.069427356 -0.34646314 -0.2548063 0.13870338 0.41884437 0.17411073 0.44023848 -0.1590985 0.07746418 -0.15035123 -0.13392316 0.073693916 0.009744194 0.181518 0.20801423 -0.21973315 0.085366 0.22247279 0.09974458 0.09866597 0.3312133 0.0692919 0.24771419
420 0.043325603 0.0064796205 -0.17453393 -0.33387154 0.05453345 0.020743553 0.01885436 -0.21683823 -0.031950854 0.055065185 -0.072962746 -0.03485807 0.21587825 0.112613045 -0.02830024 -0.097384006 -0.019952504 -0.12869477 0.025681177 0.002670914 0.21363167 -0.19400504 0.04434352 0.2715262 -0.09032574 0.14648202 0.08457397 -0.119320415 -0.03785616 -0.0067675826 0.07794221 0.30466992 0.039787933 0.15756272 0.2319551 -0.3391533 0.15850157 0.095776655 0.32692957 -0.10976331 -0.085031636 0.17222145 0.1717809 0.11071306 -0.14150867 -0.12521563 -0.014680964 0.09373629 -0.032135963 -0.13044089 0.12241792 -0.08673799 0.16817436 0.08121636 0.16095029 0.098465085 0.060966074 -0.09889155 0.2322947 0.20803681 -0.10899179 -0.0757538 -0.18137953 -0.0010504414 -0.20365404 -0.10547476 -0.09134813 -0.18066102 -0.04264726 0.042707726 0.10911228 -0.02451192 -0.09330924 -0.23077379 -0.025437336 0.09636952 0.1070106 0.21357325 0.036608763 -0.1493961 0.0502 0.1553623 -0.023743026 -0.2044238 0.06170914 -0.19079828 0.16742592 0.2607813 0.12133006 -0.0136148315 0.2229203 0.20118168 -0.050160974 -0.049771026 0.07688062 -0.16376533 0.029755825 -0.13460168 -0.04673255 -0.08289594 0.08094695 -0.0200742 -0.16168994 -0.09726669 -0.20518568 -0.18053551 0.20084219 0.05856494 0.11227628 0.14243008 0.14245981 0.051538374 0.03655584 0.115626425 0.1391697 -0.07553261 -0.00665143 -0.03606016 0.35498747 0.12544817 -0.28680852 -0.027847867 0.1670102 0.012427376 0.0946633 0.090788916 0.06467355 0.0645367
377 -0.20698206 -0.07475705 -0.1745125 -0.11837024 -0.1920352 -0.039229076 0.1712944 0.14548945 0.02099673 0.005813032 0.12660338 0.16738151 -0.0471559 0.15610193 -0.18018419 0.040353265 -0.2175891 -0.055448446 0.016390799 -0.24298352 -0.23978148 -0.55771726 0.012391708 0.18209927 -0.02735171 -0.013306368 -0.064652026 -0.17653732 0.09630479 -0.116301686 0.15222298 0.2270216 0.17874938 0.020555891 0.07841838 -0.2954647 -0.015303888 -0.11122592 0.12750287 0.18595351 -0.03202296 0.079612195 -0.06334069 0.14200291 0.10072909 -0.19916281 -0.35966766 -0.016699204 0.024453565 -0.037044693 0.003957576 0.15923843 0.18808115 -0.18179868 0.28390387 0.17586263 -0.020059621 0.12492557 0.29203174 -0.0237569 0.010276813 -0.051180147 0.05571031 -0.13997531 -0.14309543 -0.3198189 0.021042487 -0.17982043 -0.14381003 0.112481244 0.20135204 -0.08791554 -0.12901287 0.1107689 0.12533852 0.13735488 0.10493962 0.16857097 0.10824249 -0.21233003 -0.08090132 -0.03716529 0.02859274 -0.074539684 0.17224006 -0.0021258048 -0.13525386 0.22337033 0.099095434 -0.13359155 0.12212094 -0.016089752 -0.063336425 -0.06373241 0.23704442 -0.13250507 0.2587295 0.17707363 -0.049369726 -0.27622825 0.38877162 -0.046259735 -0.031500064 0.16034088 0.05833792 -0.12176535 -0.113129936 -0.146938 -0.1290417 0.008923999 0.34255773 0.123407684 -0.15869021 0.12617652 -0.021534668 -0.066359974 0.037156984 -0.09769168 0.19949244 0.12874357 -0.3085847 0.024846654 -0.33149728 0.042727906 0.08070541 -0.10524963 0.10610582 0.18534978
211 0.07745192 0.074198104 0.25206178 -0.04167656 -0.23338309 0.020355865 -0.046982158 -0.25371647 0.06565845 0.08453726 -0.042461324 0.14290932 0.19334258 -0.07632582 -0.16085565 -0.22215502 -0.04618186 -0.15124379 -0.06213625 0.21669418 0.1363929 -0.3108064 0.15223698 0.31206906 0.17579503 0.1280617 -0.18446822 -0.03162901 -0.091602944 -0.16204292 0.032353718 -0.09068734 -0.06279841 -0.059073187 0.07028598 -0.25949517 -0.0083346795 0.18811268 0.31046557 -0.122949556 0.15029684 -0.0078746425 0.1827 0.1561144 0.17617768 -0.10053673 -0.08722195 0.2136445 -0.2808522 0.053751927 -0.04296199 -0.008559706 -0.10009451 -0.029499806 0.24573947 -0.034157157 -0.093351 0.18548052 0.14845683 0.14231946 -0.07130819 -0.08885858 -0.081624076 0.021041244 -0.057831265 -0.19359708 -0.039552264 -0.33008206 -0.0849761 0.14536117 0.15924233 0.10294621 -0.21772563 -0.076387316 0.121010296 0.25837958 -0.18391821 0.12705912 0.007653124 0.029361997 0.007338087 0.016439775 0.03395384 -0.0601889 0.13883272 -0.19728276 0.11305205 0.122789286 0.06475244 -0.23141652 0.31596684 0.22629942 -0.23015442 -0.0050773392 0.25000656 -0.061703723 0.12682782 0.056235645 -0.0047015636 -0.14433047 0.25545484 -0.18720993 0.022579394 -0.0838706 -0.31103966 0.081042156 0.02150007 0.032308612 -0.011241019 0.24400778 -0.14305349 0.1879967 0.13667059 0.01654001 0.37338793 -0.05851074 0.023880774 0.043608125 0.24822253 0.073603414 -0.33491707 0.09793292 0.27862665 -0.009046173 0.042767026 0.2317877 0.2452013 0.015355691
249 -0.060078554 0.065588705 -0.060171474 -0.14348935 -0.014849771 0.069210105 -0.12381153 -0.054600842 0.18805337 0.06501859 -0.06743488 0.039283853 0.13715383 0.24260075 -0.22971702 0.022795726 -0.02170575 -0.030120254 0.026717845 -0.09034662 -0.060912255 -0.116901495 -0.11390847 0.31813154 0.0290442 0.09797508 -0.022175005 -0.068012156 -0.07024661 -0.071747184 0.13030231 0.18470013 0.06230185 0.058331236 0.2534278 -0.1592854 0.12743564 0.16314103 0.14195742 0.12478127 -0.14380163 0.057189953 0.11187219 0.15534468 0.11711076 -0.17743823 -0.20797361 0.14657544 -0.13420987 -0.17966624 0.16573107 0.034107484 0.18647605 0.07199117 0.11369782 0.12670958 0.035519388 -0.08868161 0.013511682 -0.008344669 0.05931783 -0.17020716 -0.07395805 -0.08508228 0.029523438 -0.052123167 -0.074369356 -0.19859855 -0.14738998 0.12170382 0.13947207 -0.11306169 -0.20846826 -0.12789178 -0.0019482601 0.1280699 -0.01108065 0.07599265 0.007638631 -0.11486647 -0.10762173 0.08318205 -0.057472154 -0.16453947 -0.063386686 0.0293884 0.08139929 0.069255464 -0.035172272 -0.20130272 0.20773466 -0.008190045 -0.051939774 -0.04007503 0.19743514 -0.026911158 0.16104524 -0.099161625 -0.15569694 -0.1558257 -0.07377893 -0.064318776 -0.23147258 -0.19552937 -0.09523127 -0.05491868 0.039011672 -0.16987076 -0.06282323 0.08102502 0.030291175 0.23670179 0.035806637 -0.042396896 0.026437512 -0.098335996 -0.051134538 -0.05591676 0.20869622 0.051432773 -0.21114768 -0.011039745 0.2612024 -0.25088382 -0.03767629 0.049121145 0.020894809 0.37471446
142 -0.16151696 0.11331009 -0.32297173 -0.2856232 -0.07344195 0.036572978 -0.051842745 -0.11565542 0.11820215 0.04684528 -0.08106054 0.025159424 0.08866947 0.41015416 -0.091954455 -0.040300205 -0.01322557 0.036625847 0.23010227 -0.12470422 -0.036647644 -0.09199817 -0.04394461 0.13834046 -0.076916166 0.24910611 -0.07163066 -0.02532553 -0.16174777 -0.056305476 0.07269975 0.23898916 0.10801604 0.07726983 0.096448585 -0.0916504 0.08145318 0.032539953 0.20114295 -0.18587866 -0.1635466 0.122234076 0.20273355 -0.091736056 0.10391241 -0.10761233 -0.19274071 0.07309244 -0.089905016 -0.13947098 0.33661416 -0.08202081 0.1732279 0.20391954 -0.03824312 0.06165484 0.032035884 0.0514238 0.28469956 0.09853789 0.051659096 -0.1707244 -0.21969001 -0.1307792 -0.0026747284 -0.015588948 -0.2663207 -0.1039102 -0.14140336 0.19200808 0.2303003 -0.04383032 -0.056961395 -0.19236706 -0.020149244 0.14572409 0.24465439 0.0150635 0.051196653 0.15094708 0.053091265 -0.15155263 0.02430534 -0.08556291 0.11599669 -0.010736452 0.13063388 0.21061425 0.125981 -0.013054256 0.15285131 -0.00967672 -0.05965513 -0.12761803 0.1863324 -0.075284146 0.17672591 0.0016519192 -0.13283233 -0.14801586 -0.025020525 -0.31933913 -0.25419962 -0.015980376 -0.10984766 -0.022425778 0.0031080996 0.032308392 -0.012331123 -0.017073318 0.007708024 0.06913649 -0.030454006 -0.06709072 0.07957737 -0.037836786 -0.105707735 -0.104095794 0.054361545 0.06727377 -0.14504725 0.05561301 0.19218542 -0.14107232 -0.061802067 0.088495396 0.17943984 0.29297808
6 0.029634792 0.07378805 -0.054102074 -0.30646852 -0.10191045 -0.01464229 0.2260099 0.08413095 0.028636472 0.019753335 -0.0115589155 0.16780244 -0.016824141 -0.17691058 -0.15373535 -0.24354455 0.00326005 -0.18583421 0.012242811 -0.20593302 -0.13398454 -0.19610322 -0.25468725 -0.10050376 0.128452 0.10958238 0.088630274 -0.2570929 -0.12533063 0.097259715 -0.016955933 0.031588085 -0.18527636 0.002700485 0.09633968 -0.14684042 0.13510491 0.07208775 -0.08360289 0.057009917 0.20691928 0.29367703 0.34097245 0.07441889 -0.17080203 -0.29221565 0.049868338 -0.08349754 -0.095260695 -0.12694399 0.25615734 -0.13238652 0.14826724 0.112300076 0.21594556 0.054368805 -0.21212874 0.032539662 0.2134508 0.004606632 -0.028963743 -0.094415665 -0.16030411 -0.020482281 -0.27149758 -0.10231806 -0.03745929 -0.3211123 -0.24128486 0.010193638 0.22924703 -0.1542173 0.05891261 -0.16101767 0.34039357 -0.07701737 0.06139979 0.43188262 -0.0441238 0.0040868768 -0.08895464 -0.005995064 -0.09205446 0.13914345 0.05228845 -0.11453618 0.07510626 0.050285906 0.062024776 -0.23360588 0.11421158 -0.044028636 -0.1576789 -0.16975373 0.0042342916 -0.076386236 0.20133711 -0.011676503 -0.21475433 -0.09977434 0.34530473 -0.13432693 0.16442198 0.018119607 -0.388252 0.1819309 -0.053303655 -0.16716601 -0.00815843 0.023574118 -0.071736656 0.015063185 0.050913602 0.022621298 0.14423852 0.036610115 0.06481779 0.021523928 0.5124898 0.085766606 -0.29720846 0.0966402 0.1337225 0.026628144 -0.1447279 0.2102105 0.43063217 0.07550896
494 -0.036530737 -0.011548066 -0.21219964 -0.23294045 -0.11317711 -0.0053263516 0.06454444 -0.07174596 0.21942058 0.05809582 0.13266642 0.0073283953 0.19673525 -0.045343325 -0.00015934122 0.14069581 -0.17132954 -0.09111862 0.2773608 -0.22477807 -0.0013314076 -0.098362185 -0.111707464 -0.024683144 -0.24046797 0.12712218 -0.07311998 -0.31185803 -0.31788698 -0.22615537 0.18369967 0.07685067 -0.18065543 -0.18725204 0.10369161 -0.14729725 0.15287717 0.04820915 0.23165536 -0.04748387 -0.14236751 0.2217034 0.004964332 0.19528195 -0.11523054 -0.024995804 -0.067761265 0.010726892 -0.20492443 0.065558776 0.34359697 -0.18365343 0.21648297 0.16144411 -0.2194995 -0.080256395 -0.04507196 0.05401016 0.45773196 0.06460601 -0.0006296588 0.021657519 -0.14385763 -0.2541891 -0.11012859 -0.1693906 -0.18312581 0.020548409 0.04030402 -0.047123272 0.2249361 0.017866813 -0.18844399 -0.19083302 0.0670442 0.0010057567 0.021440828 0.12491129 0.027572973 0.09010124 -0.113902934 0.024076099 0.17594965 -0.032687344 0.06345628 -0.10495346 0.047440488 0.31284106 0.12441946 -0.13168296 0.094760306 -0.04691776 -0.033392813 -0.097433604 0.28336066 -0.032785513 0.07677028 -0.10262016 -0.188263 -0.337178 0.06299994 -0.3526776 -0.33815074 -0.18696171 -0.2202754 -0.00018595821 0.03543038 -0.25425366 0.11144051 0.03925208 -0.10548399 0.1403033 -0.15416867 0.019806754 0.06972515 -0.16245218 -0.2055779 0.040940613 0.014557489 0.053106215 -0.06653618 -0.05108258 0.14604685 -0.07054505 0.032212943 0.08035991 -0.15751155 0.080032654
105 -0.030603843 0.053698704 -0.117724024 -0.16285288 -0.1508914 0.0106891645 -0.021743597 -0.09100777 0.14431015 0.03882864 -0.06605945 -0.0036914402 0.18635134 0.24513236 -0.065042034 -0.02117783 -0.022096295 0.039385937 0.09405012 -0.096596986 0.015121477 -0.044185475 -0.036186647 0.2774119 -0.010668025 0.13975134 0.0055846404 -0.051519997 -0.18731697 -0.045339223 0.11879564 0.14149943 0.03590835 -0.05404097 0.1561987 -0.17366776 0.2303339 0.08590891 0.18770805 -0.047358237 0.011378575 0.18088925 0.09930637 0.12561046 -0.08960823 -0.18006809 0.057090867 0.13924746 0.01073003 -0.118048824 0.22909471 0.000792854 0.11557697 -0.08238254 0.12339603 0.09385084 -0.030213676 -0.17505537 0.107237846 0.117461696 0.09107001 -0.29791844 -0.13556612 -0.021001494 -0.112706274 0.04900074 -0.083366685 -0.10730633 -0.2851786 0.040652193 0.15281735 -0.1808539 -0.0779894 -0.12128855 0.06372931 0.13943374 0.088795535 0.16009678 -0.041479535 -0.05133929 -1.6571023e-05 0.034122262 -0.14146487 -0.1145381 -0.08488853 -0.0492132 0.07189594 0.14625579 0.0028034863 -0.17750823 0.1489955 -0.06517215 -0.09318272 -0.27208203 0.13330163 -0.121943064 0.17247388 -0.077617906 -0.1912661 -0.06169335 0.12805441 -0.3556117 -0.17446782 -0.16741721 -0.045011356 -0.07031349 -0.042973347 -0.2709578 0.016782364 -0.018002534 0.042687584 0.14380533 0.106804825 -0.0968181 -0.032797094 -0.11992262 0.071743056 -0.010642199 0.072395205 0.13923095 -0.28154653 0.123558395 0.1827211 -0.072529905 -0.09321902 0.09695093 0.038001813 0.20809492
282 0.080723144 -0.077588566 -0.13201089 -0.21098535 0.013232581 0.065687075 0.0042480845 -0.0019078305 0.055250794 0.07792862 0.057004284 0.0010423168 0.11904954 0.27532184 -0.08459369 0.040025815 -0.15974428 0.017906316 0.2789963 -0.06123519 -0.08444047 -0.10271174 -0.14730774 0.15158191 0.0032244155 0.20249504 0.013487679 -0.08257955 0.034865763 0.017229052 0.116565 0.19382381 0.034136377 -0.058043152 0.035636473 -0.14396214 0.05980076 -0.008711478 0.19542924 -0.24233764 -0.1092172 0.19800062 0.15507293 -0.073566765 0.14855753 -0.16125742 -0.16664897 0.054875173 0.007497742 -0.21722515 0.39587453 -0.21722578 0.20997585 0.09697079 0.089127 -0.0681353 0.05058445 0.21601394 0.3263369 0.100096755 -0.062792614 -0.15881917 -0.17477377 -0.16379653 -0.14896609 -0.059043154 0.04499059 -0.11942119 0.0072344523 0.14274672 0.23279232 -0.08084543 -0.070032425 -0.1510295 -0.094318435 0.016413933 0.016774362 0.070769764 -0.0443917 0.051225856 0.03269206 -0.055164 0.018963717 -0.20452383 0.045352016 -0.108331695 -0.016659707 0.13444169 0.15273972 -0.11742391 0.23335743 0.15980196 -0.14131117 -0.039185505 -0.0044549126 -0.10199994 0.15536578 -0.048371583 -0.059823632 -0.14204942 0.029407134 -0.1375539 -0.38276145 -0.16238809 -0.19574513 -0.03949513 0.0016437218 -0.057985283 -0.22967306 -0.09394523 -0.13151112 0.26193157 -0.03755164 -0.05078035 0.12185793 -0.021358263 -0.18814231 0.014872945 0.07664232 0.035633296 -0.29740444 0.029181117 0.023920666 -0.2914749 -0.09395826 0.056453194 -0.017280797 0.3249632
424 -0.015657417 -0.038859405 -0.13128075 -0.28875002 -0.16343239 -0.013399652 -0.02539248 -0.16024227 0.056507383 0.045991592 -0.17657897 -0.07711763 0.09464444 0.32322547 -0.2056337 -0.04663833 -0.08186756 -0.030444508 -0.02781918 -0.13005652 0.022671128 -0.0797729 -0.022181915 0.21547668 -0.041143764 0.17785056 0.012297056 -0.10349564 -0.14159076 0.011686963 0.10474994 0.08472446 -0.035238113 0.16394918 0.10528126 -0.08777826 0.14284799 0.016489541 0.3213663 -0.17912778 0.08009111 0.09607131 0.03899184 -0.048289947 0.012839948 -0.07868779 -0.10260839 -0.005179934 -0.18640332 -0.020326953 0.30218244 -0.030338658 -0.05705113 0.01977512 0.14544581 -0.077825464 -0.109669544 -0.06663443 0.32163328 0.079935364 -0.029746119 -0.28982288 -0.07995867 -0.29438683 0.020942712 -0.0774067 0.037582293 -0.13197833 -0.073019914 0.12989214 0.22683254 -0.18816811 0.013759827 -0.17014559 0.042134028 0.070977226 0.021915477 0.16132745 0.16995488 0.07087358 -0.04586509 -0.091375366 -0.06182793 -0.18515232 -0.14132486 -0.0018660991 0.024445262 0.17404494 -0.03231922 -0.104037315 0.17958876 0.025407743 -0.13973793 -0.16115136 0.23289838 -0.04023917 0.27063084 -0.08109694 -0.32355812 -0.059864152 0.0763837 -0.22606902 -0.006955295 -0.14106984 -0.26116285 0.015590693 0.0036819987 0.053753648 -0.20620555 0.09364016 -0.024914835 0.21251899 -0.010969492 0.035867594 0.121784225 0.0078017563 -0.32214454 0.020960389 0.107275695 0.104068376 -0.3223393 0.10600888 -0.0054808003 -0.10867606 0.013065809 0.13212027 -0.04250631 0.3004686
83 -0.18351254 -0.054407254 -0.21981126 -0.31931165 -0.12061808 -0.10040651 -0.17262207 -0.3079526 0.05962023 0.27221686 -0.18289877 0.17238683 0.20519789 0.051003702 -0.12041829 -0.20641363 -0.19063929 -0.07309171 0.11163969 -0.12285419 0.012192703 -0.12933512 -0.059719644 0.1905107 0.104569346 0.14536263 -0.019082 -0.1381173 -0.018336194 0.004992272 0.1010254 0.1511157 -0.052708376 -0.09330119 -0.013902474 0.016808635 0.0611775 -0.050926965 0.32879895 -0.017685678 0.08829259 0.0020160964 0.049882337 0.12654619 0.025368571 -0.14043175 -0.07564484 0.14495012 -0.18430017 -0.07808214 0.32838354 -0.09596567 0.22310159 0.08328793 -0.12332196 0.09321654 0.09689789 0.11305344 0.20551376 -0.0021853566 0.0844938 -0.17556429 -0.10750754 0.021815889 -0.026565949 -0.030763278 0.079588585 -0.20844108 -0.17332552 0.0026827198 0.033941463 -0.063774794 -0.054136842 -0.21759994 -0.035098534 0.03075715 -0.16324544 -0.036671024 -0.033971068 0.09899356 0.039179023 -0.075438626 -0.0007525928 -0.15245572 0.043927047 -0.070119016 -0.0094276685 0.038690053 0.1655086 -0.11043394 0.3389832 0.0054628123 -0.01226397 -0.02205073 0.05327003 0.008721161 0.082786374 0.14741825 0.008947907 -0.24097775 0.12010773 -0.21502207 -0.33446816 0.012390607 -0.3016403 -0.3124723 0.01522869 -0.036007006 0.03225025 0.04645839 -0.011203865 0.10651421 -0.011956314 -0.028718947 0.15884872 -0.0738406 -0.11484296 -0.029867034 0.08277833 0.2295792 -0.19065735 0.14270736 0.21664856 -0.11254512 0.11016337 0.29387274 0.15763232 0.08140117
87 -0.15162392 0.07160881 -0.14284988 -0.29901135 -0.091878 -0.059616067 -0.23351118 -0.34693167 0.19235909 0.10541914 -0.107236184 0.062725395 0.2724681 0.20664255 -0.074165836 -0.07015308 -0.18851839 -0.051965397 0.11889081 -0.17698453 0.0011203415 -0.10127669 -0.016410235 0.19648598 0.023457892 0.2644834 -0.07313355 -0.14476685 -0.05344408 -0.08497366 0.042135373 0.017481282 -0.009406784 -0.045178834 0.17343327 -0.19233315 0.0149642 0.10710064 0.17479718 0.020970454 -0.056738317 0.12174857 0.14173254 0.01184218 0.15881631 -0.095035635 -0.17681736 0.02085563 -0.09245759 -0.098173454 0.30724183 0.021609245 0.06822821 0.062137213 0.014773667 0.011874504 0.10911541 -0.10918281 0.2630994 0.118501686 0.22174136 -0.12313697 -0.060079046 -0.061952807 0.037492633 -0.039041653 -0.16941835 -0.0013534138 -0.21888968 0.04801436 0.06749255 -0.067980126 -0.14359629 -0.15276046 0.01998503 -0.036097858 -0.046289966 0.040370133 0.085233174 0.06243575 0.07505275 0.049555734 -0.003204514 -0.11771312 -0.14666615 -0.10078434 -0.1028852 0.046721138 0.038251933 -0.07992653 0.16477816 0.03019197 -0.22170797 -0.09680671 0.13381732 0.018647838 0.07423076 0.028625913 -0.20240925 0.025307657 0.023247998 -0.12909018 -0.1599128 -0.058075894 -0.2952805 -0.17734252 -0.008873024 -0.11511308 0.029141834 0.0939856 0.13122515 0.27461144 0.03436469 -0.0021331029 -0.01629404 -0.091454074 -0.14080307 -0.074993014 0.10338481 0.2162152 -0.22033255 0.19788904 0.14536598 -0.116265826 0.09247753 0.2524311 0.009452602 0.23480499
333 0.13346815 0.00024672793 -0.11339978 -0.24054517 -0.23941305 -0.04107903 -0.06448594 -0.0707778 0.10924262 0.09201446 0.008324763 0.017060136 0.16557251 0.049586173 -0.18001036 -0.064043686 0.10873021 -0.22220562 0.14313713 0.08864759 -0.07196955 -0.20476346 -0.27982727 0.19688365 -0.08343597 0.09185276 -0.08620472 -0.3123285 -0.11695546 0.13779345 0.09810038 0.012526742 0.06181758 -0.01554497 -0.044271596 -0.2654144 -0.09329322 0.06693467 0.14108253 -0.12679926 -0.042578857 0.15928653 0.18979949 -0.29769415 0.068805486 -0.026941929 -0.12725464 -0.0751078 -0.12340927 -0.0718747 0.1848774 -0.21423689 0.29551047 -0.25721717 0.28515348 0.18464735 0.1147985 -0.10457779 0.10005145 0.11197111 0.068643115 -0.23440559 -0.04262806 -0.097888194 -0.3204415 -0.017475642 -0.067204915 0.045045022 -0.1572949 0.09616981 0.10493715 -0.16047955 0.11255777 0.054736286 0.098567575 0.05398889 -0.054595534 -0.07800387 0.10043312 0.029222904 0.015570894 0.056681152 -0.14018379 -0.13858674 0.047592286 0.018451398 0.056190733 0.22411136 0.20786884 -0.39729044 -0.038319685 0.17643154 -0.09518253 -0.12958787 0.15419859 -0.12594002 0.09457473 0.0035147746 -0.32220113 -0.061735038 0.1626353 -0.14799282 -0.008047108 -0.14376491 -0.0802663 0.029924262 -0.003463887 -0.30798942 -0.08007889 -0.039601445 -0.11640027 0.17169157 0.08079867 -0.012326409 0.117145546 -0.08637321 0.022345927 -0.19450769 0.4360067 0.23757191 0.043817528 0.01955532 0.13787049 0.0095902085 -0.09985678 0.21944068 -0.16526818 0.24201538
21 -0.13679872 0.12830816 -0.24548095 -0.16923632 0.031296447 -0.027128175 0.10021129 -0.16514562 -0.0694302 0.01588217 -0.027195893 0.18465313 0.14858371 0.09080112 0.072004706 -0.2454023 -0.10997929 -0.11920413 0.10800239 -0.06213284 0.023528866 -0.12770778 -0.04976703 0.16267589 0.10457475 0.1880832 -0.022859968 -0.13412482 -0.04947936 0.06393311 0.010011534 0.19534443 0.026527863 0.059689347 0.18480894 -0.093406655 0.06200713 0.24354348 0.19432957 0.00955099 0.074970566 0.03566859 0.05752096 -0.03412319 -0.090513125 -0.10864063 -0.080827005 0.115753666 0.18885756 -0.22371826 0.19008385 -0.13485666 0.10019133 -0.12371138 0.30580437 0.31209144 -0.060755536 -0.09048974 -0.07243675 0.11948129 0.08876471 -0.2424509 -0.12613119 -0.014564245 -0.18018682 0.07732998 -0.10427 -0.13494888 -0.18717538 -0.19198878 0.14595768 -0.2194785 -0.16498038 -0.13424139 0.11011887 0.11180488 -0.02510684 0.07958544 0.15263872 0.022813398 0.07976056 0.033205345 0.008733951 -0.27264526 -0.0064215716 -0.0851717 -0.032452695 0.13974907 0.16821258 -0.21389312 0.080551945 -0.04448472 -0.18261144 -0.17962712 0.072717644 -0.1798797 0.050303183 0.059724398 -0.044119418 -0.13077249 0.08311964 -0.2166968 -0.20650403 -0.1767527 -0.10904754 -0.019100241 0.11348334 -0.14684562 -0.24615178 0.0009369322 0.12340049 0.34046605 -0.13948399 -0.060492713 -0.07791913 0.118626654 0.02432882 0.022718484 0.14650212 0.21062906 -0.19371572 0.06923966 0.1022323 -0.12703878 -0.06677011 0.20159653 0.09720768 0.013760802
128 -0.21624608 0.026121655 -0.24343632 -0.11398907 -0.0964635 -0.24301168 0.20785758 -0.10321402 -0.005848638 0.08219163 0.1542959 0.03295444 0.048763804 0.04956747 -0.1341953 0.10831872 -0.17266554 -0.114209175 -0.004625761 -0.14795138 -0.022539325 -0.10532451 -0.12709941 0.14647855 -0.037455004 0.18449809 0.06336968 -0.2342692 -0.102494076 -0.003478018 -0.10149482 0.037025847 0.18936165 -0.032538243 0.099134594 -0.081072114 0.068859436 0.07664661 0.11327426 0.14114544 0.01827325 -0.066506974 0.06898187 0.12847285 0.09721436 -0.28984648 -0.14028445 0.19107626 -0.012348891 -0.001971322 0.1516744 -0.0046058474 0.04966163 0.11512884 0.12819411 0.1427316 -0.058498565 -0.0648175 0.14519541 0.13349713 -0.005915079 -0.12052981 0.0012918875 -0.0017117215 -0.036529165 -0.27598423 -0.14349514 -0.009837272 -0.11760837 0.059864603 0.13796881 -0.15725301 -0.23648554 -0.10914271 0.04967036 0.017776659 -0.027128205 0.2207807 -0.04266068 -0.08824509 -0.22713563 0.040786177 0.120025575 -0.23186964 0.1882416 -0.006244564 -0.15288778 0.29071033 0.12948847 -0.053875078 0.11326244 -0.12879373 -0.038013194 -0.12555945 0.26525444 -0.19305994 0.107317224 0.15360504 -0.17667665 -0.14642586 0.05297723 -0.008438899 -0.12205972 -0.14627121 -0.07755304 -0.08392763 0.023831587 -0.15953112 -0.1399438 0.1386662 0.27292418 0.20388696 -0.20606539 -0.10394874 -0.100508906 -0.077739984 -0.14020444 -0.046230335 0.1745705 0.23127499 -0.16189283 -0.0612747 0.020707972 -0.123833075 0.04500125 0.35826614 0.15676004 0.19553049
106 0.003453312 0.116440065 -0.17137565 -0.06836735 0.079212256 -0.03325227 0.109156154 -0.016426582 -0.016772073 0.103370115 0.015421083 0.21503448 0.108437695 0.16805528 -0.11822261 -0.11648145 -0.19716641 -0.04315096 0.08073455 -0.15031974 0.038277794 -0.15809222 -0.11238624 0.27781025 0.0734146 0.08548308 -0.16889107 -0.041079074 -0.14088397 -0.23520905 0.18538535 0.20797977 -0.032629363 -0.021985224 0.119438484 -0.15841658 0.062105797 0.030721957 0.2802585 0.082764775 -0.037497867 -0.09120011 0.06810152 0.09239235 0.104303546 -0.008115543 -0.27548698 0.08717668 0.043420076 -0.18241972 0.059183784 -0.054918304 0.06779546 -0.07170916 0.25702256 0.19151884 0.0018481917 0.004329472 -0.007679335 0.02385005 0.09879092 -0.21102719 -0.10729659 -0.25116658 0.11086808 -0.025593212 -0.12642002 -0.13479622 -0.14484684 -0.06585352 0.077066705 -0.16552645 -0.117315456 -0.13516912 -0.02094575 0.085321315 -0.057090748 -0.15275398 0.031738117 -0.005515977 -0.10221676 0.05110748 0.12945881 -0.28635204 -0.1324604 0.06736507 -0.040055268 0.26989105 0.05231153 -0.2501967 0.22107016 0.06704061 -0.24884297 -0.10467545 0.19167085 -0.17347564 0.13235123 0.037839517 -0.0049592694 -0.19623902 0.19199736 -0.26243275 -0.21477897 -0.1406515 -0.13613719 -0.04356997 0.019665616 -0.289196 -0.24375772 0.07497521 0.13343197 0.33955243 -0.09648815 0.062385846 0.00095269165 0.096459515 -0.043490253 0.058225296 0.04311042 0.0077403956 -0.24360001 0.0972407 -0.040181387 -0.2518197 -0.08603517 -0.06734181 -0.039822664 0.106694065
283 -0.2140915 0.07323201 -0.31329644 -0.3718924 -0.25103846 -0.09101815 0.032886326 0.03863336 0.1012726 0.09871695 0.08292601 0.114089444 0.14975204 0.20305936 -0.018922817 -0.048367362 -0.21402764 -0.078951284 0.020806774 -0.12268249 -0.024702102 -0.2568661 -0.03322433 0.092630915 0.0689585 0.13934492 -0.08558712 -0.1840509 -0.06524254 -0.04076242 0.12793697 0.21667822 -0.024624627 -0.031964563 0.09058321 -0.100896835 0.15205385 0.006497599 0.22146547 0.095485136 0.2210124 0.2326484 0.10301371 0.011651214 0.03142865 -0.2338461 -0.16273569 0.18203692 -0.086559094 -0.22987093 0.3131606 -0.055795107 0.1375712 0.08756676 -0.008177323 0.024604974 0.028952323 0.049614113 0.11741369 0.06799135 0.04204529 -0.34532195 -0.0061155073 -0.13324836 -0.0254498 -0.059273418 -0.05460035 -0.18533915 -0.25383022 0.10688429 0.17000717 0.07056503 0.08179767 -0.060952514 0.044039834 0.04731524 -0.039356694 0.093142666 0.083080865 0.07341008 0.01982816 -0.12668832 -0.027121931 -0.14185345 -0.04249429 0.14112084 0.29043606 0.1215009 0.18980582 -0.120002955 -0.026628839 0.050815046 -0.12661096 -0.18131092 0.26114815 -0.17364864 0.1799681 0.09109813 -0.022742229 -0.17095964 0.10579344 -0.18011485 -0.106728286 -0.1269486 -0.07100584 -0.1902974 -0.026229916 -0.14564875 -0.07800129 -0.16099134 0.06788376 0.10350381 -0.13015634 -0.13602869 0.00796672 0.03243872 -0.066734724 -0.07439945 0.047178503 0.11881928 -0.22315833 0.20168868 0.096376434 -0.042596083 0.026356181 0.12509118 0.13935116 0.03980204
820 -0.25997236 -0.13139424 -0.08627658 -0.22461824 0.0318982 -0.20262158 0.016228907 -0.21966597 -0.023608996 0.03272738 0.033515476 -0.09058898 0.12157276 0.2927498 -0.21546115 0.036051303 0.15480424 -0.0090570655 -0.07013328 -0.19305061 -0.16618478 -0.085937046 -0.102014296 0.17116287 -0.12397109 0.14976205 0.15127754 -0.20229618 -0.022482682 0.0403831 -0.11170454 0.15671578 0.19578163 0.108996525 0.18206505 -0.03973885 -0.056006048 0.20627543 -0.10994632 0.024924299 0.023990666 0.13410631 0.06606472 -0.07860619 0.1674194 -0.3277414 -0.094818845 0.020266442 0.035017326 0.049335048 0.31276268 0.018743075 0.08427736 0.023137264 0.10856351 -0.030225003 -0.011015022 -0.06347512 0.3225108 -0.020024044 0.17598265 -0.24338117 0.05872804 0.09139639 -0.02405433 -0.12742345 -0.028100044 -0.05616657 -0.061221726 0.10031177 0.12113877 -0.38229412 -0.15378879 0.09930189 0.08395759 0.06764075 -0.053567186 0.3232178 -0.13842046 -0.18021509 -0.05668682 0.007317783 -0.036854584 -0.097034544 0.15482304 -0.049827613 -0.17410631 0.12790406 0.14272289 -0.09055887 0.16560443 -0.2878647 -0.13442329 -0.1176164 0.07006704 -0.09173245 0.17099565 0.1622161 -0.3037366 0.024580203 0.16248733 -0.0067866393 -0.18119554 -0.092870116 -0.03539476 0.0017010311 -0.124084 -0.20162256 -0.13663031 0.061557677 0.15867439 0.123054445 -0.06891741 0.02237747 0.016162185 -0.08194474 -0.06692307 -0.1701286 0.17183936 0.17913568 -0.20040764 0.020583294 0.016626948 0.07492478 0.13941829 0.18716043 0.07345637 0.28592387
96 -0.037319425 -0.067501344 -0.09683842 -0.2045035 -0.2696045 0.13674462 -0.01253374 -0.42253575 -0.07370906 0.0749446 -0.20434567 0.12386846 0.123484604 0.03779275 -0.27424952 -0.11707486 -0.032880783 -0.14126153 0.34089327 -0.10111856 0.12296693 -0.07617152 0.2953651 0.13618447 -0.08290651 0.12575658 -0.16259219 -0.1417815 -0.11338588 -0.23891848 -0.002115831 0.05405338 -0.012296213 -0.10957847 0.11076917 -0.28402916 0.10368558 0.15373357 0.08923835 -0.24332999 0.266122 0.053669788 0.120113626 -0.095009424 0.016318291 0.03022708 0.03905462 0.033078894 -0.3407092 0.0771965 0.015059691 0.03818018 -0.06038237 -0.060499456 0.32488602 0.034780934 0.06707045 0.0597316 0.17219496 0.38479304 0.11279535 -0.28164586 -0.090742856 0.05539095 -0.12704755 -0.00955305 -0.24194273 -0.006068923 -0.1733532 0.14091001 0.11377802 -0.3263647 0.0988343 -0.12244796 0.06375516 0.26596695 -0.16063637 -0.06028259 -0.07226404 0.038945768 0.18925852 -0.18353058 0.11852142 0.011325285 0.1460345 -0.0047618034 0.02986569 0.07097323 0.12440407 -0.16745435 0.15986757 -0.02050189 -0.2017608 -0.35949606 0.07712288 -0.27507603 0.04670498 -0.06607347 -0.29892164 -0.11576336 0.35364518 -0.32525885 -0.07471395 -0.17526764 -0.20387153 0.063724644 -0.025074756 0.010950283 -0.058463432 0.21266407 -0.08748398 -0.092648745 -0.11085613 -0.05883134 0.14113492 -0.17621543 -0.0047397823 0.1632152 0.13227874 0.14994976 0.066647634 0.18667012 0.23941964 0.11379191 -0.041459847 0.21579498 0.14898796 0.14024177
114 -0.20335655 0.07492268 -0.13954537 -0.039130986 -0.12118182 -0.006409485 -0.06861142 -0.1496223 0.17943674 0.1479194 0.043380756 -0.018583208 0.2609901 0.006570129 -0.220843 -0.039607942 -0.02066368 -0.22347137 0.09292053 0.043742504 -0.022538858 -0.060066286 -0.015802354 0.09119755 -0.18049924 0.17161751 0.083706096 -0.2542153 0.03168304 -0.082882725 -0.06500224 -0.24635419 0.04118971 -0.09285821 0.19690281 -0.26084095 0.012588239 0.18082365 0.06266273 -0.08427761 0.06647508 0.111173905 0.068717726 -0.11431302 0.091889195 -0.039453536 -0.16642104 -0.093896404 -0.148336 -0.04973077 0.16631007 -0.07945592 0.08465573 -0.09119068 0.070046835 0.07909534 0.06436242 -0.0772976 0.26011074 0.20734201 0.082991 -0.39193985 -0.031574484 -0.291831 -0.23174651 -0.04668852 -0.22891341 -0.013178057 -0.2425433 0.15612757 0.02583751 -0.015056385 0.024403153 -0.11254805 -0.010637798 0.043788254 -0.061239637 -0.008991168 -0.034799714 -0.029361622 -0.020882191 -0.10277574 -0.021571726 -0.3176685 0.01015476 0.020728005 0.21045287 -0.036191344 0.17627725 -0.24991767 0.11659249 -0.044093464 -0.24072866 -0.12224409 0.17472042 -0.12662879 0.12704511 -0.021474991 -0.43146637 0.048196398 0.027336594 -0.15134513 -0.11474067 -0.26862487 -0.010073861 0.105552234 0.026714852 -0.16379069 -0.17658862 0.020490898 0.12820329 0.11456178 -0.12832391 -0.15311743 0.04710141 -0.14034583 0.02635627 0.022535084 0.19945602 0.1862563 0.018064737 0.07068372 0.23723625 0.012743403 -0.19317114 0.35267925 -0.04133901 0.21996732
256 -0.06970271 0.0046060155 -0.030955398 -0.21509568 -0.082010835 -0.1846264 0.04712373 -0.118094295 0.039392486 0.14648257 0.054453544 -0.032643985 0.17571041 0.10231135 -0.079214446 0.020497719 -0.21991457 -0.13851896 -0.13077332 0.07643884 0.023506802 -0.16035426 0.009916857 0.18589711 -0.08951793 0.09524538 -0.054710347 -0.12728383 0.06713543 -0.0714964 0.052735955 0.12815446 0.13117778 0.16469453 0.2795775 -0.22901061 0.008739889 0.20572338 0.24342528 -0.11294023 0.03160752 0.116340876 -0.07017799 0.04967686 -0.025353475 -0.32713804 -0.17523324 0.046397474 -0.0025152718 -0.1986828 0.17651953 0.098202445 -0.05503448 -0.19020693 0.051790252 0.1635839 0.012222616 -0.13821565 0.16860394 0.15482643 0.13298112 -0.38953426 -0.06843278 -0.27391028 -0.08632934 -0.0831591 -0.062513456 -0.10700854 -0.32798183 0.08782075 0.17838928 -0.0417168 -0.16364114 -0.18350305 -0.019240314 0.09960452 0.07737924 0.19649036 0.10633078 -0.014157311 -0.08784613 -0.030157251 -0.01965396 -0.27943122 -0.017610848 -0.16121005 0.18676107 0.18325934 -0.0813603 -0.08905361 0.15041785 0.030356118 -0.15549898 -0.31167808 0.0778952 -0.2319974 0.20416541 0.083231896 -0.16192588 -0.13425393 0.06386793 -0.20906137 0.058393996 -0.16758333 -0.04436825 -0.015340446 0.01990318 -0.0862844 -0.00053305307 0.01870507 0.009571723 0.1842245 -0.022609482 -0.08444047 0.13256556 -0.00232304 -0.037970766 0.0068604355 0.065581866 0.10700769 -0.30653274 0.06664451 0.15343153 -0.26685953 -0.12034852 0.35912946 0.2278458 0.026124181
546 -0.11491471 -0.122202106 -0.19702461 -0.005350716 0.08241993 -0.067157805 -0.0673195 -0.018541371 0.041968193 0.022550877 -0.026300766 0.18135361 0.08961584 -0.05626437 0.015400992 0.1760943 -0.08035042 0.13866164 0.18075939 -0.1342383 -0.040522486 -0.37845656 -0.12979816 0.057340786 0.1569192 0.08728238 -0.17720674 -0.4027975 0.16607632 -0.23673774 -0.06808359 0.081898935 -0.04122242 0.11398817 0.16949934 -0.22736844 -0.17546088 0.1142804 0.13248575 0.044200018 -0.19177839 0.10298963 0.07880015 0.10871029 0.39035892 -0.37995818 -0.14699346 0.14978363 -0.086024925 -0.17399627 0.22293842 0.027261395 0.22984567 0.15065715 0.0893979 0.013305199 -0.059237704 0.036820047 0.30300918 0.005182506 0.13102269 0.1336412 -0.05226642 0.03816837 0.015275236 0.06414445 -0.004569585 -0.11164585 -0.49504805 0.32611132 -0.103390604 -0.11820111 -0.027021237 0.009337104 0.03738764 0.17264713 0.12118576 -0.067768306 -0.029336968 0.08735227 0.023206996 0.047831018 0.21944836 -0.18322194 0.36184514 0.09888543 -0.055433985 0.23514394 0.009694628 -0.22147761 0.50697273 0.053360607 -0.20300873 -0.20608714 -0.16347462 0.06223169 -0.05302789 0.025835032 -0.28157914 0.020057922 0.17020725 -0.24355346 -0.32913262 0.002463075 -0.117075734 -0.105354585 0.012354106 -0.16450472 -0.22737348 0.35409388 0.02742934 0.20449208 0.07218037 -0.14542685 0.1635506 -0.08081578 0.03699695 -0.13383667 0.077550545 0.06115985 -0.19541514 0.16051097 0.4007477 -0.08671156 0.00939988 -0.13575774 0.00045069258 0.053693727
411 0.1778336 0.29183784 0.21456638 -0.24568221 -0.19833118 0.2334282 -0.025263332 -0.06303363 0.10338468 0.23124063 0.104593664 0.2720627 0.18923637 -0.104462005 -0.12009589 -0.2759496 0.010065329 -0.099679686 0.51874036 0.07129711 0.048194405 -0.05594389 -0.14704156 0.03380117 0.08504193 0.1191605 -0.12374373 -0.05142449 -0.025654772 -0.018785423 -0.045902636 0.20033808 0.020137403 -0.21916853 0.100914545 -0.27002773 -0.0030694525 0.40674806 -0.053854365 -0.08971049 0.18627752 -0.14691287 0.07665325 -0.012236614 0.45174176 -0.14988646 -0.22915448 -0.0020594725 -0.06688016 -0.10097919 0.019622793 -0.036181338 0.028704748 0.06839205 0.51604486 0.11375397 -0.03170037 0.16158292 0.012257154 0.29989558 -0.0072274567 -0.15724295 -0.04586649 -0.10955195 -0.09479376 0.099511646 -0.15077707 -0.20773135 -0.02918118 0.092029355 0.31023887 -0.11171338 0.097258724 -0.17344293 0.13338949 0.34502965 -0.24354191 -0.13340417 0.02124297 0.029928764 -0.11346363 -0.07821452 0.015718289 0.09967952 0.18833704 -0.040741913 0.09551581 0.13160951 0.15344077 -0.4353744 0.091749355 0.20984377 -0.0976296 -0.12220899 0.110073425 -0.123170614 0.019091316 -0.15425818 -0.23789582 -0.4511674 0.36466733 -0.22867405 0.21660136 -0.21975338 -0.20482017 0.05225037 -0.08475275 -0.28748876 -0.09330578 0.14767271 -0.14142509 0.14827873 0.07858295 -0.076783545 0.24008071 0.046598777 0.0024771914 0.1963521 0.028335974 0.06905639 0.095935725 -0.04821946 0.20742118 -0.1706909 0.063561305 0.13179491 0.34377083 0.14633028
405 -0.08152156 0.19242151 -0.23936433 -0.22536248 0.026044047 -0.07325328 -0.08731432 -0.058211695 0.09713655 0.02296315 -0.030182865 0.08504016 0.3053307 0.19642814 -0.17341645 -0.015772128 -0.110697046 -0.18579404 0.019359317 0.07691096 0.039874442 -0.2070848 -0.14761436 0.071745716 -0.06927704 0.12253194 -0.04484834 0.08722345 -0.008039543 -0.21180329 -0.038280666 0.060633678 0.12025197 -0.050465427 0.2884948 -0.10372614 -0.13813971 0.07575566 0.11911643 -0.0375006 -0.08028811 -0.06551705 0.02827382 0.07957684 0.09399606 -0.123942696 -0.36702654 -0.09935913 -0.15275191 -0.06878672 0.1972855 -0.23915853 0.0074751084 -0.019651648 0.13951573 0.27103785 -0.0106655685 -0.271196 0.18137132 -0.08375252 0.06739984 -0.12586996 -0.25341627 -0.4061967 -0.0012837066 -0.0014945667 -0.11533223 -0.1200815 -0.24786955 -0.061261702 0.23129548 -0.009446105 0.13880824 -0.0910605 0.051843654 -0.06498229 0.13779964 -0.07579021 0.13960353 -0.009502524 0.043106154 0.0053656683 -0.2063147 -0.15222512 -0.18622056 -0.07148241 0.23427504 0.16089705 0.016443249 -0.1543261 0.15709765 -0.028168578 -0.29471633 -0.0621338 -0.0010810695 -0.024911622 -0.004986222 0.11698963 -0.33196336 -0.24771751 0.12023467 0.01494081 -0.034311377 -0.15217467 -0.20680487 -0.13576588 0.039163228 -0.18837084 -0.045487955 -0.058303047 0.18261333 0.4502929 -0.031436935 -0.07005626 -0.24441907 0.15143141 -0.11307836 0.14154601 0.17990632 0.2962126 -0.20041062 -0.06839078 0.15358798 -0.10452131 0.07657356 0.2506319 0.112553716 0.17064996
473 -0.06390849 0.20921351 -0.10530095 -0.12446634 0.086147286 -0.09713694 0.034468617 -0.0815148 0.074034184 0.13783371 -0.13061291 0.04191688 0.38076156 0.009981594 -0.0054784114 -0.1292062 0.12154268 -0.07729758 0.10054142 -0.18823276 -0.22040555 -0.018697739 -0.21839918 0.29834807 -0.08371643 -0.04879982 -0.07876935 -0.21255495 -0.11646939 0.0699966 0.0071374755 0.15130502 0.11406891 0.08055812 0.10124777 -0.20679215 -0.07098087 0.18368343 0.11651021 0.061615568 -0.16422375 -0.07300587 0.3740874 0.041679986 0.16918153 -0.013279281 -0.1244662 0.024777029 -0.041620962 -0.23867992 0.2962924 -0.06841375 0.1082817 -0.03222417 0.08533719 0.1388091 -0.11803433 -0.1821423 -0.058335632 -0.14931767 0.07460452 -0.052488636 -0.036500197 -0.0016876674 -0.22167227 0.009040934 -0.19657916 0.0039709685 -0.113602534 0.04819502 0.08901208 -0.19783135 -0.18467797 -0.0848872 0.09376748 0.14278293 -0.07518347 0.10569961 0.049174737 0.021525636 -0.20716622 0.14206317 -0.014904282 0.010608342 0.0071308357 -0.033245265 -0.025763003 0.15935928 -0.021937765 -0.24996722 0.1971679 0.00015888104 -0.040520668 -0.21028885 -0.058743 -0.02702233 0.0873731 -0.09434351 -0.15272127 -0.12516728 0.14705636 -0.17615464 -0.13531351 -0.12594493 -0.08385722 -0.13485949 0.19240548 -0.22600745 -0.06619514 0.48237866 0.0912339 0.3244836 -0.028596425 -0.0522162 0.021999432 0.11268988 -0.119174875 -0.24812496 0.22207594 0.13258259 -0.14797117 -0.033737026 0.33969584 0.049865764 0.16558635 0.37053138 0.119118296 0.14859083
115 -0.22670658 -0.020820115 -0.2419103 -0.3720411 -0.000595656 -0.014875747 -0.15033127 -0.21479653 0.032191575 0.019060634 0.025432188 0.1744699 0.2714514 0.19367906 -0.12586007 -0.04731158 -0.016127652 -0.23160556 0.025512774 -0.1189713 0.06431264 -0.035266466 0.101481184 0.1505884 -0.11523839 0.050300803 -0.16504858 -0.09403767 -0.14400494 0.077695735 0.11922575 0.1503647 0.07520236 -0.18675566 -0.007389413 -0.24698073 -0.067180306 0.23843394 -0.010630067 -0.11548732 0.10334379 0.20858341 -0.1298287 -0.007090384 0.16123389 0.032011006 0.018780999 0.13012865 -0.22938667 -0.036345966 0.30799985 -0.04878744 0.26279497 -0.075044915 0.14865024 0.0033607306 -0.044955567 -0.1776604 0.22022949 0.14866278 0.23180708 -0.17450438 0.102802195 0.015977414 -0.08952135 -0.006916208 -0.09791462 -0.008468412 -0.077428095 0.22195704 -0.018084424 -0.27090484 -0.07520205 0.07946309 0.023044752 0.1751741 -0.14333291 0.028555306 0.044725798 0.071896724 -0.042631105 -0.08224557 0.0056050373 0.079788506 0.19252422 0.058691707 0.13886556 0.25133103 0.117587574 -0.29113644 0.104551665 -0.16744468 -0.021249484 -0.16863559 0.106276184 -0.13937166 0.08180612 -0.005325948 -0.16372217 -0.17455624 0.1732796 -0.14681593 -0.044447526 -0.283114 -0.009742636 -0.1574466 0.07748526 -0.21875235 -0.013670767 0.13685182 0.15695375 0.046752837 -0.05137743 -0.069710895 0.20591381 -0.12117743 -0.028208582 -0.10561492 0.11084178 0.116401955 -0.012373573 0.20536637 0.19205187 0.047708243 0.10356558 0.2148654 0.028423222 0.1960076
280 -0.3444857 0.08716793 -0.20059526 -0.29841164 -0.19671626 -0.0563091 0.1203541 0.020679994 0.013302566 0.09767693 0.17894918 0.07399003 -0.05095395 0.16667153 -0.22174747 -0.034551963 -0.09851259 -0.19989677 0.059227545 -0.16444053 -0.22637974 -0.03314435 -0.00065588707 0.15616651 -0.12403641 0.035525188 0.05016366 -0.0977596 -0.05996717 -0.040845554 0.05532044 0.13323794 -0.024822291 0.14631866 0.21371393 -0.18055782 0.016649913 0.1760378 -0.09173552 0.036050957 0.043731403 0.10512107 -0.06727341 0.13128427 0.11343051 0.009360477 -0.14977324 -0.12726784 -0.07859214 0.049147703 0.091736086 0.114685416 -0.013962229 -0.09968031 0.094244316 0.11439033 -0.110328384 0.07369424 0.20562397 0.034844417 0.07740516 -0.33821353 -0.07482781 -0.13200027 -0.028665422 -0.29836944 -0.036876094 -0.19302677 -0.062409844 0.0491165 0.16005534 -0.03497578 -0.1293727 -0.08293544 0.09199291 0.22442204 -0.18963583 0.14746134 -0.00432937 -0.05321002 -0.12228986 0.0340548 -0.071929105 -0.101677425 0.05778707 0.07377263 -0.041338395 0.07443702 0.1074307 -0.12772442 0.08026937 -0.12175951 -0.156472 -0.22762045 0.16323002 -0.27391464 0.14062229 0.15603931 -0.03915627 -0.15954094 0.10093732 -0.10321857 -0.14683247 -0.06885189 -0.026253283 -0.09089073 -0.027911354 -0.11587941 -0.050474066 -0.037619554 0.13384016 0.039585 -0.24520114 0.044685178 0.03648598 -0.12416495 0.017233841 -0.039152086 0.16342074 0.089443795 -0.28430676 -0.025900843 -0.14833407 -0.076313466 0.1390993 0.13132389 0.16016245 0.11092881
409 0.0566586 -0.10481837 -0.1678838 -0.078671426 0.19638911 -0.08186499 0.33087626 -0.269088 0.17559305 0.03436402 0.057763167 -0.002504368 0.2569086 -0.033147242 -0.11515333 -0.017722944 -0.19217515 -0.2802547 0.3194009 -0.085513 0.043933176 -0.14567773 -0.10377473 0.12943201 -0.18483615 0.25545135 0.13513999 -0.27392155 0.05492973 0.07728075 -0.027919445 0.09150533 -0.15682584 0.078275904 0.061053798 -0.3268155 0.37106997 0.22514255 0.22880074 -0.14321163 0.12547338 0.15694109 -0.081332654 0.17797111 0.0909732 0.11791508 0.15431498 -0.21110786 0.070275575 -0.09316652 0.2982699 -0.20022568 0.23999928 0.059831057 0.14834964 -0.057810612 0.24262853 -0.17720163 0.12597197 0.21341613 -0.038772125 -0.20914492 -0.10054631 0.14918765 -0.11881625 -0.28933343 -0.08060256 0.06283765 0.06958441 0.0235271 -0.10258074 -0.12617189 -0.17180632 -0.5156602 -0.061308876 -0.19465062 0.14941482 0.33207798 -0.037208505 -0.12354297 -0.08390049 -0.05427947 0.14258061 0.097665824 0.013373287 -0.273529 0.0548592 0.37194613 0.09905518 -0.2417808 0.31815583 -0.023426104 0.16505064 -0.017315244 -0.02789324 -0.041407473 -0.09391437 -0.11172274 -0.26947728 -0.08844031 0.20524384 -0.48144487 -0.39804703 -0.26583713 -0.12073592 -0.07314411 -0.10550919 0.1263234 -0.19871707 0.27082875 0.029047247 0.15434316 -0.19954912 0.07958145 -0.07487042 0.07431295 -0.19709082 -0.12892927 0.28464273 0.14666073 -0.08213729 -0.18181302 -0.17117175 0.09205654 -0.15551165 0.26526612 0.05427906 0.084000416
366 0.13799454 0.044340342 -0.1754334 -0.21308057 -0.15219502 0.11640844 -0.035137836 -0.14120075 0.07823574 0.109106116 0.10921252 -0.105046764 0.2972119 0.42868078 0.093935944 -0.0423852 -0.1478191 0.1267085 0.16381538 -0.10475074 0.0851684 -0.054479048 -0.26756006 0.3056284 -0.05967232 0.008691816 0.03173282 -0.007604473 0.1118297 -0.09401547 0.21835451 0.13765138 -0.06261821 -0.15653196 0.059790526 0.099329844 -0.021117035 0.11068804 0.13741414 -0.053558346 -0.0005930454 0.28519347 0.025538022 0.07802681 0.10440317 -0.20590143 -0.04263731 0.030004706 0.10788088 -0.21935314 0.36887068 -0.21981849 0.36085042 0.06961026 0.036551047 -0.015945015 -0.09681523 -0.013161653 0.18837166 0.014197278 -0.024764158 -0.24854179 -0.06314274 -0.32592377 -0.021135028 0.19375479 0.09770996 0.02167508 -0.18680768 0.10750083 0.06746706 -0.10050912 0.045567244 -0.10331707 -0.08179199 -0.06674966 -0.07484781 -0.12701386 -0.034729473 0.008175647 0.04123456 -0.061552413 0.072639175 -0.07429666 -0.048790015 0.004097455 0.27471623 0.31628662 -0.0139420265 -0.22721647 0.06542519 -0.1549612 -0.12432553 -0.11632054 0.25473002 -0.0012114092 0.1522264 0.05155108 -0.19740513 -0.23177455 0.17027843 -0.14279747 -0.24462838 -0.31010464 -0.0353588 0.008625129 0.105799414 -0.335108 -0.31211832 -0.011014819 -0.026783448 0.114226975 -0.18457495 -0.0032264173 0.15798569 -0.014131093 -0.1826009 0.07111371 0.24242164 0.14235398 -0.2325888 0.1607468 0.18689972 -0.09880906 0.14117984 0.0013282384 0.0047749374 0.23161307
133 -0.38248143 -0.17460673 -0.09038717 -0.03907293 0.081540756 -0.20678002 0.05061668 -0.048568122 0.06854922 0.02540688 0.11774065 -0.034226418 0.023069175 -0.029645253 -0.20068306 -0.1169013 -0.16878717 -0.14614858 -0.11972808 -0.023315849 0.036724396 -0.13269164 0.02045437 0.035140753 -0.16803174 0.049156737 0.15346389 -0.19858418 0.026248239 0.06996252 -0.02882518 0.100788094 0.10324895 -0.015232885 0.20475978 -0.24971847 -0.08002526 0.24876642 -0.076488644 -0.13409425 0.19788706 0.2501489 -0.036169745 0.12749346 -0.018619979 -0.0073543587 -0.06208777 -0.004945725 -0.11020371 0.028184686 0.115491375 0.018236442 0.12161987 -0.18439582 0.115518264 0.116151445 0.0042327656 0.051002853 0.31654486 0.1473683 -0.016917346 -0.19033144 -0.03673088 -0.11568398 -0.313618 -0.24942675 0.08149348 -0.18591549 -0.058624912 0.12200774 0.06355617 -0.100656405 -0.26864994 -0.053187747 0.12619801 0.08703786 0.028972952 0.27589232 0.0772335 -0.095038876 -0.20343661 0.010122457 0.17312281 -0.117970124 0.13659026 -0.080882944 0.19808857 0.21413992 0.08332062 -0.15093991 0.17014422 -0.0399962 -0.16633298 -0.2733033 -0.01701269 -0.25428268 -0.018114062 0.047946002 -0.12762672 -0.22553049 0.03942908 -0.08725282 -0.042194474 -0.21909554 -0.040467646 0.018614888 -0.002080969 -0.14488263 -0.117359385 -0.045206547 0.28371456 -0.103248835 -0.06634413 0.0011173689 0.15632108 -0.20573121 0.029964048 -0.12731056 0.20689914 0.052649703 -0.22782151 0.07855281 -0.004865514 -0.11658021 0.1331594 0.40422603 0.05244626 0.0946371
212 -0.10827504 0.038615115 -0.26319593 -0.34181103 0.07841705 -0.121528395 -0.07583674 -0.1257198 0.022562765 0.13126564 -0.1011509 0.13694601 0.17824133 0.119135275 -0.09293909 -0.024160286 -0.044441897 0.03900572 0.07643308 -0.07091318 -0.14446199 -0.12052883 -0.24068451 0.15621334 0.081791036 0.21046348 -0.05305902 -0.046267655 -0.26620984 0.017848583 0.08730492 0.1940129 -0.026869405 -0.028725892 0.09859015 -0.22441444 0.0077978945 0.1023575 0.34037605 -0.031648386 -0.25725076 0.18384834 0.08845469 0.011860076 0.07199444 -0.20657744 -0.07774136 0.12253276 -0.068802305 -0.08226315 0.2932637 -0.11274437 0.043517508 0.053763904 0.07228388 -0.036696613 -0.095596634 -0.02756223 0.19010963 -0.052530717 0.10658232 -0.18283932 -0.15551876 -0.114172466 -0.06798031 -0.0021848998 -0.15893607 -0.17708334 -0.14947721 0.10013445 0.19624124 -0.1124415 -0.19736888 -0.0888511 -0.067807704 0.12725168 0.114415735 0.123046815 -0.020954687 -0.050056532 0.027487297 0.07866029 -0.09701511 -0.06739915 0.003943197 -0.07859254 -0.06559361 0.109074935 0.04415675 -0.15032129 0.24671933 0.14278148 -0.064113945 -0.15464687 0.19504651 -0.050046712 0.08722748 -0.0342719 -0.16315936 0.0031100842 0.16235135 -0.29279867 -0.20140027 -0.071741335 -0.18071851 -0.055277135 0.03126793 -0.33534274 -0.0045591695 0.064235836 -0.0055481037 0.15190144 0.14421402 -0.08594082 0.053759456 -0.017364468 0.052606165 -0.16975981 0.00050318096 0.09107062 -0.25149053 0.03896995 0.18505123 -0.09752841 0.01972641 0.132513 0.009922227 0.22140503
65 -0.086202994 -0.1339424 -0.21198118 -0.0459987 -0.13304976 -0.21006526 0.18652001 -0.16545935 0.23694812 0.18085976 0.11788667 -0.19270192 -0.021870913 0.32163018 -0.1419135 0.18982214 -0.052467093 -0.15695064 0.13540062 -0.15816675 -0.06637401 -0.30695468 0.14043964 0.06298015 0.010825739 -0.008160932 0.17386349 -0.062552124 0.14743462 0.023972543 0.2415255 0.17344286 0.08720687 0.2724252 0.015341476 -0.1058474 0.20967041 0.05177418 0.00030996779 0.18494104 0.25315088 0.20567252 -0.038002264 0.05266826 0.06422721 -0.13432503 0.068005726 -0.20078973 0.0070396755 0.024740651 0.008701867 0.13573037 0.28210595 -0.1490388 0.06111122 0.11992781 -0.014293246 0.022752494 0.33704814 -0.06943434 -0.071480125 -0.13784339 0.04144676 0.07621806 -0.12385229 -0.33482507 0.28435478 -0.26255724 -0.14820907 0.39208832 0.046977334 -0.0719221 0.13965614 -0.15517312 0.11249272 0.018470176 0.0859656 0.12140479 0.13920988 0.009147475 -0.16590588 0.13196163 0.060540013 -0.06600398 0.3892322 0.044373833 0.2717513 0.18939956 -0.13725369 -0.2279063 0.10246256 0.057802394 0.17382392 -0.24312608 -0.10484645 -0.24118394 -0.07501304 -0.018683594 -0.20360021 -0.17410459 -0.08641554 -0.22951272 -0.21759218 0.00385499 0.21291073 -0.13782498 -0.3298847 -0.18426153 -0.29151854 0.10501237 -0.12134733 -0.0958218 -0.18501364 0.19680692 -0.071596004 -0.28446743 -0.19988069 0.08783981 0.2962234 0.06936847 -0.37092453 -0.075888306 -0.15325582 -0.36592305 -0.08345464 0.35816282 0.32838047 0.22787683
58 -0.038341552 0.27077132 -0.20488718 -0.34448102 -0.21978566 0.12712502 -0.21728398 -0.2856591 0.064613916 0.20464581 -0.02671563 0.09407242 0.15383784 0.04217664 -0.21912386 -0.16477796 -0.14197768 -0.06617651 0.38415855 -0.101978496 -0.018284857 -0.1715833 -0.048859004 0.13693863 0.061282072 0.23629652 0.01395788 -0.05365895 0.07923294 0.10379594 -0.0096028745 0.058756493 0.057550624 -0.044721235 0.15632685 -0.24233264 -0.0752834 0.17687298 0.12782356 0.058995355 0.058034975 0.22693804 0.3695379 -0.011396584 0.24254118 -0.17584194 -0.14853846 0.08377083 -0.05462217 -0.10873978 0.233996 -0.15179847 0.23205362 0.100542165 0.18156621 0.07418582 -0.066741176 0.12352551 0.24843383 0.10986277 -0.027089035 -0.19966185 0.04881369 0.091427155 0.02740102 0.029001597 -0.06909871 -0.16572353 -0.13902521 0.35708058 0.08376211 -0.00075603527 0.07687982 -0.15530187 -0.047009822 0.13275738 -0.004145239 0.017919943 -0.014092091 0.053362772 0.045768265 0.11070586 -0.1017883 0.012201543 0.16129735 0.01066674 0.072773926 -0.04038226 -0.004930637 -0.16934976 0.09691686 0.019269895 -0.23571366 -0.011088815 0.062551714 -0.038211934 -0.036656037 -0.03515875 -0.22673458 0.015948799 0.22180966 -0.061002783 -0.11907076 0.0062445556 -0.18941544 -0.0059334636 -0.12776695 -0.21230933 -0.043564934 0.11974519 -0.06217736 0.052666318 0.08621765 -0.0393749 0.23638473 -0.08056686 -0.051767252 0.022482406 0.020382091 0.1626844 -0.12807189 0.049668036 0.21687382 -0.03385885 0.11487719 0.08557259 0.02285564 0.098604225
419 -0.02884837 -0.061462715 -0.096704096 -0.32048404 0.07827386 -0.40234596 -0.120971836 -0.1610914 0.04789283 0.23391593 -0.10983576 0.08704727 0.2835704 0.30366582 -0.26225692 -0.00026518427 0.15610452 -0.05300388 -0.25283164 -0.011741884 0.1870193 0.027563633 -0.14276302 0.30888125 -0.15545163 -0.040844448 -0.13173129 -0.006235578 -0.13751571 -0.079263926 0.02828351 0.16805774 0.0576938 0.1699524 0.13198598 -0.09746881 -0.10050479 0.32216734 0.34591398 -0.20744553 -0.066149466 0.0028101648 -0.09911553 0.14423695 0.0055965735 -0.07397556 -0.17301011 0.03277281 -0.23173776 0.08486197 0.1319607 -0.053413376 0.06761983 -0.2714919 0.14200296 0.12743129 -0.059373226 -0.1870631 0.15077871 0.087521575 -0.06409324 0.032729678 -0.1357479 -0.07638557 -0.13956992 0.027145267 -0.07032994 -0.24209417 -0.13737975 0.022040794 0.1572772 -0.2418186 -0.06036738 0.0939965 0.040987488 0.31871304 0.07999484 0.07464384 0.03696465 -0.111719474 0.061379284 0.13898587 -0.11958202 -0.19837628 0.07554481 -0.030794809 -0.07958202 0.16034561 0.04448978 -0.09476858 0.3570015 -0.059465192 0.02908912 -0.2605617 0.123381466 -0.028126542 0.10146166 0.092749 -0.28156495 -0.26712617 0.099139355 -0.18069579 -0.027710361 0.07119455 -0.14246671 -0.12487138 0.24559978 -0.2098656 -0.02078282 0.1354815 0.16970822 0.10838649 -0.033488084 -0.033831567 0.10552542 0.056594454 -0.083116114 0.112560034 0.35863528 0.110724 -0.21089993 0.077498205 0.19560996 0.0055393064 0.012828472 0.2882034 0.18654126 0.02672686
340 0.12686932 -0.16745734 -0.29742914 -0.16923885 -0.06923237 -0.1389691 -0.0011457022 -0.1096767 0.14333242 0.03670993 0.072861865 0.12245555 0.11150468 0.35611466 -0.13149181 0.07097321 -0.016399708 -0.062218778 0.022067633 0.046806164 0.02212761 -0.16248345 -0.16243385 0.19904624 -0.16849448 -0.09847934 -0.12524523 0.22382447 0.045583732 -0.10659166 0.16475035 -0.043911677 0.0032744328 -0.18078223 0.19902149 0.016789729 -0.29543597 0.37762693 0.10805522 -0.04648395 -0.03958761 0.10977373 -0.059643526 0.14073786 0.15156446 -0.14073525 -0.048813798 0.08611318 0.0145273935 0.11426972 -0.036140356 -0.03285817 0.04893186 0.032510974 -0.092814855 -0.06975666 -0.024872473 -0.25715715 0.29386112 0.047499217 -0.069930494 -0.1161344 -0.3833034 -0.3604837 -0.23704346 0.2443616 0.010574752 -0.18157549 -0.13059491 0.14460184 0.3468856 -0.29327336 -0.31900388 -0.14071457 -0.07045528 0.3053871 -0.14688176 -0.111421406 0.006731853 0.0006447099 -0.19906743 -0.060061656 0.0035998141 0.0012359797 0.05467563 -0.21882993 -0.021379495 0.06785118 0.20577721 -0.2043622 0.41489726 0.0056707794 -0.2803008 -0.29216182 0.25050786 -0.097679146 0.15125984 0.16439678 -0.11063849 -0.17440368 0.29541087 -0.09273417 -0.23565346 -0.16648848 -0.07477889 -0.07591349 0.32265362 -0.00733675 -0.14804387 0.11433809 0.19725302 -0.055226777 -0.23073035 0.07587517 0.0763299 -0.1458867 0.06357718 -0.003211429 0.19265534 0.0187351 -0.03839519 0.2677101 0.06449601 -0.067035235 0.043058142 0.20515224 0.038099304 0.11350653
252 0.029114068 0.089856625 -0.12842129 -0.2837051 -0.27995342 -0.013630118 -0.20469198 -0.3062137 0.059665103 0.06599602 -0.15726605 0.14092721 0.27481592 -0.033245187 -0.24988824 -0.29530442 0.03238299 -0.069377415 0.2075011 -0.009446149 0.116459236 -0.1920988 -0.009998029 0.11216859 0.16010424 0.16598754 -0.004051818 -0.032925945 0.025464462 0.053378895 -0.022032771 -0.055300307 -0.048926465 0.0059832525 0.041478697 -0.23857914 0.011526203 0.13996594 0.29632026 0.08179105 0.245916 0.14595427 0.3855931 0.13385542 0.11207553 -0.22994298 -0.055851378 0.14459477 -0.14481252 0.025877498 0.09940929 -0.16547532 0.0659193 0.13319598 0.19287445 -0.00885985 -0.1461676 0.14869761 0.19643648 0.13030031 -0.13723467 -0.14057435 -0.08100485 0.044129215 0.06050824 -0.06743124 -0.03718782 -0.25450402 -0.19567692 0.31941304 0.042857196 -0.023857612 0.14544941 -0.13164563 0.030275054 0.1035551 -0.07952509 0.0424892 0.08864101 -0.018939761 0.08705839 0.08295805 -0.055878013 0.0127132395 0.077358656 0.038346328 0.21606725 -0.07556928 0.053540416 -0.14739735 0.23067808 0.11724001 -0.32950625 -0.017914794 0.08104965 0.013003159 0.101946056 0.1003768 -0.16295533 0.039951928 0.35674438 -0.1034489 -0.11049536 -0.036747478 -0.2615959 -0.008738244 -0.08274759 -0.13539194 -0.1424026 0.2496885 -0.1189381 0.06302047 0.15661402 0.009126525 0.23361656 0.011452219 -0.004833855 0.023623018 0.15201478 0.15063538 -0.17418896 0.043110408 0.29972264 0.13880967 0.060516957 0.16332872 0.11344703 0.027716806
169 -0.17931153 0.065799475 -0.24670811 -0.16153808 0.06473567 0.02221852 0.062687546 -0.106709585 0.11442198 0.0036801996 0.124352545 0.29275128 0.12195986 0.14699097 -0.22579779 -0.13339171 -0.25049925 -0.36372757 0.13338052 -0.07225723 0.15186702 -0.018195277 0.013828626 0.06995246 0.055454023 0.031232962 -0.0043380214 -0.033131905 -0.2997732 0.047211293 0.1221932 0.022861721 0.039397288 -0.17614238 0.005872849 -0.18140812 0.093934126 0.1262376 -0.033632092 0.02093968 -0.07522357 -0.041315205 -0.03834193 0.13229357 0.08362555 -0.058600497 -0.12557425 0.0148333395 -0.118202664 -0.070447445 0.12766483 0.024473093 0.1842466 0.027417332 0.14470688 0.1721937 -0.037109863 -0.15706904 0.07467752 0.33889872 0.055666056 -0.3543194 -0.1009684 -0.015676808 -0.14387801 -0.26589936 -0.28786513 -0.042242236 -0.14278312 0.09055541 0.1975247 -0.17906411 -0.13370539 -0.01817156 0.027454665 0.1526017 -0.033746492 -0.06250205 0.0132462615 0.029359475 -0.15523335 -0.1018414 -0.03791877 -0.06556138 0.07516205 0.0858237 0.019921897 0.2386536 0.19353612 -0.129436 0.25265378 -0.19871211 -0.06296821 -0.16780043 0.16426511 -0.24194779 0.11401764 -0.04213498 -0.14687343 -0.16366413 0.025183683 -0.11397664 -0.19198366 -0.32798654 -0.11046566 0.049404148 0.13898313 -0.020315807 -0.10332833 0.052289367 0.015813025 0.06531082 -0.09922241 -0.1678151 0.045648694 -0.13216555 0.052700635 -0.04227437 0.1212932 0.16261598 0.051088084 -0.049969852 0.10899729 -0.095403425 -0.027877748 0.2789593 0.08675621 0.20096384
17 -0.13960549 0.0025541938 -0.15305829 -0.060931277 -0.20773135 -0.07791729 -0.17909387 -0.23897919 0.18473735 -0.041858755 -0.07804348 0.024663204 0.20440382 0.22282647 0.02679069 -0.041946467 -0.09628837 -0.13330583 0.026310727 -0.14874284 -0.07427695 -0.28054044 0.037244316 0.14874388 0.009029744 0.22804412 -0.062122945 -0.18711677 0.17565851 -0.008715543 0.18772893 0.13728404 0.07625429 -0.17405573 0.11170966 -0.09637053 -0.1478339 0.06301577 0.27576485 0.060166806 -0.14545359 0.20359437 0.18809693 0.18696222 0.057002522 -0.19020714 -0.08697074 0.19946732 0.1595216 -0.048183706 0.26692337 -0.23799792 0.30617565 -0.15377684 0.054305833 0.20763902 -0.11554125 0.047241587 0.23861928 -0.03023812 0.116659716 -0.15619808 -0.079151236 -0.17443658 -0.22864825 0.10480457 0.12683633 0.0739944 -0.17435986 0.16609073 0.030390136 -0.109253876 -0.18272734 0.043457817 0.024858821 0.098539256 0.041471373 0.087457374 0.09126723 0.06656099 0.087252915 -0.021843042 0.18218465 -0.12708436 -0.028949132 -0.1511019 0.006968681 0.11259998 0.08020172 -0.23664543 -0.0050988044 0.026866794 -0.20155878 -0.14535925 0.11535241 -0.06915581 0.35992503 0.09796926 -0.024017446 -0.09233319 0.22571969 -0.1369394 -0.2671057 -0.07619234 -0.05292615 -0.10911713 0.078558855 -0.108156905 -0.11393376 -0.03591529 0.102664456 0.10642776 -0.12015023 0.19545409 0.002529559 -0.014459971 0.06578628 -0.177537 0.09776303 0.040892605 -0.27305368 0.26478553 0.09956004 -0.055652577 0.05739559 -0.013318395 -0.15537897 0.13250849
165 -0.06398325 -0.1684973 -0.27269623 -0.22282018 0.047339145 0.034065448 -0.13748886 -0.18600088 0.075757444 -0.037257902 0.16872373 0.15659189 0.21739277 0.105932176 -0.12900887 0.088650875 -0.08967233 -0.34874105 0.18079542 -0.0090204 -0.072552085 -0.06581116 0.064761035 0.057673372 -0.067417674 0.09490592 -0.122187786 -0.2583641 -0.22464894 -0.064531356 0.04510536 0.08991549 0.06002019 -0.24489543 0.04076338 -0.4241123 0.06284717 0.05185299 0.06811682 -0.01989788 -0.15816858 0.25977272 -0.27260613 -0.030677686 0.17724693 -0.00095043145 0.010996068 -0.020907877 -0.13201867 0.0866218 0.09087464 -0.011309892 0.13265254 -0.017592382 0.1229936 -0.020191843 0.0409835 -0.11426468 0.22103001 0.18674472 0.16895492 -0.2873113 0.01628345 -0.079533964 -0.14050482 -0.30206847 -0.31607366 -0.0040447847 -0.09647608 0.08460355 0.08444117 -0.216785 -0.19630732 -0.02174184 -0.0048193685 0.06879018 -0.1453038 -0.06873084 -0.03484603 -0.032843586 -0.04287586 -0.03879413 -0.011750026 -0.09848633 0.12756355 0.0019106739 0.10411719 0.09981714 0.08304636 -0.25809887 0.15765345 -0.03102703 -0.027306654 -0.25979444 0.13821481 -0.25509417 0.09283522 -0.1099608 -0.20450775 -0.06762212 0.10760347 -0.29387465 -0.22898288 -0.4339972 0.021762164 -0.075767554 0.050560262 -0.24608697 -0.0665926 0.15931654 0.027301509 0.1999601 -0.16773736 -0.19387648 -0.026808294 -0.16495408 0.13324101 -0.2119918 0.06267162 0.2674089 0.013924268 0.03033155 0.11744433 0.05723596 0.015542792 0.32945126 -0.056938995 0.20336486
81 -0.17226851 0.19991265 -0.27158007 -0.04286984 0.04300827 0.009768939 0.047702458 0.022827912 0.13920128 0.13988474 0.008169535 0.059663955 0.33985782 -0.02449771 -0.09005247 -0.024886984 -0.20153193 -0.1617493 0.15158623 -0.14634842 -0.025326857 0.16312104 0.053551655 0.29896176 -0.18834096 0.16270964 -0.07866889 -0.09220196 -0.2400026 -0.121399835 0.20999397 0.038071502 -0.13735445 0.106814265 0.15699647 -0.21391976 0.071911864 0.16591471 0.23891981 0.17127609 0.007944409 0.09960863 0.25749144 0.14999092 0.020622378 -0.061220195 -0.117991336 0.099841 0.10625662 -0.13399588 0.2606099 -0.20611247 0.006876436 -0.04273481 0.0034851707 0.07711536 -0.086197115 -0.074263826 0.08411907 -0.10986339 0.118472464 -0.18967642 -0.23489924 -0.00040667038 -0.038056925 -0.047390766 -0.28616205 -0.025374414 -0.2249745 0.05889422 0.14709185 -0.049196173 -0.19112626 -0.21175788 0.0764266 0.13229032 0.049328197 0.08766143 -0.08124558 0.1468812 -0.095340654 0.21585362 -0.042711817 -0.11066337 -0.0020423338 -0.02077853 0.0789718 0.23106436 0.26029417 -0.23534654 0.27958968 -0.023816835 -0.2025978 -0.1530888 0.10551535 -0.16533156 0.122872904 -0.10049126 -0.25264812 0.24765901 0.11854833 -0.2143198 -0.029160745 -0.0857825 0.018111546 -0.13234207 0.08182686 -0.23408584 -0.0008301554 0.13854797 0.06889244 0.29309413 -0.029127518 -0.048014358 -0.07978909 0.13397329 -0.061655585 -0.15101133 0.16344589 -0.027254764 -0.24084446 0.08742875 0.16519725 -0.012766073 -0.12392208 0.23044187 0.08598866 -0.009264519
232 -0.22721319 -0.19385836 -0.12516506 -0.16231367 -0.14790525 -0.20471674 0.09406196 0.0478308 0.28524232 0.1295025 0.08758883 -0.009617318 -0.07805031 -0.020888608 0.1227248 -0.024982477 0.26833582 -0.22538687 -0.096327975 -0.34510407 -0.06711476 -0.15644541 -0.13670345 -0.019465273 -0.20864677 -0.1242131 0.16623826 -0.51581955 -0.09045436 -0.24262714 0.26059577 0.095651075 0.17808548 0.18517524 0.24689288 -0.03333576 0.105603024 0.0056594163 -0.018558094 0.30457434 0.03240295 0.06414319 -0.028567009 0.40311593 0.13699682 -0.10991154 -0.079562835 -0.038642004 -0.12909912 0.08163674 0.034913994 0.022790385 0.12223515 -0.012791404 -0.010053759 0.08942939 -0.10739367 0.03581438 0.17761393 -0.09431436 -0.008712274 -0.10190488 -0.095394455 -0.16302344 -0.24146748 -0.24485362 0.13812317 -0.2340329 -0.18686138 0.037240125 0.14872535 -0.06920058 -0.10813537 0.09464432 0.4229798 0.02834192 0.09496027 0.2384564 0.15158989 -0.10032576 -0.15602301 -0.0022389186 0.14626919 -0.0004013863 0.20471668 0.10860536 0.2566897 0.11882133 -0.0012034016 -0.1127125 0.19723858 -0.09937094 0.031519618 -0.16594331 0.10645606 -0.04218438 0.20755062 -0.02044945 0.022335384 -0.27970803 0.118686154 -0.08946607 -0.17348279 0.03030367 0.028186806 -0.04778461 -0.19225006 -0.24748313 0.03257021 0.20424746 0.20855746 0.1508828 -0.17494175 0.20050845 0.066339165 -0.12637204 0.07940024 -0.2786805 0.2726084 0.07869469 -0.32491985 0.077318 0.08579121 0.08181086 0.14438714 0.1771561 0.20736633 0.14227179
63 0.012534002 0.18735872 -0.20786652 -0.24794683 -0.1881862 0.07643961 -0.008828244 -0.15639234 -0.059188396 0.04478033 0.07151723 0.18499614 0.14545184 -0.07522211 -0.31488153 -0.15811339 -0.2595714 -0.07941564 0.3084152 -0.15279391 0.08140634 -0.18545952 -0.09125894 0.1287119 0.068381004 0.18256675 0.036942143 0.14849654 0.14295076 0.17274474 -0.0781209 0.004723346 -0.017055724 -0.14557828 0.014574292 -0.123686716 -0.08317453 0.20350556 0.045966312 0.11754918 0.09370479 0.063124746 0.30594325 0.08787296 0.23296796 -0.20926723 -0.1345623 0.042136926 -0.11822596 -0.103553906 0.18116444 -0.16539639 0.14942871 -0.004353744 0.23999539 0.17918973 -0.053414416 -0.042350434 0.22572625 0.19441073 -0.122484 -0.22802424 -0.16180632 0.082860574 0.17398827 0.036312737 -0.10717579 -0.15283991 -0.29263887 0.44222325 0.107635245 -0.044841442 0.15610717 -0.15388495 0.14193052 -0.008938257 -0.006311473 0.17934255 -0.14279926 0.16294964 0.07029011 0.111515835 -0.11813492 0.0117594665 0.17973837 0.06542195 0.15491138 -0.0039748973 -0.050536364 -0.17287405 0.19799234 0.042823065 -0.21166782 -0.14407651 0.0080206515 -0.0057769343 -0.058509234 0.07192323 -0.1770449 -0.0049514812 0.24716142 0.10776284 -0.10251799 -0.045811098 -0.14755769 0.023069507 -0.11392016 -0.21379355 -0.08468641 0.22326104 0.16504596 0.10371269 0.025256945 -0.08048485 0.015387425 0.032006226 0.013910275 -0.0018053367 0.15288757 0.113834806 -0.10145167 0.04656331 0.23777516 -0.08937327 0.022893574 0.36048242 0.18143064 0.1746426
932 -0.06692671 -0.039977625 -0.14982688 -0.19171864 -0.012593147 -0.0044386163 -0.0980083 -0.13287835 -0.0052615725 0.15367831 -0.11310158 0.091495596 0.21848305 0.04501936 -0.18159455 -0.091210015 -0.021736756 0.11940181 0.112962835 -0.16372414 -0.0041147014 -0.24600178 -0.19718917 0.3537546 0.0026272384 0.30505568 -0.054373678 -0.0792385 -0.19940066 -0.0445043 -0.00159788 0.19669515 0.028793912 0.08523249 0.021390954 -0.098102525 0.067193486 0.08652396 0.33478832 -0.055264562 -0.15697211 0.075731166 -0.020994348 0.11884051 -0.06247666 -0.3163746 -0.23797639 0.21427988 -0.11311323 -0.1599154 0.2735266 0.018464554 0.056745682 0.1051043 0.0968665 -0.021675095 0.017913885 -0.11603832 0.24895023 0.11466467 -0.0043346086 -0.3023092 -0.14278728 -0.26723054 0.1429492 -0.092915356 -0.2579133 -0.06393217 -0.25450766 0.10086812 -0.04323293 -0.21016437 -0.15743488 -0.2508792 0.0729886 0.14734952 -0.021431679 0.06091009 0.15464191 -0.010145594 -0.022904227 0.033230066 0.009322381 -0.15158379 0.07884337 -0.0013343454 0.08818337 0.20804736 0.03360991 -0.10360978 0.12507705 0.014294941 -0.06737819 -0.20937786 0.21443158 -0.026391696 0.19262484 -0.023187825 -0.15721944 -0.052289505 0.029743802 -0.26172584 -0.059850153 -0.030937506 -0.0790228 0.011334725 -0.07444724 0.023904799 0.019496674 0.2584808 0.0990226 0.22951259 0.20660482 -0.1246402 0.066866785 -0.049897075 -0.059148327 -0.20249455 0.059022933 0.26080465 -0.116889484 0.07192127 0.2517351 -0.29947522 -0.21716376 0.13153964 0.06426526 0.19403145
303 -0.07591904 0.3130552 -0.22887789 -0.20814556 -0.20347422 -0.11447568 -0.07989411 -0.20237444 0.0008498054 0.021470528 0.13877656 0.17298327 -0.0063804854 0.1823211 -0.18247557 -0.17252475 0.06293321 -0.09122236 0.3316401 0.012582117 -0.13847257 0.037918873 -0.032174774 0.26946503 -0.008990524 0.2780437 -0.11901787 0.12101493 -0.21819648 -0.113957204 -0.116052836 0.0048395568 0.0990902 0.14015937 0.2016883 -0.18410605 -0.034594096 0.33964658 0.16374908 -0.009937696 0.0090091815 -0.062257126 0.38135925 0.013851381 0.23558766 -0.24161866 -0.15973051 -0.016702428 -0.14996772 0.014187774 0.17427441 -0.048031107 -0.10818345 0.2186344 0.2367941 -0.02633753 -0.13767785 -0.029131372 0.12694506 0.23716325 -0.0051881 -0.15552041 -0.13631871 -0.016769884 -0.06456117 0.066506214 -0.33819085 -0.1009824 -0.1540671 0.22863305 0.24821 -0.032974754 0.030878514 -0.12992868 0.059650615 0.17632426 0.075853616 0.113267705 -0.03072723 0.1297572 0.3779475 0.14765815 0.05319365 -0.08007945 0.067472085 -0.07269857 -0.057087436 -0.04503158 -0.032572262 -0.037624754 0.13984615 0.049930274 -0.35789016 -0.32381615 0.19624087 -0.1396839 0.026949698 -0.03771002 -0.24457923 0.1580221 0.30990243 -0.12826508 -0.098344706 0.008799818 -0.27589664 0.15815134 0.05574523 -0.1982396 -0.085772544 0.099729344 -0.036970597 0.13031724 -0.052909184 -0.07300881 0.08155305 -0.12558809 0.032899007 0.032576095 0.09026846 0.053510655 -0.16646057 0.016485233 0.3701128 0.08959476 -0.0021107756 0.22260089 0.18041794 0.17070961
170 -0.026900185 -0.030308843 -0.08202663 -0.151101 -0.025188476 -0.19651313 0.003304353 -0.16518463 0.0068635223 -0.09008289 0.14409262 0.2063941 0.102763236 0.119093485 -0.19540687 -0.1354173 -0.056321718 -0.2602014 0.09203366 -0.14625601 0.047599524 -0.14290287 0.08270752 0.21096337 -0.036529798 -0.087294295 -0.21931002 -0.111784756 -0.30872124 -0.2646962 0.101263985 0.33224282 0.119213104 -0.15345617 0.0063229 -0.35483608 -0.0228353 0.07789673 0.33085033 -3.5406185e-05 -0.052270666 0.03372752 -0.14527221 0.14179745 0.27996972 0.06739197 -0.11131293 -0.19188705 -0.2417299 -0.025103621 0.13117303 0.026311107 0.09179946 -0.02568016 0.2309595 0.06779114 0.09553712 -0.29705656 -0.055492647 0.3149204 0.077292554 -0.26947132 -0.07188058 0.010159723 0.109968185 -0.19892778 -0.20569676 0.06379879 -0.11358332 0.06925922 -0.03040474 -0.30968034 -0.090306036 0.043015424 -0.10666578 0.092781074 -0.12598468 0.0859418 -0.11124557 -0.0032004383 -0.10503324 0.029593479 -0.014996124 -0.16086107 0.12899679 -0.12482906 0.23469116 0.3155707 0.13449617 -0.15983292 0.09174208 -0.06264559 0.013307084 -0.23048754 0.10425797 -0.28476918 0.31061316 -0.029737359 -0.2344517 -0.071798235 0.36473984 -0.072437204 0.06326869 -0.18531105 -0.1751017 -0.031349424 0.039375816 -0.19213974 -0.03453624 0.3147205 0.04094249 0.13131788 -0.07684528 -0.1155672 0.07952889 -0.056817964 0.05525159 -0.017364971 0.18611509 0.04687039 0.10501982 -0.13207981 0.247457 -0.08467568 -0.06395665 0.245141 0.01593657 0.18823719
93 -0.49100268 -0.0404841 -0.1412402 -0.14030911 -0.048335567 -0.22148697 0.06911006 -0.20816287 0.07962626 0.17701776 0.050516162 -0.00250184 -0.048346616 0.11601306 -0.13835283 -0.007588176 -0.03586556 -0.32465497 -0.13025165 -0.13832216 0.17315832 0.15901734 0.067401744 -0.046781342 -0.2019513 -0.09058869 0.12821247 -0.19773647 -0.13325341 -0.0041385912 0.16530746 0.0035631594 -0.034207292 -0.04463063 0.1070967 -0.21993683 0.18566273 0.19185998 -0.026825149 -0.057046115 0.057911824 0.3216413 0.011456735 0.056019846 0.052061226 0.07736086 0.035047147 -0.25877526 -0.06290575 0.1155786 0.2661666 -0.12656467 0.14444272 -0.08302405 -0.091398224 0.036402088 -0.12259464 -0.049130723 0.26894116 0.18860687 0.04082965 -0.22180986 -0.068807274 0.060296346 -0.22440295 -0.33650604 -0.032316547 -0.17005312 0.010627695 0.059578285 0.12756082 -0.16787928 -0.2414301 -0.2559116 -0.19979826 0.09203154 -0.026936589 0.09969646 0.19609529 -0.016065167 -0.219362 0.1402713 0.1102472 -0.19859283 0.22533235 0.0059026754 0.0012831062 0.23812488 0.054455265 -0.19952585 0.27428883 -0.16041206 0.21795775 -0.09007412 -0.05491452 -0.21105456 0.048471656 0.056815136 -0.0976515 -0.2109067 -0.13782363 -0.41901255 -0.3581681 -0.1700989 -0.09407487 0.02404247 0.06209715 -0.059822164 -0.07081323 0.2925903 -0.007319757 -0.032571707 -0.13101289 -0.052237302 0.14780985 -0.25515863 0.034713775 0.054085862 0.21620847 0.19082998 -0.12686874 -0.086204246 0.03276922 -0.1119829 0.0676998 0.3789596 0.06945693 0.15232615
44 0.04268824 0.013667931 0.0106682535 0.088083185 -0.057420496 0.093379736 0.0018374897 -0.11450669 0.21352567 0.11807686 0.14115028 -0.08005592 0.09117819 0.06668574 -0.16592109 0.04832662 0.04373681 -0.001155637 0.19500765 -0.16247603 0.05204053 -0.0095835915 -0.07400391 0.33930674 -0.026994096 -0.0063597537 -0.05273033 0.08500415 0.09566269 0.05926304 0.03851986 -0.0015175038 -0.086989395 0.122798145 0.19474754 -0.0020484133 0.06567119 0.36880788 0.08581199 0.12643485 -0.2627226 0.008572651 0.108726025 0.35701704 0.04581398 -0.038637426 -0.08946087 0.1798455 -0.27934155 -0.03995422 0.17424293 0.06584528 0.103610806 -0.08632558 0.18329887 0.12940505 0.012550559 -0.12771787 0.0801475 -0.17838617 0.17301372 -0.09016175 -0.24241401 -0.10462692 0.041642774 -0.10934894 -0.041719396 -0.32118356 0.046495646 0.21361242 0.24578445 -0.008874665 -0.2046092 -0.06859426 0.13301581 0.28482994 -0.096740395 0.20057747 0.13470598 0.20195986 -0.15654603 0.2013553 -0.14800689 -0.31453386 0.26044443 0.126249 0.1397829 0.24289066 -0.057256725 -0.21637717 0.32045704 -0.029512182 -0.14629665 -0.08547646 0.14695561 -0.063197464 0.045285586 -0.021900378 0.0003651915 -0.066532545 -0.23715995 0.0053345207 -0.41097388 -0.37686163 -0.07508322 -0.13894759 -0.18272062 -0.25541878 -0.20595732 0.11444314 0.09302444 0.35221958 -0.07192546 0.13048233 -0.21062976 -0.1533941 0.08589858 -0.085471466 0.021865936 0.05447872 -0.15413553 0.054426383 0.13989438 -0.21332404 -0.055698767 0.13762087 -0.10300917 0.3019568
172 -0.28832537 -0.11540899 -0.11447845 -0.1288557 -0.028018063 -0.12406977 -0.16694163 -0.17231832 0.26846823 0.18878914 0.016975613 0.029748255 0.12262909 0.27469504 -0.38958728 -0.112379685 0.006289465 -0.21961913 -0.23222056 0.03719736 -0.14420307 -0.00569797 0.06958839 0.048877727 -0.19608924 0.123736784 0.10033898 -0.3173704 -0.027946346 0.043339755 0.11291432 0.2697429 0.009387551 0.23113559 0.2049006 -0.2272381 0.07787699 0.15073384 0.009148485 -0.004162862 -0.065793246 0.29965922 -0.045252755 0.112657264 0.13234891 -0.067045815 -0.09684281 -0.13598385 -0.017361 0.14628752 0.07172894 0.19364692 0.0081759365 -0.21593906 0.02641068 0.033173133 -0.16491978 0.0890949 0.26218262 -0.009667536 0.11125677 -0.37264165 0.01700487 -0.04453002 -0.18917596 -0.36480018 0.048500057 -0.19816667 -0.19233982 0.20222428 -0.004218302 -0.05352644 -0.2349789 -0.09090016 -0.027264686 0.21957833 0.113813505 0.15892874 0.28207386 -0.13301702 -0.058780584 -0.073423065 -0.0643014 -0.0171547 0.024601666 -0.03465815 0.02053174 0.17241427 0.00037828775 -0.1037536 0.1787226 -0.18746595 -0.064157404 -0.22706108 0.08509808 -0.17916861 0.01842044 0.13420838 -0.15822518 0.008571387 0.16086152 -0.2430491 -0.065302886 -0.12531498 -0.025927123 0.026017781 -0.1092963 -0.035032287 -0.066939354 0.012296914 0.07860181 -0.034896754 -0.08273547 -0.032640643 0.12745309 -0.12160926 0.005134899 -0.19034138 0.16790946 0.07093246 -0.1805496 -0.0019484687 -0.10485389 0.104139365 0.15025307 0.1428921 0.10321175 0.21931823
28 -0.0490743 -0.10126217 -0.1951517 -0.05856499 0.08384628 -0.0065962058 0.075457714 -0.19439061 0.03617291 0.15229721 0.23370439 0.036283735 0.23586945 0.14048089 -0.19103438 0.008432907 -0.13011944 -0.14907941 0.15805806 0.09572313 -0.092385694 0.15125579 -0.022746421 0.34082094 -0.007955306 0.03591711 -0.042912133 -0.01829795 -0.061941233 0.13403225 0.023862518 0.027405776 0.005572104 0.11939579 0.17338915 -0.28135228 0.08613407 0.33378333 -0.044751614 -0.0797204 -0.12585428 0.08783034 0.14180264 0.016536694 0.07622166 -0.080614954 -0.1566754 0.004312849 -0.15764603 -0.026239514 0.289312 0.03848007 0.1358764 -0.1267383 0.12220331 0.11472018 -0.036092672 -0.12151347 0.163201 0.15767072 0.07528121 -0.24665102 -0.12886085 -0.06291936 -0.21417257 -0.26205897 -0.45449424 0.06754922 -0.16628325 0.12781414 0.09550345 0.0036877312 -0.3120806 -0.05674152 0.04029487 0.0886557 0.083365336 0.056008656 -0.024986692 0.10324056 0.0048602414 -0.043913905 0.12535498 -0.13999866 0.114861354 0.067267135 -0.027863488 0.31838724 0.028523901 -0.18066612 0.2893484 -0.18911457 -0.19020599 -0.26442617 0.07012525 -0.20002721 -0.029921355 0.09452495 -0.1693097 -0.010148935 0.057508156 -0.089073844 -0.26253414 -0.30395785 -0.068864934 0.007941973 0.13898763 -0.057587445 -0.11503629 0.14781386 0.26724982 0.029868785 -0.27869272 -0.19811119 -0.057602413 -0.07020653 0.017315257 -0.14851563 0.103692226 0.06184267 0.024402961 -0.033922385 0.08238944 -0.04380009 0.0501926 0.43781373 0.051168516 0.15079813
