1005 128
160 -0.16286393 -0.1841372 -0.07185248 0.06574805 0.11057457 0.08790803 0.1258555 0.19974281 0.051766567 0.15655085 -0.008611407 0.049781326 -0.18015029 -0.18644789 -0.013310893 -0.07403939 -0.23967743 0.044971988 0.23185156 -0.14794184 0.092354424 0.07888144 0.16677475 -0.13671167 0.10989197 -0.06913453 0.0888059 -0.08178299 0.10216068 0.0020308767 -0.07844662 -0.048442893 -0.01467455 0.040567297 0.105307095 0.0010824384 0.10215845 0.054410443 -0.047080185 -0.15209056 0.18219982 -0.036057003 0.020409849 0.06698639 -0.2104513 0.25613907 0.06832786 0.09116236 0.1526049 -0.18959828 -0.07144263 0.11015023 -0.09908667 -0.060441416 0.16567424 0.002964678 0.17368852 0.22400773 0.07930273 -0.15820073 0.09392846 0.09615746 -0.1518768 -0.06318326 -0.096424915 -0.040323794 -0.0044661155 -0.2477851 0.025430283 0.012558939 -0.122979276 -0.21201836 -0.0012405299 -0.022546794 0.15704496 0.022190027 0.123813406 0.029471487 -0.17494233 -0.14161322 -0.01819204 0.066373326 0.104871914 0.05644809 0.07166565 -0.098981135 -0.0016998149 -0.16928796 0.028766 0.18063094 0.10317704 0.13952589 0.05097839 0.10571119 -0.008756741 -0.15607472 -0.374571 0.045491964 0.014645893 0.06923094 -0.15942498 0.016857056 -0.074054584 0.089378946 -0.08123144 0.022321172 -0.026099904 0.041578837 0.110204145 -0.1299763 0.17696638 0.2067367 -0.30304205 0.053102948 -0.13667734 0.14444773 0.07888768 -0.10808707 -0.18209521 0.0042341906 0.091885366 -0.16905989 -0.10087693 -0.19237843 -0.035586294 -0.14116545 -0.16740642 -0.05996779
86 -0.25567603 -0.1571502 0.14542305 0.23364334 0.07548491 -0.037609257 0.09433651 0.012408284 0.08765781 0.08508181 0.10483551 0.017392421 -0.15031998 -0.22915019 0.07545597 0.124311745 -0.018473538 0.107746966 0.28125212 -0.13249815 0.026118135 0.27133033 0.25765696 -0.26530164 -0.0246332 -0.15320164 -0.09195671 -0.121630095 0.09571421 -0.17758746 -0.14292832 -0.0978084 -0.13987117 0.020986853 0.23272787 0.058439683 -0.039116878 -0.0014470039 -0.14786258 -0.11133042 0.012835175 -0.040051002 -0.07359273 0.01611091 -0.17933534 0.43660071 0.07430919 -0.0984368 0.027063273 -0.1889169 0.0869926 0.08906153 -0.01066809 0.085911736 -0.162803 0.04053656 0.13273148 0.13357523 0.11217443 0.05046215 0.15818615 0.13666548 -0.04696793 -0.0020635887 0.007476387 -0.24672888 -8.5218606e-05 -0.09669671 -0.013099827 0.16686678 -0.12062648 -0.16090755 -0.1547445 -0.29894167 0.094230495 -0.07582461 0.08868039 -0.016647385 -0.030049467 -0.016774552 -0.06608214 -0.014788979 0.2748274 0.1620577 0.18306746 -0.069663964 -0.09162322 -0.14417082 0.044206925 -0.019394657 0.10972959 0.13358478 0.07494939 0.027363464 0.061911795 -0.13809876 -0.1349999 0.07157522 -0.0349931 -0.010907241 -0.118227765 -0.20106256 -0.25018656 0.13513838 -0.019377623 -0.16946077 -0.000381314 0.043351244 -0.033919882 -0.1598973 0.2130388 0.0736018 -0.23742244 0.0993478 -0.0042824424 0.008103635 0.01791766 -0.0950018 0.018780274 0.0326468 0.22130574 0.078552544 -0.10419504 -0.10832128 -0.032746296 -0.13651785 -0.15685752 -0.05169598
64 -0.11184241 -0.04429831 -0.12965253 -0.0014378226 0.27348074 -0.04805307 0.23338103 -0.01924478 0.046716727 -0.10983153 -0.08128002 0.041961867 -0.0427953 -0.13971265 0.075783 0.18147154 -0.062012184 0.025305606 0.043832608 -0.13451445 0.15558577 0.20454384 0.0044358517 -0.28344122 -0.12876621 -0.06380044 0.088323124 -0.14887464 0.051546294 -0.016546434 -0.17543055 -0.31959474 -0.07185193 0.08781564 0.16780479 0.17563556 0.11616787 0.098446675 -0.0408153 -0.14095928 0.03041551 -0.17136769 -0.14614914 0.031664364 -0.29227316 0.14147747 0.26988226 0.07322667 0.09161799 -0.02314428 -0.14324094 0.096723504 0.007864918 0.3274982 0.08326708 -0.050484285 0.11379186 0.14925987 0.13197862 -0.094573 0.15600906 0.075966895 -0.0028996347 -0.0140800895 0.043483913 -0.045937277 0.02242827 -0.12092374 -0.19885862 0.10257975 0.1096664 -0.3747673 0.18782271 -0.02166337 0.27174067 -0.09056575 0.17758386 0.01455983 0.015837347 -0.21612479 -0.19330415 -0.029370967 0.10648694 0.31852242 0.3034819 -0.08484308 -0.21376513 0.012046786 0.066499345 -0.06957451 -0.07181874 0.17960612 0.04664457 -0.022940312 0.07025182 -0.09210782 -0.20283636 -0.18778881 -0.06329692 -0.056589242 -0.3508239 0.054898076 -0.022861224 0.107057884 -0.15528615 -0.19103743 -0.014964127 0.23366919 0.09367626 -0.29601043 0.15622173 0.16851534 -0.011993062 0.11789338 -0.17294993 0.04085308 0.11609185 0.0010024186 0.16936295 0.22728878 0.12979013 0.007936953 -0.10640227 -0.10970963 -0.07904011 -0.27718407 -0.021285636 -0.10030153
62 0.04601411 -0.14599179 -0.1678 0.2130298 -0.029039722 0.22236443 -0.0052367128 0.16049698 -0.14231396 0.20987236 0.05754994 -0.15719604 -0.17784248 -0.11103932 -0.09601157 0.0143429255 -0.2866423 0.22243357 0.24578106 -0.07361681 0.05105315 0.21383524 0.23153965 -0.10709446 0.011349536 -0.10116119 0.118149415 -0.015570933 0.14604436 -0.017016081 -0.046022452 -0.102264516 0.009613984 0.09873427 0.13777857 -0.00040579966 0.035624564 0.15141553 0.011515979 -0.18352175 0.054440007 0.05091705 -0.10887167 0.09284676 -0.22911672 0.23419738 -0.06924605 0.10033011 0.076960176 -0.40255362 -0.051346377 0.28288862 -0.12966433 0.075705364 -0.0087278085 -0.03321528 0.12187789 0.253162 0.103493504 -0.008666854 0.0668088 -0.056202095 -0.27154028 -0.07095899 0.0057873735 -0.08966769 0.07467472 -0.19444782 -0.057583544 0.31164414 -0.20274933 -0.25100696 0.11692416 -0.17889495 0.016251924 -0.10288497 0.0582113 0.18615931 0.010327256 -0.07553447 -0.114576496 0.08252607 0.12722641 -0.03014687 0.08598522 -0.21697816 -0.10723195 -0.17092054 0.010451707 0.12861665 0.055603147 0.06414347 0.013100244 0.13583048 -0.07115103 -0.11596979 -0.1863078 0.06743015 -0.08822223 0.11724554 -0.26268548 -0.19041917 -0.05663149 0.119278654 -0.033050768 0.039692987 -0.07874194 0.063891344 -0.0057639442 -0.09528327 0.04700977 0.12576295 -0.08818685 -0.13440616 0.01650743 -0.044169024 -0.027267396 -0.09613273 -0.054545414 0.02934547 0.25361538 -0.051451877 -0.13483953 -0.22681196 -0.20655346 -0.0134209925 -0.10865029 -0.120692745
5 -0.0576892 -0.23576243 0.050337154 0.18336686 0.24218446 0.027790358 0.189401 -0.0524829 0.18796144 0.06390402 0.18111077 -0.041335918 -0.05874802 -0.34529 0.084129386 0.118508294 -0.13809411 0.0055373386 0.058584515 -0.0771213 0.19511022 0.30980274 -0.17157924 -0.17762215 0.13439307 -0.18150045 0.103658214 -0.15173477 0.1817706 -0.11122022 -0.16573375 -0.18632613 -0.1816049 -0.058284085 -0.014753536 0.08752267 0.2145268 0.08573322 -0.07265199 -0.2347994 0.11190105 0.015980337 0.0037348124 -0.007410201 -0.30079854 -0.012876368 -0.04445114 0.09805367 0.114385016 -0.09810547 -0.16372296 0.044163078 -0.12778224 -0.19724587 0.2872377 -0.18397635 0.2118072 0.2169683 0.3544979 0.07418084 0.19533908 -0.09130043 -0.03273424 -0.012502254 -0.12699775 -0.104441784 0.048685443 -0.14758882 -0.10741032 -0.10025935 0.11968864 -0.33680806 0.27291414 -0.13964409 0.051427983 -0.2185485 0.05949099 -0.06686249 -0.18473732 -0.10781879 -0.20620014 0.14987502 0.22275588 0.16813937 0.14397046 -0.24345505 -0.18764085 0.051134806 0.020733595 0.11923476 0.10600526 0.17320234 -0.039956186 0.07073917 -0.018044142 -0.22489227 -0.23201928 -0.1711363 0.10582898 -0.030067356 -0.35017595 0.061744913 -0.06512709 -0.18490385 -0.19806397 0.05257637 0.06255447 0.17182146 -0.0020086989 -0.055743672 0.16202639 -0.017914984 -0.03990865 0.15244749 -0.078679495 0.12562177 0.038237393 -0.16436704 0.17806377 -0.04149566 0.08952543 -0.16622147 -0.20339645 -0.2400564 -0.14418301 -0.34295323 -0.058930803 -0.13126339
82 -0.18559958 -0.13177045 -0.017357662 0.1504438 0.06073135 0.21677753 0.09127121 0.14980802 -0.042607397 0.23215745 0.123862706 -0.0017313956 -0.099618405 -0.084058136 -0.009205856 0.123579405 -0.1639852 0.121529415 0.1921256 -0.067528345 -0.069812074 0.18480675 0.14004116 0.05397717 0.06749283 -0.1284819 0.09128047 -0.026142864 0.00477114 -0.053185485 -0.06936157 -0.024082983 -0.058474172 0.049310327 0.2502063 -0.09916566 0.07304963 0.17341006 -0.07201385 -0.07931306 -0.09989671 0.062080193 -0.12666912 -0.023528522 -0.23727496 0.07649906 -0.010733634 0.20283169 0.13669728 -0.17172062 -0.0013135545 0.3191262 -0.19130853 -0.055779226 0.0891036 0.011162945 -0.012633864 0.16660918 0.06441342 0.13246389 0.06718347 0.060908712 0.072986424 -0.13961482 -0.07696986 -0.06029192 0.055200577 -0.16285299 -0.12352844 0.12084806 -0.050564203 -0.08775217 -0.109815314 -0.3767821 0.14228588 -0.060854364 0.14084867 0.21099229 -0.06093718 -0.025407603 -0.14895551 -0.08116976 0.14600064 -0.008555669 0.18078525 -0.13772866 -0.08003953 -0.17299023 0.039136194 0.107859746 0.10160938 0.05840949 0.04580654 0.07356022 0.05206729 -0.28443834 -0.115597196 -0.015024274 0.06354797 0.12884846 -0.13513906 -0.12874065 0.043329854 0.19297144 0.017249545 -0.06250103 0.0790353 0.124314256 0.058460966 -0.059486758 0.1447686 0.07066788 -0.12929694 -0.025977273 -0.27384597 -0.045323327 0.1291137 0.052476622 -0.15505427 -0.022925138 0.15623568 -0.0977587 -0.0916987 -0.17665483 0.15768951 -0.29299685 -0.17468867 -0.09898496
13 -0.22371131 -0.26234898 -0.16281994 0.07108341 0.1697251 -0.05843221 0.1729602 -0.07348793 -0.17764182 0.07993206 0.14666644 -0.042371567 0.040236924 -0.18405414 -0.021898674 0.025999648 -0.28928083 -0.17197083 0.22361559 -0.13974091 -0.010383513 0.23059161 0.09153934 -0.03163892 -0.03690115 -0.0077588195 0.10585471 -0.17672601 0.0811886 0.24390139 -0.10056848 -0.17670651 -0.15848762 0.06241804 0.12957966 -0.03535255 0.1766875 0.24290343 -0.0071755894 -0.0845119 0.09421678 -0.016613076 -0.054987118 -0.17498738 -0.15087599 0.28773147 0.12643495 0.09363065 0.28418562 -0.21323258 -0.047569025 0.1023253 -0.03796701 0.19224885 0.106524974 -0.09275401 -0.028344125 0.001671365 0.09230327 0.10289449 0.15032974 0.13794293 -0.025420466 -0.11699378 -0.06898956 -0.36188364 -0.021344587 -0.15682939 -0.16777496 -0.022721741 -0.08239622 -0.33839768 -0.17942883 -0.24729127 0.077796355 -0.13708426 0.185425 0.12767845 -0.16812114 -0.027906355 0.06119272 0.2504563 0.036073774 0.116720185 0.19167675 -0.08612345 -0.17328739 -0.06596739 0.05573391 0.09495657 0.13669324 0.15175368 0.2091714 0.036084734 -0.07442369 -0.071120925 -0.4154946 -0.18656993 -0.24924825 0.17336036 0.026513757 -0.06919238 0.011145311 0.1799973 -0.09509712 0.018290976 -0.18593821 0.13721177 0.04899941 -0.03623776 0.08997792 -0.048177745 -0.21699828 0.07804243 -0.22347817 0.023721138 0.05727381 -0.082703575 0.10085112 -0.032508545 0.13522221 -0.12885219 -0.028230483 -0.03366207 -0.040544227 0.00525002 -0.09319612 0.0767773
533 -0.22691457 -0.1465898 0.041632563 0.1865921 0.092764616 0.050598852 -0.05016004 0.051631708 0.0624893 -0.03771228 0.0698636 -0.12013658 -0.043168273 -0.042153973 0.04214361 -0.07703229 -0.13070314 -0.08744019 0.20798798 -0.23180032 -0.0496322 -0.023658963 0.18257968 0.099339284 -0.033613123 -0.08005239 -0.10005586 -0.07152348 0.059269562 0.18124582 -0.16182014 -0.15962313 0.031842604 0.22303015 0.43745592 -0.22198425 0.06140366 0.1264932 -0.10797556 -0.10009991 0.12101122 -0.09570194 -0.121699184 0.061407946 -0.25829646 0.1450869 0.052699238 0.19604242 0.04805612 -0.12916097 0.053378925 0.15357073 0.20479468 -0.05235317 0.06428036 0.11583421 0.024430046 0.10802732 0.13940488 -0.16309626 0.1397594 0.16598411 0.09715395 -0.024098681 -0.21283303 -0.24309841 -0.007292655 -0.19734262 -0.032746907 0.3466466 -0.12484163 -0.15825693 -0.038723398 -0.11539452 0.13561231 -0.13880453 0.08758123 0.21606544 -0.051094167 0.25372615 0.058899637 0.1754775 0.03873454 -0.010595957 0.056534667 -0.08118635 -0.00047546995 0.06712183 -0.0340222 0.18632792 0.15567222 0.23907413 -0.022839006 0.10110055 -0.025787527 -0.09322054 -0.40402928 -0.003649178 0.16176356 -0.048740443 -0.13365898 0.06502246 -0.11580622 0.16343856 -0.07068342 0.21086076 0.15850936 0.09445045 -0.018132007 -0.13000503 0.1416102 0.021167694 -0.03197817 -0.040101018 -0.16900553 0.09874034 0.10869277 -0.19679524 -0.04011598 -0.06394717 0.024334375 -0.15546831 0.005115888 -0.1791691 -0.28069836 -0.07084811 -0.23604323 0.012143494
107 -0.10806988 -0.07655353 -0.09573015 0.1854644 0.16443042 0.20290384 0.08163478 0.17330539 -0.08762539 0.29981467 -0.05291415 -0.10512956 -0.039742768 -0.089314364 -0.077318825 0.12673673 -0.25917917 0.18822536 0.26552483 0.06761673 -0.17995484 0.17231937 0.07499754 -0.14911486 0.039412342 -0.057513252 -0.011319601 -0.061104495 0.12979278 -0.06685107 -0.15980345 0.010401892 0.013148933 0.119881086 0.073642865 0.11099709 0.025785236 0.18960604 -0.06444845 -0.19888784 0.05924961 -0.118834995 -0.043143954 0.048376076 -0.2782902 0.07702637 0.022599557 0.12718616 0.06894693 -0.20685655 0.024888564 0.24139778 -0.12640612 -0.18824682 0.06155236 0.04992966 0.12613079 0.20859121 0.19172631 -0.03766772 -0.017669566 -0.050828643 -0.39162883 -0.04359266 -0.04604715 -0.13216141 0.12795644 -0.109607495 -0.18610726 0.28839087 -0.10830038 -0.20352791 0.09863226 -0.033484705 0.04795628 -0.014492242 0.1217761 0.19013678 0.05699968 0.059397608 -0.02323533 -0.06041464 0.052118577 -0.15670598 0.14137647 -0.28474343 -0.11716746 -0.1365866 0.08267239 0.17231235 -0.046795957 0.104950644 0.09832862 0.09334724 0.056291338 -0.18459989 -0.21070564 -0.09993401 -0.10345378 0.16400535 -0.23598783 -0.2398049 0.023233801 0.18806927 0.05318948 0.14307731 -0.04514786 -0.005384264 -0.022315016 -0.18946804 0.0022026235 0.16306262 0.00980546 -0.03712846 -0.28885487 0.062062956 0.019208994 -0.20065638 -0.113601334 0.016154483 0.38081342 0.012346408 -0.18183844 -0.14708546 -0.0008920653 -0.2088292 -0.093280785 -0.1721991
121 -0.21607174 -0.07816386 0.028088173 0.10389608 0.07459935 0.18920352 0.065166116 0.0010551229 0.08011492 0.21749248 0.048156623 -0.06105179 -0.12351284 0.04286938 -0.045318104 0.01253105 -0.18123683 0.24268886 0.20308693 -0.071933724 -0.037424404 0.18981889 0.2029007 -0.025402846 0.07251266 -0.086332455 0.08093099 0.029120559 0.2131597 -0.082605086 -0.045361977 -0.027064752 0.058741625 0.0022831566 0.20421013 0.006288842 0.023012197 0.15688887 -0.05819594 -0.048791375 -0.0006682246 -0.09464329 -0.18888083 -0.06593276 -0.2654266 0.19458067 -0.1274945 0.1155739 0.14094038 -0.08878189 -0.104180455 0.24073344 -0.16328976 -0.045011826 0.06030615 0.12586673 -0.016545314 0.16937071 0.06720666 0.024138018 0.09976202 -0.045989048 -0.13828205 -0.17069162 -0.060647495 -0.0852236 0.115364656 -0.18705718 -0.12993433 0.06192733 -0.02577179 -0.086149156 -0.10736085 -0.29980254 0.0783675 -0.15302145 0.3211151 0.1486457 -0.12187163 -0.020601057 -0.12192981 0.017175904 0.017914152 -0.023201639 0.15731782 -0.0455053 0.02087356 -0.21899115 -0.09398089 0.22140838 0.012487364 0.15881091 -0.041898564 0.050540883 0.0046245162 -0.20916586 -0.21917947 0.001728323 0.038927868 0.06799127 -0.0705819 -0.031811677 -0.14244942 0.14530694 0.006892758 -0.12060371 -0.047676187 0.10865809 0.15146427 -0.19643475 0.07433934 0.00015370217 -0.12349907 -0.040963802 -0.24182962 0.09191752 -0.040643178 0.023693942 -0.2561478 0.011669109 0.20598488 -0.054104887 -0.16510603 -0.18050358 -0.056751724 -0.19716859 -0.10445055 -0.13029122
166 -0.31560504 -0.14719234 -0.14259027 0.063588835 0.23187563 -0.005431022 0.11849844 0.06951822 0.007920594 0.19780034 -0.016070506 -0.1550411 -0.033337213 -0.11778814 0.17466466 0.0040434315 -0.06733439 0.21083331 0.19876698 -0.18406771 0.054106947 -0.0060973247 0.084812045 -0.079501145 0.029073337 -0.052831214 -0.03843269 -0.02565938 0.17620313 0.0899673 -0.25080988 0.013044817 -0.004730401 0.26539224 0.30262995 0.01216896 -0.037884012 0.1304669 -0.20175493 -0.18880278 0.049318142 -0.053739343 -0.10889074 0.05948761 -0.27374378 0.25152227 0.025461316 0.13095108 0.2514623 -0.23833053 -0.04831043 0.111683406 0.13927543 -0.023533002 0.060709827 0.067499265 0.18529743 0.10953049 0.1109413 -0.11656714 -0.042249095 0.025863005 0.040444985 -0.27431396 -0.009137612 -0.13109371 0.13009708 -0.24452166 -0.034819882 0.32602134 -0.06991991 -0.10344966 0.05648072 -0.06856692 0.09555913 -0.11966856 0.20198499 -0.002400147 0.014478722 -0.06911377 -0.040924825 0.06937662 0.22724576 0.031489518 0.083790846 -0.027769774 -0.059769657 -0.20173612 0.04440207 0.16572759 0.0070924703 0.33454448 -0.019614428 0.13035186 0.015799142 -0.13204157 -0.1148529 -0.049216922 0.004634386 -0.07931792 -0.18788294 0.124553114 -0.09865415 0.17728895 -0.10235978 -0.24679714 -0.047516722 0.06652588 -0.0056108916 -0.11702547 0.012103596 0.22630258 -0.106655926 0.015978985 -0.16364631 0.062087998 -0.01955374 -0.033166703 0.10977074 0.11606055 0.102555506 -0.012370497 -0.09143137 -0.020575598 0.11813965 -0.24766612 -0.13621789 0.071043886
301 -0.17512359 -0.18933478 -0.14082143 0.099976994 0.26311216 0.22056697 0.021152461 -0.19806625 -0.33166716 0.07411903 -0.057235315 -0.039625183 -0.011532112 -0.090815686 0.12793949 -0.085353725 -0.3085236 0.01432169 0.23852786 -0.36707807 0.09670268 0.15827215 0.08239372 0.038442947 -0.046352938 -0.09094755 0.17853953 -0.2837109 0.17619087 -0.1642492 -0.16750455 -0.06529615 0.043445133 0.1111632 0.18197316 -0.24218701 -0.109308064 0.102617525 0.059419803 -0.2811738 0.12091856 0.15721191 0.09888137 0.16918881 -0.21116744 0.16153835 0.24860187 0.01594373 0.14256074 -0.09819006 0.16192576 0.078321055 0.036697954 0.039890137 0.20870736 0.12605025 0.15902866 0.19910932 0.14511713 0.039553795 0.08678106 0.00087225204 -0.19941267 -0.0716958 -0.094007075 -0.07336342 0.04175152 0.027207335 -0.025473638 0.046547063 -0.28160724 -0.2768346 -0.09527876 -0.08191274 -0.35305724 -0.021104235 0.06857354 0.15452808 -0.042796846 -0.18869214 0.018040473 0.2050956 0.2579792 -0.16333376 0.20557131 -0.099262685 0.056079973 -0.20593688 -0.11818687 0.4023612 0.19234258 0.036598638 -0.15258072 0.03204648 -0.16527712 -0.30073088 -0.19953272 -0.21522906 -0.12204211 0.28173086 -0.12911938 0.08067908 -0.2690282 -0.09230551 0.04888168 -0.0853553 0.1618812 0.06323271 -0.05294278 -0.15981668 0.21025638 0.2318566 -0.27487582 0.17140521 -0.12456459 -0.017270109 0.12577702 0.061946765 -0.16220568 0.09636914 0.22452185 0.0066240923 -0.12877664 -0.013127047 -0.023557663 -0.18331236 -0.19509494 -0.2167131
434 -0.14521538 -0.12304102 -0.11158976 0.14219129 0.14102922 0.037987888 -0.11115705 -0.021556715 -0.08516068 0.17940997 0.13005051 -0.057211407 -0.13771498 -0.10441329 -0.06205969 0.057229888 -0.09179695 0.028635528 0.26531908 -0.0571051 -0.06015851 0.024286758 0.13161531 -0.21209103 -0.008945427 -0.12329109 -0.103047885 -0.2548758 0.06281734 0.07683088 -0.18323779 -0.026567332 0.12631026 0.18450429 0.17525055 0.106292665 -0.080555074 0.14732915 -0.068499 -0.10680633 -0.039424516 -0.21451658 -0.15096152 -0.0317825 -0.2037207 0.123043954 0.112446114 0.020144716 0.15358394 -0.06195675 0.019384911 0.14375824 0.09474517 0.0506464 -0.05355526 0.21428326 0.18804887 0.17187892 0.23471145 -0.09504648 0.09332988 -0.037833802 -0.10471215 -0.07983433 -0.01249733 -0.09572903 -0.12013954 0.0570928 -0.10977549 0.1470015 -0.10018553 -0.15543815 -0.05890116 -0.25355983 0.03536842 0.051109407 0.19015203 0.30019745 0.22009012 0.19837624 -0.2036851 0.19163176 0.08416112 0.036542773 0.110931374 -0.18164715 -0.08481189 -0.21769994 -0.006260386 0.23252521 -0.106720895 0.08953707 0.022167835 0.14268309 -0.07681962 -0.074327596 -0.16494821 0.04028528 -0.06771604 0.14408988 -0.20674711 0.03693409 -0.121570855 0.072076924 0.07778454 0.020813195 0.24784689 0.10162653 0.11101308 -0.08826296 0.14545456 0.037112683 0.044499677 -0.078260764 -0.13051024 0.006247904 0.16761136 -0.09055076 -0.122598335 0.01302877 0.2764262 -0.09725273 -0.07378031 -0.20614098 -0.17115335 -0.11640268 0.0059901886 0.01031591
183 -0.30584142 -0.07923104 -0.09274524 0.16967033 0.22410828 0.19491725 0.030427525 -0.04528283 -0.12867263 0.0842929 0.06742191 -0.078433044 -0.29138136 -0.019416938 0.08959063 -0.15468349 -0.0946914 0.10963892 0.20876591 -0.17631538 0.041469898 0.3164665 -0.041558195 -0.026992582 -0.13914718 -0.12886728 0.10230962 -0.0055694883 0.09778512 0.011450283 -0.154779 -0.20024687 -0.06819311 0.29953873 0.3659621 0.041907478 0.1579541 0.18177608 0.03526847 0.089462146 0.032886095 -0.24515824 -0.14879386 -0.064542964 -0.10797565 0.15663204 0.076682284 0.020424966 0.08168248 -0.054863166 0.14618438 -0.00029326827 0.008417156 -0.035478752 0.025353065 0.10950718 -0.055512123 0.22342288 0.17026216 -0.08373336 0.08134191 -0.026058666 -0.0946016 -0.02653032 -0.095997296 -0.32075533 0.010676109 -0.22157317 -0.2970933 0.20484498 -0.10894894 -0.14354198 -0.01955643 -0.17231205 0.11643871 -0.1539523 0.13214047 0.047959056 -0.03299001 0.10677572 -0.10186851 0.17113347 0.072711185 0.072819434 0.18225256 -0.14297858 -0.07971841 -0.16444445 0.020189194 -0.014107046 0.28473857 0.091980025 0.014684016 0.08327582 -0.1069909 -0.20628932 -0.18639152 0.053547315 -0.032513216 0.45633122 -0.23932822 -0.046569258 0.10608604 0.08826931 -0.022131516 -0.037014164 -0.056914672 0.027563043 -0.04395719 -0.19568184 -0.011173572 0.076333836 -0.19591512 -0.16151269 -0.03895565 -0.0015614211 0.038935307 0.108480655 -0.06364434 -0.101102285 0.096831515 -0.2957037 -0.06920417 -0.19141825 0.073137484 -0.16381107 -0.09206905 -0.20907038
129 -0.18377429 -0.1851578 -0.08861059 0.21604833 0.2593003 0.08536464 0.0021774513 0.09404292 -0.03351789 0.09213996 0.23796867 -0.03194347 -0.15231867 -0.08914906 0.052606013 -0.04813687 -0.0689625 0.094940364 0.04086761 -0.09130611 -0.26286787 0.14442882 -0.05982913 -0.13101031 0.0042368444 -0.19537523 0.03226534 -0.14582758 0.022598876 0.19631118 -0.10335765 -0.16175453 0.002604813 0.23940085 0.109434046 -0.07843697 0.14176807 0.18593882 -0.25001028 0.04719561 -0.028677566 -0.10909618 -0.2799378 -0.022365605 -0.11264637 0.23463865 0.014563462 0.012687503 0.29466113 -0.00023024029 0.026293734 0.230535 0.103886 -0.049887054 -0.079462044 -0.02772794 0.024104169 -0.007202137 0.26268414 -0.041059386 0.07425729 0.06666038 -0.06279204 -0.25965172 -0.13111134 -0.26808655 0.08336343 -0.26919124 -0.23457144 0.17616919 -0.12337285 -0.15827034 -0.074851185 -0.19672033 0.10073954 -0.031448912 0.028329408 0.13105892 0.06384205 -0.1405249 -0.17210208 0.10807375 0.012056891 0.15961255 0.26485333 -0.14104602 -0.054271083 -0.2128722 -0.05650935 0.09275824 -0.019357814 -0.0049476647 0.062245753 -0.062301923 -0.054142673 -0.23053856 -0.077135056 -0.012642092 0.106823266 0.09662039 -0.24848993 0.039280042 -0.0009549291 0.16961251 0.054277103 0.033256985 0.0684218 0.088861585 -0.058288492 -0.063141555 -0.096733734 -0.038669076 -0.1517226 0.020986691 -0.17651208 -0.015350991 -0.01717687 -0.13470861 0.0508283 -0.13302658 0.13339537 -0.31479365 -0.093340605 -0.10620242 0.08101244 -0.19494614 -0.075083405 -0.20871961
84 0.0049963673 -0.16155191 0.01590092 0.1628697 -0.060810346 0.24167368 0.027672183 0.14971434 0.14580885 0.3092371 0.273562 -0.06364662 -0.18186846 -0.014639908 0.11798726 0.02742402 -0.07277719 0.13058129 0.44139922 0.18541187 -0.21544601 0.2532921 0.17213823 -0.12850356 -0.18996862 -0.18798493 -0.09632695 0.16819537 0.47758448 -0.20848653 0.029183822 -0.08678693 -0.118826605 0.0902226 0.22081108 0.086955965 0.13160586 0.27415565 -0.33107826 -0.04877421 -0.04833092 0.0636147 -0.24765298 -0.055048138 -0.11618886 0.23312101 -0.11734496 0.11117666 0.0775062 0.00595603 -0.07761821 0.18763103 -0.1299201 -0.10438848 0.02319764 -0.2474493 -0.12292365 0.0923987 0.05013824 0.017663447 0.13285385 -0.13320147 -0.06452548 -0.130514 0.023961263 0.077541694 0.012287732 0.14805202 0.21158469 0.029956046 -0.0333671 -0.22280006 -0.26530567 -0.74095863 0.3540412 -0.03329915 0.4963319 0.5071512 0.04621228 -0.07072581 0.044296134 0.060177345 0.101537935 -0.10510011 -0.05244917 0.029294362 -0.20424616 -0.17775825 -0.011436061 0.14896266 0.009584305 0.1708337 0.0573641 0.052968584 0.03183784 -0.14192718 -0.08259362 -0.040192705 -0.06597217 0.005552006 0.16176006 0.007339026 -0.34104237 -0.021441039 0.06826462 -0.0530809 -0.13110366 0.044051126 -0.17284007 -0.18587801 0.055015124 0.1306428 0.02927556 -0.10569541 -0.22249284 0.04781406 0.019014735 0.09273594 -0.12289158 -0.068385206 0.22588561 0.033732437 -0.23864137 -0.025994714 0.00850644 -0.11117825 -0.15040042 -0.101394735
420 0.064245954 -0.15154767 -0.078431815 0.028212687 0.116914935 0.25726435 0.13502438 -0.019327762 -0.12673584 0.16447365 0.110238194 -0.11463593 -0.035728205 -0.118409604 0.091332585 0.045556996 -0.05401757 0.045859106 0.06318039 -0.17936271 0.14616261 0.19984764 0.28914014 0.047458727 0.09005871 -0.04637703 0.15226346 0.013994677 0.24450469 0.082047775 -0.0737446 0.13439101 -0.07006311 0.20880663 0.12140676 -0.1275361 0.26798803 0.17343056 0.11272083 0.016131004 -0.013332322 0.102490716 -0.05547824 -0.059185505 -0.3599018 0.05231963 -0.09765177 0.046414014 0.25509578 -0.2764696 -0.1301106 0.21099031 -0.19763187 0.1392573 0.097887136 0.08382613 -0.09330264 0.054002676 0.027370559 0.17448106 -0.014646552 0.028265314 -0.012788221 -0.034291778 -0.16665228 -0.12617914 -0.006760522 -0.21922895 -0.010947322 -0.029625392 -0.025551317 0.1023514 -0.011939168 -0.24872763 0.09802722 -0.09170051 0.04509434 0.22884317 0.08024736 -0.19331223 -0.21053252 0.23145454 0.16838455 -0.10379505 0.24799515 -0.16924512 -0.16114765 -0.07252765 0.017788524 0.021799482 0.3514691 0.3791773 -0.00013300535 0.10386009 -0.058786284 -0.26604638 -0.25164762 -0.18876587 0.1005175 0.15993817 -0.0987689 -0.091187544 0.009000453 0.1803512 0.18032081 -0.123378485 -0.05539095 0.0931518 0.06036579 0.0101479385 0.21633455 -0.06818155 -0.17131387 -0.14205371 -0.078487165 0.120100245 0.06081655 -0.09631789 0.0664252 -0.06948862 0.2196145 -0.05570098 -0.25213867 -0.026645541 0.10835966 -0.26846877 -0.21529666 -0.32945234
249 -0.04598544 -0.26158684 -0.02235295 0.16387412 0.120167434 0.19971262 -0.08799661 0.03836764 -0.081876636 0.108081646 0.072451815 -0.018808013 -0.20449857 -0.1017826 0.021176461 -0.10828732 -0.2709874 0.19895439 0.06122802 0.004871986 -0.11491158 0.05859004 0.08540979 -0.045425218 0.17188407 -0.032844808 -0.049810983 -0.17162552 0.046019956 0.16378176 -0.14073305 -0.02096213 0.11282341 0.12951979 0.07268878 0.023102127 0.10237205 0.16550778 -0.08184449 0.018875685 -0.03542448 -0.10816948 -0.118691966 -0.018511416 -0.18995726 0.00032653857 0.07897533 0.08705695 0.09658328 -0.25021407 -0.09376336 0.119711064 0.11619533 -0.010123954 -0.030828932 0.32019705 0.19216068 0.1421718 0.035836596 -0.15152638 -0.010073962 -0.07613783 -0.050342742 0.07821889 0.055978365 -0.0413741 0.08112964 -0.261102 -0.11305056 0.32357395 -0.08472952 -0.10825439 -0.029713962 -0.20299804 0.110133894 0.048209768 0.06730187 0.25851646 -0.025136396 -0.018509682 -0.22760063 0.20105074 0.16419442 0.014036934 0.11875306 -0.21125698 -0.10286744 -0.2377722 -0.00498448 0.21795659 -0.003392505 0.30861768 -0.05176136 0.11670981 0.0030938075 -0.1058761 -0.20754686 -0.04347397 0.07694897 0.24495852 -0.2656074 0.19649749 -0.076115236 0.048221856 -0.035582222 -0.055879343 0.011134103 -0.097277276 0.012638903 -0.18201427 -0.020211384 0.07403225 0.007923485 -0.07209207 -0.1170171 -0.086362034 0.10978354 -0.14014146 0.034221478 0.0010690581 0.30939832 -0.07271484 -0.061818924 -0.1316043 -0.028889071 -0.30428633 -0.23033959 -0.04841141
128 -0.14957976 -0.35057086 -0.19803819 0.062057644 0.16949673 -0.16459015 0.23806304 -0.21185635 -0.1807002 0.06069932 0.2439596 -0.070231445 -0.20922786 -0.08148553 0.051579725 0.18543676 -0.22215553 0.092421584 0.06321516 -0.022696562 -0.09588406 0.12838635 0.12850764 -0.33328483 -0.039425097 0.11405278 -0.0040465565 -0.14128192 0.00051446655 0.059482597 0.058471393 -0.13892898 0.23895039 0.013931479 0.20154592 -0.044685103 0.18748413 0.2238047 0.0673861 -0.08781258 -0.10036272 -0.07044817 -0.24425201 0.017530212 -0.18708889 -0.11917465 0.06789298 0.25033492 0.3346738 -0.26882514 -0.19246127 0.037811965 0.013758866 -0.010278886 0.04974499 0.07664604 0.029519271 -0.06998508 0.033999868 0.09081985 0.016677996 0.09542021 0.006208322 0.18140908 -0.007560663 -0.25037903 -0.035342008 -0.11904406 -0.058384795 0.08287173 -0.023736384 -0.15480797 -0.2066447 -0.0035557677 -0.07964023 -0.08721215 0.092151396 -0.0033340422 -0.09083461 -0.026461 -0.41358045 0.08720408 0.13245337 0.0369639 0.22687498 -0.1981185 -0.10699175 -0.14585707 -0.14094473 0.01666567 0.059772518 0.15134853 0.09229941 0.13938524 -0.09395756 -0.15361443 -0.16219547 -0.031058637 -0.0048195925 0.11323633 -0.23442458 -0.04255074 -0.024445372 0.14782962 0.19800024 0.03631484 -0.050063193 0.19066843 -0.08158865 0.063755795 0.18240295 0.00861457 -0.26049635 -0.09210255 -0.2713172 0.14322273 0.020735316 0.02440106 -0.05483997 0.23542601 0.3112594 -0.3921633 -0.11650985 -0.12258574 0.07256415 0.029992182 -0.12772804 -0.15603603
971 -0.17427059 0.086449064 -0.019284712 0.38854682 -0.3508491 0.13557845 0.07165907 -0.0129333865 -0.053084556 -0.090654485 0.07647102 -0.010886763 -0.1253471 -0.16037913 -0.06188382 0.27178675 -0.20556311 -0.14039779 0.3618832 -0.15220602 -0.11033543 0.27662167 0.3716777 -0.119082384 -0.10789251 -0.48349607 -0.009740439 0.033646964 0.30231443 -0.05325674 -0.05492748 -0.0438832 0.0092189135 0.07964144 0.094065264 -0.0029667264 0.07857836 0.27952605 -0.012670008 -0.04655991 0.2945642 -0.15073317 0.06353282 0.15698132 -0.1739169 0.28433353 0.11237597 -0.04283524 -0.07116924 -0.26274294 0.14462692 0.2709427 -0.19895972 -0.00010703632 0.1277023 0.13787678 0.02366275 0.12308299 0.027697645 -0.19226548 0.21745169 0.08666411 -0.43141118 0.13414899 0.13236368 -0.012217662 0.04470055 -0.10700292 -0.055247296 0.068135284 -0.090127714 -0.11710835 -0.17220488 0.0027501716 0.10171208 0.06014167 -0.20868413 0.26484936 -0.10783415 0.046789113 0.014513652 0.45020095 0.1258219 -0.10643715 0.31403288 -0.23376954 0.009130208 -0.11678052 -0.101089016 -0.037544146 0.10500356 -0.023818852 -0.008609884 -0.0618954 0.16716452 -0.15664898 -0.37700555 0.008898115 -0.11848226 0.21971494 -0.07675181 0.0039199432 -0.32480705 -0.045520056 0.016849302 0.05729543 -0.3892675 -0.33135536 -0.14675997 -0.0052498444 0.32887134 0.42454997 -0.19784148 0.30420795 -0.20420577 -0.13410184 0.23025884 -0.19696404 -0.16152509 0.03182733 0.12837073 -0.07266515 -0.1031838 -0.18409503 0.24934004 0.121055774 -0.035167653 -0.031637896
211 -0.1824217 -0.1757032 -0.09875029 0.15619838 0.25102717 0.123757295 0.21112159 -0.07557106 -0.029441876 0.09501087 0.014330424 -0.08425105 -0.02416438 -0.21612088 0.15187027 -0.122549705 -0.08733173 -0.06133649 0.13782331 -0.112269275 0.112232804 -0.09429312 0.20095412 -0.04949779 0.18362997 0.060432915 -0.06914024 -0.0631261 0.13581565 -0.15639096 -0.08095773 -0.427398 -0.053742714 -0.007046928 0.14478213 -0.20109354 0.03153519 0.3029633 -0.080776475 -0.00026925938 0.10490256 -0.1258217 -0.12301402 0.014520175 0.03354669 -0.09405847 -0.30086726 0.0823641 0.035816554 -0.08867457 -0.118683144 0.14786382 -0.24989837 -0.042746276 0.20017609 -0.035391092 -0.00925647 0.109176934 0.15397048 -0.012728773 0.14780973 0.09547875 -0.072865315 -0.022051515 0.13885681 -0.1011293 -0.053068433 -0.43377328 -0.156629 -0.08549316 0.29261252 -0.013541358 -0.11806374 -0.06049099 0.3107939 -0.113126665 0.20747589 0.25671324 -0.077467926 -0.026862288 -0.2206944 0.04419047 0.017168345 0.22616951 0.3072 -0.10322901 -0.19246075 -0.17549579 -0.1917354 0.15410744 0.16793667 0.20331255 -0.11357018 -0.0505029 -0.1199579 -0.26136366 -0.18645924 -0.025550185 0.093522824 0.057722602 -0.05722966 0.07881896 0.12486886 0.10125081 -0.023575587 0.114168346 0.08808621 -0.004667262 -0.057430465 -0.122588426 -0.12754071 0.32058147 -0.044363007 0.00971752 -0.13684525 0.20239867 0.30966341 -0.06879128 0.06722484 -0.1327053 0.08199278 -0.16523121 0.002316331 -0.2964068 -0.027161188 -0.21098907 -0.041352827 -0.14386149
283 -0.2722911 -0.090800814 -0.100756176 -0.053207826 -0.083710186 0.055874735 0.12618306 0.0889806 -0.07610858 0.017546387 0.28131625 0.031032568 -0.25775653 -0.15275598 -0.07255938 0.00881608 -0.24165653 0.17548496 0.17283575 -0.11348674 -0.044781163 -0.143229 0.1291343 -0.33186728 -0.08595567 -0.007506091 0.0035886134 -0.13001183 0.19655465 0.09511904 -0.12060952 -0.10973008 0.15511593 0.06540232 0.17436613 0.07522296 0.023477493 0.11830865 -0.17847556 -0.07062766 0.057862073 -0.22081153 -0.13126399 0.08021471 -0.18496837 0.028857104 0.008685409 0.24010055 0.17669028 -0.11279647 -0.27209693 0.16736414 0.00060272834 -0.012427917 0.08030079 0.2629528 0.15371299 0.14960921 0.01771545 0.001395867 0.1341069 -0.122814044 0.005883658 -0.15405095 0.049605142 0.05382968 0.09859057 -0.12117281 -0.21244095 0.21391414 0.03639178 -0.023428718 -0.09765268 -0.32009834 -0.020718971 0.047791272 0.2175917 0.17765288 0.013536718 -0.12403969 -0.13612346 -0.23619896 0.19069056 0.23124805 0.09393528 -0.08250157 -0.02736977 -0.21828125 -0.03615195 0.13861428 -0.22010376 0.1086316 -0.074720174 0.07395414 0.1121673 -0.09627401 -0.15393783 0.10724768 0.14273944 -0.09421957 -0.19967552 0.2209084 -0.0099437935 0.1560861 -0.11374772 -0.3007223 -0.10447376 0.28421634 0.052436046 -0.18198977 0.021550491 0.1766841 -0.24729289 -0.13351546 -0.06777754 0.07376964 -0.042523734 0.0064580915 -0.26574385 0.1247659 0.07574698 -0.11917892 -0.097937874 -0.19349155 -0.019774659 0.07266681 -0.034592565 -0.18329537
820 -0.11174215 -0.23216307 -0.17720632 0.09210126 -0.04433216 -0.052810825 0.07234269 -0.09799242 -0.08363147 0.09620612 0.09448495 -0.19089292 -0.14074576 0.012964687 0.021188285 0.19888292 -0.13794814 0.062408037 0.04764154 -0.15394779 -0.090277165 0.011797471 0.018684668 -0.2385733 0.04167886 -0.11010182 0.032819096 -0.18298455 0.12768842 0.13703087 -0.07408801 -0.1678134 0.20414887 0.004954273 0.14527646 0.18011662 0.030339345 0.24431583 -0.01422844 -0.11046858 -0.098886505 -0.0698754 -0.30962914 -0.1684825 -0.12413729 -0.027268404 0.22069149 0.15592563 0.26754555 -0.23945242 -0.0778305 0.12346069 0.18236254 0.22226554 0.0056103724 -0.10042229 0.10485938 0.042687032 0.36351144 0.09566709 0.1279502 -0.00724472 -0.051221576 0.29163396 0.02330112 -0.023471719 0.08398597 -0.12025664 0.07314999 0.113717444 -0.18007912 -0.16498108 -0.13568082 0.026504382 0.08943685 -0.18519977 0.10142415 0.103396155 -0.0915981 -0.053994745 -0.41622585 0.2032466 0.12546544 0.09138325 0.24561019 -0.20026295 -0.2664037 -0.118316114 -0.06577527 -0.03569295 0.19930187 0.048917606 0.1147073 0.1406817 -0.067240626 -0.17734224 -0.05291766 0.14860171 0.011528068 0.032418054 -0.2838269 0.043913063 -0.13861221 0.017140167 0.092451066 0.210974 -0.056406558 -0.08546768 0.051801424 -0.06826552 0.25809354 -0.15445687 -0.31464225 0.058228713 -0.1005913 -0.053800926 0.12716717 -0.13510045 0.055762243 0.14605266 0.3803752 -0.17883117 -0.30217078 -0.14679901 0.075256586 -0.048330795 -0.14984277 -0.080516204
494 -0.3370326 -0.33951974 0.05864713 0.09782742 0.07366964 0.15520965 0.18825124 -0.0025235815 0.16316874 0.2514841 0.2287385 0.03032 -0.15419993 -0.20810959 0.068570256 0.16786757 -0.24732594 0.23878197 0.12708089 0.026158543 0.012489056 0.45104614 0.19602655 -0.24606708 -0.15805301 0.00075819716 -0.014071952 -0.33846527 -0.04190223 -0.0056592072 -0.0031682285 -0.24012627 -0.072682574 0.06435058 0.46718132 0.004614869 0.034989778 0.043154497 -0.14686379 -0.17235997 -0.021558968 0.013672314 0.030502941 0.021179842 -0.27327552 0.13923065 0.2857541 0.07044113 0.026792513 0.07093279 0.1789261 0.22898735 -0.067412384 0.13471213 -0.1513826 0.006976424 -0.0064658006 0.20676447 0.2674826 0.01715851 0.23501946 0.102963805 -0.030167848 -0.0666562 0.06679368 -0.28437456 0.036010683 -0.05633533 -0.24939843 0.30086166 0.002206891 -0.16289483 -0.19636247 -0.27166626 -0.06461652 -0.18069156 0.177595 0.0769478 -0.14355394 0.057728168 -0.25694093 -0.12773466 0.23271151 0.09982439 -0.04618226 -0.17818289 0.013210413 -0.015659058 -0.066970155 -0.03815929 -0.051552646 0.2168903 0.01720481 0.06407845 0.14508747 0.006526137 -0.2447892 0.04281053 -0.051978424 -0.03250355 -0.220277 -0.16599216 -0.24029073 0.28879926 -0.082048446 -0.18237501 -0.08478233 0.16325283 -0.01992933 -0.24189441 0.14630067 0.14553358 -0.17035183 -0.23264678 0.013526456 0.15746424 -0.04920618 -0.15424886 -0.043879367 0.07328058 0.28750283 0.034034763 0.054482818 -0.17925012 0.032256745 0.10687293 -0.23321025 -0.14069492
142 -0.30898213 -0.11915969 -0.12620337 -0.065495275 0.15225494 0.24146482 0.06716014 0.13073182 -0.13135006 0.17698857 0.0046189544 -0.03802056 -0.018311001 0.062765494 -0.14991072 0.047896493 -0.14767419 0.18175511 0.23185359 -0.03388461 0.05190645 0.13744392 0.16130671 -0.16940197 0.03762522 -0.029722579 -0.011847152 0.0150522925 0.08876832 0.04206164 -0.22122557 0.008746882 0.12080061 0.13215302 0.16490117 0.05876522 -0.04411015 0.16293044 -0.09983567 -0.3935815 -0.03549711 0.022884645 -0.13415705 -0.08071347 -0.1585928 0.19055548 -0.08846274 0.133042 0.17699039 -0.07088233 -0.026932409 0.23192675 -0.07602445 0.027989404 0.16934554 0.2343828 0.13842267 0.13621736 0.15922688 -0.021879386 0.088836364 0.06393042 -0.21661408 -0.19724761 -0.030465402 -0.10972552 0.055204824 -0.24126455 -0.02871025 0.21724428 0.0984303 -0.081577085 -0.045236453 -0.12044313 0.036166288 -0.04629625 0.12531751 0.048361566 -0.011643744 0.06312046 -0.062040556 -0.15184754 0.09621498 0.16493797 0.1608041 -0.16594464 -0.09181812 -0.075968415 0.05657462 0.3133931 0.04744383 0.16073075 -0.035762414 0.08177827 0.009464778 -0.18056247 -0.24299389 0.07109847 0.021234386 -0.03160116 -0.23252378 -0.0027252124 -0.04568954 0.2822377 0.007897023 -0.16514938 0.08341999 0.15323244 0.091715254 -0.18626808 0.17849787 0.111283764 -0.15308179 -0.11249476 -0.109354906 0.109828226 0.15491389 -0.26176006 -0.0015855229 0.09711261 0.20780629 0.012121457 -0.08781395 -0.28373438 0.030553605 -0.10274947 -0.13255052 -0.09320815
83 -0.30053616 -0.23157173 -0.10053143 0.027240781 0.17554945 0.033574875 0.09139403 -0.14535508 0.0060151797 0.015264312 -0.017872307 0.016684096 0.004058939 -0.019054772 -0.06753504 -0.09818241 0.023473894 0.17821611 0.22128782 -0.00084791984 -0.061604176 0.14944194 -0.025252653 -0.083345756 0.15272151 0.047906164 0.10292979 -0.13026631 -0.022368634 -0.09902944 -0.19238855 0.07545439 0.04898756 0.08999359 0.15669003 -0.0398557 -0.1717367 -0.027757706 0.037791174 -0.13718972 0.0755712 -0.25198197 -0.05656777 0.011703882 -0.097281806 0.025471995 -0.026694125 0.188974 0.21796317 -0.10821005 0.017583536 0.079198 -0.08791185 -0.1463872 -0.00022501522 0.2700579 0.10537001 0.17832735 0.08183232 0.028580185 0.06819784 0.094264865 -0.18292785 -0.10661178 -0.122679636 -0.04412979 0.41826895 -0.14681882 -0.15256293 0.093821235 -0.0835706 -0.11624793 -0.18907374 -0.52519864 0.11905654 -0.102918245 0.3073097 0.33712524 -0.025832657 -0.081481695 -0.14020412 0.09969297 0.12044989 0.071283795 0.11955825 -0.19385652 -0.28870788 -0.15632968 0.11848957 0.39477852 0.07456338 0.035821702 -0.02847255 0.13441947 -0.0034007144 -0.03750134 -0.28728753 0.09840602 0.11162008 -0.016444145 -0.27303514 -0.122465305 -0.20334682 0.28650486 -0.0366272 -0.060254227 -0.10085183 0.22550164 0.00032752292 -0.027363185 -0.0191947 0.106981635 -0.022795394 -0.025548128 -0.17383775 -0.006536549 0.13134554 -0.11232253 -0.08144431 0.15014614 0.13045204 -0.14479494 -0.17816563 -0.2090712 0.07540189 -0.087864086 -0.36747158 -0.19532308
377 -0.3330407 -0.19610564 -0.0895533 0.07925964 -0.009249011 -0.017589513 0.15352343 0.20284912 0.0636588 0.01733537 0.14917871 -0.013072485 -0.271091 0.017140256 -0.10859081 0.08838148 -0.29586288 0.015583571 0.03191185 -0.01957858 -0.39717644 -0.24255176 0.30425787 -0.1380485 0.06543969 0.06591939 0.02054227 -0.33855852 0.1437882 0.07319069 0.04885033 0.1781784 0.12689105 -0.15786816 0.12547244 -0.076411515 0.045432147 0.021345718 -0.13348812 0.044059362 0.039279856 -0.09982992 -0.10632464 0.24124414 -0.19720961 0.013698531 -0.07211237 0.14408547 0.36767533 -0.079767354 -0.23471126 0.13537145 0.03044928 -0.13359934 0.1740797 0.1142993 -0.025508942 0.21192041 0.14077407 -0.038802136 0.054636326 0.033663057 0.15733717 -0.20552884 -0.17354129 -0.204656 0.06521694 -0.2798074 -0.18469843 0.14247079 -0.012678703 -0.13665748 -0.17760836 -0.0050256522 -0.10796584 0.13909723 0.09140989 0.15099238 0.017791018 -0.24152574 -0.42894918 -0.17157707 0.3724134 0.20125827 -0.013640071 -0.23111984 -0.09250699 -0.0870662 -0.11550786 0.086516336 0.08256809 0.06964681 0.021861 -0.15343812 0.04803853 -0.21390688 0.04223394 0.13572821 0.15844706 0.03738638 -0.06366871 0.23106685 0.13145168 0.25870517 0.06549663 -0.09205417 0.015178954 0.21145962 -0.12726817 0.0005271122 0.1794864 -0.06666673 -0.31970185 0.24190217 -0.39150777 0.119556695 -0.11300015 -0.015108982 -0.09530358 0.0669495 0.175116 -0.3507885 -0.2142209 -0.12033345 0.06880351 -0.24083924 -0.06342349 0.0006164012
424 0.0226786 -0.23357365 -0.36254546 0.118879996 0.046121474 0.20964229 0.30246708 0.19256595 -0.24210797 0.112474754 -0.015426231 -0.1426114 -0.03480945 0.13176163 0.064974815 -0.05816475 -0.19657274 0.086794354 -0.010435666 -0.11001676 -0.09605839 0.17869627 0.11800704 0.03872493 0.044113375 -0.21388792 0.01562854 0.12183059 0.20616303 0.070539206 -0.17071259 -0.18827799 -0.041025627 0.023510426 0.1278955 -0.0023548661 0.1442701 0.1768942 0.06919406 -0.17895232 0.033565372 -0.050170373 -0.14488904 -0.08011702 -0.19707571 0.10366808 0.006828927 0.16532071 0.20010236 -0.16282527 -0.16301057 0.32065645 -0.18548724 0.040198416 0.14071141 0.021526113 0.06104467 0.08967053 0.019289918 -0.010173513 0.17788163 -0.25823143 0.003409171 -0.1482521 0.15233774 -0.039318834 0.14918856 -0.27840704 -0.07446965 0.19832857 0.025970126 -0.20496698 0.0814584 -0.17880759 0.043640953 -0.24876197 -0.06923636 0.20601086 -0.067875385 0.102993704 -0.254251 0.07612656 0.02607295 0.1502319 0.09933784 -0.20181009 -0.23334149 -0.22530274 -0.06169483 0.059955966 0.17779751 0.17077653 0.054202847 0.06976977 0.0018461135 -0.22996636 -0.16800587 0.0856196 -0.0883899 0.00441621 -0.16231696 -0.05889366 0.09838397 0.04290647 -0.088700384 -0.06895886 -0.020773895 0.22396712 0.11262159 -0.1324134 0.1586467 0.24911034 -0.08920137 -0.11894886 -0.124930285 0.23740166 0.17497846 -0.112577125 -0.05438053 0.18300056 0.24129063 -0.0059689656 -0.29196072 -0.19407599 0.021812545 -0.035906155 -0.27143487 -0.014050128
114 -0.15718731 -0.2627478 -0.22680336 0.27130443 -0.026938422 0.16385616 0.06975498 0.012516006 -0.1756199 0.07359572 0.28452355 -0.17253426 -0.090308644 -0.32379663 -0.041946273 0.11495436 0.10204119 0.122341916 0.20675749 -0.11799951 -0.13623844 0.16498199 0.06345179 -0.083107814 -0.11830599 -0.20252904 0.028949963 -0.16919178 0.15788013 0.048487924 -0.1302704 -0.30867672 0.03942719 -0.014634893 0.085730426 -0.014025356 -0.095160306 0.15753925 -0.12760179 0.0008635652 -0.045596685 -0.27128044 -0.34767237 -0.08694039 -0.12486582 0.11094352 -0.12821522 -0.03329343 0.006562892 -0.15435626 -0.24444687 0.13170673 -0.11688216 0.069796756 0.022380719 0.046294957 0.053659644 0.0837846 0.15342453 0.19755858 0.15915768 -0.2845196 0.016957272 -0.17997976 -0.07657553 0.10150735 0.010121244 -0.051525354 -0.28579882 0.1827005 -0.0063350066 -0.13554129 -0.0813135 -0.11486346 0.094931975 -0.043745875 0.1169897 0.042202886 -0.19928272 -0.10140051 -0.17871942 0.10740061 0.11027924 -0.027629927 0.33595282 0.012568045 -0.024958499 -0.37597215 -0.029274423 -0.008418899 -0.15473601 -0.062463343 -0.19577433 -0.023690704 0.019017465 -0.24111684 -0.2072842 -0.063839994 -0.13319254 0.17834382 -0.2426119 0.104476735 -0.09450135 -0.122812904 -0.08146917 0.16128625 0.05305789 0.032926198 -0.12177958 -0.10201129 0.14277434 -0.13400087 -0.29354882 -0.09971563 -0.0779455 -0.009910321 0.008482621 0.04748802 -0.01156549 -0.05664154 0.35668987 -0.12131082 -0.04511348 -0.11528353 -0.03695277 0.07809826 -0.09211819 -0.08247258
21 -0.18361735 -0.03891492 -0.22802016 0.11823759 0.08819755 0.09501114 0.21622586 -0.18325153 -0.10233955 0.12675178 0.2982035 -0.07958539 -0.1329622 -0.12681778 0.03275959 0.022963762 -0.08510145 0.14526702 0.19020602 -0.15791896 -0.051294666 0.059028015 0.06614299 -0.033020966 0.105538666 0.0671316 -0.016343536 0.014460494 0.1162085 0.09255171 -0.0031272336 -0.092621356 0.010151497 0.21045873 0.037252776 0.09578786 0.058534358 0.23618218 0.0073900805 -0.028438702 0.11220862 -0.048334837 -0.37397864 -0.1881103 -0.14115722 0.22301918 -0.02711269 0.10036009 0.44610864 -0.15483768 -0.006731766 0.22126046 0.17546485 -0.34963596 -0.11466588 0.25232446 0.12194854 -0.1648138 0.009962536 -0.008238764 0.16666137 -0.11596767 -0.12155053 -0.084688626 -0.00085856783 0.10408146 0.08766819 -0.2020926 -0.2533585 -0.14071724 0.09530357 -0.33377835 -0.038613606 -0.20828053 0.052730862 0.0066150315 0.0803056 0.018843666 0.15392454 0.05399962 -0.09503516 0.12611035 0.20645934 -0.19043626 0.22221531 -0.09804186 -0.2662883 -0.06075163 0.13460113 0.18094811 -0.014997195 0.08196731 -0.17663026 0.14130895 -0.1005551 -0.31043455 -0.25942874 -0.044315472 0.0043682354 0.256217 -0.088465676 0.071471825 -0.11039897 0.0013249931 0.056579657 0.12142509 0.035746325 0.1495556 -0.1868601 -0.057925656 -0.0012874618 0.060558464 -0.07807803 0.04695895 -0.25419292 0.09567621 -0.027989397 0.01033718 -0.049512137 -0.05982348 0.15483609 -0.28632078 -0.045033418 -0.09822442 -0.06360837 -0.07617973 -0.1265239 -0.27879846
282 -0.25747088 -0.21872771 -0.05457168 0.011057855 0.19908614 0.2507441 0.22162648 0.27226722 -0.08944504 0.17814603 0.09360438 -0.0004837041 -0.097486235 0.08223504 0.033249095 -0.0027778435 -0.23550469 0.21866034 0.2860884 -0.045365583 -0.05626933 0.2093199 0.28149217 -0.116343446 0.11302433 0.088709 -0.1305744 -0.08063177 0.17706826 0.010754027 -0.1718176 -0.040325645 0.01229021 -0.09397429 0.13043919 -0.12147733 -0.038356762 0.08247824 -0.27918336 -0.35471475 0.075995155 0.11091559 -0.16074824 -0.052159958 -0.112516105 0.12605752 0.0081707975 0.08791286 0.1742343 -0.010571833 0.16699907 0.16670726 0.053456284 -0.06186463 0.07853157 0.2282844 0.24486206 0.21040976 0.24927291 0.09118226 -0.0026063225 0.0035836499 -0.12564321 -0.1572977 0.11679837 -0.11225905 -0.031416018 -0.07821347 -0.06662432 0.18708895 0.07892139 0.0030429186 0.06302837 -0.18720827 -0.062106688 -0.11395827 0.15034257 0.07821277 0.11683014 0.13298944 -0.15092121 -0.06575196 0.24515468 -0.0014414878 0.12619193 -0.26038852 -0.1317209 -0.046767812 -0.0141199315 0.31754008 -0.0070520598 0.1871493 -0.08117723 0.07717688 -0.050469574 -0.049013 -0.24627098 0.023387684 -0.028673073 0.10323445 -0.36796528 0.018807758 -0.13408087 0.29701024 -0.05354422 -0.19460082 0.012368355 0.11544886 -0.09746875 -0.28904605 0.088420294 0.24568884 -0.08098991 -0.06154959 0.067242645 0.1495063 0.0137872845 -0.1286148 -0.1408597 0.15683332 0.3053877 0.16314106 -0.28853974 -0.22945346 -0.21683599 0.018582646 -0.12670693 -0.08674556
106 -0.20568307 0.055031866 0.03328348 0.20815317 0.15266214 0.2425222 0.114623345 0.09114627 0.020637898 0.053904247 0.20619537 0.1792991 -0.22216511 0.050607342 -0.06591066 -0.028920386 -0.124041885 0.1982265 0.057973713 0.03627843 -0.042057537 0.099783935 0.08687522 -0.22526106 0.06381237 0.032114245 -0.06785597 0.07735881 0.11739136 -0.06676204 -0.123346046 -0.13142376 0.09996564 0.090561055 0.12503295 -0.020881524 0.088827156 0.060481694 -0.09719244 -0.05069478 0.030232042 -0.013818116 -0.32044962 0.02193208 -0.12012788 0.20431624 -0.103730746 0.17070991 0.29193902 -0.10506972 -0.08538406 0.07359009 0.119905 -0.37585548 -0.06669697 0.34972098 0.13370626 -0.028708868 0.105441906 -0.079739094 0.26969674 -0.18066174 -0.114471115 -0.0870492 0.08957224 -0.013294557 0.026338615 -0.14259852 -0.2575222 0.04328983 0.1359493 -0.14996552 -0.027923297 -0.28106844 0.02946069 -0.06360434 0.03198613 -0.050458334 0.010929158 0.095919214 -0.2997065 -0.10563395 0.18970372 -0.051299263 0.055979863 -0.18067342 -0.23238665 -0.11952987 0.028599158 0.23358653 -0.056666266 0.2184585 -0.06257473 0.17947996 -0.03877605 -0.32808974 -0.23209815 0.05055016 0.04172247 0.2117435 -0.19659436 0.08213683 -0.058207348 0.02872123 -0.11209823 -0.17202245 -0.12940092 0.054056525 -0.07189905 -0.116305456 0.07225878 0.13928641 -0.1787278 0.035205625 -0.068041116 0.22597252 -0.042756744 -0.06271495 -0.031902213 0.019575212 0.12339514 -0.12817773 -0.18094137 -0.23514597 -0.13285501 -0.2662092 -0.21364222 -0.39424586
6 -0.12379422 -0.07367541 -0.0625704 0.124126405 0.21816353 -0.108552545 0.25945002 0.038970795 0.13509129 0.19128476 0.060463835 -0.059462238 -0.08162009 -0.34187883 0.051753733 -0.012779304 -0.19831713 0.0127185555 0.041982237 -0.124475524 -0.18676682 0.15801692 0.003787436 -0.17069955 -0.04153762 -0.15016252 0.11197481 -0.35348016 0.053052004 0.08816863 -0.12703839 -0.20311236 -0.10129921 0.111655004 0.061692283 -0.07917617 0.16624933 0.05275477 -0.201538 -0.28432477 0.04246589 0.01790075 0.32623184 0.0034692308 -0.41069233 -0.009290681 0.31380776 -0.08490651 0.28463238 -0.19764462 -0.014871765 -0.007596476 -0.19983217 0.31989032 0.13882205 -0.08853797 0.28152758 0.17411074 0.15750535 -0.05909571 0.2641581 0.24257046 0.106558196 0.007957077 -0.12988912 0.0082226815 -0.09793334 -0.11839966 -0.29796222 -0.0045337854 0.022191746 -0.40260652 0.17979412 -0.15987453 0.20069803 -0.1353412 0.19652985 0.25852454 -0.2149338 -0.3531031 -0.27538824 0.08630322 0.1434435 0.32471424 0.26295325 -0.24202235 -0.0068184906 -0.116039656 0.011014386 0.008971761 -0.02496606 0.14505008 0.08262039 0.048596203 -0.11009922 -0.11337472 -0.30590752 -0.17101386 0.08438005 0.010131791 -0.066110745 0.03358446 0.08788071 0.014845738 -0.29361966 0.1303119 0.07524558 0.2266293 0.1711745 -0.12847356 0.09052043 0.09778643 0.0029754129 0.09259051 -0.18178612 0.22331075 0.096247606 -0.00838992 0.18543167 0.30509672 0.09380737 -0.1796166 0.008074489 -0.12023679 0.15638869 -0.08164828 0.10557378 -0.15980765
333 0.06833057 -0.18185878 0.013242699 0.14762397 -0.064599 0.2440962 0.015688097 0.120104566 0.16548055 -0.01639509 0.22645353 -0.028371027 -0.2705847 -0.33013734 -0.023428818 -0.04094101 -0.032696925 0.045584 0.16537867 -0.05331606 -0.08915641 0.08221913 -0.008409867 0.030746914 0.06794458 -0.040006895 -0.0023459673 -0.20026511 0.16223004 0.066048 -0.23835827 -0.21774243 -0.04260846 0.023213174 0.050474737 0.010308827 -0.080795005 0.19070259 -0.33068216 -0.1310811 0.07350634 -0.26797068 -0.27784517 -0.3408497 -0.15465254 0.23263632 -0.18898046 -0.06615485 0.101988755 -0.10144333 -0.2482023 0.062248066 -0.02938083 -0.13784671 0.083982505 -0.060935706 0.14722884 0.25080308 0.16510934 0.07229562 0.45983854 -0.25114748 0.057548866 0.054462526 -0.13104804 0.039642043 0.13376705 0.013520092 -0.14529347 0.1558492 0.17747468 -0.14675118 0.12092203 -0.1430793 0.14017701 -0.06292189 0.13423488 0.13595144 -0.11710544 -0.05939274 -0.14746377 0.17841427 0.010359771 0.049982365 0.09439636 -0.06740392 -0.22565857 -0.057760764 0.18416677 0.07638078 -0.24980289 0.25344762 -0.05862458 0.20214278 0.08707249 -0.15509668 -0.28203446 0.04049318 -0.06490311 0.084995724 -0.17699285 0.249419 -0.09752012 0.08990669 -0.27326474 0.06588423 -0.052029695 0.03162092 0.33544374 -0.32448393 0.046113092 0.028131632 -0.15405314 -0.17814241 -0.07365735 0.13766731 0.09738206 -0.21741694 0.072384365 -0.067266 0.4900419 -0.16090454 -0.21978527 -0.032346804 -0.28170452 0.029314838 -0.25490788 0.033246346
87 -0.16539337 -0.049947336 0.039053567 0.087533146 0.025937213 0.12278646 -0.09513232 -0.00077766547 -0.1306487 0.019656617 -0.014331663 0.05538809 0.0579369 0.20388813 -0.039443925 0.12325597 -0.08928555 0.20379329 0.19760898 0.068451 -0.12068248 0.073570505 0.1482296 -0.027117537 0.14486064 0.076235056 -0.19539863 -0.039912954 0.07217008 0.00609054 -0.17523743 -0.086631484 -0.036201492 -0.014310203 0.2574444 0.10130581 0.014485385 0.28842533 -0.035407875 0.028461874 -0.12666991 -0.21180291 -0.21794434 -0.20077653 -0.11358716 0.25922662 -0.080408566 0.17556342 0.2597676 -0.097929984 -0.15333723 0.17055833 -0.05878474 0.044585343 -0.024679638 0.29798466 0.0958806 0.15805043 0.2627412 0.07770534 0.2959811 0.10360459 -0.1182239 0.08645541 0.21978776 -0.18398058 -0.07368352 -0.20606627 -0.095828444 0.10687369 0.06416456 -0.033947796 -0.094465554 -0.17871813 0.22908877 -0.099302046 0.2505052 0.16091491 0.056925405 0.10881496 -0.29356432 0.16449034 0.019803101 0.05485212 0.19034024 -0.07658656 -0.26365155 -0.13466498 0.010239273 0.26007843 -0.066694066 0.2140249 -0.028963944 0.05415796 -0.1507091 -0.2569204 -0.19841394 -0.09152696 -0.11182374 0.28659755 -0.19052634 -0.08073914 -0.004178415 0.056428332 0.005276246 -0.1758815 -0.121602364 -0.23691234 0.16542017 -0.13510188 0.052176353 0.11148939 -0.13394068 0.05877075 -0.20378396 0.01811636 0.081883684 -0.0085273925 0.16499546 0.09672441 0.29432556 0.2008121 -0.126363 -0.10787855 -0.034608364 -0.21376035 -0.28690684 -0.05779278
105 -0.241421 -0.123899885 -0.05331776 0.09390066 -0.022489358 0.1030776 0.13595696 0.10258856 -0.035528593 0.03464105 0.13154112 0.11143226 -0.007321291 0.045631047 0.11410535 0.19591625 -0.16448082 0.16978489 0.27420437 -0.019099668 -0.055151805 0.10005693 0.14743066 -0.1336957 0.0531941 0.075027466 -0.00044124236 0.019787021 -0.08523081 0.12047353 -0.07311861 -0.15613036 0.10956868 0.10429882 0.2944308 0.028784318 0.059823476 0.0726204 -0.061674908 -0.03862977 -0.117291875 -0.035613902 -0.2235946 -0.051080927 -0.28808573 0.15646031 0.27622727 0.23091456 0.22625658 -0.02785459 -0.0788099 0.21258865 -0.013984245 -0.016387332 -0.044003405 0.07711315 0.05631618 0.13760594 0.03567156 -0.039010677 0.14325306 -0.05897171 -0.13284086 -0.11084801 0.11468399 0.01575686 -0.00665883 -0.14213528 -0.21341643 0.13900474 -0.023126952 -0.18985626 0.015402727 -0.1891174 0.15865262 -0.110018164 0.18853365 0.15760374 0.020459509 -0.13729736 -0.33119687 -0.026556743 0.122427784 -0.06510714 0.17452142 -0.14872782 -0.1948614 -0.21575595 0.18710302 0.08341999 -0.060977302 0.34109956 -0.025031816 -0.07404885 -0.07403217 -0.25348726 -0.21825044 -0.06887515 0.048446056 0.06853102 -0.25693044 0.010433882 -0.1719297 0.14508186 0.054435864 -0.034194227 -0.002631742 0.059723847 0.09488422 -0.24790405 0.113103576 0.04312884 -0.034485504 0.03939639 -0.09200625 -0.12655903 0.18254192 0.0011770474 -0.075200364 0.07530291 0.30656472 -0.074888654 -0.0318857 -0.17716117 -0.01091281 -0.08147825 -0.17631319 -0.16493167
365 -0.01631356 -0.28303227 -0.16626085 0.11076937 0.21933368 0.17246427 -0.018873503 0.026790101 -0.12252282 0.3021137 0.17668614 0.065840825 -0.14477408 -0.16911885 0.08516042 0.049842972 -0.034589753 0.042899232 0.004467703 0.09301219 -0.040006597 0.09687395 0.10888306 -0.13927469 0.093741074 -0.0034127233 -0.039668012 -0.29557198 0.1429782 0.15616387 -0.0056881136 0.0392326 0.022092186 0.2889046 0.19944659 0.11098826 0.15086223 0.14036718 0.07872652 0.21245007 -0.003900947 -0.19411172 -0.27615714 -0.05345561 -0.33387163 0.18129739 -0.07311273 0.008300744 -0.018316178 -0.17783916 -0.18390684 0.13827318 -0.058094483 -0.16434652 -0.24711691 0.3607899 0.045342226 0.011848058 0.22290626 -0.16382986 -0.054534864 -0.089547694 -0.10575828 -0.17033581 0.07464695 -0.10197988 0.062720135 -0.38739124 -0.18660194 0.31708485 -0.05228264 0.14672345 -0.04656082 -0.020448003 0.2517468 -0.0077173635 0.09616089 0.18263805 -0.06770327 0.109435454 -0.1696278 0.28783596 0.24047261 -0.1841994 0.048563883 -0.15330939 -0.021384971 -0.32126415 -0.16353118 0.17615546 -0.059073173 0.26553583 -0.09620462 0.0358627 -0.009647507 -0.021223476 -0.34713423 -0.03541625 0.17160696 0.3477139 -0.27557477 0.19594327 -0.16637476 -0.06284618 0.042702857 0.0059415237 -0.10538036 -0.18002942 -0.08077136 -0.24360037 0.04162955 -0.07490506 -0.2044311 -0.037306193 -0.21514946 -0.060867485 0.05535019 -0.12699704 -0.06564669 -0.2538343 0.11281941 -0.08101526 -0.08788047 -0.24025226 0.04542007 -0.3092317 -0.16376455 -0.23509437
280 -0.20854223 -0.16680853 -0.10050415 -0.13059115 0.22011389 0.043098353 0.10726465 0.032364983 -0.046348833 -0.2129884 0.24807985 0.015933808 -0.085304625 -0.017220039 0.061307117 0.117344975 -0.08804487 -0.11743979 -0.0010235528 -0.025046155 -0.30404893 0.25227383 0.014979021 -0.17807125 -0.116390325 -0.10658548 0.08476732 -0.13924898 0.03960986 -0.0809399 -0.0747374 -0.14760375 0.048203513 0.21707495 0.13022302 -0.13376862 0.007937354 0.120914966 -0.14992926 0.0043131798 -0.09471374 -0.18877366 -0.20121294 0.1711247 0.026914973 -0.027947145 0.037837822 0.054743014 0.20413895 -0.010177843 -0.14742957 0.15568438 -0.0062741246 -0.01987231 0.05917264 0.20739041 -0.094629884 0.010343428 0.15716599 0.0329167 0.11303242 -0.088005215 0.097507335 -0.2557658 -0.20773466 -0.16205452 0.20392126 -0.19111332 -0.17659615 0.027460737 -0.11781176 -0.09383988 -0.2752632 -0.16701576 0.10174788 0.2520385 0.03661242 0.15410702 0.07484615 -0.15551567 -0.29192066 0.19592485 0.10720939 0.09992798 0.3284244 -0.1318467 -0.14348464 -0.16884564 0.10083015 -0.013909639 0.11087661 -0.03266088 0.08908896 -0.08276935 0.048420776 -0.30156696 -0.0077366247 -0.004468246 0.04892194 0.060057383 -0.33967796 0.097445965 -0.07318292 0.19290404 0.048056614 -0.14484791 -0.10386298 0.18873122 0.030052619 -0.044821545 0.16413498 0.14455584 -0.2596854 0.103329234 -0.1367081 -0.054986145 0.14044109 -0.040933847 0.054203246 0.056997206 0.1393834 -0.3211274 -0.27260363 -0.21406385 0.09475598 -0.081622094 -0.19885871 -0.22435096
96 -0.18610324 -0.2686936 -0.08659783 0.10568895 0.19826801 0.2847712 0.23181465 -0.17396736 -0.10152609 0.017043578 0.119512305 -0.15120365 -0.09219947 -0.15873383 -0.093818285 -0.03223421 0.18056525 -0.11372346 0.39859164 0.08385226 0.06928761 0.23559192 0.3287749 -0.10272623 -0.10852674 -0.08805621 -0.18513821 0.14261332 -0.09499168 -0.4956806 -0.07413875 -0.28327698 -0.09398661 0.05319805 0.24178776 0.033453863 0.16121915 0.02085103 0.0596544 -0.24729863 0.16221483 -0.13825604 -0.16246706 -0.30290553 -0.05623496 0.08495956 -0.0049852883 -0.0788055 0.04425146 -0.0835125 -0.3401641 0.32003638 -0.24187993 -0.12608887 0.1398313 -0.27218807 0.22938067 0.24439287 -0.0015164823 0.1550452 0.1431383 0.004864861 -0.07952477 0.12509155 -0.016391996 0.021635517 0.028713468 -0.07714441 -0.069275886 0.005961592 0.21880525 -0.2843181 -0.0066208197 -0.12973401 0.34329545 0.17221816 0.07324906 0.15067379 -0.037496347 -0.11613646 0.0034171452 -0.049020946 0.18578866 0.29491127 0.2458608 0.06772094 -0.40057188 0.07130106 0.016727777 0.17869245 0.028832387 0.19260879 -0.27750793 -0.09024832 0.14749625 -0.2424374 -0.39426184 0.036661964 -0.0634715 0.029926566 0.026946777 -0.17676614 0.097618185 -0.054291073 0.055391468 0.1266094 -0.015783863 0.051872715 0.02592253 -0.21523109 0.020566972 0.12086036 -0.0133135 -0.015898043 -0.19070093 -0.060716316 0.13814387 0.24604148 -0.027522162 0.045170933 0.49659497 -0.22719918 -0.20607312 0.027709441 -0.0408075 -0.15786164 -0.14738718 -0.10633779
405 -0.0973024 -0.080420524 -0.07929271 0.21813926 0.24361694 0.13888787 -0.030745743 0.03206139 -0.15160166 0.122759156 0.13373508 0.14548193 -0.0845725 0.031748097 -0.03586855 0.047643043 -0.013098694 -0.053148318 0.124865845 0.12403503 -0.033749934 0.016319439 0.004552719 -0.22243603 -0.10863513 -0.22486201 -0.095115654 0.032353047 0.14905433 0.043935064 -0.12754922 -0.06858677 0.020682404 0.101873904 0.11736005 0.0842045 0.043876316 0.1761454 -0.0081480555 -0.09402251 -0.05670145 -0.20183352 -0.32700473 0.06109105 -0.20243904 0.18978794 -0.20002195 0.03406471 0.19395155 -0.14994597 -0.23616879 0.029091235 -0.096263975 0.0003984751 -0.020585414 0.34615585 0.16050208 -0.0052454206 0.11561354 -0.1477986 0.14522165 -0.10811206 -0.24413149 -0.32368857 0.10329097 0.07418397 -0.027407086 -0.36946744 -0.36999777 0.02984702 0.09876204 -0.13271807 -0.094678804 -0.13628815 0.31457156 -0.07933656 0.30570847 -0.052037217 -0.11660331 -0.0045311926 -0.22505032 0.16391505 -0.10098238 0.011349667 0.10489021 -0.08802001 -0.017151237 -0.384032 -0.06795159 0.123593114 -0.33344093 0.22894439 -0.1502775 0.06106748 0.015948782 0.0857786 -0.45390853 -0.122284845 -0.18990721 0.08494271 -0.17613317 0.061050333 0.049430534 0.0033383258 0.023394194 -0.1435454 -0.15698175 0.0014942853 -0.009140232 -0.1798917 -0.028821403 0.25114506 -0.12506588 -0.0371845 -0.3026608 0.100348435 -0.03894351 0.11573822 -0.043830525 0.1758907 0.21250379 -0.19333628 -0.034350082 -0.33209234 -0.019250304 -0.07053047 -0.13748275 -0.3093684
115 -0.13626039 -0.2531887 -0.10513484 0.041252423 0.17750499 0.14965218 0.1189931 -0.16414064 -0.23537202 -0.06800494 0.1908762 -0.061292704 0.119013876 -0.2000282 0.023013582 -0.18078111 0.09546916 0.037612695 0.30487266 -0.023007788 -0.0036846648 0.14356485 0.23167625 -0.216463 -0.057453465 -0.1474388 -0.17567503 -0.01691984 0.0702733 -0.09855696 -0.0684967 -0.03383668 0.0463415 -0.062165707 0.08929442 0.08816521 -0.011811597 -0.018843183 -0.09980547 -0.06348657 -0.05132206 -0.19648789 -0.5069957 -0.1269076 -0.1769554 0.15303373 0.020317148 -0.006293147 0.18879315 -0.13550738 -0.13601065 -0.10007651 -0.015173014 -0.06591748 -0.005410753 -0.1373988 -0.0055669555 0.100232 0.012828653 0.22532801 0.016084898 -0.22018763 0.16827993 0.018586611 0.12190495 0.123986416 0.15762247 0.016447954 -0.11128553 0.24604277 -0.18830867 -0.37886092 -0.10249514 -0.22538024 0.180536 0.09924789 0.14504692 0.047360893 0.017722102 -0.006680715 -0.1304702 -0.079522006 0.2376683 0.23522411 0.10460257 -0.15338458 -0.10908036 -0.12095975 0.050297387 0.10435224 0.0124575645 0.22927837 0.11497528 0.14200416 0.013773947 -0.099885814 -0.22972746 0.012431019 0.18900293 0.0015957057 -0.1227572 0.10468232 -0.1986466 -0.04246806 -0.10599095 0.079591416 0.12032504 -0.014912664 0.04606711 -0.016430888 0.2492477 -0.012443837 -0.20427403 -0.038444508 0.0033111463 -0.20131382 0.12949629 -0.1272276 -0.08613548 0.16537721 0.37960547 -0.14743076 -0.25262526 -0.17778447 0.018919908 -0.21114233 -0.30548108 -0.28218293
340 0.0106248865 -0.4345635 -0.002542717 0.12458078 0.07945394 0.24592528 0.11693151 0.04729198 -0.09471568 -0.013876508 0.10681458 -0.15266848 -0.34568745 0.040083766 -0.08146151 0.13666028 -0.10787818 -0.02193474 0.22453336 0.21893393 -0.21488106 0.07409392 0.29270765 -0.1428669 -0.16520281 -0.10800086 -0.039683223 -0.07099459 0.18897055 -0.06814447 0.062933825 -0.087828815 0.114278555 -0.22998159 0.19612291 -0.0563823 0.044879477 0.19428927 -0.22472931 -0.16030069 -0.20858811 0.089076124 -0.45968097 0.09419842 0.085494585 0.14395554 -0.066770636 0.01008033 0.28038946 -0.15649244 -0.31491274 0.2380263 -0.025899224 0.022847509 0.07490641 0.116369314 0.088659056 0.025413109 0.025687791 -0.0070627844 -0.032946035 0.023030976 -0.35405675 -0.12390194 0.03333557 0.13404824 0.060124833 -0.25636768 -0.09899324 -0.118542604 0.10531885 -0.30195528 -0.40477398 -0.22353645 0.16642337 0.06531104 0.1493017 0.038210563 -0.11874189 -0.15968417 -0.29402336 0.1667424 -0.081255265 -0.05400654 -0.013916013 -0.14582463 -0.29451472 -0.21536002 0.005556727 0.10210802 0.28052557 0.2282469 -0.15667625 -0.13469432 0.08874674 0.04298907 -0.06475321 -0.12511054 -0.01598869 -0.061085057 -0.053516768 0.14084305 -0.11233056 0.0136679 0.22092044 0.15855855 0.1394744 0.04492718 -0.3254457 -0.19402921 0.039414875 -0.040138315 -0.08807182 0.07480121 -0.27257788 -0.037006665 0.10096826 -0.105313994 0.1578936 -0.05679576 0.25823492 -0.028542148 -0.12496938 -0.28476804 -0.029206323 0.1465531 -0.15147191 -0.3090864
473 0.0034761943 -0.2156591 -0.12419638 0.24889906 0.16639388 -0.05337282 0.10502129 -0.024835413 -0.17622817 -0.05005343 0.039769452 0.21235068 -0.08797602 -0.22796205 -0.058946997 0.073168784 -0.04551666 0.203644 0.17908554 -0.08143899 -0.08265269 -0.016941335 0.09654855 0.10346785 -0.031950627 -0.0804414 -0.0817723 -0.048796576 -0.06274603 0.17445265 -0.2593399 0.071034886 0.05284336 0.16624218 0.14133526 -0.05553419 0.13302326 0.123691015 -0.03495332 -0.2961653 -0.040295284 -0.14869945 -0.104295105 -0.12099261 -0.3785584 0.3442361 0.013748925 -0.009143143 0.3870058 -0.1728567 0.11622898 -0.020334592 0.09669171 -0.102757946 0.081855334 0.25140285 -0.017823305 0.11089428 -0.14206658 -0.10320134 0.26626223 0.023982888 -0.036394794 0.15542541 0.020874027 -0.027466094 -0.14653155 0.041054893 -0.15926178 0.097275116 -0.07656335 -0.2571473 -0.23714751 -0.23737212 0.13134058 0.06176689 0.13044621 0.17536418 -0.1445268 0.0415648 -0.14871177 0.16018578 0.11920913 -0.058717538 0.036293443 -0.15884317 -0.02131792 -0.13881159 0.09692821 0.23981197 -0.08207153 0.3152096 0.014373042 0.024450846 -0.16540568 -0.2847016 -0.22574612 -0.1478348 0.004390981 -0.011885209 -0.20988661 0.13296221 -0.32034943 0.12713076 0.029995752 0.09317235 0.058566764 -0.017074581 0.091344915 0.021974577 0.17923681 -0.029740548 -0.18328382 0.007945009 -0.3105854 0.26944268 0.11326871 -0.315402 0.06687537 0.16545692 0.09679397 -0.15948002 0.023298947 -0.115011826 0.062940605 0.007266479 -0.4296261 -0.16319484
133 -0.052032147 -0.18949322 -0.069618426 0.15488414 -0.042392787 0.08715188 0.005544914 0.091634974 0.009215738 0.045866087 0.16482964 -0.14314486 -0.09247841 -0.19049159 -0.1337862 0.09695101 -0.14762941 0.06797944 -0.061772894 0.058416612 -0.08832459 0.21755157 0.051266678 -0.08211908 -0.16945069 -0.23288211 0.15883581 0.008207943 0.2121278 0.05275237 -0.009522306 -0.06935418 -0.02344379 0.057905775 0.06293151 0.0343943 0.09159835 0.15953833 -0.21394692 -0.13848548 0.011945378 -0.050801784 -0.19510055 0.1187515 -0.17731303 0.087404266 -0.04355615 0.011926444 0.0011168992 -0.1869489 -0.04526825 0.01752736 -0.091669664 -0.05887201 0.0076703383 0.03823305 -0.08731021 0.069999956 0.2722243 0.118839346 0.10242934 -0.1622872 -0.040970135 -0.021231122 -0.23343334 -0.013968439 0.04136197 -0.11005309 -0.033353724 0.123736784 -0.10964788 -0.08500127 -0.14949155 -0.27079606 0.18445544 0.065575965 0.0737429 0.12514456 -0.059136137 -0.20497054 -0.36750892 0.12206563 0.2938177 0.1428744 0.2722097 -0.25651303 -0.118000664 -0.19172843 -0.11242369 -0.101933815 0.091355145 -0.022328634 -0.028681878 -0.12395018 -0.22523099 -0.279447 -0.2354258 -0.07397394 0.059047498 0.05301354 -0.34805536 0.072356604 0.117888786 -0.15860142 -0.020332007 0.033196718 -0.12434306 0.055193216 -0.1326055 -0.101645805 0.15127853 -0.16960007 -0.3271201 0.039840903 -0.08079579 -0.1678295 -0.00097443466 -0.08266753 0.07479798 0.07738031 0.16986918 -0.2940027 -0.27665174 -0.25686294 0.09927989 0.09659722 -0.027095158 -0.24948022
256 -0.114459835 -0.09692015 -0.16360618 -0.01783343 0.2095384 0.07614442 0.2243266 0.17317833 -0.26873782 0.22413877 0.11974836 0.011643728 -0.07341402 -0.16839974 0.09058838 -0.028660715 -0.07857127 0.00433458 0.054539517 -0.026058443 -0.061839875 0.06246028 0.11464857 -0.17762417 0.010715207 -0.15641451 0.06758617 0.016821371 0.23882759 0.34647927 -0.10937992 -0.0350759 -0.017616814 0.12948814 0.13177598 0.1192332 0.19979805 0.26256964 -0.059654843 -0.077326365 -0.06980262 -0.17117591 -0.21608217 -0.22382094 -0.3575971 0.11116268 -0.025747558 -0.004199098 0.2534496 -0.01637058 -0.10365243 0.18286239 -0.16044837 -0.10041752 -0.0086457785 0.18617919 -0.08397857 -0.03952742 0.25005624 0.03304629 0.123864725 -0.04227674 -0.08446311 -0.2622087 0.04592224 -0.11683254 0.067366436 -0.13018893 -0.076407336 -0.07346549 0.1419593 0.04590343 -0.045418173 -0.18846506 0.18460202 -0.122439556 0.237629 0.15624903 0.07086818 0.0222553 -0.19141747 0.0692195 0.097334564 0.015928753 0.23416412 -0.2783001 -0.07619907 -0.27820414 -0.063136145 0.12921713 -0.06241037 0.14654832 0.023082385 -0.14770065 -0.15948209 -0.2458692 -0.25004917 -0.045201734 0.12005428 -0.11238244 -0.34765586 0.12906943 0.11543587 -0.002527202 0.15662412 0.0912821 -0.124995954 0.03295303 0.11605816 -0.34343335 0.07865731 0.06914436 -0.13305448 0.022439528 0.049048007 0.13620198 0.12301564 -0.034872986 -0.109526135 -0.17215969 -0.03460816 -0.057431594 -0.17862143 -0.39286482 0.026557282 -0.26991564 -0.061359867 -0.3649243
411 0.09542008 0.067026325 0.16301851 0.12028305 0.21697639 0.3119442 0.10912788 -0.022978114 0.0019980667 -0.0018605548 0.26564148 -0.048011318 -0.21284942 -0.390917 0.02874202 -0.3128415 0.0013821502 -0.05806709 0.414951 -0.16519697 0.18812226 0.2800998 0.09156606 -0.023939282 0.022964211 -0.04992732 0.005459888 -0.038563404 0.073528245 -0.15673536 -0.13559146 -0.16425048 -0.10235456 -0.000751364 0.0065627736 0.023012167 0.18546924 0.28020507 -0.28766644 -0.19921638 0.0030198838 -0.25998387 -0.34892076 0.07747507 0.05433845 -0.14725626 -0.16652656 -0.22761406 0.047709294 -0.1056205 -0.17180422 0.043247383 -0.082048565 0.092893854 0.2913331 0.10872198 0.20286281 0.28778896 0.024421303 0.06971127 0.11990292 -0.034967776 0.14360024 -0.030263323 -0.053805973 -0.11336244 -0.078508 0.010333747 -0.12389085 -0.018699916 0.2987852 -0.30046183 0.0071811327 -0.11259728 0.22675592 0.048330627 0.13203748 -0.00091847044 0.13608392 0.027680082 -0.14665471 0.20145658 -0.06541311 0.35291594 0.28286725 -0.03385981 -0.18336937 -0.02828019 0.06387845 0.0019209447 -0.15497988 0.22733426 -0.12869126 0.12626094 0.15812433 -0.21247515 -0.2222224 -0.13297932 -0.0072318357 -0.071658134 -0.005463092 0.002657556 0.21911645 0.0070301127 0.02600597 -0.083598144 0.12056544 -0.039934352 0.10708015 -0.09646717 0.15286717 0.2993169 -0.09292355 -0.20513012 -0.046254206 0.24883874 0.24232955 -0.093744 0.059604455 -0.06343459 0.4353931 -0.19843386 -0.16256905 -0.26454607 -0.17422876 -0.24323444 -0.049532972 -0.012739586
419 -0.18816532 -0.28308424 -0.20394425 0.004411763 0.16907975 0.023182426 -0.09059109 0.0027426179 -0.2567763 0.11834406 -0.08269762 0.026161086 -0.27466217 -0.013142992 0.028381307 0.19092272 -0.10332193 -0.042574488 0.029455667 0.042260274 0.096226946 0.16884148 0.07428329 -0.11361223 -0.0332461 -0.13828161 0.012888423 -0.09962525 -0.040921673 -0.092888184 -0.08972594 -0.04687365 -0.09143976 0.010263673 0.1431913 0.06842081 0.122288555 0.28945735 -0.10957185 -0.22121058 -0.18775815 0.09603368 -0.38473636 -0.040960126 -0.13053131 0.28263086 -0.18340567 0.28153437 0.25463292 -0.23005648 -0.27646244 0.107907414 -0.089783795 -0.1669421 0.10036036 0.15935154 0.13860677 0.05376131 0.25331697 0.029273681 0.04679977 -0.031371627 -0.19931243 -0.14520462 0.0175292 -0.020118184 -0.12386609 -0.3839499 -0.13738519 -0.027908605 0.14374922 -0.35840002 -0.17125991 -0.18848975 0.4528075 0.14460783 0.32336694 0.10254088 -0.1327152 -0.083397016 -0.09851985 0.31509975 0.002571675 -0.06537934 0.18110102 -0.22394462 -0.28025663 -0.23397392 0.17991689 0.04329373 0.09018965 0.16198228 0.25826132 -0.063832134 0.017955145 -0.26076233 0.07424501 -0.22987793 -0.10727695 -0.008611386 -0.2581776 0.05170565 0.061866757 0.17789663 0.09503482 -0.05922905 -0.0018832003 -0.024200367 0.15267117 -0.1578689 0.054672554 0.06975438 -0.2108793 -0.011452649 -0.25873268 0.033031892 0.13692558 0.06475341 0.27905816 -0.14898057 0.025823502 -0.04990418 0.020121323 -0.21510236 -0.04894836 -0.28586 0.004252658 -0.07019956
366 -0.010489279 -0.28646344 -0.103074 0.073414646 0.027476259 0.2707597 0.13947468 0.1923192 -0.11865262 0.21979314 0.24099219 -0.13906313 -0.112987265 -0.04090856 0.14735812 -0.32750875 -0.2718632 0.3316997 0.31765917 -0.062364325 -0.024608783 0.31409922 0.23545866 -0.0640576 0.082507424 -0.07774179 0.09885157 -0.067793064 0.3128446 0.029052723 -0.040244687 -0.14636646 -0.058047216 -0.05991342 0.04535187 -0.027541969 0.1200481 0.15614313 -0.18872528 -0.24028924 -0.06370616 0.29349247 -0.011904154 0.12911549 -0.06104566 0.091987714 0.04980801 0.14406215 0.19057767 -0.32428142 0.013785064 0.08782033 0.13490646 0.23485552 -0.010074797 0.33235222 0.18224837 0.13997722 0.021955712 -0.017740447 0.1078268 -0.19438794 0.09162647 0.009172878 0.08225758 0.051693838 0.021762336 -0.3069221 -0.09155665 0.35183623 0.054596864 -0.26821277 -0.042104278 -0.28866786 0.19842148 -0.039435185 0.1828828 0.040855933 -0.13596435 -0.035500336 -0.077424936 -0.10436768 0.21901165 0.1445724 -0.045628116 -0.17874327 -0.11703263 -0.09505788 -0.07005309 0.11128245 0.038755544 0.06999821 0.006728086 0.043323956 0.06903321 -0.0013527338 -0.20424409 0.11874886 -0.09686496 0.10750616 -0.26736927 0.14243405 -0.20309007 -0.0051420256 -0.07279221 -0.050516676 0.036618248 0.037142668 -0.18327174 -0.26520368 0.0026287937 0.08284835 -0.20150883 -0.06013983 0.031032056 0.10635912 -0.008061037 -0.019122977 0.07409235 0.2833139 0.20908193 0.20393051 -0.16241468 -0.20950513 0.004153067 -0.02003876 -0.22084641 -0.2058878
169 -0.11874552 -0.25605506 -0.25739717 0.24693851 0.25746977 0.05219576 0.15660864 0.010820264 -0.08894565 -0.058475032 0.34356454 -0.09324003 -0.02565934 -0.15653881 0.040935513 0.066542156 -0.17888384 -0.08449947 0.19098622 -0.11931022 -0.06981587 0.14484914 0.12483501 -0.24637933 -0.05916018 -0.14109194 0.005483423 -0.10277389 0.009113328 0.13132492 0.13969105 -0.17477046 0.14601222 -0.01550752 0.19604445 0.027376309 0.05122685 0.019776992 -0.095533326 0.020732703 0.0048270747 -0.1998906 -0.47820643 -0.14608786 -0.11537638 0.03803224 0.12882711 -0.04689909 0.15266623 -0.046883743 -0.18501142 0.16234457 -0.020262392 -0.12163469 0.022123365 0.0010528164 0.08674237 -0.031051198 0.025990715 0.19154379 0.012530362 -0.0939221 0.08237115 -0.07756431 -0.09568604 -0.05696589 0.007330172 -0.12588933 -0.16814153 0.044558603 -0.011764623 -0.10566957 -0.12489982 -0.16544946 0.15215173 -0.051404793 0.090942904 0.045134757 0.013624259 -0.008027491 -0.2369487 0.07879124 0.122515336 0.06267932 0.34686217 -0.034357745 0.015058454 -0.19480084 -0.103561565 0.061011184 0.019487046 0.21785945 -0.028159926 -0.019070864 -0.13605905 -0.23129803 -0.33046365 -0.06714474 0.077801265 0.07695155 -0.25706246 0.035611805 0.08458516 -0.111828364 0.03336477 0.18221872 0.2597444 0.11069075 -0.10001788 -0.08298365 0.14105591 -0.0018404224 -0.1518523 -0.15615359 -0.10274564 -0.13176565 0.18609501 -0.1189745 -0.16544749 -0.04585202 0.36992583 -0.30357027 0.04502079 -0.23491125 -0.12434193 0.093445465 -0.00798755 -0.15262257
44 -0.035163853 -0.11241037 -0.08901 0.1871522 0.09832433 0.2583398 -0.009337435 -0.21542527 0.08592477 0.07872244 0.25127795 -0.079648 -0.30816463 -0.020590523 -0.0015640057 -0.020906674 0.0430117 0.09830508 0.14339617 0.099930815 -0.25282022 0.23619705 0.05991295 -0.104369685 0.008654088 -0.08257651 -0.26840118 0.12454168 0.21579634 0.19618885 -0.039084632 -0.15920019 -0.05110065 0.06168503 0.27925745 0.019099558 0.045737043 0.24578238 0.064860225 0.018473638 -0.30240953 -0.088713504 -0.014066961 0.25920585 -0.20501183 0.12835224 -0.02593102 0.22524846 0.010505416 -0.15837486 -0.22051732 0.07150389 0.08974038 -0.17612138 0.100390345 0.05666654 0.031929594 -0.017923575 -0.052373312 -0.24037082 0.085351534 -0.13032591 -0.092429325 0.0017914706 0.17615424 -0.04190016 -0.0806941 -0.26775402 -0.010364162 0.35995045 0.037750978 0.019698387 -0.29679903 -0.3587742 0.11599287 0.14020957 -0.055704307 0.014482257 0.017606048 0.23160578 -0.20705791 0.26764956 -0.05346177 0.087158605 0.14588016 -0.053828027 0.105687276 -0.17731127 -0.14146188 0.029675921 0.16539718 0.10921494 -0.085330516 0.13031375 0.06306129 -0.110139735 -0.12114725 -0.12206786 0.11858468 0.30239755 -0.21701726 0.24779627 -0.23423722 -0.17202555 -0.05979547 -0.041370053 -0.015930971 -0.01500539 -0.078064814 -0.07755986 0.079720184 0.1399502 -0.171601 0.094607525 -0.25555822 0.004013434 0.10516942 -0.23570538 0.03756159 0.02605449 0.2288171 -0.3221327 0.023019856 -0.253423 -0.08381505 -0.14596412 -0.14132217 -0.06021871
546 -0.31470165 -0.23279555 -0.062051814 0.003919295 0.0042837434 0.077861845 -0.02920419 0.11277949 -0.29392654 0.13538767 -0.018818684 -0.06387402 -0.10198524 0.05556039 0.12089126 -0.03206961 0.023247128 0.29586914 0.3095302 -0.17864834 0.06177236 -0.20232727 0.24183147 -0.13776627 0.24633776 -0.12364979 -0.50402457 -0.13159128 0.28523412 0.24908432 -0.40292484 -0.08348952 -0.079546615 0.036968093 0.12845579 -0.17176424 -0.06949688 0.17474419 -0.14894728 -0.03982488 -0.054760944 -0.26217481 -0.1435075 -0.11567076 -0.13738309 0.16407618 0.039559554 0.08895064 0.51622474 -0.06583042 -0.08661934 0.20636222 0.182405 -0.14054847 0.20733283 0.027271021 0.073273726 -0.09749793 0.25539234 0.07735128 0.4188264 0.026567549 0.051153433 -0.12293147 0.0952585 0.014929759 -0.111417696 -0.11451874 -0.18598428 0.17584081 -0.10577191 -0.29829445 -0.08033211 -0.27591926 -0.1460076 0.041503295 0.11982796 0.054087892 0.054910623 0.06878195 -0.24474439 -0.06554125 0.21000412 0.21304804 0.17354843 0.028234169 -0.15330656 -0.2036669 -0.24170136 0.14148544 0.009533867 0.2003097 0.21097961 0.015738133 -0.26214284 -0.08109938 -0.11071815 0.021034393 0.025595814 0.066298574 -0.080865204 -0.065662466 -0.018875554 0.17655793 0.019544492 0.012641178 -0.019929297 -0.117575705 -0.22602107 0.29078403 0.05914515 0.25938812 -0.28016758 -0.008091835 -0.09561202 0.14474536 -0.03987476 -0.22472975 -0.0036349087 0.19951409 0.24948633 0.20988028 0.08369311 0.037230913 0.009733793 -0.26318386 -0.23332594 0.10619023
63 -0.10650896 -0.08884947 -0.24328242 0.21894634 0.1576636 0.1163388 0.17982502 -0.11809363 -0.2064521 0.20119536 0.15454768 -0.033955056 -0.029653661 -0.1451671 -0.1553791 -0.021298917 0.0051986626 0.18857332 0.334363 -0.11456133 0.024906032 0.17942588 0.12337618 -0.15902431 0.09621566 -0.027486486 0.014444134 -0.028789245 0.12697761 0.17363147 -0.056940813 -0.2298784 0.015237209 -0.09629528 -0.03342558 0.026497032 0.10264864 0.1218984 0.0784057 -0.0076218466 -0.06489107 -0.10277185 0.10244805 -0.04153282 -0.28440666 -0.12706709 -0.09178366 0.025762167 0.112161584 -0.23858438 -0.068006836 0.047365487 -0.113670416 0.13368016 0.13285193 0.020760642 0.19748653 0.07362175 0.04756917 0.07195912 0.020907685 -0.014781532 -0.027733782 -0.065843455 0.26832682 0.12347609 -0.14039604 -0.3061958 -0.22234993 0.11887451 0.06320826 -0.054189846 -0.057674266 -0.29989383 0.3477977 -0.041175444 0.098201014 0.28147948 0.012558481 -0.07107275 -0.08087266 0.10465914 0.19480218 0.2566297 0.296498 -0.029655416 0.0071702655 -0.31172153 -0.12095847 0.12269902 0.012544468 0.17678188 -0.2239225 0.06119159 -0.12759258 -0.10794116 -0.2903306 -0.11772187 -0.031024028 0.20508398 -0.15299898 0.1419433 0.09047529 0.08570382 -0.10908053 0.16412765 0.013640752 -0.042099074 -0.062168244 0.087375306 -0.017446969 0.032462526 -0.10695379 -0.031633556 -0.14080426 0.15451732 0.0031276976 -0.084565274 -0.06285127 -0.07151763 0.17598492 -0.25075814 -0.009624753 -0.18874599 0.021303173 -0.12092951 -0.0065911254 -0.15611897
212 -0.35021845 -0.10577177 -0.0872539 -0.07735739 0.032631986 0.07948958 0.1865724 0.07165296 0.023889864 0.12994525 0.28364953 -0.072950296 -0.045479897 -0.11577559 0.08909475 0.08717906 -0.014242049 0.29761055 0.30277842 -0.023216587 -0.07394837 0.025507297 0.1427071 -0.19937468 0.23559557 0.037458498 -0.14385627 -0.066317886 0.012539196 0.0127309635 0.02764186 0.028124921 0.01986968 -0.04300168 0.22798203 0.01855389 -0.113240846 0.1793255 -0.072031215 -0.06663576 -0.16520788 -0.058253467 -0.31127605 -0.16972391 -0.188212 0.15867853 -0.01732636 0.14249988 0.3004227 -0.046246268 -0.023485722 0.13453138 -0.047481768 -0.1448051 -0.028382726 0.1535553 0.11479344 0.19668233 0.044240102 -0.03692542 0.09538145 -0.027487477 -0.18239053 -0.18676184 0.069674656 -0.004531211 0.0340445 -0.21140714 -0.28352594 0.046586424 0.11314055 -0.1413479 -0.08879113 -0.33795306 0.12299654 -0.015789472 0.25008932 0.16329268 -0.05520035 -0.032077298 -0.21825042 0.07939924 0.100125484 -0.020144783 0.2094904 -0.24877252 -0.17442237 -0.081009194 0.19359224 0.1095658 -0.069227725 0.37221795 0.094884254 0.11419943 -0.021251922 -0.14940292 -0.26913795 -0.061324693 0.20822994 0.19558237 -0.11661174 -0.05008213 -0.114914045 0.20967941 0.04101238 -0.04616716 0.034956444 -0.021242868 0.15118504 -0.22593959 0.07878843 0.06470645 0.10414913 -0.14889428 -0.063477576 -0.038897365 0.20715076 -0.123429395 -0.025786152 -0.03352347 0.34143513 -0.056037333 0.05839347 -0.2291017 -0.039216164 -0.07174368 -0.16876185 -0.19236784
17 -0.30142343 -0.16369316 -0.16132934 0.124061026 0.006507617 0.080479056 0.011117207 0.13500458 -0.01964765 -0.10552744 0.036228467 -0.057376232 0.11911141 0.19449629 0.015888771 0.035522893 -0.2538838 0.05083242 0.20968634 0.014439085 -0.17510879 -0.041671522 0.09232086 -0.041811183 0.12297341 0.15383413 -0.07977751 -0.043484293 0.2857405 0.18424231 -0.052697916 -0.026553337 -0.043099325 -0.2110424 0.2167728 -0.066109195 -0.08676999 0.28153068 -0.115219876 -0.0126815345 -0.0804209 0.0005366138 -0.20832977 -0.07803959 -0.03274827 -0.033051573 -0.06030035 0.17915224 0.3462103 -0.1360731 -0.12849946 -0.024094686 0.15718007 -0.17152211 0.005270087 0.17270067 -0.07402639 0.3178731 0.16319975 0.019044612 0.2049813 -0.21431999 0.0066219624 0.021277599 -0.09457469 -0.061449543 0.16635965 0.011696185 -0.105229825 0.21794173 -0.107555166 -0.11610173 -0.098716035 -0.15038556 0.04678425 -0.122794725 0.30127293 0.16138099 0.05553924 0.10336445 -0.26186594 -0.004532624 0.17084876 -0.014382755 0.10384084 -0.1856445 -0.24515463 -0.0022880463 0.17966543 0.094584025 -0.08384121 0.27999586 -0.03808071 -0.015648702 -0.07221177 -0.22026 -0.054875772 0.07711034 0.15949659 0.22234423 -0.2543739 0.11328958 0.04240393 0.014811779 -0.14209434 -0.1247112 0.046735268 0.008408818 -0.15671001 -0.36171368 0.27694696 0.025136117 -0.12942569 -0.04213401 -0.20185427 -0.008354495 0.21463248 -0.14049831 0.11005071 0.07036172 0.46531454 0.07587119 -0.19585727 -0.19256099 -0.074880876 -0.13071893 -0.37311018 -0.17466636
409 0.13075398 -0.069581285 -0.18192858 0.2888261 0.2746971 -0.061222292 0.28267986 0.019071175 0.12804206 -0.050678518 0.4903473 -0.112944745 0.11325869 -0.33011666 0.08159218 0.102670774 -0.30722493 -0.19352143 0.21588717 -0.052737534 -0.080654584 0.0739761 0.012654437 0.09207793 -0.06635987 -0.12640075 0.059999216 -0.23637567 0.2659777 0.10646802 -0.035059996 0.057396792 -0.4263644 0.2468941 0.14427382 0.115783654 0.34370655 0.3437709 0.021663722 -0.182458 0.22978613 -0.15946467 -0.23227754 0.03787329 -0.24029718 0.27551123 0.19642192 0.014289055 0.20918313 -0.20877688 0.14255817 -0.07323651 -0.06826148 0.081626676 0.05570971 -0.22509909 -0.1199328 -0.10507687 0.061637115 0.122418776 0.15111126 0.10167095 -0.13383818 0.13038322 -0.048878033 -0.369007 0.019172052 -0.14700824 -0.032481033 0.06336043 -0.35733455 -0.21456733 -0.1242825 -0.46594232 -0.19944121 -0.16338761 0.11798099 0.13469668 -0.10639317 0.044282246 -0.09889585 0.2533223 0.1275548 0.13850476 0.15461731 -0.17619228 -0.3293085 0.07077872 -0.006489212 0.10090764 0.112404816 0.041154366 0.04487168 0.16384263 -0.14975215 -0.092724815 -0.47495544 -0.22120807 -0.25570342 0.26085088 -0.06334706 -0.25551733 -0.21729888 -0.007569778 -0.18936579 0.02310437 -0.15609932 0.17388304 -0.17707428 -0.028545821 0.06394239 -0.061876766 -0.1159566 -0.076815076 -0.08198792 0.087973855 -0.15300116 -0.17768136 -0.0694689 0.06513946 0.2342228 -0.17022426 -0.20914666 0.009956638 -0.13192265 0.027566265 -0.2976493 -0.17138053
65 -0.24031168 -0.28931582 -0.06220273 0.24643983 0.22139274 -0.11232072 0.20856506 0.13530818 0.21511908 0.14142123 0.23447913 -0.23829399 -0.2904962 0.032821596 -0.087990254 -0.01575434 -0.020213189 -0.17659192 0.08745738 -0.18977386 -0.2673505 0.020784823 0.141624 -0.04812073 0.0070756795 -0.046043694 -0.18719697 0.3475617 0.2896379 0.21207395 -0.07807821 -0.018502673 -0.29721153 0.19926664 -0.071392074 0.09749629 0.035904136 0.19744371 -0.11178405 0.07453502 0.32232976 -0.13899457 0.048248798 -0.06960969 -0.39331895 0.07236005 0.24298397 0.0549627 0.38533178 0.08832237 -0.17246494 0.09801907 0.07363842 -0.123163946 -0.0019716893 -0.12670211 -0.061245304 0.1973592 0.1582112 -0.19014116 -0.19740464 0.18821445 0.0999342 0.079913855 -0.19209513 -0.20472024 0.15944678 -0.231692 -0.03240247 0.37990296 -0.10334996 -0.2520225 0.024119208 -0.43143985 -0.02769894 -0.108876936 0.28474966 0.14934666 0.18213736 0.11513194 0.02279184 0.37196147 0.09688319 0.20102432 0.45718095 -0.15802613 0.07797768 -0.08352783 -0.12425247 -0.0074144825 0.02810067 0.0642558 0.10386287 -0.3254067 -0.009244513 -0.10903567 -0.23369549 -0.14322387 0.07716153 -0.007872529 -0.046042647 -0.08457057 0.20962307 0.13387269 0.32794943 -0.025976984 0.060977776 0.006773613 -0.42777485 -0.08902671 0.068969965 -0.07257664 0.00026851275 0.3331216 -0.4749364 0.08254981 -0.02219411 0.14359553 -0.052919712 0.016505985 0.080237515 -0.29150644 -0.16857226 -0.16901426 -0.19926685 0.012151348 0.259467 0.20555757
232 -0.42304805 -0.17732255 -0.023161212 0.027197104 -0.031717796 -0.22687589 -0.09119709 -0.12942873 0.12224515 -0.0038661314 0.10863387 -0.11741629 -0.20023715 -0.16772245 0.15437728 0.22518401 0.050243143 -0.09709107 0.23215997 -0.102130584 -0.1705556 0.13008246 0.053812955 -0.23387961 -0.14209409 -0.054194055 0.01366185 -0.21144977 0.09250307 -0.14990194 -0.054669272 0.0006998865 0.0880857 0.16224599 0.2451033 -0.15645231 -0.019235106 0.15568756 -0.032475743 -0.020863723 -0.015734198 -0.14732331 0.07747384 0.29257298 -0.33438438 0.13141124 0.005298032 0.1680637 0.02521658 0.10284276 -0.15693165 -0.17373942 0.062031593 0.00046063113 0.21110532 0.094560996 -0.13750899 0.2738611 0.19380106 -0.13718177 -0.02238848 -0.066367984 0.01710803 -0.11729837 -0.21632442 -0.2465561 0.1717786 -0.29076192 0.04105795 0.32478613 -0.021706853 -0.1386781 -0.058045197 -0.051778927 0.048679665 0.06386546 0.16415167 0.056863062 -0.09778256 -0.02621006 -0.1991998 0.21755862 0.16079226 0.09144179 0.18640341 -0.13827954 0.18876195 -0.072919704 -0.04258721 0.07757772 0.28199926 0.11436253 0.25740433 -0.19208759 0.10270469 -0.23715363 -0.17615302 0.02815946 0.32414278 -0.09991886 -0.2428774 0.23537406 -0.22394107 0.14174722 0.10859445 0.028622953 -0.09849784 0.013345208 0.03681654 0.038248826 0.43956038 0.07868526 -0.1885008 0.40689537 -0.17970338 0.10041182 0.14458461 -0.07643572 0.13493317 0.16440801 0.056781996 -0.37966636 -0.19731651 -0.13572606 0.19772807 0.04493571 -0.10864536 -0.034992818
81 -0.23336695 0.104973085 -0.18241279 0.18200976 0.075339116 0.17015924 0.1149391 0.18768425 -0.15736187 -0.016405433 0.11800421 -0.015296702 -0.09533176 -0.08619441 0.03857052 0.048426654 -0.09062045 0.14991905 0.29449737 -0.08024696 -0.14071746 0.11672848 0.091983944 -0.111856356 0.005387222 -0.055067126 0.0368834 0.013775174 -0.035089716 0.21115638 -0.08444241 -0.20732982 0.06437543 0.21955025 0.25688955 -0.09080789 0.15243615 0.20238516 -0.006457651 -0.0076371823 0.026688823 -0.13797897 -0.1743564 -0.13184182 -0.15167545 0.0044585355 0.026261633 0.16463089 0.23226832 -0.06416213 0.067851834 0.08587126 0.07097102 0.06687114 -0.014893633 0.23964225 -0.100342624 0.07514506 -0.0076147066 -0.16330081 0.2505291 0.011225638 -0.07958506 -0.09939965 0.053139474 0.17181467 -0.27492365 -0.16997345 -0.38982433 0.028024193 0.075206965 -0.14123513 -0.17979077 -0.19121993 0.24672374 0.00042357596 0.17235392 0.14378604 -0.038234465 0.058378674 -0.1799012 0.07390082 0.031332947 0.04055237 0.123431824 0.0024867733 -0.09658158 -0.079131134 -0.016290374 -0.114691235 0.12807243 0.15363926 -0.11267508 0.016289167 0.019139424 -0.28647146 -0.3327149 -0.0065699313 -0.08081684 0.35501975 -0.21772054 0.07095309 0.10977765 0.18272077 0.14455637 0.15794607 0.104410596 0.014492448 -0.08155076 -0.29466563 0.18044831 -0.06604598 -0.19500557 -0.09769917 -0.14581594 0.23706175 0.015100368 -0.12355 -0.16339183 -0.124964535 0.15961921 -0.28718144 -0.043239105 -0.15852982 -0.040524334 0.026314829 -0.22625285 -0.40347403
252 -0.3403762 -0.13721284 -0.17177296 0.12895003 0.027119532 0.11636337 0.059727747 -0.22984573 -0.08738393 -0.048840113 0.026287897 -0.10925881 0.012125081 -0.13169156 -0.032205258 -0.13737912 0.06377044 0.10738909 0.38328114 -0.15103921 0.051450826 0.08626366 0.21811701 0.031224098 0.06821142 -0.039140575 0.021941658 -0.080677316 0.07478193 0.02517093 -0.1724028 -0.3070556 0.047861837 -0.04904804 0.11643272 -0.07276713 -0.023859689 0.12652229 0.08268772 0.10282216 0.043431252 -0.31578934 0.09234475 -0.017796226 -0.09003486 -0.030958802 -0.07458026 0.021123668 0.06221476 -0.15804444 -0.085937746 0.08576947 -0.054284472 0.2385749 0.08469337 -0.14870067 0.13609764 0.2214239 0.17806865 0.05793695 0.114837654 0.030854236 -0.12098521 0.051130764 0.21003035 0.061406728 0.012034822 -0.2548433 -0.24564981 0.19270663 0.04233718 -0.19385011 -0.049301017 -0.19424531 0.33480197 -0.04414193 0.28581235 0.35507625 -0.054717425 -0.22160134 -0.04153314 0.041615352 0.06784005 0.34638992 0.27199143 0.0056851692 -0.07263065 -0.21709462 0.014605773 0.1499605 0.09271501 0.22688752 -0.26206276 0.04289 -0.13218772 -0.16168058 -0.17305967 -0.15968983 0.10401541 0.24617764 -0.10991691 0.07033011 -0.036985707 0.14856085 -0.21059693 0.2104401 0.009913031 -0.07356494 0.01950171 -0.10715572 -0.09140175 0.1401894 -0.027413193 -0.09593166 -0.016599098 0.009964364 0.12276107 0.08304251 -0.027910007 -0.0008464626 0.26128817 -0.10719184 0.0397473 -0.15946549 -0.017789492 -0.032416653 -0.21088934 -0.10129829
58 -0.24995674 -0.0794645 -0.06209848 0.10175774 0.13382 0.1645376 0.0991742 -0.033617605 -0.09547134 0.12367813 0.026976045 -0.1648134 -0.0360456 -0.059959237 -0.09761542 -0.1682073 -0.02214177 0.32119194 0.3706152 -0.18968365 -0.08470489 0.01361415 0.1328285 -0.112419784 0.10231798 0.023592822 -0.059577852 0.07763844 0.22725211 0.22209235 -0.15307234 -0.19018704 0.040381838 -0.11996126 0.15656959 0.0016754792 -0.0644227 0.13619357 0.006800871 -0.008429593 -0.13744667 -0.13494721 0.005134326 -0.07559677 -0.031046335 -0.12747191 -0.04403817 -0.051327985 0.24689935 -0.14449331 -0.068997666 0.06869272 0.06847487 0.24472219 0.092839114 -0.02975967 0.25672233 0.32134274 0.21852408 0.038197685 0.026259586 0.08703052 -0.029468227 -0.00823078 0.14308167 -0.03326555 -0.02514369 -0.14731008 -0.1671125 0.19782916 0.03392772 -0.07417014 -0.002661499 -0.2720632 0.22059786 -0.11521348 0.20750242 0.18406156 0.045148216 -0.16690488 -0.14104088 0.14424989 -0.024087295 0.32054397 0.26994032 -0.10868143 -0.1808738 -0.20142387 -0.049126524 0.029556654 -0.056682218 0.31625336 -0.23534966 0.045732535 -0.057706986 -0.00022025834 -0.28682986 -0.068985 -0.017457588 0.08148253 -0.1905963 0.015265602 0.048982687 0.2500113 -0.09877563 0.03883423 -0.06808051 -0.09180217 -0.05836273 -0.15522255 -0.10651755 -0.02473506 0.029473653 0.006002769 0.05989034 0.0040362678 0.07511267 -0.027716288 -0.042036075 0.06029061 0.3293407 -0.10853143 -0.14366376 -0.1412256 -0.08463857 -0.14978895 -0.08646229 -0.08148554
932 -0.13308367 -0.20605892 -0.11227608 0.16507818 -0.0020857332 0.0461025 0.059832487 -0.06460364 -0.19822246 0.30631125 0.10990469 -0.025259575 0.04921547 -0.055759903 0.028678186 0.12510577 -0.05036444 0.2951783 0.26538762 0.09161288 -0.04439133 0.075096734 0.1186657 -0.19794111 0.10335498 0.057773143 -0.008543458 -0.116857484 -0.02258761 0.028864529 -0.13073963 -0.011633864 0.08043133 0.13925505 0.2269655 0.00021351909 0.01780717 0.2033883 -0.025711356 -0.26591113 -0.096722215 -0.0021087127 -0.1553839 -0.13674831 -0.29424962 0.053389348 -0.087483115 0.23693934 0.29429266 -0.2443775 -0.03376812 0.29301962 -0.06407375 -0.047257584 0.036199614 0.062707946 0.1504947 0.063080035 0.26124835 0.108023666 0.13260575 -0.060868412 -0.21756132 -0.17113549 0.25552472 -0.055586327 0.005759691 -0.13778926 -0.20696855 0.27707753 -0.00014126992 -0.3813996 0.07671534 -0.23588873 -0.016887162 -0.03908085 0.1996134 0.23205557 0.09464688 0.039908998 -0.16732128 -0.015282478 0.15397802 0.031195745 0.07852651 -0.21966086 -0.076578796 -0.16288677 -0.006847417 0.32033703 -0.105951086 0.26874334 0.08201342 0.11947556 -0.07895713 -0.26737857 -0.13079813 -0.1854393 -0.022106336 -0.02150464 -0.22460698 -0.14263351 0.0015784731 0.14474162 0.13510427 0.13960372 0.015235996 -0.0074943556 0.16405338 0.066411674 -0.0045838747 0.04948609 0.09738976 -0.17488472 -0.14461 0.0027431417 0.091263466 -0.10982024 0.11948681 0.057442676 0.41099477 0.009377599 -0.0030382099 -0.27272642 -0.11892372 -0.26446715 -0.32876813 -0.178006
155 -0.3515156 -0.213286 -0.020427125 0.23091921 0.013748069 0.20347731 -0.06179621 -0.025371058 -0.26650137 0.07086683 -0.04888678 0.0040208194 -0.114412956 -0.052686203 -0.137227 -0.055217724 -0.29735443 0.16271625 0.04525271 -0.18952668 -0.09596416 -0.01606317 0.20413712 0.13854049 0.1017986 -0.11087313 -0.076732606 0.12098479 -0.022436803 0.09747003 -0.1138673 0.02531094 0.13844284 0.2315708 0.13730164 0.22621937 -0.16133757 -0.10744244 0.27754745 -0.100431174 -0.039913345 -0.15435363 -0.028474431 -0.099669255 -0.38806748 -0.06499662 0.09903794 0.28629872 0.0040232753 -0.21984214 -0.16064711 0.21205394 -0.027069809 0.07078952 -0.14642522 0.17437097 0.031057391 0.23490019 0.15187877 0.0015758688 0.2742849 0.0053741382 0.2257974 0.07145752 -0.17701106 0.14800176 0.040814757 -0.16870241 -0.20322202 0.3214471 -0.14559872 -0.21476537 -0.14269985 0.118492335 0.071326144 0.21523795 -0.15390736 0.2660466 -0.28867245 -0.001981181 -0.040654045 -0.22975351 0.38599163 0.162617 0.37393087 -0.16382834 -0.17382678 -0.101851545 0.14059298 -0.003480259 0.20640466 0.13970743 -0.12256174 0.0190302 -0.025381936 -0.35829437 -0.19611473 -0.05350619 0.13796319 0.32955036 -0.17019033 0.13993979 0.07182977 0.058835458 -0.04072931 -0.014542331 0.2827335 0.08010689 0.09171785 -0.106288455 0.25754678 -0.10789678 -0.34635913 -0.11535911 -0.38895926 0.05254464 0.080653295 0.16514687 0.039729714 0.05459104 0.16915585 0.06196592 0.01776018 -0.18274097 0.07371486 -0.32150164 -0.13760763 -0.19602944
28 -0.035640072 -0.3591988 -0.18712676 0.16961233 0.25271776 0.2160098 0.13947406 0.02500079 -0.31406263 -0.02242424 0.15552561 -0.11812741 -0.061377767 -0.059256904 -0.11915368 0.10370461 -0.076430954 0.02851281 0.181708 0.08009897 -0.22720829 0.12240291 0.23918568 0.07224115 -0.07684203 -0.14934745 -0.17008397 -0.060004085 -0.010966457 0.19776972 -0.05635727 -0.2359808 -0.07394279 0.091992155 0.19723663 -0.029550029 0.35439268 0.24966985 -0.1255537 -0.28809452 -0.16476108 -0.13772535 -0.30570018 -0.026827851 -0.2739489 0.14651625 0.029677972 0.10251806 0.030536897 -0.06433126 -0.05535062 0.23618041 0.013632362 -0.07099793 0.006149314 -0.034459952 -0.03824805 -0.13859448 -0.033586696 0.13829638 0.03766745 -0.074450955 -0.04176388 -0.012580668 0.0070189014 -0.074872926 -0.1998864 -0.045603365 -0.237374 0.02732937 -0.1313161 -0.036206942 -0.36249685 -0.06974594 0.23287421 0.09719664 0.19421445 0.19873461 -0.16651838 0.1615457 -0.17213523 -0.051697195 0.15680481 -0.08058526 0.18337892 -0.036889173 0.1030368 0.014305687 -0.046774074 0.08262304 0.10925477 0.010775247 -0.11463499 -0.081501715 -0.048864592 -0.2801595 -0.24953932 -0.05993007 0.01847432 0.16113348 -0.26403445 0.16961893 -0.16882944 -0.09487089 0.058131214 0.10407098 0.09732799 0.13069326 -0.12436565 -0.13716148 0.044752646 -0.07712071 -0.39145827 -0.21389602 -0.22945154 0.123693146 -0.100308865 -0.13376994 -0.16829413 -0.05108464 0.33430848 -0.23806813 -0.06580474 -0.1564678 -0.11819756 -0.02697039 -0.108248435 -0.21470743
165 -0.089797474 -0.33214414 -0.030918881 0.11735832 0.22714576 0.21465483 0.15446766 -0.05843378 -0.23461373 -0.010411457 0.42444816 -0.04464752 -0.034416057 -0.26534784 0.04725447 0.10250849 -0.010534737 0.012472463 0.26140133 0.053593136 -0.07437708 0.09200291 0.2803313 -0.24498375 -0.09028144 0.011809537 -0.048953164 -0.17460564 0.06975724 -0.07002648 0.022509731 -0.032454778 -0.03486733 0.05589978 0.33667687 0.11720289 0.122308545 -0.015568369 -0.16960433 -0.07029814 -0.17808944 -0.12743051 -0.64542085 -0.14056025 -0.00814831 0.32854947 0.03326887 -0.10170286 0.09926915 0.04937774 -0.16605757 0.0919804 -0.12683633 -0.07652274 0.026783127 -0.17400596 -0.021557584 0.087284856 0.29796878 0.2988707 -0.053854246 -0.10051328 -0.08604663 -0.05404258 0.0016371238 -0.3029232 0.0032045185 -0.13709123 -0.07571916 0.17161947 0.0043323217 -0.14576334 -0.082821265 -0.054978102 0.05097357 0.01910899 0.13332224 -0.033169948 -0.002162531 -0.12890768 -0.20578071 -0.042871363 0.06359602 0.009710219 0.37901706 -0.1724194 -0.106086604 -0.111589715 -0.073512636 0.09181674 -0.06385541 0.21114627 0.07695656 -0.02017207 -0.105750136 -0.18576477 -0.19456483 -0.05397873 0.13997668 0.1313881 -0.23394021 -0.08137875 -0.14266793 -0.106730185 0.0067368452 0.11945005 0.017292904 0.04916128 -0.030898217 -0.17315947 0.057840757 -0.13128705 -0.19538333 -0.07365916 0.068844624 -0.13568832 0.12234029 -0.08148493 -0.07847912 0.0017358739 0.40835088 -0.10891752 -0.12424537 -0.37968558 0.05120153 0.083593585 -0.107035756 -0.30526322
215 -0.24420664 0.026063053 -0.12241784 0.06414503 0.16957292 0.16830625 -0.05883448 -0.22589707 -0.06820227 0.10977224 -0.03586163 -0.07285865 0.093489826 -0.11314228 0.08740877 -0.08018535 -0.10697432 0.07983904 0.16956873 -0.31721368 0.010371889 -0.097028255 0.15865168 -0.057774242 0.09197631 0.23588161 0.11737508 -0.15900064 0.15012136 -0.050592672 -0.038801443 -0.0384579 0.05863101 -0.024697913 0.37315342 0.043992393 0.05560219 0.10442739 0.00873193 -0.12851241 -0.21079266 -0.11586167 -0.12734799 0.100711405 0.045289233 -0.14503458 0.112331845 0.0767661 0.39092568 -0.106474295 -0.10928877 -0.00586193 0.11094388 0.10399934 0.22265106 0.258288 0.106862366 0.2790811 0.21657546 -0.007347624 0.12915143 -0.19071804 -0.006348817 -0.06832243 -0.19787034 -0.033977155 -0.09171143 0.08166123 -0.30066368 0.07850823 0.20996416 -0.3262178 -0.26943773 -0.088907674 -0.17350928 -0.023661135 0.16516386 0.07325355 0.05337415 -0.061581776 -0.4196905 0.046143606 0.055198632 0.070311435 0.019795703 -0.14370285 -0.42260632 0.06804798 0.066398315 -0.035203923 0.023375316 0.12580076 -0.31054735 0.08377129 0.037462387 -0.40352967 0.049802814 0.08384387 -0.17953582 0.40795577 -0.005210242 -0.010201335 0.07474888 -0.07172915 0.09359198 -0.054210234 0.175381 -0.057246793 -0.104879215 -0.19985628 0.15161833 0.035172045 -0.26513377 -0.013269767 0.046953615 0.23697136 0.107731044 -0.089984916 0.030493213 0.102827385 0.3376565 -0.21021822 -0.21255116 -0.22357172 -0.19003868 -0.30104855 -0.13885579 -0.23920737
303 -0.25453636 -0.04089037 -0.21785969 0.020202199 0.13742684 0.33658326 0.18260697 -0.089769706 -0.14843975 0.13730922 0.18434677 -0.09339004 -0.1374253 0.011410528 0.07762712 -0.060214296 0.018656136 0.13669528 0.2986533 -0.062274627 -0.18424451 0.16358972 0.071783915 -0.15809356 -0.0032707227 -0.0034476514 -0.13538958 0.012593908 0.14714935 0.05055065 -0.08919179 -0.3299126 0.07423942 0.113741346 0.2197705 -0.08056915 0.14118123 0.12986022 0.11497685 -0.07363598 -0.057721883 -0.09783504 0.14621088 -0.15833127 -0.123570524 0.018213164 -0.026687004 -0.018780924 0.16151455 0.008480987 -0.15895613 0.2122755 -0.13104062 0.08764799 0.15198277 -0.09039566 0.19588755 0.10964678 0.1379433 0.00032583604 0.23150022 0.0025286453 -0.18771861 -0.18125008 0.082113214 0.058035057 -0.1671891 -0.24828398 -0.19709584 0.013024515 0.18533273 -0.08158815 0.0120873265 -0.19907874 0.22728525 -0.032341223 -0.01462175 0.2174196 0.09520167 0.0073400447 -0.06433964 0.13509473 -0.031094527 0.17004989 0.13416545 0.0024451467 -0.030489894 -0.15249826 -0.08051477 0.2461148 0.097541094 0.24111594 -0.37999323 -0.09946199 -0.120888084 -0.31858015 -0.33138543 0.0104873935 -0.032177165 0.09570633 -0.07002393 0.122603394 -0.021945687 0.060216133 -0.056718744 0.20140235 0.040622383 0.065697335 0.047423303 -0.14853728 -0.03441646 -0.035153143 -0.01450446 0.06258236 -0.025406646 0.13343124 0.0964463 -0.027382264 -0.15180227 -0.0863909 0.19948848 -0.2659784 -0.056059226 -0.071541145 0.010792887 -0.14230435 -0.19481185 -0.14069314
