1005 128
2 0.42817423 0.21055496 -0.084901914 -0.47396106 -0.28755778 0.52409834 0.38409588 0.48221564 -0.23128395 -0.015026958 -0.47802553 0.16619313 0.19564928 -0.050771844 -0.077017196 -0.73519164 0.51400656 0.48876524 0.3265835 0.27734694 -0.33746722 0.38497144 0.31799868 -0.7336058 -0.5174164 0.12232345 -0.52470225 -0.59832084 0.41681632 0.32927936 0.4334701 -0.1503975 0.31338507 -0.24135697 -0.6341597 0.121953 0.103373304 0.0067361 0.20097072 0.4098579 -0.05977807 0.16657315 0.5018104 -0.63805485 0.23956583 0.20772246 0.06887723 0.03689548 -0.2790025 -0.022277296 0.0981873 -0.36740127 -0.12320054 0.9385299 0.28225845 -0.52203876 -0.059520274 0.17068431 -0.43106377 0.38221347 -0.2753905 0.59624213 -0.28052938 -0.11431903 0.46994707 0.46919817 0.14003143 -0.33232966 -0.8944769 -0.094025016 0.33877903 0.14736165 0.5801726 -0.063677125 -0.049484283 0.24274002 0.34655845 -0.31019318 -0.1475327 0.012750415 -0.029851094 -0.026479969 -0.10831827 0.16346918 0.3621969 0.12939218 0.2790976 -0.68597865 0.28386936 -0.27096364 0.29046312 0.5177446 -0.45236295 -0.950801 0.2656119 -0.022293422 -0.48817298 0.09847123 0.3608272 -0.14245376 0.99860996 -0.33994827 0.63788176 -0.14197335 0.37684345 0.19680937 0.5467914 0.51512796 -0.28319278 -0.112843916 -0.20382161 -0.07917152 -0.26194453 -0.54371387 0.3654457 0.1318653 0.04277107 0.23262897 0.06683613 -0.23306237 0.46523327 0.12530531 0.04175109 -0.2690463 -0.40098944 0.29692003 0.36322287 -0.455456
5 -0.28140527 -0.3410601 -0.364737 0.98520243 0.69384235 -0.19380912 -0.7248747 0.0721319 0.18158881 -0.32722023 -0.3245477 -0.04514697 -0.3032446 -0.2774058 0.044919483 -0.19765528 0.2210584 -0.3234782 -0.2596381 0.74308836 0.04974981 -0.21716218 0.5861419 0.23438217 -0.3327812 0.17663655 0.06381799 0.4457848 -0.29708076 1.1075897 -0.48019287 -0.34965938 -0.39778048 -0.36663195 -0.2990913 0.046477232 0.45756215 -0.7173327 0.15525998 0.54299384 0.8683824 0.2256806 0.15838595 -0.008959754 -0.3295011 0.07750374 0.09724856 -0.32800156 -0.41317457 -0.6951503 -0.4834391 0.0620548 -0.13600576 -0.21100134 0.8286668 -0.010777949 0.79890007 0.66941845 0.054705653 -0.22457781 -0.5751757 -0.60938233 0.21856716 0.58904845 -0.6404465 -0.28400683 0.21370155 -0.36975446 -0.19315447 -0.28333485 0.79409325 0.35489884 0.06288007 0.05745346 0.449246 0.36710402 0.017055372 -0.8395796 0.19184585 0.019748049 0.22216487 -0.2185774 -0.30715233 0.39863297 0.1996351 0.3818513 0.019654725 0.5759346 0.13450436 -0.50630575 0.26189652 -0.45113763 -0.24058603 0.24946828 -0.70523405 -0.3154942 0.3860802 0.5921628 -0.2474502 0.12163146 -0.75643426 -0.04657383 0.006136377 -0.2812794 0.21707642 0.07337863 -0.09668511 -0.4263699 -0.3489779 -0.23110108 -0.19421607 0.517699 -0.3129121 -0.32481787 -0.16583416 0.18868122 -0.42558527 0.36090335 0.93316025 0.28010684 0.3211135 -0.11592878 -0.37745872 -0.1186564 -0.1374867 -0.045994096 0.21062702 -0.5111685
0 -0.3442799 -0.34840682 -0.39399773 0.36227784 0.41462216 -0.3485103 -0.7188873 0.30715925 -0.068613894 0.23862852 0.27828228 -0.76922685 -0.25375998 -0.3123582 -0.5813679 -0.4608958 0.43347707 -0.75521964 -0.29623505 -0.0957205 0.16880639 -0.35964164 -0.13439688 0.58331025 -0.16778193 0.20750198 0.2685693 -0.14837722 0.2692396 0.19390738 -0.20785537 0.028087653 0.07814402 -0.8426968 -0.22107497 -0.31832856 0.43579593 -0.41753948 0.52158964 0.28293467 0.13953412 0.19820133 0.06613921 0.47078115 0.11367861 -0.35030872 0.3990466 0.13390157 0.0008277903 -0.12193449 -0.58475673 0.10255575 0.29021025 0.18010633 0.6039686 0.22031 0.6686857 0.16776243 -0.7581865 -0.5293279 0.03322618 -0.35808995 0.40864298 0.4772204 -0.4938342 -0.506888 0.3606563 -0.80371654 -0.4322095 -0.44756857 0.28242174 0.24964435 -0.012124479 -0.4047878 0.7340584 0.3216858 -0.20644218 -0.09966546 0.15356986 -0.46448368 0.14793818 -0.014668925 -0.246539 0.05085845 -0.071209095 -0.4892655 -0.16322768 0.37853724 0.15805359 -0.072303824 -0.28628537 -0.77327037 -0.10376525 -0.104820944 0.014584859 -0.60935736 0.15782523 -0.068875976 0.228874 -0.19680806 -0.22186078 -0.16298135 0.425689 0.20656216 0.8498739 -0.030446406 0.084725924 -0.09213057 -0.33993176 0.6463726 0.17129202 -0.4141322 -0.0035640197 0.5509305 -0.05743903 -0.08989 0.05978246 0.06466479 0.6709207 0.32724118 0.4260627 -0.013285418 -0.32130072 -0.12380838 -0.84427154 -0.2565195 0.1041423 0.4856091
13 -0.82266426 -0.40481693 -0.4752279 -0.30952707 0.17376637 1.0066458 0.41922712 -0.6507333 -0.473968 -0.3389531 -1.038273 -0.64185846 -0.19277962 -1.038394 -0.2859655 -0.3428132 -0.829886 -0.2987196 -0.5698473 -0.3696082 -0.5147516 -0.13442259 -0.13373196 0.07317567 -0.36322433 -0.517614 -0.2857011 -0.15394907 -0.38261414 -0.09470302 -0.19147405 0.37606448 1.1350151 -0.8546129 -0.06481989 -0.015570099 0.017516073 -0.5715467 0.45543182 0.00077600626 0.049698718 0.07210659 -0.25237793 0.2593181 0.37970835 0.43098623 -0.38180283 0.0052943574 -0.29583353 0.31492838 -0.43255323 -0.31995097 0.08229255 0.31676492 0.061504036 -0.74580985 0.010863399 0.15011126 -0.39840353 -0.03871713 -0.5046383 0.68299216 0.17476605 -0.4571266 0.22432414 0.25863603 0.3609548 -0.066712886 0.21291833 0.31589246 0.36941317 -0.0388349 0.17939268 -0.7709913 -0.29899412 0.4393179 0.1808711 0.37265077 0.56474066 -1.0291092 -0.1351143 -0.18317638 -0.42148057 -0.69651836 -0.4789071 0.13201585 0.5269589 -0.42160198 -0.14164162 0.0022592093 0.26137784 -0.5517448 -0.5114463 -0.67510974 -0.73957163 -0.3629375 -0.38474146 0.4999511 -0.8220209 0.6433167 0.17769465 0.24609856 -0.26453748 -0.30708942 0.4633988 0.05816551 0.34011704 0.36356273 0.29139605 0.23464923 -0.28856358 0.16021575 -0.3736769 -0.32754678 -0.113016956 0.0136768455 0.85418814 0.96050984 -0.050366186 -0.111042835 0.6325228 0.0048135566 -0.08933198 0.6710697 -0.447539 0.07215837 0.5083679 0.052192397
7 0.5143225 -0.5361269 -0.7399737 1.1188213 0.14642102 0.4728887 0.003444187 0.048989356 -0.08918874 0.24791785 -0.42120358 0.59178686 -0.8902581 -0.40113607 -0.018449493 0.27513456 0.5136013 0.032711547 -0.5580621 0.90207636 0.047285706 -0.011289861 1.0869801 0.3170081 -0.46696424 -0.4220062 -0.26489788 -0.34386382 -0.38536265 0.90863913 0.4459807 -0.029231856 -0.42482573 -0.72430426 -0.6099577 -0.2991439 0.21311474 -0.7416883 0.11345867 0.15784436 0.126387 0.07268293 0.18537529 0.16980751 -0.17871815 0.35856977 0.35646614 -0.23072864 -0.41211224 0.04279128 -0.610812 -0.11780116 0.30200934 0.16923934 0.54351515 0.4455988 0.5221542 0.46027756 -0.10428984 -0.019733876 -0.76417387 0.11406549 0.23304743 0.58823353 -0.97420883 -0.2702953 0.4914726 -0.040542975 -0.8999476 -0.24238001 0.23264246 0.98800415 0.021980569 -0.2258473 0.6163327 0.41498116 0.46905786 -0.31972367 0.22447018 -0.7668955 0.25201192 0.443231 -0.749012 0.01038007 -0.16657564 -0.22960605 0.061516203 -0.32140052 0.1414656 -0.5825749 0.18896596 -0.32136837 0.12486557 -0.16559905 0.24295495 -0.1411615 0.103698045 -0.078983285 0.010346138 0.34462488 -0.48099416 0.029267993 -0.14977644 -0.22224393 -0.16936897 -0.33144307 -0.013169777 -0.15323654 -0.68721336 0.8110783 -0.0256791 0.4640975 0.48719934 -0.35491064 0.6178972 0.057637677 0.116479725 0.12070539 0.4808236 0.20385629 -0.12937589 0.26481584 0.21340688 -0.4215015 -0.5096729 0.55523723 -0.117974 0.0294099
1 0.00074877334 -0.13722917 0.0894152 0.46201223 0.49720886 0.10580406 -0.048122793 0.16693024 -0.11969416 0.5712907 -0.30154982 -0.6616243 -0.18890214 -1.0460118 -0.13554989 -0.43016285 0.61484 -0.3465298 -0.20788594 -0.09141984 0.047124088 0.14616309 0.46989706 0.056534395 0.31851268 -0.43929392 0.38373715 -0.3454183 -0.23131977 -0.25329223 0.1880048 0.43641275 0.42232186 -1.0527974 -0.18216728 -0.62173307 -0.1727675 -0.35987586 0.26263064 -0.20346764 -0.3603729 0.08579721 0.4651467 0.31166962 -0.47299582 0.075284295 0.63305825 -0.22524683 0.18891557 0.17175369 -0.5535937 0.33199987 -0.04952683 0.5252576 0.8997152 0.19116496 0.47289345 0.19787674 -0.48664406 0.020895446 -0.39924902 -0.1927579 0.2846495 0.48125303 -0.49716538 -0.58730495 1.2525076 -0.43127996 -0.68302876 -0.2629799 0.6321574 0.18394038 0.07658206 -0.71621877 0.48260567 0.4138984 -0.55015016 -0.8395989 0.29648155 -0.4721441 0.16484778 0.07620636 -0.0010835466 -0.19486573 -0.43864664 -0.66011596 0.19401862 -0.037428923 -0.19682238 0.09793059 0.47420928 -0.5600437 0.16224264 0.23206833 0.68280596 -0.29467487 -0.0026345327 0.16242306 0.034053314 -0.033632815 -0.0105175115 -0.0011677173 0.25590253 0.6613907 0.6265398 0.23744518 0.3243214 0.10100726 -0.37673554 0.42907038 1.0233032 -0.050346427 -0.14090729 0.059131395 0.082032844 0.30706534 -0.31882367 -0.20598288 -0.15473242 0.28224427 0.12374132 0.61512893 -0.37683123 0.008478541 -0.6110932 -0.031317405 0.61290103 0.13987911
6 0.3114688 -0.120067164 0.4645656 0.26552296 0.37896663 0.11993476 0.31041485 0.58123404 -0.6102462 0.5121717 -0.3343721 -0.5052203 -0.39419854 -0.7648597 -0.26632512 -0.39682835 -0.14084134 -1.619254 0.20114854 -0.36366752 -0.4967835 0.21091166 0.53672665 -0.48914012 0.28690213 -0.033425927 -0.05734172 -0.3366645 0.32596043 0.15770228 0.31891048 -0.40327922 1.1748563 -0.5506452 -0.47276884 -0.029866701 1.1464422 0.35525426 -0.1583429 0.08680985 -0.34289813 0.034143798 0.8735538 0.06270613 -0.8056948 -0.12576771 0.47404534 -0.81171966 -0.21758296 0.5052216 -0.55876195 -0.117325336 -0.089191385 0.79514194 0.8328449 -0.77805436 0.0562608 0.7129143 -0.94443387 -0.315729 0.5131769 0.709388 0.26637188 -0.20884702 -0.41697586 -0.18124102 0.18976395 -0.7237181 -0.6351967 -1.1920582 0.18052386 0.34609848 0.39050433 0.32920092 0.80052674 0.9453237 0.3922008 0.7048218 -0.012312303 -0.1619084 -0.69608444 0.23667066 0.25980717 0.066326946 0.459719 -0.057709437 0.48555362 -0.38752577 0.3075342 -0.013070916 0.04383819 -0.4795535 0.30418774 0.25627497 -0.6631058 0.14227836 0.3661294 0.16110885 0.21219464 0.09224202 0.43128714 -0.13591276 0.5984822 -0.038950883 -0.044965085 0.25782123 1.0872716 0.20559745 -0.13771707 -0.21051425 0.5959476 0.50337243 -0.053861257 0.24666812 0.02426013 0.42952365 0.1566356 0.42523974 -0.24715152 0.014327857 0.33068886 -0.1658524 -0.30185133 -0.50489146 -0.92027885 -0.2625127 1.1879445 -0.026756119
160 -0.028746912 -0.07596432 -0.36735713 0.59432656 0.18597893 0.17637397 0.004576149 0.08805725 -0.29838017 0.2907573 -0.38072377 -0.55572623 0.032293774 -0.4632222 -0.19847266 -0.27535096 0.24487576 -0.13688076 -0.116242684 0.26268336 0.106782146 0.13915563 0.39726567 -0.12179376 0.0073559117 -0.3347436 0.06958657 -0.22364497 -0.18080261 0.25698814 0.063977115 -0.14158374 0.45477247 -0.42116228 -0.42191634 0.07756794 0.34781513 -0.21807167 0.2825999 0.2788987 0.2157637 -0.2117353 0.29398403 0.035468068 -0.1705531 0.17823148 0.23292027 -0.2641056 -0.17273529 0.17689012 -0.05455507 0.016996756 0.42427865 0.33197722 0.39455044 -0.13426346 0.32531524 0.08175297 -0.3895567 -0.1902994 -0.2467698 0.27385372 -0.023551313 0.09036802 -0.07782442 0.08944499 0.3957196 -0.18824983 -0.4248656 0.013576776 0.2209619 0.38409698 0.26041445 -0.5299695 0.23130363 0.309996 -0.069291204 -0.09262713 0.4605048 -0.16107726 0.09826433 0.23917249 -0.042624023 -0.10164101 -0.04913527 0.0931344 0.299685 -0.24240193 0.12288348 0.064803615 0.11547645 -0.17698337 -0.33162683 -0.21479367 0.091265835 -0.0012835349 -0.061143868 0.41039664 -0.06965761 0.007385786 -0.04608784 -0.090809695 0.4818848 -0.004008466 0.23823997 -0.09793335 0.24336123 -0.11176649 -0.36617073 0.2290491 0.607176 0.22966455 -0.21007742 0.15020555 -0.04357259 0.4436817 0.1196835 0.5523505 0.10478427 0.10323232 0.41687545 0.5225932 -0.28179485 0.14105615 -0.19379658 0.37376806 0.4701993 0.0948082
62 0.333593 -0.64204764 -0.36924058 0.51115 0.12690282 0.08706304 -0.5167444 0.2391569 -0.37047964 -0.14570712 -0.3293609 -0.2258794 -0.1993554 -0.39381132 -0.4626767 0.2862916 0.50153196 0.13476954 0.20788479 0.12666206 -0.54727376 0.54440874 0.05666403 -0.010959837 -0.5056431 0.039990336 -0.1601003 -0.26379934 -0.49597272 -0.11860676 -0.2106344 -0.70241135 0.77159876 -0.65452796 -0.40327024 0.31615478 0.53591305 -0.3847137 0.6888865 0.8481972 -0.498432 -0.40247697 0.50824857 0.16382696 0.213387 -0.24954063 0.28194976 -0.26779082 -0.55766183 0.1067128 -0.6135195 0.21674049 0.18466184 1.1453881 0.3969086 0.09576986 0.20749032 0.51801866 -0.35343117 0.023611741 0.21968876 0.62513137 0.082190126 -0.114733644 -0.50019896 0.20530629 0.08982529 -0.4067552 -0.33943212 -0.048835818 0.28776318 0.39036557 0.76360345 -0.061763164 0.3449828 0.33717746 0.39174864 0.18466513 -0.23971118 -0.36540502 -0.0019994103 0.18201742 0.3561713 -0.047998898 -0.63753736 0.23886372 0.9508757 -0.19946828 0.017468926 -0.0793979 0.5497754 -0.2678791 -0.62884766 0.076526605 -0.16549748 0.27854443 0.22539586 0.4906431 0.4246218 -0.5278712 0.2801119 0.005860669 0.10543556 0.35119733 0.5207525 0.59862584 0.4421272 -0.19887702 0.08026917 0.22851497 0.06964534 0.29322118 -0.26199257 0.6351915 0.7738022 0.64274365 -0.015250059 -0.54307985 0.27651504 -0.4388604 0.2319793 0.1797738 -0.10568273 -0.2937114 -1.0181721 0.8487763 0.39422715 -1.0144532
14 -0.3963191 -0.6778564 -0.2348469 -0.08787205 1.0261474 0.18945743 -0.66145337 -0.09678403 -0.60276675 -0.0020291554 -0.20817678 -0.3606298 -0.30627692 -0.3902425 -0.3561093 -0.00010588711 0.5464273 -0.15417376 -0.14254844 -0.067158826 -0.21213832 1.0045933 0.77584165 0.21337281 -0.4478684 0.021472126 0.35965192 -0.14757907 -0.62246245 -0.22842467 -0.208981 0.90965486 0.18242544 -0.0916596 -0.27933663 0.05099625 0.8548148 -0.5712419 0.23759879 -0.106857084 -0.26811612 -0.5090606 0.11560337 0.4655817 -0.026025707 0.8153252 0.4439993 -0.66288036 -0.5321192 0.21580541 -0.59758645 -0.4985527 0.27537838 -0.022736227 -0.06468661 -0.10672063 -0.27525234 1.141102 -0.5406932 -0.12450403 -0.86730176 -0.12560333 0.16222736 -0.3055711 -0.4938513 0.63562363 0.9285991 -0.7902117 -0.092728294 -0.44847795 -0.022753632 1.830962 0.26910934 -0.35682005 0.8747389 0.63356274 0.32590324 -0.42658097 0.33505204 -0.90379936 -0.32368466 -0.25184515 0.09243984 -0.39693508 -1.1704286 0.75348145 0.14055078 -0.79687726 0.8281145 0.14578132 -0.26255688 -0.089135826 0.06881211 -0.39846098 -0.69647455 0.4905676 -0.48594877 1.1587743 -0.25076833 0.78380454 -0.67539436 -0.37593466 0.2418659 0.64448 0.1542374 -0.1870445 1.3633053 0.38529176 -0.8197229 0.26837987 -0.30709887 -0.25801122 -0.31602743 -0.53938407 0.33353055 -0.28907356 -0.315895 0.44750705 -0.5691483 -0.13298434 0.413927 -0.077030145 -0.28337112 -0.17664716 -0.18198307 0.4698091 -0.36949638 -0.14511684
4 0.6445358 0.3489012 -0.72982925 0.28613546 0.4679554 0.22222815 -0.5212124 1.277635 -0.26972336 -0.40727037 -0.20776713 -0.117618866 -0.029438278 -0.7661681 -0.87175584 -0.7687225 -0.2133234 -0.6125187 0.26255834 -0.074518785 0.18703347 0.29725236 0.4682396 -0.47011188 0.47246307 -0.13460977 -0.4683838 0.38372174 0.74516195 0.31550124 -0.298346 -0.7955781 0.09745383 -0.3391826 -1.0590417 -0.20900312 1.1109838 -0.31457198 0.92832667 0.24794486 0.7768609 -0.3708056 0.07467291 0.4302284 -0.14160031 0.09057938 -0.2315412 -0.88383764 -0.17038688 -0.12838277 -0.19400999 -0.501431 0.48648527 0.85481507 -0.35717836 0.2973829 0.20510806 0.46849105 -0.4051719 0.5650383 0.08304873 0.06904805 0.11204658 -0.10403287 0.0043356423 0.6945752 0.24421647 0.0693493 -0.2028057 0.070483044 0.015600371 0.9515683 0.5300264 -1.1876558 0.22841874 0.5520254 0.31624725 -0.40307713 0.20728801 0.033594232 -0.3298689 -0.6481382 -0.7849486 -0.399941 -0.1312937 0.27516454 0.3408984 -0.9795622 0.13390048 -0.27336827 0.11083697 -0.32868344 -0.90063035 -0.48879403 -0.12741664 0.5158269 -0.2399229 -0.20308617 -0.33223268 0.40566418 -0.41730142 -0.1606933 0.561723 0.13772169 0.32061017 -0.3096462 0.81077003 0.10619675 -0.67267466 0.0724418 0.6306435 0.06804045 -0.15891989 -0.39140332 0.034741912 -0.09420424 -0.2848637 0.39380804 -0.27183735 -0.048262402 1.0434098 0.36627802 -1.0304885 -0.41837722 -1.4237236 0.5423447 1.3074447 0.012787326
82 -0.021676742 0.026172591 -0.25729048 0.57519203 0.30342796 0.32339814 -0.037694532 0.117548145 -0.35801485 0.28613487 -0.38566008 -0.48851362 -0.0924943 -0.45583323 -0.12894517 -0.34806123 0.16632792 -0.21029659 -0.09589554 0.17395614 -0.077497624 0.2910945 0.4416502 -0.18762955 -0.10295952 -0.32264113 0.042406876 -0.22383918 0.024076557 0.16479875 0.11639265 -0.1863938 0.4683693 -0.57854563 -0.40526605 -0.119015895 0.38213903 -0.16146977 0.11190088 0.22366944 0.18880644 0.043751087 0.43929914 0.10366939 -0.14317684 0.07725406 0.36582682 -0.2781302 -0.1442566 0.21516101 -0.102629416 0.07719046 0.3391623 0.38253465 0.48907986 -0.044852845 0.5026148 0.29049146 -0.4494328 -0.0961946 -0.16108617 0.19566669 0.08966399 0.06377662 -0.08091291 0.16349678 0.39753243 -0.17967972 -0.53952104 -0.3072468 0.3265514 0.24190769 0.33295256 -0.42095888 0.4386159 0.31335187 -0.07593934 -0.2303887 0.38056463 -0.23964599 0.034295104 0.07821679 -0.09432479 -0.011287051 0.07189475 -0.09857318 0.231599 -0.29271007 0.13192202 0.040935665 0.11844233 -0.5067351 -0.26669383 -0.0740529 0.19078957 -0.062148206 -0.1578724 0.33070657 -0.12987824 0.059968125 -0.015225144 -0.102758296 0.4463304 0.21177994 0.12474246 0.11250091 0.26024038 -0.08784887 -0.6050667 0.1605054 0.5873655 0.09138946 -0.18046744 0.1772859 0.12227636 0.2801232 -0.0029978785 0.24084456 0.17673942 0.11232134 0.46007007 0.43461472 -0.3444661 0.018643312 -0.1862499 0.12319483 0.40836063 -0.049040023
107 0.017539846 -0.17411885 -0.20697406 -0.19000174 -0.11779418 0.3078922 -0.03238937 0.5672008 -0.6106166 -0.41194087 -1.3191185 -1.0699561 -0.49818555 -0.93276685 -0.15009092 -0.4840506 0.044010513 0.13204679 0.4374138 -0.008156112 -0.27344725 0.5722355 0.41609082 -0.34977838 -0.20663802 -0.15111242 0.09233762 -0.9138275 -0.3302324 -0.27103034 0.3722638 0.24604869 0.6575862 -0.8873281 -0.1659419 -0.5521685 0.93518806 -0.50319684 0.35661334 -0.052959375 -0.7863646 -0.4234551 1.2226104 0.18116264 -0.14150572 0.6031263 0.828433 -0.17226851 -0.0826464 -0.029370826 0.24678859 0.27503672 0.07494947 0.69653714 0.39600557 -0.1751621 -0.616761 0.17970835 -0.5276104 0.031998556 -0.31468186 0.6990431 -0.12141223 0.045424774 0.063005425 0.074106745 0.97754055 -0.43059677 0.051609132 -0.67336124 0.08495184 0.71230686 0.5080498 -0.7633278 0.06910201 0.20373322 0.6781699 0.33491555 0.5512641 -0.78434086 0.5050565 -0.7266615 -0.03375966 -0.77103615 -0.32944903 0.13913181 0.22635783 -1.3972622 0.023694236 0.43048564 0.8464082 -0.036922067 0.18274151 0.029619634 -0.26761335 0.3528188 0.17327121 0.8182455 -0.33070353 -0.34309113 -0.10319265 -0.41447613 0.5644723 -0.32280526 -0.031559926 0.32327914 0.54082566 0.3143496 -1.2317704 -0.38955203 0.6666046 0.8812033 -0.24298404 -0.7055032 -0.001055945 0.56410235 -0.60784775 1.0320791 -0.30141518 -0.084100604 0.40836412 0.7315564 -0.33033913 -0.15294728 -0.19023086 0.9183276 0.57886946 0.23009089
64 -0.26018378 0.15374336 -0.3971168 0.83552074 0.03425442 0.50678885 0.20016512 0.017394992 -0.5336752 0.53287524 -0.9065154 -0.19920826 -0.39083335 -0.6241933 -0.31865034 -0.27374658 -0.13068697 -0.4306819 0.07935101 0.41597307 0.60344625 0.997535 0.6900348 -0.3781255 0.1592268 -0.8081782 0.37725508 0.31299093 0.5637665 1.0751815 0.048475716 -1.0703697 0.6855426 -0.23035146 -1.2937095 -0.060858224 0.1595376 -0.49063492 0.11344954 0.27233446 0.9788829 0.5043307 0.3610544 -1.0169766 -0.5625494 0.5440513 0.60981876 -0.4454927 -0.5424492 0.44007456 0.31125054 -0.2657787 0.66194296 0.70339227 0.8383506 0.10505806 0.32047415 0.20694685 -0.7091734 0.16482095 -0.89065766 0.7483249 -0.30743143 -0.2521202 0.21558382 0.44221705 0.014409329 -0.23235908 -0.47431242 0.049125936 0.41050863 0.28728732 0.107658006 -0.36460283 1.0668634 0.5939269 0.055176888 0.20961806 0.8841457 -0.33097562 -0.8572746 0.57586414 -0.90996283 -0.17211178 0.58897847 1.0530295 0.007663639 -0.48921943 -0.031420875 0.09308994 -0.43242607 -0.52018154 -0.6100427 -0.041862294 0.32206154 0.2816725 -0.49278983 0.18240821 -0.68509835 0.26966938 -0.6181781 -0.075369515 0.11100881 -0.8377541 0.2617617 0.22369234 0.096062526 -0.15655495 -0.6504265 -0.15829253 0.55896527 -0.4809918 0.544424 0.088074744 0.4622714 -0.084356025 0.13886063 0.86659414 0.39985707 0.5689197 0.4510565 0.4857326 -0.56094855 0.28065786 0.45660388 -0.07076629 0.13264133 0.07358236
86 -0.13300252 -0.72029966 0.40605035 0.9847315 0.7756979 0.79777 -0.39864087 -0.62862474 -0.17294346 0.8395807 -0.8666037 -0.03154209 -0.0002647178 -0.621065 0.21635793 0.31656513 0.34332857 -0.3791082 -0.59691167 0.27713782 -0.124975055 0.17400059 0.46485868 -0.37796012 -0.22829126 0.11846557 -0.30463326 0.55708253 -0.47137424 0.939723 -0.060109876 -0.64321077 0.8090102 -0.64588356 -0.7586093 0.10277042 -0.20470499 -0.5250237 0.6190446 0.93667597 0.21490607 -0.05901382 1.0951794 0.4504322 -0.53475934 0.6441632 0.061844423 -0.6045979 -0.3759496 0.6078751 -0.28428528 0.27901816 0.4405276 0.76345646 0.6111747 -0.06759363 0.25063735 0.49627244 -0.12649198 -0.4001523 -0.24875066 0.8062941 0.33796424 -0.22307575 -0.291173 0.12433779 0.1375152 -0.40367678 -0.53350186 0.45214304 1.1477909 0.4144008 0.071293674 -0.6764413 0.6397623 0.51335686 -0.5474884 0.12458963 0.63179815 -0.013780725 -0.20748225 0.96220565 0.50297153 0.013767217 0.2254056 -0.5935716 0.7312262 -0.76917326 -0.30222288 -0.39221358 0.3136945 -0.49585584 -0.32495812 -0.05027282 -0.6176315 0.2810597 0.24057126 0.7617991 0.48752344 0.094213314 0.1109589 -0.31688768 -0.15015464 0.45099813 0.64593375 0.70119905 -0.08261893 -0.0952604 -0.21427931 -0.1488405 0.31448773 0.27565902 -0.57891506 0.4875802 0.9127497 0.88238245 0.09280646 0.09474204 -0.12914771 0.3414803 0.7453009 -0.22897236 -0.17210309 0.11314131 -0.55916667 0.023147484 0.5732818 -0.8502747
377 -0.46604076 -0.34231085 0.016922621 1.2682693 0.05897787 0.9968397 -0.09158429 -0.075459875 -0.2356238 0.84859294 -0.5870368 -0.5113618 -0.021282732 -0.24541694 0.34150106 0.040520106 0.42209378 -0.67563933 -0.5133334 0.4514231 -0.4657074 -0.34070486 0.08053851 -0.4269221 -0.36021614 0.15346593 -0.14935042 -0.5712609 -0.2007604 0.5728321 -0.1634883 -0.06699731 0.8794032 -1.0369049 0.09487293 -0.2612516 0.75721735 -0.48904684 0.22990297 0.80062526 -0.24144499 -0.29407376 0.9205646 0.18541254 0.40690112 0.6342402 0.71493393 -0.3892446 -0.438941 0.4708339 -0.24636562 0.19113958 0.18899797 -0.2036989 0.85078 0.07679336 0.28392622 0.6556251 -0.13954361 -0.8967403 -0.8191913 0.25022507 -0.32673433 0.23862284 -0.106874265 -0.2610579 0.082109526 -0.7883069 -1.1823739 -0.5575279 0.5880123 1.6354103 -0.28365332 -0.18257812 1.2656693 0.5341154 0.97610795 0.57742965 0.17827737 -0.7723319 0.14166051 0.123419136 0.10315281 0.1416623 0.17607233 0.25582895 0.39643762 -0.70249146 0.5712522 0.45709017 -0.45595527 0.06029922 -0.033409093 0.3482669 0.23964229 0.6260499 -0.4225476 1.0099531 -0.4994481 -0.54426533 0.30919763 -0.2796787 0.900953 0.37710905 -0.22021419 0.15819736 0.5727214 1.0050576 -0.37888405 0.27578816 0.70973516 0.79271543 -0.11333226 -0.6448726 0.23854834 0.4854576 0.09474156 0.38787538 -0.39808416 0.35313484 0.7098779 0.4463994 -0.9803051 0.22202961 -0.3873251 -0.30870187 -0.3307278 0.8176128
121 -0.116505474 -0.13658597 -0.43606263 0.5155893 0.29339445 0.35858974 0.06371915 0.120239384 -0.49241212 0.08326588 -0.47796834 -0.39827344 -0.20325425 -0.4788226 -0.31543198 -0.38198194 0.15820333 -0.1650771 0.19684143 0.2823883 0.054749336 0.23678498 0.5923239 0.06355687 0.08293395 -0.25253433 0.055470955 -0.1351599 -0.048663642 0.1892704 0.2070494 0.057612028 0.34972313 -0.57162035 -0.41452295 -0.09528158 0.52614367 -0.3990338 0.17759621 0.22931652 0.0856868 0.01133166 0.43169942 -0.080107056 -0.05671614 0.27398613 0.36327338 -0.179386 -0.28822425 0.037290033 -0.19619134 -0.10707703 0.250259 0.17429061 0.4546033 0.07963509 0.12207877 0.3183586 -0.532235 -0.05071142 -0.33485213 0.17442411 0.123526335 0.15823664 -0.27090177 -0.071791805 0.52234584 -0.2404915 -0.29353622 -0.24969463 0.38309836 0.3996062 0.17960982 -0.5417409 0.38396576 0.26624766 0.28259438 -0.21292317 0.3952539 -0.32784534 0.03730447 -0.015389091 -0.35304716 -0.1064563 -0.10237755 0.0881279 0.02120539 -0.11133614 0.08295195 0.034260467 -8.750575e-05 -0.3513049 -0.37496045 -0.012959179 -0.076707244 0.024071965 -0.09708633 0.46371096 -0.25141162 0.34789607 -0.18524306 0.06767306 0.2670308 -0.034889635 0.22569284 0.017723916 0.35269046 -0.13631105 -0.36614797 0.36396453 0.31955424 0.08157964 -0.10753693 -0.456067 0.18011773 0.18549873 0.29743066 0.48614004 -0.049004506 0.11405964 0.40016478 0.4441053 -0.24773376 -0.13023244 -0.47321767 0.08044849 0.53104997 -0.08336998
84 -0.3422505 0.124206655 -0.6237455 0.7206448 0.94911253 0.85479754 -0.4822421 0.048324652 -0.7427119 0.29953343 -0.5991591 -0.6974221 0.4066049 -0.7442648 -0.8082339 0.083657436 -0.09133924 0.13062079 0.5799763 0.6407123 -0.21554889 0.4254049 0.5107198 -0.43728173 -0.11874945 -0.24949534 -0.79433864 0.27837 0.031880982 0.14051057 -0.032249592 -0.05711395 0.57426417 -0.34098926 -0.8322757 0.3200385 0.5265851 -0.1197754 0.1482305 0.058008764 -0.056478314 0.060576126 0.26626518 -0.3463298 -0.09746905 0.5187624 -0.27177045 0.06037387 -0.28800723 0.37040094 0.11495758 0.14471816 0.83050275 0.74327725 0.034344524 -0.7219549 0.021433651 0.7006042 -0.3191674 -0.50228834 0.46186423 1.0705014 -0.16137268 -0.19310679 0.47838023 0.5991954 -0.07200834 0.007446337 0.32080668 -0.2862245 0.45695692 -0.23358937 0.6531203 -0.47103298 0.14605221 0.7112791 0.49713674 -0.009055344 0.15243429 -0.11583164 0.42980298 -0.38154772 -0.3706459 0.27858317 0.09935237 0.5293757 0.362802 -0.42709783 0.1903426 -0.0021879263 -0.23417313 -0.70301205 -1.212006 -0.2757148 -1.1104121 0.32844636 -0.17786072 0.5908229 -0.37010095 0.7763935 -0.079655826 -0.13594203 0.25748524 -0.40750992 0.06610488 0.1001828 -0.21158405 -0.77800286 -0.306558 0.020621555 0.03837586 -0.31689662 0.17292723 -0.2727808 0.69598234 0.4973671 0.5077107 1.2131263 0.09012666 0.008020535 0.8150967 0.6312528 -0.44937727 -0.12873994 -0.111191116 0.1380468 0.5894605 -1.2724135
65 -0.85740334 -0.15634227 -0.32736838 -0.18572487 0.9857893 0.4853903 -0.6170156 0.015664624 -0.4920749 -0.31351185 -0.100279585 -1.0954758 -0.06816587 -0.09505122 0.1938922 -0.7891866 0.7485534 -0.6282798 -0.27466643 -0.16762815 -0.25912395 -0.49307585 0.5339584 0.32253268 0.49782178 0.047917657 -0.32395163 -0.5511795 -0.30227584 0.08073804 0.59627515 0.11203402 0.9499318 -1.1141905 -0.44634506 -0.48428887 0.7835129 0.077875614 0.46345007 0.67200804 0.07334036 -0.77845806 0.56068325 0.37548265 0.17011005 0.5976339 0.45330235 0.037168298 -0.9403257 0.6457708 -1.0087446 -0.1731719 0.21735217 0.10510559 0.804846 -0.17490537 0.048494108 -0.46719396 -0.59128344 -0.53492844 0.48193407 -0.0052276803 0.4333143 0.9772021 -0.041951638 -0.19100414 0.8141032 -0.65369123 0.33830756 0.3966532 0.093983606 0.6478897 0.4332652 -1.0724288 0.6663355 -0.13543513 -0.24460676 -0.31458232 0.30497894 -0.26338446 0.7671904 -0.23391387 0.080024526 -0.18000977 -0.38479003 0.20472911 0.6333231 -0.77470624 -0.16906403 0.6299822 -0.13700366 -0.49076948 -0.088547416 -0.85159534 -0.23892374 -0.30858427 -0.14937963 0.5288382 0.4014824 -0.47243205 -0.3342958 -0.41296527 0.54557663 1.0056778 0.5952217 -0.025386823 0.6259912 -0.032205593 -0.7773152 0.61510485 0.46900743 -0.44349146 -1.0370489 0.44739124 -0.17887135 0.22693007 0.4818471 0.984034 0.40944034 0.49747458 0.7177442 0.6639468 -0.2263253 0.12354678 -1.3064189 0.5065192 0.56937057 0.17941129
60 0.51574695 -0.21279845 -0.35897222 0.5703036 0.007815006 0.5440472 0.44246796 0.8577837 -0.397629 -0.5902442 -0.11247859 -0.96708196 -0.00077215093 -0.3165694 -0.40330002 -0.12565559 0.53445214 -0.27167445 -0.19742404 -0.56695044 -0.63833493 -0.4553036 0.43635008 0.13296391 -0.18437323 -0.25683883 0.2336292 -0.13347387 0.12833394 0.48481312 0.16674222 0.16351297 0.646176 -0.2562473 -0.4703798 -0.31060505 0.657331 -0.47238633 0.4817933 0.236821 0.25956354 -0.053485684 -0.08703605 -0.23193933 -0.14910647 0.19282821 0.023450168 -0.62984675 0.2709503 -0.12399503 -0.2821376 -0.03469072 0.7695659 0.10861895 0.39397743 0.19659747 0.89193 0.3269179 -0.5068434 0.008437774 -0.1959138 -0.40871802 -0.028986966 0.19045873 -0.81427616 0.21029572 1.5422108 0.30210528 -1.3280451 0.028187944 -0.07343286 0.7968427 0.47597137 -0.051026944 0.5287399 0.40337092 -0.31692776 -0.49477717 0.73331213 -0.2657423 0.65052325 -0.03608858 -0.07556197 -0.28077713 -0.007323636 0.3578679 -0.49567586 -0.41738725 -0.47381794 -0.7184589 0.6165196 -0.4277691 -0.5443989 -0.7153994 -0.3336814 0.34849718 0.07565018 0.045164835 0.20395194 0.46259072 -0.24215959 -0.38406965 0.9746974 -0.114363015 0.7856425 -0.7294676 0.32882902 -0.18760164 0.056739077 0.5182005 0.54392296 -0.3004118 -0.46462008 -0.06982824 -0.06637647 0.13938019 -0.06242864 0.48898292 -0.15855479 -0.73355174 0.2872137 0.67505676 -0.33845112 -0.32068464 -0.456589 0.53942025 0.60704875 0.2732417
211 0.7210538 -0.0065515493 -0.5096156 0.7727767 0.078141004 0.26593295 -0.17664723 0.18827605 -0.652073 0.44761145 -0.7788125 -0.11660789 -0.5705625 -0.30490118 -1.1052547 0.44015706 0.48572636 -0.44566667 -0.36997297 0.55858165 0.03762813 -0.22589847 1.2138534 -0.16009556 -0.1638146 -0.19008735 -0.7342394 0.09995628 -0.4467287 0.9310167 0.19525048 -1.2575647 -0.12054268 -0.09779956 -1.4358428 0.38853613 0.6388188 -0.16051981 1.0096352 0.0045251437 -0.112501316 0.07626586 0.49267086 -0.58690536 0.14274241 -0.22230612 0.24068664 0.37463355 -0.124244496 0.43485945 -0.0014287538 -0.41562697 0.67132336 1.1977361 0.076004185 -0.48461375 0.17445679 0.6775284 -0.17892829 -0.036182467 0.10674669 1.2675538 -0.12778126 -0.29565287 0.5824721 0.53786707 0.110030025 -0.44810876 -1.1524229 -0.3631436 0.7370979 0.43106002 0.17749566 0.47024724 1.1367877 0.97017086 0.9200325 0.34589288 0.1732445 0.087987415 -0.119493626 0.5273191 -0.7846914 -0.08482755 0.46305066 0.21169111 -0.026024604 -0.6556261 0.099777095 0.017993338 -0.03647742 -0.17375968 -0.8907029 -0.96993333 -0.4829025 0.1945421 -0.23151064 0.015429842 0.001974476 0.5532592 0.49660745 -0.6148272 0.8038936 -0.23151854 0.54553956 -0.21335782 0.056539256 -0.20283681 -0.87239194 0.45118675 0.33955568 0.4107508 -0.2660296 0.2194024 0.9040984 0.2793429 0.14263548 0.50051045 0.32921037 0.13413681 0.35484493 0.013618802 0.7339471 -0.4029656 -0.3372104 0.6310914 0.6094577 -0.82376176
15 -0.4969531 -0.7469605 -0.18325263 -0.28726602 0.9155167 0.6325772 0.0119839795 0.34274745 -0.6947741 -0.18401086 -0.44876373 -0.898329 -0.67962545 -0.5366126 0.22450782 -0.8441879 -0.6023773 -0.6640328 -0.4841441 -0.7446652 -0.039456017 0.4522128 1.1481403 0.55003935 -0.2999886 -0.40621853 -0.26307422 -0.5940304 0.061339635 -0.30034623 -0.27164763 -0.029695656 0.8482772 -0.618414 -0.15403825 0.25731912 0.09261883 -0.56415683 1.2209455 0.35177225 -0.11391081 -0.2659455 0.41655242 0.058509532 0.15042557 0.7017141 -0.27525482 -0.18491517 -0.23701328 0.15888228 -0.63504064 -0.3081462 0.4623566 0.5325828 0.6253745 -0.22122511 0.16370422 0.23814522 -0.3521627 1.1309506 -0.054008678 0.76623255 0.3826859 -0.5739941 -0.36990628 0.5983399 0.41367573 -0.41095245 -0.08879148 0.30058083 0.33486 -0.0088604195 0.87288195 -1.0139046 -0.005410134 0.8049524 -0.17268343 0.008635581 -0.04202339 -0.71430564 -0.23899503 0.3611809 -0.1943129 -0.34201995 -0.42508256 -0.18521078 0.06325423 -0.9309218 0.08346862 0.12696852 0.1473929 -0.43027407 0.1601234 -0.6694646 -0.79074603 0.25398847 -0.5063098 0.60063976 -0.15156409 0.547353 -0.22820628 -0.079073034 -0.286633 0.34626898 0.7915914 -0.37622264 0.8856059 0.13349476 -0.41557506 -0.26241788 0.7764462 0.14877361 -0.4473682 -0.82107806 0.016313404 0.7136027 0.6444757 0.95696545 -0.2853138 0.46951133 0.35762337 0.37811196 -0.0067506894 0.24013829 -0.8653559 0.58398575 0.7836207 0.49208793
3 0.015805911 -0.3578067 0.09617906 1.1342726 0.37218326 0.71301615 0.46642858 0.3001556 -0.80868673 -0.30978835 0.30746078 -0.39451286 -0.16133654 -0.47527277 0.09743648 0.048067406 0.3742329 0.22106567 0.34697104 -0.12804541 -0.89577454 1.1396022 0.5059787 -0.7274139 -0.85572577 -0.5999696 0.20175257 0.027197774 0.22175887 0.5936258 0.11314288 -0.36526868 0.8515494 0.13904658 -0.7923597 0.16567765 1.1273609 -0.7981816 -0.50705826 0.30809206 -0.044090476 0.54429334 0.8058993 -0.32157177 -0.2819956 0.12564881 0.37204877 -0.9827783 -0.41942108 0.17662981 0.39402884 -0.21305928 0.58626443 0.6800093 0.17832267 0.07336217 0.30395764 0.35863107 -0.37915638 -0.3742386 -0.7126548 1.032507 0.04591337 -0.08003579 -0.39943585 0.5259481 0.094199724 0.16294669 -0.58074284 -0.6866845 0.92155427 0.5753214 1.1649675 -0.05429414 0.69402784 0.17398341 -0.0024576765 0.35436127 0.61385584 0.12503651 -0.71408105 -0.013227397 -0.28864557 0.24691086 0.7336683 1.0888397 0.68931127 -0.85489184 0.1296571 0.05888436 0.22083025 0.014214867 -0.476514 -0.65511966 0.060244706 -0.48862302 -0.52336526 0.6595161 -0.24943674 -0.3721761 0.1582923 -0.5234111 0.62004614 -0.43040293 0.7444428 -0.031011784 0.5873248 -0.088880904 -0.43470788 0.08531035 0.572312 0.20088398 0.38992035 -0.34448054 -0.44127285 0.38430506 -0.24295528 0.18012565 -0.2468245 -0.70982045 0.62644094 0.07844716 -0.5519355 0.10488124 0.18043904 0.3885895 0.6288008 -1.1956152
11 -0.693311 0.23820484 -0.17620094 1.1715946 0.8001549 -0.04806265 -0.5053419 0.41261142 -0.34925804 -0.39507425 -1.317129 -0.19222769 -0.95012754 -0.13643967 0.39772987 -0.58095706 0.23256022 0.059093755 0.23443428 0.8111853 0.067934334 0.10238484 0.042751398 -0.36734185 0.33130246 0.1604441 -0.23522343 -0.009789193 -0.19379056 0.68128455 0.18120955 -0.7174344 0.3427127 -0.12019686 -0.011251401 -0.29842114 0.08728918 -0.2706696 0.013867908 1.1932732 0.38521641 0.2267713 1.4145257 -0.19130355 -0.6498593 0.5060224 0.5554334 0.05136605 -0.39029798 0.57428557 -0.39712453 0.12874171 0.21377948 0.81819016 1.1870501 -0.2075526 0.059653066 0.20685896 -0.3654199 0.114441365 -0.4164835 -0.010866772 -0.1629369 0.54226536 -0.4441075 0.19663036 0.41881612 -0.378925 0.0628637 -0.87909406 0.44914547 0.8022574 -0.43602565 -0.017011115 0.7277058 0.8549897 0.48568565 -0.42950284 0.44181895 -0.64113003 0.88539016 0.367157 -0.6086252 0.036616478 0.21108662 0.08000938 0.25187278 -0.10873825 -0.3786134 -0.20723711 0.5001873 -0.96860033 -0.898556 0.07400548 0.5356686 -0.22222035 0.25698948 0.06749251 -0.46247324 0.036748447 -0.7812697 0.035283297 -0.078225315 0.32562116 -0.5636004 0.7293791 0.09861075 -0.8663044 -0.7790536 -0.30865365 0.4573406 0.986173 -1.0282278 -0.16665272 1.0256085 0.9821698 -0.33109617 0.5676 0.511038 0.21258001 0.36950845 0.1971555 0.007822532 -0.37061724 -0.1877711 -0.13168192 0.3132278 -0.1887215
971 0.020161116 -0.04832424 -0.13803954 0.7482453 -0.17980391 -0.09517259 0.2079215 0.09794027 -0.9862956 0.017936787 -0.14544779 -0.65124553 0.57197374 0.025919383 -1.1395012 -0.6720198 0.692008 0.2209712 -0.030813992 0.08603999 -0.4655549 0.6397098 0.8902478 -1.0953319 -0.3309679 -0.014180464 0.07177908 0.106005274 0.63402784 0.083031 0.14552806 -0.7349872 0.697061 0.2535937 -0.9162758 0.39506418 0.0059820893 -0.6431364 0.4365703 0.56767195 0.13011356 0.30761772 0.43666288 -0.4435309 0.14685413 0.32045767 0.57318556 -0.36896673 0.3127379 -0.2527556 -0.23241642 0.20434546 0.68525916 0.7484164 0.48804718 0.046816096 1.00325 0.8496955 -1.2264984 0.11864373 -0.23355149 0.35220096 -0.16063447 0.26315498 -0.33615664 0.3168103 0.93494195 -0.35864526 -1.3734549 -0.30768576 0.5779604 0.030718315 0.66529834 0.28152362 0.76264244 1.2957591 -0.27543762 -0.6975133 0.48257777 -0.5307624 0.3025992 0.07476812 0.038653 0.6577116 0.5788907 0.5015934 0.23216869 -0.616233 1.0217737 -0.5297789 -0.265268 -0.37759474 -0.60428876 -0.41358083 0.76860267 -0.15100774 -0.30049956 1.1106601 0.39128226 0.5444233 0.17404467 -0.36616924 0.2209836 0.017701473 0.34039667 -0.43572295 0.56934714 -0.025718426 -0.9231482 0.30267087 0.5374814 -0.24605165 0.092926785 0.2900748 0.3669189 -0.523706 0.30382973 -0.078610905 0.363771 0.21681789 1.1386461 0.3658091 -0.21708474 -0.15094833 0.6032997 0.16958705 0.38258034 -0.43737966
17 0.05932176 -0.6200024 -0.45306945 0.8148543 0.3566023 -0.12619445 0.18208458 0.0050829123 -0.29063183 0.5238969 0.1383802 0.031633332 0.41163084 -0.02794024 -0.65185726 -0.4995923 0.75569266 -0.09936086 -0.100720406 0.29222876 -0.24321061 -1.3150108 0.5885319 -0.4113924 0.29274046 0.4886071 0.21912761 -0.48966455 0.20144877 0.2937727 0.09574989 -0.09976323 0.941133 -0.9361292 -0.7750497 0.2423885 0.17341192 -0.5645286 0.6327709 0.21666302 0.025311299 -0.24474415 0.42201382 0.17840455 -0.22302686 -0.29998448 0.64242136 -0.32463646 0.63779676 0.14518814 -0.1635273 -0.4388979 0.71399134 0.6367076 0.5350874 1.2191646 0.5273995 0.36255595 -0.16324937 -0.4888714 -0.38926774 0.21917637 0.015745495 0.34762266 -0.49358872 -0.06354529 0.523075 -1.0387672 -0.6574726 -0.35942322 0.24648277 0.18825029 -0.26421583 -0.8689448 0.8420604 0.56850797 0.05481182 -0.69342935 0.4291361 -0.9365072 -0.22764269 0.30932906 0.14240034 0.08257574 0.013399749 -0.093089886 0.3344629 -0.0141439745 0.06637811 0.16951598 -0.069714054 0.35203063 -0.041859787 0.40588972 -0.19330525 0.007191355 -0.24196513 -0.2038618 0.4623429 -0.5204474 0.23187426 -0.15774381 0.3887542 0.039241735 0.8763797 -0.71437556 0.4329324 -0.28934115 -0.26611546 0.11498835 0.2914345 0.023255114 -0.2568569 -0.23253646 0.22937444 -0.021447008 0.36104363 0.22986668 0.19436319 0.108436316 0.18477531 0.7992107 -0.05231546 -0.45489067 -1.0761218 0.32623428 0.52716815 0.14364922
23 -0.3057973 -0.103461325 -1.4527373 0.46771628 0.30652088 0.85370994 0.09005116 -0.038345378 -0.42475516 -0.45008984 -0.42728546 -0.115201525 0.10851799 -0.9421228 -0.4977558 -0.023235686 -0.08549048 0.51329195 0.2106639 0.41110352 -0.047232486 -0.14121684 -0.11137949 -0.14927906 -0.38420838 -0.9230729 -0.43847492 -0.5507513 -0.96151906 0.46931294 0.1236066 0.12545161 0.16601416 -0.61366016 -0.5979788 -0.3345856 0.7060886 -0.89974415 -0.009096946 0.35682282 0.40217647 -0.20221315 -0.031735413 0.1657249 0.2495556 -0.037440397 0.29865137 -0.16379514 -0.26760375 -0.3354569 -0.1396085 -0.3880608 0.92850524 0.36847892 0.5591035 -0.8171372 0.08524322 0.15056452 -0.3622968 -0.20976576 -0.48600578 0.16281816 0.11151769 0.31381923 -0.12887476 0.22752509 1.0444323 0.31991324 -0.39366734 -0.32928732 0.424774 0.5941241 1.419244 -0.6676408 0.20021506 0.6087104 0.5078977 -0.4171115 1.1789532 -0.8938923 0.47679213 -0.44228768 -0.24565889 -0.20496802 -0.19392315 0.61948377 0.3432187 0.17068572 0.30054414 -0.7671298 0.4786264 -0.3019159 -1.3830098 -0.60353863 -1.2618957 -0.60628927 -0.0057062744 0.51039 -0.93549085 0.68677545 -0.18702503 -0.32931894 0.763737 -0.9125919 0.3149968 0.05067247 0.09217426 -0.3068598 -0.69897884 0.6514413 -0.45908612 -0.044256985 -0.28750923 -0.37025794 -0.017371863 -0.4762515 0.22639509 1.614772 0.22921714 -0.6955539 1.0375469 0.27620304 -0.40444216 -0.10063195 0.23562525 0.40104046 0.30885297 -0.7352944
96 0.025973188 -0.2830356 -0.7200307 -0.11878176 -0.040470812 0.70877403 -0.46321684 0.43188986 -0.5529994 -0.50489044 -0.37204856 -0.35765183 -0.53599834 -0.14315818 0.6096814 0.2626115 0.30709502 0.095127895 -0.68322843 -0.0027792435 -0.18799789 0.443479 0.89168036 -0.81558913 -0.7248025 -0.32091346 -0.40675244 -0.58770126 -0.5679554 0.46736386 0.6181143 -0.40429443 0.86402816 0.13739538 -0.50268835 -0.61162114 0.5858957 0.19364473 0.0509282 0.2197654 -0.48737994 -0.37340543 0.5709102 -0.36884165 0.631787 0.882421 0.72773856 -0.73443127 -0.5939745 0.77398527 -0.9957863 -0.060418606 0.48118284 0.9157669 1.0204692 -0.21384828 0.5140272 0.002918761 -0.1519749 0.45642704 0.7878876 0.51767135 0.30930495 -0.5283333 0.23466738 -0.010240469 0.3235601 0.115029626 -0.1271336 0.42550036 0.040479932 0.7180531 0.6892329 -0.11551633 1.0407852 0.44285586 0.1411132 -0.025391432 0.12243911 -0.66475743 -0.033959765 -0.1461344 0.0048458874 0.2839022 0.09939351 1.2778589 0.34674966 -1.6967492 0.009679952 -0.14848374 0.2538747 -0.166354 -0.6406176 -0.8992448 -0.2031501 -0.3635314 -0.2362235 0.5292771 0.32215506 -0.8584667 0.5514844 -0.6471824 0.36935592 -0.27399912 -0.18405657 -0.449249 0.5526327 -0.12625192 -0.58771664 -0.5334278 0.78497845 0.12131954 -0.75991833 -0.022353632 0.26369208 -0.19192822 0.27789366 1.0326198 0.7545255 -0.44449154 0.73284847 0.36879918 0.17327572 -0.10790267 -0.4727907 0.8545408 0.2627939 -0.2519257
20 -0.5641936 -0.162829 -0.4665838 0.68281 0.026358569 -0.23045887 0.37883008 0.30540615 -0.9422009 0.095348954 -1.3720031 -1.2067969 0.17138293 -0.68950564 -0.5408424 -0.33549288 -0.31396255 -0.14577864 -0.076476276 -0.12445528 0.44621244 0.29918277 0.53350306 -0.36697918 0.094907224 -0.27706483 0.5451427 0.10235151 0.14629132 0.30501473 -0.46020836 -0.7194034 0.9070505 0.0494543 -0.30518004 0.20867556 0.5364821 -0.1786436 -0.080093965 -0.10122354 -0.4037744 -0.6743301 0.32572526 -0.042860772 -0.017657151 -0.045619648 1.1157678 -0.22387618 -0.09050452 0.60166717 -0.5427812 0.16182247 0.9491418 0.3123595 0.88358694 0.13752717 0.35368082 -0.35167813 -0.7446906 0.066882096 0.67833805 0.7116742 0.14065476 -0.48567328 0.32056275 -0.008540662 0.18499485 0.19836177 -0.52399385 0.30710673 0.0924385 0.5415107 -0.43740836 -0.22046158 0.63697845 0.6579086 0.38947365 -0.089277096 0.556125 0.014061975 0.15280446 -0.116457015 -0.20883308 -0.24219039 0.36105436 0.7727658 -0.09859928 -0.41757643 -0.39713353 0.2910333 0.29409596 -0.8227328 -0.9506043 -0.35039124 0.14633423 -0.060309157 -0.40692067 0.3315367 -0.22442023 -0.026994051 -0.39097401 -0.44017628 0.065849625 0.37361884 0.012405646 0.49768844 -0.029263243 -0.5741144 -0.3801766 -0.034517054 1.060074 0.55494744 -0.42098325 0.7408564 0.35633826 0.4120633 0.31000572 1.1113513 0.33493307 0.04981681 0.4543715 0.7842537 -0.14364837 -0.08098396 0.16598801 0.7727403 0.059880346 -0.46866408
21 0.25915504 -0.3097994 -0.3859197 0.73273253 0.16200578 -0.085996516 0.17584422 -0.31067526 -0.046252847 0.6138341 -0.6027691 -0.5516883 -0.20849793 -1.2322147 0.78929466 -0.0312867 0.06406491 -0.27685472 -0.7759964 0.3040088 0.618073 0.09842601 0.69627357 0.2846158 -0.52493626 -1.0294479 0.2631838 -0.7694854 -0.45078868 -0.03617807 0.4053792 -0.077611454 0.26818237 -0.99115264 -0.038118497 -0.47682998 0.46617416 -0.026445905 0.061503947 0.08400632 0.06398875 -0.1402502 0.09817426 0.28571925 -0.4422766 0.42079258 0.8050932 -0.61740154 0.16315876 0.32818866 -0.66924477 0.25468856 0.5863334 -0.026641998 0.54440767 -0.06172202 1.0928124 -0.121796906 -0.40389755 0.081658244 -0.43157053 -0.29115927 0.44060385 0.09020181 -0.43225557 0.05463102 0.75769055 -0.6750327 -0.79199183 -0.1454709 0.5117386 0.65416586 0.38089263 -0.6967892 0.4002392 0.3591647 -0.4871107 -0.73508376 0.7502456 -0.74190676 -0.15396185 0.09514289 -0.02285747 -0.15650906 -0.5407789 -0.56595224 0.22043067 -0.3602518 0.3957763 -0.21437828 0.5952826 -0.396473 0.17425199 -0.1053729 0.29929665 -0.39205542 0.019907074 0.3023002 -0.12647623 0.061851162 -0.020231137 -0.14667223 0.44643044 0.9075546 -0.16876292 0.2816108 0.3555524 -0.10160735 -0.75546676 0.39575943 0.8877132 0.59349924 -0.5106166 0.61915904 -0.29801506 0.58523226 0.110215165 0.46798024 -0.04832057 0.38678414 0.24944733 0.8147192 -0.45262623 -0.34322655 -0.1378277 0.6385115 0.6041666 0.58710814
44 0.0880446 -0.2740991 -0.7796597 1.2325156 0.08804773 0.634687 0.16566385 -0.10725902 -0.27594522 0.76677686 -0.99306554 0.24668896 -1.0584874 -0.51854026 0.13615799 0.6249815 0.13793704 -0.44231468 -0.3849288 0.87793696 -0.3130298 0.22446524 0.6849337 -0.18341805 0.20906064 -0.82321393 -0.5515625 -0.008676728 -0.5150588 0.69380534 0.47761953 0.042909026 0.26293522 -0.9056809 -0.69335574 -0.28861704 0.3378825 0.383718 -0.1833405 -0.28868812 -0.29256743 -0.14734483 0.51833576 -0.31966394 -0.1370326 0.6431561 0.5829505 -0.4876682 -0.5850338 0.095109135 -0.53843427 0.028923221 0.49864942 0.008623671 0.828543 -0.042569283 0.5783033 -0.26201507 0.081302084 -0.52384466 -0.1914408 0.43818644 0.4243421 -0.13165753 -0.35482875 -0.263398 0.15667623 0.39519048 -0.4546633 -0.091104075 0.5925399 1.2605851 -0.20021373 -0.009780232 0.6663634 0.35117167 0.45543545 -0.3673267 0.12904853 -0.15112054 -0.011363237 0.38554686 -0.5485914 -0.41114476 0.040815525 -0.21854071 0.4356273 -0.17454126 -0.32264048 0.12678088 0.120383635 -0.05035527 -0.09521927 -0.90179265 -0.37963238 0.24431108 -8.112431e-05 0.6218683 -0.3192065 -0.27338204 -0.176621 0.19245914 0.59734815 0.05332104 -0.061940596 0.3400474 -0.029676123 -0.078399 -0.2330735 0.6643643 0.8831956 0.74784243 -0.34788314 -0.11570918 0.54774386 0.9773395 0.05142162 0.7590949 0.0031209853 -0.23446701 0.43488216 0.21395147 -0.1726585 -0.34569058 -0.40233594 0.7810987 0.38331246 -0.24628533
166 -0.072417386 -0.33602375 -0.49767396 0.4275831 0.3516616 0.41130683 -0.033092257 0.17078176 -0.3548591 0.07837493 -0.37775964 -0.360734 -0.31799805 -0.6600655 0.030458592 -0.43587768 0.24888419 -0.20150407 -0.2130216 0.06678468 -0.15895945 0.031909727 0.39039883 0.07485468 0.0231787 -0.3266114 -0.16660155 -0.42328545 0.028847458 0.1826666 0.12375895 -0.054306116 0.3830916 -0.57281613 -0.36338305 -0.13169584 0.43378425 -0.38088092 0.25379947 0.13015638 0.28732902 -0.031195413 0.33449417 -0.0627144 -0.26951113 0.16171867 0.22383623 -0.31921977 -0.25984868 0.09921225 -0.38268384 -0.18471903 0.4540728 0.38242474 0.5038552 -0.028227136 0.40770897 0.37078795 -0.45165733 -0.03027422 -0.43071553 0.13398097 0.09370944 0.027721405 -0.25324157 0.060185425 0.47530764 -0.437588 -0.4703179 -0.07454487 0.2883807 0.5098698 0.3807075 -0.5160769 0.3898634 0.27894843 0.044494268 -0.2968448 0.23139632 -0.38642454 -0.03856003 2.6620353e-05 -0.34004328 -0.12680228 -0.0149200745 0.03326997 0.21481854 -0.24493045 0.03879229 0.027121272 0.2575426 -0.35439694 -0.18177772 -0.21336247 -0.14627059 -0.054121204 -0.2241658 0.30963683 -0.16706322 -0.0072257966 -0.13251844 -0.08222146 0.42612508 0.075742155 0.25412562 -0.029406192 0.35559374 0.07127741 -0.3468188 0.3132423 0.33399907 0.16893566 -0.13987006 -0.22834815 -0.038214505 0.33814162 0.08194959 0.449694 0.11315303 0.045195322 0.3638081 0.3401968 -0.2813627 0.010991513 -0.54664975 0.29880872 0.41967866 0.14019594
12 0.04801316 -1.0182592 -0.5281862 0.6907414 0.30876634 0.23539354 -0.2017652 0.06230921 -0.5064261 0.24725175 0.06715896 0.42577484 -0.4940705 -0.50364196 -0.036551215 -0.041125182 0.2780162 -0.17362927 -0.21826288 0.10763183 -0.0055873594 0.4309807 1.2267362 0.150028 -0.7523767 -0.38029897 -0.015608938 -0.43126965 -0.33919618 0.2947896 0.51162994 0.4388725 -0.0925685 -0.34496376 -0.30777463 -0.035257358 0.82364625 -0.54410064 -0.05994434 0.3302692 0.31215236 -0.024196811 0.028329767 0.19041874 -0.52527195 0.40076107 0.40879807 -0.75816697 -0.5436936 -0.11340582 -1.0016689 -0.44627267 0.5877429 0.21764942 0.10856246 -0.13774118 0.5559939 1.0812116 -0.3935166 0.47195807 -1.1083617 -0.1481478 0.22299159 0.075175606 -1.523375 0.31991893 1.0914131 -0.77272505 -0.7166289 -0.48521563 0.30977935 1.8560387 0.21759544 -0.2557868 0.5727445 0.651306 0.6857648 -0.3844561 0.46960762 -1.3789 -0.47345182 -0.057112034 -0.4162274 -0.034368195 -0.47961766 0.58672667 -0.0331031 -0.56474286 0.6110376 -0.7279935 0.19869252 0.09494617 0.14345407 -0.24382415 -0.5843393 -0.14141919 -0.14004788 0.37952977 -0.4159753 0.66364604 -0.681338 -0.2260729 0.34757277 -0.016535018 -0.020590989 -0.45959628 0.7516023 0.19598119 -0.5863795 0.43824428 -0.66106725 0.2508381 0.12693238 -0.45439002 0.07258869 -0.26827663 -0.16003989 0.60401607 -0.26131776 -0.28287923 0.11281721 0.067699865 -0.079878055 -0.41324675 -0.79667234 0.605114 0.07731846 0.18268359
19 0.24112722 -0.5122121 -0.7208201 0.40048417 0.3003775 0.81062096 -0.31701726 -0.4742113 -0.55792004 0.2748184 -1.414692 -0.1322477 -0.6130532 -0.39152008 -0.7461755 0.18023293 0.038890075 -0.5856847 0.07048437 1.0768112 0.01018271 -0.47102886 0.5222101 0.30649364 -0.41881633 -0.12720448 -0.28796953 0.05287776 0.0933202 0.782463 -0.120955795 -0.28165004 0.6564422 -0.8123843 -0.6150526 0.4182703 -0.32681045 -0.74715406 0.8225948 -0.159945 0.21785223 -0.103498675 0.83116 -0.29159856 0.052063167 0.67233926 0.6423402 -0.60058266 -0.22651269 0.37153715 -0.21398541 -0.51250213 0.4746992 -0.05916376 1.0172426 0.54912317 -0.0015060621 0.68072623 0.15874107 -0.25109106 -0.6059482 0.35130456 0.43562248 0.036147043 -0.45849124 -0.35482138 0.5097239 -0.040957935 -0.70689315 -0.041726857 0.5276963 0.20674124 0.5464118 -0.4458612 0.3770062 -0.09854643 0.9383195 -0.14155208 -0.16697034 -0.7331075 -0.09268872 -0.03857911 -0.6801787 -0.36674905 -0.06826428 0.23323421 0.97776514 -0.08328866 -0.31507254 -0.2892547 0.7050801 -0.51004744 -0.22150911 -0.033149954 -0.13888302 0.14367418 -0.29417273 0.2219703 0.069732875 -0.542695 -0.52335507 0.20925266 -0.24252282 -0.8946783 -0.08679957 -0.12821405 -0.08854275 -0.31599265 -0.6691673 0.05390521 0.2801106 0.15886714 0.2126192 -0.9074806 1.0229565 0.95957625 0.72655344 1.0339404 0.07053231 0.6685305 0.3281323 0.33880922 -0.46791708 -0.43526617 -0.4922023 0.57479554 -0.35527173 -0.38066834
106 0.44022742 0.034006853 -0.2167699 0.103214756 -0.07904543 0.82603335 -0.4333416 -0.30582577 -1.1994196 -0.01707603 -0.53318715 -0.9640556 -0.5808428 -0.5098938 -0.92064977 -0.53004074 0.50232315 -0.45273596 -0.2624647 0.11148067 -0.5108234 -0.09290799 0.16174525 -0.518824 -0.44217154 0.19738775 0.20506443 -0.27619982 0.024132598 0.1837138 -0.2370293 -0.091817595 0.6913034 -0.54873854 -0.4800293 0.6849536 0.48619667 -0.7180329 0.5552006 0.56874293 -0.13142894 -0.31970292 0.3620011 -0.10500775 0.28514746 0.4388941 0.8563593 -0.63795686 -0.06830613 0.05497149 -0.75648195 0.42407498 0.48711738 0.07972608 -0.04895355 0.016933694 0.018290123 -0.03707108 -0.65803117 -0.184846 0.22589065 0.12252203 0.2516017 -0.48670238 0.7116739 -0.0901825 0.32889512 -0.33975327 -0.36965093 0.28800654 -0.17601782 -0.4338767 0.8992064 -0.30596232 0.22302967 0.5819951 -0.23056468 0.060415234 0.5107414 -0.051523384 0.22478946 -0.056504 -0.29229924 -0.79775 -0.8749212 0.24780145 0.3351922 -1.3069367 -0.08106995 -0.14704591 -0.28378385 -0.38962176 -1.082604 0.071142815 0.12074381 0.10377276 0.19200405 0.4019536 0.36231408 0.32139143 0.8469645 0.18020776 0.47957447 -0.052835923 0.71357983 -0.1286791 0.23977026 0.18770628 -0.46903014 0.086401984 0.2259823 0.117398284 -0.9629662 0.1826268 0.3506759 0.6949402 -0.006988552 0.4239413 0.10427773 0.0906494 0.53074604 0.31144565 0.03582395 -0.15355547 -0.34291163 0.18191393 0.54155946 -1.0309353
142 -0.4714348 -0.3358933 -0.4011659 0.45869315 0.5832076 0.7407294 -0.47934037 0.26951003 -0.26588127 0.7668357 -1.0064183 -1.1149788 -0.22579052 -0.44409755 -0.0992699 -0.6732994 0.7044874 -0.31044018 -0.4422988 0.36207566 -0.2599768 0.3853757 0.13041767 -0.24491476 0.7890544 -0.23225538 0.55144155 -0.0586038 -0.16594961 0.4201905 -0.01940977 0.019610971 1.1118486 -1.1859818 -0.4739223 -0.13146627 0.055969693 -0.41307127 0.27273792 0.06286794 -0.54619503 0.20532559 0.66693443 0.023606723 -0.5590974 0.5232681 0.17824371 0.15114838 0.21914992 0.89775383 -0.4203858 0.7460055 0.0500126 0.76108927 1.4122432 0.48990518 0.17874326 -0.31173196 -0.4080075 -0.5759143 0.053525466 0.6226723 0.051644966 0.09857864 -0.40698814 -0.12567523 0.41088954 -0.19294691 -0.19532563 -0.16345024 0.69831926 0.116440244 -0.5929823 -0.90149534 0.6035745 0.34839058 0.19027536 -0.60286397 0.082646176 -0.36335093 -0.07186047 0.0983806 0.44632635 0.009545067 0.32220197 -0.6828969 0.43328148 -0.2544428 -0.7304526 0.39633405 0.018288756 -1.040171 0.10435298 0.45504856 0.3967731 0.13135216 -0.24812056 0.45839322 -0.036404718 -0.38401794 -0.5572164 -0.2363 0.06655578 0.42029944 0.5489396 0.3831557 0.13194856 0.027649095 -0.07063255 -0.030524006 1.142355 -0.06462615 -0.5575174 0.11450477 0.5942293 0.39842713 -0.04630967 -0.49608594 0.641836 0.8314287 0.70195955 0.7075461 -0.2317702 -0.23104861 -0.7276105 -0.4428945 0.34289536 0.4624053
411 -0.07144285 -0.46160665 0.20610815 0.42434463 0.39947596 1.1157801 0.074076734 -0.017639637 -0.7816231 -1.020395 -0.45174757 -0.07556714 0.18292388 -0.78230464 -0.20223588 -0.23264775 0.45734602 -0.2221393 0.02322955 -0.269851 -0.6541456 0.10037197 0.49687445 -0.57324505 -0.5665731 0.41244787 -0.54297507 -0.59953594 -0.31693783 0.1875564 -0.21050249 -0.26784408 0.75674593 -0.2615582 -0.58041257 -0.21839154 0.39987913 -0.6668543 0.6009826 -0.18833433 0.2809003 0.011600746 0.79005396 0.15321447 0.3877714 0.039980628 0.33943844 -0.05154971 -0.1245257 -0.14950436 -0.997439 0.32967526 -0.25820345 0.6925103 1.1595361 0.33557028 0.105930045 0.85865283 -0.73673713 0.76942277 -0.22628906 0.85047007 0.6837753 0.74623054 -0.27046332 -0.15823951 0.3887617 0.022146255 -1.0408962 0.03856537 0.91274637 0.0069931746 0.6517024 0.05845457 0.83197194 0.9660563 -0.2633368 -0.010191779 0.16877834 -0.03217423 0.026135117 0.4290896 0.21662015 0.11010243 0.5089057 -0.28896615 -0.19862133 -1.0234197 0.09073593 -0.747048 0.1482868 -0.09914956 -0.47822726 -0.4934433 -0.079910934 -0.5791205 0.086831175 0.83156824 0.58600885 -0.2578226 0.502237 -0.7319174 0.4759533 -0.1292787 0.52895623 -0.2931918 0.5776802 -0.52346474 -0.25298095 0.44183606 0.3873338 0.3081691 -0.36606756 -0.67201704 0.1336974 -0.37150276 0.42219073 0.10139191 0.31062052 -0.18520871 0.54576147 -0.020120498 0.24208716 -0.35243034 -0.33565325 0.04311221 0.9566136 -0.72475
157 -0.5647264 0.45680806 -0.30070344 0.47170904 0.19942601 0.7134572 -0.6317313 0.6042588 -0.82753384 -0.13068943 -0.45597973 -1.0861713 -0.3531195 -0.5926566 -0.2026502 -0.7844445 0.5719611 0.33119506 -0.5445114 0.066172175 -0.39492047 0.5184361 0.51357174 -0.7972202 -0.28967395 0.5567613 0.4525081 -0.17398003 -0.043230437 0.12547919 0.19079517 -0.3245 0.81445944 -0.5426411 -0.5210644 0.29563746 -0.2068911 -0.91574764 0.30231577 0.5855601 -0.074182644 -0.029675886 1.4176066 0.48640832 -0.49733365 0.88429314 0.56246334 -0.27772093 0.008567903 0.5466379 -0.089803964 -0.18864313 -0.23199339 0.6244581 0.31954995 -0.20874046 -0.65150726 -0.031240212 -0.2642961 -0.105957896 -0.69876426 -0.0063995584 -0.5462995 0.43429407 0.01728848 0.3369483 0.15696706 -0.74199504 -0.6710431 0.5167695 0.74540323 0.6626755 0.7760646 -0.7431697 0.69538754 0.5663624 0.5590309 -0.25824142 0.6595182 -0.5380832 0.16382937 -0.33956537 0.19922894 -0.38026297 0.11554265 -0.5146537 0.6188076 -0.9695411 0.29491687 -0.022374433 0.0741451 0.059999507 -0.56877273 -0.1406781 1.3141152 0.25922692 0.1779794 0.66219866 0.5844834 -0.45599228 -0.020198155 -0.30537918 0.062472377 0.92694557 1.0052878 0.24335398 0.7723635 0.5353166 -0.6538153 -0.368749 1.0731993 -0.11900354 -1.0668795 -0.23685905 0.6557033 0.19831422 -0.3253437 0.1295201 -0.34362587 -0.026663823 0.83807766 -0.14309658 -0.2128724 0.17846258 -0.23153526 0.3814221 0.31852278 -0.024701206
434 -0.8698685 -0.014214131 -0.53281236 0.9050846 0.43832347 0.2392065 -0.85077816 -0.20776004 -0.39291316 1.1156019 -0.61618763 -1.5937138 0.061073456 -0.54486364 -0.06032204 -0.16491392 0.50385207 -0.2680544 0.07109181 0.6977807 0.48852488 0.5818364 0.55241936 -0.23041531 -0.38648874 0.25666106 0.1575326 -0.18432735 -0.21439037 0.98336405 -0.05292194 -0.5687027 0.56924003 -0.12761642 -0.029276872 0.17259668 0.13255082 -0.46140826 0.41807958 0.4994663 -0.3991582 -0.542844 0.72253597 -0.2431607 0.17860022 0.75750667 1.250899 0.17951928 -0.452893 0.30231738 -0.4655918 0.28056335 1.090232 0.21729045 0.5947155 0.16031086 0.14501159 0.423401 -0.31812283 -0.6407987 -0.37855273 0.41464078 -0.17711347 0.14247282 -0.03658248 -0.26958528 0.33950514 -0.14291197 -0.24848029 0.30260774 0.16420986 0.38946408 0.3453904 -0.11516054 1.0247898 0.04427708 0.013400653 -0.6168626 0.85380846 -0.06857985 0.72634876 0.2345837 -0.58567053 0.18882424 -0.33123648 0.32312644 0.28905386 0.049361315 0.082063854 0.2731521 0.020259565 -0.6839942 -0.6655535 -0.14263971 0.50098443 -0.023016958 -0.5431692 1.0805537 0.061581247 0.07504618 -1.0866466 -0.26149622 0.48241892 0.5009827 0.5956496 0.6176819 -0.03074404 -0.41457772 -1.1076895 0.49392524 1.33989 -0.51411945 0.15874825 -0.061534233 0.8990704 0.2903346 -0.12146266 0.4980733 0.18051106 0.6731876 0.7768925 0.98606086 -0.51693916 0.7438497 0.65539205 0.1019792 -0.1353953 0.19839826
58 0.79708153 0.01653932 0.013508373 0.22896163 -0.3343519 0.5880145 -0.2711976 0.033743773 -0.5558429 0.40829688 -0.88373184 -0.637868 0.4454601 0.2434624 -0.49565107 -0.98746544 0.60482764 -0.4908351 0.17134966 0.15398586 -0.49386296 -0.17846361 0.3618894 -0.45946732 0.24416465 0.22243443 -0.4540548 -0.30260268 0.30655557 0.83291805 0.38860443 -0.34795177 1.1567093 -0.7566542 -0.22841959 0.36643314 -0.31589106 -0.31326735 0.35762066 0.7450824 -0.47668505 -0.18162239 1.0739727 -0.48318925 -0.2754027 0.24987637 0.9707442 -0.5402526 0.31908932 -0.1597039 0.059957966 -0.3364353 0.36086237 0.8511783 1.0563154 0.54647934 0.16016906 0.34321284 -0.07944651 0.16484903 -0.5823544 -0.25304264 0.07921304 0.38890463 -0.3466426 -0.16709933 1.5566994 -0.9007118 -1.2053083 -0.29279897 0.4516159 0.10917326 0.7025516 -0.45569256 0.7808461 0.19581982 0.27412796 -0.6380562 0.24606411 -0.5478773 0.09672576 -0.10635905 -0.34826016 -0.20789076 0.4818721 -0.053505205 1.0947566 -0.8789628 0.12508003 -0.14436263 0.07451538 -0.021900874 -0.39231023 0.5164524 0.32581633 0.43035355 -0.4114503 0.21217805 0.43029952 -0.9267627 0.30058542 -0.24326937 0.7654144 0.3106122 -0.33383852 0.36375406 0.35829833 0.7627544 -0.89721406 0.21982342 0.1963116 -0.11207609 -0.24603656 -0.48325032 0.57722014 0.39437446 -0.20151915 -0.16556695 -0.43970248 0.47436854 0.9146731 0.771456 -0.8042165 -0.5951705 -0.469209 0.030311106 0.7452633 -0.29007646
129 -0.29440472 -0.37629014 -0.28878894 0.33284816 0.4414129 0.54760516 -0.40565753 0.064960025 -0.4547789 0.12336619 -0.7573501 -0.64475405 -0.32090962 -0.5481008 -0.16351113 -0.32520586 0.0705676 -0.35733014 -0.071593836 -0.015093209 -0.22872207 0.241679 0.41774485 -0.23762463 -0.13865547 -0.2227217 -0.14962368 -0.116631106 -0.1979627 0.24482441 0.17401902 -0.35946575 0.7545537 -0.3825328 -0.5420652 0.07715091 0.30652 -0.27741885 0.35132584 0.5465468 0.0079374695 -0.019649828 0.4706005 -0.104781136 -0.009710283 0.33845195 0.34309545 -0.16670664 -0.2840173 0.4107205 -0.37669605 0.15132327 0.46073133 0.7127947 0.5949399 -0.17847303 0.07185701 0.37017614 -0.505778 -0.10652405 0.017386911 0.5278747 0.16137855 -0.32977 0.12969342 0.078693554 0.39551562 -0.4372109 -0.23971076 -0.20821106 0.3399355 0.16933152 0.22748813 -0.19342797 0.41114134 0.4601917 0.03085581 0.037869945 0.31027776 -0.4119274 0.0569148 0.2246467 -0.27964813 -0.14606383 -0.12268182 0.23406765 0.2827687 -0.5404902 -0.2268579 0.15024823 0.20688727 -0.6102148 -0.693525 -0.3483445 -0.41853988 -0.053171042 -0.20718881 0.4791193 -0.17259192 0.17098086 0.027230032 -0.34883887 0.3012342 0.11385715 0.4349968 0.02953632 0.18079886 -0.32630384 -0.5721995 -0.057600815 0.44149402 0.17883447 -0.49568722 0.042925302 0.35464284 0.39972618 0.18240517 0.5574321 0.16046116 -0.048888616 0.6115852 0.2631629 -0.08586047 0.0935869 -0.382819 0.38642487 0.55697614 -0.54257745
249 -0.13260292 -0.22583742 -0.28069076 0.35547394 0.20881411 0.6340855 -0.29599202 0.092077024 -0.5762652 0.12908216 -0.5454314 -0.5215437 -0.2945051 -0.41783756 -0.17759919 -0.12616606 0.17302224 -0.23524782 -0.1839698 0.16367324 -0.11933906 0.2034161 0.43005702 -0.05108337 -0.10279954 -0.24266684 0.018733148 -0.06480618 -0.06708513 0.27540842 0.07426111 -0.17318225 0.46442747 -0.45962217 -0.45113358 0.06613638 0.24319597 -0.41276383 0.31930134 0.26428744 -0.16694638 0.048281647 0.5458908 -0.13182698 0.021693818 0.41208348 0.489297 -0.15818778 -0.323869 0.16656108 -0.34368053 0.025212431 0.32890433 0.48062083 0.36223674 0.046556264 0.074996494 0.22024266 -0.42101017 0.027928395 -0.2246585 0.42906845 0.060309347 -0.012186652 -0.04793558 -0.006830004 0.3553938 -0.2996363 -0.3228119 -0.09542271 0.38846958 0.3243071 0.2815526 -0.32326284 0.5894672 0.26226035 0.09699192 -0.061035447 0.26486412 -0.26906496 -0.025588432 0.07805749 -0.2984877 -0.23996067 -0.15751292 0.13597283 0.2353868 -0.47776413 -0.036495406 0.11515765 0.18840061 -0.38196832 -0.41583422 -0.18849736 0.17182718 -0.083572626 -0.20143622 0.4760382 -0.014464244 -0.0077823014 -0.09372098 -0.19479556 0.19002183 -0.024572412 0.3421191 0.14946474 0.19100437 0.040557288 -0.43432462 0.14058997 0.53240454 0.047774006 -0.14335437 -0.18173404 0.2144201 0.11983258 0.0014982979 0.30507436 -0.027747529 0.18266468 0.42038158 0.2649346 -0.19191144 0.18621844 -0.37552816 0.206197 0.29792523 -0.14127019
405 -0.51241666 -0.12599109 -0.61448574 0.44489682 0.5642883 0.7810149 -0.5356981 -0.2722999 -0.752359 0.83011115 -1.0075558 -0.73737603 -0.6546465 -0.04629058 -0.26935154 -0.055740185 -0.03350894 -1.1340117 -0.25272614 0.27814296 -0.009254629 -0.64960426 0.33350676 0.5507796 -0.041679725 -0.6845464 -0.50647074 0.03445002 -0.19237146 0.6903269 0.22304073 -0.28634563 1.1725909 -0.6836815 -0.68190235 0.30705702 0.21617201 -0.30849093 0.7179952 0.9584102 -0.43058315 -0.5040705 0.36224005 -0.5881839 0.26821777 0.5994473 0.38141632 -0.036065154 -1.1881499 0.4877905 -0.38632846 0.03429439 0.60150486 0.4398477 0.7987797 -0.5244423 -0.6234204 -0.4389024 -0.15817793 -0.397532 0.38199133 0.19452867 0.3404401 -0.8897875 0.5225711 -0.22344689 -0.021271333 -0.59980565 -0.09047803 -0.14516039 0.2491676 0.2123421 -0.26133162 -0.21526206 0.44318354 0.29527885 0.54566383 0.11308993 0.46494842 -0.25095493 0.5259627 0.17960703 -0.5777507 -0.35090035 -0.87735105 0.45399952 0.5190958 -0.36341166 -0.6335123 0.658979 -0.17062642 -0.6272347 -1.5459424 -0.77674305 -0.747079 0.22425711 -0.48047838 0.27030715 -0.8413515 0.21587932 -6.152074e-05 -0.074106164 0.54737043 -0.534177 0.41725317 0.1304657 -0.34865203 -0.29404768 -0.50416994 0.36332145 0.99296683 0.3684702 -0.8802272 -0.1736966 0.03637312 1.1839868 -0.09407049 1.3289552 0.023074538 0.4621649 0.47060007 0.4529878 -0.02292457 0.48608965 -0.70857376 0.09929071 0.084095225 0.14625603
83 -0.7770061 -0.17372401 -1.0403742 0.5102304 0.75527745 0.9067151 -0.03620929 0.15938224 -0.40900505 0.34731027 0.1714832 -0.55264074 -0.5247621 -1.5062159 -0.2365155 -0.15560628 0.09179902 0.12471596 -0.13144523 -0.19205113 -0.62738645 0.6928076 0.3126591 0.18412112 -0.07071841 -1.2119609 -0.07559538 -0.5521938 0.0009522628 -0.44901547 0.2864587 0.38119 0.08681371 -0.66727823 -1.0513142 -0.5822401 0.8418973 -0.71665686 0.14591181 -0.23426181 0.70979935 0.09065427 0.05285438 0.27259636 -0.26310724 0.37738752 0.05088926 -0.3541527 -0.5762844 -0.022380317 -0.38901106 0.3059998 0.52471155 0.5497582 -0.14122166 -0.59597707 0.9031542 0.4554125 -1.3633454 -0.20983034 0.04516602 0.2998332 -0.5253399 -0.031962194 -0.19369595 0.19308886 0.350919 -0.258951 0.034693763 -0.19492368 0.062781304 0.82503664 0.6159486 -0.45415154 0.21170737 0.27874517 -0.3241516 -0.36053947 0.2675517 -0.7076389 -0.023304716 -0.28267843 -0.917753 -0.106259406 -0.46041867 0.42237094 0.52633256 -0.32021686 0.60394233 0.69721615 0.5820703 -0.9185743 -0.74674004 -1.2725596 0.24483213 -0.4760931 -0.23050569 0.61470133 -0.5121257 0.7979346 -0.02032589 -0.11725414 0.6974929 0.058943357 0.8301531 -0.5833592 0.6289599 -0.109766826 -0.2539341 0.38336235 0.7497277 -0.075731605 -0.15754057 0.15854302 -0.19272497 -0.21331885 0.30629855 0.8371576 0.42966923 -0.76168823 0.7189156 0.57562584 -0.17540294 0.44629028 -0.8579561 0.9088619 0.81874585 0.20061497
820 -0.12686609 -0.19290741 -0.2038006 0.5121686 0.42753455 0.3315138 -0.2674398 0.026755603 -0.3412247 0.22486654 -0.44998986 -0.6184315 -0.16476907 -0.4095439 -0.15776889 -0.37100372 0.38729393 -0.15415412 -0.079661354 0.13681997 -0.090426534 0.32555798 0.30845895 -0.03205594 -0.018433658 0.055149216 0.047984637 -0.055243548 0.055418592 0.47620308 0.015683651 -0.16632192 0.36455134 -0.49235803 -0.3343963 0.03430206 -0.0022358485 -0.5240021 0.23551822 0.44589332 0.21865283 0.05528986 0.26935932 0.035219815 -0.096408665 0.13639396 0.32582122 -0.064527325 -0.116035104 -0.043707833 -0.22054908 0.11382862 0.21658754 0.33802173 0.64740306 0.3393089 0.40872088 0.38856426 -0.40250057 -0.045671117 -0.5301864 0.075091176 -0.07420033 0.23088646 -0.274742 -0.005800974 0.56300414 -0.34154874 -0.47829014 -0.22474223 0.2672525 0.34732786 0.15741457 -0.38271204 0.5707842 0.35419658 -0.12367096 -0.38698643 0.29890403 -0.22810091 0.039672885 0.14448519 -0.4374371 -0.16779567 -0.08562923 -0.12316205 0.21493511 -0.11186665 0.051314898 -0.16110753 0.035420243 -0.73029137 -0.4363475 0.028818857 0.06537285 0.03104 -0.019583603 0.54227376 -0.12184514 0.07049252 -0.43887356 -0.032456335 0.3391353 0.3010127 0.47459644 0.32029325 0.26157328 -0.23806134 -0.5385108 0.34892383 0.30299693 -0.15036827 -0.21850784 -0.031258073 0.26657802 0.18681319 -0.21987987 0.053998422 0.22549336 0.0115232 0.422162 0.27169654 -0.37493294 0.08022831 -0.16937637 0.088613555 0.3597521 -0.31261843
183 -0.010018183 -0.31503037 -0.46730515 0.473502 0.33186147 0.48644194 -0.095811844 0.16411218 -0.61766255 0.12449844 -0.51877654 -0.4923618 -0.28286073 -0.6705465 -0.34827274 -0.42494115 0.25582287 -0.33552492 -0.094180346 0.13433611 -0.2388063 0.13483895 0.577966 -0.058147546 -0.14134398 -0.27177727 -0.10908791 -0.29935452 0.059845153 0.43233 0.19647871 -0.1558832 0.62573606 -0.49540907 -0.5959875 0.036251336 0.56823885 -0.5030641 0.45352393 0.27999353 0.120660804 0.013307458 0.4831631 -0.0815902 -0.22112331 0.23716402 0.41158918 -0.3955888 -0.15766336 0.13237375 -0.40979326 -0.16405308 0.55209816 0.6145843 0.50252134 -0.028357904 0.29599443 0.46890074 -0.5619064 -0.053395 -0.34891608 0.3278214 0.034497377 -0.049374998 -0.14377372 0.17274179 0.5990092 -0.46537575 -0.611666 -0.2940976 0.3909096 0.52343535 0.4330112 -0.5020084 0.5713838 0.48615065 0.2381505 -0.23597087 0.40847492 -0.52113783 -0.049926035 0.00042691163 -0.4618222 -0.16075541 -0.09158511 0.27416563 0.2882759 -0.43844324 0.12842572 -0.023923185 0.30155337 -0.39639106 -0.5165989 -0.3659414 -0.27651632 -0.09753136 -0.2053374 0.40423656 -0.225337 0.1577583 -0.06008911 -0.15156984 0.56079507 -0.11784017 0.32080105 -0.075780936 0.48992786 -0.06885731 -0.6119108 0.26883388 0.3821698 0.16383673 -0.2503328 -0.22138005 0.13970453 0.15002723 0.10927164 0.5203926 0.082090355 -0.026698185 0.5620298 0.32090694 -0.24998745 -0.16708775 -0.5695193 0.26864746 0.6005139 -0.19009824
189 -0.0313428 0.22953644 -0.032457642 0.32731557 0.3863995 0.28960925 0.1031317 0.12104643 -0.1913708 0.72658575 -0.71327966 -0.8476331 0.01386843 -1.2755979 -0.8129283 -0.75953126 0.20871684 -0.20000039 0.35830328 -0.71291333 -0.031851634 0.35865778 0.7484846 -0.1959887 0.67625856 -0.4502798 0.22890072 0.031747576 0.406536 0.05673811 0.06491934 -0.0065511176 0.6100245 -0.5905659 -0.70315474 -0.3632687 -0.2291044 -0.5645942 1.0712838 -0.11021551 0.135069 0.16264631 1.0278558 0.027411198 -1.147474 0.18634795 0.43212494 -0.48568556 0.66229856 0.12506437 0.120984755 0.15396239 0.09279617 0.81787777 0.80548126 0.17814627 0.25535664 -0.12636162 -0.75023514 0.62439275 -0.2261077 0.4914601 -0.025808372 0.36300164 0.11486973 -0.17305677 0.9564249 0.019970661 -0.7863319 -0.38148206 0.23035432 -0.40618682 0.1454867 -0.77654403 -0.4390876 0.6592497 -0.3007071 -0.35160163 0.7275001 -0.33638957 0.034208007 0.30294397 -0.26377732 -0.28889903 -0.04224403 -0.35769036 0.10761713 -0.3108652 -0.07420741 -0.02372637 0.60889554 -0.5735148 -0.19329531 0.20731145 0.20574087 0.006518953 0.18606411 0.08318081 -0.32555315 0.5272137 0.26654834 0.042492047 0.15019664 -0.08184595 0.7772942 -0.014559812 0.32267916 -0.32871413 -0.295511 -0.20578557 1.4529434 0.4514634 -0.060219727 -0.19625022 0.18377614 0.5422779 -0.41409197 0.3845347 -0.37062597 0.46746716 0.7437912 0.4580421 -0.21012075 -0.285856 -0.6756052 0.34204295 0.88118774 -0.51733273
74 -0.48791358 0.04885366 -0.561735 -0.052355193 0.1858188 0.5886145 -0.75959265 0.41367018 -0.7988428 -0.2729579 -0.6755772 -1.0302329 -0.522421 -0.19365545 -0.7044528 -0.938099 0.84790987 0.04782343 0.8254099 -0.0002622145 -0.8592242 0.60154617 -0.15235364 0.26753384 0.006895313 0.41483128 0.21685784 0.07240494 0.38978255 0.3777859 0.21312755 -0.17097399 0.48024985 0.009448339 -0.24983719 -0.22229457 0.12700583 -0.6348243 0.2375507 0.5062914 -0.62601435 0.2782499 0.4726797 -0.2355698 0.19665658 -0.09569154 0.579369 -0.26834455 -0.04136442 0.1863255 -0.0991866 0.2343978 0.5479628 0.6953995 0.74985635 0.5446534 0.22834542 0.40059033 -1.4268321 -0.3487808 -0.21607396 -0.1948304 0.21780077 -0.44312102 -0.011235404 -0.2876051 0.88788986 -0.73749554 -0.6651268 -0.50983477 0.3786407 -0.092257194 0.12508912 -0.5059519 0.95990264 0.43737194 0.2585632 -0.6046307 0.44111648 -0.07093921 0.06253908 -0.58668995 -0.849468 -0.14717174 0.031148903 0.105738126 0.08220523 0.08936089 -0.572392 0.5682192 0.22208302 -1.0978341 -1.0527594 -0.4199974 0.1443601 -0.27233556 -0.3048223 0.5063255 0.38964036 -0.6485781 -0.22586365 -0.39591074 0.5873789 -0.47124282 0.92023456 0.35230577 -0.23311341 -0.13006999 -0.9245844 -0.0011671918 0.40724155 -0.38954848 -0.038777765 -0.010312843 0.32551 0.15113854 -0.30749124 0.04995513 0.6264625 -0.50729376 0.4041411 0.24541493 -0.14101541 0.39596358 -0.20390199 0.040145237 -0.12854092 -0.71672136
283 -0.17118855 -0.346193 -0.54293925 0.5739594 0.4690214 0.48476928 -0.1755808 0.17032614 -0.5093286 0.18416063 -0.4735145 -0.5530076 -0.3415288 -0.66253805 -0.14539032 -0.42467082 0.33851638 -0.33198887 -0.21206835 0.17681928 -0.23392902 0.117271915 0.51152915 0.018426983 -0.07602777 -0.326828 -0.11241916 -0.36563018 -0.086673036 0.3848317 0.18200165 -0.08431806 0.600487 -0.8017457 -0.51778877 -0.11442287 0.5415247 -0.46941844 0.30810145 0.31249642 0.16378145 -0.101623885 0.4767494 -0.019464454 -0.22910616 0.29105777 0.4668959 -0.30121902 -0.35813144 0.15535356 -0.49153027 -0.10011757 0.48276478 0.46277696 0.65059006 -0.014053365 0.38630307 0.39866683 -0.5601581 -0.15844648 -0.36214694 0.17525636 0.12794264 0.11249993 -0.3017438 0.027338399 0.6077281 -0.4637195 -0.46883732 -0.22806409 0.38234258 0.66736186 0.30466047 -0.59379226 0.65516084 0.39730135 0.113967 -0.26028275 0.40346804 -0.5340315 0.07212351 0.02324995 -0.35305718 -0.080224015 -0.111355774 0.13899674 0.33377036 -0.32672247 0.0823458 0.024010593 0.19635722 -0.54673237 -0.40750587 -0.26362613 -0.1512752 -0.07446811 -0.14502463 0.4023125 -0.16120686 0.08295181 -0.25710282 -0.09313614 0.4921136 0.058370594 0.29435092 0.027517889 0.41187492 -0.08041452 -0.55698234 0.35195458 0.41170457 0.11288897 -0.19958323 -0.15479416 0.13085346 0.26189426 0.119225726 0.49895713 0.17489901 0.068520665 0.5525701 0.48171455 -0.36726904 -0.048979808 -0.62649775 0.28829855 0.4894639 0.086813346
114 0.060592756 -0.11171716 -0.5187345 0.42289966 -0.38089108 0.36280155 -0.7473019 0.08425726 -0.56009537 -0.22960967 -1.0263795 -0.57087594 -0.42766303 0.18425012 -0.7074512 -0.47258934 0.6144374 0.43064842 0.43927315 0.1659303 -0.5445535 1.2019433 0.25817412 0.098853216 0.19287677 0.18190095 -0.34962934 0.4187372 -0.23960505 0.2884175 0.20422038 -1.1005403 0.41722158 0.34656623 -0.8654116 0.082793765 -0.21316163 -1.1041108 0.6688323 0.56408155 0.08960935 -0.22945964 0.94815725 -0.55335194 0.01907362 -0.105533384 -0.1888127 -0.39811203 -0.26207665 -0.4528797 0.1200811 0.033903785 0.78447974 1.2616657 0.64376616 0.3646507 -0.030166285 0.80258965 -1.1372899 0.48695832 -1.0096811 0.5599729 -0.15627083 -0.2110119 -0.25042135 0.8479589 0.4934366 0.1938022 -0.70731497 0.117972754 -0.09733478 -0.038163137 0.21864036 0.47031575 0.25045967 0.89967746 0.58151203 -0.46534413 0.3321239 0.03725906 0.49948138 0.17520577 -1.1751719 -0.50195915 0.2028209 0.5436052 0.47594067 -0.6478388 0.021802632 -0.2249253 0.5993861 -0.5005206 -1.5426452 -0.6330022 0.052156165 0.35913393 -0.1781049 0.6806591 -0.15954259 -0.08995498 -0.42695624 -0.47357616 0.08040953 -0.6959113 0.6444489 0.17534687 0.1364166 -0.37024987 -0.9658542 0.43842718 0.32728788 0.12780927 -0.4378386 -0.6285613 0.6005937 0.6765063 -0.3469174 0.59234065 0.50837904 -0.358788 0.7861078 0.16746163 0.21056247 -0.3024955 -0.0041918033 1.0116459 0.5122884 -0.8678559
256 0.070784315 -0.050429743 -0.25111583 0.62920266 0.584018 0.42979157 0.60926485 0.018391853 -0.3337676 0.57644004 -0.11898922 -0.85546565 -0.1381803 -0.7917964 0.34606385 -0.41342852 -0.11770526 -0.016993893 0.13554047 0.253276 -0.66462296 0.7393733 0.3389623 -0.88913 -0.68524784 -0.9611498 -0.4595851 -0.39024648 0.19208787 0.35850465 -0.040839553 -0.47692972 0.93371195 -0.45225736 -0.36951643 0.12106342 0.7424596 -0.53411776 -0.18607448 0.7346317 0.102385536 -0.45589843 0.5282592 0.04407977 -0.5724997 0.03100244 0.20886378 -0.8548109 -0.079435065 0.046267413 0.5144522 0.2196039 0.55605423 0.09269407 0.3106265 -0.561803 0.6364348 0.23758447 -0.31655234 -0.4335686 -0.46444225 0.48644584 -0.4222132 -0.35849085 0.082330786 0.48592642 -0.14203614 -0.04211877 -0.42470595 -0.54047674 0.7634879 0.05615153 1.5651771 -0.61946887 0.044228427 0.11613243 -0.23226532 -0.00027095748 0.5800681 -0.08176828 -0.13321269 -0.20499401 0.015043358 0.45577464 0.24827835 -0.15774292 1.2374954 -0.5153215 0.65914154 0.2445951 0.28740475 -0.31710777 -0.27001184 0.040008496 -0.16675644 -0.060295545 -0.05791844 0.7931072 -0.11309932 0.20774533 0.22098812 -0.3388619 0.9933454 0.465444 0.5866667 0.28499666 0.6041893 -0.045242444 -0.4689551 -0.013563518 1.0630052 0.4624132 -0.087668285 -0.19875824 -0.56707406 0.8254518 -0.4079191 0.7397178 -0.1693635 -0.5355748 1.1627988 0.5681704 -0.47625464 0.65255016 -0.15038528 0.5722916 1.3555816 -0.59167117
41 -0.38566387 -0.79943717 -0.62337935 0.8082531 0.76157683 0.8357601 -0.13970242 -0.1740723 -0.3166337 -0.38679892 -1.0491027 -0.2075048 -0.5683436 -0.828021 -0.27328017 -0.007986498 0.13052331 0.11377202 0.30185348 0.37765265 0.23891221 0.30690733 0.9082301 0.16178007 0.11761398 -0.106702566 -0.5474241 0.15793876 -0.4997656 0.99417883 -0.34210402 -0.20617285 0.15869956 0.22379406 -0.8364281 0.46612042 -0.44371396 -1.04874 0.44690776 0.23071069 0.10660146 0.005381037 0.22302021 -0.37555256 -0.081601016 0.5554449 0.8393137 0.4583474 -0.037844498 -0.35479313 -0.13319503 -0.19432239 0.49513084 1.0690689 1.4446981 0.035350733 0.20846798 0.5668462 -0.3481756 0.48126006 -0.68555164 1.035147 -0.018984612 -0.13991793 -0.32889476 0.23632447 0.62597924 -0.038051788 -0.048930563 0.13560465 0.43621263 0.17913032 0.485949 -0.56117576 0.4286084 0.29388806 0.04477214 -0.6725122 0.41973516 0.21470866 -0.33725855 0.4501433 -0.78545517 -0.3057359 0.39806452 -0.32998973 -0.043666907 -0.11983442 -0.5617059 -0.42581832 0.1090664 -1.0166438 -0.7743939 -0.21719529 -0.825628 -0.06460396 -0.33063173 0.86852884 -0.031035282 0.54713845 -1.0173435 -0.7260862 0.250178 0.09690482 0.89488894 0.34607202 -0.1005091 -0.8342188 -0.97297543 0.07689198 0.49050722 -0.11207044 -0.73372453 -0.7530117 0.17129439 -0.21263668 -0.3292829 0.5518204 0.21069029 0.09226337 0.1669491 0.11375142 0.35886014 0.32509363 -0.415228 0.31009093 0.60193735 -1.0219947
549 0.6083975 -0.7404592 0.21753366 0.47045466 0.26818743 0.38538933 -0.15009694 -0.032901045 -0.033453047 1.025513 -0.7534101 -1.1825812 -0.20301427 -0.85562915 -0.62655455 -0.37499166 0.48118046 -0.58414876 -0.07169244 0.11156399 -0.023441967 -0.05967921 0.5962123 0.26467222 -0.37777042 -0.62583673 0.2539682 -0.1657552 0.21184723 0.21276182 -0.0479485 -0.01792876 1.0041289 -1.1019982 -0.58026844 -0.083542064 -0.2718444 -0.36547455 0.3125171 -0.159225 -0.7517204 0.036025446 0.68465817 0.14486325 -0.08337317 0.27528787 0.6451187 -0.37130585 0.2061047 0.44767684 -0.40671995 0.62124175 0.6072533 0.4162237 0.47137967 0.70893544 0.6533715 0.37994605 -0.5844127 -0.57282966 -0.024007376 0.6128259 0.5552885 -0.27353013 -0.13310109 -0.68537205 0.7974297 -0.6204228 -0.89233595 -0.049278017 0.37306264 -0.28575435 0.32686093 -0.64954007 0.9855578 -0.04407256 -1.1439816 -0.26873824 -0.03666574 -0.4721127 -0.4771286 0.396319 -0.32970962 -0.4262296 -0.78994817 -0.33050343 0.7301312 -0.4678304 -0.35554954 0.052685875 0.19192232 -0.43391487 -0.2298627 0.22060266 0.6819261 -0.31126818 -0.7400757 0.23771223 0.55971813 -0.60117984 0.43967694 -0.3192358 0.09832516 0.5361509 0.7836511 0.36374545 0.020938555 0.17775577 -0.49879298 0.568115 1.068426 -0.64198697 0.20946842 0.3631151 -0.18961224 0.63320386 0.22267102 -0.20755501 0.028917216 0.38938314 0.16490828 0.6058166 -0.34621555 0.68918294 -0.50774145 0.3291946 0.6925891 -0.12986651
295 0.10245304 -0.2653722 -0.22752126 0.25477722 0.19718787 0.7590638 0.07055102 0.028086927 -0.7885065 0.37710238 -0.056395303 0.048653364 -0.20997915 0.024109611 -0.3554686 0.020020697 0.021696554 -0.60907125 -0.012135347 0.02212034 0.09656845 0.09419199 0.9278266 -0.026157608 -0.25967458 -0.31304353 0.3477535 -0.098251544 0.10294707 0.6340324 0.2626408 0.3398986 0.6565692 -0.56992096 -0.5767814 0.3404293 0.5868808 -0.39508104 0.30336422 0.27651164 -0.10173661 0.39074117 0.47002363 -0.24513781 0.13513094 0.45010576 0.50228316 0.08850328 -0.13518585 0.21126525 -0.1488793 0.057980463 0.14624262 -0.19787201 -0.27300197 0.4864725 -0.24414922 -0.025471957 -0.12546217 -0.10709113 -0.121473625 0.61770594 0.05298588 -0.16369262 0.21787786 0.06961519 0.23236269 0.04306686 -0.41795796 -0.08318699 0.6440211 -0.13087755 0.20277488 -0.82860994 0.62328047 -0.2797155 0.30749312 0.18881406 0.18580201 -0.16919172 -0.27378884 -0.10045349 -0.18759827 -0.34146097 -0.43714422 0.41294622 -0.11739249 -0.16661079 -0.08841902 0.3011646 -0.18209893 -0.20798254 -0.1721177 -0.14649384 0.34655952 -0.13343063 -0.23683156 0.49769464 -0.18888822 0.5396127 -0.15020058 -0.05720084 0.1784324 -0.13857126 0.64186096 -0.23444688 0.30714208 0.08773192 -0.481739 0.057390697 0.5797114 -0.2818839 -0.13221155 -0.6838015 -0.09405898 0.15901126 0.43335578 -0.13121043 -0.3291008 0.28656626 0.18711004 0.27276272 0.16880521 0.20283213 -0.20020708 -0.08551811 0.6803481 -0.30739892
48 -0.14541183 -0.53882134 -0.5878171 0.029922461 0.09269725 0.31733805 -0.15975039 0.022171458 -0.60912615 -0.12524937 -0.5334112 -0.084127136 0.08333159 -0.386145 0.18126105 -0.51561946 0.36041445 -0.23024659 -0.19902714 0.055360403 -0.13632493 -0.010350171 0.14744307 0.16562764 -0.008129221 -0.34675962 -0.29571292 -0.73324025 -0.32844764 -0.47739813 0.73953825 0.05389998 0.46079186 -0.6857106 -1.1256114 -0.50094026 1.1313664 -0.71498454 0.28130266 0.45954704 0.05691376 -0.28948513 0.5488588 0.31001204 -0.07197904 0.778173 0.08524037 -0.79249376 -0.722115 -0.11201405 -0.53338265 0.16841727 0.4923721 0.41655442 0.19397826 -0.095873505 0.0048341034 0.9088799 -1.0339526 0.46153507 0.0059799524 -0.18850474 0.32260805 0.26928717 -0.49972045 -0.011170115 0.4458557 -0.4587519 0.1164084 -0.22027957 0.171581 0.39881998 -0.12442826 -0.5202599 0.59367365 0.5863555 0.13979676 -0.82663226 0.67048985 -1.1091229 0.5738664 -0.02995336 -0.4176326 -0.057979435 -0.27873817 -0.10406004 -0.16653739 0.04786231 0.7676754 0.22490749 0.20474732 0.23433544 -0.73158735 -0.054150246 -0.19702545 -0.41570905 0.6380966 0.08226616 -0.018471573 0.7342005 0.28713652 -0.06267788 0.2513332 -0.35002777 -0.2448454 -0.06443799 0.283638 0.023450194 -0.5495166 0.32850042 -0.122828685 0.0428287 -0.006483187 -0.3165576 -0.1540944 -0.00092121924 0.81478304 0.980311 0.23555842 -0.043384742 0.75051415 0.42783436 0.09484233 -0.021281734 -1.4881761 0.67983276 0.9962416 0.28598967
301 -0.16902727 0.38502428 -0.21870685 -0.40121698 0.16556054 1.3344324 -0.7148116 0.09250203 -1.0149347 0.10176377 -1.1256715 -0.74296176 -0.25614128 0.21435133 -0.83030134 -0.45224604 -0.23010431 -0.4361247 0.79728484 -0.14183472 -0.29058102 0.22680454 0.37470695 -0.87705326 -0.35216483 -0.21066691 -0.2597083 0.10077738 -0.21821383 0.06225848 0.2869194 -0.2189138 0.8499314 0.08383434 -0.6201509 0.09447264 -0.24978897 -0.5390344 0.24272999 0.24546416 -0.110040866 0.037269413 1.131035 -0.13456026 0.14770335 0.9856562 0.4711244 -0.60693395 -0.07486026 0.87584144 0.46246445 0.13198492 0.81013155 0.9651529 0.7245992 -0.11834425 -0.44704914 0.8162643 -0.47155896 0.47289887 -0.44987956 0.96168435 -0.250096 -0.37491295 -0.067145176 0.79337126 0.625924 -0.05888617 -0.19136256 -0.5241131 0.18634868 0.22248286 0.6437526 0.10407698 0.0038207853 0.5110656 0.16331358 -0.008827945 0.008392905 -0.6175319 0.16671222 0.30296758 -0.2449895 -0.6818567 -0.2531926 0.3031467 0.6978643 -1.1956947 -0.5429508 0.34720597 0.12864915 -0.42638046 -0.3555179 0.05782904 0.10288523 0.1926389 -0.5910511 0.5898775 -0.32515255 -0.034698077 0.3494114 -0.66553384 -0.12322941 -0.4236795 0.055695437 -0.2082614 0.46507853 -0.11838252 -1.2545973 -0.473719 1.0663407 0.014863789 -0.5281133 -0.18741903 0.6422744 0.47675097 -0.26645654 0.90287656 -0.5242364 0.26711002 0.94644684 0.13713644 -0.21996705 0.28686407 -0.100135766 0.46899307 0.63701296 -0.7793939
128 -0.15212135 -0.23036066 -0.44310436 0.4465213 0.25453138 0.50593626 -0.24967584 0.14307 -0.5440505 0.1530459 -0.69252694 -0.5835192 -0.34456196 -0.4342468 -0.3451871 -0.2769116 0.34108427 -0.20510739 -0.058377385 0.1413667 -0.30372503 0.30740103 0.473363 -0.19797589 -0.10826327 -0.114190966 0.006625709 -0.14276768 -0.061640024 0.4836539 0.012957851 -0.44655246 0.6729322 -0.49843863 -0.6819891 0.07467145 0.28015393 -0.51235133 0.35979885 0.44560456 -0.10631974 -0.06477592 0.7043287 -0.20441705 -0.020215044 0.37725362 0.4665979 -0.24452877 -0.36444482 0.16020954 -0.31760898 -0.0927136 0.40850756 0.6168305 0.61078525 0.07912954 0.062108885 0.33754256 -0.54362833 -0.033610683 -0.21106821 0.51891017 0.08894497 -0.0746357 0.025962131 0.0505849 0.3763921 -0.19131605 -0.3770502 -0.17207146 0.42773232 0.2712237 0.21544586 -0.25583145 0.7232371 0.4730762 0.22771141 -0.07443437 0.32985595 -0.22601828 0.006049525 0.17538089 -0.34278795 -0.16595806 0.031565093 0.26201612 0.26493928 -0.46832895 -0.119813316 0.043972842 0.12471802 -0.5951105 -0.63307345 -0.31996113 -0.0058101076 0.021005746 -0.14487322 0.5334455 -0.030933848 0.06077346 -0.2180231 -0.19123992 0.3513081 -0.045065653 0.520735 0.14892092 0.25325477 -0.20089115 -0.65583545 0.10126763 0.6013141 0.055829052 -0.35124138 -0.23704576 0.33799958 0.33706212 0.053368736 0.34203914 0.3037117 0.12130984 0.60287637 0.32360798 -0.15489429 0.09503492 -0.3619131 0.27976 0.30485645 -0.33812013
412 0.37750605 0.06671014 0.20204668 0.38055012 -0.19083904 0.9629369 0.38517952 0.15397502 -1.0300117 0.5106987 -0.2877278 -0.19012427 0.13291831 -0.33802405 -0.72015566 -0.62872773 0.81530505 -0.49516866 0.5131149 -0.13826433 -0.41874593 0.015042912 0.8092283 -0.59192985 -0.1564521 -0.08758181 0.22638687 -0.28454039 0.04933735 0.8098331 0.857788 0.96958965 0.746977 -0.5689171 -0.101495534 0.56254774 0.84254664 -0.45537505 -0.13366592 0.23925684 -0.06868457 0.46275023 0.9882968 0.09640522 -0.23409164 0.45778012 0.2488779 -0.8364643 0.6355655 -0.014491708 -0.55351806 -0.18248162 -0.07298643 0.20272054 0.19671133 0.018220928 -0.05685845 0.987792 -0.50222826 -0.41692266 -0.64326715 0.46119988 -0.46948704 0.40165016 -0.41445073 0.32147193 0.86684835 -0.8547037 -1.3781577 -1.186569 0.69026047 0.9782892 0.42989433 -0.058844406 0.5528658 0.34284115 0.8410483 -0.39343098 0.9119658 -0.8227176 0.17123587 0.02843948 -0.21376644 -0.016395126 0.1095946 0.58863056 0.5750129 -0.33259535 0.8832857 -0.15292645 0.381227 0.6721397 0.15192856 -0.025142273 -0.110018656 0.049538054 -0.2863933 0.6255998 -0.289498 0.49986508 0.42053956 -0.079837516 1.2913702 -0.35126323 -0.054740846 -0.36652398 1.2820932 0.52607036 -0.4840713 0.0398837 0.16662492 0.80673486 -0.13504326 -0.44883323 0.013411628 -0.18946016 0.07744615 0.022864452 -0.31922352 -0.022207977 0.49851918 0.48964188 0.049242888 -0.82667255 -0.5603953 0.014505965 0.5234462 -0.27827686
115 0.16077918 -0.61519283 -1.2628266 0.92605376 0.5676493 0.77569574 -0.0021294574 -0.0066583166 -0.09254143 -0.48489684 -0.026435578 -0.17239617 -0.16094927 -0.41930836 0.2339275 -0.41868886 0.14391759 -0.41296208 -0.6676732 0.31346366 -0.44248 -0.36927062 0.81470495 -0.2287064 -0.12457731 -0.6290893 -0.87949276 -0.63 -0.06067912 0.51657206 -0.35225368 -0.028720105 1.1386993 -1.0721332 -0.6064115 0.122395456 0.6505291 0.09653083 0.04328775 0.35781732 0.444647 0.022716714 -0.066671655 -0.2526718 0.15500577 0.59708744 0.12973198 -0.4653143 -1.1657906 -0.27626687 -0.56364536 -0.1754376 0.74267995 0.5826473 0.74836314 0.25387955 0.93451697 0.15553805 0.16761175 -0.07775776 0.12663035 -0.030812832 0.35728747 0.058107585 -0.1073731 0.018765911 0.088860296 -0.36578503 0.25767455 0.27046305 0.27854255 0.5808876 0.34196913 -1.0242172 0.6525476 -0.24262226 -0.50121486 0.07859563 -0.04877996 -0.13915378 -0.24013788 0.07180902 -0.10092431 0.19641285 0.23049568 0.19703378 0.5883372 -0.4855426 -0.6830727 -0.15785484 0.16180167 -1.036502 -0.50130326 -0.28334084 -0.5407773 -0.45052272 -0.44251037 0.44668818 -0.20457299 -0.43952695 -0.048519127 0.09897077 0.64393616 -0.40895465 -0.045077354 0.07460048 0.35277286 -0.21340187 0.052710075 0.25889504 0.17453846 0.19024776 -0.6291276 -0.5350666 -0.2277607 0.8187375 0.22107047 0.23544315 0.8114796 -0.49423793 0.70721614 0.42730927 -0.6525884 0.08053322 -1.3838284 0.3479477 0.7262587 0.19212556
290 -0.044407036 0.53596765 0.3930777 -0.10154156 0.75691855 0.73058534 -0.095529504 0.4510448 -1.1371475 0.16358522 0.05202743 -0.8491338 0.26594663 -0.6400681 -0.4773941 -0.5419242 -0.31345063 -1.4865063 0.22893645 -0.82340956 -0.64257264 0.51088357 0.8361008 -0.58149385 -0.225415 -0.20775148 0.1011489 -0.087395035 0.47232994 -0.32579058 -0.3073344 0.23669058 1.464339 -0.7709696 -0.6506476 -0.07565436 0.6176916 -0.13520275 0.35232228 0.54254675 -0.036482874 0.2497406 0.45722 0.61332387 -0.14237587 0.3930059 0.40110505 -0.6912576 -0.20243862 0.59724844 -0.47641885 0.3136017 -0.1478152 0.97125506 0.576739 -0.6382633 -0.52191883 0.6754421 -0.76122534 0.12794626 0.721802 0.670739 0.18736228 -0.45549718 0.37276897 0.6854614 0.23734157 -0.79384136 -0.41884026 -1.0573108 0.9398035 -0.15561981 1.0267941 -0.52763784 0.31298906 0.5977558 -0.11477956 0.038479947 0.09371036 -0.3827926 -0.31109652 -0.422836 0.39441448 -0.46238098 0.020465339 -0.045410417 0.3397697 -0.493744 0.13470446 0.41153687 -0.029590018 -0.6667642 -0.3150966 -0.061583776 -0.5329074 -0.283123 -0.17078911 0.6848494 -0.31498152 0.5829129 0.57240146 -0.14278005 0.5620278 0.6420107 0.68617105 0.35816714 1.099935 0.44424307 -0.61496234 -0.4381321 0.6396001 -0.013669743 -0.48671922 0.37397832 -0.11409704 0.16658154 -0.063880414 0.48804355 -0.39530584 0.19616935 0.8268385 0.08267135 -0.6408634 0.4621087 -0.83050025 -0.5894016 1.184386 -0.8781166
333 -0.080778584 -0.1845671 -0.35827762 0.5863079 0.28593844 0.4895877 -0.28853306 0.12333546 -0.47281057 0.2373728 -0.51317185 -0.5866223 -0.2168009 -0.4605316 -0.23868412 -0.33250397 0.3918927 -0.30685848 -0.05643673 0.190019 -0.28539392 0.17523916 0.41970968 -0.114676215 -0.03486512 -0.15722664 -0.008025175 -0.24292345 -0.080131106 0.37762675 0.17259444 -0.19347742 0.60215974 -0.607777 -0.5065309 -0.06348013 0.4108994 -0.4202972 0.20847557 0.337438 -0.0049537243 -0.0663547 0.54296255 -0.099062674 -0.10071975 0.2842744 0.4438598 -0.29938114 -0.30136076 0.17574404 -0.3845066 -0.035533596 0.3839587 0.51684946 0.67269945 0.007434566 0.2848815 0.4124928 -0.564119 -0.15468058 -0.28482544 0.24246646 0.08581225 0.15141216 -0.1965021 -0.009369326 0.53853285 -0.33278894 -0.56769544 -0.25276288 0.40084413 0.48304397 0.2863024 -0.28840402 0.7204631 0.44195822 0.19299911 -0.2161612 0.39611778 -0.32593632 0.087542176 0.11670647 -0.28019497 -0.07652768 -0.017708864 0.13252093 0.30416054 -0.32261544 0.05232846 0.01738659 0.13690916 -0.48121968 -0.49215847 -0.18983953 -0.01459915 -0.014382188 -0.15344396 0.46337962 -0.08183759 -0.05816791 -0.12040975 -0.14035513 0.44323936 0.07875404 0.29913247 0.2115674 0.30083063 -0.08682698 -0.4998612 0.2688572 0.43542656 0.057035875 -0.2188357 -0.065402925 0.30957824 0.25399587 0.035523526 0.28196242 0.21984853 0.07587702 0.55601 0.38832253 -0.3471543 -0.053781807 -0.49792546 0.17674753 0.40654528 -0.20716995
87 -0.18579726 -0.34999827 -0.04922285 0.10988768 0.3325981 1.1905009 -0.6446274 0.14917144 -0.34224036 -0.42639014 -0.3916457 -0.15391888 -0.28874552 0.0525907 -0.23468974 -0.41930982 -0.16131358 -0.5146073 -0.56796634 -0.10802044 -0.5509926 0.9113899 0.9428407 0.069891475 -1.0941792 -0.089089714 -0.45518675 -0.2980042 -0.22283913 -0.75358963 0.46682128 0.092483826 0.6340033 -1.2883382 -0.77738506 -0.025315944 0.4430442 -0.58320427 -0.14444295 1.0701474 -0.49446812 0.29986018 0.4751506 0.63102615 0.38304976 0.7170571 -0.21130422 -0.18494396 -0.4024082 0.11930735 -0.75197446 -0.3397611 -0.04218771 1.2239766 0.5790596 -0.20690691 -0.025245441 0.6058653 -0.6600073 0.7243314 -0.4208471 0.9849278 0.41530776 -0.01305897 0.0055674366 1.0376942 0.58296436 -0.7341876 -0.19203414 -0.73957586 0.81644905 0.3640602 0.55779713 -0.41347083 0.69941425 0.28967687 0.24127519 -0.16747504 0.28333035 -0.69403726 0.11320927 -0.028878538 0.12530592 -0.135271 -0.40033713 0.139097 -0.23921122 -1.3087406 0.0013770772 0.6058425 0.10283495 -0.9057778 -0.18298648 -0.52563363 -0.1554105 -0.4855594 -0.06473358 0.74824756 -0.41152906 0.27432728 0.25659078 -0.28687835 -0.12838802 0.35607338 0.5434675 0.026135115 0.6056108 -0.07409465 -0.6937372 -0.46446344 -0.3963225 -0.15579127 -0.4637528 -0.072022244 -0.007872526 0.034479477 -0.3644252 0.291633 0.17111196 0.19661704 0.24879615 0.4148932 -0.2803546 0.33567083 -0.6552724 -0.1788794 0.45882845 -0.63821167
209 -0.09288927 0.40759966 -0.5499589 0.6746011 0.41717923 0.59178615 -0.0042812354 -0.033388868 -0.21166292 0.695799 -0.35480645 -0.29852614 -0.84275156 -0.14325526 -0.35828814 -1.0701282 0.0036082081 -0.99967664 -0.055566058 0.5844741 -0.570642 -0.48983604 0.5078751 0.35003915 0.48053473 0.051291093 -0.48208857 -0.32378381 0.6357837 0.8010903 0.20997226 0.020067668 1.0376457 -0.7139024 -0.65579456 0.3134657 0.29488254 -0.15141977 0.9792192 0.77169424 0.8937178 0.46679017 0.63989097 -0.02346501 -0.23094037 0.07063463 -0.2514523 0.10717402 0.018401971 0.1285954 0.14522122 -0.271448 0.48541856 0.35342288 0.34199053 0.29547447 0.22465317 0.30154097 -0.4058214 -0.7084775 -0.6489219 -0.0811371 -0.07364864 0.069710344 0.4587835 0.48527616 0.18630071 -0.73903346 -1.0709958 -0.7941015 0.3996205 -0.4768348 0.22173168 -0.4337661 0.18724571 0.22337395 0.061415274 -0.1670362 0.32577747 0.21573713 -0.3360603 0.4875162 -0.9620408 -0.20246525 -0.019807843 -0.7046041 0.47839138 0.7200467 -0.20235956 0.33158848 -0.04733332 -0.62189794 -0.6101101 -0.011292441 -0.06551158 -0.48864973 -0.47763264 -0.07352947 -0.3287748 0.7458154 -0.093907975 0.64256287 0.84536356 0.32614174 0.6110711 0.00404871 0.14938675 0.020233223 -0.7744756 0.5370453 0.08101942 0.03631863 -0.64499426 -0.03782488 0.042692587 1.0957857 0.096623234 0.29338738 0.12500042 0.45222914 0.64926666 0.028127192 -0.14897324 -0.014247258 -0.84487695 -0.35264552 1.2740178 -0.698898
170 0.18858562 -0.6521578 0.027680863 1.0282447 0.19846933 0.9292099 -0.05816742 -0.04224689 -0.72389185 0.35311955 -0.26523012 -0.27435467 -0.34719622 -0.9163702 -0.8125303 -0.32619196 0.45813042 -0.39777458 0.37300053 -0.09249024 0.35677817 0.67243356 1.0626384 -0.010786642 -0.45844126 -0.643619 0.38438624 -0.07020031 -0.5651993 0.13150358 -0.012416519 -0.17029884 0.38334966 -0.5730226 -1.0489154 -0.05463833 -0.12625481 -0.72505623 0.47044504 0.50432646 -0.023422422 0.15275133 0.60633576 -0.007776639 -0.22069722 0.2523118 0.73438436 -0.53799343 -0.44112512 0.4142603 -0.73021036 0.17648754 0.39783528 1.1028981 1.1885358 0.06792625 0.16447745 -0.01709475 -0.67788404 0.67513484 -0.14964421 0.48021272 0.6984142 -0.48129904 -0.107974544 -0.21325721 0.30385986 -0.5102329 -1.1139125 0.18254805 0.77226704 0.11633535 0.052845612 0.21529482 0.942533 0.84867305 -0.30821767 -0.0071571246 0.45357424 -0.36089736 -0.79748315 0.37843224 0.3447491 -0.00627082 -0.122026235 -0.085447595 -0.6728799 -0.49530762 -0.52136976 -0.06174216 -0.024050435 -0.837819 -1.0391761 -0.50763893 0.1981534 -0.2819607 0.0029200958 0.45677465 -0.008936822 -0.2641679 0.3663519 -0.093568355 1.1616598 -0.018735595 0.6197108 0.42299598 -0.0016423982 -0.77736604 -0.3755081 -0.1354112 1.4750615 -0.19645254 -0.13950972 0.55548036 0.51395804 -0.4424171 -0.24347351 -0.40473667 -0.30004552 0.17667054 0.26722816 -0.14411758 0.10078267 -0.18449357 -0.44437322 -0.5488078 -0.21111615 -0.2851907
105 -0.29876292 -0.13686985 -0.46101487 0.9507191 0.76947284 0.4160675 0.35345882 0.6350443 -0.18526985 0.2857585 0.12044314 -0.2771981 -0.15817446 -0.46061513 -1.0615793 -0.16600089 0.3542601 0.03817042 0.06948539 0.3825068 0.5176791 -0.39504898 0.74490064 -0.684129 -0.24402703 0.097578675 0.3252681 -0.15103626 0.7459753 0.61945724 -0.285545 -0.725283 0.72593373 -0.5036548 -1.2064738 -0.2534913 0.45227972 -0.4242753 0.4607464 0.66445524 0.63762707 0.27994376 0.58104056 0.15917274 -0.20704782 0.19993417 0.5349571 -1.0280038 0.291772 0.5849581 -0.248506 0.048390083 0.82393193 0.3385322 0.9864634 0.44109252 0.75752044 0.29499722 -0.32821208 -0.03242281 0.43625313 0.53933364 -0.27718624 0.11954534 -0.21143024 0.09160808 0.119311735 -0.1452049 -0.65709937 -0.2993881 0.6982685 -0.022562023 0.27308977 -1.0024258 0.5356563 0.58647233 0.13312267 -0.58886814 0.83203954 -0.8823669 -0.025876869 -0.020888198 0.06317758 0.79316145 0.24020651 0.44433025 0.27426577 -0.2562333 0.22832948 0.01128068 -0.029912435 -0.67577183 -0.41933393 -0.1654588 -0.067509346 -0.14000426 0.26466933 0.5195346 -0.4574676 0.22237481 0.21213438 0.12266908 0.21993938 -0.09456895 0.4924895 -0.73067784 0.29785633 -1.2676765 -0.27124178 -0.4376033 1.5681843 0.56054 -0.17539069 0.50172913 0.7586271 0.00014514118 0.5222216 0.4887197 0.9477552 0.21037494 0.8201136 0.70513535 -0.45750424 -0.35834283 -0.69953513 0.20769405 0.15574682 -0.046691928
165 -0.102170296 -0.6913998 -0.32231885 0.59255016 0.04146964 1.1381841 -0.39735818 0.17228687 -0.97926337 0.2120989 -0.17674242 -0.7475816 -0.2832816 -0.67270297 -0.94019735 0.22570978 0.052310284 -0.38785434 -0.5023347 0.040007338 -0.5919989 0.2696497 0.29217988 0.3254012 0.12229684 -0.49776435 -0.2789476 -0.19782674 -0.66890067 -0.45201042 0.23931132 0.15474106 0.4512763 -1.0708671 -1.0498493 -0.32707027 0.52355844 -1.2962434 0.9209429 0.2982957 -0.4840136 0.42211655 -0.24349415 -0.039074723 0.6052339 0.024340503 -0.05009784 0.39728954 -0.019169329 0.15342818 0.35026553 0.21891624 0.67455155 0.8348343 0.25477543 -0.20561129 -0.19298996 0.76033896 -0.98989826 -0.18779412 -0.929969 0.9263359 0.1089895 0.016042795 0.09476427 -0.06899033 0.67147756 -0.083870344 -1.0245513 -0.08397969 0.6411601 -0.049239628 0.34099305 -0.1357606 0.37056047 0.5076713 0.1098772 -0.46691707 0.86639607 -0.26334342 0.31338856 0.09664238 -0.39995667 -0.4018839 -0.32326898 -0.247231 -0.64161485 -0.5825121 -0.25156814 -0.11872468 0.18142955 -0.14245398 -0.6108305 -0.6529558 -0.05596731 -0.22170337 -0.81481045 0.34268638 -0.33226576 0.37097615 -0.026478402 -0.11469355 0.35651386 -0.62218314 1.2131978 -0.36545944 0.04401125 0.30328888 -0.1894998 0.77176535 0.4000356 -0.17069985 0.0036397402 -0.44609722 -0.21389328 -0.21666296 0.066322684 0.42620227 -0.29578835 0.15361291 0.3194086 0.6072758 0.074716225 0.49943528 -0.18929528 0.15172938 0.52646667 -0.13464835
42 -0.22270945 -0.27836716 -0.75832653 1.0561371 0.735703 1.2924526 -0.5129919 -0.4349636 -0.37652513 0.9653749 -0.076640986 0.35019663 -0.42755893 -0.9108167 -0.10549083 0.30683655 0.14647274 -0.2367136 -0.09429862 0.066720635 -0.4896337 0.05907402 0.21646333 7.604314e-05 0.064910255 -0.72203207 0.02965367 0.23548166 0.18293373 0.6858254 -0.07958103 0.13176504 0.41270196 -0.6535122 -0.76841253 0.02224081 -0.101060115 -0.88971716 0.10802173 -0.026309015 1.0172322 0.78522664 0.083050646 -0.11195659 -0.3289001 0.21498643 0.03652324 -0.29216155 -0.18031871 -0.0075955763 -0.26696518 0.28816018 0.10468559 0.38316947 0.3950298 0.55002207 0.7082646 0.4941948 -0.36038688 -0.38832918 -0.23674545 0.1702519 -0.4044904 0.19614469 -0.5423379 -0.24706614 0.39457667 -0.083327755 -0.74832225 -0.11564077 0.8491233 0.27851424 0.30965275 -0.29802197 0.6065199 -0.19385667 -0.27241236 -0.23773217 -0.09630785 0.033041988 -0.6987223 0.03411752 -0.71405756 0.0936087 0.024973841 0.17388168 0.9358559 -0.11947549 -0.14173551 0.06035049 0.35022914 -1.3356055 -0.29239473 -0.68393356 0.5627034 -0.45123774 -0.32829362 0.32282928 -0.33461934 0.38164777 -0.3496488 0.1513157 0.34650978 -0.32870463 0.66231984 -0.23630184 -0.21681234 0.008942977 0.071146525 0.122096986 0.28427035 -0.3479019 0.15570576 -0.19047426 0.04609396 0.090117805 0.021685475 -0.23618649 0.56472343 0.05678431 0.25844273 0.11871756 -0.41654462 -0.011378327 -0.49736464 -0.0027086053 0.7853001 -0.538596
340 0.18982325 0.08147785 -0.03459335 0.82651794 0.075897865 0.22006583 -0.6438128 0.41114277 -0.09841667 0.87749517 -1.1850308 -0.83045435 -0.49443042 -0.26046938 -0.043759126 0.12957722 0.112994105 -0.22013848 -0.18261535 0.37182847 -0.3529282 0.623738 0.5257294 -0.27069074 -0.28228846 -0.49925238 -0.1906042 0.25193754 -0.07394082 0.67291117 0.17661135 -1.076075 0.39585075 -0.35361367 -0.5401798 0.025495818 -0.18803813 -0.014660754 -0.08698815 0.56227416 -0.9467084 -0.14837848 0.730591 -0.23134336 0.16880754 0.51738465 0.42224392 -0.48971125 -0.058798894 0.6555852 0.22396247 0.36546966 0.41801628 1.0443503 0.805133 -0.4403971 0.29993093 -0.0077586374 -0.63035 -0.44327667 -0.67389166 0.54596555 0.17960618 -0.46390012 0.15943857 0.29897445 0.5234131 0.12951809 -0.9370307 -0.39560717 0.2898774 0.26158398 0.0827767 0.37030116 0.70550305 0.60018104 0.49366418 -0.21049689 0.2202176 0.441483 -0.017695408 0.657483 -0.39911705 0.005330245 0.31340122 -0.2813662 0.77185494 -0.31110877 0.14316364 0.13259415 0.4921169 -0.39978823 -0.9303633 -0.17221041 0.6908314 0.29169714 -0.15998162 0.5310238 0.4048646 -0.25300997 0.057083715 0.021501573 0.23951551 0.536652 0.11736449 0.6463691 -0.28271168 -0.17069456 -1.1998525 0.52551144 1.3631883 0.0370995 -0.2604987 0.21391676 0.304505 0.8383117 -0.27499107 0.2223688 0.2920157 -0.25330424 0.74245036 0.7217856 -0.85110295 -0.2710962 -0.06552258 0.6247618 0.45144963 -0.6987152
27 -0.3069017 -0.5224174 -0.5533084 -0.14342208 0.1288258 0.44978338 0.0775705 -0.08815924 -0.544602 -0.2997277 -0.6846029 0.028305054 -0.0067405156 -0.3385602 0.23919544 -0.33416337 0.20774072 -0.015837532 -0.19186303 -0.013713745 -0.14922939 0.12804206 0.11763294 -0.09074013 -0.10027891 -0.47297952 -0.34577933 -0.47198468 -0.35343626 -0.10650744 0.4741054 -0.04651947 0.3937921 -0.31339696 -0.74606776 -0.39855367 0.7376276 -0.53354394 0.08535728 0.4082028 0.1670035 -0.32421044 0.5444736 0.31940207 -0.18605895 0.6910453 0.035814956 -0.5738123 -0.6115335 0.017087732 -0.45022017 0.039461102 0.39085355 0.4517313 0.24053062 -0.16476534 0.0664392 0.65464497 -0.7628764 0.6173285 -0.0070507857 -0.03338017 0.08780683 -0.051721647 -0.34121984 0.3000423 0.22054087 -0.1403313 0.32040527 -0.13167626 0.08895652 0.4396584 -0.14055021 -0.5872862 0.38104087 0.5452841 0.23091608 -0.5877258 0.5587873 -0.9993722 0.42057806 -0.06717018 -0.29726285 0.108986035 -0.22020763 0.17779496 0.05511324 -0.045506764 0.57550657 0.053790532 0.25598443 -0.10254849 -0.8674063 -0.17268585 -0.4123727 -0.30746725 0.45786044 0.09461881 -0.10319207 0.53529936 0.12465083 0.011252796 0.18942235 -0.35798723 -0.27857578 0.1113942 0.3222343 -0.04789023 -0.46243203 -0.028314948 -0.08564145 0.11353883 -0.18920435 -0.29433855 0.038487863 -0.045047082 0.6907378 0.96948624 0.25202662 -0.23700723 0.6753448 0.38678646 0.16163343 0.031016156 -1.0735793 0.76414335 0.7583257 0.1784174
