1005 128
160 0.15927352 -0.16638134 0.1940593 0.0851453 -0.011525429 -0.14326741 -0.030555809 -0.024622316 -0.07772098 0.035070103 -0.22024919 0.018779757 -0.023321938 -0.16620831 0.27839792 0.031478565 -0.059697755 0.13052735 0.03726818 0.020209977 -0.07830941 -0.04692333 0.1026959 -0.15693311 -0.12060677 -0.10369868 0.09482445 -0.17911121 -0.17470549 0.050983477 -0.25174183 0.17958611 -0.15025951 0.009218554 0.15673076 0.05787327 0.10664768 -0.20656879 0.022813316 -0.16836873 -0.19049503 0.029411094 0.24639952 0.096344255 -0.16924521 0.10305454 -0.0030693908 0.0514713 -0.09400353 -0.045148287 -0.09320293 0.026468284 -0.10316623 0.052921332 -0.11585989 -0.05662768 0.027238436 0.081501104 0.03125301 -0.14789991 0.004136959 0.26305786 0.14867952 -0.023284659 -0.08799821 -0.08759715 -0.078328386 -0.008965918 0.10687233 0.035085566 -0.031652223 -0.1748597 0.1277865 -0.07196387 -0.13618056 -0.048291672 -0.014623538 0.12534408 -0.088993594 -0.11627879 0.10065773 -0.045182638 0.10144218 -0.09978379 -0.28648105 -0.1423089 0.19016814 -0.029252328 -0.010414803 0.1940317 0.36715668 0.103547595 -0.060735665 -0.10152779 -0.10381108 0.15361181 -0.019255107 -0.19376704 0.048898228 -0.050088555 0.24799918 -0.0054697176 -0.06133416 -0.026933271 -0.101977505 0.22155924 0.090826586 0.17611413 -0.14869319 0.33285347 0.07491839 0.14279236 -0.075982094 0.11273621 -0.066625156 0.08277675 -0.080193505 0.04356776 -0.07418379 -0.016814947 -0.21565703 0.00031037413 0.19057201 0.1328584 -0.07898706 -0.14998153 -0.10607415 0.008187325
86 0.27898827 -0.04052463 0.14000605 0.16068375 -0.17480612 -0.13642423 -0.17986193 -0.24744499 -0.016978905 0.12855756 -0.20734265 0.038608085 -0.0144678885 -0.07323142 0.22746497 0.06559378 -0.03884942 0.2854409 -0.020848699 0.009657215 -0.092075616 0.009781781 0.059927687 -0.052033067 -0.24597263 0.13095902 -0.037218627 -0.10801624 -0.30733564 -0.07418089 -0.09206821 0.13026075 -0.05604354 -0.09237023 0.03070299 -0.07690147 -0.013134877 -0.16294484 -0.011962142 -0.1572601 -0.0813633 0.11376907 0.026736867 0.13919711 -0.14454678 0.1204757 0.16605574 -0.012806731 -0.048942395 -0.066735685 0.21078858 0.022197025 -0.026069127 0.16418621 -0.25385174 0.033565566 0.06998355 0.06201145 0.2511882 -0.008609459 -0.023311157 0.2163608 0.004851428 -0.02675432 -0.028892552 -0.13121344 -0.097355746 0.015758183 0.23380704 -0.06993103 -0.14480726 -0.068416834 0.055306032 -0.17979252 -0.17645296 0.038362548 -0.124561965 -0.24339902 -0.019406514 0.034818985 0.08440995 -0.1620937 0.1360574 0.12416059 -0.1605389 -0.13201864 0.13991249 -0.013572125 -0.072810195 0.11515034 0.2396826 0.021198355 -0.043858938 0.12423784 -0.09893774 0.22303213 0.14441118 -0.0868595 0.114564635 -0.16904868 0.25339562 -0.27497512 -0.3513004 0.22704375 -0.054392315 0.10952409 0.10509234 0.22084177 -0.17266637 0.14354418 0.081486315 0.06294531 -0.033765584 -0.018873401 0.08921781 0.13493668 -0.12086779 -0.06203458 0.08268147 -0.018554857 -0.13767858 0.20626965 0.19833474 0.02755044 -0.08472379 -0.08104394 0.087693445 -0.10358452
64 -0.0828032 -0.2591337 0.18360797 -0.15991026 -0.026074212 -0.057323683 -0.0066073365 -0.051418655 0.04739366 -0.012936182 -0.21156026 -0.08100735 -0.061292365 -0.15696877 0.322095 -0.03154642 -0.25943875 -0.015474511 -0.023109749 0.090204924 0.10291951 -0.07692329 0.0035845637 -0.23499262 -0.22964714 0.22734034 0.10938178 -0.23988965 -0.3278782 0.1167401 -0.1601698 -0.124403656 -0.25941616 0.023341993 0.12720051 0.056121457 0.1594005 0.057471383 0.15754135 -0.15603553 0.2136398 0.14429961 0.07500165 0.061635226 -0.21520609 -0.02844647 0.3212866 -0.04330805 0.082972325 0.15713179 0.033150304 0.16411537 -0.00045702132 0.39488676 -0.05970998 -0.1959144 0.07961305 0.036416765 0.23737761 0.057446748 -0.11778164 0.03990668 -0.0029639974 -0.063126154 -0.003424877 -0.079836845 -0.257981 0.061012626 0.22501703 -0.15080358 0.12563612 -0.22031581 0.02670722 0.040760156 0.07318351 -0.20340613 -0.026159944 0.04080067 0.07275456 -0.14991868 -0.012046952 -0.08062869 0.09162262 0.10975302 0.010517403 -0.12435021 0.02521714 0.13688862 0.1442283 0.19875474 0.06771568 0.19836731 -0.020602895 -0.0436151 0.09042073 0.18586111 -0.014144201 0.05026062 0.011558106 -0.3130698 0.0966972 -0.17099945 -0.05929337 0.019175768 -0.18237284 -0.17853983 0.2296875 0.12664515 -0.19691055 -0.08532167 0.29094076 0.03870179 0.08767789 -0.044975556 0.123268224 0.2159084 -0.03815622 -0.059910443 0.060042657 0.12670502 -0.051199783 0.20222987 0.1407178 0.21161 -0.049992237 -0.09420372 0.0025046517 0.16632794
62 0.24509059 -0.06645002 0.039794978 -0.0036175845 -0.13683483 -0.044339098 -0.24191712 -0.03882193 -0.12866922 0.18136509 -0.07408034 -0.09431407 -0.0718803 -0.09966623 0.15664132 0.05573882 -0.10910898 0.3051489 -0.02123183 0.15581329 0.1992994 -0.1593663 0.07430085 -0.04988783 -0.1071587 -0.012596223 0.14013647 -0.03663876 -0.19746071 -0.02596536 -0.17245853 0.33472162 -0.118659794 -0.008766159 0.07127319 0.07854771 0.15376343 -0.1925766 0.25738648 -0.14730208 -0.11672788 0.23224324 0.2383191 0.01131974 -0.14685267 0.20841223 0.18139029 -0.0380351 0.062244665 -0.10596965 0.14750744 0.056604426 -0.043488402 0.10137116 -0.11551252 0.028876306 0.12885243 0.06976607 0.21756664 0.018584216 -0.06178295 0.17555946 -0.2000206 0.03846462 -0.01087557 0.004687317 -0.1816574 0.025729056 0.19794247 0.0032638183 -0.15587607 -0.24409951 0.12412796 0.032595392 -0.13741218 0.06974033 -0.037086178 0.08416279 0.0032573796 -0.18065603 0.08984102 -0.043860715 0.044406123 -0.14340235 -0.3560628 -0.06545053 0.14051914 0.12563948 0.067092195 0.19796944 0.21685359 0.03307625 -0.09124715 0.03623498 -0.050221592 0.14488146 -0.012317404 -0.06629061 -0.028436698 -0.043206744 0.26582953 -0.19416828 -0.05158875 0.05303836 -0.027295645 0.27497348 0.18862283 0.06809688 -0.2136131 0.3614751 0.005877688 0.14334571 0.14633988 -0.083270326 0.26609126 0.015577014 -0.1071179 -0.069505416 -0.0406374 0.04753062 -0.17884098 -0.085604236 0.23078275 0.1182755 -0.09054946 -0.1562215 -0.14290816 -0.030576633
82 0.10524694 0.04700029 0.1303924 0.09730471 -0.24417028 0.008825803 -0.02398834 -0.12857175 -0.026278416 0.15978032 -0.058424696 0.044281274 -0.18142204 -0.017396258 0.2438998 0.018182319 -0.17224348 0.19903438 -0.0063139754 4.8188514e-05 -0.06644588 -0.0075347694 0.060262024 0.10488392 -0.082376264 0.07661357 0.15248206 -0.22722794 0.0313459 0.15518892 -0.15634745 0.115432605 -0.0055841557 0.013227639 0.08131847 0.008770461 -0.0009831882 -0.10388527 0.13886662 -0.29079297 -0.086111814 0.25908113 0.12689392 0.091328055 -0.33257094 0.04468292 0.15247826 0.055366967 -0.042820137 -0.024047341 -0.02077426 0.19152103 -0.14867568 0.098383844 -0.13308027 -0.05895814 0.087000266 0.07624372 0.20090714 0.09272649 0.12846936 0.24093959 0.1435358 -0.013099212 0.18981534 -0.07374843 -0.23906733 -0.04560398 0.15990844 -0.0250801 -0.12208514 -0.16390404 -0.034622055 -0.32247263 -0.10150636 0.17176381 -0.16398416 -0.033181455 0.09111097 -0.3069055 0.05476586 -0.048004 -0.020027723 -0.14472483 -0.14142725 -0.13624178 0.24333304 0.14048654 0.03476988 0.122029595 0.15497997 0.13914989 0.005209339 0.07804844 -0.07545552 0.11657517 0.09086181 -0.13287698 0.07914114 -0.123182766 0.27947867 0.008354522 0.03312589 0.051921513 -0.0457777 0.009378991 0.10172498 0.21495268 -0.21145925 0.30318436 0.13083464 -0.027337877 0.18246208 0.15045844 0.14551635 0.15426971 0.005425219 0.05112498 -0.08545642 0.078900196 -0.3450717 -0.006889573 0.13696174 0.1482019 0.094319396 -0.114659294 -0.0046081278 -0.1105114
5 0.16181865 -0.2925261 0.17007197 -0.008059254 0.029654875 0.031438198 0.034895632 -0.09572483 0.1332409 0.08408167 -0.004072738 -0.12732646 0.059934817 -0.19812076 0.27631083 -0.17124507 -0.12525347 0.18325381 0.0015765855 0.054973643 0.07531918 -0.19152552 -0.19969305 0.022986181 -0.1351468 0.005376352 0.10218131 -0.31923854 -0.38095817 0.20154248 -0.16862 -0.038710333 -0.21287137 -0.19805801 0.07368248 -0.10686195 0.11752842 0.06827901 -0.049878407 -0.2781966 -0.008840698 0.18576653 0.13996176 -0.028770372 -0.18937519 -0.099504106 0.13242273 -0.018273536 0.12951572 -0.04491201 -0.06603927 0.28753114 0.16670343 0.17060357 0.24391617 -0.26309204 0.14739192 -0.030351829 0.20034234 0.0538218 -0.21280694 0.05426734 -0.040754724 -0.05316012 -0.09128922 -0.11049374 -0.014545016 -0.17672855 -0.08552331 -0.22668366 0.2115378 -0.3356088 0.15018702 0.10366642 0.17472786 -0.339088 -0.12098494 0.05115615 -0.23096202 -0.22446397 -0.039645955 0.06595664 0.1941131 0.0086875 -0.047989994 -0.25396773 0.21526042 0.19760357 0.2270444 0.17559245 0.24759752 0.12030088 -0.16240923 0.085761964 -0.114057586 0.092232995 -0.1926822 -0.115794465 0.20268571 -0.3005448 0.11855611 -0.13321815 -0.050997186 -0.21586922 -0.27451736 0.2792286 0.16318457 0.15613046 -0.14181328 0.14092377 0.0714968 0.09214509 -0.025988141 0.09692606 0.10889648 0.37940207 -0.004856467 -0.12141082 0.1434447 0.03268514 -0.15417705 0.2216069 0.20575276 0.027706137 -0.18762414 -0.07824001 0.034594357 0.11367436
533 0.023425601 -0.043269943 0.19322024 0.017599791 -0.090108156 -0.06289373 -0.05832026 -0.09985157 0.05087422 0.15721588 -0.14677517 0.051614422 0.09649692 0.03980488 0.27346012 0.06579074 0.1263002 0.070151605 0.13532084 -0.05922959 -0.042152904 -0.07932584 0.095825896 -0.02211041 -0.09288626 0.13643402 -0.17223668 -0.17841245 -0.1686295 0.32139835 -0.051512837 0.10625188 -0.15376376 -0.09924586 0.09654124 -0.06699436 0.046048786 -0.21474585 0.2581738 -0.13130368 -0.10262277 0.14110157 0.23922019 0.093669735 -0.25308058 0.08478614 0.063404426 0.20668311 -0.0440411 -0.015143186 0.018089624 0.047874443 0.042172685 0.0670275 -0.1199559 -0.14134482 0.02379062 0.0007989507 0.18859018 -0.10207635 0.046087533 0.4272133 0.032408025 0.08389003 0.077335455 -0.063123204 -0.17432775 0.06590489 -0.0065213656 0.06034274 -0.06498908 0.040939745 -0.050061572 -0.28696346 0.11961802 -0.042871922 -0.05290179 -0.06787515 0.15454757 0.1833229 0.0722599 0.06444008 0.17055164 0.051868163 -0.16244668 -0.057676457 0.0816287 0.100439705 -0.042794462 0.07593088 0.0932612 0.09296935 -0.1334531 0.10036846 -0.096387945 -0.040583152 -0.10826463 -0.05865153 0.07162414 -0.20312917 0.11005526 -0.36727577 -0.08032239 0.11859887 0.15045634 0.28663492 0.078343995 -0.05537482 -0.13585408 0.3666641 0.15773293 0.19819598 -0.01988223 0.25717992 0.14252068 0.19555958 -0.15307932 -0.13341774 -0.17269413 -0.009347091 -0.43639758 0.027245518 0.32895085 0.030700663 -0.09871182 0.053162687 0.0036906702 0.2876059
121 0.0823426 -0.11165727 0.13776365 0.12299917 -0.219298 -0.036569357 -0.11757727 -0.07188342 -0.0033596822 0.19752297 -0.14452712 0.041616067 -0.20911223 -0.029072499 0.198755 -0.057781767 -0.20515713 0.26329696 0.10430326 0.11444531 0.081639335 -0.11874604 0.040684383 0.1158232 -0.016460117 0.15555336 0.108836055 -0.1130051 -0.052019626 0.06143086 -0.09305504 0.111370325 -0.15737665 -0.08841537 0.17040835 -0.015550015 0.077537015 -0.09217197 0.05419011 -0.25202915 0.103426665 0.33549634 0.054634113 0.08351136 -0.2551331 0.11575554 0.15003335 0.04947516 -0.11676849 -0.018860808 -0.003688776 0.12751788 -0.08122458 0.17790104 -0.07460982 -0.036939725 -0.026544232 0.14874429 0.1902356 0.10450791 0.04372246 0.19354722 0.11182657 0.033998135 0.07742354 -0.087869585 -0.19676638 -0.11183197 0.15299737 -0.058249693 -0.16015525 -0.15220952 0.027724864 -0.31159952 -0.21220905 0.030417688 -0.048956104 0.0683474 0.12548125 -0.23518677 0.06735754 0.028074015 0.10739569 -0.090105824 -0.1659257 -0.091526166 0.2704081 0.08095195 -0.10470214 0.22897933 0.17276616 0.108582176 0.0062052426 0.042132948 -0.16139093 0.059456315 -0.098290354 -0.06817535 0.10167031 -0.13374004 0.25823572 -0.10740273 -0.0042574117 -0.01822102 -0.037154496 -0.038577575 0.055980895 0.043909017 -0.03617235 0.11190317 0.105056636 -0.09411392 0.21455598 0.10611783 0.051592406 0.115166016 0.01327495 -0.0891574 -0.22121045 0.094561085 -0.27929527 0.042764388 0.13755274 0.058419477 0.0068938574 -0.06999706 -0.0058737686 0.06142254
13 0.07595352 -0.17525572 0.14650388 -0.14666413 -0.042242546 0.0033111018 -0.00658807 -0.121820755 -0.073023 0.10632364 -0.05092129 -0.12975794 0.014926842 -0.1056163 0.12101767 0.09179764 -0.17810385 0.07319852 0.19053158 -0.03698815 -0.14571609 -0.14225331 0.03918319 -0.122991554 -0.2705086 0.13583401 0.114153266 -0.1830112 -0.09908696 0.09910994 -0.03875859 -0.089581385 -0.3176768 0.0027345254 0.06414327 0.0017612488 0.19709727 0.002445092 0.111801356 -0.29604793 -0.0055215047 0.15717345 0.14174666 0.07780127 -0.02004584 0.20675197 0.21160994 -0.053819977 0.02593871 0.1516753 0.03460628 0.0241837 -0.034729403 0.1851049 -0.022955405 -0.24074683 -0.036207665 -0.007837738 0.19260366 -0.0041883057 -0.0069652866 0.30237743 0.030777065 0.042834796 -0.013546091 -0.075710386 -0.29577723 -0.05525069 0.26108602 -0.13219564 -0.07469704 -0.1359399 -0.057603013 -0.10404574 -0.12596728 -0.20893449 0.029041419 0.093447156 -0.023790088 -0.07166592 0.23013274 -0.08353002 0.18934608 0.0395523 -0.04764762 0.008496308 -0.034925606 0.16030967 -0.0858143 0.04105239 0.28565952 0.02895643 -0.03780654 -0.018334104 -0.13996962 0.30465183 -0.3155927 -0.10993361 0.002916881 -0.064664476 0.29944876 -0.123940706 -0.17122275 0.04844377 -0.07901287 0.123120606 0.02606746 0.113320895 -0.21553385 0.22195958 0.27971536 -0.11040122 -0.12086175 0.096109755 -0.082199045 0.20084998 -0.04738166 -0.04825501 -0.24665289 0.09065038 -0.23100488 0.0826389 0.044697173 0.06507075 -0.03444649 0.14730112 -0.14360912 0.22313836
166 -0.09692025 -0.14095314 0.15247662 -0.058483213 -0.1448625 -0.08194551 -0.04443222 -0.12521352 0.01935328 0.08249004 -0.14838427 -0.06427597 -0.07622572 -0.15551968 0.16337653 -0.065665506 0.06685433 0.2234393 0.06419969 0.062055573 0.08247202 -0.07995454 0.09895297 0.02382432 0.0036402035 0.08459126 0.014367258 -0.10459843 -0.05503467 -0.029686937 -0.12337806 0.37928608 -0.054718513 0.040164605 0.25788015 0.0074327067 0.027486008 -0.25054604 0.09233799 -0.015671782 -0.13987936 0.12378745 0.21093969 -0.082605354 -0.09852981 0.17627904 0.1810702 0.29369912 -0.036822088 -0.010565554 -0.03819767 -0.049313407 -0.015788218 0.042762075 -0.05507948 -0.15004456 0.040384356 0.10145365 0.34032828 -0.005625605 0.1881855 0.033645496 -0.04665127 -0.046874266 0.013593301 0.068468496 -0.0984571 -0.08223823 0.117220536 -0.030281633 0.04688978 -0.021876736 0.020753149 -0.15951352 -0.15534721 0.03956337 0.021396412 0.07076826 0.09200901 -0.07987145 0.1214378 -0.21344449 -0.0011491841 -0.05143757 -0.15189888 -0.09050427 0.08250964 0.018997295 0.09070192 0.15164244 0.22711773 0.2002589 -0.09255945 -0.17233309 -0.12014987 0.097169824 0.1495053 -0.122564256 0.056658804 -0.2052347 0.14535697 -0.08409216 -0.05460396 0.17619675 -0.26243478 0.03674615 0.17111118 0.21837159 -0.028765423 0.07111523 0.1683349 -0.018502086 -0.10956696 0.00089079357 0.14113054 0.17753091 0.05246931 -0.06524862 -0.07651231 0.06926628 -0.19693895 0.17889497 0.26002473 -0.03504488 0.022238057 -0.233723 -0.04329024 0.27827907
107 0.2270343 -0.016436365 0.05358952 0.004114828 -0.07442319 -0.08170654 -0.0978944 -0.12415742 -0.078766994 0.06909444 -0.15405154 -0.016090885 -0.14429103 -0.104221255 0.13274577 -0.003328424 -0.21905345 0.24676993 0.05765503 0.18339096 0.17159814 -0.025575848 0.073308885 -0.08548549 -0.08096205 0.1053296 0.1084808 -0.16600476 -0.120916665 -0.08729837 -0.19648048 0.12067564 -0.11898184 -0.0022598691 -0.038914647 0.075849585 0.010037499 -0.17923558 0.23955378 -0.19707897 -0.11074255 0.18931451 0.13820302 -0.05303878 -0.17358238 0.06678691 0.24606921 -0.07374074 0.11536869 -0.050967965 0.07343938 0.07104043 -0.11316785 0.13761666 -0.15767242 -0.04363659 0.05916885 -0.02551721 0.24483572 0.115422584 0.1144251 0.10027262 -0.04584582 -0.00083813875 0.050413895 -0.05921706 -0.23496296 -0.051803466 0.15966861 -0.08375977 -0.13595952 -0.27133197 0.2257678 -0.07922232 -0.1135584 -0.046755314 0.0800497 0.01576419 0.10169227 -0.076172315 0.15394488 -0.07495452 0.11708489 -0.16470869 -0.22011232 -0.09210287 0.021378556 0.18363604 0.06789341 0.23106039 0.26653436 0.04648317 -0.060193527 -0.029540235 -0.10367894 0.16379695 0.016700767 -0.09658311 0.018587798 -0.092723444 0.18842499 -0.07246038 0.028971506 0.019057445 -0.11469781 0.2045044 0.15910137 0.16153508 -0.18520935 0.18289769 -0.074144945 0.02071046 0.1574411 0.01145585 0.12408565 0.16192482 -0.18097982 -0.03407689 -0.008577032 0.13434958 -0.23993686 0.05984363 0.15672298 0.24163245 -0.036619157 -0.20032287 0.032922525 0.13899027
301 0.10696458 -0.07658178 0.07434241 0.015849618 0.006151004 0.37437913 -0.110172614 -0.13670534 -0.13706109 0.21816911 -0.2753483 -0.095648766 -0.028523378 0.07229967 0.117289364 -0.089102395 -0.19902478 -0.116129436 0.025707895 0.14982295 -0.27866307 0.041489996 -0.05117099 0.12097168 -0.2460943 0.034869555 0.16753465 -0.19785576 0.008089442 -0.06159374 -0.20495385 0.059347883 0.07857966 0.052002035 0.13653019 0.041800573 -0.17250295 -0.03142197 0.13430345 -0.25099838 0.16086654 0.13885024 0.5377972 0.0750574 -0.19694069 0.31609425 0.24346997 -0.010772368 0.108055055 -0.0030183014 0.05916435 0.040194836 0.018295372 -0.014683546 -0.06272957 0.08101556 0.0056226463 0.1685298 0.09541527 0.07252899 -0.26249838 -0.032031897 0.14516895 -0.043915063 -0.1129198 0.2203863 0.16121902 0.15326168 0.24645622 -0.05505983 -0.1848349 -0.07664273 -0.109141834 -0.08250441 -0.27473557 0.16388278 -0.20650357 0.09877308 0.14297813 -0.13097744 0.11073566 -0.16869722 0.043369394 -0.20074064 -0.06173247 -0.10989889 0.15278226 0.08215339 -0.098936066 0.3883951 0.36875123 -0.07646039 -0.13074741 0.12287568 -0.09814466 0.1908715 -0.13002294 -0.1815194 -0.04596065 -0.16061519 0.16858402 -0.038151037 -0.08539999 -0.07999862 -0.14201279 0.07091482 0.22221226 0.27041715 -0.21462113 0.44800103 0.4679574 0.117657915 -0.17406298 0.093721405 -0.018725356 0.24600275 0.035135377 0.05060215 -0.268395 0.23084195 -0.28139675 0.23572081 0.24116862 0.231223 -0.015121884 0.02630068 -0.07918563 0.18248476
434 0.118352465 -0.045535184 0.108717404 0.08796721 -0.12442001 -0.13373677 -0.14619514 -0.089055136 -0.05881456 0.15757611 -0.14697619 0.033299334 -0.24935177 -0.064929195 0.100853674 0.032100778 0.021972049 0.10062476 0.047232024 -0.040952098 0.12788296 -0.09277362 0.09722214 -0.04281566 -0.04493202 0.32119405 -0.07076179 -0.34830555 -0.22678238 0.20049165 -0.21675415 0.12688081 -0.0037544363 0.11913053 0.09102477 0.0731368 0.07435429 -0.16046664 0.009861048 -0.06242041 0.011646927 0.25908473 0.05126139 0.013090085 -0.2388366 -0.08855721 0.207265 0.013833575 -0.048378035 -0.083487816 0.12161629 0.058332402 -0.04811047 0.29648128 -0.13206962 -0.07528594 -0.049095105 0.08037701 0.19484867 0.081732124 0.12559901 0.14128987 0.02119094 -0.034944516 -0.019305497 0.06079162 -0.26454797 0.013242563 -0.084293224 0.034312338 -0.1056085 -0.13747096 0.051494863 0.08452362 -0.07781674 0.0758242 0.043344606 0.040910687 0.1304468 -0.04249915 0.016407603 -0.08684404 0.04016338 0.05529567 -0.09525213 0.066245414 0.020923385 0.047872704 -0.073910825 0.26250336 0.025582558 0.07127924 0.029440384 -0.22323473 -0.029204862 0.23625436 -0.13020226 -0.096955866 0.029937716 -0.07450296 0.23466153 -0.13090496 -0.031847488 -0.00063056545 -0.04275998 0.045593992 0.20254037 0.0625555 -0.21007226 0.18316695 -0.021993477 -0.09524569 0.19004819 0.010614389 0.091237634 0.23636138 -0.10161925 -0.23833212 -0.09493563 0.13721855 -0.17814054 0.004952206 0.36958975 0.12990053 0.0063793645 -0.021722894 0.107417956 0.2268404
183 0.08403336 -0.24328719 0.13492504 0.07876285 -0.17686936 -0.038686972 -0.064619005 -0.24973944 0.04749128 0.0063466164 -0.1656761 0.073840335 -0.266059 -0.08024941 0.27067804 -0.07962349 -0.124492705 0.087249964 0.25199074 0.07932075 0.10468471 0.11276722 -0.12973775 0.031602465 -0.34863973 0.16303357 0.075027525 -0.16520184 -0.19745153 0.14859477 -0.1644835 -0.12972489 -0.2647675 0.25597045 0.17128034 0.04987832 0.17204873 -0.0051620826 0.074434556 -0.130724 0.09966855 0.110231236 0.08936923 -0.040620755 -0.12494626 0.040236 0.12997882 -0.005085367 -0.11201846 0.13699666 0.09017868 0.115535215 -0.23996058 0.014502505 -0.049900416 -0.041575134 -0.16463688 0.099601455 0.18671343 0.065581284 0.011706006 0.07786629 0.021265093 0.013072337 0.17445293 -0.24925745 -0.15407598 0.071258746 0.03846391 -0.13416591 -0.061571267 -0.14751095 -0.051198915 -0.11224705 -0.1347623 -0.11599416 -0.07942472 0.1750992 0.22138025 0.05046092 0.026199298 0.09408742 -0.04395813 0.02592011 -0.108204156 -0.16479957 0.096085764 -0.049994823 0.06213241 -0.0088450145 0.08960207 0.10568932 -0.0881735 -0.14004889 -0.26661175 0.19337408 -0.052611746 -0.10986144 -0.00036524844 -0.14856905 0.24824789 -0.06987027 0.003983617 -0.0320193 -0.06205008 0.112977706 0.064475834 0.06184945 -0.19614358 0.21539839 0.15121284 0.08373583 0.07469901 0.01188178 0.038510434 0.24301714 0.083771124 -0.014188151 -0.013180691 -0.0988354 -0.31625012 0.083504364 0.3864186 0.05864677 -0.008225854 -0.06878053 0.07647126 0.10283613
84 0.008193566 -0.013521365 0.3603172 0.369255 -0.32817352 0.030716745 -0.35214645 -0.14592896 0.12206354 0.1404899 -0.004582223 0.059836682 -0.19594821 -0.21244875 -0.039743744 -0.13183892 -0.0067305225 0.41879782 0.19350784 0.0355115 -0.044520967 -0.013088731 0.28970203 -0.044606686 -0.19519453 0.05447003 -0.16100566 0.17930762 0.010722206 0.005470571 0.050827485 0.25887495 -0.22428928 -0.03063548 0.016840983 0.10899075 0.06301713 0.072282426 -0.13705304 -0.17082107 -0.11294481 0.22940719 -0.0024051568 0.1585887 -0.09495575 0.23788378 0.18979621 -0.082321845 0.00862297 0.10508055 0.14893278 0.1517966 -0.008666902 0.09571379 -0.018862085 0.029546099 0.07250641 0.27610764 0.15625004 0.15962063 0.10119718 0.06671164 -0.28481323 0.17871796 0.07954099 0.09928916 -0.13179167 0.026932348 0.20617211 -0.040510084 -0.17525119 0.070608996 0.16942884 -0.2056023 -0.30116305 0.20458314 -0.12140489 0.12007391 0.08617818 -0.2563577 0.20816833 -0.13898827 -0.21585836 -0.0035725723 -0.24637327 -0.08766855 0.24970588 -0.003630273 -0.07059206 0.14352007 -0.05338996 -0.034013793 -0.036375634 -0.19692335 -0.3410643 0.094039515 0.05243228 -0.017056048 0.19832762 -0.11711252 0.29493904 -0.30435362 -0.19480023 -0.11596462 0.06678448 -0.021224877 -0.25402433 0.034246206 -0.10613953 -0.07220369 -0.15926419 -0.28022358 0.23552705 -0.0059219613 -0.0060784146 0.37387338 -0.021422932 -0.085450105 -0.41076753 0.07439755 -0.36133873 0.47923598 0.17440191 0.051655263 -0.12859224 -0.03083394 -0.11406318 0.102376625
129 0.06318184 -0.18217999 0.17821904 -0.0630353 -0.18299727 -0.055211857 -0.16417386 -0.21459372 0.04153896 0.16951394 0.010082671 0.0061814254 -0.23795119 -0.10518181 0.16135609 -0.22943196 -0.028813437 0.02324866 0.07451902 0.08385415 -0.022395594 0.009313885 0.04663547 -0.02635354 -0.21090847 0.13124533 -0.016534604 -0.17780922 -0.21489629 0.26422235 -0.10826959 0.038221024 -0.13607638 0.25993127 0.14908974 -0.16699195 0.055331822 -0.087566294 -0.09374474 0.008307175 0.01897784 0.22298437 0.066138715 -0.07202606 -0.15120171 -0.032983683 0.10890261 0.11325518 -0.0022327756 0.11129587 -0.0728766 0.2365807 -0.043209832 0.25076655 -0.16926613 -0.11424069 0.061367013 0.00059932645 0.13903484 0.020739093 0.06638728 0.062513314 0.11725368 -0.002055189 0.03535794 -0.22904588 -0.18914123 -0.10579815 0.00951157 0.029374344 -0.10115064 -0.3167899 -0.1260625 -0.18432982 -0.02905025 0.116483755 -0.07846012 0.19131617 0.1600898 0.018626692 0.12596738 0.02716072 -0.15263234 0.06328117 -0.12884523 -0.04257451 -0.033394504 0.05642579 0.059137646 0.10677654 -0.01382681 0.103917025 0.0035287351 -0.16528095 -0.12801258 0.18920393 -0.1459628 -0.037159294 0.088732 -0.023219133 0.33198178 0.032637972 0.06736137 0.18437664 -0.03537924 0.14910649 0.2548323 0.31667984 -0.071250774 0.2262512 0.09673554 -0.16024561 0.03047425 0.060916793 0.11316601 0.1356088 -0.036954053 -0.16130981 0.005635638 -0.14362954 -0.27995208 0.11490267 0.30063483 0.09973707 -0.03217072 -0.07866751 0.12699257 0.041894574
420 0.19519037 -0.046044055 0.089347474 -0.22445045 -0.22586305 -0.08082822 0.04279264 -0.3018834 -0.04045305 0.046613034 -0.032309987 -0.054342642 0.10016503 -0.11405675 0.3244673 -0.07194296 -0.034061953 0.14229168 -0.12210844 0.06045955 0.053702056 -0.17230846 0.22354928 0.035873853 -0.13450791 0.072061084 0.12054775 -0.16409433 -0.10300577 0.206643 -0.09864404 0.23341382 -0.08154474 0.059859406 0.075381845 -0.044969812 -0.018954614 -0.05753477 0.13985416 -0.287086 -0.04912994 0.09138878 0.09863342 -0.09292853 -0.33389166 0.19006857 0.1334353 -0.20454319 -0.08954572 -0.039927106 -0.04515986 0.057123765 -0.03787934 0.21297738 -0.029270153 -0.05858388 0.061053358 -0.13391596 0.06399615 0.09399115 -0.24803294 0.090620846 0.008356999 0.13783462 0.18465975 -0.019877614 -0.21352403 -0.039662346 -0.012557657 -0.16231096 0.09827965 0.009533593 0.02684231 -0.23806238 -0.104472294 0.14712375 -0.09221515 -0.06317724 -0.09034888 -0.10029634 0.13275035 0.07367892 0.03863813 -0.18953714 0.12323165 -0.030930957 0.21517332 0.3223655 -0.014812801 0.07179654 0.23842518 0.36056292 0.035091802 0.113315806 -0.25277567 0.13336235 -0.14484228 -0.090182066 0.25391027 -0.11595938 0.346732 -0.13459827 -0.18424071 -0.0856209 0.07588892 -0.0022557573 0.17360646 0.2933902 0.009208777 0.16304728 0.25462067 0.03364273 0.096060775 -0.043022633 0.21809286 0.18788148 -0.039952595 -0.08922378 0.0015571641 0.1048492 -0.34680974 0.27619937 0.43963438 0.05204384 0.032933448 0.015047936 0.043775946 0.13579988
249 0.22336504 -0.16353695 0.16337214 -0.06542154 -0.19466011 -0.072108604 -0.32755932 -0.1681712 0.02226571 0.26597175 -0.08603531 0.1193138 -0.24760146 -0.06907788 0.17004876 -0.11471778 -0.28745416 0.13210787 -0.059597973 0.2504649 0.03820222 -0.092857435 0.003919034 -0.033551004 0.055741373 0.1915266 -0.12206604 -0.20460247 -0.11676171 0.13236727 -0.08332437 0.13441707 -0.032673717 -0.049085222 0.1381224 -0.019811 0.21540996 -0.15187581 0.23438369 0.062114194 -0.011101897 0.3125691 0.089940384 0.046678904 -0.17180696 -0.026575213 0.26126793 -0.083623566 -0.045057274 -0.015160408 -0.083041504 0.12789597 0.0463877 0.16893049 -0.20332748 0.015776336 0.06487308 -0.038764983 0.0970129 0.09090565 0.26215732 0.04903035 0.030704953 0.08517806 0.17554846 -0.0117663015 -0.066600665 -0.12592702 0.028604735 0.041773204 0.025822315 -0.09593173 0.024888352 -0.04002853 0.036871307 0.060631957 -0.21189852 -0.006091507 0.04674396 -0.02451295 -0.039672446 0.1336645 -0.09127718 -0.11564925 -0.16357537 0.10599215 0.04547544 -0.052685644 0.056404088 -0.018130267 0.25948465 0.19111268 0.032029912 -0.07608738 -0.07620427 0.13667506 -0.1199966 -0.13445134 -0.070311524 -0.107615374 0.13781624 -0.09786056 -0.14089037 -0.06320583 -0.07168158 0.08260187 0.049994163 0.006825713 -0.1737782 0.2111833 0.06841383 -0.026477687 0.10148062 -0.023376463 -0.009463752 0.18535392 -0.04880902 0.00686991 0.013517596 0.11703044 -0.22619788 0.14109674 0.40756974 0.17354384 -0.15404311 -0.14155976 -0.042876527 0.32830095
128 -0.0040023597 -0.19525322 0.29707918 -0.08719663 -0.35136294 0.051929083 -0.1719767 -0.19054097 0.07051723 0.081971824 -0.08309589 0.05506337 -0.1741356 -0.17955355 0.1590587 -0.063655816 -0.14405413 0.19299345 0.0071721603 0.04937347 -0.060623642 -0.21834178 -0.031411424 -0.29456306 -0.17392053 0.2532666 -0.016231053 -0.28507763 -0.18377624 0.3747692 -0.22678031 -0.047946233 0.025982164 0.016700953 0.08135913 -0.05619258 0.1002387 -0.16344546 0.06086316 -0.07814625 -0.12436947 0.07579068 0.05308111 -0.22302283 -0.044655755 0.1140564 0.25793597 0.3305827 -0.008482993 0.103581764 -0.116951026 0.11144709 -0.04807277 0.055217836 -0.10128831 -0.20355296 -0.022893181 0.14117387 0.016066348 0.123414144 -0.085559845 0.24011236 0.12989445 0.073705785 0.05790314 -0.21890028 -0.3070872 0.15084553 0.06485113 -0.1266598 -0.06723832 -0.1497635 -0.1329036 0.038603112 -0.034448065 -0.045556344 -0.10704213 0.029144607 0.07058869 -0.191323 -0.03681864 -0.107341185 -0.04067263 -0.17979427 -0.054117244 -0.05616998 0.08736228 -0.1352907 0.035589136 0.025408423 0.0085865725 0.059605684 0.025176562 -0.17594992 -0.11977847 0.15612087 -0.15963005 0.033925623 -0.085843 0.07087389 0.04055481 0.05154476 0.13674857 0.00012750657 0.009102093 0.07112401 0.10831534 0.19538298 -0.2039722 0.24459371 0.2090771 -0.08808671 -0.2466028 -0.0042262473 -0.076557346 0.20912604 -0.00060977583 -0.16997959 -0.022754751 0.15140565 -0.13041182 0.025247931 0.2731215 0.10608996 -0.006814244 0.14938037 -0.007041127 0.23315518
971 0.24044669 -0.08358384 0.13471693 0.5762489 -0.32482833 -0.1097378 -0.15771542 0.05517697 0.10142606 -0.14375038 0.065792866 -0.26284164 -0.26286128 -0.12905204 0.08283902 0.030712038 -0.23322411 0.10192086 0.17816567 -0.0021117793 -0.17853254 0.017702814 0.0031944537 0.08435703 -0.17146608 -0.1303936 -0.22648197 0.02024466 -0.25616735 -0.3659787 -0.02276341 0.21782677 -0.21093042 -0.114183776 -0.010520829 0.046543427 0.1984432 0.080769174 0.02333741 -0.013850769 0.20100394 0.06409181 0.20503415 0.07313455 -0.10990903 0.29233852 0.4404171 -0.10216261 0.06249262 -0.3226467 0.31044522 0.19214262 -0.25468782 0.17371692 -0.16296002 0.1704927 0.14131442 0.17851463 0.002856517 -0.122331925 0.033619232 0.3525343 -0.24421673 0.21292879 0.09892269 0.121992856 -0.123358205 -0.055846624 0.22366044 0.05808912 -0.10608892 -0.32944766 -0.24768665 0.115972884 0.2068728 0.06876338 -0.088134 0.2780433 -0.29159856 -0.026815262 0.13883562 0.11395854 0.21834442 -0.031992562 -0.27695036 -0.26196748 0.13658859 -0.1964942 -0.1307691 -0.08279059 0.009619069 -0.091023825 0.14874431 -0.046756215 -0.16202618 0.48524243 -0.1892115 0.082162745 -0.004589316 0.16921006 0.23451445 -0.21923012 -0.29428694 -0.092111506 -0.048448298 0.17267522 -0.06925155 -0.015307075 -0.08826356 0.20194307 0.22776234 0.30539218 -0.0030872615 0.14277071 -0.25568634 -0.082829185 0.054654457 -0.34163502 0.12403188 -0.0048950715 -0.24582149 0.09292843 0.70550436 0.258021 -0.10133493 0.037370976 0.0117466375 0.3151843
211 0.0676311 -0.1715173 0.23050319 0.15060677 -0.20228356 0.050608873 -0.12804104 -0.3095501 0.01427198 0.016237874 -0.096601315 0.14973384 -0.044394504 -0.18608238 0.055038534 -0.22510417 -0.12493003 -0.057260204 0.073971674 0.15592882 0.27767667 -0.29041237 0.14863874 -0.01607534 -0.05100802 0.18745732 -0.08076884 0.03259469 -0.143558 -0.042328805 -0.13532408 -0.07360907 -0.21736798 -0.102716036 0.12757477 -0.001321717 0.11794239 0.04136992 0.14438477 -0.26002055 0.06957174 0.15262978 0.07411496 0.058561455 0.08271087 -0.086106636 -0.07284264 -0.057839558 0.039710533 0.099789344 -0.1523099 0.07468053 -0.15324257 0.15306498 0.08631646 -0.12798849 -0.0029833463 0.27332196 0.025932772 -0.0069411737 -0.07496436 -0.052792363 -0.0086526405 -0.05231373 0.08750729 -0.22744183 -0.19800761 -0.2430069 0.21819824 -0.11235212 0.0810914 0.030536551 -0.11639321 0.14284167 -0.0013259507 0.033339027 -0.095355965 0.027842322 0.18601336 -0.077105686 0.09460208 0.0003116192 -0.025688611 0.11566201 -0.0030372823 -0.10359707 0.07839021 -0.23562407 -0.02941308 0.011079567 0.15197666 0.26501584 -0.4106652 -0.09348675 -0.22317137 0.22641766 -0.17758761 -0.10238253 0.068189606 -0.2642261 0.30240178 0.005026148 0.079142764 0.020437343 -0.052334577 0.092254445 0.08169087 0.23619953 -0.09813409 0.114686266 0.020506676 0.13975826 0.051609542 -0.044277165 0.066496715 0.31886807 0.05550873 -0.18327835 -0.105306216 -0.1868373 -0.31337118 0.1957639 0.3941429 -0.11121745 -0.18964674 -0.120072685 0.07009408 0.1130961
283 0.01957512 0.00025221735 0.16928816 -0.059413016 -0.43935966 -0.07755367 -0.27779663 -0.059883527 0.06798851 0.11081759 -0.20757362 0.06256075 -0.22980942 -0.12930341 0.22016908 -0.160047 -0.2407812 0.26186034 -0.0029122108 0.108696714 0.13299952 -0.35225525 0.031700037 -0.04022365 0.06924324 0.24857141 -0.03412574 -0.21644929 0.106651425 0.27034423 0.0057718074 0.1916842 -0.17271185 -0.20037341 0.0850866 0.036286596 -0.030886017 -0.13260509 0.15631789 -0.06181443 0.04012891 0.31913075 0.109702155 0.079728976 -0.1895435 0.081236236 0.1644363 0.15589826 0.020996625 -0.04064078 -0.061986227 0.14220843 0.084840484 0.24386176 0.12659433 -0.013098495 -0.03155438 0.0001638891 0.19028935 0.031267166 0.09449927 0.049812764 -0.031876434 -0.035675324 0.1429639 0.077365 -0.17631635 0.032479934 0.14662403 -0.10232954 -0.15461737 0.016144156 0.023182336 0.08188521 -0.016736373 0.043849993 -0.06320152 -0.04851546 0.029383078 -0.31820193 0.1538632 -0.20209733 0.06305497 -0.15515895 -0.27910554 0.11566155 0.33880898 -0.010601475 0.027811047 0.056454904 -0.13622373 0.22951376 -0.2653781 -0.049563482 0.0060369344 0.23131567 0.0008070913 -0.01803295 0.091663785 -0.36131126 0.20991296 -0.06847583 0.036799617 0.045267127 0.0039462834 -0.097276054 0.083125666 0.12486753 -0.26919764 0.009370085 0.20849858 0.05585229 0.014890495 0.07851023 0.098061 0.27936533 0.0027290287 -0.17195739 -0.17033303 0.028952554 -0.04928829 0.016460527 0.028426692 -0.062370192 0.24052948 0.014083325 0.09540682 -0.019851003
820 0.13147244 -0.33964527 0.23868056 -0.045613203 -0.16944835 -0.07534149 -0.098543584 -0.015072179 0.09921462 0.12496663 -0.074985296 0.011772427 -0.16302547 0.059945796 0.012233042 0.067515865 -0.027513545 0.16647121 -0.0065527074 -0.0013477264 -0.075692624 -0.15162541 -0.034108385 -0.05022471 -0.082455285 0.3189929 0.060095105 -0.17842148 -0.21525232 0.2881951 -0.35515183 -0.023786623 -0.0208371 -0.0057589514 0.0618241 0.11425852 0.0041527934 -0.09959096 0.14734581 -0.116972096 -0.19422483 0.06527183 0.040976115 -0.33005023 -0.11541541 0.06290474 0.31696743 0.252982 0.07131577 0.036689844 -0.049902573 0.040805105 -0.011331314 0.16517372 -0.053028807 -0.1938691 -0.055564485 0.090487726 0.15950485 -0.071552046 0.10651957 0.22775969 0.069431335 0.20061739 0.04416222 -0.06452126 0.006128805 0.091511816 0.20533624 -0.23369707 -0.110862784 -0.026125975 -0.08114547 0.17291859 0.09474196 -0.053161625 -0.11996733 0.055482946 0.015721109 -0.12593347 -0.13166071 -0.009305732 -0.011807839 0.15955022 -0.006435394 -0.099765025 -0.24952354 -0.03280313 0.050500307 0.2515751 0.0516042 0.16369182 0.0025255987 -0.20113862 -0.22822389 0.30314475 -0.13863096 0.12204465 0.016052844 -0.11157179 0.029805753 0.18571162 0.09415278 0.17118338 0.044543635 0.21921475 0.0802825 0.23529962 -0.26999575 0.19175968 0.31785834 -0.18899277 -0.12402046 0.016064096 -0.04571306 0.16891797 -0.063268214 -0.15075096 0.0895906 0.19320461 -0.18421893 0.100664146 0.17567763 0.2171066 -0.048892304 -0.019213239 -0.07428947 0.30867013
377 0.01232068 -0.35879436 0.1233312 0.066929966 -0.38769957 0.00700587 -0.05702258 -0.031509053 0.10428907 0.026322605 0.0041747065 0.046543576 -0.2248824 -0.04360227 0.025077963 -0.13836038 -0.18576966 0.039640095 -0.046667356 0.10319983 -0.22517397 -0.320649 0.20101781 -0.06553383 0.021636086 0.13775092 0.10383728 -0.14199355 -0.178922 0.19587147 0.053058524 0.39076823 -0.0014141222 -0.03663654 0.13884024 -0.09376898 0.069647945 -0.31850106 0.09877975 0.0024992914 -0.14783259 0.12852383 0.12940338 0.06525662 -0.17102464 -0.13819927 0.10137693 0.23901774 0.20019993 0.09764696 -0.23058182 0.26533097 0.08557273 0.01319474 -0.11935976 0.016191447 -0.046736207 0.16426964 0.23445436 -0.031717423 0.10299533 -0.02176834 0.17454632 0.0007323195 -0.116943054 -0.4409588 -0.066930346 -0.05061887 0.038055148 0.05168811 -0.09095515 -0.13086477 -0.102789894 -0.038528785 -0.032101054 0.077623636 0.025451573 0.1014656 -0.0036883657 -0.29971337 -0.06840169 -0.12854573 0.06096753 -0.25827092 -0.29087457 -0.08333723 0.10979611 0.18398112 0.2365302 -0.0801325 0.08823403 0.13120137 -0.11179818 -0.15481704 -0.09097336 0.01041763 0.21488291 -0.0036095886 0.07254662 0.020729735 0.32537943 0.035428833 0.22282584 0.2673274 0.1135863 0.13488089 0.09013756 0.3833817 -0.14682142 0.017862067 0.18946445 -0.24488035 -0.2498801 0.29889828 -0.13845284 0.26007074 0.026744783 -0.25881732 0.06130152 0.010298987 -0.25111076 0.038636148 0.13078766 0.08230221 0.07387132 -0.1066336 0.045733195 0.20460263
83 0.13871463 -0.10285885 0.16877791 -0.08522318 -0.21816766 -0.0066791237 -0.22385535 -0.2975235 0.085571624 0.11233294 -0.12060593 0.1472488 -0.11047563 -0.10386429 0.11090552 -0.1937056 -0.11614438 0.1880456 0.23351969 0.06858501 -0.0030442348 -0.09671937 -0.012361052 -0.10122587 0.025758931 0.26367918 -0.15007845 -0.1405762 -0.030842563 0.037203 -0.12522404 0.08599085 -0.030344078 0.00803436 0.015493734 0.037644263 -0.117077306 -0.17526977 0.07208607 -0.1513258 0.10675024 0.2174652 -0.10543234 0.051178012 -0.05843166 -0.10160091 0.12857087 -0.01621656 -0.043958496 -0.057367302 -0.025530046 0.108613394 -0.08618498 0.14472067 -0.13544293 -0.04033467 0.010057759 0.13805729 0.21452275 0.081105895 0.26461938 0.13577242 -0.118805125 -0.033513725 0.18100846 0.021438506 -0.043810207 -0.037569925 0.040890723 -0.11916255 -0.0063227457 -0.20898627 0.14773394 -0.14336044 -0.1602855 0.07442002 -0.15920421 -0.06632409 -0.019171143 -0.12096389 0.12665707 -0.07330434 0.053393316 0.0845932 -0.1759534 -0.15603933 0.06921024 -0.0073118317 0.17390801 0.24139798 0.1633972 0.23734638 -0.10356019 -0.04044286 -0.12865023 0.26303884 -0.019913012 -0.014483534 0.15333134 -0.30423442 0.20586805 -0.06866501 -0.108240895 0.114629626 -0.053353097 0.031285062 -0.021811798 0.16945721 -0.18083555 0.048224304 0.121344 -0.037166927 0.09060217 0.17844002 0.16701075 0.31334728 0.015611671 -0.22387107 -0.19792044 0.14284013 -0.30732048 0.1995705 0.092685625 -0.13647136 0.07785654 0.032073922 -0.06427358 0.10615066
282 0.112974465 -0.08337306 0.13937816 -0.019261228 -0.060824297 -0.08684975 -0.17088325 -0.14575435 -0.079495125 0.06747985 -0.31678337 -0.049878437 -0.16841063 0.07179305 0.2097706 -0.07158518 -0.3066816 0.24584456 0.045229577 0.13302058 0.08595361 -0.1184445 0.0855947 -0.09685884 0.090796456 0.15567064 -0.09741531 -0.2035685 -0.061263505 0.042449415 -0.053088944 0.32257712 -0.14236416 -0.13815597 -0.06567795 0.022400688 -0.09133557 -0.18560569 0.12958057 -0.22595124 -0.007446296 0.2358877 0.056624234 0.024596097 -0.19361731 0.22300136 0.16959812 0.0471546 0.07986331 0.06818296 0.15553701 -0.018325249 0.060123514 0.08422572 -0.2042897 -0.05067422 0.051451933 0.1521839 0.3317652 0.06387496 0.07957428 0.21274419 -0.142371 -0.0846801 0.16360779 0.028755594 -0.23231265 -0.018935952 0.20199013 0.009905357 -0.0005395118 -0.2801595 0.095404275 -0.26905748 -0.20702903 -0.01966746 -0.009645487 -0.20274952 -0.10690298 -0.170064 0.14777859 -0.18812315 0.096571155 -0.24061103 -0.14789101 -0.19806617 0.1472643 0.12588516 0.047260307 0.22874229 0.2607594 0.021900222 -0.18394843 0.082512185 -0.1381818 0.07395672 0.13591357 -0.07369478 -0.014169496 -0.09076723 0.112634026 -0.25468355 -0.14555122 0.06320896 -0.19681361 -0.008803966 0.09910607 0.16015965 -0.28326043 0.029730633 -0.040500805 0.21059018 0.035602096 -0.0018554928 0.234199 0.36851746 -0.18695055 -0.17691207 -0.062238574 0.11865659 -0.24781857 -0.027270935 -0.008507234 -0.16630891 0.03247209 -0.07178428 0.048904676 0.14552407
494 0.011884522 -0.15939447 0.15476969 0.03975932 -0.34681523 -0.051520076 -0.033639245 -0.105645195 0.021593042 0.16838293 -0.020517366 -0.06353241 -0.090097226 -0.29259953 0.23304981 -0.10794908 -0.14131439 0.23603962 0.06662854 0.014495479 -0.03487643 0.04822931 -0.05961063 -0.19866194 -0.16748244 0.04539023 0.020856213 -0.36535776 -0.261649 0.139513 -0.030126926 0.21137667 -0.2059347 0.06365768 -0.089218825 -0.17924033 0.064097345 -0.09551729 0.06407252 -0.23961425 -0.07023309 0.18795626 0.19047965 0.0738769 -0.2205689 0.25592577 0.19846176 0.22385168 0.05324219 0.19536284 0.24689876 -0.0073274085 -0.08835575 0.24797066 -0.2533422 -0.11592957 0.022299703 0.15791602 0.39373484 0.06805425 -0.04602922 0.09551235 0.08493682 -0.04268216 0.11876966 -0.06392718 -0.2761472 0.2002278 0.0862299 0.092764504 -0.073733546 0.075988315 -0.038831845 -0.4025002 -0.21828829 0.008649894 -0.04541711 -0.02100744 0.048242547 0.06451892 -0.08640385 -0.08296651 0.08570869 -0.043095175 -0.32571772 -0.17247884 0.16732588 0.1254133 0.017744511 -0.09379128 0.06304684 0.07303436 -0.09678122 0.042776324 -0.033110213 0.18046147 0.24436352 -0.1728886 0.065422 -0.20234202 0.088742055 -0.319797 -0.39203694 -0.0014465505 -0.1519627 -0.08453533 0.20837006 0.16121392 -0.040299308 0.06620315 0.17223017 0.021730376 -0.122326165 -0.018624043 0.30850622 0.12189331 -0.17919028 -0.12470192 0.15385628 0.14311688 -0.027473742 0.1387315 0.16920495 -0.1860659 0.057428148 7.1785966e-05 -0.06311955 -0.015613528
142 0.02156237 0.05379083 0.10270685 -0.18337178 -0.25439963 0.014414696 -0.22921157 -0.07174625 -0.12350727 0.061987914 -0.4532023 -0.12672307 -0.25923643 -0.0396772 0.20361054 -0.13445984 -0.12817796 0.353778 0.036884103 0.13987857 0.14337501 -0.081703715 0.049701184 -0.10049082 -0.09793346 0.19317882 -0.05605271 -0.21628931 -0.06948405 0.07303374 -0.1268147 0.12949453 -0.039796926 -0.028002383 0.086615816 -0.03568105 -0.06685652 -0.26888654 0.09822666 -0.3078558 -0.13345093 0.14855263 0.2204556 -0.19491275 -0.16750252 0.26357976 0.12728637 0.101772286 -0.040340986 0.05318424 0.11165873 0.080753714 0.034879703 0.108895004 0.03747313 0.029553657 0.0048064 0.04275306 0.31017157 -0.042574514 0.11491305 0.17403318 -0.14284547 -0.099733256 0.21489255 0.06851324 -0.27318528 0.024813216 0.19525258 -0.0707633 0.057940926 -0.25971562 0.021078026 -0.073260434 -0.12748931 0.04046067 -0.03327244 -0.14864668 -0.037554413 0.073916174 0.22748218 -0.2791204 -0.011706938 0.010556361 -0.054316945 -0.019634765 0.14607126 0.13419783 0.06596276 0.13854606 0.2563249 0.14358188 -0.0676534 0.06103162 -0.07113742 0.038329676 0.114908 -0.034810815 -0.012341754 -0.04649717 0.19118921 -0.15416192 -0.09812815 0.088419326 -0.19863373 0.085114054 0.17519301 0.2375475 -0.101915486 0.092662305 -0.023200216 0.043721516 0.17978075 -0.04300775 0.18725902 0.34089193 -0.09460256 -0.24411371 0.032279007 0.021527812 -0.11283148 0.033793535 0.25676194 -0.10134081 0.00045542084 -0.1396085 0.11301959 0.15171644
105 0.03666938 -0.040994916 0.26006386 -0.017208522 -0.17416012 0.08221324 -0.15422158 -0.16973126 -0.0031891228 0.023699008 -0.09067556 0.17044199 -0.10571502 0.016322728 0.11189113 -0.040082682 -0.127729 0.1189503 0.18200213 0.05132108 0.07408506 -0.043730583 0.0012107679 -0.033038937 0.051460266 0.363112 -0.032374546 -0.23971874 -0.30112624 0.1299711 -0.29607975 0.2133437 -0.06730639 0.10166436 0.16269314 0.07562578 0.121501885 -0.21492262 0.18404122 -0.081193306 0.020333653 0.23248266 0.13836542 -0.060463496 -0.19405541 0.04818366 0.47783732 0.083273664 0.037462573 -0.035934847 0.027538648 0.102917835 0.004300704 0.09930145 -0.07930036 -0.09114096 -0.16786046 0.1191535 0.16726346 0.0117326295 0.12947178 0.039065897 -0.074149914 0.1272526 0.11738908 0.057559296 -0.235767 -0.022657406 0.07976767 -0.07720354 0.020819612 -0.084711954 0.09222522 -0.050053775 -0.04158206 0.01587118 -0.10730069 0.094328016 0.09820337 -0.04844409 -0.006056466 -0.16765781 -0.07776088 -0.1917751 -0.13835411 0.017151741 0.09301248 0.08752289 0.08989494 0.23676746 0.11495749 0.22206016 -0.062199853 -0.20052978 -0.17119054 0.15397668 -0.13300101 -0.072989516 0.057917204 -0.09578699 0.29565483 -0.08999586 0.0737453 -0.09486852 0.028185338 -0.05547709 0.10999359 0.05974691 -0.13140528 0.15140408 0.15193509 -0.028986126 0.084411696 0.0053904806 0.0853738 0.03696052 0.16025086 -0.08916672 -0.1441862 0.16954511 -0.15189716 -0.046760365 0.27530968 0.13089935 0.020119058 0.012620177 -0.043520242 0.28836533
6 0.08194812 -0.23142739 0.20011368 0.080022514 -0.023956425 -0.012583628 -0.0017930148 -0.048397277 0.14889085 0.05084316 -0.20016022 -0.03688805 -0.13553883 -0.32405993 0.24387196 -0.03661137 -0.22395776 0.06500072 0.056995444 0.018851958 -0.11376087 -0.17916441 -0.27479196 -0.18417959 -0.098356605 0.07136697 0.15059826 -0.2706371 -0.126719 0.51657695 -0.06400856 0.045885175 -0.17978518 0.06855727 0.09179073 0.011959247 0.06262122 -0.010303041 -0.022902086 -0.08278223 -0.027454784 0.035833813 0.3391017 0.117090866 -0.26099125 -0.10647393 0.2596841 -0.20271158 0.33800822 -0.086656526 -0.032202344 0.21737796 -0.0066825445 0.2901317 0.0879343 -0.08268951 -0.0074076345 0.093235895 0.19738013 -0.096547306 0.009960163 0.24040787 0.13818742 0.0845144 -0.0069275475 -0.03726514 -0.14251179 -0.006261127 0.0066558043 -0.15966836 0.1274069 -0.22830567 0.07570634 0.07464382 0.21870644 -0.16363525 0.015899085 0.18718562 -0.1461373 -0.07517189 -0.15899406 0.102660045 -0.00485129 0.04131348 -0.07514544 -0.27510244 0.11981278 0.10367007 0.25214836 0.08338285 0.090320006 0.14042963 -0.12001638 0.021387411 -0.10331289 0.35465786 0.026208095 -0.11691035 0.183703 -0.20336576 0.21030936 -0.11039522 0.057793096 0.032121442 -0.19670312 0.14909215 0.15749997 0.2942011 -0.12958106 0.088378035 0.29902583 0.106913276 0.040422235 -0.042718243 0.04585625 0.12377073 0.17938574 0.05174844 0.17816488 0.069360666 -0.12555692 0.0077085677 0.31715122 -0.04787771 0.02270913 0.03688826 0.0794475 -0.025422629
333 0.2877874 -0.1786479 0.24287847 0.034314383 -0.20840487 -0.016117726 -0.09476265 0.09457331 0.069768615 0.12448801 0.02632085 -0.14062618 0.07997148 -0.11136475 0.043626297 -0.2441821 0.13543689 0.23868524 0.014034668 -0.025046939 0.038535673 -0.0967328 0.02370389 0.088163994 -0.08464942 -0.03374479 -0.015131722 -0.09719224 0.0055623073 0.21184011 -0.04534893 0.11610577 -0.19086877 -0.21514006 -0.09557811 -0.0045430884 -0.19402316 -0.05556056 0.04184291 -0.42581943 -0.077084154 0.13298066 -0.17001255 -0.36103487 -0.013802813 0.21844353 -0.15445587 -0.1894745 -0.1521104 -0.018855004 0.12307344 0.063701436 0.054036293 -0.046867736 0.019105563 -0.050350808 0.0036712796 0.08614488 0.2875464 0.024321033 0.276 0.124854185 -0.08324425 0.0113291405 -0.07921117 0.047602933 -0.25472283 0.29635683 -0.057111114 -0.09442267 -0.007542303 -0.21910189 0.16885842 0.010406619 -0.15845117 0.037112698 -0.1832735 -0.119865105 0.029905377 -0.08689854 0.15526672 0.05067587 0.10695654 -0.07370126 -0.080694705 -0.10143699 0.2977289 0.25503796 0.23901208 -0.08901749 0.21675783 0.4174758 -0.08939768 -0.13788173 -0.1339672 0.22771747 -0.03716773 -0.18219802 0.099296294 -0.24511757 0.23386273 -0.049102575 -0.0914604 -0.048176073 -0.19970348 0.3405015 0.16322008 0.10195919 -0.0075224014 0.094400056 0.019387543 -0.12723762 0.075149186 -0.053981032 0.18834655 0.21876904 -0.13162628 -0.12604912 -0.048590995 0.12966365 -0.13188772 0.3965648 0.2988583 0.12955736 -0.2646798 0.014477228 0.031125799 0.38435495
424 0.25384492 -0.110555895 -0.07056354 -0.04888087 -0.19057114 0.006500644 0.028802896 -0.014577061 0.040113658 0.24359055 -0.3045369 0.066715084 -0.1523162 0.10215651 0.1668131 -0.09285475 -0.11828678 0.24652787 -0.085343845 0.0633313 0.13182464 0.08498003 0.11468421 -0.10086983 -0.05097578 -0.0035373424 0.18440753 -0.044676907 -0.12251265 0.13639371 -0.13291582 0.1758935 -0.0858957 -0.1251057 -0.08593831 -0.11131917 0.020573005 -0.08871296 0.24249259 -0.24873026 0.08400193 0.16961507 0.123383775 -0.14751905 -0.03926544 0.2763496 0.14976536 -0.005096897 -0.049559493 -0.007379315 -0.14779377 0.052984536 -0.24458806 0.04401765 -0.13903432 -0.11463123 0.021256657 -0.069818735 0.21814689 -0.030475019 0.028402805 -0.07429139 0.010546574 -0.011329673 0.34381026 0.06352868 -0.18085243 0.008263718 0.012148262 -0.23956852 -0.021354096 -0.2767422 0.11619804 -0.24958794 -0.12315492 0.086785346 -0.17243831 -0.08537197 0.034396168 -0.024078336 0.1523093 0.008937303 0.082486145 -0.01944542 -0.30680153 0.028043125 6.2355175e-05 0.06925306 0.116921455 0.049288806 0.26745272 0.15248252 -0.18336956 0.06331829 -0.08080077 0.21033749 0.25669584 -0.07166108 -0.18422534 -0.29218462 0.17558163 -0.100683436 0.004999347 -0.10355082 -0.28974614 0.054934524 0.19993283 0.34611052 -0.4206847 0.30722758 0.14162672 0.11672295 0.05493774 -0.0922651 0.2418296 0.20808268 -0.28141207 -0.12142582 -0.057106458 0.104246475 -0.3590362 0.13894798 0.23296484 0.09557235 0.010172405 0.022550216 -0.075916424 0.36495546
87 0.13378778 -0.09690171 0.21650355 -0.11782305 -0.33852684 -0.0518878 -0.31662056 -0.20755255 -0.16637957 0.05932855 0.0023133329 -0.007331657 -0.15970805 0.087743305 0.10710773 -0.12242873 -0.25427598 0.024049498 0.050019983 0.19511472 0.1709076 -0.2095287 0.12612538 -0.08340885 -0.06435726 0.13625051 -0.11645345 -0.22505376 -0.07701232 0.025759138 -0.102854244 -0.06490499 -0.13482466 -0.09594289 0.18383822 0.05644148 0.25391036 -0.10736666 0.060243696 -0.15346944 0.03534289 0.30535612 0.078169905 -0.15102516 -0.15095182 0.09294865 0.07381007 -0.116783515 0.005603689 0.042907536 -0.07946867 0.19674952 0.02316982 0.2708948 -0.20958477 -0.09282538 0.04882805 0.08062701 0.25654763 0.08953771 0.38543352 0.17600365 0.036188554 0.0155761875 0.31563014 0.033006355 -0.27014792 -0.06768188 0.18408716 0.08174639 -0.057965253 -0.09167871 0.031299986 -0.1440991 0.057015125 0.100515984 -0.10639575 -0.012181685 0.07911175 0.058219995 -0.013160806 0.087945804 -0.002394251 0.025313199 -0.15655878 0.06857773 -0.2520093 0.055954438 -0.029960506 0.064674184 0.01379774 0.0748255 -0.0026501622 0.024144532 -0.047433306 0.070512734 -0.13259676 -0.15631466 0.007881957 -0.09704221 0.21183942 -0.1415618 -0.056092113 0.0032839149 -0.19989678 0.06561355 0.18256316 0.23647551 0.14202698 0.15123385 0.08605412 -0.07373706 0.11354752 0.0015432998 0.039772138 0.37782663 -0.008509405 -0.14760959 -0.051924553 0.11793655 -0.21131371 0.3153372 0.26811698 0.1262412 -0.21063295 -0.14451571 -0.113872886 0.2171274
21 0.029288985 0.09523556 0.19499032 0.055185962 -0.05269917 -0.048776396 -0.09739971 -0.32166347 0.12426536 0.13005033 -0.057704445 -0.043431833 -0.20094316 -0.1483063 0.30732903 -0.04075244 0.0028523754 0.08690177 0.077346176 0.031829912 -0.015968971 -0.15170735 0.12759298 -0.20637085 -0.20327298 0.1669547 -0.009574109 -0.114974216 -0.048678495 0.32990316 -0.095956415 -0.019725064 -0.12577288 0.036836658 0.15115106 -0.0878174 0.06260904 -0.12464632 -0.1006727 -0.15203655 0.06491655 0.2140719 0.014691792 -0.065493025 -0.21116519 0.22101453 0.24860251 -0.10655197 0.17362782 -0.10130952 0.0051425355 0.1285152 0.0551685 -0.21180452 -0.01426269 0.119927116 -0.034938365 -0.19552612 0.021833647 0.10223788 0.16083188 0.03997438 -0.12072204 0.044416297 0.11933529 0.17788158 -0.29544088 -0.028426204 -0.20984232 -0.34702367 0.024070963 -0.28126302 -0.026838275 -0.0058060675 0.08007248 0.011827515 -0.16633889 0.00538635 0.26244962 0.11048559 0.18765387 -0.033271838 -0.15134905 -0.25976038 -0.13621733 -0.10573317 0.18374723 0.11835537 0.22678839 0.021677552 0.080230296 0.21322574 -0.09464568 -0.0915085 -0.18557729 0.20093864 -0.2170742 -0.13251312 -0.043039538 0.104733594 0.18502174 -0.13857146 -0.0952969 -0.11438827 -0.014241798 0.23329431 0.12570092 0.27276516 -0.30685952 0.061941832 0.020676743 0.13455673 -0.026709186 0.1933545 0.024059387 0.51980096 0.029312309 -0.078033395 -0.2789841 0.08350878 -0.24609448 0.13292195 0.22936818 0.13275866 -0.07110021 0.12300952 0.11890479 -0.034401778
365 0.10399267 -0.148152 0.057415992 -0.085921206 0.0062171 -0.12053416 -0.2971271 -0.3795899 -0.054898463 0.1408168 -0.21040927 0.14068 -0.16617434 -0.17500462 0.22614862 -0.09827354 -0.23040064 0.0905799 -0.24435851 0.2861616 0.09349078 -0.040931836 0.03924637 -0.1713747 0.031283047 0.33098882 -0.16066128 -0.22131039 -0.29960173 0.111069195 -0.089973845 0.06659179 -0.10474767 0.15241441 0.272845 0.040078938 0.25612742 -0.18106045 0.31730056 0.103191644 -0.10508187 0.14584938 0.021110421 0.1789043 -0.3860101 -0.15364085 0.1779627 -0.012602644 -0.16766132 0.086220086 0.059112594 0.06185115 -0.095849425 0.115792155 -0.29754248 0.050491128 -0.0769499 -0.06633544 0.06317651 0.14742275 -0.11224306 -0.2207438 0.026339276 -0.10408844 0.13743663 -0.17553444 -0.16459174 -0.10098179 -0.021008408 -0.08341217 0.13448486 -0.06780416 -0.1284202 0.04117309 0.09893413 0.043511145 -0.096423134 0.0062406533 -0.07064493 -0.090463035 0.25534078 -0.0082089305 -0.09905536 -0.267367 -0.2544036 0.054184455 0.2165918 -0.10459962 0.0050926567 0.17618494 0.21875447 0.2460013 0.04453 -0.019029234 -0.07194212 0.16140562 -0.28953722 -0.05888749 0.058553237 0.079683304 0.17527269 -0.006083332 -0.10406846 -0.2197429 0.00074600993 0.06750245 0.09830492 -0.11610662 -0.16688597 0.05759746 0.046133682 0.037130766 0.0758217 -0.07383932 0.11473824 0.2625384 -0.11590145 -0.19037202 -0.07096914 -0.044275172 -0.36080292 0.14052624 0.61007226 0.05057364 -0.06992281 -0.1469326 0.038443282 0.24560209
106 0.14319053 0.06497523 0.15857811 0.1419354 -0.07694042 -0.056190517 -0.07013044 -0.2938004 -0.009835805 -0.10858182 -0.15781695 0.16186742 -0.26433578 -0.04473756 0.17093247 -0.05770496 -0.12665561 0.10935119 0.056155276 0.06639961 0.033061203 -0.08025418 0.066237204 -0.19698393 -0.07057477 0.21444435 -0.04317611 -0.092558324 -0.35163078 0.11594059 -0.22457054 0.10756861 -0.087067395 -0.03173659 0.07050978 -0.15864171 0.1747358 -0.3261825 -0.088992104 -0.25827125 -0.001303401 0.17063853 -0.045883674 -0.0359857 -0.34829333 0.1638788 0.11844645 0.090505496 -0.041506857 -0.0795007 -0.06702705 0.00014482724 0.098053694 -0.16064134 -0.020543842 0.027325802 0.04427645 0.12984578 5.151457e-05 -0.14840911 0.111876234 0.06500243 -0.020146634 -0.087752216 0.28555503 0.14340246 -0.38065916 -0.12078343 -0.12074596 -0.16329263 0.09909031 -0.307702 0.07268051 -0.28376412 -0.077107616 -0.029846212 -0.11982839 -0.09574653 0.050225 -0.1309261 0.09841443 -0.14913946 0.071482174 -0.17050084 -0.2715801 -0.0743905 0.060990278 0.107390955 0.15358432 0.045950513 0.12506865 0.35034984 0.0098260455 -0.053648673 -0.21784419 0.004301665 0.011443491 -0.0759785 -0.10506456 -0.028918693 0.29663995 -0.2382416 0.10416219 -0.10251432 -0.021464013 -0.03737173 0.1790323 0.1802368 -0.29734394 0.06115119 -0.01236703 -0.045077443 -0.035462674 0.2196645 0.08773773 0.5797201 -0.03491687 -0.16468687 0.013522401 0.13470958 -0.034567446 0.04891394 0.16487326 -0.0064467923 -0.038415983 -0.25000182 -0.02303586 0.028700586
280 -0.13190155 -0.17143813 0.12460505 -0.23470567 -0.24489564 -0.21035331 -0.24192569 -0.1987328 0.14072976 0.009078056 -0.1084944 0.04422079 -0.436403 -0.016957123 0.06778522 -0.08998128 -0.085417144 0.020011472 -0.11257484 0.18931091 -0.14450176 -0.032623176 -0.058058914 -0.14185445 -0.19965735 0.17021461 -0.045284398 -0.13961707 -0.16715136 0.2539258 0.03475128 -0.059513886 -0.046135176 0.09205258 0.1520041 -0.23362723 0.020035326 -0.10702086 0.03467585 -0.031058557 -0.022344936 0.30207977 0.015649347 0.030969184 -0.13889082 0.07734516 0.28244212 0.03547415 0.06028001 0.15093793 -0.15440269 0.19299275 0.05087204 0.19520383 -0.020086955 0.045292616 -0.05389491 -0.002698414 0.25022432 0.061371595 0.11547078 0.06291456 0.1617745 0.006204673 0.017993582 -0.1860702 -0.13858815 0.06330038 0.13010366 -0.1651427 -0.18261427 -0.09643987 -0.2182413 -0.06627516 0.0402438 0.09945347 -0.17338765 -0.044980064 0.09343414 -0.24669445 0.05349386 0.02700372 -0.03733766 0.053337704 -0.06370526 -0.07574577 0.15111485 -0.055943564 0.010472888 0.04150798 -0.14133863 0.11631524 0.031329 -0.18498272 -0.13286592 0.052437607 0.11196212 -0.048410136 0.027032426 -0.2662131 0.027046688 -0.062142707 0.06347996 0.15976886 0.08330085 0.022172088 0.11856529 0.28433725 -0.15086947 0.13278408 0.21364278 -0.21841858 -0.11870603 0.14562032 0.031728994 0.20433083 -0.061628684 -0.23720731 0.039040428 0.044825856 -0.3041504 0.09005433 0.29736486 0.06472245 0.026055371 0.09713256 0.08811917 0.067492366
405 0.20617868 -0.014812313 0.259971 0.2278176 -0.016957818 0.16242163 -0.3981061 -0.11152084 0.026742468 0.09165425 -0.11199366 0.102846704 -0.23169445 -0.21297134 0.22256657 -0.13392645 -0.085656874 -0.013593915 -0.046241716 0.40452316 0.048090037 -0.068254575 -0.027274694 -0.08205766 -0.031021215 0.05044271 0.113703616 0.047475606 -0.018982947 0.26342136 -0.27246878 0.06544533 -0.024455827 -0.043709304 0.10778518 -0.045221187 -0.12381538 -0.32369146 0.1744519 -0.14438349 -0.09719738 0.1475292 -0.08326336 0.14061266 -0.24482977 0.16596165 -0.057954222 -0.044830594 -0.07440118 0.09608764 -0.034822803 -0.041157544 -0.18780026 0.4290413 -0.13858649 -0.079099245 0.13252129 -0.042092964 0.016611941 0.06618679 0.23383102 0.06316731 -0.106851146 -0.21679412 0.14001752 0.20480567 -0.43085918 -0.04418853 -0.17839217 -0.0818556 0.001596879 -0.15871502 0.027803592 -0.23803236 0.025762146 0.081217796 0.06196969 -0.021020876 0.1290811 -0.028240103 -0.045190286 0.19456527 -0.22075951 0.061031755 -0.39358088 -0.19259588 0.23623717 -0.09036758 0.034308854 0.089436755 0.2463422 0.21533178 -0.05463488 -0.032344677 0.04130791 0.37155277 -0.16424595 0.02896758 -0.3690187 -0.18828155 0.04068641 -0.1467685 0.18054688 0.027560525 0.03108939 -0.073090784 0.24605389 0.31129217 -0.10930655 0.025583927 0.08503755 0.118487306 0.18156604 0.0947681 0.03436475 0.4430181 -0.18524717 -0.16592796 -0.2128816 0.061165363 -0.23874594 0.059976265 0.24111556 0.040004916 0.14955841 -0.041138526 0.11623416 0.054030474
114 0.093911044 -0.07863708 0.15967059 0.1660239 -0.12894805 0.08050278 -0.1669239 -0.01636711 -0.0813168 0.12461858 0.0006537643 0.0059042876 -0.07713988 -0.12033334 0.07405083 -0.106702484 -0.03777761 0.075469576 -0.11168665 0.09453549 0.03489052 0.008792581 0.035022914 0.012982276 -0.11428763 0.20416105 -0.11517077 -0.1680728 0.026333002 0.27515024 -0.12019522 0.0153198205 -0.16548592 -0.054696377 -0.083764315 0.024323538 -0.14372055 -0.10085043 0.06629961 -0.1366812 0.0036282653 0.17895819 -0.036886007 -0.07983446 -0.13424593 0.26293126 0.07309993 -0.2502049 -0.08252557 -0.02875848 -0.02654214 0.03162439 -0.050448723 -0.007085501 -0.034393273 -0.15664482 -0.06725637 0.006709294 0.18545683 0.28278077 0.13878994 -0.020565854 0.14011799 -0.085141115 0.059377234 0.08120202 -0.29850638 0.14809552 -0.11492245 0.053677328 -0.13362633 -0.12535465 -0.07080794 -0.028348206 -0.015755856 0.1313589 -0.09182016 -0.07522224 0.07572044 -0.06412171 0.22285767 -0.20812616 0.024419043 -0.26137748 -0.024489082 0.033875093 0.41682798 0.040716164 -0.038588885 0.09145962 0.025012715 0.20202479 -0.27746844 -0.27868396 -0.04641505 0.24188225 -0.0835863 -0.13316894 -0.11452259 -0.16970964 0.0052631567 -0.07094436 -0.047058754 -0.15098462 -0.21390614 0.3011085 0.1426054 0.2611428 -0.2569508 0.23218839 0.26776874 -0.109536834 -0.03553079 -0.033010893 0.034808036 0.16427095 -0.0749433 -0.15082179 -0.14272477 0.10432312 0.0045482228 0.17613691 0.2916051 0.25219053 -0.14374237 0.09274391 0.08199536 0.29668504
256 0.16005859 -0.09432446 0.2780514 -0.21855463 -0.2983095 -0.27905628 -0.17656091 -0.17393968 -0.06141059 0.20565668 -0.079072 0.0073179677 -0.2741975 -0.04928484 0.13052979 -0.15723184 -0.21034998 0.1747221 -0.0031514782 0.15111074 0.020503106 -0.060443293 0.01031469 -0.30187625 -0.15042934 0.18596828 -0.039356463 -0.22810638 -0.012940689 0.16435814 -0.21706922 0.09552096 -0.1211509 0.17725609 0.06956039 -0.16153258 0.0763417 -0.09880855 0.24815984 -0.24148652 0.07083893 0.15767045 0.114100836 -0.20315507 -0.22683635 0.15396842 0.11303562 -0.21834856 0.028457262 0.04633601 -0.0012874437 0.15659241 -0.057743102 -0.018083625 -0.10007953 0.17577875 -0.13815838 0.04022252 0.15980507 0.06756858 -0.022805559 0.010690487 0.054036863 0.0009858473 0.1384162 -0.069062315 -0.19022377 -0.0014426538 -0.086451575 -0.10542842 -0.03330287 -0.15873225 0.086296484 -0.046220496 -0.034884725 0.10199577 -0.11887185 0.009599005 0.030807301 -0.17339905 0.032519415 -0.05841675 0.07238586 -0.10235346 -0.023179796 -0.13689126 0.3390005 0.015865393 -0.034730542 0.12608597 0.14204115 0.18415491 0.09372492 -0.20599554 -0.12360552 0.029318675 -0.02155195 -0.13779137 0.098785296 -0.067634024 0.2241686 -0.123938695 0.12067299 -0.055018533 0.10350428 0.20220053 0.089007296 0.23624556 -0.1790238 0.13188902 0.015101495 0.04551624 0.19545192 -0.06501162 0.27636895 0.37036645 -0.08927363 -0.10962509 -0.115946375 -0.013381392 -0.24562655 -0.110909835 0.37204945 0.0021309357 -0.01572956 -0.045956362 0.13597056 0.0563401
96 0.115183756 -0.18650107 0.36445987 0.26506263 -0.15441214 0.040929355 -0.24351817 -0.3627681 -0.006846813 -0.13720855 -0.21018766 -0.0540613 -0.059354022 -0.13156831 0.21113306 -0.04185281 -0.049217578 0.05149263 0.13887297 0.021931883 0.25269195 0.16664192 0.20872846 -0.021559712 -0.30579713 0.067744 -0.14650089 -0.021244604 -0.2512545 -0.062683 -0.08885366 0.020214818 -0.21708706 -0.24393655 -0.052091148 -0.076231524 -0.07647838 -0.14783588 -0.16189967 -0.32954586 -0.081332006 0.084660165 -0.01992131 0.008438749 -0.21054041 0.3381047 0.23926665 -0.47858182 -0.17528045 0.010849213 -0.13215841 0.2580578 -0.28089494 0.09962271 0.09633855 -0.33350512 0.033490453 0.06161897 0.11632145 0.25370067 0.01503023 0.18947609 -0.04723111 0.079218715 0.05075717 -0.1782543 -0.20672815 0.15811552 0.07037179 -0.2908921 0.022731045 -0.34534883 0.022386651 0.07176285 0.09949107 0.041104928 -0.17783505 -0.086162746 -0.005175182 -0.04671917 0.29915822 -0.13083589 0.09495214 0.05703648 0.050763935 0.005896128 0.15984905 0.057550494 0.06392071 0.1291726 0.0907331 0.18317313 -0.28207996 -0.16480413 -0.022827357 -0.04463251 -0.046570256 -0.084489584 0.0050851363 -0.28386855 0.1850948 -0.14299892 -0.18357831 -0.1448853 -0.23670903 0.29401764 0.14879535 0.21980833 -0.24564028 0.08240682 0.1703649 0.012188687 0.085757956 0.05551829 0.0064089852 0.019151464 0.08666751 0.1752986 0.07995187 -0.07724142 0.2325301 0.2486938 0.15324685 0.28634638 -0.14269502 0.007851056 0.10617488 0.1581663
473 0.16588677 -0.1897972 0.2807828 -0.12507737 0.045067526 -0.14805174 -0.12296228 -0.2579958 -0.19805665 0.0691902 -0.15085877 0.13624784 -0.08050386 0.044427842 0.1914249 0.11767927 -0.017764714 0.16469294 0.048916858 -0.11005454 -0.06060333 0.010066245 -0.03940923 -0.05604396 -0.21989627 0.009488067 -0.029087389 -0.07494522 -0.10353743 0.19676161 -0.1044655 0.1732619 -0.17313546 0.012226787 0.0026485291 0.10498276 0.12090606 -0.15665172 0.09842179 -0.1943479 0.04793074 0.12309195 0.15069805 -0.06313509 -0.087753616 0.12038754 0.10347963 0.036803488 0.052887943 -0.041144717 0.07182164 -0.10724779 -0.02355384 -0.046303973 -0.08844719 0.011634694 -0.035355628 0.07333951 -0.10100507 -0.045555323 0.12024192 0.32403216 0.21051313 0.01872592 0.048679613 0.19150603 -0.22426324 0.13857548 0.0002949211 0.13286231 -0.056023344 -0.21141388 -0.11348826 -0.17276013 -0.00021386647 0.1326182 -0.11623056 -0.0085684545 -0.107659645 -0.004065498 0.14077054 -0.00881212 0.3633674 0.05451471 -0.14393526 0.022075063 0.0878809 0.1309411 -0.043050375 -0.0045299144 -0.03682191 0.18934906 -0.12327065 -0.13235724 -0.106138565 0.42796522 -0.075056866 -0.23083411 0.014050074 -0.14894524 0.14063951 -0.13368864 -0.056810014 0.074712485 0.14084585 0.13582331 0.17322454 0.04296235 -0.14306611 0.4717501 0.06911371 0.0029761717 0.11221973 -0.09111347 0.03608444 0.26945865 -0.0746313 -0.14384612 -0.17237931 0.11319318 -0.23519914 0.0023639193 0.5929779 0.15438625 -0.085817076 0.07105024 -0.117172375 0.20007479
133 0.09499279 -0.35144505 0.202197 0.036943987 -0.1951033 -0.10678557 -0.10948109 0.021726461 0.18399338 0.16344857 0.05431154 0.024399307 -0.34243178 -0.20940661 -0.04865886 -0.17796062 -0.20395096 0.2010466 -0.27650926 0.22454213 0.119857885 -0.071143426 -0.032592975 0.06432595 -0.25395432 0.08716919 0.06731673 0.03292404 -0.084126554 0.17651466 -0.18859291 0.15514372 -0.20578277 0.2179882 0.1471228 0.047550257 -0.0079150805 0.02501594 -0.053560972 -0.20393209 -0.08269527 0.3819764 0.04794011 0.037778903 -0.16485877 0.18526658 0.22889231 -0.10250915 0.09656437 0.0133937895 0.11631468 0.26373664 -0.055611666 0.17855453 -0.07583061 0.0015250285 -0.10998721 -0.120762184 0.20790534 -0.030707452 -0.081441745 0.0012833881 -0.15539834 0.096841834 -0.18156947 -0.12579314 0.012273285 0.111125045 0.10293785 -0.23282965 -0.22883835 -0.029340573 -0.09157777 0.10658741 0.04163262 0.1671597 -0.011803775 0.08007952 -0.078641646 -0.25752574 -0.10917322 0.032085717 0.07265093 -0.07500502 0.043512203 -0.19193469 0.024003437 0.18938525 -0.0693907 0.13267982 -0.049352128 -0.00760636 -0.06697416 -0.18565123 -0.24004024 0.17962435 -0.23353684 -0.033324692 0.120617524 -0.14280114 0.061106775 0.13956895 0.22548068 -0.048200347 0.12062901 0.11782301 0.17348021 0.28019327 -0.32149804 0.122897334 0.3165651 -0.13281804 -0.14260222 -0.12963453 0.047803186 0.063753635 -0.0842996 -0.29397377 -0.036143724 0.030490858 -0.21357983 0.102061406 0.36916977 0.07236757 -0.016991442 0.1267938 0.14930935 0.07940988
115 0.12881318 -0.23111206 0.19503616 0.047457267 -0.1173151 0.15340947 -0.24399242 -0.0744595 -0.15497954 0.02764777 -0.0021318034 0.09441231 0.01708215 -0.019848354 0.06620755 -0.20380789 -0.18372306 0.025364583 -0.02181129 0.072252475 0.075758785 0.03932784 0.27147606 -0.018367955 -0.21303062 0.16280933 -0.2109181 0.104669884 -0.18615237 0.31526804 -0.23206483 0.13406569 -0.058962367 -0.08172439 -0.038720235 0.20136794 -0.047166467 -0.21592313 0.11276756 -0.24173275 -0.17822364 0.21925668 -0.30820927 -0.04243524 -0.1035867 0.11328115 0.34457994 0.076689094 -0.049568422 0.06770154 0.011638362 0.14431645 -0.08942755 0.06974602 -0.20150602 -0.20356342 -0.13832127 0.1586502 0.21738285 0.10141367 0.18781066 0.09085573 0.06820339 -0.08154004 -0.1054493 -0.106831595 -0.17616615 0.18598089 0.011601323 0.03533849 -0.13490805 -0.19450246 0.059523635 0.06097594 0.076889634 0.13364148 -0.1564433 -0.06439605 0.08997083 -0.050911568 -0.01186567 -0.21855934 0.012482654 0.0680562 -0.059288178 -0.1582432 0.33487365 0.073277555 0.13216391 0.031814944 0.028687986 0.2999368 0.011746064 -0.21422099 0.010867407 0.11228216 -0.043055084 -0.060926177 0.014907832 -0.2067016 0.19237429 -0.019964032 0.081114285 -0.07893572 0.04105632 0.13633993 0.24359287 0.079990216 -0.19343902 0.19237086 0.18801323 -0.008534945 0.082990214 -0.03277653 0.07909421 0.027914336 0.09169484 -0.1747536 -0.059291746 0.09752795 0.012417943 0.14552018 0.3542308 0.31994966 -0.09965386 0.0013213985 0.008297512 0.15693359
340 0.08670137 -0.25226086 0.019895438 0.059967883 -0.23376684 -0.039431367 -0.21853086 -0.105507575 0.0218996 0.15973286 -0.057276558 0.12348475 -0.30471537 0.1170428 -0.026487034 0.12582809 -0.21402869 0.33172056 -0.009595702 0.35641202 0.08748952 -0.42421266 0.06942593 -0.2615916 -0.12928669 0.11433186 -0.40281886 -0.08354754 -0.05219383 0.20920154 -0.10961307 0.11608647 -0.06670376 -0.18306342 0.017487198 -0.051432963 -0.23497103 -0.040714435 0.12279119 -0.24774696 -0.22421509 0.24400043 -0.06467919 -0.002805182 0.011134216 0.4239877 0.13468075 -0.18714452 0.302076 0.05222169 -0.20251116 0.15531026 0.065667525 0.04202788 -0.1752516 -0.19376564 0.07512972 0.22472328 0.005446412 0.043204274 -0.26022556 0.23437397 -0.13458586 -0.06827002 -0.07513078 -0.020331845 -0.10286971 -0.21331294 0.14865933 -0.0719052 -0.016402155 -0.15682517 -0.14407611 0.010426801 -0.32189488 0.12404218 -0.27235124 -0.09433434 0.07606976 -0.2273184 0.1373048 -0.14894597 -0.20987752 -0.18353958 -0.10156908 -0.24667723 0.17263092 -0.17051098 0.20290966 -0.050879896 0.20056647 0.07440068 -0.20233582 -0.030927235 -0.056111377 0.22862832 -0.07802768 0.21182439 -0.058861773 0.002916256 -0.0028280332 -0.21781868 -0.089286245 -0.20609444 0.0013253437 0.10024911 0.16262677 0.3243425 -0.25379238 0.234885 0.22233 -0.1608939 0.08459305 -0.093784116 -0.15870899 0.07753526 0.053824715 -0.0653571 -0.09222792 -0.061980084 -0.20653719 0.19227074 0.06795647 0.15330383 -0.129052 0.098575585 -0.28952518 0.05241118
411 0.14646406 -0.18194328 0.4647106 0.14907004 -0.09510704 0.15863714 -0.026772385 -0.24079457 -0.105001695 -0.059753064 0.051885284 0.0524471 -0.13276275 -0.41441405 0.1666357 -0.16221017 -0.22164653 0.03365755 0.28141135 -0.009351173 0.21118832 0.11394414 0.06578691 -0.18674868 -0.10219211 -0.07157467 -0.15258703 -0.09322836 -0.2568326 0.13144681 -0.22149976 0.08970364 -0.2828587 -0.20632084 -0.12555312 0.003231901 -0.05897274 0.007686516 -0.008543156 -0.34328148 -0.09235043 0.033138428 -0.10071297 0.10045824 -0.15259112 0.031273965 -0.12432294 -0.36485332 -0.048166327 -0.025025373 -0.14967735 0.05305402 -0.25093535 0.14695013 0.18314907 -0.2179128 0.19897956 0.3320609 -0.116034396 0.24707413 0.009013972 0.18722428 -0.009834883 -0.17832115 0.027038718 -0.12414018 -0.32760063 0.05888289 0.16545197 -0.23560373 0.18565334 -0.22116463 -0.14781584 0.106125526 -0.0061719627 0.03053291 -0.0920525 0.038412184 0.28466672 -0.31494907 -0.12536743 0.10980393 0.11281607 0.029517014 0.007042686 -0.112419896 0.10111756 -0.096627206 0.018306462 -0.16002108 0.014353659 0.10605148 0.102234825 -0.25529432 0.13909112 0.0762137 -0.13727278 -0.09654195 -0.10224144 -0.5341384 0.29460698 -0.17271475 0.012189681 -0.17624897 -0.014690276 0.11089232 0.39593595 -0.035933387 -0.17374404 0.017695714 0.25104 0.2446022 -0.030510027 -0.07108964 0.17585509 0.31837752 0.1488575 -0.15056682 -0.024875667 -0.14484991 0.2568969 0.17872518 0.36658028 -0.08133773 -0.030412313 -0.30030343 0.059333675 0.42344856
546 0.20987228 -0.08955867 0.13958555 0.11770519 -0.050447576 0.043549664 -0.11326878 0.13078502 -0.39020643 0.06785969 -0.36791357 0.13424589 -0.302256 -0.03767238 0.30526686 0.15281369 0.11439544 0.17646238 -0.082668364 0.01913531 0.104006305 -0.22538076 0.145158 -0.108164884 0.011510209 0.1606162 -0.2239714 -0.42309904 -0.028429598 0.271225 0.047143415 0.13839272 -0.052337363 0.105440766 0.23781355 0.0593572 0.059145134 -0.32947683 -0.08986277 -0.041043367 -0.03315725 0.08730461 0.062123764 -0.04476432 -0.17801557 -0.07360924 0.11681718 0.053527053 0.1113929 -0.12194257 -0.008407889 0.026724314 -0.004213052 -0.055531256 0.1757964 -0.03421507 -0.04303588 0.05018388 0.13728969 0.12834325 0.19212069 0.33186164 -0.03680837 0.013951191 0.10659295 0.015834464 -0.10003019 -0.13614233 -0.2828416 0.032981284 -0.20130673 -0.08716137 0.037494354 0.016389763 -0.18544573 0.072566606 -0.020978326 0.05635432 0.2531878 0.15691191 0.25583923 -0.25744233 0.11405028 -0.056532983 0.074175715 0.07370902 -0.0073115323 -0.012051438 -0.052426644 -0.052214827 0.38887635 0.31369174 0.16807106 -0.51984316 -0.22324748 0.3062223 -0.01682293 -0.051053967 -0.115168534 -0.2257124 0.21922222 -0.24536626 0.053150833 0.40172443 -0.20622952 0.16953482 -0.07094727 0.022814443 -0.29336384 0.45517316 -0.22394758 0.09650507 0.039910566 -0.09157022 -0.11052563 0.2628708 0.073104024 0.054817583 -0.026364107 0.20642751 -0.22189455 0.33885783 0.35096297 0.10786468 0.05431998 -0.2700073 -0.18297248 0.32872593
366 0.11981653 0.03231021 0.13914046 -0.030682532 -0.2707812 0.015942402 -0.3017982 -0.13145436 -0.091783516 0.20187609 -0.16937238 -0.058681432 -0.13136356 0.013264734 0.25543505 -0.25686306 -0.30493715 0.2941568 0.008756314 0.091089144 0.047637865 -0.18644914 -0.024148997 0.051321454 -0.05013228 0.19476996 0.015586838 0.02265249 0.1250512 0.20325726 -0.117534816 0.22749801 -0.1812469 -0.19455619 -0.033388685 0.2266598 -0.13377425 -0.1903873 0.18897216 -0.16849656 -0.035972193 0.5011853 0.20150523 0.026793363 -0.06696179 0.25858995 0.2930255 0.12598553 0.17524296 -0.045962267 0.12873575 -0.012071047 0.2589604 0.13323113 -0.052161813 0.09748566 -0.008121222 0.2552783 0.28146264 0.038265012 0.0229076 0.057484306 -0.21055196 -0.065318875 -0.0037226216 0.15339455 -0.11270663 0.07825574 0.16708061 0.053489685 -0.18379329 -0.22934985 0.1919727 -0.11513066 -0.17960218 0.036482185 -0.07737739 -0.08386271 0.050957225 -0.2577738 0.14897658 -0.08799233 5.8928184e-05 -0.27913928 -0.08535467 -0.07327079 0.21772934 0.058107264 0.09567379 0.03910886 0.13076045 0.20186748 0.050240822 0.061116967 0.031067392 0.14853641 -0.023991594 0.005962209 -0.072025284 -0.21233371 0.1834508 -0.23628403 -0.19859724 -0.009327491 -0.09359407 0.055083986 0.10571223 -0.1285133 -0.4812602 0.049874112 0.08503825 -0.011758419 0.008398601 0.1688712 0.22972086 0.23141415 -0.042822428 -0.06546893 -0.041241337 0.30430773 -0.12566084 0.11935401 -0.059387457 -0.09176096 0.121851206 0.08991222 -0.07843865 0.010315342
419 0.10779625 -0.2914263 0.38269514 -0.12726438 -0.07461672 -0.2306264 -0.43495718 -0.21533811 -0.108443685 0.23721996 -0.19321734 -0.079720266 -0.34545133 -0.021872727 0.17367141 0.13505416 -0.08088879 0.056139704 0.029340565 0.14946477 -0.048894316 -0.02510406 -0.031506613 -0.18915118 -0.2965173 0.121590495 0.040462594 -0.018797448 -0.19539906 0.10519893 -0.02923071 0.0057552834 -0.29858837 0.1802115 0.12476426 0.08343247 0.19580112 -0.0648799 0.12583153 -0.3959888 -0.03551319 0.37769464 0.026693296 0.02060856 -0.1506254 0.15806176 0.09421717 -0.0512699 0.0632205 0.23493662 -0.007625535 0.22307734 -0.11557882 -0.04542457 -0.092702806 -0.05149167 0.11388046 0.17426449 0.21523714 0.159493 -0.0020214075 0.05883936 -0.020746484 -0.06686619 0.08755015 -0.03224435 -0.25823402 -0.20368294 0.04046323 0.020197202 0.087548755 -0.3139599 0.1512753 0.042155743 0.0014027474 0.13439785 -0.089346394 0.039463066 -0.10673759 -0.22063367 0.006897886 0.20347416 -0.09521829 -0.06268012 -0.09037081 -0.08358921 0.20457935 -0.06658677 0.09680342 0.049306925 0.21747518 -0.0150667345 -0.063197576 -0.06343569 -0.007918396 0.27109742 -0.107609235 0.05087286 -0.08482496 -0.14929438 0.16408141 -0.19390377 0.17076437 -0.03414571 -0.0138694085 0.1080601 0.011398938 0.14207253 0.03965355 0.28172874 -0.03650426 -0.28173092 0.04320896 -0.032473348 -0.046263844 0.4042012 -0.04209328 0.1818387 -0.16087471 -0.07036813 -0.35146216 -0.02436224 0.26543513 0.24971153 -0.16369493 0.05599636 -0.10249009 -0.03995725
44 0.26305485 0.05425366 0.17320229 0.12638322 -0.32074916 -0.037182137 -0.23934296 -0.15782557 0.07897374 0.07717468 -0.07413396 0.15160939 -0.51139736 -0.16616184 0.040460523 -0.08896002 0.014889492 0.115457624 -0.13532934 0.08330436 0.06263088 -0.022076285 -0.17648989 0.17504233 -0.11374433 0.15697567 -0.1715827 0.062140793 -0.25224245 0.2012918 -0.08142147 0.0628304 -0.3150736 0.09173206 0.059948593 -0.029405955 0.06486025 -0.020985764 0.117746145 -0.048234697 -0.14795734 0.22267796 0.2245174 0.102087475 -0.07959492 0.2572088 0.23084292 0.35547283 -0.21145523 -0.10599934 0.111924134 0.009195967 0.090061 0.021393912 -0.03098905 -0.06962339 0.0005249595 0.18062083 -0.059215233 -0.16725983 -0.048806887 0.073833354 -0.15227365 0.105723575 0.21645397 -0.082562864 -0.12879655 -0.14083675 0.21693638 0.24379325 -0.015544566 -0.13124105 -0.16118424 -0.20581776 -0.008785368 0.10331469 0.023369199 -0.039518505 -0.07618726 0.12019297 0.04976256 -0.03296203 -0.2311055 -0.29549554 -0.041935276 -0.11400213 0.1348018 -0.16832931 -0.06689582 -0.075372 0.16338784 0.0828632 0.023881458 -0.13951577 0.092437714 0.1368427 -0.023681825 0.015878882 -0.0477594 -0.13214779 -0.09642517 -0.028597372 -0.21176144 0.052760936 0.14158787 0.17484495 0.1411428 0.07430325 -0.259741 0.18954363 0.032996405 0.14588834 0.17082816 0.1253469 -0.06620326 0.10537766 -0.026174095 -0.42232373 0.036730696 0.05462303 -0.27443695 0.119745515 0.4662458 0.05994123 -0.14785232 -0.06894461 -0.04290982 0.3555545
169 0.06446675 -0.08119724 0.2512599 0.10145323 -0.182353 0.21871822 -0.29506028 -0.11433935 0.07027753 0.0089172665 0.034049094 0.18472624 -0.05565714 -0.10376184 0.028431412 -0.08716689 -0.22342668 -0.053578414 0.04209451 0.14344493 0.0662617 -0.07381675 0.1256715 -0.06502934 -0.19751649 0.14337207 -0.05831469 -0.15942387 -0.2515695 0.34467325 -0.092165664 0.0066796164 -0.09378562 -0.13591161 0.0480615 -0.06684219 0.047603488 -0.09598967 0.172094 -0.16794373 -0.048325393 0.23419638 -0.14941572 0.153076 -0.016995903 0.16143714 0.3021863 0.113985285 -0.13485017 0.2046159 -0.018784443 0.07089656 -0.016558103 0.20511256 -0.040176447 -0.1869994 0.02147811 -0.03227696 0.009185405 0.23521774 0.02608951 0.095457435 0.06942367 0.10089841 -0.053523302 -0.13150361 -0.3236213 0.15318573 0.02388508 -0.028014857 -0.08065001 -0.09830382 -0.084721744 -0.071535915 0.022688854 0.062565506 -0.13619183 -0.005372285 0.1540335 -0.08308536 -0.09826397 -0.16948712 -0.009523231 -0.022121865 -0.026488869 -0.072619945 0.33853123 0.051433876 0.061744306 0.043846417 0.07136692 0.110753484 -0.11978213 -0.19514526 -0.109921455 0.15174882 -0.20792691 -0.15098472 -0.058305062 -0.20029736 0.09453901 -0.04495927 0.14497516 -0.21034807 0.14762734 -0.02525964 0.28734255 0.18621112 -0.26348817 0.24903566 0.2584024 -0.040713962 0.05509172 0.03371751 -0.0026045 0.1305333 -0.055631116 -0.16310047 -0.24888958 0.0017271237 -0.08861866 0.007404068 0.26140088 0.23741877 0.0051226816 0.1342142 0.100576535 0.13954893
232 -0.12311811 -0.3302817 0.21409036 -0.080143146 -0.36679846 -0.16786437 -0.2290985 0.005530595 0.18715577 0.08471643 -0.07486947 -0.059533127 -0.23941012 0.03707513 0.33871853 0.0941297 0.09508102 -0.068982966 -0.05441551 0.15895137 -0.2750863 -0.15262417 -0.085907474 -0.07528302 -0.34183767 0.13934487 -0.033013638 -0.19738773 -0.29826123 0.08525772 -0.00059947337 0.003996647 -0.08723429 0.12415103 0.12794134 -0.078719504 -0.05805169 -0.018423028 0.06690431 -0.095045045 0.048804108 0.10355895 0.05572349 0.041006994 -0.18555681 -0.004029476 0.1478407 0.4004539 -0.00091831683 0.06609137 -0.021851111 -0.012981693 0.0056390045 0.30878502 0.04566768 0.20869929 -0.14470254 0.10964363 0.30952477 -0.13405414 0.057883102 0.00010025763 0.113389656 -0.096380405 -0.10522017 -0.08434259 0.104535006 -0.14925401 0.29695785 0.17676367 -0.22630873 -0.18516314 -0.14760575 0.0025159004 0.030947955 -0.067543805 0.02484466 0.10228197 0.0040112464 -0.048582483 -0.01689102 0.098704025 0.060546212 -0.04783599 -0.29623142 -0.049734615 0.33455706 -0.07103995 0.046972018 0.07758759 0.11111167 0.24215251 0.18737526 -0.16511609 -0.05978425 0.23817044 0.06277679 -0.12398216 0.15081596 -0.018692063 0.12752192 0.006292611 -0.04175077 0.40802956 0.09902791 0.067884676 -0.12999982 0.09748612 0.08221514 0.13776611 0.26089698 -0.078548245 -0.14888303 0.25423983 -0.021675486 0.22966969 -0.04906576 -0.36639622 0.21899636 0.0151354335 -0.2832265 0.17855561 0.33804315 0.13255389 0.11814583 -0.003411377 0.15026382 0.11473559
212 0.030199865 0.003983042 0.21271269 -0.14989041 -0.10625279 0.13636337 -0.27052703 -0.11136329 -0.15937172 0.13163295 -0.16166764 0.044971403 -0.076195315 -0.058220055 0.22713172 -0.05355547 -0.10444931 0.18857253 0.09542362 -0.08541763 0.10185122 -0.20670204 -0.0009609796 -0.23437908 0.04384071 0.28962526 -0.13206314 -0.23371494 -0.037198957 0.2663898 -0.05730851 0.2914116 -0.1682343 -0.0056813844 -0.048719324 -0.0038624099 0.017453484 -0.1556974 0.26667 -0.2919869 -0.16214776 0.2657558 0.04711742 -0.023313448 -0.26361984 0.2245913 0.20943373 -0.035295583 0.15142089 0.04952217 0.0811815 0.005414543 -0.083360955 0.07912673 -0.02292107 -0.15567072 -0.0012008243 0.061039403 0.21113262 0.06791544 0.12089492 0.095330454 -0.22288631 -0.060170572 0.14697644 0.06861762 -0.271906 -0.105366535 -0.09192965 -0.047044687 0.0076177223 -0.22181715 0.013023031 -0.13821848 -0.06432088 0.16428821 -0.07237247 0.050518762 0.0021910274 -0.09557607 0.11018723 -0.087756775 -0.06489717 0.047038134 -0.15878482 -0.10175309 0.18330874 0.143475 0.15199052 0.03636378 0.18251832 0.29818025 0.033679746 -0.17937021 -0.082509056 0.094687656 -0.11743392 -0.07276724 0.15364966 -0.1491079 0.2353769 -0.17036475 0.10365127 -0.1555267 -0.12250778 0.015860619 0.10865319 0.06530058 -0.021319404 0.14812066 -0.060209975 0.07423444 0.24855019 -0.18533222 0.23026279 0.23246196 0.12964055 -0.14103812 -0.15054454 0.029533233 -0.11641194 0.04272522 0.39257452 0.09227718 0.1002487 -0.10749346 -0.04487993 0.10689232
17 0.004157242 -0.050879423 0.16991028 0.0041350927 -0.15633051 -0.14704098 -0.19751993 -0.14959894 0.039212212 0.10242526 -0.032853812 0.1514893 0.0128986295 0.19612706 0.18085235 -0.26482862 -0.20787969 0.20816153 0.034102287 0.12186988 0.19874556 -0.11192262 0.039362207 -0.08807854 0.12356152 0.36782348 -0.017692946 -0.12299874 -0.009034769 0.0647833 -0.12634146 0.2374775 -0.18287948 -0.12564735 -0.07010642 -0.0023176991 -0.03346029 -0.16340256 0.28664485 -0.12078681 -0.05152191 0.3944968 0.052917458 -0.10271295 -0.14846006 0.19305506 0.25488403 0.12700765 0.31861934 0.017693304 -0.104932494 -0.029763142 0.13082534 0.13049792 -0.03611056 0.037746705 -0.13098994 0.20507196 0.05445323 -0.05676204 0.08891066 -0.09005374 0.07266922 0.019010967 0.084133126 0.09486482 -0.043778405 -0.0054475428 -0.03698243 0.04875473 -0.24366762 -0.13661544 0.24272671 -0.19903076 0.013104257 0.10052995 -0.03381152 -0.089276955 -0.00013884332 -0.060289714 0.11302333 -0.020014323 0.13987379 -0.111370884 -0.2375641 -0.11081372 0.0021425367 0.12829205 0.12934698 0.025595719 0.012993967 0.17685555 -0.12847939 -0.18226561 -0.089163385 0.08793169 -0.04270046 -0.04710596 0.20512426 -0.13008231 0.15438215 -0.09438764 0.16718951 -0.12145368 -0.04936581 -0.0812219 0.034441568 0.20226718 -0.25963882 -0.014913083 0.16209045 -0.14057913 0.021413641 0.17136672 0.11356152 0.26956248 -0.062393088 -0.20378363 -0.02068647 0.106313124 -0.22767068 0.24446791 0.35041317 0.29096335 -0.1838246 -0.21845224 -0.045912758 0.24419768
63 0.2269326 0.035170235 0.16661952 0.100999065 -0.18106377 0.13478565 -0.026172958 -0.21225744 -0.05185636 0.015187685 -0.10214086 0.09701597 0.06522461 -0.16445138 -0.054010946 -0.22444558 -0.18124476 0.14706203 0.019235635 -0.04408413 0.09219441 -0.13389237 0.05112825 -0.07462422 -0.05348871 0.16253196 0.017546946 0.07904433 -0.075725526 0.16501915 -0.20042098 0.013064138 -0.17762 -0.18516831 -0.10087589 0.15119456 -0.0022557639 -0.15649475 0.15270768 -0.0071797944 -0.06257173 0.15289845 0.28481743 0.040694766 -0.1400433 0.09214583 0.13960558 0.033455983 0.13671649 -0.0041132565 -0.05640289 -0.036985915 -0.055396426 0.16878103 0.0028307517 -0.17038578 0.032041177 0.11200591 0.048429705 0.03954639 -0.045669544 0.17766209 -0.0421003 0.061861414 0.34931237 0.083343156 -0.15532658 -0.10869417 0.041895017 -0.03191822 -0.010596112 -0.1199175 0.02301599 -0.07143568 0.2026805 0.11761737 -0.009450867 0.083671235 -0.07616293 -0.08499402 0.20656785 0.05654084 0.11313229 -0.13643327 -0.109596 -0.11054995 0.2931003 -0.12057575 0.038050853 0.21208519 0.12847371 0.38185182 -0.27647218 -0.12234941 -0.2270522 0.5060605 -0.15265898 -0.22028767 0.084277004 -0.033885267 0.15986471 0.25251082 0.09867458 0.060932454 0.0012855392 0.19437914 0.0031500424 0.07080083 -0.30665916 0.29813245 0.1442859 0.10969439 0.09169276 0.068217106 0.015232035 0.24713185 0.05149634 -0.015703898 0.047409046 0.03396396 -0.18652532 -0.008628244 0.26993278 -0.1412626 -0.13631317 -0.02537635 0.11456247 0.16903736
81 0.024610583 0.16388515 0.101019144 0.23561738 -0.07630459 0.012192618 -0.12302447 -0.06376527 0.10794621 -0.07202911 -0.1269039 0.06364647 -0.20004268 -0.12588955 0.11232208 0.0071536675 -0.11970853 0.16889256 0.07359963 0.18380408 -0.116988406 0.088304274 -0.04541744 0.028142251 -0.19576962 0.41327578 -0.07512409 -0.07914861 -0.1772312 0.12806006 -0.15566362 0.067575224 -0.3208499 0.1624994 0.06879103 -0.026544662 0.17245176 -0.13417964 0.33982491 -0.16813122 -0.10168598 0.20079279 0.31107882 -0.014703846 -0.17529209 0.20923461 0.21594556 0.006881635 0.023893036 0.08131796 0.098476484 -0.13487105 -0.079515256 0.04567747 -0.027109863 -0.021636678 -0.14753364 0.13352185 0.15865143 -0.099411026 0.15118165 0.27165562 -0.011768914 0.1862809 0.12646516 0.15046586 -0.35029483 0.016884226 0.18846257 -0.122990094 0.12047675 0.13972701 -0.07353414 -0.12714931 -0.0796877 0.15877907 -0.017305354 -0.10454918 -0.07521191 0.08262155 0.09584903 0.04834168 -0.01309259 -0.06785137 -0.09673248 -0.08725071 0.12998925 0.115938306 0.014579695 -0.085547835 0.056179952 0.2033304 -0.18453681 -0.017233122 -0.12534666 0.19252673 -0.11433547 -0.2619551 -0.059639826 0.10000652 0.2203506 -0.09401469 0.12873054 0.012499352 0.26997712 0.06247591 0.20249414 0.10985353 -0.32007143 0.27864382 0.23415877 0.061326604 0.23317726 0.0022873555 -0.04741284 0.41036898 -0.043516163 -0.13367614 -0.047471374 -0.028288428 -0.18401222 -0.13671431 0.30280194 0.13754655 -0.013558553 -0.0694083 0.0041788504 0.16486639
65 -0.06533169 -0.07082795 0.25788268 -0.012799565 -0.25026155 -0.26829678 0.028806133 -0.0005900301 0.2861485 0.08612906 -0.10823184 -0.03359494 -0.28505218 -0.13246648 -0.044150803 -0.022151545 0.036551267 -0.08178225 -0.025334457 0.013260084 0.05220473 -0.27067262 0.13085656 0.03337108 -0.18545625 -0.04050553 -0.10186047 -0.13117783 -0.13624172 0.15074748 -0.019644475 0.2414131 -0.17867337 -0.044971418 0.024543608 -0.21971627 0.11834338 0.08221604 0.091280915 0.008681005 0.03695305 0.2083119 0.14899985 0.2754086 -0.22211689 -0.00082811556 0.36268458 0.16986518 -0.24082845 -0.0201407 -0.17782752 -0.0065014255 0.08047951 0.24005352 0.15961404 -0.013522568 -0.07595799 0.11276651 0.114577144 -0.03505737 0.0370633 0.3010838 0.11345919 0.2935403 -0.20285262 -0.24334982 -0.10414208 -0.17327349 0.018591583 0.06633696 -0.006804832 -0.35323253 0.17706996 -0.35420623 -0.17950603 -0.23469222 0.2648349 0.17293146 0.13731569 -0.031931095 0.11809551 -0.016020892 0.038838685 -0.13317823 0.031004455 -0.22359064 0.2986066 0.0675777 -0.036580745 0.25850004 0.14453074 -0.09416147 0.07407952 -0.2910699 -0.19237475 -0.065865286 -0.006432993 -0.20909218 0.06271346 -0.12642193 0.03051204 -0.10168036 0.21816136 0.16721675 0.3807525 0.09680949 0.21769792 -0.044466563 -0.513415 -0.053035077 0.1474229 -0.203025 -0.096715726 0.2617892 -0.1211097 -0.070060775 -0.36673138 0.11275347 0.024793614 0.07468257 -0.58218664 0.13573363 0.055605393 -0.0531009 -0.014196018 0.10823721 0.5734623 0.3529534
409 0.2867178 0.07099929 0.18456216 0.008167989 0.047969677 0.16259876 -0.0022827939 -0.07991257 0.18828951 0.045843285 0.17916344 -0.025425907 0.1766131 -0.28668782 0.11576951 0.10337057 0.01840342 0.0076903566 0.06732349 -0.04512148 0.0676425 -0.24337219 0.030265087 0.09408972 -0.3708651 -0.06959177 0.15986583 -0.5033044 -0.16444756 0.10942546 -0.05067605 0.06331833 -0.30743018 0.16398944 0.11957791 -0.19617176 0.16842048 0.18384351 0.007288193 -0.24154851 0.088738285 0.1824257 0.060112927 0.20962848 0.098017514 0.14916916 0.37588885 -0.08884405 0.08474113 0.027987424 0.26274204 -0.11083488 0.0206115 0.12944755 0.05420555 0.041902028 0.09795928 -0.23499468 0.00043540617 0.15259159 -0.10476904 0.29497674 -0.10308063 0.36202857 -0.03813308 -0.11843894 -0.32516247 0.22367299 0.034421764 0.028362548 -0.18315165 -0.27092332 0.111832954 -0.20915987 -0.137672 -0.15295 0.02310746 0.16150391 -0.0101961205 -0.05196195 0.08062109 0.007884999 0.039968204 -0.12644233 0.039512455 -0.16181497 -0.038103316 0.31000087 0.020341154 0.124442734 0.2676606 -0.09941585 -0.035879664 -0.042811625 -0.23227333 0.3612514 -0.40076223 -0.29542518 0.037944376 0.02901929 0.22285962 -0.2927919 -0.26877138 -0.0872058 -0.03820615 0.05010573 0.13536786 0.17457606 -0.51275 0.50421345 0.14739676 0.025088986 -0.18561369 0.18559869 0.05126957 0.24889442 -0.2522989 -0.34106496 -0.11171048 0.2712685 -0.47976688 0.2999792 0.1274922 0.080766924 -0.020419795 0.20524102 -0.25346905 -0.045091387
252 0.050359618 -0.23226024 0.31424433 0.1944305 -0.20453805 0.028558476 -0.28043163 -0.2416325 -0.02630525 -0.12105046 -0.14111292 0.07735497 0.058118124 -0.008690748 0.25153607 -0.33672807 -0.08122638 0.0045454204 0.15265095 0.051970564 0.0963639 -0.23252045 0.09831393 0.024621738 -0.06613578 0.18125503 -0.0070761996 -0.05044498 0.044241056 0.12901936 -0.25210756 -0.09968802 -0.27358112 -0.14984702 0.06895885 0.15416777 0.0435364 0.031032035 0.33646542 -0.16206391 -0.0012293396 0.09878291 0.18299693 0.034605913 -0.1385173 0.058124326 0.1861627 -0.07887045 0.07196945 0.12942863 -0.15255132 0.10226066 -0.02559521 0.24029206 0.016708547 -0.19544455 0.12057079 0.22234453 0.14557181 0.16668901 0.14472984 0.054255165 0.0374381 0.075298555 0.28040075 -0.058719106 -0.11638656 -0.06873892 0.14441575 -0.0059493715 0.01885922 -0.1420073 0.11082486 0.12701343 0.022081308 -0.0075546945 -0.11020967 0.10850838 0.03932094 -0.08905649 0.10280903 0.10442489 -0.14671858 0.15713757 0.0035349238 -0.056793425 0.283703 -0.21280445 0.16946556 0.1333569 0.1726994 0.45181572 -0.2707427 -0.026611699 -0.3075096 0.28945583 0.03404571 -0.23278348 0.09773576 -0.16607669 0.21240118 0.0037590647 -0.00055722694 -0.0650433 -0.24107264 -0.009249736 -0.07340796 0.15842886 -0.017934257 0.23648337 0.07243219 0.10146216 0.2183345 0.06304862 0.03299517 0.287434 0.08582152 0.077330075 0.046754565 0.008891276 -0.105276525 0.18939324 0.11605754 -0.07692604 -0.15365395 -0.131281 -0.11423217 0.0050293407
58 0.10054433 -0.089057945 0.19599462 0.05592293 -0.18670742 0.0730887 -0.1399314 -0.2085575 -0.13667421 0.09183357 -0.09468967 0.042323243 0.020311065 -0.05976293 -0.08494696 -0.37135357 -0.1006641 0.060313467 0.19206157 -0.058846876 0.15613635 -0.11709989 0.024317212 0.0038355065 -0.019419875 0.19885854 -0.06254889 -0.057384383 -0.024405977 0.21413149 -0.21178828 -0.0015264148 -0.23523228 -0.18160467 -0.09178385 0.023872785 -0.06602214 -0.10739135 0.20279643 -0.085268274 -0.038900696 0.183336 0.24873 -0.09722349 -0.16678998 0.051379878 0.0751625 -0.061060447 0.13847029 -0.02084475 -0.079022795 -0.11648644 0.14822897 0.2022565 0.056038994 -0.17880401 0.02137588 0.2011823 0.20942494 0.09269067 0.3073732 0.059404355 0.008500924 0.090341575 0.17153063 0.09189377 -0.122765936 0.018252317 0.16325706 0.010682131 -0.02000555 -0.12586124 -0.017628351 -0.05687498 -0.032254424 0.10046771 -0.0919514 -0.03474395 0.17591675 -0.21228373 0.09100693 0.08300103 0.013548864 0.0846654 0.13350041 -0.084065296 0.070807055 -0.091947675 -0.011359636 0.10836592 0.1003245 0.38667384 -0.24607973 -0.18609595 -0.26799673 0.19477324 -0.09953592 -0.28994805 0.030709162 -0.28260207 0.14202082 -0.062251262 0.000926677 0.07028843 -0.24196963 0.13659237 -0.04180541 0.03914157 -0.14805403 0.21815221 0.103927925 -0.006163413 0.086443104 0.047709167 0.20635481 0.2706486 -0.011381276 -0.08089553 0.02614933 0.14841457 0.11682951 0.11097959 0.15222526 -0.13581404 -0.20196195 -0.21428484 0.015086495 0.34428442
155 0.25195 -0.09944803 0.26603982 0.17206582 -0.106179096 -0.00619736 -0.13508359 -0.40278313 -0.07196274 0.13565014 -0.24111666 0.013401743 -0.06273089 0.0995964 0.3769169 -0.13375196 -0.2530445 0.14476718 -0.12931694 -0.036026984 -0.03932444 -0.053073112 0.10981143 0.25753194 -0.12517045 0.39883497 -0.23713186 0.055128288 0.068121955 0.05589787 -0.040267844 0.22669195 -0.07656622 0.08325243 0.0802467 0.31526542 0.05496384 -0.3488407 0.33404943 -0.17834336 -0.099272065 0.1475313 0.2624493 -0.064488284 -0.16583838 -0.191089 0.20920429 0.22746362 0.070326306 -0.02633979 -0.1504327 0.3296975 -0.06849508 0.23236197 -0.21747808 -0.09979395 0.009962953 0.10285111 0.072851576 -0.000797374 0.06014956 0.0595794 0.20845108 0.2236985 -0.08308996 0.0070548276 -0.19205497 0.044818364 -0.030378427 -0.1583518 -0.082097 -0.12558442 -0.07182793 -0.1026432 -0.077266835 0.40321454 -0.059744038 -0.24280041 -0.23843436 -0.022294143 0.22048208 -0.09835182 0.17685394 -0.011104861 -0.015042116 -0.024810608 0.023973212 0.2799876 0.045467764 -0.117919914 0.052701596 0.3232745 -0.19646594 0.23558731 -0.15916817 0.17872429 -0.051344123 -0.14292824 0.022730447 0.09704793 0.32618263 0.13716136 0.10640432 0.1692132 0.11808103 0.09231519 0.29543343 0.17136556 -0.3203165 0.26821762 0.39378113 -0.0976043 -0.19895352 -0.16297992 -0.21867177 0.13271376 -0.045541856 0.29212502 0.035000246 0.13537356 -0.13832304 0.12652132 0.39142573 0.13985632 -0.082359575 -0.026637517 0.1117363 0.13292678
215 -0.15250254 0.12520312 0.15826651 -0.12312774 -0.11679517 -0.011670316 -0.190951 -0.44354364 0.15439884 -0.06720446 -0.034746356 -0.02150741 -0.023386989 0.010870654 0.16745721 -0.07270706 -0.18173245 -0.08517415 0.008526749 -0.1051055 0.050148405 -0.19933859 0.037845608 -0.020024069 -0.10308559 0.3453535 0.022064462 -0.31706366 -0.07076539 0.08899963 -0.2662292 0.27356052 -0.02422266 -0.02932952 0.049689095 0.011529536 0.11255909 -0.3661284 0.21078669 -0.08749925 -0.22698048 0.21832727 0.2495766 0.009787405 -0.04481367 0.13013095 0.19738343 0.07188994 0.26450735 -0.058897182 -0.23423944 -0.18426779 0.056806758 0.045074612 0.07088292 -0.03813528 -0.121547036 0.31172836 0.045603104 0.043105185 0.03869123 0.032819953 0.003378154 -0.09677843 -0.15338415 -0.03595862 -0.17898373 0.15264544 0.116561785 -0.0063098692 -0.07556561 -0.091426164 -0.00639749 -0.10481654 -0.1267763 0.07074834 -0.12466503 -0.062642954 0.121862054 -0.20660464 -0.04078464 -0.15577069 -0.06574847 -0.16780765 -0.059461053 -0.14063685 -0.22638035 0.0077350694 0.1744829 -0.01572649 0.038095124 0.12498437 -0.25211018 -0.05489579 0.12706052 -0.0485004 0.045528315 -0.050236065 -0.01876159 -0.044167154 0.24735239 -0.08276845 0.08130703 -0.18380705 -0.11769722 -0.061360575 0.25315967 0.17373931 -0.28630415 0.16946708 0.2560297 0.06180716 -0.20290227 0.10353543 0.06931765 0.3926312 0.06811685 -0.26653627 0.10459843 0.1887889 -0.04273671 0.20354033 0.17379302 0.16669922 0.04394971 -0.20346043 0.07054933 0.17617913
932 0.23018782 0.039855056 0.17095608 -0.18103854 -0.27535835 0.06332996 -0.29256612 -0.22687554 -0.2773453 0.2964925 -0.083136275 -0.001132802 -0.15812285 -0.08005721 0.051606756 -0.1260368 -0.1423021 0.22731684 0.21904996 0.062296405 0.08196967 -0.07281559 0.09293044 -0.13384755 0.0038091056 0.2541784 0.095778875 -0.20757043 -0.07020145 0.081654005 -0.17318283 0.19671886 -0.018451186 0.026695456 -0.12906593 0.03183088 -0.020691723 -0.18565778 0.22306128 -0.3664883 -0.12171303 0.39907148 0.20640627 -0.20531638 -0.15471336 0.06993242 0.2021706 0.1256679 0.13585448 -0.07123726 0.010451678 0.13853267 -0.06177581 0.036483597 -0.15755834 -0.056855164 0.1984053 0.100340426 0.15882574 0.13535124 0.11335907 0.078138985 -0.12489673 -0.15410931 0.35570556 0.017946325 -0.2359491 0.005411943 0.1041845 0.274313 -0.12079949 -0.3460969 0.071101904 -0.30080545 -0.00093983964 0.17767562 -0.124784335 -0.0852592 0.061697993 0.026480138 0.04903851 -0.16898203 0.060156595 -0.07672939 -0.21653914 0.07312168 -0.0035238308 0.021207491 0.022514977 0.09650149 0.101634756 0.07500482 -0.045732424 -0.040387634 0.043027967 0.13021743 0.044595536 -0.0016197453 -0.010744682 -0.18674925 0.23581876 -0.20614648 0.008888963 0.032667127 0.021805983 0.22314598 0.08298834 0.2615243 -0.04357098 0.3213139 -0.1597265 -0.026641201 0.29937688 0.036406524 0.20077708 0.25157878 -0.023627488 -0.22336458 -0.13929631 0.13427666 -0.210886 0.03132299 0.33118775 0.09971183 -0.13201052 -0.16824287 -0.10206204 0.1734336
303 -0.07265133 0.085332975 0.13773634 0.100767285 -0.150916 0.0065870234 -0.20134011 -0.18999045 -0.08164535 0.03590199 -0.044933274 0.10759048 -0.22267883 0.017197365 0.08506981 -0.22470495 -0.041201107 0.13541207 0.16299261 0.1191357 0.066260345 -0.14541163 0.07555551 0.07996636 -0.19305407 0.17826052 -0.11575674 -0.10029292 -0.09171102 0.14877917 -0.120891 -0.030375713 -0.17138776 -0.0989061 0.03915888 -0.012195107 0.05178782 -0.19811645 0.1616413 -0.08342621 -0.21618517 0.0961857 0.36303234 -0.1991266 -0.12298124 0.31059703 0.10785065 -0.20423928 -0.10989796 0.015090122 -0.14183806 -0.073306575 -0.041068166 0.28048533 0.1642413 -0.27945346 0.051818885 0.0073138257 0.02946305 0.18664235 0.028517522 0.10889601 -0.022592857 0.11962141 0.2026341 0.020297496 -0.27016369 -0.027299484 0.1139029 -0.16283338 0.1816291 -0.096270435 -0.029140692 0.040169504 0.02191118 0.07936543 -0.28077814 0.08333648 -0.010522637 -0.026101394 0.29516378 -0.041087896 -0.14324564 -0.014578475 -0.04058898 0.037249234 0.24520609 -0.20911327 0.018432498 0.09705244 0.11462214 0.46087602 -0.31192654 -0.16907729 -0.23195423 0.10256777 -0.104493804 -0.10529857 -0.042302098 -0.17030752 0.20293415 0.0406663 -0.00979069 -0.066666655 -0.16935703 0.2751164 0.00087218406 0.202161 -0.14884214 0.33141333 0.011561938 -0.06378339 0.23110078 0.010715814 -0.09098475 0.2940419 -0.09634814 0.025080927 0.0041341106 -0.08893854 -0.081724316 -0.042977918 0.2666063 0.16378841 0.03616586 -0.06273435 0.12133186 0.20743464
165 0.23660424 -0.23320834 0.28317666 0.047725044 -0.119424224 0.11049606 -0.3527486 -0.11084274 -0.22324476 -0.02635431 0.1329544 0.1922113 -0.16853856 -0.08052517 0.032124262 0.06532767 -0.23773047 -0.010141912 -0.0516026 0.19206524 0.12283432 -0.17055671 0.10772324 -0.18478136 -0.18188705 0.10673356 -0.24323338 -0.20195857 -0.29677144 0.20267043 -0.18965569 0.10697027 -0.14970326 -0.11577507 0.041883864 -0.03319933 0.035985097 -0.18998805 0.07989555 -0.16660222 -0.23962814 0.2809121 -0.27024812 -0.19844408 0.00928084 0.28326982 0.25486833 -0.07470922 -0.040999413 0.2470732 0.068161614 -0.11229785 0.08990794 0.08275111 -0.12528579 -0.18189773 -0.21250556 -0.053316876 0.25302985 0.10374725 0.064715385 0.14676817 -0.028073672 0.094412394 -0.051850203 -0.16792846 -0.26692322 0.14403413 0.08715207 -0.04584675 -0.12658218 -0.016507361 -0.07696136 0.012656838 -0.040204372 -0.088284865 -0.09774156 0.0012172775 -0.058018368 -0.022523517 0.008304385 -0.20287754 0.027001753 -0.13858393 -0.083940856 -0.067667246 0.25975916 0.062402293 -0.18466574 0.11487167 0.010999353 0.2106712 -0.009804769 -0.33484477 -0.30766252 0.013348065 -0.24275777 -0.14079027 0.10903779 -0.098927066 0.1067563 -0.059505988 0.06488556 -0.16672368 0.05106846 0.29063717 0.23522994 0.118785515 -0.17372794 0.22568321 0.25790182 -0.15279311 -0.14600085 -0.21258312 -0.100990415 0.11405964 0.005309946 -0.13821244 -0.08773278 0.028263023 -0.072814085 0.07530822 0.27320212 0.19766338 0.015423392 0.13341866 0.011976814 0.0874689
290 0.22992705 0.19050962 0.1790781 0.16849266 -0.27470246 0.07392491 -0.55788964 0.17487286 -0.12274051 -0.18555087 -0.0817516 -0.044167805 -0.28296036 -0.07862433 0.23996489 -0.04498729 -0.41533795 0.028074645 -0.2612646 0.115888 -0.19473481 -0.146112 -0.001420259 -0.0057960325 -0.1410191 0.118798256 -0.079547994 -0.08440571 -0.16846548 0.17000614 0.03660972 -0.11135388 -0.006176491 -0.04601507 -0.18657218 -0.34544912 0.13177009 -0.30118537 -0.024586936 0.0679491 0.03290073 0.32374063 -0.091339745 0.17799377 0.025240745 0.18204896 0.009751094 0.11927725 0.15777113 0.09859041 0.06182199 0.07605385 0.045280136 0.24540557 -0.20824976 -0.17827533 -0.06315042 0.14140148 0.31918484 0.13558002 -0.063613445 0.41477194 0.23389989 -0.074615166 0.09883681 -0.28738952 -0.25688592 -0.10138318 0.05838374 -0.02022082 -0.15745215 -0.15966822 0.088958085 -0.1949709 -0.15840717 -0.09490014 -0.33206654 0.13766934 0.09265869 0.11025486 0.03938658 -0.13200727 -0.116792396 -0.10978069 -0.060190354 -0.26270956 0.11347376 -0.069961205 -0.005011152 0.1001543 0.104079194 0.27951518 -0.11597019 -0.14868584 -0.15308008 0.27930027 0.25728074 -0.10481957 -0.0024868757 -0.25075734 0.01775854 -0.18819389 0.20041645 0.3230796 -0.10376064 0.08056967 0.1986136 0.38397264 -0.089979105 0.2901568 0.035806727 -0.14478832 -0.00839705 -0.008092767 -0.105296984 0.06957128 -0.19481848 -0.094807245 0.23803353 0.0034932054 -0.39734328 0.2063175 -0.035165887 0.19066101 0.06064183 0.13124396 0.14405283 -0.26569563
