1005 128
2 0.34776512 0.7843911 -0.120136485 0.26156825 -0.2693513 0.83953536 -0.5389617 0.5065073 0.018774295 -0.6356955 0.14776061 -0.016337415 0.23524548 0.14264356 0.48366576 0.2777135 0.15016483 0.09636559 0.61877227 0.17009154 -0.69641703 0.27524745 -0.1379869 0.37944415 -0.2415242 -0.30763406 -0.30117404 0.17695796 0.09718587 -0.030653756 -0.24935763 -0.1971025 0.5707563 0.119067706 -0.39889216 -0.9584731 0.6315972 -0.4414177 0.40362427 -0.18440172 0.32915872 -0.2723411 0.015110728 0.024188412 0.10918158 0.2275504 -0.6117984 0.19577143 -0.6716588 -0.96376103 -0.14402394 -0.20316562 0.6697671 0.54212064 -0.5333722 0.23673198 0.16469698 -0.5460869 -0.84609824 0.6100607 0.48851615 -0.20671901 0.40914103 -0.29075092 -0.48117945 0.090969 -0.055491224 -0.9714879 -0.37920964 -0.45853037 -0.23303308 0.05667927 -0.08527419 -0.29483604 0.054770112 -0.18674676 -1.0003921 -0.7609594 -0.25517893 0.05559365 -0.44364798 -0.09021743 -0.19435307 -0.50943446 1.022829 0.070090406 0.3932331 -0.18695958 -0.5087197 0.15696545 -0.5301688 0.5148157 0.09132289 -0.1437143 -0.17965092 -0.04178692 -0.19500521 -0.26540798 -0.10028952 -0.3514655 -0.33423918 -0.11552924 0.2818552 -0.3906354 0.1303974 0.1091122 -0.34821525 -0.29884428 -0.15668619 0.37256968 -0.7573289 0.28951687 -0.0075935666 0.219509 -0.38588864 0.015567922 -0.12376245 0.7725871 0.26336202 0.1192699 -0.29440448 0.5354737 0.16252182 0.4756834 0.3852151 0.231868 -0.038867436 0.47092417
5 -0.41124338 0.2776265 0.30045247 0.47681612 0.9958307 -0.51446617 -0.5714468 -0.26929668 0.51924044 -0.5313648 1.0925324 0.36844322 -1.0982516 0.5781356 0.3454255 -0.09493899 -0.5670311 -0.6809134 -0.44058573 -0.4014872 -0.114723586 0.65450054 0.11187176 0.010554989 0.53533626 -0.9294147 -0.56066173 0.12354554 -0.34591532 -0.055885203 -0.23260286 -0.24888393 0.11265286 -0.3905249 0.15664388 -0.34687138 0.297831 -0.09839389 -0.6936503 0.66594315 0.30078188 0.84297246 -0.7145003 0.14890012 -0.15165672 0.32748353 0.0033294747 0.39448178 -0.15339343 0.53963625 -0.50748235 0.5390339 0.112160146 -0.64597857 1.0153369 0.16951598 -0.08084206 -0.13840821 -0.041496236 -0.8945311 -0.34692124 0.24551345 0.24361725 -0.0072310036 -0.16794969 0.05925697 -0.63981426 -0.13224548 0.47347215 0.23438539 0.34013328 0.026633391 0.42195505 -0.50414693 0.5594591 -0.5111472 -0.20251685 -0.19699791 -0.65042377 -0.48602188 0.06527814 -0.23792823 -0.47751737 -0.36896303 -0.11801092 -0.34802568 0.774495 -0.05043212 -0.29754058 0.14925356 -0.2002048 -0.6571607 0.48314333 -0.19933516 0.21727987 -0.67785335 -0.55449283 0.21390258 0.08973242 0.39327276 -0.63048756 0.20868443 -0.07472925 0.39231828 -0.31806758 0.040566746 -0.53769904 -0.41643345 0.178469 -0.08997806 0.22588655 0.1140776 -0.51923996 -0.55871505 -0.9871026 0.32196474 -0.108011626 0.4614443 0.935757 0.3148168 -0.22884175 -0.31551677 -0.14286815 -0.46205854 -0.09814534 -0.30748463 -0.035771757 -0.68754834
0 -0.43819672 0.7479532 0.24638627 -0.39304677 0.25186563 -0.17158568 -0.5703324 -0.01739232 0.82552385 0.43123597 0.7570243 0.22246192 -0.53459084 0.38285276 0.33096004 0.18578415 -0.020240037 -0.70606875 -0.093791604 -0.69575113 -0.22844364 0.33609468 0.1525543 0.03234942 0.5082702 -0.76767045 0.27811757 0.29181352 0.10363515 -0.31729525 0.2909921 0.404402 -0.23984088 -0.26873398 0.09503368 -0.5111698 -0.5769627 -0.29935437 0.64975303 0.08129387 -0.4016672 0.19913855 -0.2634594 0.5637023 -0.09252334 0.7371985 0.016074508 0.070932776 -0.036253806 0.30235618 0.13864246 0.7001274 -0.25705615 0.043994386 0.9652929 0.43997008 0.4142075 0.116296045 -0.45537364 0.27924457 0.085329205 -0.44935173 0.3953833 0.11315731 -0.30510747 -0.043271765 0.20992316 0.014760315 -0.277416 0.43610364 0.18155247 0.43320233 0.53199136 -0.13398649 0.6270342 -0.15808992 0.027090777 0.36138135 -0.43537846 -0.07290328 -0.23967789 -0.02137482 0.070395574 -0.5108665 -0.09442942 -0.096572965 -0.20762585 -0.65351063 0.033433042 -0.18139851 -0.08196398 -0.33501348 0.42301163 0.30113658 -0.00079035724 -0.43778494 -0.3564109 0.36789164 -0.18534835 -0.037670616 -0.5366685 -0.30504736 -0.05079189 0.591494 -0.23224866 -0.040959395 -0.45994627 -0.2846881 -0.06735839 -0.23326916 -0.16718708 -0.2844805 0.10560227 0.26843283 -0.1259007 -0.13404734 -0.37178102 -0.23538758 0.0429448 0.3197405 -0.11642815 -0.29133454 -0.4932255 0.7064259 0.07107846 -0.8368304 -0.13674001 -0.6657731
13 0.07679855 0.9663697 -0.04835859 -0.018409496 -0.6299408 0.6885478 -0.31733868 0.17191426 -0.06630923 0.031815663 -0.30722314 -0.3845831 0.5423215 -0.10851798 -0.0026635858 0.15279391 -0.41177127 0.30912274 -0.29300258 0.014048344 -0.65177333 0.35085624 -0.030027024 -0.7379962 -0.8599863 0.20010301 -0.33382258 0.037310287 0.32377842 -0.26459888 -0.16386114 -0.7644679 0.56621504 -0.67011374 -0.54706395 -0.47045714 0.5532823 0.05860765 -0.27900863 0.1856088 0.15814163 -0.17473593 -0.05848402 0.44527102 0.44292364 0.078455664 -0.15648878 -0.17909336 -0.427697 -0.37070376 -1.4100977 0.43896204 -0.23315656 0.945064 -0.95280796 0.76449674 -0.0953202 -0.18148303 -0.52318364 0.55787617 0.66972727 0.80377793 -0.34735292 -0.29245895 -0.11665121 -0.1828512 -0.8376746 -0.1791402 0.4127777 -0.41384515 -0.0560199 -0.17885597 0.4444668 0.12712638 -0.63814414 -0.56766015 -0.5963439 0.085451484 0.43606034 -0.008444159 0.24045524 -0.32809708 -0.3524527 -0.729485 0.2700989 -0.23965469 0.11744035 -0.8398895 -0.31427872 0.8046889 -0.5481809 0.4130544 -0.4325286 0.013034449 0.054398153 -0.65325207 0.88017505 -0.5827029 -0.60536647 -1.0053556 0.0052708355 -0.28161028 0.27522078 0.39528427 0.25163552 0.17258961 -0.6533939 -0.21304017 -0.02761953 -0.8014055 0.040430546 -0.09326033 -0.43571767 0.64566356 -0.8555446 -0.03611075 -0.875197 0.681571 0.25924072 -0.3132939 0.31595013 0.76180446 0.019847175 0.3434706 0.56103605 0.08322911 0.5621002 -0.0896724
7 -0.20927545 -0.24412784 0.27474397 0.25330296 0.32464242 0.11696041 0.21794759 -0.014936133 1.4091872 -0.55172807 0.529666 0.8002331 -1.2558424 -0.043484036 0.76235884 0.59448755 -0.968999 -0.43359524 -0.43380123 -0.47727478 -0.3753716 1.1729578 -0.11263339 0.36038136 0.36873057 -0.28718853 -0.46633646 0.08256848 -0.021061176 0.26249072 0.30081597 -0.24524875 -0.061594494 -0.529033 -0.5510235 -0.5855173 0.02069323 0.43531764 -0.023775918 1.0869771 0.4390307 0.7033917 0.20937389 0.3398356 -0.3525211 0.74123025 -0.08037329 0.17915936 0.83291435 0.0073417556 -0.3187162 0.60612845 -0.22560601 -0.12427107 0.16008817 0.6114515 -0.506076 -0.1732738 -0.11050263 -0.32440296 0.45808768 0.27470157 0.5235128 0.2135654 -0.099456355 0.212854 -0.25654918 -0.64970684 0.39775112 -0.33941466 -0.12174408 0.026174296 -0.014137878 -0.89575577 0.35103747 -0.5563325 -0.32872275 -0.16874023 -0.54508716 0.09067354 -0.46171644 0.73868966 -1.0751806 -0.063040026 0.24641295 -0.2018841 -0.58442706 0.19239387 -0.31310773 0.36571285 0.2563027 0.29342052 0.22230248 -0.1421595 -0.64299744 -0.5821044 0.37315196 -0.38278592 -0.28448328 -0.36676553 -0.6016083 -0.39864522 -0.11046851 0.30139086 -0.19955723 -0.22017434 -0.3185982 -0.10408907 -0.058434635 -1.0136727 -0.284289 -0.3575535 0.13055792 -0.19748326 0.142816 -0.2533018 -0.13870469 0.019288812 0.21529624 -0.16192672 -0.59511465 0.35931584 0.5444633 0.121140204 -0.36100507 -0.560131 -0.30228192 0.024559082
6 0.45438322 1.0496155 -0.78533304 -0.15626228 0.048214152 0.2212131 -1.0157566 0.5118089 0.9345033 0.51320976 0.72688854 0.38363475 -0.33462763 0.8487376 -0.23559055 0.48252845 0.20273775 -0.6795235 0.16364221 0.089533 -1.1196355 0.39813638 0.7239045 -0.86275876 1.1872315 -0.048586987 -0.5213802 0.559268 0.5005866 -0.6532368 0.74140173 -0.33966038 0.33941096 0.050892666 -0.45587644 -0.2940417 0.048920795 0.21100524 -0.3155763 0.7316672 -0.31822994 0.9694125 -0.25945386 0.49252763 -0.39457083 0.30621603 -0.9148163 0.27043402 0.52118164 0.12022464 -0.17513451 -0.41847172 -0.042127322 0.42733103 -0.11676891 0.26697716 -0.057698816 0.2642599 0.32168823 0.00933274 0.3579114 0.43488488 0.16661403 -0.5222474 -0.37285188 0.36495215 0.06941686 -0.59940934 -0.15206781 0.11244545 0.14594844 0.8260925 0.18371129 0.51122135 0.78077877 0.25987393 -0.23178853 0.47145912 0.10594673 0.58212495 -0.8999414 0.39908323 0.12228668 0.26436368 0.7769883 0.18112762 0.0055662333 -0.23677354 0.13713281 -0.052902684 -1.0607649 0.35910574 0.81782526 0.6887161 -0.5937161 -0.041941278 0.24027678 0.2625751 -0.19300115 -0.69427675 -0.11211893 -0.31151146 -0.26956367 0.12934414 -0.2023505 0.082762875 0.007827099 0.252307 0.41227144 -0.86115754 -0.32268265 -0.6286641 0.55204684 -0.12214278 0.5330614 0.2753758 0.0037146758 0.2235016 -0.40029874 0.34766737 -0.36266336 -0.26875138 -0.09595806 0.4639525 0.23412766 -0.4918416 0.30282548 -0.23506546
1 -0.34688032 0.2552816 0.13079354 -0.4233814 0.072592966 0.03867836 0.053652886 0.45595935 0.42974773 0.083903894 -0.15258436 -0.021939898 -0.010541625 0.009520605 -0.03176497 0.5692041 -0.51721615 -0.33589268 0.15755965 -0.4062741 -0.5352638 -0.18901074 0.64725363 -0.3156304 0.5450239 -0.6446791 -0.09553978 0.47957176 0.32910302 -0.95823497 0.24422568 -0.67792606 0.37975973 -0.29664007 0.031112919 -0.5876961 -0.0063967714 -0.25697508 0.6247073 -0.23106521 -0.5129484 0.24620174 -0.09540936 0.8471924 -0.670165 0.79956806 -0.07836931 0.6231054 0.08663727 -0.005495654 0.479112 1.2690823 -0.45043114 0.07011754 0.8277825 0.44228345 0.50362504 0.07680268 -0.9504469 0.8931046 0.50098413 -0.19131693 0.8509684 0.014786267 -0.25262156 0.56334436 -0.2093754 0.65518427 -0.2911135 -0.17232595 -0.33730328 -0.16048165 0.37837827 -0.083753765 -0.5420712 0.24451749 -0.76160604 0.43111485 -0.22133842 0.40852588 -0.14523587 -0.6161599 0.26616526 -0.7094272 0.4305194 -0.67703396 -0.7857966 -0.6800865 -0.03845446 -0.009054923 0.3449541 -0.39348474 0.608619 0.52597564 -0.72701615 -0.2702084 -0.4438397 -0.14752585 -0.5709344 0.039594084 -0.80263 -0.72056985 0.012462149 0.06138476 -0.14757946 0.27299726 -0.50504065 0.42905414 -0.21608783 -0.26168168 0.52316654 -0.40870535 0.5415136 0.706621 -0.17051415 0.17670545 -0.42529842 0.20333736 -0.036303792 0.68270224 -0.8053173 0.14469653 -0.15271154 1.0368813 0.6696989 -0.67855686 -0.31334713 -0.41448876
160 0.05757073 0.52040184 -0.09640082 1.0038381 0.53769666 -0.032553095 -0.04210815 0.7494867 -0.28740734 -0.30821604 0.63983786 -0.17050397 -0.1517301 1.1912917 0.2697418 0.21811467 -0.25345358 -0.3301509 -0.35573503 0.24152888 -0.30425188 0.6118499 0.86443263 -0.406651 0.26178947 0.109276235 0.088181905 0.381371 0.5037808 0.46943876 0.35892436 -0.9019473 0.6367573 -0.52404207 -0.70555794 0.7999028 0.62935853 -0.009888531 -0.0628055 1.1437956 -0.21506453 0.4982266 0.14118238 0.29631513 0.65140784 0.9915535 -0.6028267 0.7510685 0.067976154 -0.8922132 0.021528967 -0.008350478 0.09220466 0.5555466 0.28380612 0.5426659 0.46583205 -0.65564525 -0.39654756 -0.042879034 0.061842028 0.29148996 0.930155 -0.11342291 -0.55911803 0.48184547 -0.504349 -0.80542594 0.07410091 -0.6215191 -0.4587242 -0.045675445 0.66588265 -0.41515952 0.5523592 0.21015792 0.039888877 0.8986305 0.03360286 0.47558835 -0.80395734 0.28057787 -0.06608017 0.39053124 0.7799919 -0.005694529 -0.47378662 0.11931233 0.17099525 0.019564793 -0.68731964 0.22597852 -0.17999509 0.7011198 -0.25834173 -0.25832346 -0.2621663 -0.07988005 -0.5541842 0.6599717 -0.4389745 -0.055277973 0.7890685 -0.26650834 -0.62004644 0.6794175 -0.4787228 0.08892386 -0.088588394 -0.7633711 -0.79529136 0.065093115 0.41083166 -0.11125043 -0.00555337 0.32102567 -0.96320146 -0.34705395 0.37350315 1.2302312 -0.5695882 -0.28794008 0.004403575 0.8525673 0.7255082 -0.7849261 -0.29118267 -0.5310556
4 0.30569944 1.6033801 -0.81722456 0.5441015 0.123199224 -0.040955644 -0.70739955 0.89917266 0.7245792 -0.53126484 0.7509438 -0.2081978 -0.12936537 0.79180706 0.011274015 -0.14204349 -0.50193214 -1.0734307 0.020148179 -0.2943308 -0.37438565 -0.33603585 0.09557998 0.16605349 0.7177512 -1.0263988 -0.42670935 0.38987488 1.2330192 0.033524286 0.48333827 -0.6198939 0.44984505 0.055176944 -0.35470426 0.13125914 1.0642303 0.10456106 -0.46139896 1.0398294 0.74704975 0.13911127 -0.71982193 0.18422626 0.27416012 0.53907794 -0.75426835 -0.4290213 -0.3753089 -0.5820368 0.37837526 -0.50489163 0.2757318 0.089679964 -0.18201159 -0.057138555 -0.028854473 -0.17453744 0.37041295 -0.0039518946 0.03369823 0.43830717 0.8272504 -0.2752136 0.4536694 0.8183888 -0.35240752 0.29951206 0.39616078 -0.649601 -0.7268261 0.25715786 0.07743499 0.025343373 0.22465773 0.20265089 -0.7749962 0.22978365 -0.40899238 0.70602393 -0.6013913 0.53848064 -0.2691434 -0.6857816 0.8652713 -0.06270908 -0.4083279 -0.19720796 -0.15831488 0.45249224 -0.8353045 0.18008673 0.10813787 0.57487315 -0.3844066 0.19314495 -0.20969366 -0.0994413 -1.1000521 -0.16455755 -0.29527092 -0.41213518 -0.1810674 0.14097364 -0.40321296 -0.6220156 0.082548246 -0.6916215 -0.5758936 0.13424842 0.43177527 -0.75469613 -0.08026115 0.23611626 0.57578343 0.8976929 -0.36494437 0.39223075 0.11636496 0.15482569 0.09243504 0.09646767 0.049048536 0.5411751 -0.21697176 -0.58252144 0.5735181 0.033597283
14 -0.19154826 -0.09345451 0.39295474 0.24115278 0.7668137 -0.25588498 -0.3824889 0.34259054 0.8891636 -0.64994913 0.34234202 0.17715128 -0.59880906 -0.014786691 0.36785853 0.87792695 -0.76346016 -0.62526596 -0.036379155 -0.6745217 -0.05811403 1.5531616 0.23716405 -0.04539287 -0.16424558 0.20377707 -0.31887773 0.3254644 0.0014884177 -0.49582428 -0.0037468832 -0.39536497 0.26988974 -0.47627693 -0.8408089 -0.9046081 0.88014126 -0.061287552 0.13363159 0.70910573 0.05538466 0.5026176 -0.04330382 0.9058347 -0.050743148 0.18365794 -0.8330802 0.5064192 0.25300565 0.09903322 -0.8020578 0.4930267 -0.08448743 1.0412062 -0.3244009 0.61178684 -0.53644013 0.27543193 -0.6023697 -0.42717227 0.2709293 0.4150163 1.0998371 -0.7459339 -0.2827982 0.8131176 -0.8884442 -0.66951 0.37526926 -0.07438901 -0.10901893 -0.48251447 0.47210965 -0.0030175638 0.6923316 0.3287538 -0.15482561 -0.013520045 -0.4217655 -0.10648156 -0.1375972 -0.37525985 -0.2986068 0.094407946 0.48477456 0.15377383 -0.3399624 0.124539554 0.49659434 0.4627352 -0.40110332 -0.021788763 0.593789 0.29982534 -0.470961 0.00073323527 0.4597881 -0.3709542 0.2604556 -0.45160267 0.2868305 0.11474882 0.99318105 0.81530887 -0.34390742 0.66344464 -0.39455822 -0.4624027 0.009374992 -0.64181894 -0.44712302 -0.78321487 0.30504498 0.43889964 0.33993798 -1.0237806 -0.37381428 0.61240643 -0.05470848 0.07898733 -0.7639129 -0.03726199 -0.33505645 0.5181769 0.10795306 -0.63281167 -0.84132844 -0.23523715
62 0.7725023 0.6626177 -0.6735082 1.0484638 0.4628574 0.18423098 0.34335136 -0.3439921 -0.01388815 -0.72326213 0.43587434 0.31757057 -0.572303 0.5709048 0.2047326 0.26442468 -0.2688401 0.4162954 -0.0810592 -0.051139325 -0.74703705 0.72229433 0.34818324 0.12995175 0.06827757 -0.6619461 0.07971436 0.038506497 0.45680282 -0.97047836 -0.4990913 -0.53298444 0.64496374 -0.23827963 0.4575381 -0.24554953 0.57606727 -0.70162004 0.6187611 0.27883068 0.46622896 0.26467642 -0.023481555 0.55849475 0.09206469 -0.6514321 -0.4149682 0.14151333 -0.36439192 -0.85461 -0.038262434 0.5723581 -0.038521703 0.23896344 0.5175617 0.62861574 0.26301026 -0.46481684 -0.066616304 0.6416008 0.11617193 0.42275643 0.38475668 -0.6621658 -0.21053147 0.07683642 -0.06781045 -0.22405651 -0.33621368 0.17462775 0.095628604 0.2013434 0.13978952 -0.757071 0.1480564 -0.21804363 -0.82922065 -0.32542083 0.24872835 0.27834934 -0.109310105 0.17072532 0.31622353 -0.28255522 0.92861587 0.24996737 0.21734752 -0.28639805 -0.11764929 0.46425617 -0.09943369 -0.17424406 -0.43431628 0.46330392 -0.41856998 -0.07894021 0.23542204 0.5188819 0.37808526 -0.6128436 -0.38570118 -0.23321992 -0.122060955 0.31241623 -0.20231047 0.26046348 -1.1470295 -0.32786584 0.7350495 -0.11354519 -0.63864774 -0.16313045 0.59952974 0.33701932 -0.028203461 -0.41318896 -0.17857999 -0.07465948 0.31601033 0.25941154 -0.39897016 0.4810805 0.15618859 0.42711073 0.9106318 -0.16053036 -0.3038466 -0.5014666
11 -0.7714918 -0.07460847 0.32328957 0.26719454 0.81262904 0.5503368 -0.8144715 -0.038961343 0.23720528 -0.73978347 0.5386604 0.394799 0.054982994 0.9688654 0.41363573 -0.1637032 -0.12127165 -0.7071315 0.451751 -0.65566623 -0.27899736 -0.35073063 0.26251578 -0.40120864 -0.069447584 -0.75172836 -0.76180786 0.27793032 0.22620751 -0.43330792 0.61601704 -0.47532716 0.8282736 -0.54356104 0.19387464 -0.24523538 0.3610574 -0.06737257 -0.14946647 0.57370526 0.88468575 0.7959964 -0.6150853 0.2094225 -0.6469712 0.87392634 -0.564137 0.5545333 0.04076921 -0.33321333 -0.15294665 -0.14160524 0.32451516 -0.3530739 0.2724976 -0.0902131 -0.054074485 0.21309812 -0.43489552 0.93373376 -0.03183888 -0.15528175 0.6349909 0.16933239 -0.37092316 0.38454127 -0.5431759 -0.5019048 0.5288553 -0.96290004 0.08975759 0.05592767 -0.25728136 -0.13155845 0.29506615 0.14996499 -0.12178159 -0.8127219 -0.7808695 -0.28140745 0.6548261 0.26338425 -0.6878221 -0.1783125 0.47625816 0.07552056 0.5197515 -0.5938105 -0.72462416 0.5383671 -0.6911729 -1.1614248 0.07764097 0.25517404 -0.22184223 -0.82448286 0.44608778 -0.37992382 -1.1646584 0.28412795 0.24372411 -0.1118752 -0.25503957 -0.18342529 -0.05779224 -0.3572739 0.0050533973 -0.63863385 0.20049915 -0.56156427 -0.4174471 0.22709654 -0.6684757 0.40267396 -0.65168834 -0.119285315 -0.40759 0.9963465 0.19190565 0.4626915 0.09052238 0.34181616 0.588228 -0.3379348 0.49317297 0.061314486 0.17288505 -0.28977606
121 -0.07048728 0.37882787 -0.16626076 0.38272718 0.018794945 0.16548079 -0.18019626 0.211248 0.2777247 -0.27885973 0.25984678 0.11149424 -0.1027701 0.33694243 -0.039785486 0.08499858 -0.4299339 -0.27412918 0.30163336 -0.33674747 -0.36607766 0.28614315 0.6129963 -0.21535204 0.17005539 -0.37326387 -0.18428662 0.28263056 0.4427034 -0.524161 0.119224355 -0.054584827 0.27822438 -0.3984063 -0.21593206 -0.29091132 0.22924778 -0.23973927 0.08316037 0.29100007 0.08930432 0.43937972 -0.38742182 0.37647247 -0.025073227 0.35148725 -0.36839858 -0.032638654 0.21632652 -0.47880983 -0.17847864 0.23559135 -0.21330622 0.17372444 0.11250225 0.4313467 -0.26449656 -0.07948453 -0.45493037 0.34509158 0.17240705 0.063680716 0.43152088 -0.15646401 -0.20321868 0.2788273 -0.30314875 -0.27152994 -0.14397752 -0.13380834 0.12951483 0.09827762 0.44472408 -0.16265145 0.0130764935 -0.34462124 -0.29008475 -0.18812968 0.15677893 0.2371029 -0.07253268 0.251935 -0.051016077 -0.13940783 0.10306149 -0.18281667 -0.27980813 -0.0521092 -0.2284096 0.17066023 -0.46434534 0.019153304 0.17882614 0.22333215 -0.1651708 -0.42478848 0.17508848 -0.1324263 -0.41649666 0.050940376 -0.34299535 -0.21277024 0.21020791 0.22139554 0.08135547 0.04761839 -0.3461968 -0.08330892 -0.029731032 -0.14288138 -0.2709802 -0.3335406 0.13736354 0.3048926 -0.56502354 -0.0010192241 -0.38009274 0.21554966 -0.20883219 0.45152518 -0.60690343 0.62106156 -0.0733799 0.40012214 0.16118048 -0.38498476 0.11491524 -0.15226492
84 -0.042225275 0.5894736 -0.053003486 0.65753806 0.32005677 0.5261042 -0.37890807 0.31334198 0.562772 0.16048218 0.4606161 0.3701042 0.024267266 0.8508758 -0.19570206 0.34428787 -0.27962914 -0.26373562 0.14526804 0.020623561 -1.536456 -0.55657434 0.95377356 -0.4323893 0.64657545 -1.0738147 -0.7781777 0.38171577 0.78511053 -0.87694234 0.21025488 -0.3995878 0.39069304 -0.34367353 0.27611297 0.078365654 0.22551662 -0.04383793 0.14343813 0.3144057 -3.7125792e-05 0.49304414 -0.5493035 0.41779205 -0.6148172 0.8506483 -0.5351207 0.669932 -0.26350322 -0.54208744 0.6535362 0.25377926 -0.62021625 -0.3842676 0.94297785 0.3127089 0.29616094 0.7571736 -0.3362767 1.0081064 0.11678197 0.033866674 0.29810664 0.17259878 -0.33707497 0.2616596 -0.7204143 -0.010932559 -0.22750646 -0.43625367 -0.56837857 0.06814593 -0.010332495 0.051220715 -0.1849448 -0.16533045 -0.5067893 0.29299745 -0.22496812 0.35966924 -0.32599026 0.0033582146 0.09923828 -0.23165531 0.4875997 -0.5102836 -0.67082936 -0.58956146 -0.1996676 0.06354675 -0.8641899 -0.31453958 0.18646502 0.64049697 -1.0981786 0.12824316 -0.55263823 -0.019568551 -0.9418336 0.289594 0.07622441 -0.40752953 -0.32979494 -0.57222104 -0.5099985 0.24791078 -1.0247911 0.18280518 0.32159343 0.33904618 -0.14585035 -0.16784932 0.6359446 0.18889454 -0.108053625 0.86514187 -0.30286214 0.08389709 -0.394813 0.8605827 -0.498367 0.7664463 -0.47229856 0.7968008 0.7141741 -0.7539419 0.3079216 -0.41884813
82 0.117430344 0.3238723 0.14444543 0.03951012 -0.6775969 0.23400927 -0.10496115 -0.15087658 0.6226649 -0.14285605 0.15038994 0.17850406 0.017633319 0.34463274 -0.11259991 0.10095157 -0.79405016 -0.14854021 0.07093489 -0.45526248 -0.14381136 -0.025894595 0.79949236 -0.25911438 -0.3844339 -0.88644564 0.307576 0.31382647 0.11277237 -0.94758594 0.55305403 -0.40687805 0.40928596 -0.9021806 -0.19117834 -0.30474663 0.19929552 0.5568132 0.49166965 0.1622638 0.24027519 0.26471978 -0.37722337 0.18926483 0.32948995 0.3152475 -0.09813296 0.7212652 -0.21969838 -0.3266994 0.19214478 0.5781399 -0.73471475 -0.2027265 0.9200406 -0.11893219 0.34054792 0.18639502 -0.37315404 0.76440346 0.2071926 -0.480875 1.1489844 -0.17174226 -0.11573444 0.45843855 -0.06607666 -0.092102244 -0.24411622 -0.64748174 -0.50880575 -0.3744353 0.81622547 -0.05590112 -0.1252405 -0.1486251 -0.90855855 -0.13460621 0.06315013 -0.09169443 -0.33970463 0.27558324 0.05639725 0.32098156 -0.05938505 -0.07402079 -0.55805135 -0.7200078 0.2484226 0.09455314 -0.25992775 -0.07007776 0.3979414 0.5871216 0.042678885 -0.44033208 0.10353006 -0.50406057 -1.1011928 -0.35417345 0.21660492 -0.36082733 0.7338536 0.49798557 -0.07173759 -0.020133719 -0.18630436 -0.22914061 0.06114293 -0.4635135 -0.1883948 -0.41435403 0.9222472 0.8364142 0.15347491 -0.69211155 -1.0495907 -0.0090805525 0.22656599 0.59618783 -0.82262236 0.7925824 0.2839792 0.7255361 0.8332069 -0.74477255 0.047842696 -0.4182103
377 0.15545452 0.8351817 -0.8752674 0.66722137 0.3360638 0.1893386 -0.094881885 0.75773597 -0.85511357 -0.55002713 0.7318549 -0.45610082 -0.67549056 1.4469993 -0.11300962 -0.032102 -0.46275014 -0.5633671 -0.13895173 -0.48978078 -1.1555746 0.3710175 0.35722128 -0.63266736 0.06902825 0.06348632 0.2917201 -0.36894143 0.5858795 -0.11168161 -0.17229514 0.007644732 0.9706295 0.03579011 0.1181002 -0.38072094 0.3556625 -0.2925479 0.031245526 0.72948945 0.18940133 0.4490592 -0.04732572 0.6736998 0.35665157 0.9224667 -0.48123282 0.11813219 0.19749188 -0.2605133 -0.47280633 -0.28753746 0.09060881 -0.13296436 0.9068779 0.5461019 0.52411395 -1.0622711 -0.076633826 -0.1535832 -0.030101499 0.15527737 0.19151436 -0.98606414 0.11071938 -0.29499975 -0.4572936 -1.3203273 0.121672615 0.11993168 0.06252718 0.50299317 0.5357545 -0.20188855 0.5739494 0.24243888 -0.053958308 0.49508005 -0.9191185 -0.3994852 -0.99413335 -0.30156922 -0.04770859 -0.40483394 0.8747739 0.48766497 -0.15653294 0.2557811 -0.71417046 0.37617838 -0.5844561 -0.49944687 0.31703866 0.51964825 0.25879014 -0.7164783 -0.1625346 -0.10846286 -0.6666032 -0.47564992 0.19068843 0.11029905 0.015855309 0.1311438 -0.23027255 -0.19737329 -0.65657866 0.34272835 0.63172466 -0.71783155 -0.8459033 -0.7246577 0.2834445 0.26842383 -0.26550934 0.384112 -0.690174 0.69604355 0.4060735 0.39195606 0.1715776 -0.032137055 -0.072118856 0.6928729 0.86394894 0.1271054 -0.51355815 -0.35172105
107 -0.00050956395 0.29348227 -0.10479953 0.27590284 0.20046496 0.22611114 -0.35699883 0.23686361 0.3840283 -0.37842163 0.18267636 0.06519861 0.030644497 0.31800392 0.26429322 0.1642793 -0.39706916 -0.09335126 0.09972817 -0.22236682 -0.45581928 0.2146519 0.42754623 -0.19093734 0.008199208 -0.34796834 -0.50868547 0.19592178 0.20017283 -0.30799615 0.18484068 -0.23643237 0.3255386 -0.27501345 -0.25169787 -0.16740377 0.32258904 -0.34702748 -0.046110842 0.2295107 0.14085446 0.040384013 -0.21740124 0.24447213 -0.14547253 0.22979048 -0.34367472 0.23813218 0.0657609 -0.32084954 0.15261519 0.25290346 -0.012343967 0.2712582 0.13576402 0.24477495 -0.24972525 -0.08360508 -0.2267443 0.31088018 0.39659822 0.25135297 0.5811237 -0.19150944 -0.30446547 0.4786948 -0.31070986 -0.051447872 0.10115525 -0.1770328 -0.11031373 0.09997761 0.5273963 -0.28433892 0.05884928 -0.35713518 -0.121376224 0.06658317 -0.09162069 0.42157206 0.05016797 0.028202321 -0.11767449 -0.12709554 0.37916005 -0.027858157 -0.18685661 -0.27406123 -0.31724617 0.24627309 -0.29192576 0.17999464 0.13336831 0.1544248 -0.39972723 0.04250006 0.053364597 -0.08352431 -0.46848583 0.003245565 -0.4559949 -0.31765395 0.43518588 0.21465614 -0.037226625 0.07090319 -0.33845404 0.014065164 0.007442164 -0.12604882 -0.2977813 -0.09369202 0.19305205 0.04419739 -0.3077765 -0.12267119 -0.44890273 0.21178438 -0.013007438 0.23318484 -0.45136008 0.38439378 0.033459943 0.45514584 0.23780747 -0.11323522 -0.056618 -0.20230839
20 0.26180702 0.163583 -0.28042474 0.6910445 0.51733583 0.08210105 0.21751258 0.3887243 0.21220376 -0.2720058 -0.02335002 0.08696489 -0.23855117 0.57318944 -0.007868637 0.44878775 -0.7087533 -0.15917757 0.055103317 -0.85301787 0.40052798 0.896977 0.98378134 -0.6546446 0.09199935 0.1866751 0.50424564 0.38947195 0.15108398 -0.3395072 -0.36806872 -0.18360773 -0.29289255 -0.73535603 0.6559277 -0.009529085 0.5328009 -0.54081196 -0.8683575 0.08041135 -0.2543733 0.71096486 -0.08571856 0.9520822 0.27250195 0.9311486 -0.6999399 0.21719305 0.45890898 -1.003143 -0.32421136 -0.18955374 0.019482862 0.44812772 -0.17301233 0.7832681 0.3047764 -0.42307007 -0.70965266 0.14716089 -0.0037412094 0.7955889 0.788544 -0.3875738 -0.05706641 0.6493696 -0.21138436 -0.47527197 0.05673506 0.19431767 -0.15745634 0.15964709 0.30231026 -0.09133645 0.43563694 0.47000858 0.07180209 0.062035367 -0.043283653 0.8547711 -0.017546538 0.555243 -0.043963 0.5393735 0.06745007 0.19682027 -0.50345224 0.36776507 -0.5750582 0.65494007 -0.6287098 -0.39144155 0.27144548 0.38413352 0.35751402 0.018169327 0.67013645 0.047062725 -0.30563766 0.53226376 0.31826496 -0.24910301 -0.28301993 1.0239156 -0.41044748 -0.26613986 -0.89762515 0.096298695 0.58606833 -0.578369 -0.528953 -0.11271741 -0.14188808 0.13054363 -0.5411859 -0.3334931 -0.3582789 0.10897275 -0.25299206 0.9169752 -0.7683184 0.49770734 0.100189805 0.5578809 0.6824358 -0.45764858 0.041362796 -0.2932635
17 -0.23947933 0.9106626 0.4197336 0.120548636 0.034446742 0.23315528 -0.28474683 -0.42767492 0.71043915 0.38096073 0.6845771 0.24748445 0.32943738 1.1221478 0.2522237 0.055126384 0.17661831 -0.81187654 0.028645823 -0.11911234 -0.5183895 -0.31637847 0.52187514 -0.6080053 0.93919265 -0.7586288 -0.50636333 0.6011218 0.79629767 0.52375203 0.6599858 -0.26880485 0.8053796 -0.41890422 -0.76925486 -0.027400374 -0.43388265 0.59156716 1.1085491 0.57162464 0.1942594 -0.25505105 -0.89543587 0.23871395 0.028266022 0.33075577 -0.5333701 0.73202914 0.16195281 -0.13000916 0.029911783 0.30529913 0.015167912 0.3671054 0.86544234 0.4750161 -0.26615942 -0.2016861 0.35278487 0.4439534 0.42328915 0.1813968 0.8048516 -0.090820596 -0.0553892 0.4988396 -0.47301245 -0.74497885 0.2741134 -0.25241575 0.17830238 0.055133045 0.7309785 -0.5877731 0.7244625 -0.44650456 -0.6851796 -0.03217326 -0.17121257 -0.2973449 -0.8051203 -0.14146233 -0.24524811 0.05832289 0.17707802 -0.45197776 0.055471327 -1.2540821 0.4794487 0.066419974 -0.84328 -0.04269724 -0.3408108 0.55863595 -0.68250364 -0.8991852 0.19707464 0.749836 -0.9310995 -0.14298305 -0.121073835 0.10410349 0.9037138 0.03082607 -0.23051046 0.24282683 0.033962145 -0.26575795 -0.14537047 -0.04787711 -0.1655874 0.1529136 0.3100107 0.9249148 0.29794574 0.22482781 -1.0268549 0.12819253 0.34767422 0.6086739 0.46832973 0.030721877 -0.006376246 0.6821712 0.37352926 -0.8763022 0.38118097 -0.48216808
64 -0.33255312 1.0244129 -0.3046083 0.76568824 0.47023347 -0.23195158 0.4254173 1.1657013 0.6004956 -0.8190072 0.8451662 -0.6221627 -0.22096688 0.421266 0.5286903 -0.43101075 -0.28940523 -0.790377 -0.33690056 -0.51846623 -0.0835967 0.3997968 0.5207795 -0.37504494 0.43625793 -0.6598838 0.08207668 0.50314736 0.9840248 -0.45476258 -0.073542506 -0.014289647 0.74914885 -0.9686198 -0.1404872 -0.3479894 0.49423236 -0.56187713 0.020127743 0.8821231 0.06424414 -0.045015868 -0.59189725 0.42436954 -0.14623722 0.8543784 0.27250063 -0.5980811 -0.059295315 0.02777325 -0.39477113 0.34665793 -0.9547896 0.4630437 0.8611958 0.5413154 -1.0853183 -0.57864386 0.08058481 0.029644372 0.21198726 0.8013363 -0.31064907 -0.033349324 0.36518937 0.32737437 -1.0283043 0.05924334 0.3307594 0.6836815 0.08066621 0.7656983 0.94064325 -0.6367986 0.5178428 -0.73535323 0.0066248206 0.8382318 0.4311249 -0.22673795 -0.44979417 0.34015822 -0.1794286 0.07197676 0.056320276 0.36932725 -0.4653447 -0.6431879 -0.24840944 0.41807964 -0.8015841 0.10193548 0.066667885 0.18132967 0.39792678 -0.38630685 0.09738624 0.2215243 -0.71653974 -0.26744276 -0.27892274 -0.21051185 -0.02635289 0.19116698 0.047701634 0.0025846474 0.058006793 0.2884448 0.6599657 -0.18539052 -0.45527393 -0.62268335 0.66965294 0.018155158 -0.5384601 -0.6253667 -0.78105533 0.29569477 0.16421561 0.5750147 -0.4490498 0.61625135 -0.48238525 0.8855692 -0.116283536 -1.0069977 0.34887475 -0.43304476
60 1.018627 0.9382445 -0.8950112 0.50007296 -0.56184036 0.6785827 -0.11724242 0.9356123 -0.06407544 -0.19117428 -0.20188771 -0.29902902 -0.5534745 0.9310945 0.28482196 0.49865073 -0.6844849 -0.3158494 -0.85345227 -0.5727213 -1.1904222 -0.39999107 0.60192865 -0.4959645 -0.020071197 -0.35009715 -0.13039143 0.64926475 1.3732632 0.49954596 0.15570302 -0.6246614 1.0543517 -0.30333224 -0.21986711 0.45838526 0.786609 0.07531889 0.19055542 0.8459621 -0.1066664 0.8005043 -0.3543614 0.22042005 0.24857835 0.54742765 -0.68971175 0.2905571 0.054447465 -0.21100214 0.21104473 -0.09169748 0.39004394 -0.058729198 0.56388754 0.6431698 0.036649287 -0.3910327 0.0025264316 0.5039618 0.51751125 0.26205617 0.5367107 -0.82839966 0.29671407 0.36927256 -0.16938779 0.4320292 0.23802872 0.42974538 -0.5531251 0.20782377 0.46704808 0.13176991 0.53361505 0.1956695 -0.96387833 0.98358977 -0.10781525 0.8145091 -0.08390846 0.28527683 -0.3736881 -0.5014512 0.85569024 0.45811415 -0.8724674 -0.38807288 -1.032968 0.049633894 -0.22433904 0.09209092 -0.333737 0.04571179 -0.3923706 -0.23748755 0.89057404 -0.078062735 -0.66494083 0.15513769 -0.281554 -0.51226896 0.24185471 0.37479135 -0.03774174 -0.37913945 -0.9110673 -0.08066407 0.63372904 -0.7766042 0.1423924 -0.8360252 -0.015508428 0.04528734 0.10804874 0.08419512 -0.97218347 0.24958417 -0.07398184 -0.15941568 -0.8414355 0.37294093 0.32372168 0.42502284 0.67954564 -0.509674 0.24631996 -0.39798337
86 0.7560745 0.5491888 -0.23095351 0.89639086 -0.05655666 0.2225476 -0.19025433 -0.07003986 0.368156 -0.34273797 0.30252078 0.26316962 0.24524575 0.774589 0.7352443 0.32201818 -0.05952269 0.0627764 -0.36390287 -0.11101948 -0.56869096 0.07090543 0.60861903 -1.1644582 0.093681015 -0.4601962 -0.8115629 -0.12814273 0.27035588 -0.14086789 0.3409396 -0.85320044 0.3773061 -0.59116507 -0.06406754 0.41398686 0.93116343 -0.81620085 -0.007473612 1.2044282 0.60384977 0.31460786 -0.01296447 0.9065126 -0.39801034 0.670585 -0.71597844 -0.046343315 -0.06348503 -1.3067116 0.7398035 0.21538816 0.46963108 -0.16272208 0.46234602 0.7853713 0.7470335 -0.040462766 0.18783608 -0.089220434 -0.0903005 0.8679437 0.98431975 0.13369793 -0.32125002 0.38521412 -0.5043899 0.04294986 -0.18683755 0.6812122 0.28373703 0.74436134 0.5935189 -0.8999842 0.052599423 -0.081847146 -1.2458084 0.3738406 0.050766174 0.7745276 -0.4208664 0.067356415 0.63448167 0.025765292 1.0190171 -0.56167907 -0.30904377 -1.0286111 -0.47063333 -0.25752217 -0.14663333 -0.018044546 0.35255274 0.6503021 -0.8045697 0.02012366 0.40730447 0.49974838 -0.31971803 -0.31328392 -0.32056713 -0.984453 -0.19326073 0.6461892 -0.2976562 0.14672254 -0.5657875 0.31422418 0.25942633 -0.44717455 -0.56080365 -0.19872841 0.58622634 0.37037882 -0.072970815 0.4545717 -0.5862037 0.013220987 -0.03080866 0.4841973 0.04172803 0.06755088 0.33124897 0.82572716 0.44438177 -0.2900636 0.4481383 -0.660684
65 -0.47237226 0.8622733 -0.7334129 0.388566 0.6745392 -0.17846867 0.13682172 0.7075313 -0.122857936 -0.7903517 0.53905046 -0.20789696 -0.112832256 1.0034263 -0.268616 0.3893928 -0.011265413 -0.16123693 0.29005638 0.21738823 -1.1227841 -0.13608386 1.1778578 -0.40561572 1.3063706 -0.4124746 -0.5719711 0.66553277 0.8668278 -0.08716699 1.0721644 -0.39276326 0.67539686 -0.57870746 -0.49445066 -0.09494006 0.32774383 -0.06542527 -0.3565212 0.98456806 0.1153376 1.1331428 0.2603463 -0.016170206 -0.05014343 0.47354692 -0.37092027 0.36691728 0.47813866 -0.32581216 -0.042992577 -0.0134644 -0.19162671 -0.37619367 0.8236373 0.52102214 0.050281078 -0.22201185 0.12780938 0.21785061 -0.5245992 0.42126277 0.6315265 0.06766424 0.14134821 0.77400064 -0.39879367 0.17067881 0.15889174 -0.19652392 -0.20664203 0.5077452 0.3698027 0.34105837 0.10389427 0.08007391 0.27474493 0.4130801 -0.41304624 0.9663852 -0.20089848 0.7548514 -0.7391519 -0.10589814 0.88989735 0.3811286 -0.20210522 -0.24955826 -0.35134944 0.17992808 -1.1161895 -0.42991313 0.15788326 0.26808435 -0.077083685 -1.1636665 -0.0470202 -0.06347938 -0.9581323 -0.12817915 -0.46170425 -0.744267 -0.3060354 0.08028525 -0.09084202 -0.43618265 -0.33541146 -0.4909219 -0.44066286 -0.10672836 -0.1600441 -0.74139285 -0.17003356 0.72571737 -0.31407917 0.52023435 -0.44603732 0.6113165 0.81079334 1.0462815 -0.26146606 0.3901836 0.63107723 0.054451447 0.7511992 -0.29679534 0.1512666 -1.1583346
211 0.057668306 0.3959167 -0.4755921 0.47857866 0.696882 0.06965883 0.44412214 -0.5222489 1.0395687 -0.15168634 0.4023436 0.24457707 -0.58678794 0.34113368 0.25652194 0.6918121 -0.09226927 -0.7227378 -0.63833547 -0.22320706 -1.0648065 0.14984554 1.0538334 0.095965125 0.8790581 -0.56035364 -0.8179016 0.31325805 0.07480677 -0.8665745 0.031662144 -0.8222331 0.08292175 -1.0699807 0.097146176 -1.1681231 0.42278126 -0.6905243 0.9078107 0.22588521 0.5914537 0.60560423 -0.5547241 1.4957964 -0.23556116 0.4334213 -0.8905816 0.70204175 -0.03890271 0.1404269 -0.45242447 0.34912822 -0.2740618 0.0153269805 0.624961 0.45744357 -0.13376096 -0.41504696 0.7700644 -0.155039 -0.10749083 0.6064398 0.58590686 -0.2211146 -0.10876792 0.24825421 -0.8278449 -0.9885578 0.3931447 1.0207325 0.18839017 0.859819 -0.055893447 0.12534423 0.12768345 -0.43707234 -0.7356424 0.5295709 -0.30612236 0.15177128 -0.48287478 0.66801256 -0.25089225 -0.40991467 0.7057123 -0.43646556 -0.8216007 -0.3211708 -0.8207132 0.58988404 -0.29082325 0.49896222 0.5209186 0.437793 -0.80555797 -0.65232325 0.3791702 0.47021222 0.027454343 -0.2150731 0.020418147 -0.8665314 -0.28315678 0.45229384 -0.46609676 0.010681013 -0.7173246 0.5086833 0.2104017 0.021926558 -0.6923005 -0.57356393 0.11901463 0.56683964 0.31592888 -0.13074988 -0.11731424 0.054140165 0.33958563 0.75780797 -0.2101405 0.00060447183 0.31063983 0.474989 0.27458757 -0.58244246 0.061544836 -0.18315062
12 -0.2813187 0.25863767 0.43773445 -0.08800164 0.42025027 -0.07378453 -0.7127431 -0.35467988 0.8554747 -0.0068635414 0.63499403 0.5636 -0.7634431 -0.020682164 0.5442913 0.5294747 -1.4059155 -0.76219475 0.20207725 -1.2513106 0.17812154 1.616387 -0.18227121 -0.23112606 -0.33157265 -0.26072845 0.02811174 0.3434054 0.053345475 -0.4261163 0.29968736 -0.18877263 -0.1412778 -0.4824973 -0.8564973 -0.5780856 0.50565994 0.55585194 0.19913489 0.86878335 0.29412487 0.73594636 -0.028206516 0.9884529 -0.117733486 0.9413238 -0.40378076 0.47671404 -0.3316945 0.19398448 -0.7668805 0.88450253 0.15930489 0.65068483 -0.39605826 0.2584837 -0.3464616 0.24963447 -0.37336364 -0.29339728 0.48232248 0.33018762 0.7965288 -0.36312854 -0.55192477 0.93377525 -0.34562883 -0.8440244 0.92776823 -0.27138144 0.10569008 0.064187706 0.20601834 -0.0751277 0.6921951 0.28920776 -0.34305725 0.20046538 -0.5702217 0.043389473 -0.43585834 0.14174694 -0.6737004 -0.10706819 -0.14198557 0.15566196 -0.0315316 -0.24331647 0.19891787 0.24729158 -0.3921279 0.27233142 0.5182777 0.32657793 -0.10992874 -0.4187274 0.51386565 -0.6360735 0.004154832 -0.5334594 -0.25021288 -0.106145866 0.55968475 0.6987388 -0.44809198 -0.32477656 -0.095117934 -0.68167245 -0.01922191 -1.4175241 -0.36465144 -0.63034725 0.026112696 0.5175768 0.33324736 -0.50555855 -1.0326846 0.79159063 -0.16733992 -0.030422037 -0.7800325 -0.18644576 0.12548207 0.64033985 -0.07753986 -0.8848701 -0.8004595 0.11071934
15 0.31337032 0.43351322 0.24498698 0.5994501 0.18721598 0.6370517 -0.014276814 0.15270303 0.15125704 -0.69437695 0.31732008 -0.3200962 0.019556466 0.081555456 0.16542938 -0.01394095 -1.530166 -0.54223204 -0.0037338529 -0.34362373 -0.37491366 0.46956226 0.13599129 0.09056537 -0.79858094 -0.53677124 -0.12442387 0.19426864 0.67832685 -0.37153825 -0.6571779 -0.41718057 0.8083056 -0.58399826 -0.63041526 0.28583774 0.40670213 0.21582548 0.2632123 0.26883966 0.2548216 -0.12093744 -0.16787916 0.5639315 0.24195784 -0.17266227 -0.20940366 0.4045887 -0.74285895 0.058961254 -0.21740833 0.8023509 -0.4947295 0.5304172 -0.3389306 -0.14793059 -0.53924745 -0.967538 -0.08183519 0.5835517 1.272104 1.36498 -0.15086336 -0.31008586 -0.20224641 0.4606499 -0.8938187 -0.24759516 0.43072128 -0.6317994 0.2134543 -0.28391805 0.45550635 -1.0864543 0.02024849 -0.58026093 -0.7641219 0.24343726 0.09804185 0.26300526 -0.036627337 -0.6464692 -0.4345499 -0.33981353 0.3378182 0.044612695 0.453799 -0.81077033 -0.49064568 0.8882181 -0.41374922 0.20614766 -0.43405694 -0.2725178 -0.53325963 -0.009803329 0.06669186 -0.14852059 -0.45926905 -0.12344324 -0.48413217 -0.26433948 0.0375119 0.04422446 0.18119247 0.2527045 -0.419679 -0.15340215 0.27469373 -1.0064625 0.43826315 0.42955005 0.50192404 -0.0485974 -0.7527334 -0.7208667 -0.7084435 0.6075688 -0.2739421 0.63002324 -0.6881697 0.46538752 0.5379893 0.6644947 0.20188037 0.15064362 0.06912127 -0.4094756
3 -0.9226468 0.22055674 0.20930764 0.5143575 0.6380349 0.30955163 -0.30733243 0.7811186 0.09604064 -0.85245913 1.1032765 -0.16424033 -0.18553343 0.41234902 0.5413516 -0.5925814 -0.10716526 -0.44416666 0.098665014 -0.0026689526 -1.325635 0.61054754 0.043995515 0.41614032 -0.31025344 -0.390555 -0.28052005 0.42713588 1.2121063 -0.3741468 -0.2333945 -0.2652003 0.94511837 0.15755549 -0.36899453 -0.37316856 0.91515034 -0.512979 0.5841061 0.9591074 0.018835459 -0.3646256 -0.5085011 0.88925946 -0.50118977 0.36191148 -0.10086618 0.14865187 -0.27324024 -0.19532074 -0.05173086 0.53621835 -0.17308925 0.25458774 -0.26911062 0.7191387 -0.9472763 -0.67552394 -0.83916897 0.86755705 0.39006224 0.026243336 0.6985081 -0.09001292 -0.7885637 -0.16316217 -0.60583025 -0.21797727 0.074335665 -0.6204575 -0.29194182 -0.3748926 0.3181756 -1.0505717 0.6901186 -0.45245984 -0.41934243 -0.62150204 0.3847006 -0.26768 -0.002161076 -0.13085642 -0.17091517 -0.23995727 0.3482987 -0.06692529 -0.16419655 -0.06615358 -0.23527308 0.4237667 -0.83221906 0.4767732 0.026630884 0.0032080295 -0.8919152 -0.32046238 -0.6582579 0.25108248 -0.264158 -0.01629256 -1.407817 -0.14343937 0.81992865 -0.65508866 0.117071316 0.56034636 -0.4960505 -0.41111806 0.06997868 0.049506214 -0.78787446 0.019913098 0.3214275 0.2775806 -1.3461764 -0.4521255 -0.79403794 0.423061 0.20042841 0.46893486 -0.99754184 0.40901318 -0.10694138 0.21455081 -0.048888158 -0.46790767 -0.5193967 -0.41016883
166 -0.18403411 0.34735054 -0.015336178 0.26765776 0.14010128 0.23323706 -0.4328022 0.29195192 0.47940505 -0.43476012 0.42146078 0.07844768 -0.0961535 0.3438831 0.17472073 0.13591357 -0.50334567 -0.42109424 0.14762169 -0.39701864 -0.4046636 0.38880977 0.32180285 -0.20944391 0.08622048 -0.4905261 -0.2506978 0.2954308 0.31039658 -0.50340855 0.0418093 -0.1609807 0.40391967 -0.38921562 -0.34432504 -0.39008617 0.3118252 -0.22524048 0.07069875 0.37449533 0.15177931 0.28194612 -0.34074974 0.52269334 -0.12396258 0.38147548 -0.41172388 0.2785245 0.024914581 -0.27320275 -0.17697538 0.39971387 -0.07283255 0.35443303 0.15072402 0.47221828 -0.11764389 -0.08219664 -0.47137344 0.31905133 0.35227373 0.15043683 0.508531 -0.13714126 -0.3482581 0.3729628 -0.27490622 -0.2650721 0.01899169 -0.18260464 -0.11035008 0.0076303747 0.56459206 -0.35941947 0.14663145 -0.3356669 -0.37541068 -0.11313486 -0.18684588 0.11257927 -0.16625167 -0.017264217 -0.12158593 -0.2602314 0.42704993 -0.14630648 -0.23630898 -0.25721067 -0.20339485 0.3427221 -0.48737678 -0.07013042 0.24847344 0.21299556 -0.2832698 -0.23967877 -0.034361225 -0.29658377 -0.38286123 -0.111058146 -0.4032112 -0.26593682 0.2926819 0.272386 -0.056982238 0.035638317 -0.41355935 -0.07899653 0.01349229 -0.37284657 -0.38503918 -0.29257974 0.25493205 0.26370263 -0.40027365 -0.28958878 -0.44417953 0.37586161 0.028776236 0.411691 -0.52349615 0.4988582 -0.055933144 0.46920565 0.24881783 -0.36327282 -0.12005127 -0.26806125
21 -0.7914284 0.6215662 -0.13528244 -0.48132583 0.14995496 -0.26772627 -0.5282159 0.3684544 0.41318172 -0.11995392 0.62717634 -0.15541272 -0.067671455 0.25667447 0.34818655 0.24882582 -0.23493817 -0.4199019 0.3206785 -0.47144958 -0.5163499 -0.09296043 0.8468487 -0.5384037 0.3166081 -0.49055836 -0.00491363 0.10871061 0.70339924 -0.65399516 0.41407183 -0.32298058 0.5976929 -0.008551428 0.18106747 -0.3606543 0.2158475 0.2452803 0.19025172 0.7206146 -0.96808374 0.52717704 -1.0761719 0.11328739 -0.5727846 1.2483997 -0.10927889 0.52016485 0.85170156 -0.43593237 0.41338834 0.651316 -0.04057532 -0.43811086 0.760797 0.5500577 -0.07971119 -0.45530596 -1.0789298 1.0766222 0.16516216 -0.18759528 1.0080603 -0.088800244 0.4766642 -0.2517323 -0.11919539 -0.14075641 -0.14518796 -0.072764136 0.12574597 -0.2082005 0.6135782 0.059483495 0.65229166 -0.13278766 -0.7801115 -0.22952211 -0.10682852 0.44607267 -0.36861867 -0.3335794 -0.08976593 -0.46047992 -0.034485545 -0.104363374 -1.1989855 -0.81322813 0.25186583 -0.2768449 -0.28103343 -0.112768896 -0.07838737 0.6578028 -0.41518793 -0.50672174 -0.89710665 0.32110614 -0.7060075 -0.32820508 -0.7035533 -0.8673667 -0.35307115 0.33964708 -0.23479743 -0.035232134 -0.28947353 -0.20054623 -0.17426236 -0.7572396 -0.32895485 -0.11851762 0.074038245 0.66705644 -0.70978874 0.515552 -0.7376328 0.2995462 0.16510129 1.0153456 -0.6489615 0.68868625 -0.06314583 -0.03541646 1.1174864 -0.20771684 -0.20717914 -0.9432245
411 0.52921426 0.87911767 -0.30493885 0.32658467 0.6677555 1.106557 -0.70782256 0.04107903 0.5362587 -0.66105294 0.6198069 0.17561023 -0.88886535 0.556264 0.84030783 -0.054298956 -0.54190725 -0.7790379 0.015652977 -0.3126607 -1.0917103 0.88046074 -0.58425564 -0.16209742 0.29600176 -0.23214158 -0.6350979 0.7764126 0.47769713 0.55967784 -0.41711867 -0.4766302 0.39643854 -0.36899364 -0.1437202 -0.38160396 0.79104614 -0.28286657 -0.23318541 0.6039674 0.50379336 0.12731917 -0.45651612 0.41063303 0.19213909 -0.018023226 -1.1880345 0.44316608 -0.98094535 -0.37753114 -0.3694938 0.2423196 0.7402829 0.27742276 0.1452427 0.8819777 -0.77243763 -0.12411572 -0.29019624 -0.03090767 0.13035195 0.48920292 0.13567305 -0.9651522 -0.21422152 0.32484323 -0.52327967 -0.70610166 0.76430553 0.42327845 0.06267703 0.47873953 -0.2523165 -0.20641886 0.15820782 -0.43456882 -0.5156182 0.64599293 -0.41219288 0.5770091 -0.59023404 0.6577108 -0.8605561 0.21892424 0.78402126 0.37579083 0.69081604 -0.075206585 -1.1580014 0.83682156 -1.4396558 -0.10127017 -0.0010476095 -0.5445705 -0.17505975 -0.18450129 -0.008615314 0.09588 -0.24802177 -0.6988632 0.18116482 -0.51296306 0.5205041 0.022622058 -0.3311944 -0.46477464 -0.5793852 -0.64753276 0.85309714 0.13592069 -0.2179595 0.21065831 -0.51303494 -0.91735053 -0.6391873 0.20103234 -0.70095074 0.19692962 0.7032196 0.16470256 -0.692241 0.15075004 -0.21233891 0.06931434 0.29304442 -0.47285557 0.07440366 0.385826
106 -0.10484626 0.3974041 0.23676142 0.32265002 -0.09742532 -0.15633716 -0.28184685 0.5813096 0.82023144 -0.98773044 0.5815425 0.5892173 -0.8601413 0.9730284 0.49766603 0.2280273 0.048014928 -0.39542422 0.022510195 -0.71588075 -1.1191946 0.43728125 0.4194806 -0.27688998 0.4341218 -0.3108552 -0.86222494 0.46334103 0.3670388 -0.460226 -0.10493537 0.05125967 0.2349317 -0.12090838 -0.23700091 -0.34274918 0.7353016 -0.53023976 0.19253445 1.2578455 0.39733812 0.532223 -0.58394355 0.5971427 -0.09006565 0.7537617 -0.67622936 -0.42152768 0.32216862 -0.66362184 -0.044614807 0.19031757 -0.14860009 0.18860395 0.043918855 0.63215667 -0.070357226 0.3838982 -0.8633374 -0.12091502 -0.12835914 0.25727305 0.7587636 0.054153405 -0.26973587 1.0489995 -0.1676251 0.047092963 -0.20044857 0.31617647 -0.2734455 0.2681681 0.51083106 0.24651799 0.66499966 0.26709726 -0.28587574 0.04917254 0.2625793 0.6764066 -0.55142385 0.99376416 0.28344938 -0.4205234 -0.23676823 -0.2474713 -1.3576078 -0.0017454072 0.4812882 -0.059612263 -1.2061003 0.42427993 0.82406116 0.20215689 -0.4922583 0.022197047 0.38704863 0.29932505 -0.26811853 -0.1787988 -0.40988412 -0.092629425 0.52258825 0.47994685 0.08904135 0.44181338 -0.53736615 -0.25847733 -0.03402758 0.05072134 -0.8714226 -0.7612205 0.13181624 0.23590189 -0.19779088 0.5298056 -0.54305696 -0.11019899 -0.36030254 0.58916754 -0.91458064 0.28236836 -0.27989295 -0.13598874 0.0061946586 -1.2465444 -0.2630079 -0.29840982
129 -0.19831276 0.20755772 0.7645546 1.1920555 1.1599694 -0.07572601 -0.1882421 0.37172353 0.25134337 -0.6970333 1.4760045 -0.4323897 -0.23430789 0.8529552 0.22322243 0.14178506 -0.037361547 -0.80817205 -0.023099488 -0.25760186 -0.16245769 0.53375345 -0.12423465 -0.38620725 -0.17714858 -0.62898165 -0.039226487 0.41385296 0.6158889 -0.4106689 0.00010479848 -0.9787618 0.39929423 -0.21463488 0.21945196 -0.3045063 0.8061396 0.23498255 -0.015029414 0.9435294 0.7208861 -0.07426225 -0.45879763 0.7998513 0.3509894 -0.04228882 -0.35671204 0.09593796 -0.72179294 -0.51792896 -0.41035244 0.5122742 -0.23710789 0.3179975 0.62785304 0.14467321 0.46168655 -0.31476468 0.12579295 -0.44326144 0.12088867 0.8003998 0.2923863 -0.43012452 -0.2724169 0.106563546 -0.64003223 -0.8939117 0.0670064 0.020042785 -0.41519994 -0.0014618803 0.6507258 -0.4757022 -0.55487615 -0.8091822 -0.6931306 0.313008 0.033189323 -0.010244392 -0.40972838 0.14427206 0.34048414 0.4239316 0.86321074 -0.38603657 0.18877466 -0.8974927 -0.48797938 0.70256644 -0.78754926 -0.024926234 -0.31073302 0.02675517 -0.7476336 -0.059943236 -0.4908561 0.27034247 -0.22011352 0.07006088 0.18951304 -0.48729837 1.1862891 0.12388293 -0.33847064 -0.07338456 -0.10755097 -0.17776123 -0.110453255 -0.27797958 -0.8767839 -0.61940074 0.32539675 0.5087229 -0.47186685 -0.08893967 -0.13219553 0.29193544 0.8001785 0.07166395 -0.06751869 0.60642034 -0.34178507 1.1091015 0.40358436 -0.005014484 -0.15629497 -1.1192416
971 0.24544005 0.09445699 -0.023184814 1.0069016 -0.46177965 0.18589295 -0.0709445 0.06519557 0.14490151 -0.54496384 0.84991026 0.8242948 -0.17306444 0.7756703 -0.01966032 0.28229684 -1.1053711 -0.48340043 0.07443519 -0.15503578 -0.5821588 0.14671564 0.29830906 -0.076587826 0.1398232 -0.80759543 -0.8802788 -0.10788102 0.392702 -0.31970918 0.4063398 -0.7436235 0.77221465 -0.24994002 -0.9865981 -0.48571962 1.119069 -0.3715511 0.37232476 0.20422848 1.0992733 1.0797226 -0.5362475 0.44230145 0.03874047 0.8155619 -0.45923853 0.592141 -0.13194041 -0.89885896 0.4455649 0.27550974 0.6393383 0.041001853 -0.339318 0.26854375 0.42257637 -0.48206234 -0.6199457 -0.6033857 0.061760306 0.38059258 0.68103373 0.42064106 -0.7248876 0.62073356 -0.07996514 -1.0372646 -0.23628692 -0.5343179 0.0340385 0.3854145 -0.34432265 -0.40079755 -0.27332315 -0.043459643 -1.3416712 -0.09310625 -0.12690628 0.16942848 -0.16143456 0.4252478 0.50668174 -0.2054142 1.015752 -0.8229258 0.25108427 -0.3899438 -0.32480884 0.01814144 -0.36584696 -0.09153758 1.1382143 0.6303992 -0.5218094 -0.24169935 0.31567612 0.10368911 -0.13519424 0.7586245 -0.22947234 0.02947126 -0.362158 -0.066351056 -0.23432808 0.04646359 -0.99184984 -0.1623627 -0.4052333 0.23012774 0.101862624 0.4804772 0.45017505 0.30754787 -0.52290237 0.15716943 -0.12273166 0.40766865 -0.29195926 0.8518105 -0.12085904 -0.114456706 0.14639494 0.37053296 0.5466669 0.3263385 0.1238526 0.35685822
44 -0.14649773 0.5852808 0.07135761 0.7891928 0.33056337 0.1001136 0.6910082 -0.253077 0.5323283 -0.20405945 0.20820107 0.16612841 -0.6197687 0.36126822 0.46245322 0.55370265 -0.55846566 -0.4193998 -0.4690983 -0.46304974 -0.82309926 0.8701825 0.07258461 -0.84595174 0.2297217 -0.49609876 -0.36392146 0.44231704 1.0547057 0.31793258 0.36266774 -0.36711943 0.22711486 -0.93415743 -0.057351872 0.12569745 0.015506842 0.34702793 -0.38810405 1.061167 -0.20268168 0.5102296 -0.5430634 0.16611315 0.031600505 0.88145846 0.24280292 0.21457927 0.5658188 -0.6142985 -0.4294418 0.85442394 -0.1729398 -0.46122703 0.7115311 0.7192241 -0.18120523 -0.65209454 0.062034205 0.15529454 0.6220007 0.6725411 0.30571136 -0.21731068 0.16429603 -0.5052069 -1.1394204 -0.03899737 0.18602441 -0.042641748 0.38685635 0.032118566 -0.049682785 -0.68530166 0.20496882 -0.22360508 -0.35465994 0.349494 -0.19240327 0.3394854 -0.4020691 -0.0010831235 -0.548672 -0.4440521 0.83366525 -0.48309967 -0.70111436 -0.6057746 -0.6926011 0.4991519 0.043257065 -0.26476377 -0.43225232 -0.5308847 -0.62861174 -1.0474505 0.6845636 0.36431 -1.3374442 -0.55639416 -0.64670765 -0.35656106 0.06720172 0.3799719 0.065344475 -0.028205328 -0.79920334 -0.34579152 0.13685408 -0.7517351 -0.19715707 -0.2654582 -0.12598449 0.39550704 -0.29543763 0.3552534 -0.90847623 -0.37884578 0.9020366 -0.19757327 -0.38249764 0.21379635 0.76733565 -0.12398008 0.94337577 -0.6406847 0.42191735 -1.1747322
96 -0.29548544 0.15198012 -0.20396979 -0.101998754 0.18504252 -0.11517496 -0.95949453 0.5593103 0.32193846 -0.7989562 0.3094367 0.36270964 -0.23874365 1.1499956 0.56930614 0.5282865 0.4257612 -0.23402874 -0.056416027 0.014098671 -0.9078244 0.36291194 1.1731658 -0.63908124 0.41886452 -0.23638669 -1.1891497 0.19274801 0.25965208 -0.58077836 0.6049847 -0.4439281 0.61118054 0.3816199 0.14754607 -0.56956434 0.03099637 -0.3288156 0.18483624 0.14360678 -0.26067662 0.38620818 -0.7031823 0.17752433 0.22471479 0.40622565 -0.69309413 0.27196494 0.20859793 -0.55563927 -0.45930815 0.14742737 -0.32298785 0.4909499 0.87261707 0.68722266 0.3971907 0.42323998 -0.6217885 0.87143433 0.5134582 -0.2714596 1.7685237 -0.37378043 -0.6211524 0.48183465 0.2203182 -0.6116756 -0.57889825 0.19745816 0.13066255 0.0016942379 0.8751071 -0.07839774 0.65901494 -0.09821049 -0.47203752 -0.73048717 -0.3148544 -0.098603286 -0.22971356 -0.08100087 0.048512924 0.23000075 0.6463614 0.039946936 -0.7408208 -0.28123856 -0.06424397 -0.3150535 -1.3758014 0.27705255 0.6633465 0.49267852 -0.647095 -0.49685702 -0.4960981 -0.0027727752 0.0028337836 -0.084259324 -0.60664815 -0.2126892 -0.11228619 -0.14813988 -0.49728054 0.37972924 -0.65208787 0.2387912 -0.11174879 -0.09196404 -1.1966367 -0.6930646 0.8509481 0.5577001 -0.25948232 -0.028209819 0.14125255 0.7241213 0.34403735 0.76448673 -0.829035 0.594987 -0.06555345 0.2501301 0.43141147 -0.12017699 -0.30996504 -0.3554112
434 -0.15533914 0.083708055 -0.08849024 0.62316537 0.34973967 0.7760164 -0.052466758 0.23163241 0.0969385 -0.29686406 0.1312631 -0.28244963 0.43946767 0.32359967 0.628501 0.29172933 -0.33394736 0.21173474 0.59486043 -0.47523475 -1.1315504 0.615004 1.1154575 -0.56151307 -0.17362238 0.18756154 -1.068462 -0.16375388 0.1376383 -0.5905694 0.6162995 0.26399446 0.6957945 -0.5147318 0.04626239 -0.45638898 0.6125759 -0.74661106 -0.08728628 0.7018377 0.05695303 0.33196235 -0.4063751 0.7733064 -0.26082474 1.3138807 0.07005328 -0.2618697 0.69446844 -0.71045595 0.3171395 0.017752117 0.0024780817 -0.16284023 0.5938967 0.024914203 -0.3855731 -0.07337082 -0.36868054 0.2568064 0.47556892 0.20991373 0.5728322 -0.15224274 -0.3482322 0.07376285 -0.76818985 -0.5159409 -0.024527868 -0.12087156 0.40409476 0.66484505 1.0774769 0.4286688 -0.13185611 -0.39801943 -1.1989343 -0.25236088 0.038664248 0.59077674 -0.023276284 0.25176707 -0.2911786 -0.38362446 0.7069296 -0.15654093 -0.75061417 -0.3244989 -0.34664664 -0.025135089 0.21941285 0.70885193 1.0982251 0.32488042 -1.3137083 -0.8471709 0.644883 0.110607184 -1.0122296 -0.26159126 -0.45286003 -0.7735173 -0.017274238 0.27431256 0.39869276 0.3717187 -0.5542661 0.37003693 0.04457326 0.25039402 -0.7441328 -0.4092217 0.5346813 0.42131 -0.3916389 0.45564157 -0.4635463 0.47608662 -0.6549868 0.20479612 -0.24799688 0.48272413 0.23040128 0.94424504 0.79411316 -0.0063882414 0.096231245 -0.39552626
405 0.39155436 0.48638868 -0.010484839 0.85555553 0.15088917 0.45044056 -0.5426415 0.09550293 0.18492602 -0.3110439 0.7437483 0.7458583 -0.36672333 0.90188146 0.32496408 0.6490327 -0.49708053 -0.60763246 0.75533086 0.18274969 -0.10248417 0.2934397 0.19820483 0.09838783 -0.06860815 -0.18049785 -0.51044595 0.21134546 -0.06304079 -0.071482316 -0.006728777 -0.031244729 0.5264369 -0.3662145 -0.78997236 -0.10805074 0.57063466 -0.38974127 -0.53014964 0.8209559 0.60318804 0.26330453 -0.3099623 -0.18699078 0.27415767 0.014605735 -0.8017795 -0.043740865 -0.5269401 -0.6752548 0.02787857 -0.41952398 0.11455596 -0.11957854 -0.15731472 -0.21080758 -0.33595824 -0.8345009 -0.1995103 -0.22425222 0.3421208 0.055946182 0.6714492 -0.30914763 -0.5815727 0.41827667 -0.5033489 -0.7058032 -0.34517157 -1.0370197 0.550991 0.5719417 0.104700826 -0.100400984 0.1758726 -0.35520723 0.039821804 -0.60855466 0.5974042 0.7399843 -0.29015008 0.022588423 0.11160474 0.08543004 0.41960034 -0.0297603 0.38034055 0.110622264 -0.030608183 0.08547264 -0.46434346 -0.17637758 0.079651654 0.035658617 -0.5299598 0.038896535 0.007504898 0.112537816 -0.65045947 0.18532744 -0.4248842 -0.0013204647 0.54932505 0.09067642 0.34142798 0.4061711 -0.568116 -0.018851504 0.12836356 0.16334884 -0.4235695 0.17180142 -0.26183203 -0.055245105 -0.86114824 0.5820292 -0.73533386 0.5873319 -0.06955367 0.75914896 -0.85327715 0.18238364 -0.35927632 0.46850657 0.21705076 -0.24266304 -0.3508882 0.21275978
183 -0.27111104 0.5242862 -0.012217209 0.3584686 0.24770777 0.15848051 -0.4307562 0.4090871 0.41203853 -0.48975748 0.49950284 0.014048706 -0.14682399 0.40344554 0.15965568 0.070579275 -0.52494806 -0.45034385 0.14977948 -0.35524398 -0.5862035 0.37337434 0.23358896 -0.26724225 -0.021602282 -0.45699185 -0.28436273 0.3888719 0.5417074 -0.41408584 -0.0021515507 -0.28497022 0.4427075 -0.38164437 -0.36433867 -0.29774714 0.41888908 -0.16029125 0.05308214 0.5929006 0.1547126 0.1942437 -0.3177737 0.5947188 -0.090082444 0.25812715 -0.35448822 0.21052364 -0.0447978 -0.20865731 -0.24564816 0.42989787 -0.062399607 0.24916776 0.12510036 0.5023266 -0.23651034 -0.12726952 -0.3193285 0.3745887 0.42671555 0.28970304 0.4159529 -0.2397111 -0.32172415 0.19621652 -0.5324625 -0.23821965 0.031314198 -0.2913759 -0.16373847 -0.027070653 0.5409653 -0.4372711 0.17095265 -0.3845652 -0.3597617 -0.052222904 -0.0991953 0.081933774 -0.1818818 -0.056584217 -0.19663186 -0.25572714 0.41286802 -0.1567424 -0.108157456 -0.43616164 -0.2722036 0.41095865 -0.55524987 -0.05784952 0.032592267 0.18602023 -0.33783773 -0.31697625 -0.086907566 -0.23022002 -0.50474477 -0.17686014 -0.42162114 -0.30655718 0.41097605 0.15894398 -0.05376143 0.044186983 -0.40345958 -0.17095238 -0.008640952 -0.38131517 -0.31480613 -0.3434882 0.16689305 0.24725297 -0.54791224 -0.2690779 -0.6215042 0.39206156 0.122615576 0.2754011 -0.5182719 0.4056076 -0.11198756 0.53548986 0.24858207 -0.4071738 0.010594864 -0.42127773
249 -0.02340388 0.555581 -0.18626294 0.4971497 0.23672023 0.33401456 -0.40021747 0.19603188 0.395477 -0.39869115 0.5225904 0.08015681 -0.2531376 0.477429 0.20735486 0.19892514 -0.6015743 -0.49348208 0.13698483 -0.29453284 -0.46141374 0.26142752 0.35513648 -0.30165723 0.13223924 -0.5017432 -0.47125682 0.18451872 0.43030787 -0.395713 0.13442603 -0.24270467 0.46985328 -0.5094641 -0.256223 -0.22286221 0.49176234 -0.21363167 -0.14069423 0.586501 0.2500279 0.51743555 -0.37656495 0.39595085 -0.007894514 0.510294 -0.3900114 0.2230707 -0.029373476 -0.3972825 -0.08883164 0.25829363 0.0016213404 0.16873133 0.29557493 0.40308085 -0.18290506 -0.24715526 -0.1500287 0.16134831 0.32332206 0.38266596 0.5447798 -0.237855 -0.17367269 0.27914315 -0.540951 -0.35874355 0.22640261 -0.21400946 0.05134803 0.22681719 0.38271883 -0.42525727 0.284998 -0.31906575 -0.48425162 0.05703585 -0.20098786 0.20369536 -0.21091083 -0.05480812 -0.26179639 -0.14304432 0.48924652 -0.11989873 -0.04411069 -0.3370655 -0.43660364 0.33066356 -0.41481948 -0.10869389 0.20084614 0.28843653 -0.3609565 -0.38036856 0.042338632 -0.1405097 -0.63005 -0.10200124 -0.34632403 -0.3786475 0.08750519 0.1626356 -0.11530727 -0.09917805 -0.4550194 -0.109718196 0.024476187 -0.4404559 -0.20018975 -0.36527866 0.20634729 0.11239761 -0.4438838 -0.0028937473 -0.6015214 0.38852397 0.08943164 0.45979795 -0.40828925 0.40077034 0.083949395 0.63423723 0.21819994 -0.31411922 0.097862914 -0.2380162
23 0.27595192 0.7049059 0.52313334 0.9665751 -0.3656167 0.2981907 -1.08094 0.35057 -0.23326805 -0.3036187 0.609566 0.17049876 0.32436147 0.5988538 -0.42714778 0.81819564 -0.7304452 -0.04150846 0.30306542 -0.009255001 -0.29904714 -0.032971665 -0.10022522 -0.7050588 -0.22539072 0.19431356 -0.22905762 0.11133675 0.5197486 0.124461345 0.40706447 -0.77784306 0.053751502 -0.6824929 -1.1462623 0.22578785 1.0767891 0.047891755 -0.24786791 0.14041077 -0.005303072 0.6499791 -0.4575191 0.36541706 0.39500383 -0.5694648 -0.9341318 0.7676873 -0.4891348 -0.6018523 -0.1670435 -0.49175104 0.25232062 0.66295344 -0.10073986 0.4624293 0.1533311 -0.21126364 -0.34523547 -0.4265728 0.15675814 0.6143596 0.628895 -0.08699191 -0.15685062 0.39810905 -0.48801574 0.16048236 0.3326186 -0.52760965 0.08520365 -0.24453606 1.017775 -0.47603583 0.021947227 -0.18990965 0.44433895 0.13430406 0.17971046 0.62429875 0.7004372 -0.78591746 0.023267666 0.17703466 1.0865957 -0.15086456 -0.37830555 -0.9724746 -0.64958817 0.84073246 -0.60500604 -0.3167933 0.050482754 0.45771363 -0.78826106 -0.49789467 0.48320487 -0.26048985 -0.94491273 0.15544239 0.15963338 -0.59477323 0.48979437 0.34698594 0.40531948 -0.014019522 -0.9697794 -0.2937102 -0.36577156 -0.7613948 -0.116014495 -0.07467534 -0.1137567 0.7737879 -0.40530863 -0.6296453 -1.0200928 0.33513546 0.07514622 0.27713972 -0.115353875 -0.051700253 0.07483981 0.8257834 0.7757574 -0.17791195 0.38609517 -0.7932724
58 -0.20255831 -0.20045535 -0.33772215 0.22946633 0.10427693 0.3478393 -0.5342225 0.1769364 0.5076355 -0.57097906 0.6841662 0.29273722 -0.1599995 0.75116414 0.13922378 -0.24866202 -0.3527545 -0.5420467 0.4323463 0.26361868 -0.7545272 -0.09277168 0.47818875 -0.24536715 0.18194856 -0.6160492 -0.99163175 -0.35419726 0.08296875 -0.5024688 0.21066284 0.07930053 0.66763926 -0.17126851 -0.074293986 -0.6320761 0.21762301 0.07848805 -0.23416306 0.43890074 0.5151256 0.30490485 -0.5004644 -0.1018966 -0.22175172 0.45946705 -0.3388684 0.35894087 -0.022427132 -0.47139236 0.08200038 -0.19302154 0.010482307 0.13610055 0.29058573 -0.14842719 -0.0835456 -0.2671455 0.05621924 0.31677836 0.12176931 -0.031628843 0.6688225 0.04428127 -0.444824 0.12677433 0.06487969 -0.7964487 0.060718186 -0.40018308 -0.32963195 0.17694359 0.5405406 -0.47503302 0.37435383 -0.5590373 -0.85143894 -0.6508363 -0.62887347 -0.16861838 -0.2558517 0.00044816174 -0.11047599 -0.046776928 0.440008 -0.021011038 0.31259865 -0.115899555 -0.4615971 0.1871415 -0.6438807 -0.047125507 0.24666753 0.39814878 -0.6952796 -0.12642618 -0.7131438 -0.37990007 -0.4450248 -0.08187369 -0.32162562 -0.2658025 -0.057334613 0.014785072 -0.15163893 -0.10924598 -0.7702112 0.016800692 -0.041131202 0.030005325 -0.7958211 -0.6426757 0.5434911 0.050619077 -0.5478462 -0.11344614 -0.21966845 0.51703894 0.15178913 0.55063915 -0.30261263 0.9201644 -0.0076865354 0.58575165 -0.15103436 0.31022105 0.13529785 0.23646125
301 0.73420674 1.6666437 -0.4334205 0.27378651 0.21325488 0.3582107 -0.79225945 0.15410817 0.17805955 -0.16808252 0.21712394 -0.24193014 0.023594068 0.9169133 -0.005980779 0.31989127 -0.9017589 -0.6312823 0.20805228 -0.7232978 -0.5176647 -0.30193934 0.16371651 -0.8996863 0.4563573 -0.81322086 -0.32596454 0.24502474 0.20687108 -0.25117508 0.41253287 -0.42688525 0.22472818 -0.3610247 -0.25002298 -0.011790603 0.4426845 0.13544984 -0.53749263 0.3910058 0.6203039 0.6188592 -0.20289604 0.35358652 0.21665959 0.92244786 -0.46809477 0.29106683 -0.21496984 -0.030314766 0.6038918 -0.36646333 0.5131538 0.25911835 0.5812008 0.011794316 0.3792234 -0.045979287 0.44085482 0.33559272 0.14550076 0.9823451 0.19347048 -0.62722117 0.1095107 0.45073375 -0.64062196 0.24186252 0.49460605 -0.34735173 -0.26003164 0.801321 0.2662099 0.10314931 0.28157893 0.21454638 -0.6653749 0.7492844 -0.75267285 0.32274842 -0.13574281 0.36472765 -0.12215668 -0.41738492 0.81342036 0.15623577 0.45251516 -1.2216383 -1.2645344 0.5809159 -0.7199029 -0.5093123 0.061763518 0.75012547 -0.093186446 -0.11865154 -0.30442196 -0.20728259 -1.5231761 -0.47388405 0.42144716 -0.87638915 -0.5299538 0.47487944 -0.34701478 -0.86289704 -0.25548795 -0.532769 0.15918191 -0.7509939 0.77353686 -0.7335542 -0.37631443 0.7078206 0.15822315 0.45122367 -0.8377742 0.7244957 0.06533344 0.41285318 0.2051336 0.16020305 0.52064365 1.0848776 0.94318366 -0.31344953 0.8094894 -0.561887
87 -0.6053921 0.2541491 0.6657638 0.2052406 0.04127054 0.93999875 -0.9709561 0.14963786 0.8374019 0.045981895 0.052458193 0.33188692 0.66821855 0.33515602 0.3537785 0.7627597 -0.5905331 -0.5076209 0.5788581 -0.893719 -0.0900511 0.04663918 0.28162906 -0.7775387 -0.43234333 0.11204256 -0.58824587 1.114249 0.21644327 -0.4414022 0.22924165 -0.38214925 0.50184685 -0.61577886 -0.28812075 -0.4549182 0.2902875 -0.0073812483 -0.044701986 0.21969286 0.028602201 -0.40202814 -0.5926826 0.87230784 0.29919228 0.48413333 -1.5176411 0.2071543 -0.025399972 -0.20127006 -0.39269406 0.004039835 -0.5865024 0.9549555 -0.59484607 0.5503093 -0.29836926 0.0281231 -0.41018358 0.52781624 1.003266 0.56311554 0.1690495 -0.65508217 -0.06696683 0.67280227 -1.2681352 -0.5476706 0.25128722 0.09932803 0.42043224 -0.024162002 0.81241757 0.3407765 0.1170947 -0.92700225 0.2269722 -0.0072525204 0.22087334 0.49131835 -0.5301349 -0.3655515 -0.4315784 0.4012691 0.44661352 0.32492396 -0.35783833 -1.0632092 -0.24763712 0.82514024 -0.7145038 0.08490063 0.059052225 -0.49955153 -0.36385065 -0.1228176 0.59050244 -0.0060319705 -0.8665647 -0.73409814 0.13953725 -0.36589864 1.2302971 0.665573 0.5433427 0.59154254 -0.69210094 0.23993662 0.6545411 -0.5610692 -0.39566347 -0.12225966 0.22964141 0.5785598 -0.16135351 -0.22405201 -0.9244188 0.4696022 -0.6822117 0.23703021 -0.77234966 0.6318823 -0.7585965 0.89933974 0.524277 -0.28604445 0.19918844 -1.0020213
333 0.13877408 0.7071513 -0.14287604 0.47234288 0.14369708 0.3598878 -0.44087538 0.2025096 0.35616904 -0.3457867 0.4966946 0.023600528 -0.22620744 0.59871966 0.3044337 0.27173057 -0.5605605 -0.40570617 0.04176431 -0.33201802 -0.49362388 0.22649527 0.299304 -0.4690432 0.124459125 -0.47991252 -0.37017107 0.22330411 0.44603983 -0.19971664 0.18791866 -0.27719057 0.56382173 -0.4407833 -0.3332039 -0.053019024 0.43309787 -0.099100456 -0.14339873 0.73128027 0.21443522 0.43146545 -0.39347178 0.2792481 0.091826715 0.5861381 -0.5077207 0.3163778 -0.08694412 -0.43427533 -0.17542675 0.19608167 0.06291118 0.2751265 0.17550984 0.42781597 0.0034567877 -0.2868724 -0.15113018 0.2562355 0.4310724 0.50227165 0.53129864 -0.2715805 -0.1674721 0.35429442 -0.5628112 -0.24594319 0.14279509 -0.24443737 0.03511673 0.21109544 0.42533332 -0.26729637 0.39716935 -0.07192863 -0.42391154 0.20115407 -0.24477197 0.24593426 -0.3041251 -0.018864082 -0.23212403 -0.21227466 0.6274237 -0.023308251 -0.15057921 -0.4684942 -0.39427665 0.35739547 -0.4975258 -0.083439365 0.056392767 0.23274696 -0.3179438 -0.33865514 0.07214095 -0.08929468 -0.81402194 -0.29781896 -0.22570783 -0.30704537 0.109180555 0.2869137 -0.120396025 -0.06838934 -0.45971656 -0.28089005 0.10115031 -0.5732121 -0.2335489 -0.33296773 0.1531034 0.30380294 -0.22185214 -0.049461354 -0.61664665 0.40942174 0.26412237 0.41193664 -0.23315565 0.32616985 0.16998892 0.543304 0.3611283 -0.3844733 0.06794166 -0.34692302
157 -0.37761512 0.3409463 -0.5775741 0.84425086 0.5242495 0.5296885 -0.6555313 0.7245151 0.20384996 -0.5862631 1.1511253 0.642806 -0.827968 0.5222644 -0.07898873 -0.33364657 -0.85552084 -0.30710843 -0.010438676 0.27655667 -0.9194952 0.041474115 0.13154115 -0.34357756 0.07732536 -0.59086347 -0.41811338 -0.2277656 0.58254385 -0.723027 0.3443484 -0.0345319 0.8050368 -0.25177005 -0.4692651 -0.051974133 0.20462504 -0.5006851 -0.6571607 0.82832545 0.4290667 0.8188306 -0.6075219 0.73237586 -0.82925844 0.8275343 0.095581606 0.5781533 0.4251624 0.04006893 0.08633243 0.21977803 -0.78877467 -0.18590452 1.1364942 0.20569083 -0.3448908 0.07534542 -0.018063305 -0.6216942 -0.15342093 -0.68922293 0.6615559 0.32432672 -0.8939748 0.1586221 -0.5446939 -0.6766538 0.1040862 0.016565666 -0.15843695 0.6042149 0.6133885 -0.775875 0.058151636 -0.4713983 -0.32945612 -0.29357767 -0.15955411 -0.6884473 -0.08425297 -0.729904 -0.19103873 0.30071095 0.5342179 -0.74257594 0.4466944 0.29801905 -0.49565494 -0.19889371 -0.050865225 -0.2647045 0.72534674 0.5836105 -0.4423354 -0.27835536 -0.57217723 -0.9127336 0.25931907 -0.38309157 -0.34195054 0.3354648 -0.27906823 -0.12260781 -0.057138357 -0.10233125 -0.29278246 0.0695597 0.12640643 -0.48550278 -0.20595993 -0.8853166 0.46936485 -0.2587093 -0.6108826 0.21744357 -0.08918538 0.48391107 -0.007061791 0.06746029 -0.5910168 0.40976524 -0.30688405 1.0194863 0.091404654 -0.09246628 -0.8018716 0.018953977
38 0.31921184 0.95535517 -0.48811644 0.5831362 -0.021906983 0.40762407 -0.885375 -0.29656515 0.74121714 -0.58150125 0.66640776 -0.5086155 0.120004214 0.31432986 -0.01809925 -0.1653238 -0.6432627 -0.6359887 0.08968592 -0.6077439 -0.8192143 0.988056 0.0123207 -0.9484875 -0.15650746 -0.5236785 -0.11686379 0.116428874 0.42860824 -0.6073599 -0.17335224 -0.08879954 0.61081433 -1.2493677 -0.28861418 -0.501304 0.12724358 -0.7019986 -0.49728876 0.5952074 0.22797899 0.17596415 -0.2277049 0.7016941 0.22000715 1.0080609 -0.16355245 -0.31275412 -0.07852223 -0.6559125 -0.9394773 -0.1753888 0.14031065 0.09333109 0.35845894 0.45728493 -0.1829355 -0.3058155 0.2749588 0.10971572 0.32113305 0.28171483 0.047893625 -1.094346 0.23576595 -0.5304125 -0.6018996 -0.42810786 0.53096366 0.5146071 -0.3927215 0.29236323 0.12652607 -0.6284274 0.33976248 -0.77222323 -0.33827686 0.33738443 -0.8660253 -0.060866304 0.054286763 -0.30491838 -0.5363921 0.12355995 0.84361 0.21339819 0.9410919 -0.42417753 -1.6268288 0.48126173 -0.21704286 -0.4850518 -0.26506135 -0.09862049 0.15216951 -0.71684384 0.102698475 -0.92588615 -0.97578573 -0.86087674 0.18845305 -0.61486447 0.1238657 0.28056413 -0.43145663 -0.7453336 -0.3837235 -0.32072243 0.18552995 -0.7998354 -0.4191338 -0.6914842 -0.08809638 -0.20614655 -0.77735883 -0.25924292 -0.95312154 0.09201758 0.08357509 -0.5099194 0.37760213 0.77131724 0.20907854 0.7300036 -0.17986767 0.21471897 0.66860515 0.006410065
115 -0.8506081 0.3114712 0.39711353 0.8777903 0.615272 -0.20475146 -0.44876966 0.4727803 0.47467446 -0.38316238 0.806147 0.42859372 -0.4415619 0.8742814 0.23487797 0.26218936 -0.6705431 -1.3222181 0.2802724 -0.22883126 -0.10653674 0.28686795 0.3025769 -0.44600844 0.92882067 -0.8751497 -1.0123173 0.87763095 0.4621825 0.48413223 -0.2930506 -0.26923975 0.17406382 -0.7322271 -0.17766736 0.073419124 0.9341189 0.061333153 -0.1889612 0.9588596 0.15235192 0.26131698 -0.23803318 0.7500219 0.20221134 0.44696116 -0.40369186 0.25964096 -0.47764784 -0.3988972 -0.566694 0.2577016 0.10478737 0.4774654 -0.5190283 0.5361075 -0.1263234 0.73333126 0.005675768 -0.41657746 0.18872881 0.850407 0.46260777 -0.050773542 -0.40598604 0.91666967 -1.1603197 -0.020641344 0.23296042 -0.22347508 0.16707699 0.19709805 0.25593063 -0.1387768 0.062729254 -0.44710708 0.32958215 0.6412971 -0.28558853 0.2546491 -0.83019775 0.65330535 0.0672985 0.18887307 0.4372475 -0.676462 0.31674182 -0.22019728 -0.3788853 0.69430995 -1.5467445 -0.040143214 0.48911485 -0.19813405 -0.030664003 -0.30485532 -0.68671834 -0.076616496 -0.29558313 0.15292084 -0.42340237 -0.01772312 1.0107664 0.06387648 -0.23943718 0.1470118 -0.19418325 -0.3027556 -0.34103245 -0.25416008 -0.4373345 0.09070505 -0.33454454 0.4473417 -0.000803864 0.30602708 -0.38526013 0.40037456 0.8330223 0.5975648 -0.54122806 0.035890665 -0.5226809 0.24362339 0.06505997 -1.3775873 0.40020952 -0.3084374
114 0.057452105 0.20338704 -0.9731041 0.1606149 0.18878682 0.38317847 -0.65085936 0.4475308 0.8356759 -0.49621397 0.9055093 0.8514453 -0.95153236 1.4214934 0.65689415 0.3455479 -0.14371386 -0.20393673 0.17889592 -0.26399773 -0.8848824 0.8302372 0.39132264 -0.026333414 1.5952348 -0.8530193 -0.6530843 0.11461006 0.013419329 -0.69202036 0.2849574 -1.1052319 0.45710635 -0.17700158 -0.47785145 -0.58581156 0.3266818 -0.19231276 -0.032384332 0.71092254 0.45207328 0.6187211 -0.20750229 0.36935002 -0.31416878 0.58212423 -0.89956135 0.32468593 -0.18719529 -0.8066353 0.27215996 0.5379518 0.36984864 0.23627597 0.8088951 0.6256808 -0.026560199 0.36266777 -0.8028789 0.2706455 -0.37203577 -0.066188924 1.1563164 -0.029109506 -0.6302379 1.4755943 -0.21544155 0.0018240843 0.038615018 -0.15314831 -0.41771832 0.32919228 -0.07769382 0.29016477 0.24974896 0.15380973 -0.15430361 0.21387433 -0.6933879 0.43432164 -0.69551194 0.623739 -0.29387093 -0.41258752 0.8232334 -0.09402689 -0.16027176 0.38261288 -0.17034306 0.2588621 -0.58327633 -0.4603724 0.43887344 1.247297 -0.70537543 -0.1650964 -0.14293042 -0.14503056 -0.27094397 -0.38952878 -0.90758675 -0.5269901 -0.77902603 -0.1454732 -0.56651634 0.37622967 -0.7552149 -0.11801758 -0.1719929 0.028555967 -0.2894976 -0.31771696 0.032128345 -0.117623955 0.20639299 0.915518 -0.07500266 0.48771673 0.41194332 0.9888311 -0.52492315 0.016207527 0.16884275 0.34319833 0.059166934 -0.38408104 -0.47235015 0.0719764
83 -0.27994314 0.2739859 0.11433122 0.42827782 0.27557567 0.29058197 -0.3508096 0.17103592 0.5919441 -0.27630275 0.29571813 0.041868784 0.19593799 0.27186236 0.103201546 0.10044262 -0.42804086 -0.47448647 0.41209134 -0.44769576 -0.47480413 0.13058324 0.5103504 -0.29670966 0.06305122 -0.37802577 -0.43128914 0.18795407 0.30127946 -0.6710491 0.06075691 0.03638194 0.39815515 -0.5168396 -0.23926236 -0.34847754 0.22980715 -0.371542 0.12384298 0.29824296 0.1514969 0.13671516 -0.4042383 0.63499486 -0.17308784 0.52244353 -0.3654591 0.1274545 0.25465655 -0.4089154 -0.056676485 0.37638938 -0.30631047 0.19072567 0.22157688 0.27792022 -0.15549551 -0.023317205 -0.40851387 0.3263822 0.34955376 0.0827802 0.5633377 -0.013393257 -0.38599902 0.25055912 -0.35751808 -0.24378143 -0.18010338 -0.19088851 0.03877342 0.18823826 0.70727915 -0.3106021 -0.013266858 -0.4670707 -0.55935353 -0.34709722 -0.05497276 0.10047541 -0.06840778 -0.09491898 -0.07965181 -0.31115004 0.31951186 -0.4829501 -0.23617935 -0.325657 -0.16942143 0.29776397 -0.24606161 0.03281486 0.36973774 0.18694481 -0.38488436 -0.41897032 0.13186973 -0.24033223 -0.48081648 0.00775018 -0.4713239 -0.37695858 0.27953464 0.3366273 0.11995772 0.10758537 -0.34913033 0.13575882 -0.118444756 -0.1703006 -0.3595673 -0.29057348 0.33749568 0.4379566 -0.5616003 -0.10900541 -0.44056478 0.3763874 -0.102553144 0.40385932 -0.40861955 0.593326 -0.018451793 0.5685185 0.25684455 -0.25315985 0.07789805 -0.3285193
41 -0.3301098 0.6805801 0.26934776 0.61064094 0.43018585 0.042651765 -0.5780095 -0.16415194 0.8143093 -0.36775938 0.261481 -0.124697685 -0.18287466 0.022441544 0.5551721 0.07475646 -1.2699502 -0.73168796 0.29092044 -0.7931984 0.23481964 -0.26860616 -0.18283883 -0.21285713 -0.0004752407 -1.2168251 -0.56967807 -0.028467597 0.19222005 -0.48827305 -0.23938745 0.27114144 -0.024297621 -0.3855014 -0.50372183 -0.16302972 0.4709832 0.14583643 -0.35713252 0.46139464 0.8597855 -0.24895392 -0.86605513 0.1847945 -0.297654 0.25375515 -0.59745264 0.5656721 0.0056610266 0.14523926 0.5512539 0.29759988 0.09151942 0.39612576 0.36458367 0.39804164 -0.35788414 -0.47140235 -0.06367549 -0.12376772 0.6744804 0.9320158 0.7574383 -0.073046945 -0.18564782 0.070131585 -1.2127248 -0.007341831 0.23253201 -0.5273762 -0.6799754 0.42827207 0.2812123 -0.5469519 0.079106085 -0.5849239 -0.26736242 -0.01939139 -0.64405483 -0.030037588 -0.045591947 0.030207068 -0.1229677 -0.29985264 0.12513599 -0.73194313 0.05486836 -1.0213668 -0.94012403 0.6690285 0.22593795 -0.86172235 0.025834162 -0.29071173 -0.8036078 0.37232408 -0.346676 -0.22570704 -1.339667 0.41118237 -0.00554611 -0.28438616 0.76089245 0.7357597 0.40754282 -0.41217113 -0.676654 -0.6219481 -0.2693772 -0.2521621 0.43936324 -0.35836494 -0.4964292 0.081486806 -0.8627783 -0.4818272 -1.2558491 0.8016231 0.4085981 0.29101664 -0.3545354 0.25316232 -0.2260826 0.9516326 0.14158292 -0.5927751 0.28180465 -0.72465855
69 -0.42387393 0.81410927 -1.0361016 1.1372249 -0.01057593 0.13440883 0.11199639 0.234407 0.45466608 -0.59060264 0.5644401 0.30121556 -0.7558304 1.0007774 0.23227957 0.15212515 -0.4375474 -0.76332027 0.51190466 -0.5822452 -0.02390178 0.8531769 1.2108624 -1.0105122 0.5482604 -0.7841701 -0.3496457 -0.10043144 0.11812841 -0.6865492 -0.6275561 0.44547912 0.082975484 -0.4707218 0.83204204 -0.26368937 0.43816188 -0.07855431 -0.47665182 0.69204646 0.21050408 0.4228611 0.13382061 0.502698 -0.09348249 0.8179694 -0.11608762 -0.45704195 0.75918126 -1.1150672 -0.22264831 -0.0028359548 -0.8348187 0.021057267 0.38277608 0.76429635 0.40354955 -0.052373484 -0.5769231 0.23936784 0.21547796 0.8918233 0.8023262 -0.4889662 0.31431642 0.5502699 -0.70061964 -0.032687157 -0.4234631 0.054878276 0.40902516 0.43799385 0.400279 -0.6165015 0.85061157 0.043827724 0.0023470772 0.041216332 0.037965737 0.37056473 -0.120299995 0.46290973 0.6364789 0.12738536 -0.59031904 -0.6345276 -0.8443237 0.19270737 -0.2327112 0.3003422 -0.82433385 -0.5591059 0.24123302 0.30387765 -0.15186682 -0.10691287 -0.046698447 0.0070377733 -0.36681503 -0.09348816 -0.404265 -0.05913941 -0.7898911 0.45854977 -0.15844406 0.057217248 -0.6780884 -0.23371957 0.05745025 -0.63951194 -0.2847179 -0.011250829 0.20682414 0.24581645 -0.18178362 0.16427091 -0.10182199 -0.0757163 -0.3243224 1.0877184 -0.5642807 0.93088394 0.3513966 0.9665933 0.6692143 -0.7810163 0.14076334 -0.059250988
27 -0.7064802 0.22028428 -0.124527335 0.49123424 -0.44180864 0.53610474 -0.39488018 0.33722585 0.6178206 -0.4832784 -0.020839006 0.14986823 -0.043460794 -0.047034625 0.19038108 0.14338793 -1.058722 -1.0151367 -0.1739758 -0.3436846 -0.454692 0.65977836 -0.63580793 -0.14694573 -0.5903686 -0.43476054 -0.94193834 0.0994409 -0.07809523 -0.6102233 -0.36363167 -0.6520098 0.15379098 -0.44690531 -0.3938304 -1.0340188 0.5509159 0.35525045 -0.17292878 -0.07211718 0.21804945 0.2779459 -0.45355716 0.45481455 0.0139955245 -0.0068268403 0.12813497 0.37229016 -0.86242974 -0.16965938 -0.3474144 1.0478203 -0.12608168 0.7117432 -0.23978457 0.4172425 -0.16261177 0.3103879 -0.85578173 -0.12819666 1.0264796 0.43901697 0.479395 0.05981657 -0.69545084 0.05962376 -0.721564 -0.16541113 0.23019697 -0.7471174 -0.4207965 -0.17018999 0.35968673 -0.5454344 0.4754895 -0.571755 -0.7368383 -0.15967397 -0.050194524 0.20134714 -0.1533558 -0.061234795 -0.21087596 -0.31444255 0.1521455 -1.0227146 -0.16763467 -0.33724326 -0.48549694 1.2810738 -0.9561549 0.1601491 0.043362476 0.06321464 -0.3903455 -0.107411645 -0.2022552 -0.93425053 0.15296382 -0.2947544 -0.96203595 -0.17021625 0.6915266 -0.10789528 0.077845156 0.063403495 -0.9927842 -0.33598164 -0.63084143 -0.50800097 -0.060760513 -0.09989841 0.3250259 0.41075048 -0.94227916 -0.4069114 -0.8783224 1.1395208 0.8843383 0.054281984 -0.67728996 0.8808224 -0.2643236 0.6043295 -0.05362007 -0.343385 -0.2132417 0.26202855
19 0.595639 0.41077033 0.25683528 0.17764328 0.0906861 -0.09320101 -0.11281654 -0.13290086 0.8793872 -0.276789 0.12452511 0.47548494 -0.9436964 0.057426892 -0.09551639 0.07398111 -1.4609209 -0.5589302 0.23901825 -0.11458951 -0.78148025 -0.20967801 0.4255758 -0.052371833 0.63887995 -0.16371621 -0.8322826 -0.009953959 0.5309845 -0.54853374 -0.33954373 -0.49636352 0.43102258 -0.6641038 -0.34225795 -0.5905797 0.18871969 -0.084784016 -0.4235083 0.38558105 0.26866737 1.1762824 -0.07863891 0.39958075 0.2275754 0.74554455 -0.58663756 -0.30040887 0.10112691 0.31501663 -0.24120162 1.0400082 0.05028164 0.21353652 0.43773243 0.88093203 -0.44283015 0.61392754 -0.0124002 -0.17087542 0.27088916 0.46839032 0.51216245 -0.21056409 -0.39064157 -0.051679607 -0.22211978 -0.3842855 0.79225534 -0.34124193 -0.049789224 0.11772684 0.118065 -0.26107314 -0.41776448 -0.47242352 -0.4810535 0.021230275 -0.36417195 -0.07437409 -0.6639437 0.17347513 -0.9315841 -0.2823787 0.052912503 -0.52232385 -0.27699918 0.045281235 -1.1646017 0.5799677 -0.39601013 0.07443086 0.36036298 0.15041633 -0.53691745 -0.7114842 -0.083228655 -0.22000071 -0.520957 -0.4873069 0.18247856 -0.6841843 -0.7722712 -0.14776282 -0.2490273 -0.11490913 -0.45583025 0.10923703 -0.20556277 -1.096423 0.47457132 -0.6942882 0.28671762 -0.056258388 -0.36450002 0.36354047 -0.33813548 0.8814996 0.08819667 0.43362314 -0.20466664 0.69001895 -0.12323076 0.3308762 0.097921744 -0.32959056 0.105587095 -0.2039895
128 0.23113039 1.1280653 -1.1309559 0.62401724 -0.5565416 0.18337053 -0.22464858 0.8340457 -0.054405686 -1.3147246 0.77139837 -0.14645895 -0.7497613 0.5101328 -0.18079203 0.47226945 -0.9434879 -0.103017 0.3194576 -0.4728754 -0.7414663 0.20885567 0.36941555 -0.7753975 -0.4059855 -0.99213874 -0.076078616 0.012568966 0.5909997 -0.21600117 -0.39207825 -0.59579 0.39920384 -0.6757066 -0.52144015 0.1185403 0.9977636 0.07656646 0.017461173 0.8320406 -0.095800176 0.77688247 0.14136729 0.22561438 0.11242765 0.17751366 -0.40757647 0.05543557 -0.5923099 -0.94859684 -0.103097305 -0.4584946 -0.13008633 0.39004704 -0.91383916 0.11705769 -0.40347224 -0.534894 -0.0055904607 0.3480351 0.23745835 1.4864225 0.44079894 -0.14200893 0.22910143 0.6261049 -1.2026953 0.32821655 0.15369068 -0.32655618 0.59537876 0.38298887 0.3279933 -0.14106007 0.5643511 0.29838413 0.14384419 0.5592523 -0.0154635 0.4131088 -0.2884602 -0.26425502 0.24197173 -0.3026427 0.7591108 0.03177907 -0.30776334 -0.4744694 -0.8102713 -0.24918821 -1.2135222 -0.5203562 -0.097250715 0.3520276 0.20010304 0.45467684 0.26770058 0.01762819 -0.12034237 -0.05963177 -0.6160613 -0.408575 0.0780759 0.31033555 0.16568244 0.110230714 0.08546197 -0.7149113 -0.2125847 -0.9883446 0.08938665 -0.31653592 -0.07218328 0.035027083 -0.20314744 -0.32140258 -0.8455332 0.60984594 -0.068718046 1.1504954 -0.540231 0.49374136 0.044015173 0.6095633 0.518982 -0.012703375 -0.005898729 -0.20895994
549 0.22293511 0.2988312 0.5534796 -0.27933905 0.16851386 0.32958356 -0.63904744 -0.09137325 1.089935 0.21258897 0.11604627 0.34220028 -0.29347804 0.42771205 -0.07589802 0.54636365 -0.20110635 -0.2614977 0.72505486 -0.7456468 -0.78030705 -0.14579935 0.9986437 -0.2366103 0.30723086 -0.27617544 -0.2375769 0.6665496 0.1594106 -0.83361554 -0.050208636 -0.39295754 0.646171 -0.67332244 -0.3964083 -1.3637818 -0.17863467 -0.8327027 0.61405766 -0.2468986 0.30991796 0.46405667 0.34550944 1.0039362 -0.30074129 0.78338325 -1.2454742 0.45277306 0.107415944 -0.43213835 -0.17368254 0.61424273 -0.46064332 0.46627828 0.6367676 0.97245747 0.27449593 0.8086142 -0.6818056 0.4103725 0.40577888 -0.30071294 0.52061015 -0.17382142 -0.683986 0.9607229 0.009667332 -0.40102375 -0.42104906 0.2710567 -0.11632397 0.39155194 0.6092144 0.25169942 -0.41283154 -0.21742186 -0.8698195 -0.2423707 -0.2680234 -0.0057762885 -0.19600095 -0.05242221 0.025844593 -0.5817874 0.20622681 -0.5019873 -0.16178243 -0.91214395 -0.08297289 -0.21602356 0.028586 -0.10905058 0.864643 0.2115343 -0.31115717 -0.47966874 0.52957517 -0.40877977 -0.45192307 -0.7560233 0.42684978 -0.37369785 -0.17138562 0.66950387 0.23359212 0.14354058 -0.32383657 0.48246405 0.10407153 -0.08110034 -0.080885485 -0.48315328 0.008402728 0.74428225 -0.2593491 0.16519292 -0.30342802 0.3385343 -0.31480208 0.4525416 -0.44794366 0.6952398 0.03032158 1.0760425 0.39555827 -0.24856184 -0.018643318 0.096870996
142 -0.19352573 0.450412 -0.5193044 -0.0194482 -0.36605683 0.50929976 -0.008413349 -0.069545805 0.10252196 0.06612192 -0.37253016 -0.36909336 0.13334681 0.35389006 -0.21596298 -0.23585889 -0.21172667 -0.03374857 0.10545008 -0.19953912 -0.658009 -0.18471107 0.5113313 -0.9406356 0.3545162 -0.81291276 0.20320657 0.3915385 0.9023904 -0.6874605 -0.025009586 -0.34481558 0.6569138 -0.3364481 0.4082638 0.04792542 0.33987233 -0.28743565 0.6667991 -0.25164175 -0.5025595 0.4170845 -0.25301263 0.7455752 -0.37522668 0.60066026 -0.4481681 0.57559276 0.34590787 -0.1675256 0.36941963 1.1369464 -0.44097468 0.4435979 1.1097343 1.08552 -0.33445945 -0.16187833 -0.20207246 0.71631116 0.5444538 0.6964281 0.5220593 -0.79703593 0.14253959 -0.051614095 -0.80888605 0.21102211 0.30408847 0.27842826 0.3066788 -0.5076485 0.21957496 -0.8973952 -0.22248338 -0.58507055 -0.64020276 -0.22273913 -0.2537795 -0.06322721 -0.42995012 -0.7508806 0.43896675 -0.034130756 0.25377235 -0.6832267 -0.5631092 -0.7866678 -0.9640376 0.24456625 -0.5514659 -0.1292224 -0.08801032 0.7122825 -0.24667631 -0.42300418 -0.39762634 -0.1624621 -0.73116094 -0.10295568 -0.5872312 -1.04901 -0.14335185 0.08497015 -0.2495195 -0.39953136 -0.6439689 0.4499124 0.5106828 -0.7108722 0.37646046 -0.5856958 0.31422397 0.53927743 -0.25198635 -0.19390312 -0.47193143 -0.06231845 0.09632532 0.9542253 -0.56530154 1.162689 0.32245448 0.8600846 0.613204 -0.88608056 0.44325352 -0.05310536
256 -0.061960228 0.4868675 -0.22404517 0.58531964 0.2540867 0.3231943 -0.24094227 0.16979918 0.60477126 -0.19800717 0.4976229 0.058571093 -0.19167234 0.56601804 0.112526484 -0.030333908 -0.615213 -0.58597606 0.23135166 -0.4947654 -0.18343575 0.41110247 0.6787924 -0.4638478 0.06534912 -0.59331244 -0.08976573 0.36451393 0.48913798 -0.7532101 -0.090944834 -0.21303499 0.3914617 -0.6979004 -0.057275414 -0.15753046 0.33912864 -0.12503521 0.019529693 0.4510164 0.06610261 0.49364144 -0.5747384 0.68836236 -0.039028555 0.680726 -0.55998904 0.22403991 0.09092407 -0.6467872 -0.27854243 0.37618014 -0.29345894 0.38172296 0.31361505 0.60660046 -0.06920776 -0.2685998 -0.36680582 0.33451667 0.2581788 0.1805409 0.6090784 -0.22890444 -0.32994103 0.25896093 -0.36866 -0.41305825 -0.13040626 -0.07570366 0.07332674 0.12619306 0.54343367 -0.511039 0.23329291 -0.36736926 -0.575135 -0.15095575 -0.01180978 0.0873367 -0.28197673 0.17690644 0.025752278 -0.02268601 0.12855628 -0.43175146 -0.30169368 -0.23489958 -0.29956433 0.4161648 -0.5352069 -0.19183147 0.17107847 0.28301185 -0.2098682 -0.50767297 0.09393085 -0.14108907 -0.43962803 0.012274902 -0.27861515 -0.3207834 0.16203953 0.3078096 -0.23547997 -0.09773661 -0.5691266 -0.00034396912 0.044155702 -0.5165735 -0.514625 -0.28582194 0.19187625 0.44105932 -0.62919265 -0.19256823 -0.6005639 0.34527838 0.09159195 0.7692856 -0.7179101 0.8697463 0.063961685 0.46753213 0.43664056 -0.41568312 0.14117032 -0.31882212
74 -0.14404319 0.17584202 -0.8395098 -0.2520307 0.051282037 0.9680776 -0.7705564 0.33042464 0.3448635 -0.5261977 0.30676275 0.6852658 -0.9279976 1.0075105 0.45852906 -0.53528 -0.0005517444 -0.30143106 0.67214876 -0.89279044 -0.8974599 -0.22744507 0.06525517 -0.01021525 -0.057338994 -0.39973608 -0.84920657 0.44066688 0.685807 -0.447514 0.493472 0.18868418 0.094957605 0.16356976 0.6264937 -0.5999562 0.12727945 -0.95908916 -0.00697837 0.727156 -0.0947312 0.65010357 -0.93426186 0.6507011 -0.24015124 0.6461208 -0.68000394 -0.41301188 -0.032508004 -0.49303555 0.713488 0.25936335 -0.08473177 -0.047605887 0.55186456 0.66263556 -0.056332532 0.4081544 -0.34008813 0.2318293 -0.049315613 -0.14030416 0.9172788 -0.62751055 -0.5155386 -0.09179252 0.17918296 -0.47473556 -0.43846956 -0.23153377 0.26513484 0.62698084 0.23229602 -0.6049068 0.57431173 -0.4063376 -0.4335597 -0.3456595 0.010969543 -0.02032422 -0.50735736 -0.24374817 -0.20472574 0.14292838 0.49667385 -0.5747529 -0.66655135 -0.19554423 -0.87197345 0.9667776 -0.1248961 -0.22273396 0.6232771 0.5061541 -1.1492863 -0.11128692 0.27866852 0.26267752 -0.14427795 -0.7689357 -0.10267507 -0.85270643 -0.3345665 -0.23183261 0.08235227 0.06549872 -0.99447656 0.6579447 -0.47221005 -0.1015542 -0.22915936 -0.7391992 0.55501866 -0.17403084 -0.10035767 0.114934266 -0.78210664 0.21439005 -0.19406445 0.029686134 -0.73637676 0.2694113 -0.12564155 0.9831902 0.08458516 -0.46302038 -0.32709578 -0.034568027
28 0.15489407 -0.12428951 -0.17869556 -0.0070495578 0.30582735 1.09253 -0.45942706 0.11667567 -0.06638508 -0.43626678 0.5569283 0.07471665 -0.4799127 1.2565084 0.13129592 0.43978536 -0.39877778 -0.1893197 -0.05865493 0.38165906 -1.130628 0.7487677 0.34631142 -0.70131296 -0.34710088 -0.15268484 -0.90897876 0.25590768 0.020200592 0.15903147 0.07672685 -0.8074388 0.8997076 0.08969771 -0.60981905 -0.6241421 0.6975899 0.12265391 -0.02502054 1.0153255 0.22922139 0.17715631 -0.32545683 0.34895518 -0.22381712 0.48133674 -0.9802724 0.38753927 -0.5020544 -0.2420927 0.12157325 0.6057753 0.81000453 0.10116926 0.8625594 0.21488015 0.058074396 -0.16810198 -0.0734666 -0.49733603 -0.4083208 0.50627756 0.6819285 -0.6414875 -0.24397504 0.47033298 -0.07272197 -0.40915647 0.37506443 -0.21641763 -0.16587617 0.40471074 0.62075055 -0.352707 0.73896444 -0.19186252 -1.2748935 0.48415208 -1.2177489 0.58988154 -0.90491694 -0.03618139 -0.18634371 0.04562358 0.5859553 0.5061657 0.20082532 -0.43661153 0.011956375 0.11091509 -0.14839411 -0.2105719 -0.16980271 1.0969777 -0.37578967 0.21420239 -0.6178946 -0.04353729 -0.3744448 -0.8040365 0.0701818 -0.43397138 -0.2806302 -0.12950101 -0.40771997 0.3484736 -0.34015325 -0.044457644 -0.2578227 -0.8850933 -0.05288241 -0.2842477 0.7563628 -0.17584698 -0.16214095 0.6084716 -1.0253285 0.39888206 0.44200873 0.6809365 0.11727074 0.5932184 0.13636568 0.8710429 -0.29117745 0.08793096 -0.6108625 -0.2869778
189 0.187636 0.2834 -0.57216567 0.11503098 1.1933388 0.58783424 -0.49053213 0.28919545 0.0029162958 -0.6423742 0.314286 0.071680546 -0.31615093 -0.073251896 0.5963267 0.27187803 -0.85799 -0.03304354 -0.3121654 -0.5582818 -0.6540379 1.1944554 0.8163738 0.094011456 0.21729238 -0.1755391 -0.14189294 0.17909095 -0.5303978 -1.2106452 0.037892006 0.058683164 0.29597953 -0.6804424 -0.37297925 -0.23754291 0.39017794 -0.7288483 -0.14423858 -0.12857395 0.049219076 0.4090191 0.110776536 0.528992 -0.22606279 0.97779155 -0.20571959 0.9191053 -0.43937582 -0.41508424 0.13108703 0.37997815 0.23182254 0.2441804 0.3779369 0.2446965 0.50930405 -0.8466637 -0.91735774 0.46347904 0.5221554 0.23794244 0.70398986 0.11247 -0.8641242 0.10099581 0.29774827 0.006957615 -0.20121628 0.038910504 -0.6271282 0.2226624 0.15120901 -0.69899726 -0.19840813 -0.11518579 -0.48035097 0.42391473 -0.4635233 0.23388651 -0.21099213 -0.36331582 -0.35671374 -0.4464945 1.0175791 0.33699 -0.108203836 0.4327128 -0.7451923 0.310166 -0.24646257 -0.38843644 0.20796241 0.36421114 0.053730324 0.0034152772 -0.16125254 -1.15249 0.07179701 0.42009768 -0.47674093 -0.6097226 -0.5327456 -0.031950444 -0.30147162 -0.35603756 -0.4203884 0.15831308 0.6394083 -0.58329314 -0.61437047 -0.14958279 0.60556895 -0.20658758 -0.8365446 0.023906453 -0.4536319 0.44370082 0.26061133 0.6895761 -0.6024901 -0.02833293 0.10295326 0.8991301 -0.028303187 0.3323268 -0.6549976 -0.431739
820 -0.018811502 0.5024378 -0.16679983 0.36211956 0.16440596 0.2588792 -0.44918802 0.18250872 0.42664355 -0.385623 0.4475456 0.087197535 -0.21235685 0.37421006 0.23401915 0.14729473 -0.55801225 -0.48207644 0.09861618 -0.37185782 -0.4308281 0.3394226 0.24430904 -0.3013929 0.12576889 -0.4998454 -0.37069625 0.23184359 0.39244887 -0.356494 0.11784925 -0.171238 0.45849758 -0.40294337 -0.3452274 -0.23235475 0.37813148 -0.1565641 -0.07874831 0.48754007 0.20990978 0.3588283 -0.4055801 0.3739789 -0.028583957 0.40903476 -0.40989184 0.23617923 -0.020527544 -0.28260145 -0.13437022 0.25705662 0.04658771 0.28472048 0.14444447 0.38898 -0.11351797 -0.16729882 -0.21305685 0.1539632 0.35295504 0.334886 0.4766852 -0.19368717 -0.22245039 0.2945175 -0.3582156 -0.32924825 0.12241379 -0.22281717 -0.022165185 0.19622253 0.35412803 -0.35296914 0.2981582 -0.25735366 -0.44189784 0.0065905834 -0.26181906 0.13960706 -0.24208988 0.03992438 -0.22016999 -0.16780984 0.46227303 -0.12428304 -0.10640919 -0.34797373 -0.34386927 0.3697332 -0.41917688 -0.120126866 0.18563078 0.20852746 -0.3290067 -0.2533113 0.057151765 -0.17869996 -0.53360295 -0.1477725 -0.31610918 -0.21889828 0.12268825 0.27597207 -0.040323135 -0.048118513 -0.3985014 -0.20604178 0.026578823 -0.39477277 -0.21660843 -0.33701628 0.13452038 0.17371465 -0.3227967 -0.11764727 -0.52393097 0.40840617 0.09215347 0.3486224 -0.3831944 0.35814276 0.0018278374 0.45986724 0.20189378 -0.3002668 0.03857694 -0.22820438
326 -0.16662256 0.1014609 -0.7046228 0.49468213 0.08218093 0.68795043 -0.17898583 0.22336715 0.70539945 0.26173887 0.5204533 0.18757962 -0.3248819 0.7428344 0.42241234 0.1912078 -0.18170625 -0.764165 0.60802704 -0.17826135 0.50422466 0.3040221 1.0253005 -0.7548805 -0.05749457 -0.77770305 -0.21168372 0.15710096 -0.025608744 -0.570245 -0.99412304 -0.01341033 0.17666242 -0.54751384 0.70375323 -0.44478095 0.1279382 -0.36006635 -0.17752749 -0.11751028 0.27359053 0.012542483 -0.62607664 1.1275806 0.011950272 0.7337802 -0.80791175 -0.10379998 0.08882829 -0.60804904 -0.65677196 -0.16054839 -0.57902396 0.6546684 0.56513005 0.60899997 0.11734202 -0.27433944 -0.20738348 0.33812 0.3188222 0.19969043 1.0987785 -0.5224297 -0.5572442 0.64219755 -0.29862827 -0.9906954 -0.2587254 0.098407336 0.20202744 0.2785717 0.69549465 -0.21422544 0.31914392 -0.31106797 -0.31868103 -0.27467185 0.03439389 0.0007983208 -0.3953491 0.30114394 0.25950524 0.5486831 -0.47028098 -0.5531819 -0.41375494 0.34953877 -0.335589 0.48607212 -0.25829118 -0.53741807 0.6923244 -0.29393184 -0.69728863 -0.4160117 0.23481698 0.06509602 0.28859425 0.24036334 0.3142358 0.07397546 -0.049930636 0.10746675 -0.5009932 0.3188234 -0.9621283 0.53297216 -0.3765756 -0.04311867 -0.77557755 -0.005512041 0.2514739 0.25718382 -0.2770642 -0.40823904 -0.057028998 0.56010634 -0.069427945 0.8451601 -0.54039955 0.81169665 -0.29580843 0.88593894 0.85132813 -0.1421012 -0.077327766 0.005463544
191 -0.43199804 0.7204286 -0.19505306 -0.020020446 0.77151877 0.61856073 -0.045555938 -0.18437901 0.6345075 -1.0628622 1.2767802 0.15645394 -0.25904578 0.311766 0.9092259 -0.116936244 -0.7146816 -0.49290463 -0.24676323 -0.8980421 -1.2306321 0.3320548 0.091895275 0.1992417 0.28662175 -1.0077885 -0.4192961 -0.25093022 0.09352902 -0.5662148 -0.19135062 -0.44996122 0.17470561 -0.17278114 0.09885079 -1.2135934 0.40252653 -0.39653024 0.9014042 -0.018386867 0.36728477 -0.21956597 -1.1045063 0.81594133 -0.33461395 -0.35312134 -0.37666896 0.3089425 -0.22865409 -0.6075419 -0.19859964 0.63885474 0.6068105 -0.07077712 0.6203633 -0.1111094 -0.435678 -0.64469016 -0.09845361 0.6037507 0.510223 -0.20763259 1.010502 -0.68141013 -0.5572702 0.14398198 0.028757118 -0.36217666 -0.22256362 -0.25953776 0.06397896 0.4132084 -0.056796145 -0.598509 0.23053403 -0.6439312 -0.7958397 -1.154879 -0.77354705 -0.43022496 -0.45496768 -0.102078594 -0.11157775 -0.74833894 0.79938996 -0.54878867 0.022788553 0.04169847 -0.58503914 0.8651152 -0.3943687 -0.1093983 0.054459367 0.21643525 -0.6971225 -0.5969181 -0.25611094 -0.08282034 0.014091711 0.42103672 -0.6023437 -0.10170455 0.16659962 0.15315336 0.39538407 -0.28760672 -0.74048966 -0.71102774 -0.37059844 0.052897952 -0.30504742 -0.4319156 0.27706325 0.7344373 -0.019538317 -0.49874085 -0.8109648 0.79113156 0.44460297 0.40009287 -0.15303801 0.99888974 -0.5442733 -0.096059695 -0.1527 -0.34611374 -0.5568506 0.036392838
340 0.4719632 -0.04169576 -0.28436327 0.223852 0.64160985 0.7935309 -0.31105462 -0.03925443 0.349167 0.1858087 0.35494396 0.047583066 -0.33435738 0.8849175 0.22038454 0.5482659 -0.23772328 0.2115139 -0.060884595 -0.25374913 -0.66108835 0.28485516 1.5023865 -1.0081484 -0.17460206 -0.5847277 -0.3569778 0.56705767 0.01525612 -0.23861165 -0.35882232 -0.5112939 0.12732862 -0.8716764 0.20410296 -0.15255333 -0.063261926 -0.4884991 -0.1742572 0.030243333 -0.08673937 0.05303773 -0.6410325 0.5539039 0.011815905 1.0514984 -1.2633181 0.57259226 0.34710142 -0.5015077 -0.29323065 -0.010815723 -0.28120193 0.7442263 0.7334673 0.34763682 -0.12642875 -0.6098163 -0.04348205 0.1568055 -0.1832971 0.3399733 0.6654608 -0.7891469 -0.4704729 0.35605395 -0.15161607 -0.8868344 -0.04679567 0.39942792 0.21559355 0.2584246 0.9983486 -0.22123066 -0.2279363 -0.7693227 0.09812694 0.09799689 -0.504856 0.3460794 -0.21824281 0.11557719 -0.42998552 0.7825015 0.58296216 0.049163 0.011590245 -0.21115777 -0.8339814 0.15065949 -0.14293262 -0.5105908 -0.10174426 0.184893 -0.50272024 -0.14517142 0.15212333 0.109338745 -0.3755877 -0.12067472 0.19266826 -0.5459297 -0.083779566 0.26523367 -0.4933284 0.19956107 -1.0576745 0.617036 0.3849024 -0.03024424 -0.7328294 0.11662237 0.21202637 -0.15344228 -0.85391855 -0.040334072 -0.47975466 0.2038609 0.22207361 0.9265015 -0.5742472 1.0765209 -0.13218775 0.9036676 1.0600383 0.46440825 0.14516231 -0.83324474
63 0.007645157 0.6534181 -0.11737404 0.3736413 0.1042784 0.40934134 -0.61347556 0.29386437 0.46859217 -0.42357102 0.50433075 0.13388962 -0.18438686 0.566758 0.24720083 0.21687923 -0.6014437 -0.49492544 0.18907583 -0.38685805 -0.6963652 0.40438676 0.3776127 -0.39393973 0.08669939 -0.47990054 -0.5196153 0.34270814 0.44430628 -0.3744374 0.16930772 -0.2817263 0.63113683 -0.470149 -0.5439024 -0.3389032 0.45179868 -0.24170348 -0.029188422 0.61598355 0.22894883 0.51115286 -0.3928224 0.45279634 0.006182667 0.5300942 -0.60564995 0.28239432 -0.04050143 -0.35572854 -0.22863433 0.25534412 0.06880323 0.40132308 0.13233407 0.5532412 -0.18542404 -0.15797375 -0.34800062 0.32186985 0.38855425 0.3212479 0.5665232 -0.32303327 -0.29686588 0.43846798 -0.52512556 -0.4350188 0.1081765 -0.26728594 0.038457014 0.19640206 0.5678426 -0.40288237 0.3586339 -0.3192793 -0.483692 0.016825711 -0.2682997 0.23163894 -0.27693474 -0.039964564 -0.2648842 -0.2764838 0.6485579 -0.07435303 -0.047063224 -0.44548652 -0.40113598 0.3913482 -0.59366417 -0.037607204 0.27591327 0.27235284 -0.3876891 -0.40595147 0.11444461 -0.28505105 -0.68332577 -0.25815406 -0.38984692 -0.29497987 0.19442108 0.29321975 0.01548938 0.06897604 -0.54741967 -0.20040673 0.074063115 -0.47076747 -0.3379723 -0.35220143 0.21755208 0.23902568 -0.4516815 -0.13017659 -0.65067166 0.5027082 0.05744337 0.42195702 -0.48871732 0.4182833 0.026762925 0.60731965 0.31020012 -0.3648642 0.100673094 -0.31014413
546 -0.32440826 -0.2932652 -0.52272236 -0.14352815 -0.2602345 0.97246796 -0.8981097 0.72431123 0.35223094 -0.713929 0.034805115 0.28873876 0.27678764 0.44793832 0.43931037 0.36264697 -0.602685 0.3729108 0.11368737 -0.33222872 -0.8116472 0.040125895 0.64749557 0.075831585 -0.04415052 -0.31245765 -0.94451565 -0.13103646 -0.3680325 -0.85592824 -0.070082486 -0.29022646 0.6363766 -0.042030137 -0.52650374 -0.7144659 -0.046748035 -0.8994111 -0.25859442 0.0075654476 0.566073 0.35463306 -0.50948876 0.16933294 -0.8828969 0.3730175 -0.8587829 0.42510664 0.49516428 -0.08140489 -0.0570212 -0.023108574 0.16743015 0.24169768 0.11309386 0.034408815 -0.09929718 -0.31703267 -0.754477 0.48776102 0.7397027 -0.36982447 0.41935316 0.1906352 -0.86535996 0.8829914 -0.26042864 -0.30439618 0.051339615 -0.5719412 -0.70562774 0.54199284 0.87754476 0.105104364 -0.016353378 -0.38528267 -0.39026463 -0.4173479 -0.750162 0.6622079 0.23135133 0.26566723 -0.31383502 -0.58323157 1.1508654 0.17635961 -0.7301383 0.016674228 -0.43271837 0.5287766 0.3744058 -0.3788808 0.74650204 0.45648998 -1.1026853 0.15656172 0.051811416 -0.505499 -0.54535764 -0.4395771 -0.7062097 -0.44539544 -0.20068645 0.4530676 0.5481307 0.3604046 -1.1072187 0.3775936 -0.29168484 -0.25214264 -0.895174 -0.18061355 0.18389551 -0.040950146 -0.65477735 -0.29711777 -0.5290275 0.813081 -0.24186698 0.45266604 -0.65208507 0.7010598 0.16294768 0.71519524 0.4446124 0.34227774 -0.5266194 -0.3735704
419 -0.047956582 0.5629588 -0.14580236 0.46892107 0.2442464 0.2836549 -0.44689813 0.17986296 0.54013056 -0.47849867 0.5379859 0.09687491 -0.23834716 0.44736937 0.29133654 0.16652903 -0.59875077 -0.5015129 0.057725254 -0.38235396 -0.47381893 0.51790226 0.20848107 -0.3088653 0.0944994 -0.5457755 -0.43082696 0.23377992 0.3832561 -0.3867217 0.12175037 -0.22793634 0.40762794 -0.44002038 -0.37632728 -0.2752499 0.47503787 -0.14722018 -0.08290949 0.5689399 0.24707128 0.37840536 -0.45946175 0.48519152 -0.05676799 0.4849139 -0.40820462 0.24404338 -0.051890425 -0.33956948 -0.24121891 0.3137662 0.06388167 0.27175364 0.13842852 0.45220765 -0.17422323 -0.22838074 -0.24885511 0.16217473 0.39506236 0.33225328 0.5477826 -0.24013954 -0.23459835 0.3016962 -0.4644868 -0.40595868 0.22818108 -0.23526222 -0.020073662 0.15080869 0.45184758 -0.45740476 0.3293546 -0.30457786 -0.4707758 0.013317279 -0.2638304 0.17055023 -0.2523647 0.035491545 -0.26577738 -0.19513099 0.53328407 -0.12594153 -0.042685043 -0.33478776 -0.37249562 0.4605708 -0.48418304 -0.096409194 0.21399651 0.20661606 -0.37428525 -0.35868055 0.04569346 -0.21433951 -0.5296727 -0.16548136 -0.4103519 -0.2878109 0.2258267 0.27019453 -0.13530013 -0.051919572 -0.48696446 -0.2546937 0.072194494 -0.48842955 -0.3209596 -0.31640247 0.20515217 0.19011267 -0.42985287 -0.1507839 -0.5822052 0.40408665 0.14761733 0.36711925 -0.4648659 0.37513423 0.038856126 0.48326635 0.2137787 -0.36341113 -0.00909225 -0.3199614
283 -0.18051398 0.4794769 -0.06258219 0.37784603 0.21538118 0.31543764 -0.46570405 0.2748606 0.5227277 -0.4600246 0.51987493 0.054489642 -0.17310871 0.38941208 0.15987849 0.08424281 -0.5741938 -0.578869 0.22895694 -0.43797526 -0.5655026 0.30661285 0.28592348 -0.25985742 0.12251822 -0.5206122 -0.38826242 0.27957675 0.48698694 -0.54116917 0.017767075 -0.117266916 0.4427024 -0.4960375 -0.29055563 -0.42716172 0.36356342 -0.2632721 0.02159197 0.4805829 0.21292774 0.37385696 -0.43023035 0.56722003 -0.08585997 0.44300914 -0.46182004 0.15057264 0.046452414 -0.3293782 -0.21560828 0.41471097 -0.09898061 0.24879323 0.15569115 0.4473481 -0.23882425 -0.13726215 -0.37955555 0.2530948 0.3399857 0.262361 0.4483446 -0.17332615 -0.2724306 0.27640843 -0.4592577 -0.3360309 0.04281842 -0.11607814 0.0014882145 0.1602941 0.55607796 -0.35219145 0.143843 -0.459918 -0.47833395 -0.036795016 -0.16977581 0.15624183 -0.2243912 -0.04153869 -0.20492733 -0.30050194 0.4515832 -0.21251945 -0.13157973 -0.34187973 -0.3644246 0.44693393 -0.5307629 -0.04995407 0.1939724 0.17907438 -0.32262498 -0.3751015 0.042058986 -0.20788983 -0.47413704 -0.19793543 -0.41089144 -0.35250652 0.21230322 0.26850325 -0.02894466 -0.03297268 -0.43738267 -0.12055944 -0.004869413 -0.36461172 -0.32340157 -0.3969107 0.19003592 0.23979966 -0.5503101 -0.12552547 -0.47934377 0.4334566 0.0557349 0.4013947 -0.46066967 0.53745323 -0.07249263 0.55556077 0.23540519 -0.33299655 0.043516964 -0.29743922
137 -0.0021383232 0.65883607 -0.16868605 0.3139443 0.20142543 0.37415338 -0.5545978 0.3366652 0.38378954 -0.29335314 0.39499804 -0.025618128 -0.06805767 0.5568128 0.2172394 0.019728 -0.41455522 -0.3836199 0.08413125 -0.2626587 -0.5152401 0.16078651 0.30667624 -0.33589756 0.12249542 -0.5802107 -0.37788 0.20527901 0.42330334 -0.14163543 0.1280841 -0.23018055 0.48931664 -0.35120013 -0.23780303 -0.053904425 0.40445787 -0.20968106 -0.17609511 0.54965544 0.21016273 0.29224205 -0.38110754 0.3825136 -0.008457424 0.4447079 -0.4388433 0.33500224 -0.09370227 -0.22750708 -0.02057339 0.093545906 0.10468244 0.17212883 0.25908062 0.42360437 -0.03225642 -0.17858435 -0.1991611 0.28684735 0.2352755 0.35319656 0.47011587 -0.23395418 -0.19609894 0.32097322 -0.42266858 -0.33102214 0.0668626 -0.24704723 -0.15017593 0.21971779 0.39048845 -0.36008108 0.27265882 -0.21361218 -0.44211656 0.1639238 -0.28557247 0.24518126 -0.25056657 -0.016799431 -0.20368065 -0.24940369 0.5455431 -0.052936155 0.06147594 -0.3838577 -0.50777674 0.3407844 -0.5213181 -0.14446475 0.08603435 0.20214881 -0.32922682 -0.24210949 -0.113578156 -0.20118557 -0.69639236 -0.02565364 -0.2580401 -0.3061457 0.17187028 0.22722352 -0.10905733 -0.18148099 -0.41658172 -0.1992508 0.060492057 -0.28445196 -0.23191111 -0.19326761 0.13806514 0.069497876 -0.37545463 -0.033413973 -0.49104363 0.31724998 0.11288912 0.29323727 -0.18046503 0.31262606 -0.008880666 0.48185226 0.2974477 -0.30858538 0.25205013 -0.39720204
