1005 128
344 0.077439204 -0.6925674 0.14802916 -0.41525114 -0.0062387283 -0.24585815 0.07952897 0.12116559 0.15515494 0.3772198 0.06158094 0.0059054904 -0.057198465 -0.023229977 0.35765803 0.0568454 0.24837977 -0.14525491 0.016937835 -0.20922153 0.16984205 0.031556454 0.16281767 -0.40335172 0.45965162 0.39368108 0.054705556 -0.5839842 0.2679187 0.20489022 -0.2147365 -0.098873705 -0.26253122 0.26467675 -0.48293912 -0.10517782 -0.22524695 -0.047616143 -0.05111796 0.6106022 -0.31785378 0.32691893 0.068938404 0.20142873 -0.028751073 -0.20234685 0.19961551 -0.12189452 -0.16253118 -0.34787306 -0.20649433 0.23977919 0.84382874 0.31403115 -0.008558099 0.4085878 0.3145853 0.11272554 0.23276703 0.1029336 -0.025869705 0.05888221 0.09046804 -0.22739291 -0.32464668 -0.096724086 -0.047605496 0.31446177 0.03170936 0.23975712 0.26126328 0.25419915 -0.047947317 0.32687828 -0.0459807 -0.14832488 0.13215727 -0.015341429 -0.09750676 0.010316968 0.087466516 0.20802356 0.24735558 0.0035179 0.0917018 -0.17673694 0.08014156 0.17797828 0.010063282 -0.38107446 -0.4852534 -0.2268344 0.035027295 -0.089837246 -0.036368717 0.16814372 -0.0526026 0.071808174 0.07701111 0.034898292 -0.3393573 0.022010408 0.1262213 0.21703093 0.5356714 0.08372932 -0.3048585 -0.2645267 -0.058120772 -0.061255038 -0.10780189 -0.55087316 -0.13621825 0.274063 -0.049889114 0.26691976 0.10727709 0.071509376 0.22493058 -0.08482262 -0.016967747 -0.07518525 0.27373287 -0.035455212 0.21795548 0.044488117 0.13565603 -0.107417144
819 0.14133887 -0.16625127 0.09447739 -0.7046917 -0.36403963 0.17430958 0.06009528 -0.13989748 -0.27151045 -0.12962195 0.14136472 0.56549424 -0.06402145 -0.5800764 0.27075195 0.23456134 0.22479747 0.011562577 0.045469645 0.07247753 0.14066935 -0.311302 0.013599286 0.063059814 -0.33086962 0.25461861 -0.31427735 -0.014269334 -0.33389306 0.24143378 0.13692555 0.08057702 -0.04440246 0.08875371 -0.38011312 0.27921543 -0.050025567 -0.30326134 0.18754664 -0.11510439 -0.1331654 -0.0421407 -0.31022963 -0.13594927 0.59595466 -0.40288258 -0.038467903 -0.22354977 -0.05011188 0.0049525364 -0.1446968 0.09397574 0.13224961 0.25577116 0.27713 0.03452864 -0.03809728 -0.34835443 0.04621988 -0.11142911 0.36231723 -0.1798 -0.049741883 0.27432325 -0.3154184 0.021673929 -0.3079921 -0.08215141 0.16498329 0.3162533 0.09699181 -0.41310185 0.59445804 -0.32950106 0.33237612 -0.4198251 -0.13335519 0.43221027 -0.037035692 0.077987425 -0.2819196 0.12000886 0.15759648 0.5770253 0.22922717 0.5627171 0.056461755 -0.03649229 -0.33877283 -0.19820847 -0.05836026 -0.25863913 -0.12746833 0.4639675 -0.4983956 0.24816746 0.16024283 -0.23377025 -0.06355328 -0.0568139 -0.4479672 0.25700617 0.31528243 -0.56331176 -0.39166486 -0.367408 -0.045600165 0.31904024 -0.045806494 -0.31720763 -0.07333546 0.5951302 0.13346834 0.29941598 0.11125724 -0.30551368 0.38316777 0.04014513 0.6361098 -0.19927417 0.22776474 0.32412332 -0.01580101 0.2824482 0.30981374 0.288303 0.06342314 0.03452003
346 0.048485592 -0.064281136 0.06373768 -0.21318056 0.23029283 -0.07108404 0.28875652 -0.09999162 0.049169175 0.15770547 0.12859702 0.22487324 -0.03048695 0.1411467 0.20563775 0.34125537 -0.027935801 0.14805408 -0.17590593 -0.33392128 0.025433073 -0.2465602 -0.16739254 -0.32044128 -0.03586917 -0.04693291 0.12604778 -0.4856203 0.0044612256 0.02660312 0.5534531 -0.11570452 0.1339824 0.08992925 0.279418 0.26210594 -0.019236494 0.009399228 -0.31288442 0.14579348 -0.10835331 0.034121674 0.28175482 -0.014691285 0.3291189 -0.091288574 0.19303274 -0.09437126 -0.23149161 0.15035816 -0.1280186 0.22395599 0.2819042 -0.17942984 0.091674484 0.06791432 -0.24971145 -0.319779 0.32689035 -0.07985546 -0.12010982 0.34335685 0.16001235 0.0753088 -0.024016298 -0.23569416 0.016910013 0.17468393 -0.00039738763 0.014559792 0.01631092 0.053640693 -0.19204691 0.011251586 -0.04877608 0.052142117 -0.08412802 0.086218424 -0.11847955 -0.31547242 0.028348608 -0.105936654 -0.2659799 0.096931405 0.41978124 -0.24248071 0.034362204 0.11355807 -0.12959625 0.03731334 0.030668236 -0.13876462 0.2025844 -0.06788759 -0.0048593553 -0.108222656 0.33879808 0.08233936 -0.08145669 -0.123560295 -0.40450948 0.15004705 0.12569751 -0.1265753 0.2512436 -0.1153252 -0.08218914 -0.47178644 -0.288533 -0.07389862 -0.07550255 0.10873259 0.11775113 0.08533297 -0.3963151 -0.022619396 0.21294273 0.21222241 0.34487292 0.090636216 0.07756415 -0.08542137 0.00039308317 0.07098812 -0.083559476 0.032818668 0.39942488 0.14664023
347 0.010845975 -0.068655126 -0.10864549 -0.40790978 -0.052913953 -0.23128967 0.38103423 0.024319625 0.360437 -0.21188918 0.030991564 -0.12125921 -0.037755907 0.48066476 0.57835543 0.36726108 0.023378327 -0.1679812 -0.06432985 0.03494344 -0.026987279 -0.11187141 -0.037285313 -0.054829344 0.42174432 0.25702983 -0.006376059 -0.508775 0.316038 0.2215097 -0.12593484 -0.13602787 -0.26248533 0.014482349 0.01761386 -0.026736096 0.22750975 0.07293524 -0.2945457 0.20691526 -0.057347078 0.1116269 0.113171615 0.32930845 -0.06647684 -0.20110077 0.019953812 -0.25832137 0.10390403 0.1485245 -0.09651801 0.2820875 0.50350654 0.1998329 -0.04771916 0.36306944 -0.21564873 -0.2557942 0.38419622 0.035803232 -0.2325035 0.08284115 0.020066112 -0.009278517 0.07260689 -0.040817935 -0.20022969 0.5797896 0.1485012 -0.031174565 0.111846395 0.19622925 0.13205019 0.3777142 0.0070982995 -0.32440007 0.09347548 0.13035624 0.05376072 0.14768653 -0.08825608 0.016217189 0.22024935 0.26525432 0.37746105 0.097415105 -0.07220817 0.06713549 0.12829542 -0.09824062 -0.19370571 0.0075060725 0.017658697 -0.37352562 0.2002326 0.20033057 0.07725222 0.17095652 -0.057008993 0.06274424 -0.16207585 0.43327624 -0.28363878 0.1722966 0.20739348 -0.03001692 -0.15795913 -0.21941994 -0.0017654215 -0.08524283 0.15268967 -0.12049962 -0.26496217 0.06706155 0.026013311 -0.002715681 -0.08442285 -0.10553613 0.3008206 -0.18223202 0.16564581 0.029518556 0.033720717 0.22985402 0.0744814 0.011486097 0.07376981 -0.27318016
340 0.13893707 0.002757328 0.13397169 -0.04267093 -0.14589874 0.098166004 -0.03150306 0.006593061 -0.15209863 -0.24735795 0.03305456 -0.21870813 0.14707707 0.053443953 0.26512966 0.14421597 0.08194754 0.13758965 -0.3224063 0.058077574 -0.2195694 0.10181693 -0.19720232 0.07268986 -0.06259868 -0.09547907 0.2093835 -0.24541533 0.33118695 -0.07713959 -0.23998752 -0.103209764 0.09620996 0.05579896 -0.0715804 -0.0012163583 0.06507233 0.057568543 -0.24466458 0.36023927 -0.08408498 0.055589695 0.14098129 0.016501972 0.26147017 0.11919266 0.03294146 0.17318551 -0.06061592 0.36623076 -0.18486059 0.1612686 0.1552344 0.02060011 0.28954142 0.133166 0.051926635 -0.084776774 -0.14271729 0.016236797 -0.10297977 -0.18166283 -0.024557918 0.40738818 0.13331881 0.07092171 -0.017016865 -0.04451986 0.010034949 0.13436142 -0.064908564 0.018371768 0.07773722 0.23793066 0.029399019 -0.070719145 0.096422955 0.22550204 -0.05797198 -0.04731441 -0.0890659 0.26948503 -0.13626137 -0.03776945 -0.10842929 0.18652464 0.34818324 -0.03842463 -0.09922473 -0.08736991 -0.021267189 -0.1122696 -0.14101733 0.06372684 -0.2394201 0.03291218 -0.15838708 -0.083539724 -0.18099962 0.024652634 -0.046292134 0.2019421 0.21899076 0.05508839 0.15880637 -0.12170899 0.18826658 0.07182107 -0.14687644 0.028799681 -0.06409103 0.07113637 0.20406467 -0.08863524 -0.03821792 0.026823055 -0.06175691 -0.25822234 -0.13291715 -0.0485109 0.17972249 -0.07054109 0.11683729 0.13181295 0.016484952 -0.25373092 -0.3426299 0.053192433
341 -0.17962098 -0.19977477 0.19349004 0.14685825 0.15866508 -0.047464006 0.17588007 -0.12405182 0.22333671 -0.11813497 0.28040332 -0.040762138 0.062177915 0.02112451 0.2525904 -0.20879227 -0.33898088 0.6270197 -0.070095666 0.34552866 -0.24689561 -0.31603903 0.12721351 -0.16504033 -0.03410329 0.24664989 0.10957861 0.23481663 0.016986264 0.24085489 -0.016784856 -0.13739061 0.13292147 0.1038967 0.16786128 0.20285775 0.06863028 0.21496671 -0.0948964 0.23677701 -0.1313736 0.13833056 0.28764963 0.48652545 -0.0012643938 0.20217228 -0.124503866 0.14620528 0.23911579 -0.051759195 -0.25348777 -0.42992872 0.21158811 -0.07111333 0.08158602 0.3123278 -0.4903392 -0.44995448 -0.03421288 -0.22927426 -0.4470271 -0.08694222 0.14179677 0.0709162 -0.0008409646 -0.24861431 0.11864465 0.36422375 0.06896512 0.21861541 0.09758984 0.13890217 -0.09471245 0.16574115 0.013177073 -0.4830098 0.16460621 0.2177421 0.017236786 -0.17272133 -0.14339317 -0.30052775 -0.051693056 -0.12362146 -0.38129663 0.08046433 -0.026991159 0.13752292 0.08328321 -0.36093 0.14507125 -0.039144985 -0.2992141 0.28777668 0.069513366 -0.026891796 0.016963603 0.18637575 -0.08283285 0.323667 0.13069573 -0.2720499 0.2089542 0.39337495 -0.37181216 -0.15053 -0.31036335 -0.0061071333 0.0052770465 -0.052257724 0.09033322 0.10836746 0.055113688 0.04826019 0.09072358 0.42163712 -0.0963032 -0.2355304 0.49765098 -0.055231225 -0.2865211 -0.22233464 -0.11079622 -0.2236053 -0.0028824334 -0.19726367 0.008269015 -0.0116788335
342 -0.103697725 -0.14231656 0.07025916 -0.35978898 0.048082292 0.119208455 0.102122866 -0.09252314 0.08011447 0.3223104 -0.15978043 0.04607936 -0.06113885 0.3138251 0.27393344 0.073733784 -0.009666787 -0.07563499 -0.13424258 0.009199846 -0.17672709 -0.088480495 -0.011609592 0.03408618 -0.108499855 0.15494043 0.010965638 -0.56772965 -0.19581585 0.048933093 -0.014377524 -0.12762047 -0.12908697 0.18423769 0.17679498 0.1548824 -0.07461709 0.013024685 0.050180122 0.48733392 -0.078850925 0.038655307 -0.17438778 0.05633223 0.040518858 -0.040498838 -0.027732825 -0.00085612363 -0.03903042 0.01405258 -0.0074380506 0.026381658 0.39698818 0.027714608 -0.15331975 0.30172285 0.08337136 -0.16852999 0.15583307 -0.02160825 0.009040149 -0.025509251 0.08697882 0.33697167 -0.15728098 -0.28809366 0.28134295 0.18670607 0.1305735 -0.16166453 0.17156154 -0.042936794 0.040664744 -0.0622629 -0.10172671 -0.23041342 0.16142139 0.18390933 0.033920966 -0.25536293 -0.12427424 0.28519225 -0.036585014 -0.071189426 0.28691936 -0.18746777 -0.072516106 -0.083708905 0.084114395 -0.1174679 0.117582016 -0.34436485 -0.062330037 -0.15538155 -0.20431349 -0.03864769 0.037978347 -0.06329696 0.21077685 -0.032576006 -0.1370566 0.06239569 0.10749127 0.24112613 0.12592526 -0.011892436 -0.069204204 -0.37402838 -0.3284848 -0.030763095 -0.17218076 -0.0504324 -0.088200316 0.018054623 -0.37805265 -0.15250681 0.14792633 0.0081928475 0.44960546 -0.094787054 0.27580142 -0.2439564 -0.039372925 -0.031259254 -0.0141342655 0.09221846 0.12776592 0.1959408
343 0.13863942 -0.061544232 0.17656897 -0.13639054 -0.25670886 -0.054449238 0.029112143 -0.06355818 0.23505205 -0.22770007 0.13621591 -0.0826544 -0.03167426 0.30797118 0.38215774 0.49503428 -0.027340109 -0.0021195933 -0.3420696 -0.18918386 0.22053596 0.04299579 0.17318402 -0.117466204 -0.1384456 0.34473568 -0.24248049 -0.4104833 -0.23300456 0.12928584 -0.03103772 0.20781155 -0.15092751 0.22599714 0.0154584 -0.025485216 -0.09616353 -0.018520474 0.003503086 0.48874745 0.011416847 0.16620907 -0.03651602 0.05901893 0.138683 -0.013025837 0.25297898 0.04300779 -0.30904105 -0.05207953 -0.026803944 0.1872718 0.15100297 0.07755108 0.011718462 0.2531979 -0.020927377 -0.02242703 0.2760938 -0.0154127795 0.011885503 -0.016756313 0.19808206 0.230884 -0.21040483 -0.10099741 -0.0032935992 0.19650057 -0.15593737 0.0044516614 0.036515947 0.47480786 -0.09434836 -0.09679365 -0.2846565 -0.03625968 0.07187068 0.27446705 0.12492585 -0.0648828 0.15380305 -0.15004851 0.12171424 -0.024693249 0.39561567 -0.1728832 -0.10344454 0.035050243 0.05374112 0.22757661 -0.10743145 -0.16162342 0.3563249 -0.13998887 -0.09773123 -0.11421123 0.15523587 0.33238542 -0.16667019 -0.07094815 -0.10068129 0.10277313 -0.052743837 0.1032555 0.09161277 0.12141641 -0.2060716 -0.5123218 -0.02783506 -0.09715591 -0.20240203 0.11524678 -0.3090831 -0.13739856 -0.52275234 -0.31252182 0.17491752 -0.43400785 0.3829056 -0.34125876 0.28917024 -0.057625826 0.081716016 0.026301913 -0.122341745 0.11249765 -0.28030834 0.29027206
810 0.0024890448 0.008643823 -0.23078032 -0.21353233 -0.12780526 -0.27662617 0.42844534 0.061546292 0.2809175 -0.17754085 -0.046323217 -0.109214954 0.26301217 -0.09734826 0.34406877 -0.061535895 -0.20614915 0.2359696 0.38945597 -0.021003725 -0.44726184 -0.00059440616 0.27585027 -0.10603445 0.4128723 0.04128307 0.23752075 -0.2800406 -0.05993677 0.07175247 0.079259194 -0.6267243 -0.023831522 0.17512259 0.12529147 0.41123274 -0.24073301 -0.090664595 0.18771806 0.37998474 0.038195655 -0.3263327 0.23684043 0.2341854 -0.13122769 0.004708541 0.34210694 0.028228905 0.17214398 -0.18329914 -0.12609631 -0.25148 -0.19464825 -0.021130254 0.2229018 0.26470032 -0.16705401 -0.18011932 -0.042672902 0.15501168 -0.2406501 0.05452685 -0.2247445 0.08362327 -0.14569475 -0.2454142 -0.25164512 0.007800687 0.25007573 0.3221037 -0.18205553 0.30171868 -0.15869132 0.037091628 -0.4855867 0.52102137 -0.22294302 0.26334548 0.22837278 -0.13365382 0.0022109882 0.09558244 -0.05738259 0.09227575 -0.18384713 0.16402417 0.20243439 0.03191001 -0.175643 0.16260682 0.2388205 -0.26655808 0.27536765 0.21527387 -0.27337605 0.31056425 0.1677881 0.025182502 0.40953395 -0.17023946 0.09879066 0.35993877 0.45794788 0.010538843 -0.034099586 -0.09761123 -0.35728192 0.12475239 0.50126195 -0.19883825 0.09101816 -0.2675038 0.04569387 0.31325075 -0.19911072 0.044278305 0.20039569 0.18312992 0.1624461 0.28516412 0.20080122 0.26753348 -0.31035414 0.04754352 0.17342426 -0.104052864 0.487788 0.12935922
811 0.4424994 -0.092413306 0.057620943 -0.1936068 0.03682626 -0.31215838 0.07290466 0.22616242 -0.44798204 0.18689756 0.3561971 0.03545789 0.33470508 0.2170883 0.3700694 0.10968446 -0.015260466 -0.020261936 -0.08799108 0.43203065 -0.3690323 0.22864729 -0.12347312 -0.038601935 0.0064814542 -0.23603395 0.1569811 0.06643608 -0.0067270193 -0.145642 -0.3791512 -0.063345805 0.034601714 -0.115647465 0.25125843 -0.16096035 -0.27668497 -0.14610046 -0.09635532 0.05634719 -0.5356378 0.1522455 0.23457581 -0.24062054 -0.23422143 0.2509794 0.34360948 0.24679744 -0.042243697 0.028875189 0.13793516 0.10769018 0.22982576 0.06553827 0.44525912 0.13457184 0.2691954 -0.2252924 0.00031236938 -0.22141865 0.08766654 -0.3936361 -0.17463672 0.022992712 0.18148902 -0.20445955 -0.105678074 0.011554665 0.68625504 0.10924135 -0.21941866 0.509861 -0.2950099 0.2681616 -0.34427908 0.04804886 0.27715242 -0.014384098 0.30022964 0.28322425 0.017205514 0.35348967 -0.34898716 0.3069753 0.022066018 -0.11400113 0.36191195 -0.30168453 -0.008512073 0.14901164 0.013193447 -0.31323886 -0.0143408915 -0.08017211 -0.3315183 0.19847773 0.25125718 -0.16836059 -0.50897783 0.27998516 -0.015214898 -0.29296196 0.23306052 0.008328024 -0.019117473 -0.37625283 -0.031438306 0.07166768 -0.25202566 -0.012526812 -0.12112079 0.11919613 0.3237824 -0.46336436 -0.2684899 -0.3267514 0.086254515 -0.065344095 0.12319249 -0.49414995 -0.09923388 0.24897958 -0.12385991 0.15966722 0.39640275 -0.2863363 -0.13947459 0.066008374
812 0.12002293 0.10522386 0.1567484 -0.28233296 -0.16189493 0.07784899 -0.15611614 -0.09440451 -0.10747515 -0.2839127 -0.04235658 0.16343734 0.013496296 -0.29053605 -0.039383743 0.005880986 -0.16017978 0.22366841 -0.031103376 0.039575256 0.12577142 0.31275263 -0.17898504 -0.06986513 0.039884754 -0.11639888 -0.19075081 -0.0899114 -0.060241703 0.27999496 -0.19789061 -0.0007671795 -0.041221518 0.008507109 -0.15986805 0.08446119 -0.31788203 0.011245576 0.10761314 0.20947307 -0.08107904 -0.1657117 0.1642185 0.16345064 0.10339543 -0.20066026 0.022389155 -0.12540904 -0.24305125 -0.15140057 0.025330996 -0.14964476 0.19832657 0.3052062 0.08905189 0.13377757 0.020345999 0.18880932 -0.052907333 -0.50580084 0.1250565 0.24612552 -0.023438154 0.23449288 0.08694594 -0.0148586985 -0.030488983 0.17852738 0.17804666 0.14768852 0.35473597 0.25538784 0.27376217 0.015857995 0.2092349 -0.16055255 -0.13386019 0.39717686 -0.080094814 0.24390621 -0.05225429 0.22613227 -0.09672979 0.21897851 0.029487582 -0.0012805829 0.28969267 -0.0025923846 -0.18842156 -0.0038690164 -0.05054204 -0.12657204 -0.18262587 0.23995939 0.3223836 0.2419203 0.045002833 -0.0214623 0.31981984 -0.16623029 -0.22087292 -0.13563675 0.00097419694 -0.20986003 -0.13990808 0.035326164 0.034915384 -0.08910854 0.1203001 0.05167838 -0.21848749 0.35995373 0.35073334 -0.14950222 0.025808938 -0.1992694 0.19755635 0.26686683 0.19696185 -0.03155529 -0.039781675 0.042189866 -0.21471965 0.06148192 -0.029266039 0.112064615 0.22695926 0.079406835
813 0.016087558 -0.1662792 0.2859447 -0.07021624 -0.24383675 0.4559073 0.06324582 0.3030718 0.05902485 0.045573775 0.23997869 0.080804825 0.19672649 0.2291515 -0.33494017 -0.2113828 0.017436659 0.42368987 -0.14497443 0.38531724 -0.12693582 -0.15123169 0.012867332 -0.12602599 0.20142515 -0.07091264 0.13954635 0.11898207 0.003706634 -0.13585326 0.05970645 -0.078683995 0.2936712 -0.21538337 -0.28238285 -0.04385659 -0.11464943 0.19837567 -0.29621217 0.46514937 0.26388863 0.070313536 0.018946124 -0.08896305 0.2430999 0.10206679 0.21932377 -0.3452309 -0.458744 0.1903899 0.04140012 0.03895129 0.6192465 -0.14333935 -0.27593422 0.19472837 -0.261135 -0.14380524 -0.28638005 -0.2746346 0.06281051 0.124702014 -0.1557017 0.06995795 -0.09899042 -0.015783828 -0.014179402 0.4660803 -0.2552545 0.15106718 0.15863454 0.1189217 -0.4268555 -0.1419639 -0.22229837 0.08164254 -0.014358294 0.2079627 0.23396888 -0.29027423 -0.11166718 -0.24939041 0.0046694735 -0.42151392 0.32493412 0.40955055 0.1469893 0.191337 -0.19242653 -0.25293693 -0.09536116 -0.096853234 0.106365025 -0.17391317 0.17902151 -0.01784848 0.261672 0.15929809 -0.08753694 0.23798199 0.1809053 0.13303398 0.19298357 -0.40036324 0.042375583 -0.051255364 -0.101720124 -0.14134356 -0.45080367 -0.12127479 -0.45347336 -0.1481673 0.07631554 -0.13910885 -0.24862577 -0.20889738 -0.022096418 -0.051709425 0.00778352 -0.3187701 0.22087902 0.33767244 0.1471097 -0.15609756 -0.05842996 0.1482096 0.5856072 -0.31877652
348 0.019992696 -0.024203502 0.16085993 -0.19782057 0.13019925 -0.192951 0.29601437 0.35012463 -0.16276099 -0.059188236 0.14783937 -0.038253896 0.01970394 -0.3226989 0.5202344 0.17504881 -0.101643376 0.16542001 -0.25284952 -0.16963598 -0.08225451 -0.31454897 0.1701099 -0.044681333 0.13583426 -0.07734788 0.15824395 -0.8727211 -0.011645749 0.10937305 0.06640322 -0.24152017 0.009103214 0.43702585 0.1309346 -0.058447152 -0.08002867 -0.3082086 0.32525924 0.71809727 -0.11561416 0.22230743 -0.083998695 0.46431985 -0.14568955 -0.3839961 0.2334548 -0.14101481 0.06106967 0.26317006 -0.06096992 0.23269458 0.5550739 0.34348065 0.44721398 0.4877376 0.13292578 -0.28028572 0.33990836 0.20725119 0.07989959 0.18827993 -0.04295801 0.11751885 0.06473168 -0.25011405 -0.040893547 0.2995473 -0.076822005 0.3205359 0.4345182 0.14884035 0.35339385 0.12803511 0.16707516 -0.21930915 0.1792039 -0.032667775 -0.104326464 -0.18001078 -0.17469808 0.16404843 0.288992 -0.2824986 0.54610616 0.1662273 -0.36578912 -0.27105457 0.38217217 0.14927214 -0.21848327 -0.064458065 0.34788892 -0.019527676 -0.12197071 0.06680796 -0.25152305 -0.09114293 0.41302297 -0.44508526 -0.29165176 0.3628661 -0.06588571 0.091971196 0.23295112 -0.11781434 -0.07183468 -0.3120937 0.055262964 -0.033989184 -0.27313155 -0.45072895 -0.06788428 0.09191816 -0.3901703 0.26263893 0.24993473 -0.27883193 0.71694845 -0.15561572 0.26398772 -0.07628385 0.1470127 0.07829899 0.27147144 0.2299313 0.22611296 0.26365072
349 0.030494805 -0.44190344 -0.06402429 -0.31355968 0.19826639 -0.34481677 0.09586322 0.21790737 0.03904558 -0.081117444 0.1082587 -0.021145443 0.07709202 -0.35825384 0.5481433 0.14203155 0.011661106 -0.047049776 0.39515647 -0.18037987 -0.074752 -0.29418665 -0.05541761 0.023059385 0.20945568 0.16775353 0.06942584 -0.5531173 0.017394934 0.1406321 -0.19435048 -0.48482102 -0.12548223 0.41390297 -0.097875945 -0.097494625 -0.22289993 -0.26187697 -0.037864506 0.3694549 -0.14562072 0.117057785 0.03438792 0.43162653 -0.1972115 -0.35854164 0.4149564 0.13151638 -0.13042924 -0.046758786 -0.011236149 0.21675573 0.4381111 0.15712391 0.38495207 0.116033696 0.07131808 -0.07552468 0.24534132 0.05461152 0.022305803 0.22808985 -0.08578949 -0.038081635 0.11060304 -0.16045359 0.12800203 0.5932401 0.0342606 0.2738956 0.34959257 0.08327605 -0.015617061 0.13937071 0.032176744 -0.2676044 0.057011385 -0.053530373 0.053986505 0.014655019 -0.36419588 0.05557654 0.16906469 -0.037419517 0.47571787 -0.099197 -0.29723486 -0.19457066 0.16386995 -0.46302384 -0.15404464 -0.34593058 0.059449088 -0.10711213 0.20886284 0.17467977 0.06297144 0.0053636297 0.16384587 -0.15967646 -0.34301576 0.429933 0.022623526 0.07058921 0.3550759 -0.0027761036 -0.048379794 -0.05391302 0.13798241 -0.048166465 -0.038560502 -0.3707489 0.13742927 0.26867136 -0.07577272 0.017324718 -0.054061238 0.00065331906 0.39905152 -0.2577443 0.22010085 -0.24172427 0.12285444 -0.062060244 0.021367254 0.013794703 0.086219326 -0.1186347
816 -0.005562657 0.19836818 0.09426266 -0.23880349 0.010493474 0.22307941 -0.34680647 0.40727934 -0.19172172 -0.103934616 0.317841 -0.22046511 -0.154904 0.07113255 0.45756698 0.21927571 0.105612636 -0.1452886 -0.1118572 0.1892006 0.026940422 0.1348382 -0.105294555 -0.35801733 0.32614404 0.13149777 0.16167802 0.018772865 -0.30867657 -0.05399342 -0.221454 -0.012072452 0.27606833 -0.09929468 0.011700525 -0.11335717 -0.22763461 0.08370418 -0.14946833 0.33420652 0.008373778 -0.0082024885 -0.13311058 0.20293872 -0.22413555 0.18207371 0.047485907 -0.08461874 -0.44667205 0.32117182 -0.101209745 -0.33337882 -0.09191771 0.39762586 -0.0063894475 -0.17870796 -0.14528842 -0.08498963 -0.10029938 0.012698181 0.24541551 0.06255717 0.15760906 0.17495729 -0.304092 -0.45627934 -0.106769495 -0.20911174 0.35023317 -0.0398386 -0.058670532 0.17351475 -0.17213126 0.3800481 0.3748262 -0.12785318 -0.083763316 -0.029688347 -0.1687505 -0.040263828 -0.03478622 0.18128708 -0.17010851 0.194362 -0.26076603 0.031139394 0.027237296 0.13198851 -0.12969291 0.12246537 -0.4781994 0.07685196 -0.049693767 -0.09625933 -0.07237703 -0.22475295 0.22904804 -0.2548406 -0.20368686 0.1373526 -0.18628891 0.42171165 0.6510798 -0.020802477 -0.25640488 -0.18311484 0.14644921 0.30425268 0.14105752 -0.13647656 0.11060728 -0.16631873 -0.074748755 0.07100607 0.33304554 -0.13136683 0.18619862 -0.23371567 -0.3705342 -0.03556115 0.027087096 0.06875749 0.23728383 -0.2952627 -0.09611393 0.40692422 0.11748951 -0.24320267
817 -0.14895114 -0.21935716 0.36620864 -0.09613104 -0.1970343 0.69916546 0.2504766 0.40498677 -0.17343448 -0.19314587 0.18392631 -0.12266685 -0.10822164 0.32954845 0.04309685 -0.030041398 0.22447814 0.5777122 -0.3023349 0.62064666 -0.2707817 -0.051616877 0.14502478 0.14840907 0.17116287 0.2975341 -0.029227683 0.28468707 0.11725854 -0.06907305 -0.12553151 0.29775587 -0.0054197554 -0.33446553 -0.26380885 0.20226713 -0.1157623 -0.22483042 -0.38826382 0.6961239 0.2305279 -0.16752678 0.19018671 0.18717462 0.28048244 0.015100446 0.38063833 -0.25385416 -0.28700015 0.23447183 0.25517595 -0.036316816 0.2570311 -0.08397255 -0.5302839 0.40737274 -0.043995228 0.09900371 0.2776019 -0.1808027 0.3060295 0.070304096 -0.078707784 -0.14739846 -0.012766616 0.11601263 0.1878705 0.12851134 0.17090724 0.034505073 0.36737055 -0.29660216 -0.36297193 -0.025225459 0.12190485 0.12800479 -0.49122345 -0.09269454 0.34060356 -0.19558524 0.017133992 -0.4339271 -0.19750829 -0.2373466 0.49224383 0.36453912 0.4005155 -0.010815079 -0.32952827 0.01374339 -0.38941962 -0.11181718 0.079801075 0.2568069 0.16745247 -0.0779671 0.24864809 -0.005413992 -0.1614058 0.6761192 0.44343373 0.08583331 0.1751151 -0.2138549 -0.047897656 -0.01968917 -0.28220862 -0.46731186 -0.4260528 -0.33973855 -0.5775558 -0.1302757 0.39678633 -0.5551778 -0.68399805 -0.53987753 -0.04708669 0.2538066 0.19458014 -0.60334045 0.08946581 0.46723506 0.050639633 -0.2788114 0.13556482 0.48604196 0.5919952 -0.28669104
737 0.5675035 0.17109616 -0.31550768 -0.4482799 0.530313 0.5433448 -0.22789666 -0.35221022 0.0018539223 -0.8730892 0.08999622 0.6304663 -0.33554333 -0.15007694 0.13198945 0.0720615 -0.4134698 0.057565697 -0.27947575 -0.10050491 1.2288183 0.024130369 -0.41117817 -0.12879105 0.8193636 0.11833894 -0.5667821 -0.1652453 0.94917953 -0.31739268 -0.27776682 -0.54715794 -0.97225964 -0.27080497 0.17039774 -0.4338228 -0.13523194 0.19519816 0.693651 0.5110783 -0.013044745 0.75873816 0.8822873 0.31228355 0.88451487 0.06879269 0.2520226 -0.028538479 -0.17390393 0.61989725 0.21236718 0.071565494 -0.2707117 0.27644357 0.8130986 0.15531716 -0.27908814 -0.24909844 -0.16699469 -1.4778066 0.555195 0.53603154 -0.23284368 -0.16320647 -0.13908273 0.48165298 0.30186275 0.29549766 0.10846904 0.6360938 0.24961779 0.2898609 0.32126012 0.6753825 -0.34442163 -0.11092139 -0.5247829 -0.08668025 -0.3251732 0.09508538 0.5661412 -0.16176122 -0.22285917 0.2675082 0.48870578 0.045239884 -0.268136 0.13698563 0.07211138 -0.0028792904 0.15460506 0.72019035 0.2984658 -0.44336894 -0.6163737 0.32246506 -0.7445677 -0.52110827 -0.047689363 -0.32378456 0.52193135 0.50236005 0.49083397 -0.10323395 -0.1798766 -0.2955745 0.31165826 0.49858272 0.28043342 -0.43336913 -1.2103674 0.6541632 -0.90374124 0.9088023 0.045557264 -0.22031124 0.987106 -0.026530545 0.06951446 -0.8649628 -0.09984082 0.45029598 0.1436548 -0.13755836 -0.22787233 -0.85802954 0.15446948 0.15883684
719 0.019276451 0.1312361 0.22117989 -0.31817162 -0.09432483 0.18706828 0.44566828 -0.006481295 0.20543799 -0.027845802 0.07783572 0.24172099 0.13464259 0.36263674 0.17770766 0.15099138 -0.093670286 -0.38331717 -0.29104888 -0.3573722 0.29760635 -0.16082408 0.15852001 0.09116079 -0.25321162 -0.18965875 0.30501896 -0.042493206 0.18933402 0.3066758 0.19982351 0.09750931 0.06590803 -0.14417973 -0.23960619 0.055995665 -0.04906456 0.24090265 -0.016761305 0.6777001 0.06897587 0.5380216 -0.06480507 0.35695258 -0.78599954 -0.17347667 0.10259993 0.30414945 -0.19689411 0.13443398 0.3124834 0.16427712 0.15577085 -0.20736092 -0.14816082 0.41247937 -0.045245185 -0.2514301 -0.16779934 -0.44427925 -0.017348925 -0.089702174 0.13946451 0.2601511 -0.17441389 0.14252645 0.16295233 -0.22159648 0.4745619 0.29723918 0.439211 0.23907933 0.2024697 0.1993939 -0.19072811 0.26986718 -0.15156986 0.25814337 -0.05651451 -0.26032707 -0.09073283 0.1718111 -0.11090549 0.18128517 0.12014945 0.21973452 -0.11216448 0.27590537 0.08336357 -0.22443038 -0.02349371 -0.21541795 0.041012887 -0.39845634 0.42874455 0.31652856 -0.044994272 0.5068215 -0.022461697 0.020367334 0.021145096 0.15375146 0.27669397 0.36612523 -0.02742968 -0.66801304 0.074731216 0.60474074 -0.04423133 -0.06648709 0.025364 0.0017810153 -0.0048274384 0.37654555 -0.24314797 0.043943033 0.050617874 -0.086740956 0.44057044 -1.0043783 0.08693373 0.012083123 -0.2997945 0.3703591 0.053545736 -0.2769657 0.24236107 -0.06786643
718 0.018653898 0.25992754 0.08755013 0.2035438 -0.08063433 0.06907433 0.06486404 -0.23657377 0.13904637 -0.62917316 0.24703658 0.15022098 0.4521072 -0.36356503 0.3721237 0.2009068 -0.12732534 -0.24057828 0.03692818 -0.026145048 0.11223532 0.03393157 -0.2271112 -0.10086051 0.16099325 0.2777634 0.30100542 -0.49483752 0.112828135 -0.2897945 -0.07717692 -0.03088405 0.17447762 0.09644723 -0.06732703 0.06788848 0.19370264 0.28014442 -0.03670655 0.2245035 0.10978453 0.23519792 0.5659056 -0.025698638 0.27734393 -0.10499185 0.24909922 -0.03233518 -0.18353353 -0.11318694 -0.020594237 -0.013607977 0.22568227 -0.14438652 0.1846491 -0.11208097 0.21605898 0.41393253 0.039427824 -0.5557991 0.021314766 0.0626343 0.30201337 0.42244646 0.12497305 -0.44064966 -0.0482764 -0.25422835 0.3169653 -0.29749912 0.19190027 -0.028132096 0.2490245 0.0061181313 0.058684573 -0.27437088 -0.06984223 -0.44616464 0.087353826 0.09142375 0.041378967 -0.25651455 -0.04020671 0.079664975 0.42588538 0.14353529 -0.09685917 0.0156233115 0.36853892 0.019458449 0.5928837 0.058639105 0.024393542 0.13303654 0.19843937 -0.03582863 -0.2949482 -0.40630445 -0.07891777 0.19442335 -0.27149397 -0.29852825 0.109191686 0.25919068 -0.21190119 -0.055020526 -0.29565617 0.006470211 0.25147775 -0.2503424 -0.24801801 0.770362 0.5876888 -0.04413471 0.36154768 -0.27525356 0.27720028 0.17446068 -0.025960939 0.0827787 0.19041145 -0.46330708 0.15106641 0.0386085 0.14287294 -0.21756013 0.04063365 -0.0061904956
717 -0.21733174 0.22596928 -0.21359912 -0.37265477 0.2657522 0.16778482 -0.009951078 -0.04115647 0.20455267 -0.005984643 -0.34242788 0.020016119 -0.12371546 -0.04256878 0.49535912 0.15070207 -0.04385221 0.6349094 0.19098689 0.10050041 -0.12693009 0.3367587 0.2079511 -0.0071927807 0.21701309 0.22352219 -0.25355193 0.1613302 0.15237209 0.29021198 0.3277692 -0.50280213 -0.4385912 -0.09907553 -0.07498661 -0.1930014 0.0024909005 0.21324575 0.076605275 0.15576945 0.3545023 0.45547417 0.08147242 -0.12202495 0.7820889 -0.16175982 -0.48236725 0.31300786 -0.008697781 -0.22612177 -0.41415223 -0.53865993 0.2508032 0.53481126 0.22301939 0.021473514 -0.49948877 -0.14687581 -0.36998817 0.22679442 0.32415432 0.21836965 0.09293631 0.29121828 0.16368404 -0.57070106 -0.080167286 -0.061193906 0.6616315 0.1446303 0.45624843 0.34763658 0.0073739 0.74237543 -0.1905689 -0.21490382 0.062330507 0.40378055 0.2770452 0.04400742 0.5428612 0.032714244 0.0024727043 0.221405 0.6044825 0.26061642 -0.2832178 -0.044225812 0.5043759 -0.6124801 0.16849473 0.04560974 -0.14155 0.23805915 -0.0034166414 -0.33052638 -0.021142524 -0.13005234 -0.08138272 0.15180989 0.15523793 -0.19309147 0.21769896 0.019769637 -0.13884656 -0.36899075 0.06411753 -0.091220886 0.29004428 0.2950376 -0.39678648 0.6874763 -0.21711937 -0.10209516 -0.41382554 0.058233365 -0.112913236 -0.25421107 0.095948376 -0.06193342 -0.43806016 -0.44028318 -0.33992723 -0.4361022 0.49703673 -0.41709557 -0.011876615 0.079785444
716 0.15045817 -0.7944287 0.051836636 0.22709805 0.07421668 -0.5695637 -0.10420538 -0.53711915 0.7259542 0.33240464 0.015984008 0.06610009 -0.056707904 -0.028360127 0.36185804 0.33650735 -0.32490453 0.30096972 -0.20261323 -0.49495253 0.17502621 -0.0555168 0.32538924 0.21561868 0.009484266 -0.15351196 0.17801905 -0.28014576 -0.36137852 -0.19802177 0.08320664 0.10926755 0.45868653 0.10504625 -0.0074313744 0.29147962 -0.22371075 -0.011318509 0.038064577 -0.6829663 -0.20823227 1.4070082 -0.22000264 -0.061588727 0.41083896 -0.30789167 0.3588082 -0.1489287 -0.5443712 -0.0038196454 0.30873442 -0.03908113 0.35824618 0.25283116 0.44607785 0.56944764 0.39294025 0.013189685 -0.28584734 0.111498885 0.011705441 -0.39128464 -0.37042463 0.51619446 0.021494994 -0.38779527 -0.2988747 -0.22867249 0.40322325 -0.73545694 0.21467009 0.030678246 -0.42697003 0.17973903 0.1367491 -0.7922015 0.0797673 -0.22992691 1.367896 0.7403728 -0.09661306 -0.8800972 -0.7796221 0.08993693 0.013592663 0.39794207 -0.23847376 0.17391632 -0.047776554 -0.007873332 0.03146789 -0.025920799 -0.70212495 0.2991616 -0.34580284 -0.78061545 0.36888874 -0.055810247 0.69771135 -0.14943585 -0.13496655 -0.13698536 0.5397753 -0.4616563 -0.10284487 0.2566882 0.15533622 -0.16444618 0.2975869 -0.46385363 -0.2777904 0.6005971 0.41522685 0.0086910315 0.28205806 -0.009945084 0.36092454 -0.19205385 -0.25301215 -0.29727566 -0.03805035 0.0015910446 -0.25704882 -0.23892927 -0.104692824 -0.036878668 -0.10340554 0.30093372
715 -0.23876372 0.009308067 0.07680993 -0.19314173 -0.22457357 0.0794213 0.09110072 0.3256999 0.057952955 -0.37611946 0.33144596 0.3332663 0.09237306 -0.20123863 0.37896892 0.23969612 -0.5226178 0.3004761 -0.1756207 -0.17772672 -0.09011966 -0.17791449 -0.22066134 -0.21490978 0.6103386 -0.23252977 -0.43205905 -0.23911875 -0.28813395 0.10634868 -0.2538381 0.2624504 0.06420424 -0.10272236 0.40296677 -0.25270212 -0.29249305 0.11776699 -0.30316776 -0.45588472 -0.07621648 -0.08515449 0.15217371 -0.09865732 -0.05514533 -0.108983755 0.17968927 -0.37248668 -0.1232409 -0.28890714 0.050868366 -0.021819185 -0.28584075 -0.15753745 -0.25565577 0.109013624 -0.19651337 -0.08317465 -0.026499465 0.13250327 0.19269803 0.24464597 0.13463317 -0.094725 -0.17316541 0.18334518 0.08106652 0.33174175 0.18798938 -0.24973565 0.12480044 0.18123434 -0.36522835 -0.048218798 0.000411033 0.045224775 0.076503724 0.18681039 0.28829044 -0.32165015 0.033963162 -0.011585592 -0.17609563 -0.2899665 -0.44217867 -0.26536542 0.2958973 -0.28767252 0.15997167 0.08382655 -0.27309465 0.14616126 -0.043227285 0.06840683 -0.34211454 0.3085942 0.20811597 0.25774372 0.4331191 -0.07916454 -0.39421842 0.029955069 0.3190191 -0.5820808 0.3091004 -0.24102016 -0.33093318 0.36166558 -0.58052003 -0.05666757 0.10095505 0.18050054 0.24256915 0.20589602 -0.4700317 0.015286996 0.5565818 -0.36589962 0.41919798 0.33204982 -0.18387422 0.8476489 0.25106445 0.3970515 -0.052936852 0.036822513 -0.0676632 0.32834846
714 0.20330863 -0.15263355 0.10043482 -0.09834384 -0.33226684 -0.026679553 -0.033457324 0.07537389 0.07150528 -0.22277553 0.099331185 0.1831766 0.19381571 -0.1897136 0.12830503 -0.06394331 0.04834866 0.124051146 -0.28809765 0.12510934 0.003346437 0.16764306 0.285539 -0.007868929 0.28081006 -0.07315325 0.11636384 -0.038134962 0.13974276 -0.0712772 0.09619416 0.107766844 0.48965916 0.11058311 -0.19754715 0.043843746 0.17952557 0.115898445 -0.036074407 0.13374458 0.37357318 0.12387255 0.02847608 -0.31197965 0.15614386 -0.06370432 -0.03913536 -0.11245915 -0.1815693 0.18124835 -0.07599977 -0.17095108 0.50396365 -0.09345701 0.023913315 -0.04788156 0.012576192 -0.10799606 -0.04962238 -0.27837652 0.33022022 0.025039384 -0.12305574 -0.064633034 0.021935945 -0.006973648 -0.032064386 0.22197206 -0.2374114 -0.147332 0.162725 -0.15005407 -0.12693484 -0.01646688 -0.35128587 -0.032294434 -0.12018389 -0.1241122 0.03075101 -0.18838765 -0.14352065 -0.33190018 0.11353581 -0.24540024 0.0573462 0.16980214 0.3443092 0.5234249 0.06958487 -0.45954907 -0.04710879 -0.47250414 0.18060133 -0.1958196 0.0055540693 -0.2791246 0.0115867015 0.017454784 -0.4067004 -0.1842613 0.1624271 -0.075756826 0.08395746 -0.052662995 -0.21747845 -0.028469522 0.1468071 -0.26787448 -0.32977748 -0.15264504 -0.42557725 -0.06873638 0.17046453 -0.23889165 -0.020830216 -0.1382258 0.17246744 0.011730827 -0.07909306 -0.1786411 0.24366698 0.15877353 0.29617155 -0.007322868 0.13949446 0.11708722 0.22437283 0.022869876
713 -0.025352359 0.07822237 -0.3769051 -0.6783751 0.12129273 -0.17669693 -0.38384026 0.25526366 -0.4145012 -0.29400593 -0.15523566 -0.31738213 0.3524483 -0.010364354 0.6172234 0.105614774 -0.16409218 0.11593715 -0.028491825 -0.27084902 -0.13966814 -0.023237953 0.23751679 -0.26353833 -0.24000566 0.048399657 -0.1423201 -0.09680947 0.67090046 0.15321122 0.08026837 -0.20138206 0.5466188 -0.011390062 0.3887819 0.018446928 0.04614735 0.27517968 -0.062712766 0.2665307 0.163523 0.05392307 0.071003035 0.20647065 -0.06635741 -0.014813081 0.5078303 -0.3178214 -0.41761354 -0.37281507 0.3722872 -0.22265644 -0.15637155 -0.36252365 0.12428288 -0.29835427 -0.029608805 -0.36868128 -0.1248961 -0.033010002 0.2500888 0.17790821 0.27222988 -0.3735627 -0.093830824 0.59589964 -0.1537593 -0.10190307 -0.14103983 -0.33906126 -0.15424097 0.4498623 -0.06678742 -0.07879717 0.15182413 -0.37332734 0.0878786 -0.18535428 0.17050071 0.10085471 0.116988175 -0.05733067 -0.0031293095 -0.33773458 -0.22907574 -0.0025234048 0.19492447 0.054817915 -0.06968704 -0.16858341 0.09157762 0.2266281 -0.09438096 -0.17895441 -0.22863977 0.0874685 0.161032 0.171258 0.18744734 -0.2775333 -0.356706 -0.48910794 0.14018124 0.19953367 -0.22010067 0.041985758 -0.09052886 0.0568507 -0.5515036 0.101275064 -0.045859825 0.43583545 0.19655558 0.051557507 -0.06423262 -0.3786453 0.6537853 -0.06463113 -0.011735658 0.22632024 -0.25975275 0.3848603 0.12381408 0.36360934 0.15854529 0.3428687 -0.051176164 -0.2136972
712 -0.15658724 0.28935 0.16563553 -0.3326079 -0.20348524 -0.071082115 -0.01567287 0.029781953 0.46720546 0.044218138 -0.0018567068 -0.3024989 0.31288603 -0.2470152 -0.22757328 -0.25935486 0.21815027 -0.47538602 -0.0557818 -0.477992 -0.14339691 0.63641465 -0.12576199 -0.43709087 0.13775393 0.2597488 -0.46732172 -0.40856156 0.13372779 0.27542531 -0.21448837 0.026007725 0.15793753 0.19229046 -0.25574154 -0.08769641 0.3445616 0.051443007 0.07451263 0.30082774 -0.14981787 -0.5479708 0.17652819 -0.5691354 0.13026144 -0.49571484 0.10786497 0.4217037 0.085541986 -0.1340232 -0.17853437 -0.1398423 0.14880665 -0.7662636 0.20405205 0.46902865 -0.62938714 -0.78263533 -0.45569292 -0.82931054 0.72185665 0.38954887 -0.4855335 0.11175956 -0.24063358 -0.011971854 0.40631023 0.2576696 0.17632967 -0.31019163 0.41570017 0.25864446 0.17417386 0.03580037 -0.027034597 0.10524083 -0.35680854 0.002370795 -0.124872655 0.1699889 -0.21059564 0.08215129 -0.35985222 0.055500913 -0.12443622 -0.4612301 0.2522426 0.13791119 0.10417125 0.04424528 -0.7768776 -0.05692325 -0.6114996 -0.017691316 0.57851225 -0.29528245 -0.18611751 -0.22739549 0.15904805 0.042364947 -0.23313633 -0.16459483 0.25619966 0.47167173 0.11976042 0.39686722 0.88661826 -0.53198934 0.6145239 -0.34740868 -0.573393 -0.01680583 0.67067325 0.28289747 0.726622 0.0034558577 -0.04230725 -0.26859856 0.12646215 -1.0910687 -0.3826283 0.6249555 0.571284 -0.44616434 -0.03303044 -0.37448835 0.81511354 -0.57290375
711 0.29930812 0.21992204 0.9960162 0.576415 -0.7878112 0.33223572 -0.7684024 1.6329404 -0.08703587 -0.56993663 1.1763437 -0.522234 0.15394332 0.33342502 1.5221266 1.7348131 -1.6416714 0.519761 -0.8205329 -0.5938559 -0.377631 -0.08876821 -0.57602054 -0.8646483 -0.218502 -0.69319147 0.038784955 1.8149475 0.16895995 0.52326614 -0.7480749 -0.7931528 -0.8489938 0.34753278 -0.8857954 0.9070219 -0.25808555 0.22452512 0.53349817 -0.097259365 1.2522819 -0.07899255 1.8848106 1.7103288 -0.12064769 -0.40050256 -0.2153583 -1.2417479 -0.49470615 -0.46122813 0.5236507 0.6807858 -0.28287253 -0.95952237 0.07278736 -1.5056604 0.2742263 1.0704037 -0.1336284 0.084240995 -1.9175731 1.0518433 0.11907426 -0.24206883 -1.7250884 -1.7615675 2.0935326 0.31950593 2.068166 0.22291836 -0.22139129 1.9522474 -0.49941492 0.38718957 -0.6324387 -1.8801054 -0.04714919 0.87225366 2.1067426 -0.5823718 -0.7329425 2.9700572 -0.69040954 -0.4585045 -2.7413816 1.5627604 -0.108772434 1.1443429 -0.67812866 -0.23002505 -0.98416144 -0.8112805 -0.25883105 0.74266404 -1.330458 -1.2508332 -0.8108319 -0.7643469 -0.4764283 -0.85750085 -1.6592855 0.7185588 0.3594177 0.8529098 -0.76631385 -0.53285956 -1.0898074 0.82687557 0.32967147 0.5976473 -0.8379782 2.6881926 -0.05865641 1.1551819 0.6716331 -0.6886386 0.55745184 0.6972995 0.6775201 -0.65996575 0.1682732 -0.32749853 -0.99308324 0.57259846 -0.022626871 -0.830499 0.15406637 0.54705787
710 0.1706353 0.11396188 0.04519106 -0.33643746 -0.030893797 0.097136594 -0.3890219 0.642602 -0.2254733 -0.322648 0.1036069 -0.098926745 0.4763907 -0.44644585 0.3473999 0.1678967 -0.0941833 0.06580502 0.30299622 -0.05166508 0.11769038 0.08359814 0.090656385 -0.2224811 -0.02446853 0.043855876 -0.4646385 0.033607192 0.2761409 0.4116719 0.039115533 -0.23237091 0.13072836 -0.07912282 0.44705638 0.015639367 -0.005868101 0.10444462 -0.17136356 0.33536568 0.43502674 0.06583098 0.015124925 0.37369838 0.24646205 -0.17606778 0.38713154 0.010363168 -0.10627888 -0.41431683 0.058438517 -0.030785063 -0.0040563536 -0.34495038 0.015533504 -0.19676793 -0.037301615 -0.2307761 -0.30675936 -0.33873355 0.1988134 -0.23975585 0.14517067 0.16297442 -0.24028583 0.2876813 -0.50331515 0.046543997 0.14858273 -0.09809483 -0.35044083 0.051635258 0.067669384 -0.06055505 -0.1608295 -0.18885332 -0.26435566 0.116869435 0.1155297 -0.4295296 0.36907104 0.056993634 0.006298049 -0.21836454 -0.09566566 -0.09968116 -0.054248776 0.252038 -0.057574645 -0.014004081 0.18724053 -0.15421835 0.074159764 -0.23119332 -0.011867985 0.070975065 -0.04229134 -0.029040696 0.0030956224 0.2597704 -0.3553969 -0.053583153 0.112500295 0.05145124 -0.047243647 -0.15660258 0.24760431 0.011662382 -0.5313061 -0.007640974 0.28074992 0.09297249 0.0859738 0.18988055 -0.048247445 0.079589345 0.3689043 -0.14456247 0.08961199 0.12349949 -0.024072014 -0.1888762 0.01630466 0.31269374 -0.011852109 0.3663582 -0.122318156 -0.02776078
421 0.003863595 0.14924945 0.12345315 -0.34133276 0.07054752 -0.08542237 0.20356871 0.13673525 -0.017945863 -0.079774596 0.12687196 0.0015305829 0.09190416 0.23820898 0.41320026 0.114368744 0.084280565 -0.062689945 0.45218906 -0.11346165 -0.14153358 -0.08428376 -0.027769402 0.23309211 -0.041282423 0.27097258 -0.15224694 -0.093756475 -0.40338564 -0.026801188 0.080385596 0.06412486 0.2541222 0.22693917 -0.21221188 -0.13344878 0.15911499 0.22376072 0.20838274 0.026802862 0.19693789 0.07932238 0.18408537 0.27521893 0.26974913 -0.102731265 0.04285012 0.18728277 -0.2043491 -0.29098555 -0.28036085 -0.26231128 0.26923165 -0.20127465 -0.1422293 -0.04627761 -0.24204528 -0.37052998 -0.26932982 -0.095634006 -0.23168533 -0.08792305 -0.19017915 0.2663283 -0.03702255 -0.15987119 -0.10477217 0.29922548 -0.0096306745 0.039274525 -0.21947244 0.37099808 0.07677117 0.023778426 -0.1410549 0.1985657 0.11443304 -0.17584762 0.15673243 0.0056787124 0.0978841 0.15294194 0.11719984 -0.099847086 0.19683704 0.22150432 -0.005241742 0.31138864 -0.06508085 -0.24029522 -0.2369824 -0.030352177 0.10503133 0.36336488 0.26316985 0.14814648 -0.20918967 0.043266207 -0.34070018 -0.098688714 -0.3722843 0.16894534 0.056968417 0.13292049 -0.23442967 -0.116189525 0.11048903 -0.3509985 -0.0061943755 0.05207421 -0.13840678 0.1694552 -0.11875783 -0.14478827 0.02005649 -0.1761497 0.22254106 -0.39472437 0.33772102 0.084276505 0.32855523 0.34102455 -0.0845325 0.18137172 -0.25917894 -0.13020813 0.21169844 -0.13664545
129 0.011490757 -0.044220377 -0.01261521 0.0708939 -0.20169915 0.07329134 0.01302467 -0.13870554 0.14827238 -0.11893539 0.09747577 0.13530801 0.0077116783 0.043640263 0.14684166 -0.079792276 -0.12989269 0.19164106 -0.093200736 0.05004715 -0.098520316 0.03617441 -0.030323 -0.12868048 0.0024913554 -0.19267233 -0.06778019 -0.0632831 0.02195995 -0.145576 0.008971334 -0.048529435 0.15869191 0.11145197 0.028599214 -0.0522887 -0.115053155 0.33846864 -0.016658196 0.4370428 0.005583162 0.10554488 0.0012865037 -0.09307817 0.049082927 0.0062818974 0.0102611445 -0.07467956 -0.27873176 0.058033913 0.03260841 0.06376044 0.25123128 -0.0010188228 0.10244734 0.12201212 -0.047669128 -0.12869965 0.082047 -0.1719665 0.12981012 0.027077422 -0.3395236 -0.004235976 0.027066095 -0.16974702 -0.08071567 0.090603456 -0.063010134 0.08882707 -0.00049150636 -0.13647908 -0.28658545 -0.018149918 0.04714678 -0.06599191 -0.2609657 0.08039934 0.09654147 -0.09395162 0.117649645 -0.11232491 -0.0419062 -0.024556238 0.05146146 -0.0052000913 0.031883895 0.1818396 -0.084222816 0.010565734 -0.08495201 -0.17352188 0.08219469 0.0487734 -0.02181399 0.040011086 0.14811838 -0.17742226 -0.36009672 0.17350873 -0.1081075 0.031921767 0.17416288 -0.18504888 0.0638489 0.19545035 -0.06636974 -0.035711456 -0.107393205 -0.23497885 -0.063580684 0.18146405 -0.0915358 -0.14046915 -0.14528687 0.1527003 0.22622189 -0.04052296 0.18695676 -0.2721354 0.15043387 0.15326357 0.036099527 0.10870953 0.05722762 0.034845408 -0.00041138634 -0.13057914
420 0.05181615 0.06937523 -0.14430521 -0.30873862 0.049615383 -0.27140182 0.17865686 0.13405117 0.29322723 -0.049025737 0.3112095 -0.092029914 0.21913826 -0.19188738 0.29892048 -0.10066836 -0.08791407 0.03630121 -0.05584396 0.17739479 -0.17612243 -0.101106785 -0.0036222585 -0.10411403 0.11077405 0.07118302 0.07247404 0.053744107 -0.120620765 0.029799908 -0.088255785 -0.09437671 0.39652532 0.15167257 0.06529584 0.28942773 -0.111069694 -0.14229517 -0.060050942 -0.07611338 0.10644085 0.20794952 0.14597046 0.13687415 -0.04240245 0.20653139 -0.026064347 0.074939236 -0.18824245 -0.10291971 -0.04198766 -0.04290948 0.10804678 0.16488862 -0.049198203 0.2528935 0.18978776 0.058880232 -0.076060995 0.0675322 0.12141193 -0.0850623 -0.011293659 0.09371802 0.010526598 -0.06895781 0.038528774 0.14104511 0.014438024 0.032284454 0.0058017233 0.13338795 0.06935039 0.047753956 0.010279547 0.22815825 -0.24878164 0.024561016 0.008806376 -0.17409943 -0.035550553 0.19454148 -0.18701431 -0.1523916 0.17159815 0.20232195 -0.04537656 0.13673212 -0.0004898038 -0.033314552 0.050870948 0.0049982546 -0.06966949 -0.01893783 0.049813107 -0.09098778 -0.22955863 -0.23428111 0.21573251 -0.0054574697 -0.08585001 0.1110448 0.031602483 -0.22718461 -0.057422217 -0.40917477 -0.0322915 -0.1500143 -0.15151744 -0.2853431 -0.19562039 0.21041813 0.07623645 -0.046189003 -0.058147088 0.026204284 0.123686016 0.10753546 0.14413242 0.049361695 0.046930086 -0.049159013 0.081508264 0.28324738 0.053211983 -0.08860611 -0.012602698 -0.016475964
423 0.09570343 0.27341762 0.20834346 0.13029641 -0.05292363 0.044829838 -0.06691833 0.12316611 0.23889455 -0.1674375 -0.057964865 -0.20997007 0.14239642 0.010730438 0.23474064 0.060683534 -0.19536084 0.031979274 0.017631127 -0.14694259 0.2511154 -0.06108027 -0.09447449 0.046198875 0.06623183 0.022869097 0.06461459 -0.070591755 0.014487302 -0.28477976 0.16911891 -0.44218734 0.12282807 0.17956059 -0.0045774328 -0.3103807 -0.55634195 -0.16408774 -0.019945731 0.17961065 -0.027548173 0.45544508 -0.006884327 -0.008685245 0.19711573 0.078632735 0.16294987 -0.24745902 -0.06013416 -0.10390112 -0.1508283 0.23465864 0.07263006 0.024881437 0.28400168 0.2258413 0.38526425 -0.0751983 0.012587868 -0.27589196 0.10600709 -0.29290172 0.0051583787 -0.17895919 -0.0252459 -0.28215775 0.040305644 -0.06125385 -0.10530619 -0.19020285 0.06622333 0.011576543 0.026128508 0.20560342 0.06965674 -0.27804425 -0.04788567 -0.07262104 -0.06878386 -0.22512844 0.13199125 0.02829899 -0.46006364 -0.045597978 -0.045965444 0.20750898 0.1734903 0.035120346 0.16342542 -0.15681833 -0.018858124 -0.5225295 -0.12523621 0.11772176 -0.049684744 0.18572716 0.04543058 -0.021499895 -0.20222186 0.17230646 0.027286554 -0.034404013 0.21400326 -0.032931022 -0.15118842 0.15892766 -0.1678483 0.13357131 -0.019885566 0.045830425 0.093512625 -0.18352066 -0.026352977 -0.07210397 0.035541784 -0.26669565 0.25012022 -0.43503264 0.011653988 0.097377755 -0.30964708 0.0372752 0.2541873 -0.15976696 -0.30968747 -0.050311994 0.18112281 -0.026682213
422 0.27412772 0.429014 0.14443006 -0.22082312 -0.32190502 -0.33840007 0.20566028 0.16743243 -0.049580142 0.027190838 0.23692606 0.41676742 0.14452389 0.06221262 0.035458665 -0.0053235814 -0.11135525 -0.06643533 0.067129016 0.097241916 0.037316434 -0.044460855 0.008978378 0.17811276 0.09431462 -0.04428134 -0.12808345 -0.11392068 0.1224388 0.115106024 0.2471003 0.12839946 0.04247938 0.017411653 0.1430126 0.08329556 -0.11074621 0.09604561 0.002039545 0.21950118 0.10644748 -0.03530406 -0.036439914 0.21767896 0.18586844 0.049098764 0.057141192 -0.21671888 0.116874486 -0.19650684 0.11912638 -0.003194126 -0.037778914 -0.016535988 -0.0066680354 0.055063333 -0.20562822 -0.26441792 0.28894433 0.02451277 0.057177152 -0.17026415 0.038544916 0.32027814 -0.15053113 -0.3465889 -0.007667312 0.22415112 0.024887016 0.5349903 0.2144987 0.008364384 0.31302822 0.12115076 0.071865484 -0.122139975 0.16484416 -0.04707818 0.08115838 0.10224135 0.029885957 -0.00937711 0.03231476 0.040110003 -0.042040966 0.24099368 0.18543752 0.14260904 -0.09368473 -0.116410814 -0.17364945 0.09066709 -0.090907134 0.41740894 -0.094033934 0.049756024 -0.09995287 0.012283192 -0.10971637 0.041999254 -0.07021656 -0.08349266 0.14277874 -0.113455825 0.17249021 -0.07181978 0.02002627 -0.10820968 0.03536542 -0.23125605 -0.051519018 0.02820141 -0.13520394 0.079639845 -0.08931173 -0.16162425 0.25862035 0.05619648 0.17545736 -0.023560062 0.2854377 0.15044363 -0.0032927522 -0.04028454 -0.06953597 0.08479737 0.027069066 0.2691322
425 0.10206259 0.15038075 -0.008174164 0.012781383 -0.13582413 -0.16648807 -0.012469219 0.011230406 0.27293062 -0.049769595 0.020086527 0.026635865 0.23474735 0.068334356 0.24276863 -0.021096494 -0.18898259 0.40760782 0.14209099 -0.08664699 -0.16596635 0.40895078 0.080130816 0.17973344 0.022473231 0.029949814 0.16191177 -0.15591979 0.491424 -0.04551156 -0.14498787 0.16461377 0.12963137 0.39137563 -0.25288785 -0.29463172 0.042242557 0.3443412 -0.056615666 0.29038876 0.08095392 -0.21274914 -0.016566267 -0.1738629 0.42676896 0.04606775 -0.19528088 -0.3776255 -0.17142962 0.0346544 -0.033947032 -0.23921496 0.3545491 -0.08106871 -0.10672025 -0.06506191 -0.13124962 -0.34297976 -0.10680566 -0.2678566 0.23758152 -0.07159161 -0.10852223 -0.25410107 -0.080508314 0.12340253 0.055647653 0.06477873 0.0104416935 -0.335806 -0.04157368 -0.13995838 -0.3723841 -0.17092325 -0.1692127 0.047073323 -0.49871162 0.003311904 0.08295801 -0.045847297 -0.3403927 -0.20343184 -0.19765961 0.30926576 0.2538811 -0.16376507 0.42007428 0.2947497 -0.09453234 0.09501619 -0.23183182 -0.50984156 -0.32072282 0.1050412 0.08513685 -0.25001746 0.1452901 -0.13082336 0.47157055 -0.12695569 0.023220735 -0.070322566 0.2001718 -0.0015707558 0.10946217 -0.064019516 0.3111476 -0.29483333 -0.5251135 -0.39296404 0.001146149 -0.03607678 -0.019238656 0.041547406 0.06149804 -0.07525864 0.28801557 0.18139547 0.19643663 -0.56091595 0.3464991 -0.041110292 0.26152092 -0.42630154 0.038247615 0.11472938 0.29008767 -0.038883887
619 0.09036029 0.3473098 0.67300075 -0.010086361 -0.40683952 -0.3732272 0.08766989 -0.34160975 0.13278289 -0.3942422 -0.1740147 -0.26502264 0.31414825 -0.0266299 0.5806451 0.034418102 -0.07749098 0.30130747 0.09824337 0.20436473 0.059065096 -0.2661272 0.019634662 -0.09818628 -0.049538177 0.1756885 -0.21677557 0.15436493 0.29246584 -0.15405521 0.17474943 -0.07016936 -0.13639958 -0.24411042 -0.40281284 -0.17237683 0.24641243 -0.020057729 -0.15593114 -0.19330539 0.10578482 0.11706419 0.025058568 0.2836014 0.24013855 0.07618312 0.30514652 -0.08854729 -0.63534105 -0.3574784 -0.19128735 0.023583623 0.114051335 -0.17569213 0.1307289 -0.05288724 0.4002522 0.3867684 0.23778978 -0.6732187 -0.01622079 0.36341774 0.10241011 0.45474795 0.07464874 -0.69405705 -0.09650615 -0.29003653 0.49483556 -0.10751677 0.062036503 0.035003144 0.1090887 -0.040151045 0.27468273 -0.090419844 -0.013279308 -0.029338494 0.15712973 -0.0070503317 0.06752884 -0.1351266 -0.2733102 0.06203099 0.014412168 -0.46325317 0.052951846 -0.2269134 0.103596956 -0.2612942 0.26542404 0.17921078 -0.37611642 -0.12337565 0.025239017 0.05379967 0.22235079 -0.16153163 -0.016372059 0.34701905 0.2653174 0.012611962 0.4432694 0.23697546 -0.44520488 0.20243555 -0.2576641 -0.018775577 0.22614959 -0.36404777 -0.18701486 -0.041640654 0.4494118 0.27108622 -0.071913004 -0.13931973 0.051090878 0.00039452073 -0.22741652 -0.21471435 -0.07091555 -0.39687955 0.0068195346 0.13496329 -0.06629919 -0.12802197 0.10141524 -0.12683906
424 -0.11661222 0.11393746 -0.10604592 0.06699523 -0.08470896 0.14800264 -0.014197208 -0.031261414 0.24952295 0.2522238 0.18364991 -0.021673722 0.20501696 -0.042286914 0.14715518 0.018416135 0.0536647 -0.10293347 -0.04759993 -0.008327569 -0.22347197 0.08944755 -0.084216066 -0.13016325 0.09507658 0.103662334 0.049786877 0.003316459 0.14062674 0.08896938 0.12987271 -0.11023239 0.03599144 0.075439095 -0.10117535 0.05717907 -0.1772669 0.14372528 -0.24586587 -0.10403773 0.05757406 -0.06141797 0.15928678 0.15303311 0.13729556 0.23478669 -0.12806171 0.13496208 0.022988725 -0.03485674 -0.14376444 0.044589166 0.052585147 0.1666775 0.07965737 -0.01812102 0.19403374 -0.3003313 0.14285386 -0.2225517 0.38677517 -0.096963935 0.12946752 0.09659887 -0.10500009 0.023326164 -0.07487698 0.23609063 -0.03310811 0.12557915 0.08372962 0.1252561 -0.020807007 -0.14897646 -0.010424708 0.11481516 -0.075344145 -0.03646555 0.10181525 0.029994532 0.17079958 0.11639251 -0.07553883 -0.015967939 -0.07139879 0.18692236 0.048160166 -0.0004084647 -0.34338844 -0.12509654 0.0057608625 0.08163946 -0.3068632 0.07029389 -0.059135806 -0.0027227835 0.14373766 0.017827712 -0.069367364 0.06711173 -0.11838649 -0.034890734 0.160419 0.04667982 -0.08376302 -0.11522919 -0.17410351 -0.15890475 -0.064080425 -0.15368567 -0.18144086 0.25465083 0.21872798 0.053279683 -0.019435748 0.0075468216 0.041960012 -0.15061699 0.21921307 -0.2031227 0.14339148 0.20031077 0.013307538 0.17812023 0.13081984 0.11119163 -0.053282775 -0.040274467
427 0.19249037 0.25826094 0.09173137 0.14706646 -0.008161934 -0.26842025 0.11068125 -0.12623157 -0.03220295 -0.07713607 0.2660951 -0.01932939 0.12344471 0.11643187 0.100793734 -0.0048043462 -0.016945317 -0.007394091 -0.37247655 -0.006981001 0.16202465 -0.13756911 -0.0031627414 0.22829542 0.26233488 -0.13824037 0.15053271 0.0814874 0.026615012 0.12782706 0.034196112 0.08526003 0.10742394 0.03188545 0.21845125 -0.20348577 -0.25487974 0.1606539 0.13758136 0.15386027 0.09101926 0.1500888 -0.032607365 0.08602521 0.025197305 -0.11566034 0.1321409 -0.11882848 0.116721205 0.013345049 -0.34211865 -0.11486542 0.21565317 -0.057751644 -0.0484968 0.026457522 0.09481687 -0.23967287 0.13024782 0.16007201 0.19294384 0.0753259 0.025709348 0.10918414 -0.25863805 -0.2960503 0.0441349 0.21296033 0.2308651 -0.25999275 0.18276882 0.20466813 0.13225453 0.0818326 0.37341812 -0.019267984 0.050151214 0.3590943 -0.10529772 0.09730774 -0.0146401115 0.08219408 -0.1008184 0.17115745 -0.13116111 0.22567745 0.0071381233 0.08534496 -0.24277364 -0.17645288 -0.20261517 0.03929524 0.11105487 0.25360534 -0.037870504 -0.04894615 0.12680331 -0.38741454 -0.073442884 0.16493183 -0.025610397 0.12963821 0.2561308 0.08377722 -0.3087643 0.073428445 0.19854878 -0.2262971 0.12328279 -0.08507381 0.23396601 0.0622855 -0.102915816 0.055911988 0.098847404 -0.21297993 0.19458702 -0.21668485 0.11588757 -0.03551631 0.07949935 0.16009286 0.083441354 0.17867202 -0.2664808 0.1266392 -0.026209673 0.08767548
298 0.17901713 0.4517373 0.066577844 -0.40764537 -0.2018506 -0.07009275 -0.20232344 -0.13651887 0.2383522 -0.1606987 0.013205577 0.24442638 0.3192755 0.19723696 0.21074665 0.32915035 -0.16157417 0.11340361 0.15281215 -0.017199406 0.1516836 -0.19468328 -0.28203723 -0.18197095 -0.26839992 -0.18745333 -0.32385552 0.27215925 0.25101998 -0.020269869 -0.1574038 -0.5227957 0.43815902 0.04807144 0.12881145 -0.18901435 -0.461927 0.4552582 0.26405632 0.29404342 -0.25073272 -0.19737183 0.19836795 0.34610653 0.17741442 0.03655975 0.041588552 0.31267416 0.07343386 -0.25543025 -0.41153434 -0.023249121 0.12946168 -0.32711887 -0.23216896 -0.18363172 -0.07995958 0.31021458 -0.7225155 -0.18856329 -0.23047286 0.08445139 0.15998903 0.062312614 0.14805186 0.06614528 -0.37656775 0.043272268 0.1460583 0.082103275 0.51274294 0.14588784 0.29438514 0.38038206 0.02028577 0.018450506 0.284084 -0.047975678 -0.1304093 0.14032081 -0.36542746 0.16817111 -0.103557006 -0.062991664 -0.042535577 0.26920462 0.2504699 -0.09688682 0.24436036 -0.09472084 0.12113731 -0.4172602 0.32133594 -0.34491804 -0.10100284 -0.076045886 -0.3291267 0.1440108 0.04661101 -0.13951519 -0.5705202 -0.06643936 -0.16737399 -0.25899935 0.06930194 0.26233223 0.26545113 -0.05948338 0.02700026 -0.14561187 -0.38368642 0.18302779 0.25149745 -0.15558837 -0.2519295 0.14701131 0.18032283 0.2373834 0.43345776 -0.05630302 0.3861879 -0.351633 -0.39392003 -0.036588345 -0.3994618 0.16419424 -0.13730867 -0.17842749
299 0.24787992 0.4451063 -0.0018941786 -0.41481417 0.1711394 -0.2542394 -0.52288985 0.16226962 -0.19977702 -0.2600516 -0.055140797 0.018542167 0.45835042 0.038281295 0.44595698 0.3900322 -0.20808919 0.35865885 0.30756953 0.25465128 0.09074227 -0.17307742 0.058928654 -0.2850637 -0.6136261 -0.46160555 -0.071879365 0.0072911032 0.5432082 0.281226 -0.022060143 -0.22535251 0.23730887 -0.26863232 0.5796123 -0.34635702 -0.06817615 0.3771037 0.15483671 0.35655317 0.3440597 0.38178664 -0.07337478 0.17514 0.12256437 0.009348227 0.04221493 -0.21327837 0.088840365 -0.41830525 -0.046595156 -0.1552743 -0.21277222 -0.098527506 0.21270673 -0.17566203 -0.018967867 0.10224801 -0.31356415 -0.26993185 0.1887216 -0.028329855 0.029011885 0.07282504 -0.199851 0.07877505 -0.2211169 0.01366101 0.34785554 0.19718954 0.07828667 -0.053404693 0.08082819 -0.009375703 -0.03760066 -0.046512827 0.14074 -0.07063228 0.003585972 -0.025447374 0.08780408 0.043798786 0.16244201 -0.28153807 -0.155121 0.27372238 0.1390687 -0.036988366 -0.26324657 -0.2639192 -0.087547995 -0.15295988 0.28204033 -0.4209659 0.15762246 -0.056285467 -0.23727664 -0.23985285 -0.051480383 0.24884544 -0.42928746 -0.30256683 -0.08392252 0.021547275 -0.25038162 -0.06468851 0.11524169 0.1362899 -0.21096466 0.13312005 -0.16235812 0.039689977 -0.04139151 0.2515673 -0.16074446 0.04302001 0.28326502 0.13272147 0.13346553 0.13988602 0.25938556 -0.115450524 0.11199054 0.09353613 -0.1545624 0.27516797 0.04140006 -0.21240956
296 -0.11285752 -0.14365843 0.03981403 -0.08392441 -0.14177808 0.1200312 0.120574445 0.17471962 0.3331615 0.04617283 0.010960188 0.11130803 -0.07043928 -0.119373515 0.0872097 0.15424068 0.045831844 -0.010949472 0.092081636 0.018075367 -0.040970393 -0.27592698 0.10413199 0.12521996 0.015966557 -0.13095489 -0.018538948 -0.07152904 0.07991235 0.18898606 0.12536468 -0.07202308 -0.037697405 0.036802877 0.26141515 -0.1612052 -0.068251066 0.18547748 0.06403632 0.47669262 -0.085317336 -0.040348902 -0.0016243486 -0.07455887 -0.044628713 -0.1532193 -0.037951786 -0.10555668 -0.1188998 0.13451166 0.16993827 0.0758634 0.18999682 -0.12191562 0.066741645 0.2565854 0.029518057 0.0033594745 -0.12623374 -0.06472527 -0.05729356 -0.14152835 -0.12650575 0.1102566 -0.1310614 -0.20446005 0.08427807 0.3091748 0.2753605 0.045685757 0.39716077 0.32076555 0.14279868 0.0021488748 -0.19446056 0.0110176895 -0.11890476 0.07301291 0.03974537 -0.20158301 0.011519081 0.070125744 -0.23308092 -0.089240104 -0.023306804 0.12045941 0.028770924 0.1624239 0.28855354 -0.1224395 -0.037646413 -0.005060017 0.17269644 -0.044220936 0.24244162 0.10655194 0.03117831 -0.15210246 -0.08538848 0.032767534 -0.07957721 0.1609116 0.08894953 0.27638382 0.10803696 -0.27010414 -0.157538 0.19998616 -0.005659374 -0.123987995 -0.005577341 0.005423627 0.08993225 -0.12369825 0.059062857 -0.084302895 -0.030830676 0.136449 0.14335491 -0.15970626 0.48406413 0.0029257028 -0.060076274 0.30316812 0.07755123 -0.18772414 0.08736634 -0.07063168
297 -0.25996932 -0.034625344 0.17293717 -0.16130352 0.3100104 -0.19378182 0.04080354 0.14822543 0.03906887 0.035926327 0.018200051 -0.021590106 0.056435425 0.1655445 0.14775231 -0.24854286 -0.027438816 0.20031577 0.0057130205 0.33849707 -0.36517552 -0.3846566 0.12459542 -0.18863912 -0.0078712795 0.41133866 0.0107978275 0.2042307 0.07348895 0.089231856 -0.3616056 0.18438739 0.023406373 -0.024021069 0.14184956 0.23950677 0.05462907 0.21504866 -0.21455285 0.3751729 -0.37334895 0.081371166 0.5185246 0.24112022 0.15196697 0.31339663 0.26816875 0.3165291 0.13620707 -0.08643963 -0.14354852 -0.4831544 0.027416283 0.068129756 0.015992563 0.4144179 -0.43713164 -0.008052693 -0.031311136 -0.48567083 -0.20567071 -0.008857376 0.27138233 -0.023272842 -0.040383935 0.058874518 -0.09462922 0.068898916 -0.025937792 0.13460536 0.19621119 0.18500124 -0.35375842 0.12835246 -0.15457936 -0.511637 0.2656531 0.24171163 0.20393322 -0.061752267 -0.35394162 -0.025670556 0.1348807 -0.04482627 -0.19000717 0.07612975 0.088214494 0.27802426 -0.14494598 -0.05315901 -0.17731394 -0.2760509 -0.3758535 0.27403855 0.21918197 0.3364558 -0.09615961 0.04582305 -0.15600537 0.29191658 0.04976868 -0.39530036 0.13450651 0.25692555 -0.43335283 -0.12667754 -0.24667534 -0.21015747 -0.3379084 -0.102043346 0.23055017 0.1506375 -0.039567303 0.051930632 0.15153715 0.377899 0.097674966 -0.13530566 0.46833396 -0.03184544 -0.11495051 0.04922478 0.16782199 0.0050418787 0.14968485 -0.058888882 -0.24351832 0.021039108
294 -0.13619491 0.028372264 0.08660322 -0.18075107 -0.059692558 0.337769 0.26814768 -0.1469484 0.504035 -0.046819914 0.1924063 -0.105844244 -0.28296775 0.28587678 0.1945553 -0.03567621 -0.043305576 -0.040394288 0.01296401 -0.22730882 0.04579655 0.0372829 -0.044782445 -0.07474043 -0.11486683 0.071426906 0.009384448 -0.24991617 0.07438054 -0.1988066 0.093220115 -0.07041819 0.27067837 0.19810668 0.3283775 0.15150814 0.003291244 0.21095496 0.038436953 0.43024933 -0.25363275 -0.0783 0.015472951 -0.08424376 0.3912306 -0.1866792 -0.018087959 -0.13436681 0.08469812 0.26168483 -0.0031052206 0.104364164 0.27407965 -0.1517814 -0.1128271 -0.12181734 -0.17414501 0.03437381 -0.008546855 -0.299096 0.07454122 0.041638777 -0.21611282 -0.2585364 -0.16695154 -0.17060918 -0.07815485 -0.039470207 0.055101182 0.042633276 -0.06740741 -0.118712716 -0.24327904 0.048739016 -0.09036745 -0.028287433 -0.33817828 0.2859756 -0.07408906 -0.04683068 -0.25602505 -0.16324182 -0.22496672 -0.055078488 0.37852153 -0.15502104 0.45634356 0.13611408 -0.36186814 0.16635838 -0.02569292 -0.359512 -0.062144928 0.02760541 0.1317535 -0.35312268 0.54555094 -0.3742445 -0.08364761 -0.13631552 -0.24292152 -0.14056015 0.46414512 -0.13620934 0.48225242 0.057118308 -0.092720404 -0.49530953 -0.2230331 -0.047652766 -0.24627984 -0.030993655 -0.25599092 0.1804904 0.009796062 0.2430736 0.44879195 0.15082541 0.44143346 -0.36206612 0.29405242 0.10491682 0.0035750023 0.015995322 -0.088546105 0.004771175 0.24187294 0.13363697
295 -0.19513465 -0.37965995 0.030920478 -0.0976129 -0.12903671 0.052740194 0.14255956 -0.08137701 0.16173396 -0.046899553 -0.0115620475 0.15040277 0.10377985 0.26126435 0.350111 0.13109025 0.09326484 0.29507276 -0.17789981 -0.035214983 -0.120924495 -0.30137658 0.047091376 -0.19308546 -0.11287384 0.17743516 -0.025152268 0.08574782 0.051724683 0.2915308 0.13639092 -0.0023362082 0.009959683 0.24395667 -0.19419838 0.15941818 -0.014070063 0.24005072 -0.054895423 0.4026027 0.015317439 0.07775068 0.13359658 0.06214772 0.0027148793 -0.24949689 -0.25487593 0.04292738 0.36540908 -0.00024770352 -0.10907363 -0.13275935 0.14397007 -0.13082525 0.20587705 0.21458572 -0.32494155 -0.021355703 -0.16908018 0.023006761 0.11911011 -0.16477828 0.18017282 -0.07908495 0.028018275 -0.18112616 0.03649995 0.2799365 0.009345442 0.0638451 0.03365338 0.22797278 0.0487465 0.15682778 0.18296641 0.08537872 0.12704034 -0.07776799 0.3132468 -0.14365737 -0.09992001 0.19552499 -0.18886857 0.05558142 -0.07879625 0.22111504 0.10413964 0.09875311 0.19922687 -0.44313824 -0.14146827 -0.2534853 -0.00444359 0.11709177 0.02981042 0.028027318 0.11538249 -0.020833476 -0.09073186 -0.08387213 0.028635126 0.29450333 0.23481461 0.26839954 0.010491206 -0.43681613 -0.115325816 0.06697467 0.17623708 0.14645524 -0.27568564 0.04748911 0.11179382 -0.2574487 -0.18689238 0.17912589 -0.05270272 -0.14816529 -0.03421989 -0.23643808 0.09690939 -0.1726166 -0.0015462209 -0.11477936 0.44819435 -0.32051256 0.14506604 -0.05863093
292 -0.06640518 -0.058940396 -0.27503467 -0.09548348 -0.17990723 0.08175129 -0.24142843 -0.09773394 0.4029013 -0.04941434 0.056742165 0.3391309 -0.013781858 0.44668972 0.1821782 0.13559663 -0.19466719 0.07448357 -0.20873183 0.021476582 0.02719459 0.17256777 -0.06977845 -0.0787398 -0.28494114 0.16542365 -0.091086924 -0.17723288 0.0055992184 0.20929502 -0.20419084 -0.20114508 0.27419236 -0.14505322 -0.027861115 0.055543646 -0.45153555 0.065308236 -0.17735012 0.21585138 -0.08037073 0.3984485 0.39163217 -0.06506671 -0.05534782 -0.23156083 0.06791571 -0.20369235 -0.091812596 0.2937447 -0.061843414 -0.2246118 0.30656007 -0.06922895 -0.049390238 0.023601467 -0.2400947 -0.019959014 0.26812875 0.13234462 0.018969813 -0.045036286 -0.11461904 0.055157326 0.07735047 -0.08537628 0.020952081 0.24036579 -0.25629076 0.19702172 0.040459108 0.015370805 -0.014514636 -0.2501625 -0.12270894 -0.3219072 -0.30666602 0.15854059 0.006227518 -0.14886887 0.1167094 -0.33412337 -0.21390243 -0.1092347 -0.07074025 -0.06901137 0.23928292 0.5725423 -0.3083618 -0.18970563 -0.20609456 -0.09044761 0.038251054 0.023991166 0.07398644 -0.08846004 0.011683158 -0.13077183 -0.1286648 0.14749838 0.040437635 0.23097964 0.34883797 -0.013454881 -0.05677109 0.23844936 -0.047251906 0.13300039 -0.11271448 0.034109 -0.43197164 -0.29252502 -0.08491779 -0.11441767 -0.13304242 -0.06470152 -0.10164152 -0.050087336 0.041910995 -0.042575076 0.30738473 0.033745885 0.16892816 -0.043492313 0.328428 0.051172294 0.14391248 -0.06889905
293 0.030929817 0.1296225 -0.31879422 -0.00791836 -0.10766682 0.116738364 -0.034313273 0.37554824 0.28385234 -0.10924268 0.09655933 0.42503247 0.15230563 -0.23783045 0.47464463 0.06418743 -0.22111644 0.25549382 0.028864678 0.13402164 -0.090795584 -0.08002574 -0.14572212 -0.010506043 0.24875157 0.333103 0.011122108 0.044835962 -0.26241475 -0.30336246 0.11396861 0.17852552 -0.09936456 0.09689681 -0.020432651 -0.032766417 0.24648693 0.3157781 -0.047620635 0.21165426 0.3200829 0.18355398 -0.049335435 -0.1366977 0.04055355 -0.23690969 0.27438226 0.13759398 -0.107466765 -0.11901682 -0.42045915 -0.15441385 0.034473587 0.13262118 0.048943713 -0.06504886 -0.014071451 -0.29648915 0.17864683 -0.39997157 -0.4245438 -0.41854623 -0.28168228 0.25498784 0.010177944 -0.18949334 -0.1418815 0.23223159 -0.12391446 -0.24047992 -0.002783209 0.22713444 -0.026586682 0.007002896 0.02798152 0.17436181 -0.24744959 0.375082 -0.22362639 0.15589377 0.084433764 0.45445582 -0.46976995 -0.3291694 0.13569069 0.3076245 0.25655714 0.25771788 0.17172131 -0.37357655 -0.25434697 0.015050077 0.05545873 -0.065633744 -0.16746336 -0.00020359695 -0.3204039 -0.48661387 -0.11208638 0.023640964 -0.53488916 -0.035871852 -0.19824937 -0.14405368 -0.30192956 -0.43963102 0.06764202 -0.20972905 0.1565603 0.18400095 -0.0162196 0.330494 0.028689174 0.10861792 -0.36584598 0.025431614 -0.040941365 0.26095393 0.14271754 -0.17863032 0.36229935 0.2565457 0.036403507 -0.008927079 -0.010140194 0.1272781 -0.20241384 -0.07849468
290 -0.091664754 0.06300162 0.3395104 0.015234166 -0.002447097 0.10785606 -0.10817953 0.09511247 -0.05178974 -0.05592388 0.298039 -0.02227025 0.207362 -0.05800961 0.04292839 0.31828982 0.0049528214 -0.036938526 0.015133485 0.075617634 0.06384529 -0.083622344 0.19179417 0.09527043 -0.18659885 -0.12077714 -0.05585425 -0.31139234 0.12625287 -0.07879735 -0.016276458 -0.42654788 0.24543123 0.17320487 0.009874561 -0.23293833 0.24257499 0.009769282 -0.03753908 0.4666345 0.076478 0.2409605 0.10607225 -0.2388835 -0.106761575 0.1564181 -0.31065205 -0.14989097 -0.07115575 0.09284013 -0.22082974 -0.043956693 0.2527311 -0.008010499 -0.0050665997 -0.3186849 -0.15087785 -0.16709332 0.1383723 0.07998625 0.34377334 0.17708254 -0.24499057 -0.24043968 0.02559662 -0.04195914 -0.10990003 -0.021787005 -0.10720579 0.023630507 -0.032457072 -0.10574765 0.015098587 -0.077128425 0.038931318 -0.07376319 -0.2075817 0.06736287 0.10188965 -0.09331457 -0.029982582 0.07067066 -0.19521712 -0.10965052 -0.003897612 -0.07673059 0.39398095 0.14635369 -0.3829291 -0.2870586 -0.049960036 -0.10318301 -0.22202848 0.14096685 0.060235318 -0.05053418 -0.16926415 0.07809093 -0.024023544 -0.055122007 0.08440535 0.031823006 0.34633243 -0.26105297 -0.12812097 0.08150522 -0.15792981 -0.16339698 -0.03968651 -0.1401686 -0.21491708 0.09271737 0.063778155 -0.06084862 0.052615825 0.048784748 -0.07760205 0.1263972 0.26266745 -0.0713588 0.12868132 0.025479825 0.17248967 0.10146675 0.35191628 -0.058841422 0.061865304 -0.056684025
291 -0.102747716 -0.24321033 -0.036319498 -0.1072636 -0.12960364 0.09217527 0.10696857 -0.08821348 0.198815 0.0019011557 -0.07992843 0.030324407 -0.14773194 0.09986459 0.32706037 0.12831554 0.040965363 0.29624167 -0.20420195 -0.05443576 -0.31400347 -0.35368422 -0.44219002 -0.04580432 0.13753931 0.046645023 -0.20780045 -0.40126562 0.0675121 -0.28967467 0.1636802 -0.16163932 0.017463073 -0.30271423 0.063480854 0.17206809 -0.029068025 0.054713465 -0.20412844 0.48653907 0.119275644 0.037416976 0.25032118 -0.28583887 0.25098458 -0.01289968 -0.043722723 -0.015146568 -0.12160126 0.38136956 0.010405484 -0.03487236 0.1431719 0.124110244 -0.0014403866 0.053019192 -0.25247812 0.07616142 0.2788847 -0.2808342 -0.06489297 -0.06787192 -0.19731264 -0.060108386 -0.33154494 0.11425319 0.011217412 -0.21935646 0.024992745 0.15290026 -0.22410515 0.008367535 -0.18783946 -0.01956315 0.09850079 0.0054143826 -0.39443278 0.40479857 -0.100522935 -0.26321295 -0.19917294 -0.09683194 -0.3350251 -0.25278568 0.16552484 0.15426941 0.035058986 0.42235827 -0.3444329 -0.16351321 0.14272057 0.090764344 0.029957008 -0.42034906 0.21799631 -0.17642097 0.30535418 -0.32321978 -0.21188964 0.034064785 0.05707338 0.33256865 0.12131481 -0.32489637 0.11057544 0.026965385 0.06805131 -0.33818552 -0.2945789 -0.2014886 -0.09496766 0.094323695 0.029641904 0.21064644 -0.1972062 -0.009107405 0.13932608 0.10758982 -0.118221916 -0.37041962 0.271029 -0.03740148 -0.19892071 -0.11860171 -0.055509064 0.1738045 0.47243068 0.023657149
591 0.1641047 -0.41723096 0.1762596 0.042416107 -0.048680265 -0.38521236 0.33857873 0.19922683 0.026831288 -0.48091364 -0.18790454 0.07586239 0.39095536 0.08572618 0.28082913 0.1147658 0.044267125 -0.04863397 -0.10891313 -0.32495642 0.08314493 -0.08953287 -0.016612327 0.10637658 0.38273332 -0.038924985 -0.041234896 0.18214662 0.020597013 0.0041576503 0.2910453 0.0036899084 -0.125052 -0.18634686 0.2160825 -0.33437708 0.021191625 -0.3355912 -0.039677396 0.25812268 0.07085469 -0.5102841 0.37684247 -0.06716 -0.064335436 0.062644854 -0.24278104 0.17487642 0.05759505 0.19350085 -0.28883865 0.57270426 0.12128094 -0.008323531 0.16210072 0.032831598 -0.15472445 -0.24396242 0.02907858 -0.31803656 0.06834211 0.41718176 -0.17887576 0.26521942 0.2962711 -0.037848208 0.2344854 -0.28780517 0.22106351 -0.31637222 0.17647365 -0.076690875 0.009254267 -0.21224232 0.007449134 -0.026842233 0.017415665 0.43755138 -0.12415373 -0.017614966 -0.118987694 -0.016707823 0.005552511 -0.0851383 -0.57098675 -0.018345043 0.08906352 0.17397773 -0.41396144 -0.74021447 -0.13964176 -0.011445085 0.011964231 0.46882948 0.029046437 0.16472237 -0.16166967 0.39798087 -0.25536305 0.026172593 -0.36335427 -0.0778953 0.19943641 0.3398927 0.13559444 0.022581352 -0.35845208 -0.09655575 0.12989296 -0.17861885 -0.1891491 -0.20061997 0.14890563 -0.19893685 0.20389758 -0.49654526 0.5953779 0.3279877 -0.23300476 0.097650394 0.14052549 0.347242 -0.3383811 0.07599208 -0.31874752 0.103264466 0.0022087558 -0.25430727
590 0.34382358 0.11061101 -0.079902805 -0.013451397 0.06302098 -0.025061626 -0.1976495 0.26945674 -0.16252345 0.12636593 0.26283416 -0.071564935 -0.0012785728 0.12078669 0.23110388 0.12909432 -0.2086187 0.056774043 -0.0416031 0.17083031 -0.1633772 0.017330319 -0.04852514 -0.103247344 -0.17878748 0.16117294 0.08081686 -0.0021057194 -0.0055713593 0.15721177 0.089631416 -0.563192 0.02778494 0.19174711 0.1877838 -0.27042842 -0.023249293 0.47261173 0.31168446 -0.04447593 0.23244853 0.20531644 0.06515378 0.045824576 0.017504802 0.084923424 0.1401406 0.09721475 -0.23150863 -0.037803728 0.20374274 0.29510757 0.09267249 0.0010517464 0.100894034 -0.12833573 -0.11842534 -0.16193508 0.08522088 0.081713915 -0.0449699 0.048263066 -0.3224923 0.05983012 -0.25429776 -0.5042422 -0.21843927 0.22010612 0.37984058 -0.10778496 -0.09879778 0.3377207 0.004484446 0.14752646 0.2834638 -0.1271802 -0.03420349 -0.2080784 -0.23180377 0.039446246 -0.0823865 -0.19751203 -0.14874189 0.14563729 -0.089063294 0.32949352 0.2965528 0.054397006 -0.5303275 -0.031885553 -0.2616073 -0.43515158 -0.00036813653 -0.23304988 0.20337452 -0.10865747 -0.17782015 -0.19451657 -0.031412546 0.025088884 -0.039172668 0.27031505 0.29268053 -0.012287379 -0.22398295 -0.12918614 0.2373389 0.03972534 -0.3833905 0.24198823 0.008515332 -0.1909865 -0.05797045 0.079726666 0.36036545 -0.22171277 0.1948645 -0.047251325 0.11015845 0.13944288 -0.14572509 0.08050561 -0.061701287 -0.08644974 -0.30142406 0.30862564 -0.001429435 0.10959253
593 -0.15463169 -0.2768255 0.13613707 -0.26421928 0.05500959 -0.10511287 -0.24573332 -0.079888165 0.07687571 0.11487432 0.30800277 -0.06018209 0.016427118 0.099579245 0.13665204 0.0035639557 -0.1465658 0.04417437 -0.04563088 0.12945807 0.05499722 0.4123258 0.011589564 -0.07639252 -0.40937105 0.021714771 0.11287346 -0.28768492 -0.014724614 -0.1308305 0.045144327 -0.0011365181 -0.10175319 0.13775362 -0.15679303 0.25551227 -0.12028636 0.108623885 -0.31285936 0.6068009 0.067819916 0.20658076 0.06674386 -0.11404072 -0.06156544 -0.16501965 0.2806917 -0.08948225 -0.4021762 -0.0005972425 0.119243994 0.27811494 0.120283924 0.0007198189 0.026272014 0.08308048 -0.06687861 0.07146566 -0.17978768 0.18424669 -0.13334835 -0.007163456 -0.18576749 0.108502865 -0.055035807 -0.28121 0.11151052 0.24939477 0.17104857 -0.12578398 0.1286411 -0.037498135 0.23941618 0.3948066 0.043181553 -0.19289309 -0.102856934 0.011871201 -0.16129728 -0.37101623 -0.04520999 0.20034271 -0.12880085 -0.20117836 0.082071394 -0.32672077 0.05385924 -0.1708896 -0.22175825 -0.6058453 0.034456454 -0.1851768 0.31836322 0.21160479 -0.3698733 0.016731758 0.03290256 0.108359724 -0.16456062 -0.12313628 0.14179984 0.099290386 0.072052166 0.10573902 0.050811626 0.23160772 -0.30593544 -0.25461718 -0.20871885 0.020013034 0.019670581 0.0106266895 -0.41836196 -0.14313444 -0.11355679 -0.15479618 0.095364176 0.29786536 0.2560162 -0.31809497 0.23361036 0.21128152 -0.16124183 -0.06309763 0.15617399 -0.00213823 -0.054821245 -0.05994931
592 -0.24770536 -0.3344031 0.17190218 -0.26884916 0.26360095 0.013182962 -0.029244028 -0.30985096 0.41907766 -0.3654413 -0.09135131 0.09409441 0.0012111587 -0.04424347 -0.084494226 0.32682195 0.22056213 -0.16787867 0.1253861 0.0663508 -0.16714336 0.013126729 0.162074 0.04866113 -0.3340924 -0.084189415 0.05164209 -0.15841663 -0.26015428 0.45335892 0.10019919 -0.1614302 0.16570626 0.1601051 -0.5258804 0.082481794 -0.34311152 -0.28648978 0.1817276 -0.01859689 0.058221027 -0.36504456 -0.3607795 0.22613236 0.43996727 -0.26015127 0.26319286 -0.2037837 -0.12157435 -0.26202294 -0.1329754 0.17781389 0.033074364 0.4169878 0.26376355 -0.1817379 -0.043173756 -0.26313636 -0.0054323017 0.018444484 -0.083494276 -0.01110485 -0.46009886 0.26059192 0.020081306 -0.057314213 -0.08185959 0.037684515 0.1719631 0.3618945 -0.019250723 0.030364912 0.208053 0.16045466 0.4058799 -0.27321523 -0.37288842 0.10776495 -0.08499284 0.05445895 -0.12204704 0.16826496 -0.09591043 0.21310252 0.061194915 0.5520909 0.24812387 0.14516895 -0.180894 -0.14299464 -0.009037997 -0.23641516 -0.45262995 -0.07535715 -0.13279961 0.17942147 0.43999362 -0.019025853 -0.2188226 0.24995384 0.09187577 0.007472496 0.05759568 0.04987587 -0.4363253 -0.10813212 -0.3397995 0.040237315 -0.1432712 -0.49144033 -0.2554778 0.44285947 0.3099656 0.2231516 0.10530267 0.11876342 0.21518536 -0.13030712 0.103250064 0.25732386 0.1634082 0.08831747 -0.07885996 0.13965261 0.10687448 0.31930798 0.07927609 -0.35703397
595 0.08271534 -0.11706187 0.6043782 -0.46194974 -0.3714865 0.15978535 0.4226284 0.17636451 0.338699 0.05392566 -0.08587891 0.10564632 0.19858424 0.17918624 0.2565959 0.11708702 0.2005679 -0.4799119 -0.11545223 -0.547181 0.07381067 0.5043329 -0.31533632 0.032937 -0.38664013 0.124822326 0.63952047 -0.10864835 0.017719293 0.30636054 0.07974842 0.2846162 0.03741572 0.36950037 -0.5567482 0.057007316 0.31255046 -0.08440359 -0.0059988103 0.118359566 0.48116773 0.5940523 0.002600933 0.1189312 -0.5240477 0.11777669 0.22711353 0.5560196 -0.13327783 -0.21709092 0.31423372 -0.063564785 0.57598525 0.20652707 0.35909387 0.81754744 0.42814398 -0.1602299 -0.12077441 -0.71565086 0.13849635 -0.30222487 -0.27067366 0.05696388 -0.21653064 0.039962325 -0.22750881 0.35469404 0.7117806 0.53745127 0.06266317 -0.0748545 0.047860302 0.41070986 0.1210653 0.007835907 0.5740442 -0.22644135 -0.30714038 -0.53171164 0.21975727 0.12802665 -0.10807804 0.27560547 0.6279915 0.40780056 0.73512936 0.28117695 0.48893604 -0.063188516 -0.19269988 -0.028928375 0.17745532 -0.35335928 0.27646762 0.03777393 -0.022026895 0.47121802 -0.11011718 0.20185673 -0.23390622 0.6112719 -0.0029676892 -0.21007207 0.41352272 -0.2130977 0.116421044 0.06778366 -0.15009236 0.18119806 0.37015548 0.17700085 -0.29106995 0.41956916 0.052155927 0.31779155 0.15572315 -0.0091027515 0.15195139 -0.55744314 0.3611895 -0.090909556 -0.27407575 0.28012982 0.23695669 0.15415233 -0.43212822 -0.27273393
594 -0.05096259 0.4416491 -0.23631315 0.01886078 -0.14571536 0.073599815 -0.26023024 0.07274472 0.33815506 -0.1722601 0.20830052 0.03532595 -0.0440022 -0.2707502 0.04998524 0.11854689 -0.028497335 -0.14343649 0.0629282 0.23399608 -0.19369061 0.3520309 0.06007671 0.16961709 -0.16816597 0.10002949 -0.23310786 0.035655983 -0.103401214 -0.22718543 -0.34897032 0.09466619 0.13731572 -0.19271766 0.04466839 -0.20121385 -0.29517493 0.21236046 -0.1761024 0.48428562 0.05425095 -0.21462908 0.4818912 0.029265242 -0.3766889 -0.40700278 -0.14489521 0.0016308404 -0.09995676 -0.176458 0.07847138 -0.040925663 0.2346676 -0.022948168 0.13480674 -0.21895978 0.15785939 -0.31763807 0.030943036 0.100717105 -0.22070989 -0.14951459 0.1851567 0.059435014 0.05030103 0.034411214 0.27614602 0.091649204 0.00038046003 0.06799402 0.41759312 0.14430077 -0.29568675 0.22996822 0.23772575 0.0052694324 -0.013185429 0.0539626 0.24267985 -0.0786778 -0.25509787 -0.04438995 -0.6612924 -0.2626022 -0.044052225 0.13822252 -0.25286886 0.23556234 -0.12087992 -0.077269144 -0.026884599 -0.39380738 0.11680972 0.2704454 -0.034554977 0.28648263 0.11341962 0.42742985 0.15785262 -0.65816796 -0.031155223 0.29067442 0.09330064 0.33988935 0.11784129 -0.12034477 0.3237339 -0.28764418 -0.079028845 -0.5158755 0.038555548 0.30941457 0.17587863 0.34792972 -0.20615168 0.043415435 0.061228834 -0.29817814 -0.12347676 0.12344338 0.058154956 0.35951954 -0.20751052 -0.09295506 -0.063851684 -0.24072365 -0.0602304 0.15524544
597 -0.037068184 0.19706751 0.02798159 -0.057393223 0.2710234 0.2071688 0.3373461 -0.13023134 0.12389046 -0.3360239 0.12917738 -0.04450459 -0.050895452 0.1597041 0.30337894 -0.18610032 -0.11322473 0.393353 -0.41997713 0.1933104 0.05935289 0.20635818 0.35874283 0.206064 0.32151446 -0.018396309 0.26481512 -0.040221486 0.16868338 -0.13192365 0.049138438 0.121587805 -0.3075855 0.13791792 0.14547904 0.25963584 -0.18375257 -0.10377035 0.08453512 0.021192342 -0.0022750038 0.120321326 -0.17569214 0.23732857 -0.11528821 0.22056994 0.4242822 0.12779075 0.053830847 -0.19262469 -0.06465724 -0.10846287 -0.17082421 0.21337475 0.36589333 0.39852726 0.19574255 -0.14850752 -0.49654037 -0.005564795 0.15423188 0.2635109 -0.2971555 0.07617654 -0.15601797 -0.43199316 0.102435075 -0.16036448 0.14468476 -0.095479004 -0.1253449 0.37228432 0.16620618 -0.10744712 -0.22552475 -0.14669216 -0.16745143 0.4617418 0.22150393 -0.07182529 0.19240038 0.17195897 -0.42807242 0.1429316 0.0074515245 0.39403394 -0.12795761 -0.14229682 -0.2946698 0.32106337 -0.21478204 -0.35615984 0.7761109 0.32934824 -0.12017925 0.24384439 -0.11858517 -0.120150685 -0.13396986 0.19055809 -0.08846773 0.2905253 0.22206025 -0.16131231 0.14945759 0.35742772 -0.03646734 -0.19415043 0.25897974 -0.4468071 0.14842993 0.10573379 0.12621333 0.2849473 0.097184844 0.15419087 -0.0769823 0.38295403 0.004557701 0.2654316 0.43351743 0.5371044 -0.27351967 0.4820118 0.19934316 -0.24567975 0.30246192 0.047357567
596 -0.10655949 0.2533881 0.15968804 -0.118494265 0.1221894 0.19036373 0.07082509 -0.015641954 0.04388494 -0.067115776 0.29957816 -0.19874789 -0.07740125 -0.24727356 0.34450936 -0.3819271 -0.10352819 0.32932073 -0.83054155 0.39592433 0.5458173 0.1845649 0.1663089 -0.3265426 -0.1253503 0.55354965 0.5132435 0.12076009 0.3235429 -0.16130675 -0.15312771 0.18177237 -0.11302411 0.5155905 -0.01161346 0.53603375 0.1460203 0.0567953 0.23022583 -0.0121912705 0.06548479 0.3567424 0.022700764 0.36480644 -0.4087676 0.2455547 0.12201043 0.15676442 0.1335279 0.06515382 0.031499293 -0.25825506 0.20462847 0.30805588 0.03790807 0.5676125 0.07665203 -0.376664 -0.36636528 -0.24439381 -0.1512475 -0.08272239 -0.152748 -0.2613445 -0.3055085 -0.013106798 0.06444657 -0.30937904 0.36176905 0.022401428 -0.14137529 0.3219877 0.65994775 -0.22141702 -0.2612622 -0.026467536 -0.3969246 0.4537022 -0.16562416 -0.27406237 -0.3914038 -0.076537445 -0.36028287 -0.27907315 -0.09399839 0.46269682 -0.19139968 -0.46124563 -0.4078041 -0.2917336 0.04196648 -0.5089739 0.4950119 0.18462951 -0.1488572 0.099321134 -0.24707377 -0.18380944 -0.0026192586 0.17152907 -0.17419602 -0.032725018 0.27391216 -0.50490886 -0.053563062 0.7256367 -0.13321352 -0.3794792 0.029880632 -0.26692125 0.14744452 0.43364352 0.33668974 0.25813574 0.04529781 -0.040231425 0.20368358 0.20012425 -0.2063818 0.1774263 0.22148807 0.503618 -0.15708797 0.18357557 -0.15335584 -0.43564668 -0.034395568 -0.04513643
195 0.16728589 0.11252414 0.33219022 -0.10405857 -0.07173234 -0.32891968 -0.10231966 -0.11959054 0.081649624 -0.13910195 0.15898082 0.3551674 -0.046234977 -0.19848901 0.032139696 0.03515898 -0.06416336 0.14764458 0.12645577 -0.050508514 0.035406526 -0.10703182 -0.066166595 -0.045271307 0.18966652 0.20590946 0.17228237 -0.23730539 0.06005449 0.09805214 -0.11553152 0.053518668 -0.015152255 -0.01340713 0.067303605 0.0274156 -0.24975927 0.10807943 -0.004466034 0.15220612 0.3508217 -0.042511582 0.35935444 -0.0035736577 0.026997348 -0.1478517 -0.024439208 -0.10573343 -0.22221012 -0.08357455 0.02558285 -0.3607897 0.03313237 0.38940942 -0.14436053 0.20289026 0.1014556 0.05505661 0.040859554 -0.38622957 0.07161753 0.60969985 0.0705572 0.16087817 -0.12942132 -0.21613276 -0.27956894 -0.061723985 0.08492821 0.055324774 0.3260751 0.28844213 0.19845462 -0.09460513 0.3020829 -0.21994573 0.071628906 0.2534787 0.36156505 0.180612 0.11760091 0.09640016 -0.21136895 0.1001076 0.11650166 -0.12534076 0.11073078 -0.083837174 0.296043 -0.10376719 0.02230164 0.25776806 0.0030230507 -0.15697427 0.09935544 0.096849486 0.11555226 0.05020617 -0.07807913 -0.048755113 -0.009891401 0.024170171 0.18382092 0.18672183 -0.203566 0.19994731 -0.16594918 -0.02027082 0.21895936 0.21345894 -0.061178334 0.28327337 0.57215023 -0.16418716 0.1507329 0.00729221 0.1501718 0.26903483 0.08671831 -0.2541854 0.062421653 0.22328663 0.2503209 -0.084393084 -0.17258868 0.11140052 0.28852454 0.27342004
194 0.22491774 0.14458178 0.19353405 -0.17149568 0.026807789 -0.009545323 -0.09298319 -0.17410102 0.22701144 -0.1494073 0.25141785 0.26759538 0.21288657 -0.0067191836 0.07807406 -0.13694923 -0.10607433 0.29578656 0.05734442 0.17590877 0.07740782 -0.12556016 -0.07199513 0.21266334 0.23635146 0.066118196 0.072795026 -0.4452288 0.022220906 0.26064643 -0.01990426 -0.2692241 0.03183832 0.005345712 0.13250965 0.06877358 3.0332492e-05 0.04959695 -0.09528125 0.100099705 0.31658643 -0.17751431 0.27806443 0.06393375 -0.06912525 -0.19969118 -0.05323561 -0.19513784 -0.37979612 0.003095879 -0.18368025 -0.34367368 0.100648135 0.3903616 -0.006093253 -0.012530579 -0.0038419792 0.30748066 -0.07622417 -0.3797891 -0.009742466 0.29840955 0.23101388 0.08639578 -0.076926254 -0.18331885 -0.15363185 -0.27654523 -0.11019938 0.03254782 0.18471687 0.30378166 0.26368034 -0.2006032 0.074816 -0.25934622 -0.03665847 0.038111005 0.31816694 0.11454699 0.2387882 0.06624588 -0.16882204 0.07198528 0.044016663 0.03310513 0.064283654 -0.2524678 0.19971775 0.012281593 0.0351075 -0.064208716 -0.016057348 -0.09763303 -0.06406502 -0.055491947 -0.13988711 -0.04726266 0.04560971 -0.028545078 -0.014638105 -0.084133156 0.12432775 0.25599775 -0.020576254 0.11870854 -0.2141502 -0.15582533 0.059613027 -0.12316528 -0.19157387 0.25794217 0.57788944 0.058562167 0.37448853 -0.21641785 0.213327 0.34890676 0.20739217 -0.016304092 -0.10803499 0.08131258 0.22952133 -0.07868202 -0.116785534 0.008180795 0.1613278 0.019354839
197 0.017578183 -0.2932611 0.3164308 -0.10967579 -0.10615811 -0.10982176 -0.00016631694 0.27064326 0.012893547 -0.07087005 0.36834246 -0.035089158 0.057964195 -0.107199736 0.029621473 0.033866953 -0.42986467 -0.088300295 0.08699488 -0.21179838 -0.109745316 0.456725 0.257326 0.1991577 -0.2716406 -0.17928408 0.07442115 -0.35840777 -0.09892451 0.1935665 -0.0030216202 0.05033163 0.22938037 0.03234077 -0.2591431 0.11706603 0.12020863 0.3637459 -0.40269738 0.08085255 0.17256889 0.22711435 0.21437393 -0.18814182 0.009965116 -0.23065014 0.24135014 0.022509994 -0.2161391 0.07777963 -0.16174848 -0.012963294 0.055734668 0.2022623 -0.12063703 0.1363862 -0.067862876 0.1980795 -0.014338258 -0.18230097 -0.12964524 0.2571318 -0.09839383 0.044892658 -0.049530644 -0.136909 -0.08660477 0.16549356 0.25103718 -0.111781575 0.030914648 0.12711766 0.2376076 0.28045022 -0.30141315 -0.08917369 0.020690063 -0.033464972 -0.14129749 -0.450335 -0.13554151 0.06255121 -0.2765062 -0.08025343 0.31483352 0.17865352 -0.14762034 0.32582766 -0.07767008 -0.43963847 0.08443887 -0.15979415 0.105211385 -0.07185118 -0.31030872 -0.06748688 0.17976451 0.12516159 -0.176995 0.11562316 0.22055948 0.100968845 -0.2042614 0.019993272 -0.12889084 -0.09449272 -0.105630994 -0.44963443 -0.370817 -0.018127361 -0.07646154 -0.13994995 -0.36952162 0.042960476 0.082024045 -0.15390356 0.17330113 0.1513584 0.14416671 -0.13595693 0.29824442 0.010627487 -0.10310894 -0.20789795 0.017903212 0.07917755 -0.25603202 0.09359293
196 -0.24947266 -0.10481821 0.071946345 0.07844138 0.15431105 -0.055275984 -0.37443995 -0.03876857 0.057930704 0.13470775 0.5024431 -0.1579668 -0.21163695 -0.2546829 0.09852017 -0.007925471 -0.21759944 0.045087434 -0.050259795 -0.1619505 0.020784574 0.3601905 -0.05266484 -0.12596919 -0.40990523 -0.1609362 -0.14568007 -0.36814457 -0.12207623 0.06355294 0.023035413 0.104119964 0.17735113 -0.062219225 0.017836789 0.23168151 0.109022275 0.1727222 -0.3022421 0.32732338 -0.0092148185 0.19877021 0.16181567 -0.15469413 0.15522781 -0.17895511 -0.004213316 -0.052983407 -0.17612393 0.21097185 0.06072311 0.014818816 -0.08432016 0.14861912 -0.05222223 0.26469988 0.034931365 0.14506425 0.13218415 -0.036583208 -0.021314412 0.027619222 -0.027899316 0.07684804 -0.20790343 0.009646495 0.034250688 0.21091789 0.12957166 -0.2671439 0.07758133 0.06344126 0.20140073 0.062271163 -0.15569046 -0.2938233 -0.14962962 0.2528397 0.12077556 -0.20905727 -0.17040104 0.46868926 -0.2233703 -0.32632744 0.17737933 -0.07469188 0.20578155 -0.03676129 -0.22416231 -0.4857232 0.14586587 0.028479306 -0.077760145 -0.04035114 -0.11278213 0.010586597 -0.046350893 0.29068586 -0.098050475 0.07815726 -0.033451144 0.07552132 0.22147211 0.035715077 -0.21914206 -0.07748518 -0.16586927 -0.37074065 -0.08287093 0.09309995 -0.003788433 -0.13868493 -0.14275168 0.19637248 0.009613866 -0.11924217 0.14801304 -0.09228353 0.30266964 -0.06852786 0.52287936 -0.09610869 -0.26683545 -0.17842418 0.034920145 0.036748458 0.11167274 0.09623362
191 -0.086816736 -0.20903581 0.13911515 -0.28450233 0.09659555 0.0073342915 0.1003118 0.04406504 0.18460876 -0.08067596 0.16756287 0.06073936 0.108671434 -0.07721982 0.44226122 0.4480946 0.12510563 0.16389303 -0.18212417 -0.087411724 0.064698145 -0.01894737 -0.0019979705 -0.023223974 -0.035976913 0.38334525 0.14235032 -0.34261027 0.1253761 0.05251814 -0.10507411 -0.36886734 -0.067747325 0.34767917 0.045932706 0.15041715 -0.13112782 0.05587796 0.1107323 0.42026055 -0.119949624 0.08126139 -0.004888853 -0.06582601 -0.08166773 -0.18693812 0.2948221 0.05998052 -0.12353708 -0.04546382 -0.12070704 0.17077887 0.3501397 0.18172656 0.15766332 0.25416166 0.03907162 -0.08113158 0.21726947 0.029025113 0.0065806657 0.07558635 0.08044418 -0.14077124 -0.23225673 -0.35434103 0.069873355 0.017502952 -0.0066306144 0.16972508 0.02197916 0.18824102 -0.17896663 0.09062546 -0.18201202 -0.10817523 0.14959559 0.27243108 -0.08966852 -0.24691908 -0.26625744 0.019538945 0.20829584 -0.025792917 0.51357925 -0.3250464 -0.30792877 -0.10553776 0.052150264 -0.07520926 -0.28038326 -0.12379155 0.13720697 -0.2893495 0.17586376 0.11057032 -0.21959414 0.20134425 0.2812421 -0.124956965 -0.12736472 0.1651118 -0.1433822 0.045845333 0.23733792 -0.05569359 -0.29187042 -0.3029399 -0.007617298 -0.32653728 0.056162722 -0.08545295 -0.21283631 0.26559684 -0.21328692 -0.026879922 0.12417047 -0.03885475 0.3638892 -0.17100334 0.20604694 0.042066 0.029677212 0.13889885 0.032462265 0.018182453 0.14447743 0.19701985
190 0.21106823 0.08220367 -0.29843527 -0.38967416 0.08523949 -0.09071177 -0.25697806 -0.04626808 -0.15557653 -0.32264662 0.14254934 -0.34096628 0.13062555 -0.1440842 0.4042908 0.17912275 -0.09373598 0.20244984 -0.07181423 -0.22173151 0.024471533 -0.09813209 0.06647792 -0.010652262 -0.18647985 0.041364186 -0.29287052 0.20944273 0.07929055 0.2258069 -0.09467325 -0.26036438 0.121868476 -0.17831337 0.039357845 -0.14071074 0.022967182 -0.003767312 0.0021835403 0.2545964 0.07517836 0.022025978 -0.020533359 -0.033621557 -0.040103417 0.036531243 -0.0328255 0.009018689 0.027795915 -0.050668653 0.2524887 -0.24346285 0.022830643 -0.23319545 -0.047432117 -0.1554889 0.06779372 -0.11016763 0.052514765 -0.34858373 0.13677767 -0.047993977 -0.20468713 0.2315546 -0.16150442 -0.32650688 -0.17208858 0.12656325 0.12870666 0.12153248 0.103312574 0.15392275 0.21019779 0.032178234 -0.22464801 -0.022589061 -0.002910563 -0.17852394 0.045720994 -0.056343626 0.011291837 0.0864073 -0.39874405 -0.24581484 0.0117667075 0.17395335 0.22043964 0.094743736 -0.12354442 -0.13828032 0.05939275 -0.056688104 0.22532417 -0.2066569 0.065245286 0.22138213 -0.14011393 0.06741346 0.17648108 0.14561656 -0.16283703 -0.14725268 -0.1671267 -0.0015265101 -0.23499334 -0.11542304 -0.11195474 -0.08031785 0.03278848 0.19227023 -0.05655913 0.15054725 0.101393975 -0.07262787 0.10320246 0.19161078 0.07254404 0.070959315 0.15598111 -0.08409834 0.21349321 -0.024770975 0.05170848 0.29637915 -0.0399144 -0.1725602 0.01163394 0.111589655
193 0.14938763 0.22890763 0.3246816 -0.2877591 -0.04545103 -0.08743651 0.21787366 -0.18878676 0.11070817 -0.04234418 0.010991283 0.22210185 0.16233125 0.008494559 0.03002432 0.2333046 -0.04579624 0.3144543 -0.025590885 -0.059813626 -0.06987585 -0.18549609 -0.10451427 0.28703845 0.012403914 0.06523953 0.15621614 -0.32011184 0.002354007 0.1682647 -0.17218629 -0.012828879 0.023645293 0.032403838 0.14022575 0.25599092 -0.19942933 -0.019235075 0.07020982 0.24002111 0.2693331 -0.13840784 0.25346977 0.12662247 0.08277954 -0.15905981 -0.069019355 -0.15451708 -0.32330623 -0.095216416 -0.0029656405 -0.29369372 0.21919651 0.5469247 -0.013900971 -0.033026397 -0.14013568 0.36929455 -0.14540549 -0.5464302 -0.021811834 0.39008602 0.29437435 0.17888539 0.15017432 -0.22221296 -0.18051158 0.044427495 -0.12561902 0.12674403 0.26130134 0.15703742 0.20967247 -0.2296798 0.21529946 -0.2583565 -0.03777198 0.20215975 0.37200904 0.062526785 0.26879948 0.25220972 -0.40981746 0.31166607 -0.011939147 0.012237141 0.20115842 -0.06907016 0.20674807 -0.09403514 0.0063276626 -0.034931146 -0.036135707 -0.235821 -0.101425424 0.19428182 -0.17770594 0.031659745 -0.06191418 -0.04362935 -0.20709613 0.074717335 0.20606208 0.151032 -0.14379686 0.17106213 0.053632446 0.15451321 0.058563635 0.07201705 -0.22918837 0.19487198 0.5055543 -0.26272127 0.41223645 -0.090432554 0.12141093 0.63258237 -0.07796136 -0.10720171 -0.041792475 0.066995114 0.14217052 -0.19938913 -0.23416607 -0.07129712 0.34309724 0.15687147
192 0.2484009 0.22524822 0.3138737 0.1245898 0.24109806 0.02747754 -0.060494117 -0.14552599 0.08489263 0.075682096 0.05774693 0.21057077 0.20990252 -0.05381895 0.030251587 -0.053445604 0.26198697 0.30448806 0.21128891 0.15446702 -0.040126514 0.103849635 0.023138108 0.27423996 0.2383913 0.34423524 -0.18010049 -0.21050887 0.31544122 -0.04523701 -0.08704898 0.0023922217 0.23692177 -0.009330597 -0.049834393 0.06446746 -0.1489343 0.1641999 0.15667999 0.028868575 0.24474879 -0.005464942 0.23494716 -0.07203952 0.15368193 -0.19749549 -0.020109145 -0.1968375 -0.42278492 -0.11297625 -0.087396346 -0.36770102 0.14661548 0.54010856 0.17089823 0.18220754 0.06657516 0.09126982 0.09430408 -0.4838068 0.11657801 0.70150894 0.2671729 0.35247025 0.061349716 -0.097410075 -0.35144466 0.12598605 0.21540548 0.048858777 -0.15479541 0.2657823 0.3651556 -0.06706772 0.26682222 -0.486147 -0.12250607 0.41891542 0.39660394 -0.030164119 0.23585491 0.14743839 -0.26819432 0.1694756 0.13156135 -0.018565709 0.38216853 -0.24362935 0.4600551 -0.2830945 -0.07956289 0.24531919 -0.046253316 -0.36022523 -0.14328942 -0.01884636 0.07239091 -0.046747163 0.045802537 -0.32859737 0.053535387 -0.19823846 0.32271585 0.33298963 0.017977769 0.27357236 -0.09900848 -0.006354988 0.22930966 -0.074323714 -0.11051433 0.1449726 0.6839817 -0.0818933 0.2608817 -0.004513396 0.23165041 0.13000573 0.17897926 -0.21941404 -0.14313816 0.19822228 0.022721287 0.073660314 -0.06775653 -0.02715624 0.35215616 0.262959
270 0.07181578 -0.12669207 -0.12668063 -0.17168923 -0.40580142 0.016370485 -0.07413751 -0.102628745 -0.04394693 -0.24402554 0.018735316 0.36170015 0.00687937 0.43673843 0.2629381 -0.38390344 -0.25904247 0.3173503 0.0010384497 0.26842186 -0.23963477 0.30333042 0.02127369 -0.054070894 -0.1504948 0.23959157 -0.23228873 -0.29547498 -0.017044213 -0.12450858 -0.17197329 -0.21788816 0.25163737 -0.030132458 0.004986196 0.10554844 -0.15968631 0.02290848 -0.1890942 0.2405545 -0.2750351 0.28836927 -0.2679719 -0.20512484 0.08320646 -0.28586593 -0.14370142 -0.20542282 -0.43493906 0.13315192 0.07580392 -0.14120558 0.26079622 0.12592913 0.0032699578 0.10653803 0.1417649 -0.009906818 -0.09112151 -0.07962227 -0.031010527 -0.19966587 -0.2265556 -0.17938696 0.3020722 -0.26333746 0.38881078 0.057431016 0.28503338 -0.044362813 0.08343973 -0.14925638 -0.023221198 -0.2587223 -0.23054749 -0.18345095 -0.23750369 -0.16261145 0.44533098 0.12141313 0.13601764 -0.0800287 0.045372702 -0.023658786 -0.08062301 -0.0652427 0.39747453 0.12305545 -0.07750491 0.041987788 -0.20776075 -0.14029543 0.19631569 0.20288788 -0.06041555 -0.15980953 0.21070835 -0.06592081 -0.26680502 0.04298186 -0.0734953 0.0355788 0.3781365 0.01074233 -0.04948261 0.06638471 0.40731126 0.0439789 -0.04446799 -0.06022553 -0.089865066 -0.32111287 0.2733871 0.043377936 -0.25674337 -0.28095788 0.044197816 -0.3596976 0.54288644 -0.12090844 0.21968591 0.3021902 0.012343741 0.21200079 0.04646799 0.4992689 -0.054125294 -0.06568188
271 0.015216079 0.06562071 0.02495455 -0.25897813 -0.04165811 0.080656484 0.024770575 -0.08555206 0.12441877 -0.267265 0.19383022 0.27729675 -0.05622855 -0.30857956 0.19409746 0.0048058424 -0.15876827 -0.018765884 0.058336478 -0.13919753 0.3344389 0.17092395 -0.08670895 0.06219386 0.22859983 0.16838048 -0.2142055 -0.008390692 0.31872767 0.054210972 -0.086498976 -0.08986327 -0.13998963 0.21068184 0.061363548 -0.043439474 0.04953646 0.0008127673 0.04503412 0.269754 0.2737111 0.091813736 0.15543151 -0.012745514 0.5668117 0.10294309 0.053211667 -0.04294618 -0.2258294 -0.08233975 -0.12827615 -0.07411601 0.072548896 0.21911313 0.16264737 0.0711637 -0.007836537 -0.14554788 0.020347366 -0.34876785 0.14268002 0.39565524 0.122085474 0.09592374 0.058788564 0.041930247 0.07596382 0.046751745 0.40599805 0.095394306 0.043482117 0.18528354 0.17043677 0.060245305 0.04238711 -0.20826903 -0.100797616 0.039438337 0.10320099 0.024446905 0.10580818 0.082273886 0.053459007 0.13168848 0.2175651 0.13538456 -0.028891273 -0.054710425 -0.2851494 -0.095881514 0.012124893 0.25414333 -0.16962421 -0.026071144 -0.13090217 0.08828821 -0.08447576 -0.1692016 0.05828195 -0.15427501 0.19502416 -0.065011926 0.34141183 0.11908146 -0.16249135 0.061964165 0.10232433 0.098635696 0.24043207 0.07181475 -0.2983472 0.27783152 0.21771571 0.060911193 0.0037842924 -0.09941265 0.1838686 0.064339384 0.08856915 -0.20830506 -0.17009722 0.05304922 0.0052817212 0.0017670852 -0.21176921 -0.23264228 -0.021817192 0.06063338
272 0.043567147 -0.057414066 0.26510406 -0.30154654 -0.048832156 -0.2605998 -0.038815673 0.17392114 0.1497065 -0.39052355 0.20166907 0.41913632 0.028355017 -0.22958466 -0.2575557 0.46549085 0.0045304233 -0.12899481 0.32481292 -0.099455625 0.10723858 -0.15481177 0.036138386 -0.009425385 0.037803024 -0.12113716 0.06214513 0.046174232 0.102538824 0.28447196 0.05584348 -0.091700256 -0.22192802 0.19796968 -0.011268331 0.20309 -0.076326676 -0.22447821 -0.059223387 0.18912949 0.06740967 0.043613013 -0.10692472 0.23699549 0.2944847 -0.4803603 0.057177465 -0.13602886 -0.120204255 -0.072963476 -0.10188795 0.055242226 0.15134265 0.3208228 0.22129284 -0.076692194 -0.11959451 -0.06273009 -0.21011277 -0.36113614 0.34355378 0.03193209 -0.15493335 0.13748722 -0.0989723 0.13015114 -0.12680276 0.15295486 0.074867554 0.055205848 -0.07662078 0.13486291 0.073617205 0.2310589 0.31410912 -0.055884313 -0.2691126 0.39355347 -0.09889734 -0.03876158 -0.13816978 -0.0089432 0.11990799 0.03306192 0.037825353 -0.010063304 0.32218122 0.03341928 -0.33103153 -0.047802933 -0.13061084 -0.14461301 -0.25455132 0.19163828 -0.33356252 0.31851423 0.2775156 0.1754686 0.057686236 -0.08778999 -0.23999345 0.09893317 0.1743241 -0.38974434 -0.164131 -0.18576778 0.07774043 0.028984757 -0.114530586 -0.121219255 -0.14271788 0.5587533 0.36249012 -0.07986289 0.09341694 -0.11815082 -0.037335508 -0.039389785 0.29442763 0.29144704 0.16897501 0.0539333 -0.20387098 -0.025186162 0.14435302 -0.03506551 -0.08940137 0.07474809
273 0.16615997 -0.012533565 0.01638699 -0.6713305 -0.34602886 0.034385685 -0.0058682524 -0.10591905 0.016674967 -0.3236334 -0.11713874 0.3238941 -0.055574574 -0.38094786 -0.02215561 0.22448532 0.09516234 0.04758196 0.03478762 -0.08738674 -0.013648957 -0.18074214 0.12925038 -0.055645276 -0.09508518 -0.051243868 -0.16160804 0.19607283 -0.14572015 0.09532723 -0.117530204 0.09200306 -0.22863889 0.2744421 -0.36071953 0.19303869 -0.22772935 -0.21939072 0.09169526 -0.016373327 0.005095141 -0.26724342 0.023051828 0.00091555715 0.26260835 -0.26421 -0.027625196 -0.08886491 -0.12979063 -0.18052377 -0.15509063 0.2380901 0.054516044 0.38070247 0.364033 0.0013302292 -0.31790197 -0.27746853 -0.2704423 -0.29747275 0.04596936 0.1541444 0.09512423 0.23348433 -0.21839756 0.18221219 -0.025323013 -0.033848476 0.2151982 0.13740604 0.08438761 -0.0840145 0.2664194 -0.17788652 0.13798195 -0.29974848 -0.21643893 0.37120223 -0.10800866 -0.029144976 -0.055506483 0.22728932 -0.046493776 0.38029325 0.23254345 0.48403907 0.33906585 -0.00083598227 -0.20273179 -0.17116477 -0.10070636 -0.38770574 -0.2812177 0.23721176 -0.28119612 0.26777175 0.24361828 -0.14241269 0.05357432 -0.0033387146 -0.22897032 0.065724365 0.19431466 -0.22138867 -0.43924418 -0.24032676 0.023567915 0.11034446 0.14876366 -0.32121828 -0.23470572 0.40753928 0.19100419 0.043075226 0.06393719 -0.26560855 0.12866487 0.04636906 0.25143838 0.029363481 0.21985565 0.08174943 -0.16113368 0.0053967647 0.16702335 0.2474754 -0.15403126 0.23392981
274 -0.03993895 -0.1264135 0.18655099 -0.18066704 -0.086741865 -0.072222434 -0.20750967 0.07957571 0.0712977 -0.40241846 0.18851238 0.11628699 0.12924927 -0.23105434 0.096725985 0.14077455 0.18051487 -0.31265104 -0.16801699 -0.05923921 -0.004883986 -0.19410293 0.046437934 0.18619789 -0.17175402 -0.17253606 -0.14077683 -0.061733898 -0.13354434 0.28358495 0.027433936 -0.08985566 -0.062477726 0.14734906 -0.09971913 0.0006808783 -0.16015057 -0.14868623 0.11914016 0.17302358 0.14382987 -0.3702927 -0.21246716 -0.0983651 0.32808307 0.0034806966 0.1539444 -0.060151808 -0.10153396 -0.18071927 -0.21275054 0.2229564 -0.008698951 0.36482167 0.20495182 -0.09268823 0.14072448 -0.41707093 -0.25536388 -0.092067555 0.12445168 -0.14481437 -0.1767205 0.100281425 -0.29999846 0.042451978 -0.1013425 0.21322022 0.115580946 0.1704426 -0.030847052 -0.09795291 0.30620936 -0.07909301 0.1733533 -0.4368509 -0.27807996 0.07601864 -0.24928243 -0.43590453 -0.14158551 0.21163093 0.07040619 0.42924482 -0.17342636 0.50029296 0.2941709 -0.16370717 -0.096060984 0.08852578 0.2375583 -0.21223734 -0.24274155 0.36626223 -0.38051364 0.15863426 0.10852533 0.11214367 0.048457243 0.08172174 -0.66817796 -0.0645519 0.13082366 0.070112966 -0.57319355 -0.28301263 -0.1479473 0.2840208 -0.0048495517 -0.3649124 -0.26360178 0.082184635 0.26808548 0.23428631 -0.055742834 0.16427362 -0.1431385 0.13700113 0.34283137 -0.15977523 0.14699896 -0.006273164 0.24104066 0.051939435 0.21857867 0.2151016 -0.2433663 -0.030390302
