1005 128
344 0.10374732 -0.12839052 -0.0718072 0.12125151 -0.099312276 -0.09389904 0.07214731 0.100241706 -0.009145908 -0.11597041 0.053059664 0.14388558 0.08885955 -0.030527418 -0.054098085 0.10949257 0.12263196 0.098357856 -0.106411055 0.11757043 0.0065400996 -0.09882683 -0.090684876 0.07459821 -0.118262045 0.09446572 -0.04636772 -0.09239811 0.09868701 0.11329869 0.07689129 0.109212205 -0.07709878 0.06957354 -0.09550585 0.117900915 0.08961605 0.10416777 -0.107668765 0.081964 -0.07527468 0.047764435 0.024283042 0.074421644 0.092631295 0.064782344 -0.12086052 0.10492854 0.05704646 -0.099769555 0.023864672 0.020109333 0.08731863 0.0627301 0.09295085 0.09026533 0.08296681 -0.054988947 0.10344799 -0.031136496 0.02190921 0.10662802 -0.037543558 0.12249278 0.109117106 -0.09389664 -0.08426851 -0.090820536 0.0727212 0.04249627 0.09218913 0.121704206 0.113613285 -0.10237597 0.08145722 -0.082490064 0.084789224 -0.11774697 0.13366494 0.08460153 0.04401062 -0.14508346 -0.047881465 -0.13498954 -0.06003526 0.059180673 0.05120107 0.018101234 0.049907222 -0.01759068 -0.046767276 0.108859 -0.041710146 -0.056796014 0.03991781 0.034067918 0.04927979 -0.017613882 -0.090961955 -0.105745815 -0.053375825 -0.04548663 -0.06957802 0.12029851 -0.10060643 0.0910708 -0.10300834 0.06388882 0.09385243 -0.093565784 0.09860328 0.08763463 -0.11935286 0.09508905 0.09110888 -0.07743276 -0.07444728 0.121017605 -0.11457645 0.03915667 0.11860834 -0.12526898 0.096452445 0.12924442 0.06856636 0.07716203 -0.118150294 -0.01709746
819 0.10567993 -0.11552091 -0.06348487 0.11335314 -0.11148446 -0.08965437 0.09611691 0.11747675 -0.03240967 -0.111074105 0.058346998 0.13290904 0.06636792 -0.05137764 -0.061141986 0.11742964 0.13034818 0.09082742 -0.095402695 0.12287399 -0.009275701 -0.09838278 -0.09819249 0.08707157 -0.12077243 0.08872543 -0.05398819 -0.078696825 0.100572534 0.09371216 0.0991476 0.11120027 -0.069034815 0.052200247 -0.060819075 0.110483296 0.097698025 0.11188305 -0.11217821 0.08589879 -0.06432635 0.059685405 -0.010218324 0.07666401 0.08090479 0.026580673 -0.09874755 0.093319684 0.025003051 -0.09412382 0.0008688734 0.00987746 0.07171969 0.040767565 0.0793955 0.1057971 0.08016609 -0.07981663 0.10963998 -0.034448665 0.032489397 0.11657552 0.011136013 0.1310354 0.09500081 -0.08264956 -0.07542527 -0.09958021 0.078679115 0.06864777 0.114892885 0.108267404 0.11756091 -0.084731854 0.080018826 -0.061712354 0.0739282 -0.10758197 0.122112416 0.10861803 0.071493365 -0.13905299 -0.055740237 -0.13011226 -0.045705315 0.06937943 0.007468713 0.003368805 0.04575935 -0.05079705 -0.045950104 0.08807515 -0.030971171 -0.03634026 0.057791054 0.05462489 0.052008275 -0.040121365 -0.089439355 -0.10441191 -0.048718523 -0.046433937 -0.061157666 0.13693438 -0.098653495 0.0967259 -0.11715159 0.09255417 0.09159958 -0.10355988 0.11380438 0.09808591 -0.105438635 0.094711654 0.07823439 -0.10034754 -0.037634894 0.13709012 -0.12314451 0.04728135 0.1289052 -0.1274528 0.092265055 0.117257535 0.09644732 0.06508402 -0.0859355 0.015341033
346 0.098784685 -0.13656615 -0.07057112 0.1246809 -0.09887604 -0.10126075 0.07183166 0.1017035 -0.024496872 -0.12974621 0.06129345 0.14372167 0.09115807 -0.03905126 -0.06654433 0.11000577 0.12470174 0.10423947 -0.09637521 0.11940866 -0.0052710883 -0.104006186 -0.08543634 0.07092454 -0.12224737 0.083729304 -0.061790798 -0.089165404 0.09431863 0.10993142 0.07887034 0.09624919 -0.0754989 0.05699394 -0.10446191 0.11039978 0.08905883 0.10808221 -0.10663746 0.09603854 -0.07838931 0.060695928 0.028414652 0.06852703 0.1013805 0.052770328 -0.12634496 0.09012628 0.04714995 -0.09518163 0.008294953 0.0104614645 0.08296078 0.066384286 0.076414846 0.10017159 0.087573774 -0.06437576 0.10950008 -0.037723087 0.024598107 0.10717096 -0.030966023 0.13060114 0.09059841 -0.093654364 -0.06710451 -0.094255485 0.081389986 0.04934162 0.102742024 0.1156018 0.11633954 -0.097475894 0.06942409 -0.073829405 0.06724394 -0.11262635 0.12907396 0.11105848 0.062443994 -0.1443303 -0.044553585 -0.13649803 -0.044747848 0.062333435 0.025569279 0.021420106 0.054411452 -0.035702813 -0.04500561 0.1006872 -0.038794465 -0.04499314 0.04560816 0.04046711 0.061049882 -0.011302619 -0.08250506 -0.0972271 -0.06511575 -0.052975573 -0.058984824 0.11403964 -0.09909669 0.090184115 -0.10666398 0.073674105 0.08974027 -0.09349348 0.10406618 0.08513073 -0.12983412 0.09544426 0.08373735 -0.08121801 -0.058995504 0.13286191 -0.131635 0.046689797 0.11592777 -0.12610795 0.0922433 0.107931465 0.070746176 0.074511744 -0.118108295 -0.008150976
347 0.105388656 -0.12799866 -0.07573344 0.12266881 -0.1010659 -0.088308774 0.07520029 0.10585682 -0.0072705634 -0.12587892 0.06530946 0.1361059 0.08706264 -0.035288453 -0.057716202 0.11199977 0.12844132 0.105168864 -0.09728687 0.12094533 -0.0005537687 -0.10073972 -0.09494185 0.07704666 -0.10427987 0.08219263 -0.056395978 -0.09061979 0.100571394 0.11945623 0.07799011 0.104450405 -0.08049703 0.055028588 -0.10592848 0.13426225 0.09177735 0.11317835 -0.10451871 0.09340799 -0.07592254 0.055686723 0.0170739 0.08149456 0.09488585 0.059067607 -0.10982634 0.1021321 0.050661635 -0.10120638 0.014633347 0.011688221 0.08347412 0.051654156 0.0778623 0.09064281 0.087744705 -0.057924017 0.10599789 -0.028380107 0.028628225 0.108645335 -0.0140750455 0.12025697 0.0935201 -0.082730375 -0.07071267 -0.084543586 0.07161937 0.047459483 0.10316012 0.12461824 0.11261304 -0.091273375 0.08385728 -0.08086409 0.07324319 -0.110555895 0.13972063 0.10376437 0.06335208 -0.14226204 -0.04982039 -0.12920028 -0.04461327 0.060962766 0.022849597 0.023938218 0.043023594 -0.031651516 -0.03695651 0.09899641 -0.040669408 -0.057764612 0.043652292 0.023682617 0.05159101 -0.018279975 -0.08626705 -0.098007545 -0.05251321 -0.04218354 -0.06277052 0.12455958 -0.10033402 0.09673736 -0.10657453 0.0701664 0.10116341 -0.093959145 0.10153466 0.08476324 -0.13571705 0.09603185 0.088854395 -0.08488914 -0.07584307 0.122330904 -0.12789829 0.044892244 0.12057329 -0.12156273 0.087662846 0.12846866 0.068038024 0.080762 -0.109805875 -0.0052228365
340 0.09285372 -0.1243618 -0.066019215 0.110805 -0.096069 -0.090380535 0.07048301 0.1105352 -0.00016164838 -0.10650398 0.03597886 0.14371283 0.08424174 -0.028875237 -0.07786376 0.13101429 0.1509592 0.10745689 -0.09143846 0.1067046 -0.008673422 -0.10807952 -0.08139954 0.07798197 -0.09176244 0.084569745 -0.0557642 -0.09231352 0.110739194 0.12482825 0.11111213 0.11320392 -0.075274155 0.060402203 -0.109556705 0.108809024 0.08470656 0.14641938 -0.10645638 0.098558016 -0.0832193 0.07112315 0.0018756549 0.06750391 0.106117465 0.038964048 -0.10437133 0.09182544 0.028998613 -0.09560103 -0.02477056 0.013785979 0.099966936 0.04149369 0.09659018 0.08827183 0.09335113 -0.058714584 0.095571846 -0.023725038 0.006894178 0.13251793 0.011334915 0.13388066 0.09667611 -0.082648754 -0.08411341 -0.0893969 0.0688986 0.051506486 0.11950729 0.12761654 0.10556443 -0.062041868 0.06357771 -0.08610157 0.05582286 -0.10114897 0.103983015 0.14235418 0.076863855 -0.14801364 -0.039324958 -0.15495132 -0.07077942 0.07214652 0.001024188 0.018866722 0.06027386 -0.05763965 -0.033629045 0.07834777 -0.023536842 -0.041754775 0.043682493 0.044333242 0.05454273 0.0009177823 -0.0761179 -0.099630855 -0.048148807 -0.03034084 -0.04751806 0.09842898 -0.08584184 0.086886816 -0.11798655 0.11213558 0.09637718 -0.10474186 0.10801753 0.073473774 -0.11258892 0.11009586 0.10370548 -0.09084752 -0.08770705 0.110388055 -0.09737256 0.04172916 0.11157885 -0.11746129 0.09421016 0.14995836 0.06527755 0.059427258 -0.12276047 0.0023795841
341 0.10608149 -0.120474935 -0.06838116 0.12130923 -0.11358966 -0.10841613 0.06825603 0.11621201 0.025979001 -0.1292286 0.06707808 0.13285671 0.07438182 -0.036776558 -0.08978458 0.11891579 0.13711028 0.10800313 -0.092332795 0.12086494 -0.009388009 -0.08832679 -0.092822686 0.0818298 -0.1150928 0.06798539 -0.060793784 -0.079560935 0.09286719 0.10435484 0.07951702 0.109609134 -0.07261012 0.06387304 -0.1107142 0.11270742 0.09720236 0.10845015 -0.10140515 0.08982123 -0.07917614 0.056247715 0.017382026 0.07106573 0.09378396 0.067018464 -0.10452573 0.0936008 0.020593775 -0.091570824 0.007545585 0.018217871 0.09544028 0.027384168 0.07371625 0.08771871 0.08789901 -0.05965291 0.102361895 0.0045856233 0.00472553 0.10711995 0.026118996 0.12631781 0.094029136 -0.09644843 -0.068074964 -0.0834346 0.09027282 0.02481016 0.096013114 0.11237367 0.11554448 -0.09145393 0.06699671 -0.07019878 0.07977882 -0.12255709 0.13093615 0.1264626 0.068511605 -0.14366142 -0.06327477 -0.12251234 -0.05508991 0.07644006 -0.01275318 0.031376984 0.04744452 -0.033976898 -0.024651624 0.10455899 -0.040646914 -0.06535548 0.04566822 0.027153615 0.05020667 0.0042752223 -0.08859569 -0.10281948 -0.046703838 -0.04084275 -0.06819326 0.11868718 -0.08777625 0.095470205 -0.1020391 0.09628265 0.11534227 -0.09473416 0.104382694 0.073519774 -0.116107896 0.094155386 0.09624176 -0.081314966 -0.08307559 0.123735085 -0.1256428 0.043339636 0.11331599 -0.11858063 0.08207489 0.12680922 0.0663176 0.0825808 -0.114096485 0.00030546548
342 0.10709364 -0.12850411 -0.07230517 0.12096518 -0.10492001 -0.103837065 0.07350421 0.10934804 -0.010573171 -0.11920594 0.050974622 0.12217882 0.10881435 -0.03362765 -0.07013185 0.12503397 0.11775488 0.089064494 -0.08919508 0.1223672 -0.004538219 -0.08981098 -0.08246962 0.07975839 -0.13048357 0.09847078 -0.057667222 -0.08829541 0.09253964 0.12785406 0.085350506 0.10559724 -0.08302134 0.06590419 -0.09861589 0.13719876 0.08450648 0.110164784 -0.107622266 0.09071961 -0.075901024 0.05672914 0.020164242 0.064631745 0.089537054 0.067849815 -0.10992478 0.089136824 0.049301278 -0.10559795 0.015154735 0.01148673 0.093270406 0.037863817 0.09459899 0.09478644 0.096321 -0.060490705 0.09160315 -0.027102483 0.019960172 0.12353673 -0.03974557 0.12456284 0.08872848 -0.08950263 -0.07236779 -0.10689416 0.08582004 0.047600366 0.10710865 0.11252015 0.13639995 -0.0786374 0.05698867 -0.07318275 0.07694482 -0.09737764 0.1185666 0.11095165 0.06142521 -0.15462676 -0.058901846 -0.123642854 -0.041358486 0.03347636 0.028500536 0.044188384 0.063088045 -0.041255355 -0.044966128 0.08400471 -0.033761874 -0.046032045 0.029886665 0.021096403 0.053427137 -0.025114827 -0.07902355 -0.090425014 -0.05803896 -0.053579733 -0.06809315 0.13329618 -0.097889826 0.09883742 -0.10479948 0.064421855 0.0914657 -0.08824564 0.10445602 0.08869822 -0.113593414 0.10249084 0.08677648 -0.08385767 -0.07331708 0.12372893 -0.11530404 0.047168456 0.13568282 -0.13517706 0.091568224 0.12967612 0.06927914 0.06542972 -0.12924036 -0.009346043
343 0.103517465 -0.13687606 -0.07459652 0.11318632 -0.10116432 -0.09597308 0.0717587 0.10110541 -0.019986454 -0.12070125 0.060117707 0.14901406 0.078145266 -0.04063199 -0.06624258 0.10773436 0.12421051 0.10343274 -0.09969041 0.11952052 -0.006947371 -0.09064223 -0.096008904 0.070772946 -0.12637888 0.08223874 -0.05907404 -0.09322566 0.10323553 0.1265764 0.08887312 0.10245415 -0.07171264 0.05335628 -0.09830446 0.11011366 0.09240154 0.10935506 -0.10407454 0.09833012 -0.08030933 0.058580246 0.021531757 0.07922469 0.09775271 0.052040417 -0.11522758 0.10531057 0.041323103 -0.09689792 0.008662636 0.015075479 0.08450078 0.059200108 0.08214654 0.1029106 0.084523454 -0.057986524 0.10139145 -0.03909968 0.024665352 0.11222332 -0.028288223 0.121031344 0.09244257 -0.09226141 -0.07645597 -0.09974599 0.08507041 0.051492833 0.102556944 0.110127956 0.11427729 -0.10280561 0.05885704 -0.06623034 0.07029533 -0.10706306 0.13353716 0.10810724 0.046364572 -0.141561 -0.04870909 -0.12824565 -0.04748235 0.05492449 0.018699668 0.022278612 0.048579905 -0.03584073 -0.03918 0.09820376 -0.03938158 -0.04471883 0.046219017 0.03436901 0.060413122 -0.008426046 -0.08861217 -0.09240108 -0.06134815 -0.051905707 -0.0631998 0.127202 -0.098816514 0.08657385 -0.108125605 0.07588166 0.08753291 -0.08832627 0.10704473 0.08334809 -0.13402663 0.09143687 0.07995507 -0.08925881 -0.07749341 0.12410948 -0.11248085 0.047323253 0.1322884 -0.12298695 0.09639515 0.12830979 0.068101704 0.076446764 -0.1112499 -1.4849745e-05
810 0.10704632 -0.11898585 -0.06980982 0.119550616 -0.099359825 -0.08726022 0.076501615 0.12094791 -0.0035994267 -0.10222844 0.07957767 0.1275258 0.07476126 -0.03611848 -0.062371753 0.11622275 0.1294132 0.109558396 -0.10139364 0.12058342 -0.011962345 -0.10045257 -0.08593416 0.07285348 -0.12897664 0.073949836 -0.057627648 -0.08410159 0.09023823 0.11346887 0.10667089 0.105166905 -0.07892659 0.05152115 -0.09989054 0.09544666 0.08741733 0.108275354 -0.1198618 0.09391702 -0.08053473 0.056182217 -0.00016228814 0.07226096 0.09020975 0.045736417 -0.1097959 0.090799175 0.03485338 -0.089225285 0.029642357 0.015532128 0.087733835 0.039484028 0.073376164 0.099826336 0.08108756 -0.071021326 0.1078501 -0.031005815 0.028909557 0.11046379 0.014935941 0.11431748 0.08927556 -0.08212812 -0.07043126 -0.0952299 0.06920959 0.06187066 0.10144674 0.1103534 0.12363206 -0.09125881 0.07956287 -0.07046694 0.07759937 -0.106396094 0.12447322 0.108915105 0.08171695 -0.13774827 -0.064281166 -0.12750712 -0.0449035 0.07450744 0.0024763215 0.011309399 0.039635383 -0.04621749 -0.04496244 0.11827467 -0.037057348 -0.056312006 0.055203177 0.050061256 0.05298717 -0.011245996 -0.08409722 -0.09598862 -0.056855634 -0.040723715 -0.07953864 0.12550315 -0.09917571 0.109939344 -0.10915634 0.08744712 0.10267838 -0.09368452 0.103415914 0.10225406 -0.11901598 0.08799313 0.08912549 -0.08499269 -0.06480398 0.12040451 -0.11949605 0.08091552 0.11272105 -0.123374686 0.10316441 0.13530433 0.0817766 0.08201106 -0.10769418 0.010105617
811 0.10100384 -0.121481106 -0.070964135 0.11241014 -0.10279879 -0.09071092 0.07007694 0.104555495 -0.015023997 -0.11108473 0.05782656 0.12865776 0.08612197 -0.041176334 -0.07759102 0.109850116 0.13350019 0.093901895 -0.096943796 0.1283018 -0.009081543 -0.09312336 -0.08898002 0.07945421 -0.106509 0.08533176 -0.07378474 -0.08474155 0.09836377 0.11559586 0.093522735 0.11060431 -0.07994002 0.054625753 -0.094372824 0.11888456 0.0894152 0.11485211 -0.101468794 0.09185131 -0.07761623 0.06640954 0.019166177 0.0686426 0.09488889 0.045161903 -0.097391024 0.089023225 0.018784843 -0.10476968 -0.032000598 0.017886506 0.07994987 0.041567095 0.090896346 0.08818671 0.09165571 -0.07544825 0.10576241 -0.028116673 0.017490614 0.108519115 -0.0048051253 0.14012198 0.0851603 -0.07713207 -0.06894887 -0.09465524 0.06449071 0.04667273 0.116047874 0.13214433 0.11088148 -0.09046097 0.06149238 -0.06936608 0.054047585 -0.12652808 0.121010214 0.1224233 0.07338564 -0.14509729 -0.03179491 -0.12872529 -0.0664456 0.08758846 -0.0011017116 0.016127504 0.056661874 -0.050797682 -0.029145584 0.09823096 -0.016265593 -0.045857463 0.049801387 0.052792147 0.057844292 -0.0072161253 -0.07755624 -0.09660016 -0.05416337 -0.03818028 -0.051698364 0.12178434 -0.08933319 0.09089213 -0.119643725 0.09721535 0.09459804 -0.101869404 0.10693085 0.08620996 -0.12024957 0.093039066 0.08686349 -0.089534074 -0.06514123 0.119541295 -0.114938065 0.047555726 0.12400303 -0.1273984 0.10259447 0.12765422 0.07048017 0.06725867 -0.11293725 0.0072458694
812 0.114889614 -0.12549332 -0.065996386 0.097856954 -0.11981088 -0.09234723 0.10492237 0.12392474 -0.026796626 -0.10454343 0.063782126 0.12328583 0.0784797 -0.049482297 -0.04497136 0.109519154 0.1343075 0.10405196 -0.085708864 0.114826165 -0.0051814276 -0.09639976 -0.071474634 0.10076327 -0.109467454 0.07986654 -0.042452287 -0.06012756 0.118428595 0.10081995 0.10211084 0.12803929 -0.06763 0.04952483 -0.091684505 0.113904774 0.107389875 0.11119561 -0.11084146 0.08471095 -0.07654983 0.054244667 -0.009466294 0.08443606 0.08706084 0.027936645 -0.116060644 0.09448407 0.031259175 -0.08838933 0.012820195 0.0136258695 0.07825914 0.040138435 0.092716925 0.09198233 0.07589328 -0.06897332 0.10005033 -0.028747916 0.04703211 0.110793136 0.040504232 0.12005827 0.0945767 -0.080731325 -0.0850796 -0.10985253 0.07382602 0.07845274 0.100604944 0.11983848 0.121772215 -0.084378496 0.07418038 -0.06535154 0.049160756 -0.10225218 0.108954206 0.11774971 0.061245613 -0.1567748 -0.056595024 -0.13845488 -0.024650391 0.072230734 -0.0018891554 -0.0030369542 0.033147164 -0.051004454 -0.055285197 0.10179109 -0.03220581 -0.023113819 0.059618194 0.054064076 0.05279681 -0.044468 -0.09444206 -0.07860877 -0.044431306 -0.04733672 -0.05461338 0.1419081 -0.10222205 0.09391431 -0.12712406 0.08791071 0.09855712 -0.09389583 0.10623485 0.10380055 -0.10535678 0.09831719 0.08897235 -0.09466564 -0.055107087 0.14066677 -0.124185935 0.04924797 0.12831978 -0.11628871 0.09252876 0.13839659 0.07330871 0.06092849 -0.108142026 0.033025168
813 0.127308 -0.13142496 -0.061725944 0.116506405 -0.09086751 -0.09307499 0.04499196 0.118799366 0.008937212 -0.10736807 0.041630425 0.14802255 0.0665746 -0.041086674 -0.031372536 0.11117666 0.12828697 0.09648925 -0.08747281 0.13241565 0.03209503 -0.09765173 -0.08839198 0.052932747 -0.092810415 0.067624 -0.06592828 -0.06959076 0.10170723 0.103974424 0.09073432 0.08739255 -0.06947553 0.098030284 -0.08809476 0.1145563 0.08742348 0.117455624 -0.10791209 0.10358749 -0.10051395 0.061025236 0.047789846 0.073653795 0.09060084 0.05069485 -0.11078939 0.10006223 0.045837745 -0.09141337 -0.004542537 0.013662467 0.07263479 0.080043994 0.08697876 0.0826861 0.11264336 -0.055856146 0.09979944 -0.059188265 0.025075352 0.099215284 -0.08103672 0.14505073 0.073833756 -0.10909214 -0.07687394 -0.111850545 0.059565365 0.07380897 0.09019587 0.10075488 0.0979585 -0.14675476 0.05091687 -0.020704456 0.056107838 -0.121703945 0.12673269 0.10720897 0.0762126 -0.123879164 -0.009083082 -0.09990379 -0.029156214 0.08342981 0.054542318 0.03254472 0.060038757 -0.032329157 -0.07880052 0.09545175 -0.038344886 -0.04056574 0.052249953 0.06765645 0.09282778 -0.0040061837 -0.07244712 -0.14916356 -0.060349684 -0.06396095 -0.056983847 0.1126492 -0.08190899 0.09182859 -0.13053003 0.08117749 0.0874677 -0.0895525 0.12310422 0.08234399 -0.11535879 0.09127891 0.09015375 -0.08578536 -0.08337845 0.15662494 -0.116989866 0.058944043 0.11805689 -0.11730013 0.11110129 0.10472784 0.058404464 0.07241564 -0.14165688 -0.029893393
348 0.11257166 -0.12331954 -0.06802134 0.12361037 -0.1051353 -0.09975636 0.07177363 0.10274073 -0.015014259 -0.11423598 0.05724026 0.14264886 0.10387041 -0.03363427 -0.057039075 0.111060545 0.11396577 0.101227336 -0.096768305 0.12265115 -0.00601077 -0.09256069 -0.078981824 0.0720668 -0.120109506 0.09598523 -0.05094158 -0.08782066 0.09997801 0.11027462 0.08557775 0.10392784 -0.076070584 0.06362693 -0.096820995 0.12207027 0.083326325 0.10372367 -0.10236464 0.08866137 -0.0731047 0.05378003 0.01826501 0.07067664 0.09049803 0.058165535 -0.11490999 0.10538154 0.046401713 -0.10631428 0.02048206 0.009093842 0.08373514 0.04672656 0.08623932 0.09534325 0.09492728 -0.06362809 0.104399055 -0.028885225 0.02204353 0.10779361 -0.029371591 0.11761548 0.09818305 -0.09389619 -0.07194622 -0.10225116 0.07124558 0.049010552 0.09816704 0.113682576 0.11945546 -0.09644926 0.07655808 -0.081570804 0.07486296 -0.10421856 0.12687851 0.09724896 0.053836092 -0.14842556 -0.05741241 -0.13053368 -0.045559786 0.05072723 0.041747265 0.030523205 0.053469848 -0.036043238 -0.05452528 0.09712841 -0.039499152 -0.048764057 0.04078051 0.031145113 0.05776196 -0.022078145 -0.08827324 -0.096987 -0.05240256 -0.04902708 -0.062246315 0.13256718 -0.10003473 0.09462694 -0.104313925 0.06693993 0.092206106 -0.090049304 0.09387921 0.08487778 -0.11427742 0.09091154 0.08601582 -0.07638338 -0.07697751 0.119766 -0.11171946 0.04468765 0.12524886 -0.120310225 0.09949541 0.12917024 0.07277049 0.0699515 -0.115011916 -0.0012088272
349 0.11062557 -0.12424759 -0.07078334 0.12675679 -0.10680168 -0.09642843 0.07409076 0.104925655 -0.021801775 -0.115878575 0.063689984 0.14163645 0.10420754 -0.02780371 -0.055862356 0.11477628 0.113451056 0.09785641 -0.09917111 0.128286 0.0013382639 -0.10182679 -0.08809125 0.07412902 -0.11275166 0.08696807 -0.051501084 -0.0898503 0.09502593 0.10690257 0.083192155 0.10130381 -0.07519989 0.064322166 -0.09831865 0.11465817 0.08543286 0.10529712 -0.1101456 0.08833226 -0.07264749 0.04695868 0.019971052 0.069178574 0.095995955 0.055646867 -0.112566926 0.112355076 0.0479351 -0.10543328 0.028769044 0.022524875 0.08218324 0.056542765 0.08486265 0.09183115 0.08496425 -0.06439558 0.098508656 -0.030541003 0.023235898 0.10789715 -0.02636004 0.12030733 0.10922498 -0.09097504 -0.073834024 -0.09746627 0.07449516 0.044270243 0.102698006 0.1221687 0.11641097 -0.09314984 0.0854198 -0.08361374 0.07074214 -0.10536938 0.12916924 0.092574105 0.050613202 -0.14920026 -0.06400893 -0.1320982 -0.04365077 0.056974195 0.048012625 0.022629458 0.051478747 -0.030898215 -0.060984552 0.099962965 -0.05009498 -0.05133815 0.04416947 0.034883987 0.0579295 -0.021714292 -0.09523516 -0.098921366 -0.049307138 -0.04525846 -0.063668944 0.12988745 -0.112702265 0.09440497 -0.10436868 0.06449792 0.0918719 -0.093441874 0.09572945 0.08957689 -0.12195852 0.094367534 0.0872967 -0.0780261 -0.08048907 0.12111614 -0.122905366 0.04145221 0.12033789 -0.11644266 0.09227516 0.13223068 0.07366017 0.071174584 -0.11660138 -0.00084050046
816 0.09838014 -0.12047209 -0.07790325 0.1104407 -0.108348586 -0.08799809 0.058225654 0.10629307 -0.047452994 -0.103059225 0.07104345 0.13898203 0.081619255 -0.028709928 -0.07853822 0.10467304 0.12222656 0.10212317 -0.10279111 0.11563005 -0.009295839 -0.09439941 -0.07791235 0.06859782 -0.097843386 0.054699577 -0.0627014 -0.081504285 0.08799041 0.10034588 0.087425694 0.11163516 -0.070085995 0.032729972 -0.091504954 0.115992196 0.09468587 0.11614182 -0.13323173 0.10202127 -0.076442234 0.073197894 0.014892547 0.07402359 0.09944988 0.033048797 -0.10738237 0.10110158 0.017573617 -0.09376054 -0.017158687 0.04924113 0.07362672 0.044579595 0.08308123 0.08455069 0.08661696 -0.0782053 0.11650714 -0.030230429 0.0052487 0.113506116 -0.025764484 0.14611688 0.09760669 -0.08359068 -0.088496484 -0.10186686 0.06409809 0.038026694 0.12115156 0.12224787 0.09226482 -0.087188445 0.059333008 -0.071276374 0.050984893 -0.120395765 0.13291834 0.11576257 0.08146877 -0.13182159 -0.024749184 -0.13388538 -0.053969678 0.08528628 0.032850005 0.031665824 0.046839215 -0.06794482 -0.009864684 0.10663421 -0.034246165 -0.038272765 0.06471782 0.060103536 0.07355861 -0.0012112667 -0.09337018 -0.09116701 -0.04716359 -0.02114331 -0.03489217 0.11544103 -0.089237906 0.08836371 -0.120876364 0.09292075 0.09959571 -0.102273434 0.09954515 0.0985832 -0.13087814 0.100756675 0.09088243 -0.096423864 -0.060248043 0.1421581 -0.113885336 0.030964024 0.11556365 -0.121205494 0.09564347 0.13077031 0.08664419 0.058105387 -0.124928445 0.006158806
817 0.115185075 -0.13286547 -0.06699637 0.10968364 -0.092137225 -0.08628308 0.06514994 0.116727896 -0.004456334 -0.10488227 0.051987056 0.14225976 0.07211454 -0.051188976 -0.051324725 0.11597223 0.1238256 0.099605404 -0.09481331 0.11961399 0.001200502 -0.11000721 -0.080844514 0.061401196 -0.1026541 0.081133865 -0.061620254 -0.077631086 0.10951231 0.119312435 0.07793364 0.09312326 -0.08250001 0.07997464 -0.09980675 0.115488105 0.08661847 0.11071222 -0.1077199 0.094810195 -0.07693429 0.058601215 0.03352227 0.062328547 0.10109922 0.050332543 -0.11300838 0.09613442 0.039559506 -0.10964108 0.0016003293 0.016707227 0.07892667 0.055226494 0.08242541 0.08640784 0.115768395 -0.05518824 0.10334936 -0.035895407 0.026578682 0.10308354 -0.03288805 0.1450972 0.08141214 -0.09713516 -0.09066017 -0.10286865 0.06296683 0.05544963 0.08801589 0.120336376 0.12289498 -0.114661075 0.06359635 -0.04337074 0.055488672 -0.12385237 0.124768764 0.11481501 0.063723326 -0.14435494 -0.011277707 -0.11438905 -0.035552178 0.072599225 0.035077695 0.021789141 0.054741196 -0.03191345 -0.067174576 0.10057985 -0.04260471 -0.026394246 0.054697815 0.06378091 0.06936197 -0.007488545 -0.067232035 -0.11949165 -0.057309005 -0.059889156 -0.056654252 0.11786131 -0.086707965 0.087651186 -0.106484376 0.073990025 0.0915897 -0.08232972 0.09344562 0.086557955 -0.11590951 0.09668939 0.082106866 -0.091911174 -0.060148977 0.13746303 -0.117857344 0.06108754 0.10772986 -0.13612036 0.09628997 0.10968151 0.064237826 0.075080074 -0.12697512 -0.0052610002
737 0.091756016 -0.12699921 -0.061704095 0.10053014 -0.11136553 -0.08118871 0.101558745 0.10741629 -0.032751184 -0.096460335 0.09000158 0.1273656 0.08202103 -0.054736126 -0.054185852 0.12892203 0.11269657 0.101694934 -0.069638334 0.13754453 -0.013746826 -0.103878014 -0.08413274 0.063498445 -0.09106639 0.08302559 -0.0593667 -0.0648375 0.097185604 0.09941737 0.082130924 0.134083 -0.06623066 0.020365737 -0.111003965 0.1267884 0.07435092 0.10598459 -0.12245748 0.11860642 -0.07850213 0.07284238 0.0019525278 0.07646151 0.08935314 0.00328075 -0.11385804 0.09448401 0.04023454 -0.09429953 0.02888516 0.0167553 0.07940368 0.03883409 0.06997284 0.08295305 0.07038742 -0.08396181 0.10269542 -0.008405631 0.028661871 0.10045282 0.045431122 0.13260561 0.08919882 -0.10208022 -0.08848707 -0.07011995 0.06752476 0.05873801 0.10627046 0.11663136 0.11202175 -0.07148404 0.06711441 -0.06750502 0.019760696 -0.09186828 0.09238718 0.11410863 0.093170136 -0.12593769 -0.054913085 -0.13089177 -0.04245388 0.07180789 0.006441047 0.003912562 0.034202322 -0.09090623 -0.067289196 0.1037719 -0.037934646 -0.018222146 0.060014986 0.051485393 0.049004585 -0.016973957 -0.093997605 -0.08744226 -0.04348068 -0.037049104 -0.05356362 0.13807984 -0.08462967 0.1094035 -0.113740884 0.118986495 0.107371636 -0.08465755 0.11439146 0.108305424 -0.10975785 0.08562876 0.07705169 -0.11073939 -0.05337098 0.12594244 -0.12718497 0.033850364 0.13309209 -0.12012462 0.08179815 0.10626904 0.107034415 0.05453098 -0.10983146 0.021472061
719 0.11574735 -0.1328515 -0.066571794 0.10918227 -0.109122165 -0.1083869 0.07904695 0.11233125 0.008121612 -0.12120911 0.06156889 0.1445207 0.090951204 -0.035020556 -0.05652941 0.12443497 0.11660767 0.10304786 -0.102049105 0.1305072 0.011024847 -0.093930885 -0.09482125 0.07568022 -0.11631569 0.075724974 -0.0578776 -0.09411977 0.08245539 0.12838066 0.08510701 0.09911916 -0.07333013 0.0777547 -0.1040925 0.11542134 0.082176395 0.103546984 -0.10549999 0.0936961 -0.072698414 0.050449144 0.030690681 0.06980187 0.089155264 0.057393633 -0.1193186 0.106768556 0.053065713 -0.10417773 0.030218115 0.021002274 0.09746436 0.047774456 0.07672916 0.10848697 0.0934998 -0.056523014 0.10518112 -0.030891703 0.015984103 0.108278334 -0.006044782 0.11514663 0.09119419 -0.072115675 -0.062294886 -0.095228374 0.065596186 0.00039472632 0.11082541 0.13116539 0.1339748 -0.084790595 0.07363318 -0.06753007 0.06416303 -0.08481504 0.12555107 0.10766726 0.06721531 -0.1364317 -0.048861187 -0.12183534 -0.05971631 0.03954248 0.010416486 0.01532855 0.04947021 -0.013549855 -0.04490979 0.10315125 -0.056952395 -0.07010305 0.041281566 0.048338417 0.04827494 -0.009231309 -0.093690775 -0.0980586 -0.033458337 -0.03479232 -0.05953047 0.13036704 -0.10251493 0.10183696 -0.09363576 0.074912444 0.101083994 -0.09171835 0.0906837 0.08432635 -0.12900941 0.09656068 0.083054416 -0.06644459 -0.06827584 0.13432488 -0.11968284 0.04972304 0.11257529 -0.12502566 0.11596385 0.11963178 0.066528514 0.07862013 -0.11729 -0.008978868
718 0.10486376 -0.1294187 -0.06786554 0.114646144 -0.105851255 -0.084389254 0.08901323 0.11104296 -0.028214168 -0.10711102 0.071811356 0.13148144 0.082315296 -0.0612874 -0.046997182 0.11051092 0.12635894 0.09064624 -0.09505523 0.12896498 -0.00015648706 -0.10678109 -0.07887854 0.081759445 -0.11939897 0.09048559 -0.03862093 -0.06067515 0.095345154 0.10039139 0.08489323 0.11205416 -0.061490208 0.046795536 -0.111950815 0.10295457 0.08789905 0.1059315 -0.10994632 0.09570525 -0.07852657 0.074528284 0.0080288015 0.079149865 0.10859997 0.009524756 -0.103638805 0.10568796 0.05456666 -0.103371374 0.026439236 0.018441243 0.08166535 0.046297293 0.07906439 0.10064292 0.07417508 -0.07787004 0.105487965 -0.039846506 0.04351368 0.10905264 0.031019844 0.119925454 0.08648805 -0.08901328 -0.07870391 -0.09692113 0.06701319 0.066792086 0.10480884 0.124606855 0.11388372 -0.08061466 0.07524955 -0.065935135 0.037047137 -0.106211476 0.1279109 0.10362128 0.07692083 -0.14507785 -0.061133716 -0.12774338 -0.012661673 0.08463389 0.0116358865 -0.023302466 0.030405164 -0.055174433 -0.05314922 0.1018522 -0.042499077 -0.019533882 0.07055684 0.047139052 0.04731436 -0.017254882 -0.09799241 -0.07437795 -0.04803861 -0.048768025 -0.048924696 0.1354915 -0.0868318 0.08843154 -0.12148304 0.08342283 0.09681315 -0.07952624 0.099971436 0.10283525 -0.13707745 0.090809144 0.083149716 -0.097170405 -0.056210212 0.1248172 -0.11149839 0.056553937 0.113159806 -0.123040006 0.087629355 0.11737145 0.09790148 0.069799006 -0.12000072 0.029178279
717 0.09125505 -0.12397814 -0.06735587 0.11106724 -0.10932776 -0.086531095 0.077364154 0.118548155 -0.00077643193 -0.10599833 0.07797282 0.12940666 0.08499309 -0.050290193 -0.0685566 0.12169843 0.12868413 0.09353892 -0.08407305 0.1339287 -0.00933786 -0.09782146 -0.08970152 0.07794827 -0.113028534 0.084616065 -0.059480987 -0.07602757 0.09901807 0.10310238 0.10385865 0.11848341 -0.06760475 0.044360016 -0.11264483 0.10768964 0.085953645 0.12364744 -0.11678704 0.110937156 -0.07607674 0.0623964 0.011390941 0.0723144 0.09068538 0.031213209 -0.11633441 0.09574264 0.029395139 -0.09023842 0.026189132 0.020850848 0.091273695 0.03509593 0.087733895 0.08273387 0.06738258 -0.065906905 0.106148936 -0.019837707 0.021901965 0.103830844 0.015691938 0.12234371 0.094626576 -0.085819095 -0.072348766 -0.08043676 0.06684366 0.06379535 0.09979389 0.114301726 0.119678274 -0.07901479 0.08682679 -0.07284433 0.04738116 -0.117147304 0.13356955 0.11283551 0.071047045 -0.13701308 -0.05969395 -0.117553346 -0.044730183 0.07421176 0.0019720432 0.016586164 0.038957704 -0.043543976 -0.047708064 0.111210935 -0.036912028 -0.04557093 0.05927092 0.037102707 0.05139078 -0.009876318 -0.100313574 -0.0922565 -0.043069333 -0.033770647 -0.057842456 0.1173772 -0.09249034 0.12042263 -0.110489726 0.10101634 0.10790815 -0.090474464 0.10576142 0.088285334 -0.12633805 0.10257266 0.084794916 -0.09775576 -0.08012492 0.1137983 -0.12831219 0.043991607 0.111531146 -0.11881556 0.08714129 0.12285751 0.09199709 0.07701351 -0.11147853 0.014451133
716 0.11353187 -0.15135019 -0.05878698 0.121178865 -0.081138685 -0.10767313 0.059229743 0.09920127 -0.021876749 -0.0962522 0.09629895 0.08188745 0.041869678 -0.039029885 -0.097474076 0.083535 0.1062845 0.06117059 -0.11284877 0.16365752 0.033230547 -0.13540487 -0.07844919 0.101722494 -0.123367615 0.09497758 -0.039031815 -0.070158616 0.0752536 0.03135781 0.08055777 0.086924106 -0.06186068 0.01074785 -0.11503444 0.09115158 0.07748005 0.08789206 -0.08632182 0.11257388 -0.10503299 0.11331407 0.026957128 0.094635524 0.109419785 0.019304845 -0.069005676 0.13716726 0.013603216 -0.09631311 0.008731933 0.035974666 0.11959668 0.10595881 0.08317447 0.057845514 0.10887496 -0.10252327 0.09497949 -0.04600359 0.041113406 0.09187854 0.013803297 0.14751323 0.07861984 -0.118025936 -0.06408591 -0.06556208 0.048265476 0.05147548 0.07157354 0.108765624 0.09512577 -0.077199936 0.098288335 -0.075482644 0.03649299 -0.07106567 0.14117983 0.06988382 0.056756984 -0.16209228 -0.038773295 -0.14149837 -0.0013810272 0.07155364 0.0074270577 -0.017713975 0.057325613 -0.050363705 -0.010760225 0.08149095 -0.059625022 -0.0648213 0.044679448 0.056636628 0.03827173 -0.03145583 -0.14487948 -0.09598414 -0.0052478677 -0.06767955 -0.03150304 0.10143881 -0.106814265 0.077588856 -0.13491099 0.058826234 0.06465406 -0.08721805 0.09338802 0.10463069 -0.12758832 0.071590446 0.006309542 -0.070959054 -0.052264582 0.117291205 -0.112467244 0.03914606 0.119465254 -0.13399567 0.06584388 0.13373563 0.09832618 0.063416496 -0.15610631 0.01022674
715 0.09831453 -0.121342346 -0.0703918 0.10708609 -0.10711755 -0.102367476 0.07986871 0.104371965 0.0047112824 -0.103090554 0.06643811 0.13455419 0.06418726 -0.040557258 -0.06726855 0.12139489 0.12525779 0.101389535 -0.09434492 0.117127165 -0.01974524 -0.101044126 -0.09329834 0.080053516 -0.10904671 0.08793338 -0.06594157 -0.07785886 0.09677367 0.09813835 0.084413216 0.10374719 -0.06378792 0.057894003 -0.094122045 0.10564457 0.09780727 0.10044554 -0.10975536 0.094770364 -0.08318573 0.06433339 0.01107571 0.071102634 0.087392904 0.042284586 -0.11104506 0.085734576 0.008733043 -0.084640704 -0.009097091 0.012995665 0.08535935 0.03316737 0.07641579 0.10114851 0.08114669 -0.0816034 0.10691676 -0.03229936 0.029850515 0.1216466 0.024281198 0.12792645 0.083244786 -0.08783009 -0.06426083 -0.100062124 0.08807376 0.07192197 0.113403566 0.12434293 0.10788406 -0.08326035 0.0736681 -0.07297867 0.051995207 -0.122251384 0.11498169 0.12256052 0.068869464 -0.14041272 -0.04461061 -0.11991562 -0.052021965 0.079592146 -0.03231582 0.0066196555 0.0590061 -0.04264061 -0.038716324 0.109885104 -0.0276233 -0.050413728 0.06070766 0.042833872 0.05648612 -0.0049730623 -0.08658908 -0.08979238 -0.06520765 -0.04847847 -0.068988934 0.12041366 -0.093750596 0.10812138 -0.11278093 0.098269515 0.10158198 -0.100118406 0.11423779 0.08418017 -0.11680317 0.08487314 0.09408737 -0.103199676 -0.0658442 0.12945281 -0.12673116 0.0498572 0.12494803 -0.11719173 0.09165717 0.11832382 0.07858046 0.06429629 -0.10735781 0.016544279
714 0.107254036 -0.13419111 -0.07048151 0.106285274 -0.10097057 -0.08782204 0.07164352 0.10168209 0.0064819865 -0.1289277 0.047329456 0.15623166 0.072165824 -0.042905904 -0.059875805 0.10502699 0.13148811 0.09991536 -0.09263779 0.12402811 -0.0012652561 -0.095340915 -0.086652614 0.068954974 -0.114450015 0.08407689 -0.06257056 -0.08531144 0.0908629 0.11341838 0.07900596 0.101692386 -0.07426249 0.06699541 -0.093955025 0.10509018 0.088300616 0.1204979 -0.10784756 0.09389704 -0.08496139 0.06622087 0.020221075 0.071877696 0.0934224 0.046227474 -0.11511142 0.115655236 0.03568504 -0.09458986 -0.00020738717 0.0158731 0.07851738 0.055637315 0.09299079 0.083913304 0.08927489 -0.065184675 0.11219647 -0.03779747 0.02457935 0.10950977 -0.020283235 0.13987148 0.08320824 -0.09880304 -0.088408306 -0.09440326 0.064467244 0.058328826 0.10070235 0.112230234 0.12313566 -0.10726776 0.060976926 -0.053282905 0.05623711 -0.12611727 0.13170007 0.11750889 0.08517726 -0.1395611 -0.025830546 -0.11347679 -0.039277643 0.07463937 0.007840131 0.019777946 0.04850902 -0.04064653 -0.050875816 0.09776908 -0.0382882 -0.04800508 0.044502985 0.0564947 0.065808855 0.0065063587 -0.0793487 -0.10748431 -0.053196337 -0.06029767 -0.05410982 0.12607685 -0.096136466 0.08933776 -0.12128144 0.085003525 0.09141647 -0.08989672 0.10426818 0.08246928 -0.12319861 0.090894796 0.08282669 -0.08512066 -0.06110513 0.12471518 -0.11583504 0.04712235 0.117519245 -0.12570147 0.09107665 0.116098024 0.06961888 0.0703715 -0.1347515 -0.0053285197
713 0.0868646 -0.114439525 -0.07249502 0.10744637 -0.11150698 -0.0728335 0.068528675 0.099941425 0.004351366 -0.10455605 0.059349485 0.14170872 0.06367794 -0.050373875 -0.053782236 0.112515256 0.11922361 0.10878183 -0.0961571 0.11393129 -0.033485364 -0.10041675 -0.09235168 0.0864783 -0.10448761 0.084312506 -0.06921458 -0.07151905 0.1037088 0.10420526 0.07080344 0.103371605 -0.068038665 0.054405596 -0.101445116 0.10492513 0.11810106 0.11081482 -0.117057286 0.09576202 -0.08341003 0.058851156 -0.003975103 0.071727805 0.098895 0.03946408 -0.1091673 0.09105323 -0.0071532573 -0.09915258 -0.0044854837 0.022927297 0.08101373 0.025059897 0.067800194 0.10210662 0.08422455 -0.06965094 0.117672734 -0.033776842 0.034036767 0.11589612 0.035761647 0.12345097 0.086721316 -0.08946476 -0.07201238 -0.1107233 0.07275886 0.07364187 0.11704009 0.123406194 0.112026215 -0.08690488 0.07078671 -0.06118676 0.049027756 -0.10822533 0.1155865 0.13169971 0.06143878 -0.13805927 -0.039432842 -0.120626785 -0.065741815 0.08002432 -0.0317396 0.013086296 0.07910184 -0.029965676 -0.040312387 0.10751507 -0.024101252 -0.042605422 0.06439078 0.041436225 0.04942892 -0.0013935098 -0.07593936 -0.086337104 -0.062853344 -0.050058924 -0.061515447 0.12451071 -0.086467385 0.10691458 -0.12157598 0.084885396 0.09705585 -0.09423851 0.108573146 0.07827158 -0.120014764 0.08361929 0.09887273 -0.10831126 -0.06769614 0.117448956 -0.12440467 0.052109983 0.12086833 -0.11077289 0.0833337 0.11413526 0.062522106 0.080813065 -0.11130954 0.019755129
712 0.10556663 -0.14020295 -0.08268818 0.10385195 -0.06393619 -0.08961787 0.0789507 0.12257399 0.0017663812 -0.14048615 0.079619154 0.11688664 0.05523479 -0.045123667 -0.062118914 0.11621759 0.11471442 0.08573879 -0.096120544 0.13254826 -0.010206303 -0.13299207 -0.08009562 0.06588136 -0.07641598 0.088254064 0.013609282 -0.060177118 0.121004805 0.13763377 0.06661481 0.10300565 -0.05882661 0.040796403 -0.119832546 0.12263594 0.09831113 0.08897455 -0.09512332 0.07989452 -0.07512949 0.04950141 0.019042494 0.072485656 0.08607423 -0.008297675 -0.11430966 0.09692946 0.02100353 -0.09093619 0.035403553 0.0045568747 0.07505096 0.049744323 0.09245769 0.1346318 0.084828235 -0.03621316 0.09475975 -0.026078088 0.019265242 0.12043693 -0.0004511982 0.12357008 0.08001381 -0.07204765 -0.11549879 -0.091103025 0.06712567 0.12436266 0.09990588 0.11772831 0.12500007 -0.09038201 0.021792758 -0.06620711 0.015258308 -0.13674662 0.13541302 0.10797884 0.06559242 -0.16092116 -0.031038702 -0.11776226 -0.01986329 0.10439416 0.013629533 0.023215739 0.04304475 -0.100024976 -0.033039298 0.12228131 -0.02976205 -0.036775656 0.0614138 0.073233426 0.05235864 -0.010808506 -0.10841368 -0.12465708 -0.04791806 -0.05196209 -0.063267566 0.13038264 -0.06809829 0.10695952 -0.11123747 0.058156233 0.12370632 -0.074022494 0.09816521 0.085432634 -0.1604654 0.08785694 0.07896037 -0.091175206 -0.05913593 0.101086885 -0.122728996 0.06405408 0.11067024 -0.12006479 0.11881462 0.116309896 0.066098146 0.06213177 -0.11887432 0.023062134
711 0.03495465 -0.0508309 0.1298456 -0.08752537 -0.08690466 -0.0020888897 -0.0035504405 -0.020150144 0.1369028 -0.07591414 -0.10825315 0.11460195 0.12761144 -0.056280054 0.09777052 0.07774468 -0.002957495 0.0015393017 0.030192656 -0.10475091 -0.013297524 0.120231956 0.070791215 0.09121467 0.11718641 -0.02339122 0.12919088 0.0064035524 0.084948026 -0.09854847 0.12200643 0.11216578 0.11538191 0.022876604 0.01635268 0.06530788 -0.116991356 -0.02344587 0.08336661 -0.051254284 -0.098356955 0.08585793 0.055558085 0.12431635 -0.11292864 0.048093416 0.11604625 -0.103420176 0.08299431 -0.08736938 -0.09563715 0.113932274 0.12579544 0.043397907 0.12341091 0.078539975 0.0972875 -0.051407374 0.096328095 -0.05495016 0.11070092 0.109757945 0.11610168 -0.107883714 0.13062067 0.111297116 0.06891322 -0.020609183 -0.0017793498 0.09837439 -0.010804356 -0.06506602 -0.061931804 0.048013657 -0.114978716 -0.094518445 0.115545794 0.009752202 0.03827585 -0.079244345 0.027525416 0.09174884 -0.05702442 -0.044615053 0.09680243 -0.0050383275 -0.06132218 0.12900902 -0.02546137 -0.13393407 -0.074176535 -0.04185636 0.08793451 0.11403971 0.04718077 0.0787683 -0.12200051 0.086215906 -0.11810211 0.044595808 -0.10394758 -0.13225795 -0.11503448 -0.13306277 -0.13396704 -0.047241773 -0.005503039 0.08116946 -0.12324723 -0.10215082 0.10255829 -0.06823531 0.10924967 0.114372686 -0.062039137 0.102757335 0.068297856 -0.07006207 0.050986618 -0.13589087 -0.11431617 0.07852761 -0.08121215 0.010709986 0.07006924 0.09233013 0.0059407726 0.022590704
710 0.1011948 -0.13307042 -0.06871316 0.11648378 -0.10425095 -0.09140261 0.07889623 0.10580168 0.006600546 -0.10910195 0.06643106 0.13515289 0.053008758 -0.050392 -0.06121112 0.11646645 0.1221674 0.100241534 -0.09701066 0.108267054 -0.016297532 -0.10058627 -0.099704005 0.09112443 -0.11214416 0.086082496 -0.062371448 -0.08088533 0.102059945 0.099970624 0.08026516 0.09880065 -0.0625917 0.057496738 -0.10787684 0.096274525 0.10756678 0.10983336 -0.111555606 0.09306478 -0.07886966 0.06484175 0.0045743906 0.08149957 0.083321124 0.043048147 -0.11386684 0.09449926 0.0013140358 -0.09530934 -0.010300801 0.025346547 0.077614 0.012184373 0.06565498 0.116967835 0.07781551 -0.07231563 0.11897579 -0.03459306 0.029632831 0.11828405 0.02686416 0.12662531 0.07406115 -0.09803568 -0.06776945 -0.10349205 0.0913977 0.06355339 0.116885 0.12426764 0.12065765 -0.079844534 0.06959991 -0.06423804 0.05150497 -0.11169176 0.11815464 0.12248501 0.06538507 -0.13150628 -0.034939617 -0.12854922 -0.061576713 0.079934575 -0.02500541 0.0119054895 0.05821308 -0.046933427 -0.037347347 0.10704616 -0.010275607 -0.028924303 0.059124786 0.037144735 0.053732183 -0.008795008 -0.06796777 -0.093022965 -0.052645233 -0.044423368 -0.06378701 0.12722191 -0.09080568 0.10586859 -0.12430395 0.09811414 0.101735 -0.09536758 0.11097838 0.078008026 -0.11608378 0.09045419 0.10007873 -0.11020573 -0.06284839 0.1292227 -0.13305105 0.04626755 0.12780748 -0.12258587 0.07058878 0.124112725 0.076282084 0.0668716 -0.11950486 0.016825063
421 0.108182095 -0.11980099 -0.06238332 0.114681125 -0.09251863 -0.0824315 0.09595285 0.12061423 0.007499868 -0.10439437 0.065827906 0.13557586 0.06581118 -0.057400573 -0.05888338 0.09763238 0.13333783 0.082194045 -0.095867395 0.12182401 -0.0024415923 -0.110967115 -0.08513423 0.09028985 -0.11981185 0.08799499 -0.063614 -0.090838395 0.100313865 0.10906462 0.06069225 0.09482481 -0.08078652 0.056395844 -0.1138528 0.10087375 0.10776253 0.11587237 -0.12951928 0.11505237 -0.09369125 0.056494802 0.034830824 0.069887325 0.09266033 0.04722005 -0.10512326 0.09727819 0.034156732 -0.09518565 0.0019410138 0.0009218468 0.074580796 0.06358457 0.06963759 0.0947101 0.0796216 -0.074634835 0.104704 -0.04850198 0.04510591 0.12584123 0.006143204 0.13432804 0.10279529 -0.06577045 -0.08118533 -0.113948345 0.06506352 0.081693694 0.10708435 0.123166785 0.09686744 -0.092590585 0.056351826 -0.0896036 0.052815516 -0.10330588 0.12716736 0.09150657 0.050950654 -0.14953244 -0.01087809 -0.120524846 -0.042301845 0.08254937 -0.013300825 0.013993435 0.04451733 -0.035726834 -0.021821184 0.10751839 -0.04208463 -0.05140932 0.0648718 0.0555618 0.039228287 -0.004552481 -0.09695635 -0.10347914 -0.0502281 -0.029777959 -0.0689304 0.12987739 -0.09496194 0.11583626 -0.1167133 0.090192676 0.07734751 -0.09332063 0.10315248 0.10269418 -0.120140955 0.07974883 0.104824595 -0.09784443 -0.06212211 0.104566246 -0.13041286 0.061816867 0.11309049 -0.13194366 0.118518196 0.13623406 0.062032137 0.06573762 -0.09147482 0.043332983
129 0.08480868 -0.10227255 -0.054828417 0.14097959 -0.09137841 -0.089158684 0.06433977 0.10516048 0.0033997002 -0.10597921 0.052981637 0.13407442 0.098125756 -0.04334529 -0.061255142 0.08726067 0.13156267 0.08157454 -0.10525097 0.12516338 -0.008433224 -0.10625686 -0.097762905 0.070429884 -0.101591215 0.08895582 -0.051840577 -0.07352429 0.10284809 0.10923309 0.09247543 0.11970133 -0.064895496 0.050367136 -0.09900776 0.12202186 0.0922023 0.105420165 -0.11409434 0.1265765 -0.0705019 0.058011178 0.02401684 0.06787759 0.10219476 0.04692412 -0.10679042 0.11835102 0.03429226 -0.06922429 0.0023123638 0.02289075 0.059185073 0.057039678 0.0828105 0.09238716 0.09630746 -0.05874957 0.09477094 -0.058608364 0.02503043 0.12935404 -0.018964909 0.10769754 0.06814858 -0.104653105 -0.06861336 -0.13563977 0.07042323 0.07438919 0.09118505 0.10909887 0.13965125 -0.10081969 0.057404056 -0.05983672 0.07066663 -0.1506683 0.13852 0.11600571 0.07838372 -0.12156407 -0.04585328 -0.13543417 -0.055242054 0.079883814 0.0055694203 0.018451232 0.059291333 -0.050922144 -0.0572929 0.08459632 -0.031627394 -0.03680376 0.058187466 0.05736802 0.06665951 -0.0016513475 -0.063926436 -0.08645235 -0.074319825 -0.040442716 -0.06395765 0.13681108 -0.088170275 0.072886534 -0.10934702 0.09700993 0.08361182 -0.081168585 0.12898172 0.079491556 -0.15092443 0.090927534 0.102960564 -0.086968325 -0.05941713 0.120902754 -0.124922216 0.047462083 0.14666876 -0.1587824 0.09671215 0.10721177 0.07530751 0.055262808 -0.118285194 -0.006252046
420 0.08338832 -0.116480805 -0.117755145 0.17239374 -0.12761693 -0.050245 0.059694257 0.14806668 -0.002145326 -0.14949767 0.04678505 0.1744573 0.11978702 -0.04471462 -0.041889645 0.04965974 0.16018547 0.09727858 -0.069583096 0.17368528 0.01533497 -0.11708429 -0.12496259 0.104896545 -0.13514999 0.073727325 -0.11583 -0.0612697 0.031001601 0.08340397 0.12259291 0.11470866 -0.0887113 0.104263864 -0.14246073 0.11435091 0.10464721 0.09203812 -0.08000528 0.122348346 -0.07345307 0.05153285 -0.039336182 0.045204356 0.10998013 0.03894572 -0.1045889 0.05829351 -0.002958331 -0.14681524 0.037706763 -0.05765701 0.1435663 0.08635987 0.0070233773 0.15617427 0.01955746 -0.087214604 0.11546909 -0.08411144 0.056459714 0.08201946 0.0009768901 0.078745686 0.13166016 -0.13588014 -0.063190944 -0.13388845 0.07200453 0.10312972 0.068368696 0.11741766 0.0660065 -0.049417973 0.051989418 -0.04415315 0.042988595 -0.16566908 0.1836356 0.12855619 0.085608296 -0.09459435 -0.07128005 -0.1276943 -0.11082627 0.054541457 0.001275568 0.009630811 -0.025242217 -0.069956146 -0.03525151 0.0474892 -0.001257349 -0.045639753 0.051857743 0.040218472 0.10870946 0.012699981 -0.07590824 -0.12932351 -0.09645668 -0.016921088 -0.037568074 0.13774554 -0.0901186 0.09251753 -0.1704041 0.06837096 0.028020034 -0.12706651 0.13249905 0.041545108 -0.08493979 0.12000693 0.08932601 -0.076095834 -0.10741946 0.11627255 -0.094089046 0.10379675 0.103936955 -0.1082002 0.08115609 0.0944273 0.02643189 0.061243903 -0.07861673 -0.024001906
423 0.10103197 -0.12728631 -0.07021429 0.09359703 -0.10023009 -0.088586666 0.0771234 0.10790157 -0.015446009 -0.10905236 0.055223502 0.13365561 0.07426249 -0.03179102 -0.06452121 0.123872854 0.116700694 0.08763319 -0.097471826 0.11270368 -0.0060394024 -0.083814755 -0.07446518 0.078508936 -0.10967671 0.08133989 -0.053317256 -0.06712614 0.10192956 0.104155 0.09056369 0.11008658 -0.06800374 0.037164696 -0.10067635 0.10632259 0.09055539 0.111221746 -0.10842837 0.087689586 -0.10124313 0.06432325 0.018499684 0.073671244 0.10378285 0.035263233 -0.10932482 0.10347881 0.044684727 -0.11599598 -0.025735335 0.03416362 0.081904076 0.05061041 0.102702305 0.072512284 0.078247525 -0.09518793 0.10600839 -0.031220509 0.013702294 0.11224994 -0.008413828 0.1387338 0.0900672 -0.09857305 -0.071307614 -0.10222639 0.06078586 0.037628993 0.123056054 0.12513363 0.099907294 -0.0956864 0.048903402 -0.07809957 0.05504546 -0.13408448 0.13860817 0.11162131 0.07221642 -0.14289433 -0.033704776 -0.1261707 -0.048946865 0.08268063 0.005090987 0.010840392 0.06697295 -0.051336188 -0.011496441 0.11025906 -0.030685367 -0.055282444 0.060477953 0.06965223 0.053446166 -0.014348184 -0.08519486 -0.090831004 -0.04604521 -0.02609273 -0.043099362 0.1148889 -0.11500811 0.085310705 -0.12618834 0.10093282 0.10390377 -0.09964067 0.10201602 0.09284326 -0.12496337 0.09708488 0.07735408 -0.09010565 -0.055143144 0.12741628 -0.11494798 0.030681558 0.10744319 -0.12765011 0.093924426 0.13982458 0.090478 0.070498414 -0.12984437 -0.023586234
422 0.12752196 -0.11343771 -0.05279496 0.131238 -0.098076575 -0.07487014 0.10126804 0.10284883 -0.0032779768 -0.1204121 0.07611067 0.15189025 0.044284172 -0.06639051 -0.05301366 0.11320236 0.1487522 0.07810109 -0.12173922 0.13658698 -0.08485843 -0.09659312 -0.11923037 0.079065815 -0.12776256 0.07412203 -0.03620655 -0.066930965 0.11547122 0.06881304 0.080500804 0.087995715 -0.08562354 0.044173405 -0.06514738 0.084623285 0.0854068 0.13934265 -0.11702801 0.08398282 -0.06470921 0.10892737 0.010311315 0.07022379 0.08714905 0.056527834 -0.11491495 0.0853434 0.004968783 -0.07789005 -0.007039622 -0.0023631563 0.08890372 0.04085104 0.047899593 0.1259133 0.07896548 -0.072175816 0.13541797 -0.044910673 0.052307945 0.13227215 -0.0013261952 0.14816529 0.122287504 -0.07918453 -0.066772155 -0.09162458 0.066342555 0.10185243 0.11002289 0.10371884 0.10692523 -0.115062036 0.07668199 -0.062352512 0.08670106 -0.110687464 0.15788598 0.09534211 0.08118153 -0.12711403 -0.03548135 -0.12095369 -0.04972356 0.06853096 0.00040984483 0.005435461 0.033104647 -0.05939084 -0.04572121 0.050607353 -0.018829385 -0.0340093 0.044556398 0.051722802 0.039226446 -0.030588735 -0.0867545 -0.09625059 -0.054145247 -0.035373684 -0.09890478 0.14110924 -0.07045363 0.07883562 -0.09208516 0.10715556 0.07596416 -0.082843505 0.11576815 0.07431644 -0.0954531 0.08344548 0.10436991 -0.09479796 -0.051738903 0.15363164 -0.11000614 0.07356404 0.15534705 -0.16381879 0.07386709 0.13554151 0.09827006 0.06787083 -0.04760359 0.020266809
425 0.094469555 -0.14208812 -0.07366405 0.11291993 -0.09809541 -0.08559522 0.07634935 0.12117969 0.013800628 -0.13622482 0.043510627 0.14580493 0.06725944 -0.03899027 -0.051964205 0.12219243 0.12767838 0.11046674 -0.10828394 0.120480426 -0.010098854 -0.09904841 -0.092010714 0.07106529 -0.10602205 0.09410743 -0.052580416 -0.07752063 0.09499648 0.1044291 0.073654115 0.09593804 -0.067250535 0.07265199 -0.10848374 0.12759309 0.08756457 0.11280513 -0.10709715 0.09124411 -0.08234223 0.06716542 0.015962483 0.0763704 0.089880936 0.039852947 -0.12597497 0.11369488 0.024319917 -0.09447543 0.005472478 -0.0073334 0.08012974 0.05861954 0.08221087 0.094077274 0.09099216 -0.03732535 0.10778509 -0.026247831 0.01843446 0.11843785 -0.030502224 0.12656485 0.08320925 -0.09195943 -0.08613321 -0.09695074 0.07041711 0.087183185 0.09904482 0.11361896 0.11327981 -0.10662781 0.058409933 -0.063316084 0.047144994 -0.11047461 0.1441794 0.1330694 0.06345272 -0.13237649 -0.027559534 -0.107483275 -0.024275465 0.07830901 0.01171387 0.03488478 0.023540122 -0.051301524 -0.052782383 0.08849483 -0.06371527 -0.04734198 0.029286642 0.080556504 0.051543944 -0.0024883659 -0.0809524 -0.10163462 -0.057744104 -0.06937898 -0.06558719 0.12616652 -0.075930424 0.088648684 -0.11813784 0.06665986 0.101216175 -0.09428598 0.09355586 0.08499566 -0.13990624 0.10086686 0.086874485 -0.08060885 -0.06688875 0.124346085 -0.11330576 0.05131223 0.121585414 -0.1250729 0.09118003 0.11903917 0.07278031 0.06164812 -0.14724493 0.005153935
619 0.11223939 -0.12948783 -0.0709503 0.10310607 -0.10503231 -0.08856886 0.082068905 0.11044748 -0.025592428 -0.104525164 0.06723643 0.13363257 0.072094254 -0.04477366 -0.05352457 0.1212554 0.13069506 0.0945949 -0.106172435 0.123575956 0.00021895852 -0.0978114 -0.08043861 0.078992434 -0.118745975 0.08534931 -0.042977836 -0.0566346 0.098075904 0.10181168 0.08829223 0.11525488 -0.06276203 0.042143013 -0.1040643 0.104102895 0.08694654 0.10265801 -0.10209243 0.09869753 -0.08530589 0.06353167 0.01133735 0.08059901 0.10504155 0.015112062 -0.10384897 0.10535332 0.044879027 -0.10070062 0.0127440905 0.026021332 0.08004361 0.03983134 0.08174628 0.09458558 0.081900746 -0.07698993 0.10647388 -0.032591995 0.028617134 0.108840175 0.045318395 0.12466257 0.08649633 -0.098266594 -0.07570463 -0.09949321 0.062923804 0.067691356 0.106347755 0.11979073 0.112336606 -0.08854163 0.07494087 -0.07416025 0.03049115 -0.11107359 0.12676461 0.11553103 0.08023632 -0.13604978 -0.06022877 -0.13009882 -0.034205105 0.076884754 -0.0023368972 -0.017496929 0.039059922 -0.052707676 -0.047575846 0.10860795 -0.040359877 -0.03071036 0.074303016 0.046353053 0.052745778 -0.031376533 -0.09612666 -0.07164082 -0.04896281 -0.050018404 -0.052108288 0.114228964 -0.098458454 0.08879699 -0.11946786 0.094101645 0.10737626 -0.088278435 0.0991634 0.099622354 -0.12666456 0.090249665 0.08128453 -0.10348028 -0.060270023 0.122905836 -0.11551605 0.056753907 0.122095704 -0.123950005 0.08775314 0.12361366 0.09888309 0.070504986 -0.11819797 0.021022735
424 0.08882658 -0.15024364 -0.07275564 0.13175347 -0.10509167 -0.073959805 0.092509896 0.13735677 -0.02128316 -0.123095825 0.07182351 0.14612529 0.07020949 -0.03928833 -0.07485769 0.09961885 0.13942136 0.10923879 -0.08464904 0.13431169 -0.011677569 -0.10963396 -0.1127584 0.08164146 -0.108498275 0.077776685 -0.06758433 -0.059727736 0.1223394 0.09247172 0.09329547 0.1182285 -0.06937679 0.045987915 -0.09288923 0.09576939 0.08224479 0.13031827 -0.12022276 0.08954034 -0.06883086 0.06789684 0.021519326 0.07162265 0.0884827 0.044258453 -0.090496175 0.0951275 0.022963205 -0.09769213 0.0028447995 0.01860784 0.088008106 0.037245147 0.06906401 0.1130936 0.09489493 -0.060512885 0.12709202 -0.027300432 0.022285847 0.12735054 0.0047897524 0.12648594 0.09617377 -0.08255052 -0.077838406 -0.090452686 0.0866314 0.06537313 0.115622334 0.1037281 0.10916397 -0.07108631 0.06264022 -0.05295467 0.045649547 -0.115938276 0.13330851 0.13382638 0.08348957 -0.1538341 -0.05359928 -0.08580723 -0.05542642 0.091787405 0.002093062 0.01824287 0.0539228 -0.043899823 -0.03839229 0.098929316 -0.03641358 -0.04183855 0.0652131 0.04547022 0.04051609 -0.020953534 -0.0674536 -0.08627065 -0.057301342 -0.062696554 -0.04666954 0.12974799 -0.111438945 0.08582813 -0.11994584 0.08571889 0.11793642 -0.08618393 0.10820296 0.09640565 -0.10619892 0.10407567 0.06503882 -0.07242783 -0.060813315 0.1390683 -0.105801985 0.056640174 0.09941656 -0.104102194 0.09661351 0.13175362 0.08905166 0.080157466 -0.11325401 -0.00016887844
427 0.09540529 -0.11373587 -0.071188465 0.10320953 -0.11835393 -0.089386344 0.07344468 0.10295406 -0.018166808 -0.10101065 0.063163996 0.14671038 0.080019474 -0.036551863 -0.06642833 0.1228989 0.12472774 0.10654377 -0.099440545 0.12623072 -0.030391898 -0.09024247 -0.09176928 0.07375954 -0.10868906 0.06840778 -0.05130044 -0.08582604 0.093702026 0.09875131 0.090130076 0.12982538 -0.068808496 0.044126738 -0.09186162 0.12193172 0.09791558 0.12352042 -0.11182002 0.10907712 -0.07893823 0.06276617 0.0051051946 0.09087632 0.10731741 0.048544098 -0.10569959 0.102864094 0.021122258 -0.103963844 -0.015517909 0.019581677 0.07760553 0.041277416 0.06609025 0.0807782 0.083190456 -0.0892215 0.12973557 -0.02628001 0.025904529 0.11362015 0.0016949017 0.14094032 0.102838226 -0.07708358 -0.06212638 -0.09966884 0.06748188 0.0464195 0.11285238 0.1378613 0.09634761 -0.09980991 0.06324426 -0.06632831 0.055716135 -0.12791336 0.12106988 0.11905507 0.07869338 -0.14281984 -0.0244099 -0.12265957 -0.041948587 0.07183005 0.005686939 0.014764598 0.040920343 -0.05246626 -0.020351425 0.08666222 -0.032974247 -0.040457465 0.056131892 0.05784728 0.06593572 -0.021909017 -0.07202031 -0.08957735 -0.04754252 -0.027953874 -0.05715929 0.1258185 -0.08463526 0.0909965 -0.12284281 0.08587223 0.12312171 -0.08315215 0.112281606 0.09105573 -0.13214952 0.094228335 0.09215916 -0.08387066 -0.053052418 0.13700694 -0.11528995 0.042873435 0.1250204 -0.1256732 0.100190334 0.12044795 0.08343598 0.070576176 -0.09712089 0.01692494
298 0.10364756 -0.123245604 -0.06485118 0.10448694 -0.10671954 -0.08689116 0.09736551 0.10329023 0.0055491105 -0.11473122 0.06384247 0.13550358 0.06578595 -0.05079417 -0.055288147 0.11108847 0.12866487 0.082882464 -0.099685654 0.116895355 -0.011826906 -0.12316686 -0.08677618 0.09312854 -0.107704766 0.08518341 -0.052352138 -0.07666302 0.09993533 0.10618293 0.07512837 0.106311776 -0.05442625 0.05023534 -0.10837229 0.11333483 0.099085994 0.107297264 -0.11971634 0.10243429 -0.0907817 0.06241341 0.009712721 0.080770954 0.0937971 0.04250884 -0.1075867 0.09518048 0.022097863 -0.09468743 0.0061641186 0.008905986 0.07771686 0.039815906 0.063475326 0.11582467 0.08302393 -0.083818585 0.10088919 -0.040052623 0.03990272 0.11535528 0.02123305 0.12770739 0.0974245 -0.08356139 -0.07364131 -0.11297839 0.08273454 0.0808129 0.10886751 0.12484124 0.12120895 -0.083950594 0.06422711 -0.07738847 0.052786455 -0.10465614 0.11771445 0.12252593 0.05747416 -0.14805296 -0.0442328 -0.116863005 -0.04019229 0.08058096 -0.039333507 0.008715577 0.037246294 -0.04354388 -0.04848231 0.09481036 -0.02597307 -0.041888952 0.066613086 0.045556586 0.0474469 -0.008402246 -0.090983085 -0.082183756 -0.052877698 -0.051725686 -0.064025715 0.11934878 -0.0978152 0.10180187 -0.112531215 0.09030219 0.08386811 -0.08933451 0.0987778 0.083730236 -0.12627336 0.082145 0.103702016 -0.113582045 -0.07181256 0.12534311 -0.12733229 0.05447702 0.11709274 -0.11930067 0.093057565 0.1389881 0.06052317 0.08197994 -0.115199 0.030093113
299 0.103408754 -0.12319635 -0.069875754 0.10445747 -0.115472205 -0.08989441 0.08670215 0.100449614 -0.0013262231 -0.10150558 0.06347327 0.1361552 0.061802622 -0.05780821 -0.057486646 0.12541844 0.116277404 0.09691765 -0.10758686 0.11410782 -0.009680413 -0.09564254 -0.087666765 0.08585922 -0.11072264 0.07483793 -0.056036513 -0.07454841 0.09662902 0.103489965 0.0766849 0.0985904 -0.05413564 0.06500367 -0.1187234 0.09773763 0.085579365 0.10646263 -0.1251704 0.1060779 -0.09701266 0.07348335 0.0148589155 0.08130378 0.08806427 0.038398866 -0.11948608 0.09610648 0.0059562596 -0.109820396 -0.018489618 0.03555114 0.073128216 0.040404018 0.06362221 0.093998566 0.07645028 -0.09061368 0.112480775 -0.040236697 0.030111678 0.112725094 0.011638079 0.1377262 0.08645934 -0.098743156 -0.07236796 -0.108768135 0.07887044 0.054740347 0.122903034 0.11905312 0.1133054 -0.10942923 0.057570316 -0.08145092 0.06019638 -0.11421419 0.12048876 0.12262472 0.054979794 -0.1332222 -0.02042156 -0.116595425 -0.048928294 0.0755809 -0.022811621 0.012785346 0.0443112 -0.036316458 -0.035459206 0.10708044 -0.013988384 -0.0340977 0.060037658 0.02623384 0.053490218 -0.0073166075 -0.076735124 -0.091786385 -0.052094575 -0.027043214 -0.055956308 0.12032255 -0.101578005 0.108962454 -0.13174719 0.09706234 0.08519793 -0.09978894 0.10793393 0.06677562 -0.13642544 0.08731363 0.092020504 -0.108849496 -0.072495714 0.13165279 -0.13944939 0.043851543 0.13215265 -0.13055061 0.085011736 0.12072959 0.062480252 0.067516506 -0.115565196 0.03170135
296 0.12098752 -0.12042559 -0.06550021 0.12863055 -0.10428615 -0.11301697 0.06823482 0.10825588 0.002031418 -0.11533139 0.063086644 0.13265178 0.09586736 -0.039696027 -0.055747535 0.14231175 0.1428328 0.09967103 -0.09444006 0.13238646 -0.0069552534 -0.086721815 -0.09463953 0.071135364 -0.12462834 0.066167735 -0.05815396 -0.09542348 0.08774757 0.12875842 0.08461276 0.10007545 -0.075673595 0.057639677 -0.109249115 0.097638056 0.09238206 0.124110796 -0.092956 0.09840375 -0.07691856 0.05468554 0.026729122 0.06103163 0.09553298 0.044268683 -0.106463574 0.09557125 0.04771512 -0.097348385 0.018568333 0.022655405 0.103544846 0.04817499 0.060965594 0.10625667 0.08757304 -0.058476515 0.11400855 -0.030105077 0.023346802 0.10831811 0.0016635815 0.12175311 0.087183006 -0.078131475 -0.064528 -0.105918534 0.073719986 0.04420843 0.10892992 0.12506218 0.1311781 -0.092135 0.07318738 -0.055582985 0.0681936 -0.1015888 0.12774055 0.10445674 0.06530144 -0.13442048 -0.04539025 -0.11778439 -0.061218977 0.061643925 0.0065979226 0.01987435 0.05733833 -0.0329839 -0.053182796 0.08942704 -0.042806838 -0.04354384 0.04557922 0.046976276 0.068971 -0.018774584 -0.08939661 -0.0981799 -0.046868403 -0.042013623 -0.07076971 0.12713833 -0.10218791 0.11056216 -0.1081511 0.07476752 0.1064878 -0.07889825 0.10358846 0.08757593 -0.13155043 0.089904346 0.09747886 -0.0843111 -0.06399367 0.11923942 -0.123638116 0.055025846 0.10872119 -0.13668683 0.1099322 0.101317815 0.06616637 0.077864915 -0.110249564 0.002512798
297 0.11815301 -0.13361314 -0.06632259 0.113184065 -0.103098445 -0.07995539 0.067316204 0.09550033 0.026606793 -0.106870666 0.053967983 0.14464684 0.0840903 -0.038552053 -0.088522516 0.12630141 0.13605325 0.10573729 -0.09204697 0.1425799 -0.00908647 -0.07984712 -0.08717798 0.08503862 -0.11455765 0.073527046 -0.0588983 -0.09007418 0.09806452 0.10218299 0.07554879 0.12720615 -0.06654421 0.064020514 -0.1021888 0.11831446 0.11290506 0.106512606 -0.1034287 0.09354721 -0.10510128 0.062544286 0.017446147 0.07066686 0.087895915 0.073572375 -0.10397285 0.0928317 0.01903881 -0.089122534 0.0030378925 0.02107752 0.09178848 0.033620458 0.072192356 0.0865212 0.084993556 -0.068943225 0.09964653 0.004788902 0.004576976 0.12122067 0.02695188 0.1353613 0.095827125 -0.10432112 -0.063366935 -0.0797847 0.088218465 0.044016298 0.10410624 0.11655705 0.11270176 -0.093244985 0.059050888 -0.070051074 0.08839599 -0.111181445 0.14586978 0.118513405 0.057900198 -0.14672585 -0.05657645 -0.1307347 -0.040903363 0.07464707 -0.01910886 0.01325015 0.04265774 -0.036296457 -0.017108234 0.093138486 -0.032158364 -0.06741605 0.039514985 0.012351207 0.049723975 0.006004898 -0.089299895 -0.11109191 -0.046733614 -0.04332303 -0.06172388 0.12048106 -0.092417754 0.09047684 -0.10968975 0.10262993 0.11867542 -0.087819435 0.09830075 0.0787374 -0.11539033 0.0868526 0.09041598 -0.0913181 -0.09393583 0.11767892 -0.10659164 0.03835862 0.123051755 -0.115503475 0.08298406 0.12203141 0.06468429 0.06843314 -0.11902056 0.009182102
294 0.10057562 -0.13105103 -0.06294931 0.11686916 -0.0976275 -0.09758819 0.07601878 0.11148739 -0.010700987 -0.12878425 0.05220726 0.13941859 0.082854375 -0.042592295 -0.06491322 0.10898374 0.12844944 0.10739229 -0.09349717 0.122425355 -0.0028080086 -0.09231173 -0.07936153 0.070800714 -0.10901531 0.10102017 -0.058747504 -0.088580534 0.09961507 0.108654186 0.07522851 0.09833302 -0.07993774 0.063768655 -0.106773496 0.11070219 0.08258743 0.11004961 -0.11937785 0.094684154 -0.07818631 0.066230126 0.037829664 0.07315006 0.094895095 0.05188356 -0.12193265 0.1037561 0.042996097 -0.098605745 0.024949037 0.009683468 0.07854117 0.07045439 0.073269665 0.09271898 0.08363451 -0.050719965 0.10462999 -0.03808631 0.03106668 0.11157197 -0.03455275 0.13198526 0.08233488 -0.106938496 -0.0708998 -0.09616582 0.06883464 0.062929556 0.099343166 0.11852236 0.12473696 -0.10070599 0.063451424 -0.06487632 0.065595955 -0.11068788 0.1235195 0.109503575 0.06621305 -0.14746536 -0.037100453 -0.121863104 -0.030774593 0.061499823 0.017221788 0.025615776 0.043713067 -0.039321285 -0.053967807 0.09962514 -0.04514339 -0.04374422 0.044546653 0.04484756 0.044115048 -0.017097494 -0.08583422 -0.09867136 -0.045179486 -0.059882324 -0.061067384 0.11362022 -0.09260324 0.086968735 -0.10703235 0.0724685 0.09136421 -0.08964419 0.10031633 0.09639433 -0.12761156 0.09962 0.081331454 -0.08521109 -0.060143884 0.13524006 -0.117103234 0.052950155 0.13570422 -0.1419028 0.09250421 0.11246804 0.07037934 0.07468473 -0.13103607 -0.008247803
295 0.09743524 -0.10863615 -0.05949784 0.12544648 -0.1296843 -0.09365903 0.06026016 0.1316129 0.017440068 -0.11266581 0.06913247 0.118939996 0.0892936 -0.04293886 -0.075171754 0.12182575 0.15249081 0.09848802 -0.07677062 0.12570752 -0.005218119 -0.08658053 -0.10483948 0.06995317 -0.12610735 0.08784871 -0.07554243 -0.07536003 0.098016776 0.11201051 0.09968322 0.11563934 -0.08658006 0.08144695 -0.11682037 0.098931685 0.07027173 0.13466917 -0.11294449 0.0892739 -0.076516025 0.026756754 0.018601775 0.062183313 0.0969503 0.056327343 -0.12124557 0.0844215 0.03140961 -0.08292526 0.015873369 0.019565513 0.10601149 0.034395806 0.09359728 0.081220604 0.07927094 -0.027909327 0.12671499 -0.019093983 0.013446135 0.10031954 0.010543771 0.12496661 0.09101046 -0.07175473 -0.07469113 -0.08621907 0.07360893 0.025523186 0.08475685 0.10615661 0.12607794 -0.09555108 0.061502863 -0.085168734 0.07128567 -0.11242426 0.14194795 0.10807163 0.054325934 -0.15746313 -0.050973825 -0.110672124 -0.067565836 0.07233054 0.024286568 0.01979096 0.04167961 -0.002733323 -0.04643598 0.11769151 -0.029414417 -0.072901025 0.05256405 0.04900672 0.055919062 -0.011400983 -0.07239168 -0.1250996 -0.037037767 -0.035655335 -0.05653284 0.11193879 -0.09327786 0.12330651 -0.098439015 0.09472189 0.10968405 -0.10422197 0.09364591 0.09262651 -0.14384794 0.11040752 0.09249227 -0.08551279 -0.07824098 0.11370264 -0.118775874 0.044045925 0.09109301 -0.11103558 0.08670474 0.12981223 0.07508733 0.101513 -0.11447818 -0.0016401086
292 0.10893612 -0.124807306 -0.067153335 0.12019602 -0.10409314 -0.08818733 0.06420609 0.10918553 0.00069543504 -0.116706766 0.0625364 0.13420904 0.07525435 -0.04290751 -0.07122965 0.109539464 0.1232529 0.104281016 -0.09490805 0.11062546 0.0051057646 -0.08795517 -0.09426994 0.07084426 -0.106446214 0.088733554 -0.06113571 -0.094819576 0.097825855 0.11589032 0.07377833 0.09373656 -0.08471691 0.07479922 -0.11205959 0.11053134 0.08929216 0.10961964 -0.123460785 0.091317624 -0.076870285 0.056338754 0.033255804 0.06601057 0.10282451 0.05819569 -0.11994541 0.095196776 0.03573418 -0.1126932 0.0073383613 0.022260545 0.07902543 0.07141207 0.092068374 0.0885509 0.10152234 -0.05191158 0.10789489 -0.03431481 0.024846852 0.112526305 -0.015795251 0.13235709 0.08933686 -0.08833784 -0.08570335 -0.096258365 0.07156137 0.044085965 0.09932342 0.1070956 0.103879094 -0.094709836 0.058056056 -0.07138264 0.063790806 -0.12688415 0.14142248 0.1155896 0.065118045 -0.1524058 -0.034625955 -0.110085726 -0.044250503 0.06969509 0.022718439 0.025736524 0.05305663 -0.032050762 -0.030918226 0.09765838 -0.047529254 -0.041630235 0.04268023 0.05185864 0.06935121 -0.0067955744 -0.08754992 -0.093886666 -0.05042705 -0.053920027 -0.054108903 0.13668865 -0.09166125 0.08289967 -0.106002904 0.086477734 0.09476205 -0.08708437 0.098643534 0.092747115 -0.14148308 0.09723185 0.08433904 -0.086959705 -0.062162604 0.12339586 -0.12212953 0.04318845 0.12646613 -0.13345699 0.08974539 0.12169156 0.065031074 0.083257355 -0.11261221 0.0015150297
293 0.09920602 -0.12620045 -0.06923243 0.12534876 -0.10238586 -0.087884694 0.084776394 0.10453889 0.027683517 -0.1111222 0.062325697 0.13923125 0.05325363 -0.06056594 -0.05824571 0.10413249 0.1251419 0.058267012 -0.11700671 0.12551035 0.004307787 -0.1022651 -0.092734 0.07333586 -0.11865071 0.10265934 -0.075412035 -0.086140275 0.08518333 0.1047092 0.03389063 0.07248536 -0.07252103 0.049313556 -0.12651053 0.11602532 0.09165187 0.116729535 -0.122864366 0.097482 -0.0876022 0.06298164 0.03156331 0.07781203 0.09781708 0.049056433 -0.11331231 0.09656251 0.026940102 -0.10140295 0.016305454 -0.008435581 0.081625335 0.07131095 0.04595768 0.1168338 0.085292324 -0.09800547 0.10801253 -0.054637104 0.050006807 0.1081735 0.018487522 0.1355562 0.09929496 -0.074216425 -0.07574842 -0.11520888 0.06334906 0.08502721 0.10845336 0.107416116 0.117555946 -0.083370924 0.06555145 -0.08486459 0.053973783 -0.12225207 0.12009227 0.12158177 0.03408538 -0.1362301 -0.026196161 -0.124170154 -0.047032803 0.08785399 -0.033270676 0.008626631 0.042882618 -0.02739664 -0.019004641 0.09891151 -0.03375976 -0.04951371 0.06031346 0.05118067 0.023479925 0.017936848 -0.08788497 -0.10693922 -0.070735686 -0.02963081 -0.07107448 0.12096789 -0.08568742 0.09612928 -0.124729805 0.093028575 0.051301774 -0.09320016 0.11105187 0.07416472 -0.12557326 0.076987505 0.10009792 -0.10970516 -0.060166568 0.09950619 -0.11433733 0.060354646 0.1164967 -0.12924995 0.11220919 0.12138519 0.043072578 0.07354795 -0.10676843 0.046369758
290 0.094577044 -0.11391553 -0.08621622 0.1045458 -0.11082223 -0.12274907 0.0815978 0.12107463 -0.003212081 -0.13607071 0.04322712 0.12004825 0.109747216 -0.04403846 -0.061174527 0.115323775 0.12067996 0.09283175 -0.0918989 0.123022825 -0.0022811824 -0.08067994 -0.08008132 0.07075997 -0.10723814 0.08809228 -0.06523868 -0.09044745 0.11416928 0.104231216 0.07551916 0.10319579 -0.08663468 0.07138799 -0.104868054 0.089642435 0.085961364 0.13345607 -0.11088591 0.10094114 -0.076486126 0.08534196 0.014505854 0.070052095 0.10023882 0.038775064 -0.10928214 0.08582043 0.0208301 -0.10022955 0.0005007593 0.008113834 0.08027971 0.04564802 0.059520263 0.0870638 0.07703823 -0.05684611 0.12211128 -0.02536504 0.02202416 0.118273586 -0.006091771 0.13004118 0.07403064 -0.1068083 -0.0753561 -0.090583764 0.06560564 0.050904945 0.12211336 0.1266606 0.12168905 -0.09463138 0.07396428 -0.061429027 0.051245775 -0.10847712 0.13130786 0.12597544 0.06327692 -0.13306324 -0.024127334 -0.10907905 -0.037887253 0.06538209 0.017901374 0.02026085 0.061144445 -0.038302243 -0.04728733 0.094068244 -0.03312689 -0.043014232 0.04625753 0.06377521 0.07627851 -0.0043273466 -0.07704834 -0.120086715 -0.035089638 -0.040566906 -0.055802755 0.11868809 -0.09017292 0.075732954 -0.10598224 0.07570313 0.11704629 -0.0899497 0.11888094 0.08825036 -0.1385084 0.12071522 0.07782495 -0.08953059 -0.059751432 0.14342257 -0.12165195 0.033408985 0.14127532 -0.12171155 0.08235088 0.13079788 0.07380762 0.08668418 -0.11915513 -0.011947089
291 0.101608016 -0.13040966 -0.06829325 0.11744128 -0.101519056 -0.10081856 0.05625664 0.11718779 -0.0036267494 -0.1283379 0.05885007 0.1426562 0.08419416 -0.041159313 -0.06243942 0.107021466 0.12782316 0.11120915 -0.09363747 0.121792026 -0.0024124032 -0.09089146 -0.088145874 0.06947461 -0.11562603 0.09650902 -0.0672949 -0.08089906 0.0905568 0.11403914 0.07781428 0.099952795 -0.081993654 0.060152307 -0.1042177 0.11277093 0.08370982 0.11955617 -0.116186365 0.09567136 -0.0820009 0.060703248 0.028101396 0.06541409 0.10828609 0.05182579 -0.1151971 0.09105628 0.03820866 -0.09771197 0.0023595232 0.012163927 0.083826296 0.07621465 0.06930884 0.085693404 0.09642254 -0.060308408 0.1011193 -0.034516655 0.023351436 0.10202127 -0.025378922 0.124444984 0.08886148 -0.11316375 -0.075812116 -0.1024438 0.064276606 0.055137407 0.09757997 0.12117602 0.124769494 -0.11261939 0.06339896 -0.06808417 0.05924185 -0.10528435 0.12830366 0.11064912 0.06283424 -0.13357678 -0.03686509 -0.11807867 -0.038733013 0.065939896 0.026259594 0.03948148 0.045712102 -0.039884906 -0.033754893 0.098872565 -0.03909344 -0.04301057 0.045866225 0.055581048 0.062348243 -0.007136858 -0.085413046 -0.10440423 -0.058949728 -0.060315046 -0.059382968 0.11666273 -0.09724708 0.0830745 -0.11373391 0.07438051 0.08579423 -0.092529 0.10561359 0.08551656 -0.13326749 0.10190495 0.08074731 -0.08017136 -0.054545216 0.1372703 -0.12662189 0.043769617 0.11945559 -0.12793851 0.093222484 0.11020866 0.06679173 0.06708837 -0.1377758 -0.026198624
591 0.096146666 -0.12077595 -0.083207555 0.10727365 -0.111056186 -0.083229266 0.079158664 0.107637756 -0.0050470764 -0.10919546 0.055767782 0.13393694 0.087280795 -0.042312264 -0.06408012 0.10952242 0.12657315 0.106983535 -0.09151505 0.1234319 -0.023364764 -0.09460958 -0.07823606 0.076279074 -0.12344637 0.10040752 -0.060249396 -0.07556988 0.09712632 0.11296249 0.09050589 0.121639304 -0.07961034 0.046164133 -0.08354269 0.105543 0.08148999 0.119103104 -0.102621466 0.09707384 -0.07662564 0.06347457 0.007914813 0.06838667 0.09239128 0.03155326 -0.11625504 0.10792191 0.019991027 -0.10682038 -0.0009444768 0.012735 0.08954666 0.03584251 0.070456155 0.09084588 0.09231858 -0.08158481 0.12013803 -0.02964634 0.027167464 0.11031409 0.017199216 0.13222621 0.07821773 -0.07662337 -0.07207139 -0.107692845 0.06379665 0.06566519 0.1074223 0.121065006 0.10819339 -0.08893294 0.057584066 -0.077183425 0.055105206 -0.09881895 0.117767066 0.120245785 0.06629516 -0.15242551 -0.045245264 -0.1258556 -0.03875364 0.07675339 -0.0026130213 0.009753564 0.049303975 -0.042979553 -0.035648305 0.09802226 -0.022929382 -0.036234945 0.056476686 0.047664143 0.054798413 -0.007713975 -0.08934759 -0.08562003 -0.04793358 -0.04061004 -0.0575875 0.12579039 -0.097426094 0.093221284 -0.11719394 0.10740937 0.09267016 -0.08587863 0.1025716 0.09691908 -0.12279001 0.09828131 0.0815419 -0.09967593 -0.057838917 0.12768371 -0.11394632 0.04157016 0.13151237 -0.1314854 0.10308998 0.119199276 0.07797383 0.073420756 -0.11473795 0.01631499
590 0.09966977 -0.11873696 -0.08207091 0.105981864 -0.110881254 -0.08645208 0.06747489 0.102543056 -0.029339984 -0.10636526 0.061617363 0.13414674 0.08058261 -0.038632132 -0.0786683 0.112115405 0.12408935 0.10079268 -0.11100217 0.11993144 -0.00761116 -0.090508446 -0.08317744 0.07243075 -0.10445006 0.057829622 -0.06035735 -0.08075447 0.09578718 0.10186391 0.091188684 0.10398136 -0.068789445 0.04810946 -0.10684531 0.10197006 0.09362072 0.104242444 -0.11719362 0.10268558 -0.09922489 0.08541454 0.011211134 0.07614613 0.09409483 0.04976166 -0.106288515 0.096237846 0.024621073 -0.10098826 -0.032564934 0.03949553 0.06509651 0.049467843 0.09113512 0.08823626 0.064676814 -0.08667162 0.11711183 -0.032981113 0.023612494 0.1080739 -0.013018754 0.14811035 0.09890235 -0.095693424 -0.07220091 -0.10074839 0.069171414 0.04006767 0.11518687 0.11428039 0.081222706 -0.104582705 0.038820636 -0.07346354 0.058906503 -0.13571738 0.12863983 0.11530653 0.06665897 -0.13592304 0.0030737096 -0.12549125 -0.047877107 0.07880363 0.0053007677 0.013800634 0.04344797 -0.06008693 -0.007489618 0.108648114 -0.029971778 -0.035387803 0.05796787 0.045808747 0.06832511 -0.008100637 -0.08078383 -0.093549356 -0.053433217 -0.022357807 -0.017366515 0.12965472 -0.10718696 0.099867314 -0.13380101 0.10899842 0.093742564 -0.10230505 0.100368924 0.09023533 -0.14068152 0.09394993 0.08863783 -0.09580026 -0.05870214 0.1333013 -0.13132295 0.028876191 0.116314694 -0.12040697 0.08939127 0.11721417 0.07336612 0.06080719 -0.121242955 0.022492277
593 0.100435525 -0.1460821 -0.060605764 0.14374362 -0.10224697 -0.13142253 0.061176583 0.0962378 0.0034987922 -0.10699403 0.002859885 0.13270713 0.082995296 -0.02599723 -0.04163131 0.10460177 0.145282 0.07576322 -0.11688751 0.09597563 -0.007523154 -0.1014472 -0.07123144 0.064494014 -0.1434736 0.09118431 -0.085377894 -0.127346 0.12593202 0.1499983 0.061617155 0.09992113 -0.071239 0.10402509 -0.096161224 0.10642249 0.07985373 0.1474964 -0.13005766 0.087209836 -0.09285902 0.076778464 -0.013630461 0.0738464 0.11647258 0.11475102 -0.11594971 0.08365677 0.010852657 -0.10518571 -0.00021449616 0.0022719237 0.10870907 0.063990034 0.082465366 0.0824391 0.09945988 -0.024269111 0.09842506 -0.036724042 0.017749136 0.11157278 -0.03693867 0.1387305 0.09476851 -0.08626731 -0.099399395 -0.08223117 0.045829177 0.0476006 0.1044074 0.10109445 0.11724423 -0.07400712 0.039363753 -0.08234082 0.053452805 -0.09140999 0.13447003 0.101218276 0.027609935 -0.12750319 -0.041157212 -0.11954276 -0.049765456 0.03259754 0.024574913 0.009838371 0.07305826 -0.031459473 -0.05899366 0.1055534 -0.02367503 -0.041274298 0.009041738 0.034466226 0.058384288 -0.009674715 -0.12356736 -0.10406322 -0.04334318 -0.040065393 -0.04208525 0.14069706 -0.10340117 0.07460771 -0.12711658 0.09934328 0.09417549 -0.094566904 0.10773556 0.093606085 -0.115444325 0.076061085 0.09396625 -0.05444414 -0.07379426 0.11698882 -0.1471922 0.026177619 0.103388324 -0.12714648 0.08620577 0.13046394 0.025514554 0.07418379 -0.120290644 0.006262473
592 0.09483395 -0.116387434 -0.068668164 0.115571976 -0.10247659 -0.10045528 0.07677357 0.114264175 -0.036062256 -0.10417776 0.04597647 0.13460049 0.06551703 -0.048645668 -0.070974216 0.12217881 0.12193194 0.0961974 -0.08433236 0.1192329 0.015894257 -0.10470908 -0.091468275 0.076697834 -0.13021562 0.086602144 -0.06085052 -0.08928275 0.1010224 0.10650202 0.09006545 0.09881136 -0.07668293 0.070948415 -0.07488917 0.10203306 0.09358865 0.108881384 -0.11837308 0.094106875 -0.071536265 0.05785146 0.0010560072 0.09109328 0.08389478 0.032400176 -0.08680499 0.097782925 0.03433425 -0.09462294 0.009221759 0.022161571 0.06593338 0.04802131 0.08260112 0.098375276 0.09626119 -0.067856014 0.10241947 -0.038523667 0.030482868 0.114925906 0.0032629753 0.11806467 0.101185344 -0.07439159 -0.07050587 -0.093322724 0.07957186 0.059224237 0.11492736 0.11178409 0.11610557 -0.08188333 0.07749438 -0.06132899 0.085982405 -0.10682765 0.10891857 0.10950506 0.062550865 -0.14607862 -0.041662525 -0.13509077 -0.04947352 0.06600122 0.012378506 0.0070727877 0.057794195 -0.03876455 -0.040592827 0.09990134 -0.03800822 -0.04518206 0.06473033 0.057519466 0.038147215 -0.026434442 -0.098896 -0.11415075 -0.04683027 -0.047843453 -0.052969027 0.147449 -0.10487214 0.09927545 -0.12875478 0.09532603 0.099879056 -0.11851813 0.10591032 0.10614139 -0.10647869 0.10290737 0.07399581 -0.09409836 -0.032946955 0.13448079 -0.13642 0.049093094 0.12612244 -0.12630072 0.09710972 0.11782723 0.09970938 0.06675086 -0.09603121 0.0141038215
595 0.09044326 -0.12874125 -0.06806317 0.103850156 -0.10939193 -0.09663494 0.074144326 0.10256137 0.005703339 -0.12704529 0.06529209 0.12793985 0.07336277 -0.031163074 -0.05245472 0.11930302 0.12247687 0.11193392 -0.119613715 0.102593005 0.02113348 -0.08837309 -0.09486982 0.074061185 -0.11487179 0.08810104 -0.049411383 -0.08689197 0.081819385 0.10668443 0.068631396 0.09527435 -0.07725268 0.06107064 -0.10003335 0.11994699 0.08441877 0.096153066 -0.1133793 0.08910541 -0.07506061 0.063463815 0.037924625 0.08091655 0.08491103 0.088968016 -0.111156575 0.11810929 0.042632274 -0.11020186 0.0047550965 0.009340359 0.08686749 0.037146058 0.0718253 0.0831039 0.07782642 -0.056579996 0.09700305 -0.036468007 0.026598979 0.10685161 -0.02248638 0.11765151 0.08693164 -0.073166475 -0.07736454 -0.08416834 0.06868806 0.026759977 0.10201652 0.12418508 0.1102782 -0.073094495 0.07078393 -0.06594524 0.07543951 -0.09068905 0.12477474 0.09964279 0.054511786 -0.14525987 -0.05399816 -0.12782395 -0.054547578 0.030908462 -0.0010998481 0.016746493 0.05361953 -0.0073730075 -0.044674397 0.091675036 -0.03202234 -0.05672724 0.04694987 0.04310103 0.040342107 -0.002747027 -0.09962812 -0.09611838 -0.036022943 -0.0497647 -0.061925832 0.110121384 -0.089107685 0.10027995 -0.09254609 0.06815942 0.11086714 -0.1109449 0.09646711 0.07705937 -0.113755986 0.111951515 0.084417835 -0.083312556 -0.06487386 0.123595536 -0.1233271 0.051840678 0.11836437 -0.116596855 0.11045251 0.10887257 0.06612426 0.056517456 -0.11127868 -0.004341571
594 0.111115396 -0.12705457 -0.069774225 0.104851075 -0.09531663 -0.091956474 0.08274072 0.10558123 0.0047575706 -0.106268525 0.059879396 0.13559963 0.0826067 -0.042979736 -0.061047163 0.114896335 0.13278766 0.1089143 -0.10119691 0.13228963 -0.019193253 -0.09649465 -0.09393472 0.06800505 -0.10572607 0.07972623 -0.06572735 -0.08201958 0.09874041 0.101124056 0.09594038 0.102824666 -0.06828459 0.046833143 -0.08972713 0.10954402 0.09072057 0.110672705 -0.10551048 0.09959758 -0.07955502 0.06663297 0.014881077 0.085232414 0.08869708 0.04011741 -0.10696028 0.09239714 0.022461923 -0.09537697 -0.0039681178 -0.0017679055 0.07821069 0.03795696 0.08951799 0.09403049 0.089123815 -0.07752989 0.10588965 -0.029799506 0.024781568 0.1139732 0.014519575 0.123230144 0.079651766 -0.076565616 -0.063214645 -0.09982205 0.0589712 0.06300969 0.099996984 0.11652707 0.11521928 -0.08398762 0.063863926 -0.07070844 0.06343465 -0.121959694 0.12958615 0.12439474 0.077935755 -0.13911593 -0.042743877 -0.13377349 -0.04320839 0.08308878 -0.00258316 0.010894834 0.04353893 -0.040708616 -0.033803433 0.09791601 -0.03649859 -0.050812278 0.049584433 0.0585986 0.06002805 -0.0031001628 -0.08376578 -0.09170443 -0.03929863 -0.035571124 -0.053634103 0.13905022 -0.0835096 0.099262066 -0.110118985 0.09371764 0.10516285 -0.09905819 0.0981065 0.09043958 -0.12671925 0.105429925 0.09337982 -0.086836584 -0.055284597 0.13107237 -0.106445745 0.04373719 0.122172736 -0.11910841 0.11669562 0.110650696 0.07757363 0.07751333 -0.11486547 0.012422
597 0.10379887 -0.122195385 -0.06873218 0.1089572 -0.10721846 -0.09319519 0.07732001 0.12630188 -0.0053188307 -0.10107994 0.06981071 0.13375619 0.07473059 -0.043447055 -0.06532474 0.1089357 0.13753435 0.09658355 -0.10629175 0.118577436 -0.011282753 -0.097040385 -0.085107625 0.077305146 -0.11506704 0.07705744 -0.065349534 -0.08882073 0.09975103 0.109055065 0.08775809 0.12387788 -0.0674313 0.047955643 -0.09600532 0.11312926 0.09530584 0.1162665 -0.10965633 0.09790652 -0.07982911 0.056113996 0.00073648134 0.07398085 0.08914832 0.04841046 -0.10536072 0.09869829 0.028117182 -0.09477946 0.0059792595 0.010613773 0.08080199 0.017703488 0.076277584 0.09484687 0.07762825 -0.071074314 0.10628448 -0.034664392 0.03323986 0.11340752 0.013978644 0.121590145 0.090440676 -0.09644796 -0.07240138 -0.091665454 0.07085238 0.05659959 0.11379296 0.118075766 0.11719243 -0.08642304 0.08048034 -0.07081698 0.06186662 -0.12094594 0.12344275 0.114629075 0.07658931 -0.12641326 -0.06435047 -0.12220699 -0.05700909 0.079931244 -0.0027660124 0.011345596 0.037432585 -0.049047302 -0.03694506 0.11396722 -0.037077963 -0.0455986 0.06010181 0.04159109 0.057679493 -0.011668368 -0.085603826 -0.09627808 -0.04621732 -0.04306376 -0.07243059 0.12411967 -0.09364706 0.10711404 -0.11464028 0.09847968 0.10177039 -0.09086859 0.10984249 0.09206829 -0.116590686 0.09732189 0.08624633 -0.09255954 -0.066431865 0.11961795 -0.11512258 0.05028541 0.11470248 -0.12642983 0.09284644 0.12575878 0.078014754 0.07307977 -0.11568704 0.011187177
596 0.102943406 -0.12968946 -0.067445606 0.1089402 -0.10985513 -0.097084455 0.079597734 0.13286811 -0.0010019136 -0.10835682 0.07064641 0.13005537 0.07359793 -0.04235177 -0.076323435 0.10436074 0.13924573 0.09281643 -0.10562305 0.123408906 -0.009713794 -0.09200795 -0.08578649 0.072194375 -0.10598337 0.07827807 -0.062132634 -0.0855817 0.10099546 0.10597125 0.08100787 0.11935442 -0.0661226 0.054541588 -0.10318881 0.12196468 0.09210503 0.11509349 -0.10807865 0.09133129 -0.08430432 0.059018116 0.0015791659 0.073059656 0.084280826 0.053348877 -0.10373454 0.10119498 0.026219884 -0.09473324 0.004764801 0.010715553 0.083687395 0.018629652 0.07640946 0.09672585 0.067534246 -0.06620714 0.1105958 -0.030861149 0.031461313 0.10734516 0.013730222 0.120571956 0.09258116 -0.103816 -0.07550517 -0.09212434 0.06802133 0.048406385 0.11686945 0.107774325 0.11391185 -0.08273842 0.067992516 -0.0742259 0.07215886 -0.1262556 0.11664024 0.11740553 0.07309307 -0.13667604 -0.06038054 -0.12227625 -0.06270006 0.0796162 -0.0015084507 0.012493245 0.034534123 -0.048017975 -0.032289922 0.115812466 -0.03684527 -0.04159562 0.049639 0.032110304 0.04925392 -0.0010026199 -0.084705256 -0.097455494 -0.04464079 -0.045307036 -0.06875725 0.12228286 -0.092310406 0.09630964 -0.107708864 0.092603065 0.09876662 -0.09804473 0.110688776 0.08690335 -0.1141724 0.095375754 0.087687075 -0.08634602 -0.0686708 0.12446621 -0.11519983 0.045734093 0.110815845 -0.12743005 0.09104479 0.12672767 0.07623435 0.0717103 -0.12480245 0.00698412
195 0.09757419 -0.12298825 -0.07781828 0.11144531 -0.1015673 -0.087157406 0.09286844 0.12673901 -0.029278344 -0.112655774 0.08903056 0.13948764 0.082699835 -0.06766351 -0.019513493 0.10987848 0.12139532 0.092356116 -0.10789954 0.12120365 -0.0051771905 -0.11445101 -0.083425306 0.09446602 -0.11490581 0.09884301 -0.040808164 -0.04112866 0.09755529 0.110338725 0.09665634 0.11278979 -0.057673533 0.036262926 -0.09923168 0.10381944 0.087852985 0.11067397 -0.10333456 0.09932734 -0.077802695 0.083803914 -0.006409416 0.07492268 0.10597506 0.015897196 -0.106799476 0.11362495 0.057919487 -0.10141009 0.018857151 0.016897729 0.078684285 0.043773256 0.098006085 0.10620284 0.06558067 -0.09547501 0.09855272 -0.039072152 0.049074445 0.11227477 0.026997989 0.11547499 0.08425244 -0.08735203 -0.07205246 -0.09972254 0.065879546 0.065856434 0.09568294 0.120740734 0.11249833 -0.07934002 0.0859411 -0.06450685 0.036912274 -0.108579144 0.118180655 0.1132429 0.069938086 -0.1423624 -0.05229776 -0.12126591 -0.008687993 0.102542885 0.010265936 -0.03267516 0.013632555 -0.04577563 -0.04716791 0.104216754 -0.046453144 -0.013775889 0.06683614 0.0488728 0.049745534 -0.029167365 -0.10880682 -0.07849672 -0.046270583 -0.051828466 -0.05127843 0.13113537 -0.08683664 0.09154252 -0.11107229 0.08183611 0.09615989 -0.076501235 0.09847887 0.10151913 -0.13995045 0.091714844 0.086685 -0.10119862 -0.06092717 0.12724122 -0.111559786 0.0746074 0.11694515 -0.11896242 0.087364554 0.117943294 0.09758098 0.06895569 -0.109365575 0.026595911
194 0.106201634 -0.1272486 -0.07111366 0.10564924 -0.10152306 -0.0890697 0.09902463 0.10236648 -0.034893468 -0.12035701 0.089681245 0.12177906 0.086374134 -0.06924177 -0.025740923 0.116141945 0.13881952 0.09213597 -0.100243345 0.12516126 0.0032806655 -0.12490607 -0.079545155 0.0678681 -0.10096471 0.0992797 -0.038695067 -0.060979456 0.09473654 0.10988503 0.09196016 0.12499752 -0.05509776 0.041278787 -0.08545474 0.10490773 0.08852155 0.10507914 -0.101959966 0.10389949 -0.074433714 0.07407317 0.012334074 0.087303646 0.101672865 0.014229624 -0.12697457 0.10502527 0.04999802 -0.0927566 0.008942685 0.018131634 0.07960607 0.041408487 0.07457224 0.09084174 0.06806726 -0.08331909 0.102043614 -0.04713686 0.05443091 0.11342547 0.034248803 0.12760432 0.08958921 -0.0877345 -0.07557293 -0.09438027 0.06828233 0.081358224 0.10157927 0.12446666 0.11650084 -0.08995108 0.08718898 -0.06866371 0.035901383 -0.11472884 0.1255768 0.10989586 0.062905505 -0.1360826 -0.058076672 -0.113232456 -0.013153009 0.095086 -0.004782587 -0.02503841 0.032173473 -0.05900709 -0.05805795 0.09596041 -0.03630634 -0.022274854 0.07280024 0.04309268 0.046244558 -0.02837334 -0.10848409 -0.07248414 -0.04352585 -0.04327381 -0.046593696 0.12067347 -0.08753153 0.084123425 -0.114800125 0.088314645 0.1092368 -0.079135984 0.10423988 0.08439839 -0.13924208 0.08834168 0.08341576 -0.111884624 -0.055099223 0.1242578 -0.11942446 0.07791585 0.12812431 -0.12691449 0.090808995 0.120443925 0.09477865 0.066387 -0.10868982 0.03943915
197 0.1004998 -0.12998392 -0.0752815 0.10935854 -0.09742682 -0.108868994 0.072441176 0.10198522 -0.013041758 -0.12791182 0.034094755 0.13122028 0.07656201 -0.042447243 -0.07255386 0.10590484 0.13193564 0.106140286 -0.104337625 0.12378722 0.0059772017 -0.095463194 -0.08775179 0.07050901 -0.1215417 0.07720095 -0.054716446 -0.099138066 0.102437735 0.11791802 0.079227015 0.098718874 -0.06749012 0.06735638 -0.099065974 0.116269276 0.10676746 0.11554598 -0.12648636 0.09517904 -0.101924635 0.06668189 0.034032553 0.07972451 0.08694497 0.06838824 -0.11494844 0.10110701 0.04332648 -0.08819601 0.0020017421 0.022593878 0.07948016 0.057273064 0.07430381 0.08976594 0.0736718 -0.060083356 0.1068746 -0.036087178 0.020467764 0.103313684 -0.025793655 0.12876792 0.08733485 -0.084112264 -0.07927455 -0.07868171 0.06271903 0.044327494 0.09672849 0.12539348 0.10068966 -0.08909997 0.052886274 -0.06556038 0.06416199 -0.11200416 0.15029384 0.10984916 0.058719583 -0.13497847 -0.029973378 -0.13634643 -0.040047985 0.055380825 0.0056385444 0.013720801 0.0534068 -0.033025898 -0.045011975 0.10480039 -0.03810332 -0.0420312 0.039469115 0.042337038 0.05026958 -0.0030327158 -0.09399428 -0.09539504 -0.056303676 -0.069692604 -0.050755553 0.13626185 -0.09858053 0.084982544 -0.10646806 0.08726683 0.09028855 -0.11580746 0.10298669 0.085748866 -0.12254563 0.09799244 0.08011608 -0.080766626 -0.06271073 0.13561778 -0.13618428 0.055058803 0.13108063 -0.13033651 0.08921176 0.115624055 0.05272577 0.06010296 -0.12826717 0.0029743253
196 0.08714146 -0.13337623 -0.0740233 0.114557736 -0.10099546 -0.10994033 0.06937999 0.10581081 -0.0072349673 -0.12673381 0.03963448 0.1513903 0.07344229 -0.041944306 -0.077219084 0.1033709 0.12870283 0.10035252 -0.09195671 0.1423742 -0.0003990743 -0.10235275 -0.09067727 0.07561241 -0.12242977 0.07500493 -0.062744126 -0.099079214 0.1217687 0.11931195 0.085547216 0.100795485 -0.05958468 0.07311076 -0.11077377 0.11373951 0.09235327 0.12625052 -0.116811045 0.09116533 -0.078610666 0.052613262 0.03805091 0.070817314 0.091295525 0.07184895 -0.10253408 0.10774577 0.031468067 -0.09803309 0.006946875 0.021783646 0.096059054 0.0645384 0.07503099 0.090986386 0.0759073 -0.050177533 0.11111948 -0.028598087 0.02001739 0.105898164 -0.026838632 0.11669593 0.102356724 -0.08223588 -0.07576068 -0.08921771 0.06558749 0.04019541 0.10561659 0.114796445 0.10726623 -0.08376313 0.047766093 -0.06851764 0.058858927 -0.11534228 0.12552899 0.11484944 0.061806433 -0.14205162 -0.036258582 -0.11704678 -0.049162097 0.059202693 0.013552925 0.020551182 0.058630582 -0.033576354 -0.033619426 0.100639574 -0.04658561 -0.042251106 0.03916717 0.03822757 0.04666834 0.002156432 -0.089693286 -0.094335034 -0.067699835 -0.06670991 -0.057071447 0.13325366 -0.08795158 0.075609416 -0.11303788 0.082107194 0.095797606 -0.0971852 0.116461314 0.09533327 -0.12046015 0.09508105 0.07823129 -0.07836422 -0.06952021 0.13150562 -0.12652668 0.048515253 0.1258167 -0.11822405 0.085748985 0.12885728 0.061415534 0.068903685 -0.12371646 -0.008361804
191 0.1285417 -0.12772149 -0.06314984 0.103260554 -0.10554988 -0.107136846 0.06410834 0.10651733 -0.016795892 -0.12670101 0.06123305 0.1613723 0.11019997 -0.03801471 -0.056568094 0.10718584 0.123143874 0.11754344 -0.119157605 0.11824823 -0.012917996 -0.0819679 -0.08122183 0.0654087 -0.11295005 0.10852376 -0.04040485 -0.09386202 0.116151914 0.100566514 0.1016696 0.10359581 -0.05776603 0.07097975 -0.09901871 0.15699531 0.08081269 0.10933121 -0.08669464 0.09585385 -0.07777638 0.062278997 0.019445725 0.090135515 0.07824685 0.05548939 -0.13720647 0.1158299 0.044624012 -0.09921607 0.038480304 0.006574154 0.08101445 0.036424212 0.080156915 0.120574534 0.09639689 -0.06576773 0.1206435 -0.025078848 0.026331786 0.09049949 -0.028488554 0.12101328 0.07813122 -0.113550454 -0.05660872 -0.10545578 0.039761335 0.056381788 0.09122821 0.10836823 0.11713501 -0.110070124 0.086758554 -0.08122042 0.08474733 -0.10979806 0.12321516 0.10543489 0.053317472 -0.14828521 -0.06267607 -0.12937042 -0.066378355 0.057680227 0.051393207 0.039758027 0.06617998 -0.03877928 -0.051433813 0.10846525 -0.034822866 -0.04650268 0.048671454 0.027917292 0.05748002 -0.006808883 -0.11286897 -0.111760736 -0.06411866 -0.051572673 -0.03487058 0.13041592 -0.07885842 0.0854629 -0.1210517 0.08774589 0.08720326 -0.0964965 0.08240151 0.071796805 -0.1139532 0.077347375 0.06996758 -0.07487449 -0.07076287 0.10313194 -0.10183704 0.040374838 0.11745422 -0.0966257 0.10762929 0.12054805 0.07147771 0.07294503 -0.12156544 -0.0052330834
190 0.07846549 -0.1291409 -0.085698865 0.095749885 -0.11530505 -0.11132217 0.091302335 0.08740534 0.011838464 -0.108269215 0.043721464 0.13148859 0.085195094 -0.063397996 -0.047754854 0.13381334 0.13593584 0.08134079 -0.10064128 0.13796149 -0.01828721 -0.070041016 -0.11187369 0.06445379 -0.104895614 0.07159902 -0.040994175 -0.06684459 0.08239963 0.13898855 0.08770626 0.112903066 -0.06602676 0.087278806 -0.12432265 0.06787862 0.10691263 0.14737466 -0.08811693 0.110323265 -0.08196286 0.06439727 0.006671378 0.06703774 0.07840423 0.030305782 -0.0929759 0.0919634 0.010855468 -0.10589475 -0.003582383 0.023657061 0.09091963 0.019915042 0.08707964 0.093690485 0.06763137 -0.06549914 0.13872579 -0.028218295 0.0302839 0.11211758 0.041343573 0.11827149 0.07737698 -0.10365439 -0.0654241 -0.104018435 0.07866959 0.06558509 0.10692868 0.099774875 0.12695043 -0.10263585 0.0599995 -0.05041596 0.05807459 -0.124549076 0.13500778 0.10427442 0.06446999 -0.12810154 -0.031284004 -0.13385965 -0.04891646 0.085307285 -0.034325305 0.014927539 0.0612009 -0.031896763 -0.033842117 0.08666544 -0.027699912 -0.035874456 0.04149371 0.042270456 0.06367041 -0.0020980735 -0.074799836 -0.09542922 -0.04042972 -0.044268493 -0.079741925 0.13266514 -0.08908119 0.109581545 -0.13284543 0.08292577 0.09051144 -0.094045885 0.12696528 0.07274202 -0.1399241 0.105727874 0.11508283 -0.112900406 -0.07449961 0.11983114 -0.14287603 0.04724872 0.116205744 -0.12189409 0.08043367 0.069696665 0.07372926 0.08418028 -0.12750754 0.032651614
193 0.10839428 -0.12875256 -0.07097289 0.10638357 -0.09951119 -0.087689795 0.100288466 0.1338884 -0.043868233 -0.114393875 0.07633053 0.1371334 0.08167068 -0.063237205 -0.030899128 0.11364846 0.12089571 0.09128457 -0.10325081 0.11607977 -0.0037425605 -0.115440376 -0.08097713 0.09230193 -0.114165075 0.095400415 -0.033025436 -0.035187792 0.10233742 0.10828408 0.08783642 0.1129618 -0.048724733 0.038303137 -0.090969294 0.10729027 0.09423226 0.11567189 -0.1109422 0.09433013 -0.075272754 0.063415214 -0.009606967 0.095638596 0.08979477 0.0113299 -0.120614246 0.10301062 0.056528773 -0.09900023 0.012805613 0.026659742 0.07481825 0.041659158 0.08155859 0.10155459 0.06927808 -0.08109883 0.105063416 -0.036196657 0.05784363 0.10872027 0.043459833 0.11658371 0.09215607 -0.09206632 -0.07432992 -0.10184125 0.065927766 0.07142799 0.10364549 0.1229913 0.110311806 -0.08566578 0.08128097 -0.068372734 0.028050745 -0.10918935 0.12539789 0.11406126 0.06577569 -0.13546577 -0.052259255 -0.12535171 -0.018096503 0.084829964 0.0051072077 -0.01710635 0.016801974 -0.046290383 -0.054535206 0.107344136 -0.04165344 -0.006684907 0.07398673 0.048555154 0.046355095 -0.03695415 -0.10817543 -0.06257586 -0.04701605 -0.04699377 -0.042601995 0.123715654 -0.08863705 0.08852219 -0.12247244 0.08560393 0.09522068 -0.07702107 0.10082026 0.09915654 -0.13525929 0.09548153 0.08680208 -0.09982867 -0.06069686 0.12524742 -0.11063924 0.070467696 0.12608993 -0.122874536 0.08927129 0.12055565 0.10107216 0.065715894 -0.10768745 0.044031326
192 0.10330744 -0.12461811 -0.0748126 0.10246431 -0.10437832 -0.091223374 0.09185755 0.12186905 -0.045580894 -0.11174281 0.086244 0.12808494 0.0793977 -0.069318384 -0.021562915 0.12209324 0.122351736 0.08808623 -0.09782237 0.12133017 -0.0034813297 -0.11741501 -0.08381083 0.09133383 -0.1167783 0.09151809 -0.04665279 -0.039100103 0.105876334 0.103088975 0.097532436 0.118628345 -0.052409217 0.019024856 -0.09330535 0.10781788 0.08435737 0.110428594 -0.110729985 0.10201265 -0.08057142 0.079306416 0.0047778543 0.093791865 0.09576815 0.0032178545 -0.10432971 0.11610268 0.04192078 -0.09834619 0.0077330787 0.008958689 0.078766294 0.037521258 0.08698102 0.09395261 0.0701962 -0.07721266 0.102096215 -0.041633666 0.050557673 0.10536186 0.034879405 0.12670816 0.08623858 -0.09727863 -0.07578615 -0.09246803 0.06421821 0.074951015 0.09910641 0.118442 0.115767665 -0.07626846 0.07909709 -0.06748493 0.021330787 -0.10564719 0.12113674 0.11086368 0.070885584 -0.1386012 -0.051587693 -0.12650469 -0.023490522 0.08607618 0.004571048 -0.02255234 0.019842127 -0.061769396 -0.050468054 0.10646455 -0.04193717 -0.018810065 0.06799209 0.055610064 0.04448427 -0.025480434 -0.113904856 -0.081436835 -0.044735387 -0.056114428 -0.042712882 0.11896013 -0.09172805 0.093324654 -0.12291501 0.09130882 0.1043517 -0.083315015 0.10290322 0.09714617 -0.12634766 0.094303004 0.08115166 -0.10132716 -0.059094932 0.12227195 -0.11644167 0.056981817 0.12755924 -0.12196995 0.09146586 0.118432306 0.111459196 0.060464326 -0.110326216 0.04332243
270 0.101875395 -0.12593155 -0.065778054 0.1236995 -0.10168759 -0.08256528 0.07549881 0.113961704 0.0041214232 -0.111086406 0.061947998 0.13725701 0.066743426 -0.03936019 -0.06791914 0.11518988 0.116628125 0.09308836 -0.092571594 0.11812737 -0.005231073 -0.090931356 -0.08568204 0.07336393 -0.11497014 0.09224665 -0.06688417 -0.08205477 0.09096085 0.11599311 0.08309592 0.09431837 -0.08422983 0.060028467 -0.100626156 0.10746089 0.08849325 0.11515862 -0.10074848 0.097468175 -0.077912726 0.07097815 0.024995 0.06887746 0.1005749 0.052376032 -0.11422343 0.1049481 0.034322586 -0.10279403 0.00029090536 0.020086063 0.080534704 0.072943956 0.07444762 0.08755262 0.0883726 -0.06667521 0.10142106 -0.038165383 0.027537614 0.11021355 -0.02334638 0.13355522 0.09293094 -0.0882172 -0.07331029 -0.104192466 0.08009273 0.06063182 0.10438567 0.112133786 0.109521076 -0.09508237 0.05871255 -0.072378375 0.05349996 -0.13290986 0.12565343 0.11809619 0.06440824 -0.15095598 -0.029190466 -0.12752463 -0.045000605 0.0780463 0.002334033 0.014323795 0.059340693 -0.042227823 -0.03607224 0.10096894 -0.048472714 -0.045292042 0.05323901 0.052606437 0.05997149 0.00063570705 -0.0882457 -0.09151632 -0.06486313 -0.04296428 -0.060722616 0.12450433 -0.089344025 0.09107937 -0.10503078 0.09009718 0.10087132 -0.089791775 0.10172521 0.08602465 -0.12369992 0.085257 0.081676215 -0.09694383 -0.06138474 0.120685056 -0.1198634 0.05278005 0.119591445 -0.13254848 0.1097807 0.11507626 0.06915178 0.06660137 -0.14154337 0.003378252
271 0.094248384 -0.12941486 -0.06444564 0.10359205 -0.11272534 -0.0848949 0.0969753 0.10977326 -0.02724687 -0.10101045 0.086918786 0.13061461 0.08369409 -0.055064283 -0.055640746 0.12817903 0.1170029 0.103847146 -0.07910111 0.13714229 -0.013013212 -0.10493308 -0.08634786 0.06731178 -0.09646472 0.0845426 -0.060643762 -0.06797074 0.099103086 0.102837004 0.08390452 0.13204597 -0.067783736 0.032743804 -0.110954046 0.12248872 0.0802955 0.10972893 -0.122327045 0.11445642 -0.080560446 0.07413872 0.0036562826 0.07785495 0.09154272 0.013999498 -0.11399075 0.09820595 0.03987659 -0.096607976 0.01762714 0.018179415 0.08149774 0.04003536 0.07186561 0.08506688 0.07248681 -0.08250237 0.105693735 -0.020916857 0.02906643 0.10396129 0.034145862 0.13420925 0.09096022 -0.101140454 -0.087242424 -0.0824055 0.068894506 0.05988028 0.10792264 0.11897065 0.113897264 -0.075575344 0.06844926 -0.06896779 0.03670737 -0.09701258 0.10304273 0.11673626 0.08966151 -0.1296608 -0.054257702 -0.13167459 -0.04331545 0.074443586 0.0057632 0.004009522 0.038143516 -0.07912305 -0.06044981 0.106148474 -0.037925858 -0.024827087 0.06134125 0.05166502 0.050994724 -0.015955245 -0.09573079 -0.08999861 -0.047267728 -0.038355675 -0.054865297 0.13874131 -0.087937936 0.10716727 -0.11825785 0.11309054 0.10883615 -0.088378586 0.11557675 0.108366564 -0.112391554 0.08895721 0.0853882 -0.108268715 -0.05535759 0.12859847 -0.12634075 0.036452416 0.13244067 -0.123559244 0.0893257 0.10956132 0.10376449 0.059124105 -0.11221862 0.021227997
272 0.10725257 -0.121103644 -0.06878618 0.11739474 -0.113511726 -0.090874985 0.07992497 0.11518225 -0.013557049 -0.11615289 0.06517514 0.13628112 0.0740354 -0.056238238 -0.0679988 0.12710993 0.1242319 0.10162771 -0.0918032 0.110133 0.0034640033 -0.09517138 -0.090045825 0.0884089 -0.120850556 0.08218059 -0.059439965 -0.075994074 0.09718328 0.09399339 0.09196162 0.11560527 -0.072367676 0.05860646 -0.088735625 0.09794006 0.11725059 0.11268738 -0.10542999 0.09001281 -0.074373275 0.07264347 -0.01607202 0.091992006 0.0831481 0.03868327 -0.100498 0.09340591 0.028733904 -0.096332975 0.0003203129 0.013550364 0.07316563 0.03627193 0.077362716 0.10879432 0.09473459 -0.06804161 0.10914572 -0.030799985 0.031663563 0.1069978 0.009598476 0.12122133 0.07942251 -0.09154308 -0.07577051 -0.09445709 0.09437295 0.067674205 0.102894165 0.12429732 0.11083233 -0.0821311 0.0833125 -0.061169248 0.059033185 -0.1137364 0.11389163 0.12083025 0.08601074 -0.13825513 -0.04011744 -0.11132718 -0.041424926 0.07026967 0.006736906 0.009943041 0.05187836 -0.04617941 -0.042140175 0.09501341 -0.02702703 -0.04012338 0.053073794 0.06543407 0.064015865 -0.020850142 -0.08261318 -0.1071844 -0.04769393 -0.044646833 -0.065514624 0.12873662 -0.08906587 0.08809913 -0.12584572 0.10235376 0.10435428 -0.09628516 0.110502884 0.093201935 -0.11632737 0.09491785 0.08567472 -0.110836625 -0.04710228 0.13352804 -0.1243312 0.039432995 0.13173229 -0.12464906 0.08292385 0.12706812 0.103020914 0.06839917 -0.10410546 0.013628488
273 0.101623334 -0.11705881 -0.06747176 0.11078296 -0.11081666 -0.08786798 0.09673759 0.1299175 -0.031554535 -0.11030199 0.061657026 0.13032731 0.06833903 -0.04839895 -0.05992886 0.12503915 0.123766325 0.09605819 -0.091890685 0.116831176 0.0015310359 -0.10008803 -0.09138044 0.085501954 -0.12170394 0.089114055 -0.053849038 -0.07385204 0.10360867 0.097961396 0.100942224 0.112718016 -0.06459997 0.049916785 -0.06702492 0.11076045 0.09226096 0.11193714 -0.11303478 0.09348297 -0.06998925 0.05446821 -0.024671765 0.08160905 0.083747 0.017758848 -0.09843133 0.09885542 0.029852213 -0.09976446 0.0031325321 0.011871188 0.06475697 0.037735723 0.086597055 0.10827743 0.08055045 -0.086600736 0.110602655 -0.03173238 0.032172937 0.10994115 0.027776955 0.124547094 0.0897109 -0.08334066 -0.07502425 -0.097200595 0.0718969 0.07888876 0.12527508 0.10415961 0.1119204 -0.08123873 0.07388939 -0.06422429 0.06319241 -0.10408147 0.113597445 0.11892837 0.07731735 -0.14188217 -0.05895098 -0.13512355 -0.037587177 0.07647981 0.0052403836 -0.00036955572 0.043511324 -0.05090139 -0.047142047 0.096854545 -0.033157185 -0.028828353 0.0628352 0.05530025 0.04610175 -0.041801594 -0.090785146 -0.10014353 -0.0466522 -0.049650434 -0.051676113 0.14194036 -0.102913134 0.098252766 -0.11989948 0.09684281 0.09851295 -0.09910066 0.110606015 0.112486556 -0.11409217 0.09191767 0.07587895 -0.10888498 -0.039082896 0.13266312 -0.12510513 0.046998918 0.118305355 -0.124869935 0.09768114 0.11147755 0.10299459 0.06795694 -0.09549256 0.020214528
