1005 128
344 -0.050677292 -0.24232464 -0.27799612 -0.5598197 -0.1665244 -0.390676 0.18819746 -0.072497256 0.100101046 0.2259767 0.10219315 -0.23021376 -0.055048116 -0.0930115 -0.15122 0.28914574 -0.46363634 0.2562278 -0.027528264 -0.04404846 -0.027292587 -0.45648876 0.027496912 0.045598548 0.13205513 0.39523947 0.13923171 -0.47278413 -0.069339156 0.09701725 0.14285395 0.1160235 0.34783262 0.20715207 0.36100826 -0.13628207 0.056943487 0.111857444 0.59481055 0.26351702 -0.22297093 0.41414887 -0.055501856 0.08650311 -0.0935845 -0.16870649 0.10660832 -0.35651532 0.096936546 -0.123308614 0.03497339 -0.23970546 0.73065645 0.20105293 0.10157193 -0.04852889 -0.25812182 -0.15114546 0.14080408 -0.29057783 0.43061417 0.26542407 0.33311027 -0.04946806 -0.40890864 -0.13846363 -0.16699779 0.27971166 -0.30453825 0.11116002 0.35848328 -0.038818 0.10057109 0.39796424 -0.40266517 -0.30855277 0.3614061 -0.018099952 0.23523252 -0.35375872 -0.0726733 0.28208447 0.12738255 -0.15343903 -0.0102186315 -0.0033644259 -0.1317245 -0.14114042 -0.026878277 -0.15232043 -0.18034437 0.122955166 0.16593783 -0.16588335 -0.13513824 -0.14817002 0.0025654102 0.14022388 0.34487498 0.4014016 -0.0736152 0.061424144 0.043667074 0.33018938 0.27052793 0.20618837 0.2636115 -0.2188741 0.065002 -0.30086744 0.2654556 -0.31945 0.17308074 0.31283697 -0.28081408 -0.14586514 -0.19272311 0.21369518 -0.1354415 0.007793049 0.2992598 -0.21979718 0.043035295 0.28817037 0.18307889 -0.028931815 -0.2409782 0.11278625
819 0.04850259 -0.16014604 0.20889196 -0.3347836 -0.10307452 -0.02247438 0.02084731 -0.25520736 -0.33963943 -0.2628573 0.24656714 -0.027298925 0.3635801 -0.18375015 0.107168585 -0.33711883 -0.27911562 -0.4577732 -0.46370298 -0.24188268 -0.55718124 -0.25693434 0.019471902 -0.186338 0.26270008 0.07480931 -0.07553418 0.13125236 0.61394554 0.44173396 -0.29087892 -0.30200577 0.14397308 0.6930444 -0.06075096 0.359993 -0.26175764 -0.08395875 0.023076182 -0.031161444 0.09185047 -0.10645266 0.09223681 -0.23280457 0.024925128 -0.2682251 0.5343152 0.09099471 0.22584149 -0.36817268 0.19612631 0.12316732 -0.08957296 0.28095767 0.08715464 -0.19015554 -0.22970353 -0.54084796 0.022385146 -0.007957307 0.1200437 -0.041627984 -0.13128616 -0.321107 0.30804464 0.34400845 0.5872383 -0.12917617 0.4419657 0.15175001 0.23418297 -0.24770103 0.47894993 0.012400853 -0.25476947 -0.266627 0.054514814 0.19555385 0.16924097 -0.10004346 -0.15264677 -0.12577982 0.08475936 0.01905405 -0.04346205 0.017558742 -0.115207754 -0.085263185 -0.15126196 -0.03127423 0.33376262 0.17254731 -0.029142026 0.73218733 -0.50178176 0.104676716 0.045599733 0.30921054 -0.27365106 0.43364197 0.26463518 0.30557808 -0.13468176 -0.31875232 0.08609981 0.08032939 -0.20272781 -0.0655888 -0.5015086 -0.4016048 -0.29720044 0.6634702 0.06063132 -0.22355592 -0.16208345 -0.23061654 -0.13671048 0.093818545 0.10040423 -0.07071444 0.18376291 -0.10946805 0.26746136 0.02801376 -0.31099048 0.29828992 -0.24523446 -0.06899085
346 0.22091612 0.37791854 -0.34241548 -0.3407363 -0.22696877 -0.10499324 0.2515165 -0.1537173 0.21301107 -0.16324365 0.15816924 -0.4624696 0.08441342 -0.027765233 -0.156595 0.13133828 0.019715516 0.17563581 -0.4128418 0.39957926 -0.15835178 -0.024668798 -0.16987093 -0.39737538 0.24863872 0.28189093 0.14769064 -0.23527388 0.0001827557 0.017700477 0.20388387 -0.13113423 0.39475867 0.43775907 0.49465522 0.011178966 -0.26600143 -0.053394437 -0.18335979 -0.12400449 -0.052607976 -0.052684665 0.15813875 -0.13486017 -0.07309633 -0.02998417 -0.28137586 0.1279868 0.4352447 -0.2327663 -0.07456193 -0.20453835 0.022609094 -0.08330193 0.31862122 -0.23595697 -0.030088564 -0.14884514 -0.0669637 0.23003611 0.147449 0.123106755 0.0702032 -0.10073159 -0.10879736 -0.092977986 -0.07648273 0.44237462 0.22547331 -0.53382665 -0.2957417 0.14622031 0.26323786 -0.12768948 0.026872138 -0.028977877 0.08221141 -0.060231272 -0.06694519 -0.31111208 -0.07630305 -0.09835165 -0.10569821 0.1751525 -0.17775993 0.026036853 0.18010089 0.0077637318 -0.2057814 0.06152364 0.07780336 -0.34303245 0.034049284 0.21859276 -0.43486428 0.08221864 0.1923392 0.27496728 0.2537807 0.2594533 -0.06614946 -0.026508553 0.21089062 0.30301625 0.16365679 -0.25978726 -0.1223762 -0.16080868 0.08358924 -0.49589825 0.15920557 0.12110042 -0.22310156 0.103714876 0.032920483 0.07029949 0.17343134 0.10529064 -0.020504026 -0.14689103 0.5231637 -0.070455365 -0.11558256 -0.050683487 0.039207987 0.2268735 -0.1731846 -0.10171925
347 -0.36925906 -0.04593521 -0.18685569 -0.2612524 0.21969864 0.115880795 0.15653685 -0.009006647 0.5291541 -0.15663745 0.09906503 -0.39484045 0.10780979 -0.2096729 0.07787111 0.12853661 -0.20611212 0.16664527 -0.10797012 0.21311541 -0.23652697 -0.47827354 -0.112624414 -0.14637773 0.28268844 0.38471234 0.04191946 -0.14673817 -0.009458129 -0.42767987 0.044958003 0.11149786 0.20171748 0.28259003 0.32845885 0.048262373 -0.0996148 -0.26438633 0.36841184 0.34879756 -0.114625655 0.404881 -0.08697312 0.10770361 0.19850999 -0.08666051 -0.03175992 -0.14897819 0.38104066 -0.15944661 0.1695747 -0.33846772 0.2649411 0.08005461 0.14172593 -0.04985542 -0.2087231 -0.22170189 0.025717603 -0.16458201 0.29125664 0.4213008 0.028472967 0.51866096 -0.477194 0.101887375 0.11842407 -0.09930036 -0.0653198 0.15008569 0.19298474 0.25254306 0.0035922255 0.67761546 -0.117531046 -0.067896836 0.06638228 0.054422975 0.23163302 -0.2633729 -0.12487263 0.016216876 0.01865326 -0.051007904 0.07387746 -0.045834955 0.023846209 -0.14718287 -0.3524518 0.30251166 0.21500807 -0.18840809 0.014975353 0.15758012 0.22403343 -0.18097363 0.010503542 0.3404551 0.24412765 0.44020903 0.14464563 0.06761905 0.34406975 -0.06777734 0.24666955 -0.2668645 -0.03060797 -0.059786543 0.001708132 -0.18565801 -0.124450624 -0.23899497 -0.07242097 0.18581334 0.004001986 -0.015517899 0.13468976 -0.098375164 -0.42695898 -0.2689142 -0.10628125 0.051361874 -0.22367217 0.29855803 -0.18448468 -0.018223666 -0.3159375 0.35653841
340 0.24796955 0.041917395 0.22736755 -0.21176189 -0.07896115 0.13538033 -0.10437842 -0.080854855 -0.12525663 -0.13566071 0.2209653 -0.24917004 -0.058020316 0.002950141 0.42166546 0.1115056 -0.08272176 0.04391793 -0.055965655 0.32003537 -0.15037282 -0.27018592 0.16980934 -0.256389 0.15570466 -0.15717123 -0.09524437 -0.25932664 0.11473033 -0.121312015 -0.069018185 0.1522127 0.13168775 -0.19893275 0.06019496 0.10403434 0.0020331116 0.35697776 -0.05537809 0.008886667 0.069985494 0.09136897 -0.42929834 -0.21418475 0.1924262 0.2025273 0.11344954 -0.02729462 0.18035239 0.18129912 0.02434171 0.074499115 0.36291182 -0.031556457 0.12381288 0.05271478 0.3145597 -0.2295632 0.30578244 -0.025220716 -0.011752083 0.15546113 -0.11343997 -0.1259612 -0.25389943 0.04845338 0.18306407 -0.09702906 -0.056932162 0.0696443 0.18496105 -0.08929602 -0.06700212 0.0105723925 -0.29434732 -0.055864986 -0.030553961 -0.02824143 -0.15706447 -0.013443913 -0.3584333 0.21527077 -0.16071628 -0.060630947 -0.44717413 -0.1888131 0.2075778 -0.12553895 -0.1103386 -0.047953308 0.11155886 0.0126144765 -0.27004334 0.07014527 0.2941624 0.061976764 -0.03454809 0.12569557 -0.16365698 0.3113769 -0.114500694 0.07836063 0.1940813 -0.079527766 0.017631583 0.060917262 0.11588172 0.07045325 -0.23616333 0.30912146 -0.04554552 -0.01664243 -0.07991642 0.09848449 0.07362717 0.2160723 0.26380005 0.11307101 0.07183935 0.03174313 -0.20088805 0.050926574 -0.29815614 0.0995391 0.1764135 0.19004507 -0.4074627 -0.16995844
341 -0.11516482 0.053294364 0.36005676 -0.1801242 0.023585904 -0.18940894 -0.2787063 -0.06714663 0.062948674 0.11908294 0.13075016 -0.08604596 -0.010622937 0.25669968 0.47772238 -0.04046016 -0.2738193 -0.29423162 -0.4299607 -0.17759915 -0.13909695 -0.65600777 0.22457694 -0.08815533 -0.09940087 0.23389032 0.070621625 -0.15256365 0.04836377 0.03184842 -0.16264212 -0.16413556 0.08472378 -0.11520143 0.49466807 -0.14175339 -0.19718634 -0.07785266 0.21219847 -0.0068714865 -0.13443485 0.13942608 0.47901905 0.1653722 -0.32186764 0.13869248 0.31879282 -0.21060973 0.5973584 -0.0663381 0.25065458 -0.1413461 0.16985993 -0.08612701 0.054527458 0.67085665 -0.4284465 0.26437357 -0.03930379 -0.21934891 0.042774476 0.004253919 0.23131856 0.013397857 0.0037356724 0.09206157 0.0981631 0.086883105 -0.093958005 0.040307894 -0.04072338 -0.18185839 -0.017995315 0.46824357 -0.10637908 -0.09011071 -0.043197878 -0.13497521 0.24787071 -0.05928678 -0.11179084 -0.14948015 0.09203313 -0.1247217 -0.26845798 0.17030999 0.19634652 0.34862265 0.19188777 -0.053828854 -0.013876221 -0.13079952 -0.51942384 0.07340181 0.34741482 -0.03914557 0.4916355 0.4847643 -0.08146033 0.22036378 0.42411363 -0.064778134 0.1627066 -0.032406792 -0.19078724 -0.3613336 0.28256533 -0.04621946 -0.1465724 -0.09335397 0.20151962 0.007892714 -0.3078005 -0.11103599 0.0125020165 0.3846633 0.2467954 -0.12027677 0.1639442 -0.048667237 -0.085811995 0.01316842 0.12866871 0.18848406 -0.029889306 -0.16438144 -0.19489275 0.13140815
342 -0.08393505 0.16623381 -0.1321592 -0.22529902 0.0057843197 -0.11291722 0.018118894 -0.019276896 0.026014347 -0.104479894 0.30337065 -0.3132701 0.22898282 -0.11921185 0.09400968 0.12810086 -0.16962843 -0.035664126 0.012531627 0.066837974 -0.15082197 -0.3206011 -0.18540426 -0.07906786 0.024073202 0.009300049 0.008711947 -0.4306804 0.1778006 0.19307195 -0.032692477 0.016388329 0.273045 0.24977373 0.31213385 -0.022687847 -0.16789041 0.033669807 -0.018174391 -0.26773372 -0.2757722 0.104728006 0.045213737 0.033990536 -0.17187016 -0.23175591 -0.010873875 -0.31698078 0.21032667 -0.26323125 0.004908119 0.1848919 0.36476102 0.08041087 0.09165709 0.072453484 0.13198021 -0.25796783 0.2985959 -0.24943408 0.14418681 -0.19429088 0.24817619 0.06795363 -0.17177427 -0.07583351 0.16013275 -0.12468486 0.21556291 -0.21632776 0.00971714 0.25817052 -0.028452983 -0.033877186 -0.17631629 0.04821996 0.24655728 0.14863658 0.12498819 -0.32551935 0.0532923 0.056740254 -0.012508846 -0.06842837 -0.35273096 -0.25768617 -0.10234846 -0.49989882 0.055392303 0.043642145 0.10043532 -0.14477818 0.18263063 0.07211399 -0.27878842 -0.06152128 0.3469535 0.32063732 0.21298106 0.08859997 0.17512491 -0.01969408 0.4150504 0.48400846 0.120403334 0.15137869 -0.15488422 0.010350514 -0.0031255775 -0.20941663 0.10135119 -0.04292072 -0.47158283 0.2301659 -0.35208812 -0.026872996 0.14253196 -0.11709442 -0.17309943 0.026278226 0.09909737 -0.10554109 -0.14643212 0.010159314 0.16127788 -0.038162235 -0.18393591 0.14682075
343 0.052423615 0.2003852 -0.25907478 -0.19698715 -0.16729477 -0.22721772 -0.09616086 0.012170513 0.11900097 0.06598867 -0.093941554 -0.34053206 0.091421984 -0.2527214 -0.022170065 0.27751377 -0.319559 0.3123838 0.042796683 -0.33618662 -0.69570607 -0.3404848 -0.113617964 0.05272851 0.20832194 0.24873824 0.11036074 -0.5310065 0.10310159 0.19787602 -0.18713273 -0.2630578 0.6499872 0.17193396 -0.15039572 0.19340894 -0.2845457 -0.013870544 0.09469748 0.15344836 -0.0068850117 0.100548446 -0.24775727 -0.00526445 -0.16722253 0.03589355 0.25923285 0.031887136 0.14875406 -0.42736647 -0.10457526 -0.2706769 0.08580633 -0.23614329 -0.08232602 -0.24016471 -0.040401366 -0.248582 -0.0069632535 0.046996202 0.0020658963 0.04093816 0.10653003 0.14499019 -0.4004738 -0.0526629 -0.24753228 -0.08030912 0.060920313 -0.26653838 0.23390184 0.2868414 -0.34853318 -0.012144123 0.15510473 -0.1416404 -0.016374135 -0.16982272 -0.055667028 0.07938889 -0.28260592 0.0601686 0.27231476 0.08270547 0.100876644 0.15561123 0.226564 -0.1394031 -0.058970053 0.4219398 0.075821914 -0.2970835 0.031130672 -0.06272792 -0.48138595 -0.09293805 -0.28390387 0.5478509 -0.145245 0.16132097 -0.15930782 -0.049062412 0.2528762 0.17960262 0.3123263 0.007864954 -0.106894836 -0.24449404 0.14861517 -0.38466802 0.09773059 -0.111391336 -0.3705578 0.32405594 -0.10602941 0.08885681 0.46207643 0.14755912 -0.011288546 -0.15310563 0.372358 -0.02149464 -0.10722494 0.27496868 0.11164029 0.24705666 -0.08660681 -0.05786126
810 0.037018444 0.5266357 0.36064652 -0.1873182 -0.21657288 -0.19057596 0.15296409 -0.7045741 -0.13295631 0.025741609 -0.049733944 0.17357323 -0.0013026699 0.31069604 0.27760032 0.11436419 0.15311544 0.303933 -0.11084325 0.014797382 -0.36863923 -0.678779 -0.083002135 0.28736264 0.16410048 0.051805556 0.16794692 -0.25219977 -0.1164828 -0.32072568 -0.004122012 0.16683145 -0.016553918 0.18803896 0.52267647 -0.3654259 -0.234286 -0.08990831 0.29192135 -0.4271792 0.029983569 -0.13291158 0.35229382 0.028746327 -0.20071402 -0.3013654 0.1672325 -0.37741762 0.036517587 0.13164936 0.3783568 0.23905402 0.27101293 -0.019830147 0.28247133 0.18597466 0.2427984 -0.139677 -0.21014826 -0.45453975 0.41057375 0.09889104 0.22957554 -0.09213002 0.15962328 0.006937267 0.08375267 0.5683229 -0.08221006 0.20310396 0.14662157 0.17858909 -0.102992 0.22676492 -0.40908366 0.023591373 0.0697737 0.10687219 -0.117519625 -0.08752821 -0.16440713 0.20395416 0.11960821 0.10872962 -0.027980134 -0.1548563 -0.27070636 0.042290952 -0.06397878 0.36497927 -0.08458384 -0.20409995 -0.30624828 0.39340273 -0.41519225 0.30340555 -0.06591114 -0.24312711 0.025801208 0.12254376 0.6730564 0.13652723 0.16209705 -0.06728152 0.16612554 -0.2850601 0.086654395 -0.36449382 0.2896727 -0.16830844 -0.5323851 0.34378237 0.050102253 -0.33038965 0.03209522 -0.35555783 0.002614979 -0.10709943 0.18654895 0.38395387 0.1873692 0.0017207799 0.21306582 0.09633528 -0.0604045 -0.11715434 0.15589693 0.29337862
811 0.3870045 -0.17386018 0.2614078 -0.33258244 0.054841306 -0.1178225 -0.05942424 -0.098076396 -0.051582277 -0.2846581 0.471719 0.23047213 0.32293728 -0.35368317 0.17888904 0.1210534 0.042351786 0.2007496 -0.11750664 0.20827354 0.1624799 -0.14301299 -0.25136867 -0.43001476 0.4828074 -0.2338248 0.18231978 -0.15430029 0.23362155 -0.2903248 0.37436163 0.10452457 0.20679966 0.053825874 0.1408923 -0.68406415 0.23365588 0.4209272 -0.35726163 -0.37329435 0.020224033 0.60678077 -0.13490711 -0.17109399 0.09582942 -0.15752296 0.3562719 -0.04127184 0.244442 0.27420565 0.1276194 0.2434253 0.0042779343 -0.27553827 -0.19612394 0.028460927 0.1940582 -0.29429102 0.24988432 0.25079727 -0.01576347 0.052646384 -0.27903923 -0.13037816 -0.1067063 0.01959792 -0.20901805 -0.2324129 -0.25373247 0.0322201 0.1275043 0.20267688 0.18564619 0.15815489 -0.23610921 -0.1152949 -0.022724327 0.20160158 -0.44366688 -0.3098914 -0.1800193 0.177316 -0.18875724 -0.09995948 -0.21865053 -0.38891742 0.47599795 0.29118037 0.24856995 -0.36214572 -0.03558545 -0.02061475 -0.41273797 -0.27094805 -0.105941944 0.3047142 0.016421579 -0.07665199 0.117265694 0.2889868 -0.13039148 -0.078058995 0.34073234 -0.00010951345 0.49792036 -0.16019557 -0.03905897 0.18549038 -0.021593498 -0.20583913 -0.1841895 0.10025933 -0.23425062 0.041764427 -0.11191934 0.23941062 -0.07229131 0.2930263 0.030566432 0.29740524 -0.060396604 0.1876717 0.024592482 0.32101685 0.30940908 0.014784677 -0.22369976 -0.26282835
812 0.12524286 0.11524924 0.20058085 -0.046924263 -0.098371826 -0.02171296 0.15984654 -0.13656284 -0.15302902 -0.0922766 -0.035106838 -0.24157323 0.04449163 -0.09737544 0.061920967 0.020250764 -0.21929711 0.12524435 0.09670839 0.061390158 -0.21509653 -0.090717845 -0.1419645 -0.043402974 0.1706773 0.37227258 -0.15074736 0.13825506 0.29820597 0.5986387 -0.24693827 -0.13168445 -0.05044939 -0.32377025 -0.15030229 -0.031477664 -0.23821703 -0.004181523 0.0779173 -0.14329237 -0.10397446 0.17840198 0.20121334 -0.23143366 0.31555265 -0.30897334 0.40294164 -0.26526812 0.25326774 0.131647 0.21347103 0.011358623 -0.06676736 0.1628077 -0.019423172 0.03229965 -0.1968487 0.0979576 0.044359382 -0.13910562 0.14820884 0.22785918 -0.15095921 0.14566123 -0.0817621 0.011024249 0.26235476 -0.21139136 0.13817246 0.32358402 0.3625842 0.10100499 0.42460844 0.14638123 -0.19261429 -0.21991266 -0.19655868 0.13819802 -0.05693918 0.30358055 -0.14066082 0.12132484 0.02246998 0.27476636 0.016384033 -0.054762837 0.18406184 0.009483874 -0.1706758 -0.17633808 0.084312975 -0.192644 -0.17386404 0.1294387 -0.19132344 0.09994228 -0.1571557 0.037644647 -0.23936875 0.24570526 0.1279105 0.30775526 0.12877363 0.19061957 -0.06175047 0.33363485 -0.37344223 0.2552508 -0.25526103 0.09229341 -0.26438534 0.17031692 0.04118881 0.06768754 -0.13406117 0.015384945 0.035279058 0.51049936 0.09555452 -0.17299925 -0.05237046 -0.3034034 0.2076831 0.12618853 0.14261943 0.07718814 0.020430477 -0.35365856
813 -0.2167126 -0.010854827 0.13585258 -0.18989697 -0.073660135 -0.30060485 0.0341428 0.028562745 0.200834 0.13131572 0.13056313 -0.1379382 -0.37588394 -0.018566094 -0.05936631 -0.018364342 0.076055646 0.36584765 -0.098337114 0.25267836 -0.06305157 0.36969152 -0.12023507 -0.18544857 -0.24410674 -0.25688517 0.25319216 0.26261535 0.22886091 0.14747559 -0.20838822 -0.26491186 0.3387552 0.35918897 0.23925905 0.08607948 -0.04894629 -0.011863099 -0.04438713 0.5333032 0.14038293 0.40716982 -0.005223419 -0.10488368 -0.1959586 -0.2673371 0.19267651 -0.14493176 0.23496455 0.113166444 0.25547314 0.23658717 -0.012191721 0.07607926 -0.28505138 0.19087888 0.08922248 -0.2965608 0.264423 -0.45235443 0.074888386 0.21748996 -0.001751047 0.030041302 -0.32414806 -0.7402665 0.26797476 0.15071371 0.15264688 -0.07103524 0.32270643 0.24345107 -0.10045993 -0.09852388 -0.24980265 0.0340635 -0.32315746 -0.009405839 0.49673495 -0.30934474 0.08888113 0.21077754 0.09100199 0.31608266 -0.22745785 0.20358919 -0.34959966 0.1958249 -0.2823309 0.07283855 -0.3086701 -0.41027537 0.2622442 -0.13681902 -0.03755289 -0.24290326 0.25444913 0.1514134 -0.41957614 0.12238936 0.16092141 0.04579728 0.2624574 -0.044866543 0.12450735 -0.24603197 0.1717676 -0.20597047 0.13496844 -0.026124384 -0.1120856 0.081749395 0.18012539 0.011607432 -0.12700872 0.073631726 0.17080773 0.19242372 0.24020374 -0.3683097 0.13930358 -0.3357539 0.11077006 -0.12803468 0.15732835 0.08030962 0.08025475 -0.52799976
348 0.2854929 -0.06471735 -0.015596154 -0.40218094 0.03772544 -0.09487716 0.3184591 -0.09376135 0.034192864 -0.038020782 -0.14768316 -0.2542935 0.2754326 -0.25743797 0.2384218 0.34793758 -0.13351764 0.24641426 0.17221548 0.32516515 -0.4272335 -0.6227178 0.016444298 -0.13288742 0.12242003 0.3980312 0.21951063 -0.55204093 0.4185646 -0.24047203 0.28481466 0.09970878 0.057024986 0.5896719 0.45156375 0.15103185 -0.34212554 -0.07759174 0.0643114 -0.22937472 -0.2012064 -0.013409649 0.013039837 0.14452738 0.07998043 -0.18570006 -0.14095277 -0.42865556 0.3282619 -0.3178099 0.09086232 0.034361348 0.43060556 -0.1943392 -0.29911223 0.15259759 0.24257058 -0.4423548 0.44059142 -0.104934305 0.5488009 0.26310533 0.059331514 0.11014006 -0.47517568 -0.060588807 0.28590956 0.05091333 -0.08140051 0.063612506 0.09149038 0.03128219 0.08439338 0.27031463 -0.28905588 -0.059991382 0.2868536 0.17492692 0.048716135 -0.6913118 -0.20050777 0.22846036 0.18475296 -0.20953265 -0.008010718 0.00029491447 0.20469223 -0.09795325 -0.12341694 0.21264179 0.11604763 -0.01524609 0.22979327 -0.019781493 -0.35329717 -0.10874925 -0.056497663 0.34151974 0.37159663 0.30214947 -0.005434645 -0.014783011 0.061580848 0.2782328 0.11261769 0.17876028 -0.24623445 -0.038184013 0.09453507 -0.6702476 -0.013971431 -0.19861871 -0.06904214 0.30456445 -0.0947188 -0.15045494 0.20710155 0.16412629 -0.34416142 -0.0691006 0.15171303 0.08107426 -0.039069224 0.09939743 0.09739011 -0.016770212 0.007285391 0.23606196
349 0.15742135 -0.22034083 -0.042147793 -0.401739 0.34876037 0.00134056 0.28841722 0.09532097 0.39353788 0.14799018 -0.15229602 -0.15048979 0.22602385 -0.3371805 0.27788022 0.2638216 -0.24113464 0.13152498 0.16251308 -0.022557512 0.04094334 -0.5584562 0.12853436 -0.20539327 0.060475606 0.15130466 0.010535974 -0.29480672 0.12545623 -0.022690676 -0.18549795 -0.15581548 0.18184227 -0.00699291 0.52600497 -0.10724327 -0.030737732 -0.28185079 -0.008867529 0.08489227 -0.10432762 0.046287503 0.05616779 -0.019252295 -0.060359977 -0.3643599 -0.11603451 -0.534402 0.20035885 -0.2702704 -0.08205351 0.058174964 0.4473644 0.34185588 -0.19227286 -0.13063519 -0.116221406 -0.1545829 -0.0037382306 -0.17827792 0.393311 0.3476681 0.26672435 -0.039082814 -0.5648772 -0.0960825 0.02650404 0.005970702 -0.10194423 0.07163034 0.4126712 0.21706384 0.04073468 0.27999654 -0.16547097 -0.16543832 0.22404908 0.13087125 -0.04956248 -0.61201787 -0.022761846 0.09639962 0.17380117 0.020452071 -0.22480258 0.057537038 0.047808375 0.20246798 0.07525621 0.2136776 -0.08595786 -0.12230671 0.14257294 -0.058423076 -0.038671974 -0.14350721 -0.002996979 0.17714094 0.6826959 0.5699697 0.043689657 -0.1181039 0.20471306 0.3788399 -0.042957798 0.18722963 0.051869366 0.13838455 -0.032542694 -0.36869624 -0.018560866 0.023137322 0.20581019 0.07908359 -0.3522191 -0.19689499 0.043897744 0.11389159 -0.040376306 0.16200264 -0.16227177 -0.07500269 0.12889005 0.31221583 0.12070122 0.09588975 -0.0870558 0.21582612
816 0.22685382 -0.24778058 0.18656568 0.054658238 0.08101545 -0.14049295 -0.17585225 -0.029369134 -0.26358914 -0.55795884 0.53451055 -0.16259186 0.38245064 -0.22183667 0.1892549 -0.09388489 -0.42206615 -0.08470118 -0.11356964 0.03162128 0.19138889 0.01878671 0.36286867 -0.13351609 0.021854876 -0.30318105 0.2726685 -0.0005887414 -0.1302134 0.1366616 -0.138698 0.1446296 0.053419143 -0.13317908 0.37328568 -0.2051464 -0.24439763 0.13321982 -0.14748953 0.06222448 -0.13283144 -0.09827828 -0.48110062 -0.07884838 0.3664246 0.15849383 0.221227 -0.2059078 -0.31876466 0.2683776 -0.055451315 0.24134025 0.06326991 0.025777522 0.260701 0.26245636 0.1522245 -0.40423846 0.13147429 -0.02013305 0.3583409 0.2764135 -0.103174195 0.32521775 -0.024401529 -0.19405825 -0.17624277 0.16836987 0.17789221 0.014090757 0.22451867 -0.022242744 -0.31433946 0.080815285 0.06631552 0.089316405 -0.26189712 0.18294632 -0.3064635 -0.010734415 -0.08591914 0.07181112 0.04982337 -0.10775112 0.07386199 -0.2866328 0.0829314 0.1093989 0.11315117 -0.12591615 0.041978676 0.043064088 -0.21236268 0.1529057 -0.11513473 -0.12509932 -0.13952193 0.017410127 -0.22681494 0.40517026 0.35917005 0.22584671 0.23904367 -0.4145312 -0.068217315 -0.069620736 0.2535932 0.10489935 0.06708182 -0.10879186 0.4959785 0.19800276 0.32220706 0.08740962 -0.18697466 -0.3416649 0.3308032 0.2756549 -0.077571474 0.08268149 0.35001191 -0.30067533 -0.21444419 0.14454837 0.28832468 0.016413476 -0.09820924 -0.18826155
817 -0.22606938 -0.14945863 0.28439865 -0.3609266 0.06791971 -0.23877886 0.11358701 -0.07658156 0.1463225 -0.054968003 0.2658413 -0.14078774 -0.18160535 -0.08824328 0.03494124 0.13512395 0.13015987 0.31011853 -0.1762557 0.5312247 0.15317607 0.26174626 0.16429113 -0.012947975 -0.16820313 0.12230721 0.07727382 -0.07427457 0.13961299 -0.12309723 -0.14972085 -0.3981995 0.38280895 0.5480146 0.25498587 -0.35250774 -0.034261785 0.07729822 -0.3874247 0.07963882 0.14112079 0.34702644 -0.20411514 0.15642206 -0.15769 -0.6902305 -0.12397806 -0.3103956 0.0740878 0.19552597 0.39310834 -0.061613955 0.1351909 -0.1832017 -0.30746445 -0.09174769 0.02163902 -0.0025013394 0.24855334 -0.3587206 0.03393669 0.26132652 0.03309909 -0.23212926 0.16182591 -0.46853685 0.23813364 0.26459008 0.18795362 -0.123819076 0.36885145 0.120486625 0.036541197 0.049724687 -0.08165964 -0.32861504 -0.10001963 0.11126715 0.5378007 -0.2467623 -0.08528159 0.1842221 0.008512521 0.092519835 -0.33300394 0.38100126 -0.5756726 0.34608096 -0.2583073 -0.37802893 -0.2662373 -0.6843321 0.5384078 0.09333722 0.16621116 -0.41910687 0.28038698 0.4620607 -0.27634865 -0.012589795 0.13648778 0.33707154 0.35371864 0.030856684 0.2146597 -0.24610975 -0.03321703 -0.08530537 0.015345004 -0.12829123 -0.22916587 0.09993809 0.08114171 0.0031053189 -0.38111925 0.016345248 0.096877076 0.076751955 0.4730577 -0.30589205 -0.06473033 0.018971227 0.06517142 0.03998058 0.115153745 0.26153073 0.41006613 -0.5510094
737 0.12757587 0.07357226 0.102667935 -0.4341982 -0.10296769 -0.042190827 0.12009877 -0.44862318 0.08563865 -0.17647548 0.1697077 -0.07161516 0.109731846 -0.46335357 0.15286323 -0.4566927 -0.7609163 -0.19339809 -0.12715083 -0.25638857 0.05228438 0.4333612 -0.33461615 -0.36663362 0.5731812 0.28258112 0.050593477 -0.7764146 0.05606108 0.17269254 -0.12886974 0.07107607 -0.15297021 -0.012462479 0.44145262 0.30271235 -0.22946773 0.12064593 0.23307833 -0.4485344 0.018208083 0.111422256 0.20092478 -0.26923352 0.33943534 -0.1390441 0.13560137 -0.4440171 0.48763105 0.21669897 0.110818766 -0.24416856 -0.1341897 0.5418194 -0.16101928 0.060493067 0.032047216 -0.12990046 -0.22214141 -0.30072948 0.6018663 0.21973361 0.4109114 0.3472652 0.1799895 0.35873166 -0.5532347 -0.54276377 0.033444837 -0.15654635 0.48891908 0.0015679322 0.0070069004 -0.15532584 0.2740655 0.26491222 -0.3052084 0.111092135 0.08523801 -0.67724186 -0.24056117 0.1961454 0.4875629 0.15713236 -0.27952558 0.17973508 -0.18907298 -0.31459254 0.16215082 0.20242228 -0.28872997 0.24393827 -0.003352448 0.22996226 -0.021494972 -0.21560334 -0.23714404 -0.20224705 -0.3918222 0.23228262 0.35988176 0.30834058 0.4780283 -0.02624142 -0.34373537 0.0111722285 -0.4835755 0.18241556 -0.40956637 -0.07760272 -0.29224804 0.6777335 0.19863038 0.2891433 -0.1624864 0.22637185 0.34147143 0.13243012 -0.061426513 0.077166185 0.6417711 -0.26403165 -0.31929043 -0.22327147 -0.23430938 -0.17576748 0.029450448 0.30703864
719 0.11606611 0.060764804 -0.1405328 -0.24606082 -0.39191547 -0.24443129 0.3645958 -0.090030625 0.029358516 -0.07203875 -0.16521782 -0.03259848 -0.39815968 -0.080504864 0.31183955 0.24140152 -0.14081158 0.143955 0.040965617 -0.0016458416 -0.18963152 -0.37794366 -0.17805052 -0.22595361 -0.4109572 0.13133737 0.07503234 0.16920905 -0.09188938 0.12438987 0.23910606 0.12242669 0.2493281 -0.18887967 -0.103448704 -0.10767561 -0.12801532 0.40071234 0.040013988 0.26087105 -0.07675043 -0.071623944 0.16722791 0.1297778 -0.6077954 -0.4517998 -0.004665931 0.05747337 0.17007138 -0.085176416 0.22509067 0.15671995 0.5559807 0.2401994 -0.20298523 0.0067178514 0.24200006 -0.21512897 -0.3255676 -0.25188634 -0.018064337 -0.034786392 0.15717734 0.28949687 -0.05512172 0.063945375 0.39408386 0.12371724 0.008217125 0.22590554 -0.10443463 0.13783126 -0.17025284 0.08533984 0.30210412 -0.016184116 0.32761556 0.13957793 0.23950572 -0.19416265 -0.30390903 -0.1460169 0.34058467 -0.118608326 -0.0838268 0.05266026 0.28696612 -0.0406248 -0.3081276 0.043539856 -0.18361947 -0.029994335 -0.16404915 -0.07691688 0.26052168 0.047703013 0.42595014 0.18214951 0.035597716 0.0031396733 0.32305 0.508871 0.2885197 0.3262705 0.035292294 -0.19602524 0.2834873 0.10569931 -0.43795156 -0.4567019 0.18790618 0.3134788 0.17615005 -0.11204661 -0.7160015 0.3107266 0.38574958 0.018690318 -0.12967661 0.2804549 0.16658509 -0.081224196 -0.36026913 0.6505113 0.68894994 -0.40147978 -0.1784174 0.23961826
718 0.5330243 -0.11102253 -0.048727497 -0.19372223 -0.08149555 0.045329016 0.29419327 -0.407764 -0.11700667 0.03885781 -0.13571976 0.052960802 0.27670583 -0.10453386 -0.23184724 -0.31996626 -0.5106388 0.27162698 0.28510758 -0.13253684 -0.19117782 0.06743926 0.12090854 -0.33740282 0.40562275 0.18630372 0.00034531424 -0.50364095 0.26818585 0.12302088 -0.4514062 -0.38718408 0.23954928 -0.30403808 0.007845721 -0.39746884 0.19111666 0.23328958 -0.08498059 -0.043597944 0.22354215 0.016856244 0.56335443 0.047970206 -0.14536136 0.018136414 0.38368014 -0.17938803 -0.13260882 -0.23926647 0.12113696 -0.03695865 0.0736579 0.20422198 0.26409066 0.0931338 0.013176335 0.21839753 0.2777131 -0.16843942 0.11422906 -0.06680029 -0.22209151 0.49516702 0.066573754 -0.06468033 -0.102948084 -0.1678669 0.059675734 -0.1300744 0.18201594 0.1397804 0.06314032 -0.0858603 0.24420223 -0.3690601 -0.04330761 0.50479555 0.1859201 0.04484811 -0.0731167 0.5242214 0.2526306 0.1198988 -0.10163526 0.057766784 0.15445466 -0.17382766 -0.19509114 0.32530546 -0.14380558 0.19926472 -0.01900813 -0.10950754 -0.18230368 0.163714 0.13080686 0.05261013 -0.25005144 0.0062332256 0.4419523 0.06501447 0.26916933 0.22225128 -0.41442224 -0.25277433 -0.123334065 -0.23695235 -0.14399734 -0.01082803 -0.12401734 0.11902832 0.25233752 0.008683173 -0.06665021 -0.0066098664 0.22712849 0.26061946 0.6757908 0.0024796815 0.04817908 -0.045430347 -0.30875278 0.080352955 -0.0016385047 0.34475496 0.2030223 0.26766416
717 -0.29621977 0.35499546 0.60667 -0.21827358 -0.10669898 -0.41329387 -0.014726729 -0.092967905 -0.1023187 0.2215463 0.22883245 -0.21617773 0.21290308 0.15338878 0.4050888 -0.36529866 -0.37466255 -0.37107038 -0.21881047 -0.07227685 -0.18372416 -0.022895074 -0.048149146 -0.43785498 0.25999266 0.6318928 -0.2230327 -0.2550567 -0.21728072 0.23806062 -0.20295942 0.23714016 -0.1053376 0.026766172 0.28787804 -0.1936268 -0.03691541 0.16350196 0.2904863 -0.23799689 -0.1386987 -0.2419733 0.32891497 0.19618823 0.2691391 0.2864856 -0.010739975 -0.08236563 0.22643273 -0.055690378 -0.3545804 0.021548843 -0.104520656 0.118078604 0.074920006 0.39750442 0.038230974 -0.007472111 -0.26902077 -0.09471091 0.5309596 0.30719727 0.30238676 0.42737672 0.088087276 -0.121520884 -0.10624173 -0.10468764 0.38641328 -0.081348106 0.26019734 0.019586144 0.40042835 0.07941989 0.24609822 -0.049060535 -0.32641965 -0.037188243 0.18167026 -0.0038966036 -0.0035605698 0.19268954 0.44327945 0.18463166 -0.46711692 0.6441395 -0.28945297 -0.19220607 0.42666593 0.26460457 -0.06027737 0.3189633 -0.3114604 0.1781038 0.23009 -0.12928042 0.22078025 0.2399012 0.10951245 0.028585728 0.3598372 0.27697563 0.31980467 -0.5797282 -0.2819778 -0.1282217 0.06264218 -0.37574312 -0.073840745 0.1889596 0.25043646 0.0027180403 0.4031684 0.27753627 0.15007482 0.06941957 0.047210384 0.08091929 -0.26333505 -0.2903345 0.62801313 -0.36936042 -0.47499627 0.04072943 0.17820345 0.051638093 0.16382687 0.07706756
716 -0.45925546 0.043179736 -0.25205204 -0.1672723 -0.44521496 -0.029059537 -0.2683991 -0.77168715 -0.14753984 0.22371495 0.081340864 -0.15013918 0.14556581 -0.4489285 -0.41116118 -0.033884827 -0.3424715 0.31220028 0.21365722 0.055237044 0.24396028 -0.4705677 0.18866694 -0.26559755 0.008485017 -0.14936161 -0.4755702 0.02827417 -0.04469734 -0.19970492 -0.5966277 -0.3055678 -0.018490609 -0.5570437 0.14157513 -0.38450697 -0.15916318 0.014472018 -0.7936763 0.013360631 0.079183415 0.41819152 0.14897653 -0.2970622 -0.31109267 0.04650265 0.067098804 -0.03954554 0.6764301 -0.06373688 0.17669235 -0.19224171 0.6223481 -0.30676454 0.21101715 -0.00060170575 0.434697 0.10416513 0.40573934 -0.10587554 -0.045721084 0.25592354 -0.14706998 0.6845601 -0.48216805 -0.027581388 -0.4672043 -0.033096936 -0.56252104 -0.6100554 0.14287363 -0.04626888 -0.34376246 -0.2903289 0.28468096 -0.5437166 -0.32379845 0.5814696 -0.19127151 -0.11387723 -0.34276244 0.8070618 -0.38914856 0.11474784 0.031272348 -0.45481697 0.11021754 0.29244944 0.1230384 -0.12200367 -0.19592507 -0.08956833 0.08569305 0.22361903 -0.58608705 -0.0906595 0.49670708 0.11084439 -0.053379297 -0.20541261 -0.15235296 0.08803756 -0.03283973 0.29943895 -0.2740715 0.27029407 -0.4580783 -0.40515584 0.160226 -0.25494516 0.11370515 0.067570426 0.023928035 0.46727583 0.057916496 0.001945756 0.8740676 0.5275459 0.66108435 0.30673125 0.35302365 -0.5464616 -0.18070176 -0.16093087 0.038742963 0.34371662 -0.11436693 0.4615956
715 -0.0704272 -0.0007899453 0.044658646 -0.3643182 -0.15321028 0.038214818 0.40582535 -0.0026053374 0.05148651 -0.4271639 0.036398903 -0.317701 0.22852369 -0.12434955 -0.05278127 -0.0043055154 -0.0375285 0.058147717 0.27568868 0.040264804 0.078721546 0.42792135 -0.1461263 -0.3587179 0.2676026 -0.014191891 -0.12577912 0.015931796 0.5870334 0.08498676 -0.2132522 0.02779449 -0.1537415 0.09310641 0.20308977 -0.09900206 -0.1980626 0.28273427 0.045613136 -0.21440491 0.30080384 0.09867837 0.4158964 -0.6842729 -0.08095148 0.1887621 0.4246264 0.07194746 0.11621943 -0.06793484 0.08828027 0.09811833 -0.13932171 -0.38364023 -0.105967015 0.48302245 -0.011590876 -0.2947004 -0.32835346 -0.75830466 0.35483322 0.060785137 -0.63768965 0.1290352 0.057107743 0.28813222 0.19982226 0.11631003 -0.04042912 -0.56608045 0.10746728 -0.023711493 -0.091223374 0.23349522 0.2096524 -0.2505156 -0.112110816 -0.20814814 0.26750824 -0.19639495 -0.5284732 -0.12280659 0.21838543 -0.4043606 0.1251356 -0.34478763 -0.42090404 0.18705574 0.06502302 -0.06631142 0.06293358 -0.32911035 -0.024051704 -0.17468263 0.08519527 0.13061078 0.005303521 0.040159054 0.43244296 0.27801335 0.035596874 0.33335662 -0.124913484 -0.38178623 0.58436644 -0.26625994 -0.50146955 -0.059681952 -0.18214136 -0.3215275 -0.08039603 0.40392128 -0.04355749 0.09762637 0.09889977 0.36919302 -0.026974173 0.07832649 -0.1467733 -0.36451402 0.07550117 0.255234 0.10562653 0.06552368 0.15900882 0.11446543 -0.29516548 -0.014357893
714 -0.492839 -0.068901494 -0.084869504 0.015437562 -0.008502913 -0.047687717 0.12078324 -0.19765972 -0.20019116 -0.1028855 -0.07308121 -0.26486626 0.09280931 0.15477376 -0.04575928 0.05116359 0.094017684 0.12257865 -0.29512548 0.044775926 -0.16310962 0.36548194 -0.14264868 -0.002848692 0.014239447 0.22042574 0.029378312 0.023248166 0.097161345 -0.1197756 -0.013326603 0.26935208 -0.0809393 0.00778847 -0.06492712 -0.39385408 -0.19104639 0.1867787 -0.29235435 0.20639125 0.14397362 0.26511586 -0.10979565 -0.10780549 0.002400156 -0.086087935 0.034739558 -0.14601566 -0.17985888 -0.07181398 0.47537553 0.19335769 -0.14651968 -0.077368826 -0.09484125 0.38470975 0.11746387 -0.2697615 -0.1332621 -0.16827406 0.15789439 0.18090822 0.017933354 0.048281174 -0.78234684 -0.5522848 0.3322865 -0.18327452 0.09271464 0.35551873 0.17771281 -0.18535574 -0.1244553 -0.20450972 -0.40334633 -0.22409959 -0.00030565992 -0.23549567 0.35516563 -0.38105604 0.0010160736 0.3933989 -0.04578103 0.11810224 -0.3453682 0.45816398 0.13092473 0.034587555 0.07768074 -0.10119045 -0.14071353 -0.077124305 0.008232385 0.0036192094 -0.18541966 -0.06865267 0.21415427 0.2811903 -0.36989817 0.09838717 0.0063504702 -0.2782862 0.3569092 0.37375298 0.38745117 0.008519789 -0.063044265 -0.42566994 -0.09720286 0.16492428 0.19925007 0.18214193 0.18888876 -0.19008169 -0.24077193 0.13396166 0.29004028 0.024489768 -0.17807092 -0.18696454 0.25004438 -0.100555845 -0.012133312 -0.12819731 0.3197034 -0.0613255 0.03270593 -0.36931148
713 0.11379185 0.28023958 0.12751868 0.16324782 0.2466775 -0.116451144 0.17872444 0.04598503 0.012125786 -0.27259788 0.36128315 -0.12179017 -0.07036621 0.34480318 0.64887977 0.21597251 -0.13965683 0.22788094 -0.07366788 0.0048902906 -0.23567754 -0.056313436 -0.08768664 0.14582978 0.07732481 -0.06838541 -0.52224547 -0.0015657372 0.0050404714 -0.37020344 -0.41023076 -0.019462744 -0.1508602 0.17146164 0.40963614 -0.6370396 -0.13907884 0.49267238 -0.12687063 0.19206315 0.48545766 0.012657421 0.27231872 -0.5082571 0.19069047 0.115878426 0.20859425 0.024082085 0.053859595 -0.23075087 0.5773186 -0.1928347 -0.13017282 0.21957666 0.01089435 0.06464934 -0.23687342 -0.2522788 -0.040259458 -0.70220244 0.36624843 0.00632732 -0.13561483 0.012111644 -0.124791734 -0.06730124 -0.512176 -0.01781047 -0.2433026 -0.5131924 0.06398978 0.2695121 -0.14336286 -0.16102862 0.088151306 -0.26328662 0.18576269 0.20294735 -0.2535961 0.00079897797 0.17529619 0.06193 0.11201808 -0.1884139 0.040418006 -0.24378164 -0.17002192 0.3482868 0.035427477 -0.022983134 0.23771276 0.09112991 0.06207871 -0.018801851 -0.20375893 0.19020917 0.10976242 -0.06462444 0.09619814 0.034582265 -0.06281365 -0.097964644 0.4798217 -0.109289594 -0.22041558 0.05564249 -0.2117972 0.3053042 -0.09938271 -0.054951373 0.10882175 0.19920573 -0.04212936 -0.21388315 -0.0459724 0.50160867 0.033582024 0.070995755 0.088956594 -0.24227075 0.021674706 -0.07862349 -0.09232967 0.36352625 0.21206035 0.1804575 -0.22789514 0.14742374
712 0.04185295 0.35215065 -0.028616264 0.18167797 -0.21060807 -0.3160421 -0.1254237 -0.10122976 0.112841696 0.3704277 0.047488574 -0.45002112 -0.5006394 -0.33665144 0.05751254 -0.24544184 -0.13817802 0.16544688 0.43283558 -0.022039805 -0.35297623 0.048566565 -0.42762268 -0.16598828 0.29221144 -0.11956972 0.27553928 0.13719785 0.31902078 0.007196047 -0.053855352 0.017009327 -0.034698702 0.5085975 -0.3588143 -0.3130412 -0.6037065 0.3423851 0.017216178 0.0429792 0.39125997 -0.35976288 0.57810545 -0.12834911 0.04860941 -0.010665679 -0.13577345 -0.45922765 -0.1502364 -0.41528404 0.36304682 0.3415093 0.0134865735 -0.30082765 -0.34736946 0.36455035 0.22452974 -0.1888373 0.099663116 -0.30110753 0.41525614 -0.15192235 0.42824608 0.15921581 -0.111419305 -0.15723157 -0.04770202 0.25597677 0.214616 0.019762479 -0.10828903 0.20053852 -0.16044766 -0.02594079 -0.51153487 -0.4884809 -0.51072633 0.52514875 0.576009 -0.09545749 0.08153559 0.2609936 -0.05830667 0.02784248 -0.4727947 -0.41697115 0.46041787 0.48550767 0.052558176 -0.19839852 0.27740508 -0.06226584 -0.13112125 0.12253146 -0.13421452 -0.43992677 0.48134217 0.3077169 0.21704322 0.14957629 -0.09955075 0.18224734 0.827231 -0.058251794 -0.28975368 0.054780908 -0.023973268 -0.2858518 0.52381897 -0.16497731 -0.29674193 0.25919753 -0.03427538 0.29269788 0.3082889 -0.013420597 0.14647102 0.14267422 0.36934263 -0.17330882 -0.0898207 -0.059234314 -0.013178817 0.15326443 0.29625538 -0.060622033 0.2742585 0.62142044
711 0.3232958 0.20678864 0.6116452 0.016058698 -0.4670613 -0.4367587 0.1165923 -0.39841324 0.07784211 -0.28767747 0.5755571 -0.8370453 0.37523243 -0.77372795 0.41752163 0.13190927 -0.45077053 0.44139108 -0.043891683 -0.48234358 -0.38819796 -0.6005599 -0.2352622 -0.48518923 0.6034371 0.4836463 0.034075 -0.64250326 0.70526874 -0.062959306 -0.48413068 -0.600026 0.44253677 -0.16351183 0.8269016 -0.18508855 -0.34132636 0.18202941 -0.10473353 0.25438777 0.14304894 0.07692063 0.45213306 -0.37374184 -0.49875215 0.16393968 0.4998166 -0.28336906 0.5264464 0.32557487 0.58799326 -0.2960654 0.9275543 0.19206506 -0.378486 0.41647932 0.40991655 -0.9750192 0.41443723 -0.77073145 0.8844009 1.1246119 -0.13705492 0.600534 -0.63318735 -0.46821195 -0.13734862 0.49617112 0.8872829 -0.22079937 1.0925049 0.55084634 0.13470837 0.36652476 -0.54621285 -0.53077227 -0.32144576 0.90505546 0.56721175 -0.6048124 -0.2677278 0.3002966 -0.12135695 0.13466883 -1.1316173 0.32070625 0.2059438 -0.113670826 -0.6472807 0.14079888 -0.13112438 -0.16439264 -0.6888625 0.40492567 -0.9042127 -0.17867103 0.3424317 0.18420102 -0.19239935 0.6951243 0.29863897 0.4060831 0.6084692 0.5566883 0.053566717 -0.15337001 -0.17451456 -0.20911933 -1.138398 -0.24140723 0.12728612 0.63498336 0.13413504 0.5394996 -0.6560928 0.41074026 0.580128 0.78071046 0.1802471 -0.34061515 0.9648094 -0.17134762 -0.33516327 0.6182941 0.56102556 0.16920201 -1.0661261 0.15034412
710 -0.035607483 0.5191487 0.04005787 -0.18711425 -0.091374375 0.15964016 -0.00888256 0.29715797 0.06994758 -0.3037727 0.22133102 -0.12519027 0.110384196 0.4542004 0.38420808 0.0010728651 -0.11726896 0.06952192 0.12539431 -0.25589153 -0.02589906 0.1701271 -0.30565313 0.12212056 0.20258476 -0.3318263 -0.30991575 0.025092553 0.5161557 0.4058176 -0.5311116 -0.26049307 0.12959926 0.12477641 0.32825792 -0.3561521 0.2795499 0.60027844 -0.067385405 0.1893858 0.37489215 0.3139403 0.19626276 -0.13281538 -0.097706355 0.27153406 0.07206444 0.12090964 -0.2003679 -0.09831822 0.41728815 -0.22610065 0.20475668 0.08278958 -0.07509708 0.13519649 -0.33635417 0.026530778 -0.24187474 0.026790557 0.27408016 0.016230565 -0.09461928 -0.40233293 -0.42886835 0.22248061 -0.30806708 -0.09040634 -0.01196243 -0.1987901 0.31781957 0.22172686 0.12666887 0.21988836 0.20006615 -0.07597695 0.07599338 0.1676867 -0.35979456 0.19581619 0.045246053 -0.17445496 -0.011123156 0.029740592 -0.12849541 0.30068025 -0.08647026 0.2065433 -0.16959138 0.0318811 0.5551824 -0.106457 -0.04567259 0.013882588 -0.22076246 0.04623593 -0.08494647 0.10724566 -0.19658042 0.3559142 -0.13330439 -0.588937 0.27492738 0.00083789846 0.04397461 0.34987703 0.069487154 0.023722947 -0.020388084 0.045030687 -0.070910014 0.3706462 0.13225283 0.0113330195 -0.073769175 0.28732428 -0.1822054 -0.008220913 0.043595105 0.01456144 -0.047265004 -0.39597738 0.050537467 0.36974707 0.15730488 0.009034273 -0.53269005 0.018317634
421 0.21016976 0.2440965 0.058525495 0.08794424 -0.15771295 -0.29981077 -0.12668586 0.05333979 0.42291003 -0.2057649 0.0760519 0.094891064 -0.11963822 0.029334191 0.17600866 0.07967425 -0.25421014 -0.05665958 0.14115363 -0.45942798 -0.14315808 0.23289575 0.20582005 -0.13854253 0.07283588 -0.031003593 -0.4303542 -0.2881134 -0.5069568 -0.22771223 -0.030907823 0.14752014 0.07866158 0.15890269 -0.1503689 -0.052493487 0.042455122 0.0080084745 -0.0364679 -0.0069419714 0.067795 0.11778584 0.061291013 0.2761317 0.059478097 0.014942499 0.16412202 0.14004962 -0.12130978 0.051029354 0.20525037 -0.25363705 -0.09690456 0.13904652 -0.2577825 0.015260046 0.17358933 -0.1559236 -0.18503805 -0.08958267 0.24005164 0.22972783 0.09258134 0.261924 -0.10902887 0.011586085 -0.16790849 0.026624355 0.10076234 -0.07387772 0.082944594 0.31108293 0.15448304 0.23294029 -0.35853255 -0.07388551 0.20433967 0.07633921 0.46678922 0.08193262 -0.15320103 0.4829715 -0.48340243 0.0019028031 -0.27330148 0.31029305 0.17239659 0.020066263 -0.21186729 0.14196472 0.23843923 -0.15223056 0.15796322 0.23940237 -0.46269044 -0.09289433 0.3527908 0.12103617 0.25397438 0.43933585 0.074765846 0.38540763 -0.06538052 -0.09280971 0.32693344 -0.25323382 0.10333048 -0.41439816 0.012916524 -0.2786492 -0.26739675 0.18469243 0.08544855 0.17292374 0.055789877 -0.011547504 0.27529925 -0.19646718 0.36838824 0.09999097 -0.20225672 -0.07958423 0.24144584 -0.097341515 -0.013083124 0.3908172 -0.5566884 0.10893823
129 -0.22063573 -0.020806134 -0.06711016 -0.16976333 -0.08086739 -0.26332873 -0.20432802 -0.062156506 0.17678137 0.13982643 0.09500334 -0.15180334 0.03345701 0.121275686 0.091774166 0.013992317 -0.3754683 -0.1224566 0.004923791 -0.276713 0.02913787 -0.22838491 0.0539566 0.0056047873 0.0015335315 -0.103043005 -0.055304814 0.0030036354 0.020690454 -0.0803665 0.033951607 -0.08231962 0.3242544 0.18107885 0.039952 0.03257926 -0.19323684 0.38487238 -0.22124918 0.26048246 -0.102718495 0.22736575 0.0023573376 -0.24287929 -0.27417043 -0.07988273 -0.057000134 -0.08306837 0.063231595 -0.095461175 0.005587507 0.07510361 0.019887581 0.041016497 -0.19827393 0.29680866 0.2866247 -0.3195506 0.29470992 0.1372288 0.074511535 0.27493837 0.017783878 -0.024657244 -0.05050708 -0.18006697 -0.03757469 0.026094653 0.21589494 -0.18039908 0.14704093 0.0263706 0.10395047 0.014611732 -0.039427817 -0.009161903 -0.1771356 0.070766546 0.2477053 -0.1690073 -0.08416197 -0.07234285 -0.15034471 0.14228186 -0.15858433 -0.067970365 0.07978406 0.02490999 -0.10700546 0.0044363164 -0.25446057 -0.08260231 0.19972993 -0.10435368 -0.2757986 0.069982015 0.18419234 0.040545817 0.12101454 0.15455626 0.23498008 -0.04705887 0.0009105163 0.22765474 0.106978305 -0.30700493 -0.11142562 -0.17225313 0.015208775 0.10356624 -0.13050286 0.2666806 -0.024285253 0.12901898 0.13460231 0.012846653 0.10081834 0.060319785 0.06811582 -0.45123717 0.083483286 -0.20787844 -0.10639665 0.30521968 0.064455844 0.07656205 0.038899288 -0.23775555
420 0.10084398 -0.06382374 0.010201216 -0.025121372 -0.051751103 -0.016532423 0.15577634 0.21967329 0.2351802 0.03664137 -0.13073629 -0.051839676 0.046146747 -0.1770568 0.091086954 -0.009109512 -0.057566382 0.13466893 -0.3863386 0.035420414 0.03598814 -0.17289652 0.11786062 0.28197864 0.27791783 0.020542938 -0.012686807 -0.3296195 0.34207848 -0.103994355 0.03355345 0.08958279 -0.011449546 -0.08339438 0.22255328 -0.23158967 0.36133066 0.046240646 -0.18583143 0.09282222 -0.11004732 -0.05718446 0.10079946 -0.043459482 -0.23532376 -0.04799431 0.0890007 -0.0147283105 0.17886344 0.18097869 0.2613086 -0.0032694961 -0.044185355 0.13186723 0.28366444 0.2021257 0.13675287 -0.45988262 -0.12394804 -0.18784164 0.14110903 0.13862637 -0.30199367 -0.022576472 0.08399393 -0.079037406 0.021950934 0.09629011 -0.12963527 0.016020235 0.14415647 -0.13788866 0.20412734 -0.047833797 -0.38829702 -0.22555019 0.10734881 0.22608824 -0.03643601 -0.083119504 -0.18251844 0.28329387 0.12867354 -0.14065583 -0.06067499 -0.1076422 0.11874647 -0.0075700902 -0.23350535 0.23588215 -0.09344723 0.0066282903 -0.2645003 0.44648194 -0.10541279 -0.2006864 0.102087036 -0.14766781 0.01090333 -0.12907101 0.18778601 -0.14369288 0.2200515 0.017045375 0.08866818 -0.17205459 -0.10589506 0.23026815 0.13039197 0.053536475 -0.06976991 0.12437285 0.00171462 -0.00024876877 0.09896511 0.12646307 0.3349016 0.052458964 0.2968856 0.029509265 -0.022784518 -0.2524224 0.0821465 0.04551521 0.4045696 0.096556135 -0.28748482 -0.039382223
423 -0.22769427 0.041584365 -0.21377371 0.0075652627 -0.14754133 -0.22150795 -0.14486238 -0.4567242 0.020747768 -0.0019101726 0.35344815 -0.38884073 -0.0745074 -0.4031634 -0.0068685277 -0.27262342 -0.06463674 -0.1458585 0.05249548 -0.030466663 -0.14584039 -0.084464476 0.119355105 -0.056915265 -0.18792698 -0.18771826 -0.108414985 -0.17980453 0.3548559 -0.0040142946 -0.06338932 -0.2463493 0.20386063 -0.12270438 0.04014193 -0.32453197 0.11095167 0.3105182 -0.011241775 0.05367714 -0.27840322 0.13048953 -0.07695673 -0.60850406 -0.111253984 0.2651898 0.37084022 -0.5878849 -0.31289992 0.1990737 -0.20262986 -0.21110281 -0.12989241 -0.31929708 0.25430173 -0.14964297 0.0764734 -0.10628368 -0.033200532 -0.14622329 0.22906141 0.029846692 -0.0315238 0.054215033 0.075165324 0.12058443 0.122158445 0.50570625 0.1719981 -0.21149458 0.009961045 -0.21950112 0.25083184 0.24437456 -0.16447757 -0.092665456 -0.16966099 0.042787574 0.27397776 -0.10721079 0.007664821 0.025419649 -0.121732205 -0.25439143 -0.05894742 0.12058041 0.14372781 0.024962092 0.01598403 -0.175268 -0.22167322 -0.046933662 0.074197285 -0.18302576 -0.29709235 -0.29436228 0.14109638 0.098044075 -0.28829893 0.35085335 0.051722705 -0.043381933 0.02198627 -0.15328573 -0.14678577 0.28224325 -0.14031465 0.124508716 -0.05669004 0.05596121 0.17298378 0.17069907 -0.06403192 -0.10675885 -0.15656167 0.06603586 0.33804393 0.02554921 -0.013791525 -0.11113725 0.22032854 0.035199773 -0.16385779 0.42731673 -0.00830116 0.22846009 -0.1421692 0.1672178
422 -0.019642707 0.21206704 0.22779612 -0.10227377 0.020500926 0.02717324 -0.019172726 0.18150164 -0.34898457 -0.1505922 0.094453886 0.16724978 0.4031525 0.30675465 0.13639015 -0.122137256 -0.05858205 -0.09723994 -0.21843654 -0.28314948 -0.41826373 -0.23324624 0.26506177 -0.10707067 0.21468212 0.050509963 -0.0069414205 0.14030148 0.11886133 0.04541136 0.04487725 -0.018154224 -0.062645964 0.25404707 -0.050281238 -0.032460432 -0.06436167 -0.12875946 0.014151391 -0.07004886 0.13461627 0.15403825 -0.093019836 -0.33556843 -0.021544479 -0.003952575 0.41377622 0.10939131 -0.036170054 -0.015024821 0.4961452 -0.05959543 0.0010614176 -0.08267314 0.34942213 0.025079614 -0.015736118 -0.23375583 -0.15228356 -0.10973058 0.09356947 -0.06487291 -0.05643372 -0.16017197 -0.05735686 0.06654547 0.29956064 -0.2149396 0.48155168 0.11651174 0.09706479 -0.22369783 0.39022478 0.24595308 -0.106906444 0.03455778 0.054132562 -0.029230634 0.41604617 -0.201609 0.0109008765 -0.0732721 -0.06497814 -0.087983325 -0.117004365 0.3574426 -0.08833236 0.1070691 -0.02074909 -0.11580594 0.23840214 0.002137337 -0.063467845 0.48092628 -0.27478027 -0.2575308 -0.014502541 0.4199534 0.18155783 0.3325495 0.13990547 0.2565091 0.05652067 -0.0038506591 -0.089895464 -0.011125265 -0.10665994 -0.40223205 -0.09988686 -0.35345912 -0.25888857 0.11788442 -0.013389402 -0.120898485 0.10841835 0.016703445 0.26225376 0.08093071 0.18757723 0.011396848 0.2783034 0.18303184 0.17694095 -0.03663245 0.30643976 0.072218 -0.25818393 0.033367112
425 -0.09549569 -0.3166049 -0.00045095326 0.27257913 -0.15935712 -0.3631552 0.23111378 0.079563975 -0.07319641 -0.05428702 0.02750387 -0.48745552 -0.13577825 0.06403468 0.4276248 0.38315886 0.011135044 0.100412555 -0.36679372 -0.28503487 -0.23806833 0.09253368 -0.2894027 -0.3100501 -0.11381515 -0.31762627 0.02573581 0.12309142 0.44962925 -0.26375362 0.49889883 -0.2472632 0.2540668 0.2183377 0.08993338 -0.2204244 -0.15641333 0.48011544 -0.39817005 0.05123962 0.33367378 0.046892513 -0.0079933265 -0.070366815 0.027007807 -0.019885583 0.098936334 -0.21266529 -0.12126023 -0.15238193 0.23840727 0.007286989 -0.019064527 -0.0802323 -0.17506044 0.11452872 -0.12545192 0.0085155135 -0.19807746 0.07735966 0.23093735 0.29231876 0.15940152 0.12072987 -0.14550881 -0.3179055 0.28497502 -0.0076888334 0.19466455 0.1588544 -0.10775595 0.21339478 -0.24471615 0.014229031 -0.39360893 0.13360621 -0.10785659 0.1332155 0.019390682 -0.51536804 -0.012278664 0.38084394 0.09823274 0.006690045 -0.010156591 0.024524195 0.107744396 -0.1327069 0.085803404 0.05761294 -0.10049303 -0.16915557 0.027531004 0.11864025 0.18977782 -0.41064912 0.45514965 0.24674486 -0.06880456 0.17038244 -0.013319233 -0.18424644 0.40181452 0.35760468 0.32410958 -0.2090188 -0.49713424 -0.5067077 0.28914794 -0.018385036 -0.34284028 0.36006933 0.19947815 0.53656137 0.16877599 -0.048008896 0.13856187 0.25611374 0.016820328 -0.0047862986 0.31485802 -0.24958362 -0.14894201 0.060499042 0.24413392 0.10837304 -0.047448374 0.108055316
619 -0.57086325 -0.4163056 -0.05643331 -0.46421432 0.016370846 0.17920637 0.0121192215 -0.23453432 -0.06802678 -0.25521126 0.13125576 0.08974289 0.038804382 -0.07980762 -0.3283694 -0.32087478 -0.19832923 0.4288087 0.045702677 0.23208885 -0.20507629 -0.38545495 0.25485882 -0.5490215 0.13530798 0.049836792 -0.0047468254 0.004878882 0.007963633 -0.30897236 -0.50695217 -0.15112518 0.21327987 -0.0019204138 0.29901856 -0.17771943 -0.14416985 0.10451195 -0.33066404 -0.18745378 -0.1407316 0.14761281 0.19804868 -0.23446861 0.6393328 0.16123305 0.22184391 0.16591917 0.3754002 -0.038904198 -0.14722197 -0.5562206 0.20404516 0.0041768695 0.042672526 0.20431982 0.19549157 0.43811113 -0.20342998 0.029304236 0.17611954 0.45169577 -0.41019842 0.19859134 0.267941 -0.34848663 -0.33231828 -0.11371133 -0.3138316 -0.44961977 0.23319611 0.14299172 0.1325309 0.25762266 -0.082765795 -0.08984147 -0.23808295 0.20354667 0.21039835 0.07237184 -0.17673923 -0.22888367 -0.1986702 0.20374691 -0.10240565 0.02894548 -0.28057078 0.097983725 -0.27922457 0.26700553 -0.3489943 0.30737153 -0.3219709 0.105296604 -0.25288343 -0.31929362 -0.058740523 -0.08697627 -0.19901527 -0.0147476895 0.23717196 -0.08519466 -0.04680311 0.2022297 -0.12699556 -0.031086037 -0.22489174 0.15639137 -0.133742 -0.24534376 -0.25390363 0.41301686 -0.085498825 0.33926758 0.09485508 -0.109300755 0.2423951 0.6917473 0.17826413 0.13203803 0.08877154 -0.17085868 -0.058838677 0.39772788 0.076318406 0.05389276 -0.01113529 0.33503586
424 0.13305171 0.08489969 0.11546872 -0.15883821 -0.2406238 -0.055664103 0.14595266 -0.08134104 0.10414532 -0.15745293 0.09829993 -0.24661605 0.323591 0.043236166 0.022845535 0.10599454 0.07773041 0.2903104 -0.30159968 0.18121934 0.08065922 -0.15407927 0.13737868 0.01608682 0.32568434 -0.17463236 -0.06635449 0.00998419 0.11435171 -0.19845188 -0.04428358 -0.052939046 0.016256506 0.070931375 -0.006489231 -0.21360566 -0.09715322 0.07231103 0.15845208 -0.004945035 -0.040604603 0.19197541 0.07934078 -0.2904582 -0.07235526 -0.02280946 0.046334356 -0.018847635 0.004686053 -0.022986805 0.077041686 -0.022670772 0.05238547 0.14604303 0.083238885 0.120340936 -0.13665639 -0.29520255 0.081908084 -0.0077903927 0.33082458 -0.020652814 -0.024980454 -0.006991251 -0.063643366 -0.27523255 -0.11610893 0.10861936 0.050509583 0.04212616 0.090351865 -0.13787577 0.020251691 -0.1278857 -0.45519873 -0.238505 -0.27138487 0.43467072 0.049088363 0.23184098 -0.07614209 -0.13064528 -0.082512155 -0.18123227 0.20886685 0.017068775 0.1507969 0.03132155 0.06995124 -0.121832 -0.21382602 -0.09669564 -0.065294445 0.31691352 0.08869489 -0.052467022 0.30048656 0.08790053 -0.0387029 0.034057315 0.2414174 0.2876015 0.047172416 -0.06923505 -0.24063997 -0.03375551 -0.05636987 0.189305 -0.35530943 -0.035261106 0.005840278 0.30425343 -0.13039024 0.32513863 0.258436 0.15248922 -0.114091314 0.026895883 0.083450206 -0.06239846 -0.024893688 0.09089156 -0.07613085 0.14769131 -0.0039446517 0.080936134 -0.15318473 -0.04271119
427 -0.06881729 -0.21135956 0.058712795 0.030512363 0.013900424 -0.12605864 -0.25515127 0.05831589 -0.03573579 -0.34497654 0.3440481 -0.16292824 0.10331541 -0.15483117 0.34030437 -0.27028087 -0.03538207 0.027754512 0.25470656 0.024726916 -0.32847992 -0.052311186 0.1638178 0.30173966 0.1898756 -0.084845476 -0.20756501 0.10660528 0.036404062 -0.15561572 -0.16095564 -0.07960263 0.14731309 0.1163215 0.040968675 0.02704512 -0.3207605 0.10324358 -0.38072217 0.19409843 -0.20109811 0.28836203 -0.21444587 -0.056190632 -0.014239223 0.059184983 -0.012209876 -0.12807424 0.024718149 0.07381377 0.18926953 0.34482732 0.06714947 -0.043042343 0.24353294 0.15418789 0.11528775 -0.28201336 0.19686006 -0.0035762598 0.5247172 -0.1364604 -0.14841568 0.21006908 -0.08257401 -0.035056587 -0.024605935 -0.29398277 0.24184705 0.009062628 0.11181339 -0.25033417 0.13913193 0.3498366 -0.008931038 -0.37847936 -0.07238139 0.007792289 0.07318084 0.0011080792 -0.051821835 -0.18308973 -0.0001630295 0.16763192 -0.0074426136 0.29112557 0.1024529 0.19762836 -0.100626014 -0.28234404 0.13242172 -0.18100579 0.14356618 0.0062032137 -0.41687945 0.098092996 -0.022645837 -0.015299635 -0.23692292 -0.09640642 0.17504968 -0.020929191 0.09937562 -0.33788204 0.07056795 -0.13038851 0.09228193 -0.09323006 -0.3438784 -0.36148617 -0.2203781 0.087238304 0.2352088 -0.23788977 -0.105397336 0.03924121 0.25717658 -0.07911284 0.16637224 0.104713835 0.44849366 0.275448 -0.027067365 0.30503106 -0.001992671 -0.018680355 -0.15954268 0.12977313
298 -0.05817557 0.313822 -0.05992639 -0.053270698 -0.039516095 -0.0926388 -0.29768962 0.13295698 -0.21862206 0.07362475 -0.065529674 -0.079726 0.20705976 -0.0011128188 0.19152676 -0.4208528 0.116185226 -0.049714778 0.17040269 0.024219695 -0.4424408 0.20719393 -0.1534872 0.20018564 0.27854225 0.16153443 -0.4498381 -0.118533224 -0.14620028 0.2359796 0.22861597 -0.15232864 0.4757695 0.12946327 -0.0069155144 -0.061197028 -0.18497357 0.020736186 -0.3424249 0.23725004 0.27837044 -0.21321417 0.31832004 0.1424555 0.124817185 0.2625905 0.20308357 -0.12737605 0.10786036 0.37426764 0.72002864 -0.16696166 0.10569249 -0.19977212 -0.034184586 0.40180606 -0.23085453 0.2994221 -0.020828035 -0.5271108 0.46531323 0.14642863 0.1293055 -0.067596324 -0.029557513 0.2071036 0.30092597 0.24033774 0.29912245 -0.23389918 -0.06911879 0.12902966 0.5201723 0.041528746 0.05097996 0.10667288 -0.12181712 0.12420777 -0.17309417 0.3396237 -0.3012307 -0.110253446 0.13793555 -0.28634357 0.1207718 0.07311364 0.39286402 -0.26047853 -0.05948043 0.15600415 0.27618575 0.19819279 0.07385405 0.15997897 -0.45041552 -0.39066574 -0.1541529 -0.4949082 0.1626124 0.49616203 0.027915332 0.084263906 0.110685885 0.27761203 0.30960706 0.07539783 -0.1348658 -0.06947855 -0.10601746 0.11841331 -0.10073363 0.11956591 0.24216104 0.06831651 0.15530683 0.6268605 -0.21114987 0.31726795 0.078329824 -0.3045334 0.19265807 -0.3523829 -0.21958722 0.20300995 0.329045 0.20228714 -0.37110832 -0.16437353
299 0.09151454 0.36294416 0.014736928 -0.03376498 0.41414434 -0.08900983 0.25239483 0.22670326 -0.0420932 -0.047935102 -0.03871917 -0.07297738 0.07345445 0.020336242 0.2691899 -0.22711447 -0.023974705 0.16992298 0.22835733 0.19833276 -0.44246182 -0.0067575364 -0.16055368 0.30961764 -0.4377278 -0.2410794 -0.25308672 -0.16392064 -0.03912908 0.12230026 0.36062822 -0.05483514 0.039436135 -0.13675115 0.1397938 -0.25479868 0.10407778 -0.059345335 -0.2544916 0.6611005 -0.06929032 -0.21292421 0.49388754 0.06919834 0.2609418 0.58700556 0.16165031 -0.19490422 -0.15845416 0.108266495 0.5149972 -0.09736241 0.44168192 -0.03647794 -0.050179828 0.38411114 -0.18890585 -0.47096908 -0.105924785 -0.25373006 0.4906093 0.22758402 -0.11085918 0.06483398 -0.27382728 0.11294725 -0.1791418 -0.04098629 0.06196515 -0.426855 0.08336131 0.24803486 0.5165204 0.049425695 0.22401771 0.06546751 0.23266196 0.1537756 -0.18299335 0.23636076 -0.3472757 0.2043069 0.06391415 0.0637343 0.121241674 0.4250116 -0.1609516 0.24044728 -0.25745875 -0.32977036 0.20769802 -0.12508634 0.10726348 0.23281132 -0.13811497 0.042117886 -0.09716864 0.07699599 -0.16023216 0.29768813 -0.077457204 -0.30556372 0.21996774 0.1522113 -0.20008044 0.21432462 0.050406087 -0.16086622 -0.34445056 0.40278888 0.061953697 -0.04228558 -0.08334864 0.029180722 -0.034041826 0.24002472 -0.010993549 0.007046771 -0.31810623 -0.31133357 0.10173853 -0.30929253 0.08564364 0.34052545 0.40856534 0.2731294 -0.5964315 -0.14344658
296 0.11034891 0.25060943 0.06902126 -0.26548153 -0.03646184 -0.20878845 0.05616686 0.14346997 0.05389554 -0.2046314 -0.19263421 -0.100898616 -0.100800656 0.026887454 0.25433335 0.1456367 -0.177356 -0.10654077 0.094660655 -0.11448143 0.006133412 -0.40381512 0.059605345 -0.09176753 0.13671292 0.33818656 0.0005701516 -0.20422645 0.32076955 0.17749198 0.1436081 -0.3549616 0.04667815 0.16353321 0.23717505 -0.14553192 -0.11474132 0.014054189 -0.10210985 0.2110906 -0.06702564 -0.09891539 0.011837617 -0.025333442 0.006726699 -0.08414319 0.108883455 -0.07718011 0.028466906 0.047400612 0.19826981 0.24581878 0.56722605 0.22279215 0.14528246 0.25569272 0.2686255 0.039765745 -0.13804156 -0.144868 0.03966104 -0.15173449 0.018419962 -0.08403896 -0.1276332 -0.06225552 0.015419137 0.07294539 -0.26035988 0.1023473 0.15819797 0.33436856 -0.0044641336 0.05869 0.0295776 0.16239282 -0.17987195 0.223079 0.073733084 -0.21970537 -0.44296294 -0.08467113 -0.07679331 0.15841365 -0.14460172 0.08006306 0.03393164 0.01785293 -0.26215708 0.09401426 -0.032243785 0.022101354 -0.12858492 0.084322676 -0.033104252 -0.11334902 0.30454785 0.25674674 0.16349848 0.09526338 0.23655224 0.19798833 0.17064525 0.22462285 0.045125544 -0.1972598 0.15052754 0.22617212 0.12768155 -0.30572447 -0.009207903 -0.03607884 0.095943294 -0.11712992 -0.23473196 -0.05347804 -0.100226775 -0.19601479 -0.032885503 0.27052653 0.122365944 -0.0447052 -0.093126945 0.1295238 0.36055827 0.06461888 -0.10758513 -0.12969185
297 -0.3189674 -0.15044518 0.1318943 -0.003916623 0.13654163 -0.1972409 -0.4171872 -0.45759317 0.28987664 -0.28622568 0.14935951 -0.042440478 0.14268589 0.22934185 0.58742124 -0.16802195 -0.5013828 -0.09588577 -0.3953969 -0.14934707 -0.06944797 -0.2889727 0.053819463 -0.0014051882 -0.33066884 0.18387157 -0.18860409 0.101550266 0.0854422 -0.05273113 -0.11192974 0.039988574 0.09117846 -0.3642997 0.6965044 -0.2905513 -0.42289203 -0.079245016 -0.05781947 -0.032785732 -0.124947645 0.24037172 0.09990651 0.04457552 -0.41395637 0.122962594 0.17274109 0.04861473 0.7431716 0.09490133 0.2919864 -0.2950238 0.23551208 0.05847183 0.19031289 0.41005716 -0.47006825 0.15868333 0.17841639 -0.22370449 0.026547885 -0.005712047 0.10084603 -0.13037845 -0.13756673 0.33304977 0.12657435 -0.20798115 -0.037567176 0.22649232 -0.0594022 0.17631842 0.0781477 0.14208253 -0.18598324 -0.36319882 0.026335202 -0.0968624 0.3487225 0.08631167 -0.13595667 0.102339186 -0.023414917 -0.15411678 -0.07427351 -0.29257458 -0.058196165 0.3915663 0.28973433 0.0144618265 0.18943925 -0.17581974 -0.17952116 0.1716577 0.08808023 -0.02738235 0.26286346 0.3734613 -0.4644579 0.112041265 0.12503526 0.054659672 0.3079682 -0.13275018 0.20830874 -0.17003566 -0.08833095 0.06880141 -0.3480675 -0.0764321 0.18831788 -0.028897058 -0.23201178 0.19651058 0.1027902 0.10007801 0.057053685 0.026650557 0.2658922 -0.14727648 -0.14276215 0.20117722 -0.096678056 -0.16737726 0.33569005 -0.013610672 -0.24186403 0.1369923
294 -0.0013597917 0.22138986 0.046703383 0.048545364 -0.48587885 -0.49035475 0.12040608 0.037847232 0.36133972 -0.009201465 0.2515279 -0.08961554 -0.34944746 -0.21511108 -0.06252413 0.36123833 -0.0724795 -0.16642225 -0.1290848 0.14000167 -0.3543822 0.19833961 -0.38812017 -0.25215787 -0.07291154 -0.1487505 0.16757911 -0.046623036 -0.16192944 -0.15799303 0.19677341 -0.38271555 0.2884176 0.26851276 0.21976052 -0.177143 -0.1094249 -0.031023825 -0.46058953 0.152529 0.4153833 -0.31608552 -0.0016042349 -0.26724666 0.16306616 -0.17533709 0.084395535 -0.26466933 0.04477073 -0.05443697 0.04213093 -0.015072048 0.37872967 -0.08180331 0.18626642 -0.014434392 0.11081123 -0.23502414 0.16002052 -0.03272339 -0.03277967 0.057587218 0.13843177 -0.025130482 -0.31521127 -0.19670077 0.18275023 0.32231554 0.46292084 -0.08643776 -0.016198108 -0.05914614 -0.14389957 0.131606 -0.1141426 0.10838886 0.32518554 -0.10549842 0.31996056 -0.38756838 -0.20219292 -0.06831741 -0.14771412 -0.020443814 -0.1380795 0.038875237 -0.023555186 -0.39862254 0.0446808 -0.028343149 0.23695073 -0.4482003 -0.0808894 0.28533 -0.35904768 -0.3896707 0.4066573 -0.09235716 -0.1290893 -0.014651594 0.16689225 -0.23829757 -0.07243246 0.37060025 -0.13963473 -0.1740268 -0.49154574 -0.29433236 -0.25382835 -0.076129764 -0.2761741 0.021600317 -0.15005815 0.45531783 -0.31352323 -0.087287165 0.049476013 0.25582027 0.17117108 -0.14972153 0.071932904 -0.14713322 -0.17501749 0.004005089 0.17707847 -0.16387646 0.08318212 0.09414417
295 0.14467043 0.15499635 0.19829339 -0.0588687 -0.34025177 -0.36069775 -0.19231671 -0.09573999 -0.030430544 0.033570778 -0.23282781 0.074141696 -0.048671428 -0.0142703755 0.13812989 0.062417068 -0.16755502 0.10137674 -0.33236393 -0.15349802 -0.16907436 -0.5621635 -0.3091278 -0.3602595 0.11485355 -0.06823027 -0.21453576 -0.15818743 -0.070092045 0.36417812 -0.2396872 0.017031489 0.42730716 0.28816846 0.07232247 -0.29361036 -0.081390455 0.22929591 0.025096428 0.09968503 -0.21814653 -0.05674736 0.14229187 0.115447134 -0.003665746 0.20124164 -0.14327154 0.15298937 0.21699534 0.09108453 0.08234755 0.049474776 0.2638951 -0.26532802 -0.21472006 0.3271751 0.044259317 -0.10712791 -0.20323046 -0.19340739 0.29402724 -0.016822755 0.072858654 0.1273782 -0.11252447 -0.028947603 -0.041807428 0.35524717 0.12425544 0.030217666 -0.08324343 -0.076396994 0.23019819 0.08713171 -0.24209124 -0.03389047 -0.31985268 0.13002636 0.06622598 -0.27479628 -0.3060435 -0.19796988 0.1271272 0.062217914 -0.49459457 -0.021501312 -0.12816611 -0.079948574 0.16023602 0.38257006 -0.0076686065 -0.30063248 -0.3528203 -0.11709012 0.13790505 0.036002286 0.2599626 0.34824297 0.20646812 -0.12781306 0.34385958 0.08684323 0.37810153 -0.28416386 -0.043280408 -0.20678625 0.12662143 -0.14025603 -0.083294414 0.0391834 0.2573321 -0.29459515 0.14424445 0.017718432 -0.2787079 0.036735304 0.23091283 -0.24011703 0.22644305 -0.10890057 0.10874301 0.08077315 0.24250281 0.157171 -0.03840789 -0.15765034 -0.015272401 0.013817302
292 0.11172593 0.034377635 -0.28125107 -0.2210388 0.007982942 -0.27901882 -0.22231913 -0.08393557 -0.017649624 -0.037811626 0.38588917 -0.34715918 0.13286676 -0.09858369 0.10912108 0.35550663 0.2512464 0.07569556 0.022481386 -0.043903384 -0.0021379974 -0.12326876 -0.24487084 -0.1345949 0.17915264 0.07900877 0.2760745 -0.0058976426 0.06546871 0.14361505 -0.16089553 -0.3879454 0.27683333 0.3642654 0.22944851 -0.07704226 -0.04639102 0.15631555 -0.40438682 0.4003249 -0.36528376 0.32744244 0.1452075 -0.022147518 0.04457205 -0.120047905 0.013845384 -0.40221074 0.002000916 0.047156394 -0.09985838 -0.17713922 0.03665782 0.10901894 -0.17692937 0.0046707415 -0.1406301 -0.047844153 0.13209307 0.1415993 -0.022227652 0.2775499 0.06070153 0.28676045 0.017793778 -0.4234098 0.05887611 0.29026988 0.36870277 0.086690605 0.17150871 -0.049587864 -0.17879365 0.19500677 0.09779752 0.06008947 -0.29531568 -0.040300447 0.3263518 -0.25412634 -0.048513226 0.2594231 0.16125606 0.012305524 -0.0087899715 0.36282304 -0.1844103 0.18354838 0.22505471 0.015404054 0.11119279 -0.23815535 -0.2787645 0.31899777 0.22476895 0.14348714 0.23075934 -0.0045794644 -0.031033099 0.13144064 0.0022833296 0.22293097 0.4488536 0.11927867 0.25100526 0.124538645 -0.0013942892 0.13202672 -0.24788016 -0.20322442 0.09812606 -0.24987854 -0.18144998 0.05393593 -0.18889266 0.026984632 0.2802946 -0.19741227 0.108532354 -0.004584554 0.21103665 0.042583115 -0.17246734 -0.06659282 0.3638084 -0.29001018 -0.05914317 -0.32793513
293 0.15093148 0.22690208 0.122488216 0.12934244 -0.12257479 -0.36980632 -0.36227643 -0.28181732 0.3070341 0.12951232 0.19817676 -0.22517595 -0.030133111 -0.358403 0.14752105 0.078310736 0.09088761 0.23553713 -0.1436849 0.15889142 0.21834055 0.2510887 -0.016453354 -0.29480842 0.52476287 0.29020414 0.17435423 0.16293266 -0.043840088 0.026698098 -0.4184626 -0.20259078 -0.036461562 -0.0130844135 0.25401193 -0.026575563 0.15703075 -0.006780788 -0.120080076 0.44696686 -0.15180296 -0.094384834 -0.036148082 0.08817958 -0.32911026 0.51909983 0.06323995 0.37264347 -0.00080372667 0.15018374 0.16370834 -0.18868212 0.25279167 0.030500513 -0.051108755 0.41325384 0.2221819 -0.051027738 -0.44992736 -0.3364056 0.059721004 0.6122866 0.03875174 0.042512212 0.27391133 -0.18011002 -0.09833025 -0.37787205 0.17630957 0.23781733 0.12572724 0.4820606 0.16604075 -0.3073601 -0.1356019 -0.28464952 0.24321648 -0.02523687 0.034601577 0.052860398 -0.037351545 0.39848086 -0.23958345 -0.42900229 -0.27839413 0.32338575 0.40346226 -0.05649854 -0.27923778 -0.020626452 -0.07090413 0.16418394 -0.008149411 0.27851146 -0.11899811 -0.050595123 0.040316273 -0.1357089 0.12811045 0.18168545 -0.17331241 -0.029545812 -0.060721606 0.20558873 0.16374932 -0.016028386 -0.046251874 -0.24722284 0.2178475 -0.19209059 -0.23869509 0.50826997 -0.19429767 -0.017600808 -0.08530805 -0.15663588 0.25863785 0.007779161 0.22282304 -0.010164835 0.08513191 0.30746913 0.12580276 0.08939828 0.12402978 0.1357559 -0.39648482 0.15997915
290 -0.11997731 0.10685528 0.037881628 -0.14217381 0.05685258 -0.18673202 -0.14455958 0.13110112 0.13180985 -0.056016803 0.45549083 -0.1715895 -0.008322482 0.08452664 0.20264661 -0.055610318 -0.27753305 -0.22554594 -0.39582238 -0.2137108 -0.15433756 -0.08046429 -0.29110244 -0.29085216 0.1516052 0.039512422 0.14784339 0.19113827 0.3276479 -0.2631208 0.30067265 -0.2436056 -0.0271716 -0.15792997 -0.050133374 -0.19312418 0.13965757 0.06372197 0.046198525 0.01851006 -0.08449019 -0.06806495 -0.29291293 -0.15270638 -0.008374097 -0.013649277 -0.31253868 -0.02729015 0.17920104 0.49087408 0.04247185 0.07313797 0.4742502 0.02187476 -0.15955006 0.18766348 -0.09528794 -0.43456554 0.05791412 -0.0034986516 -0.071342394 0.282489 0.1546795 -0.111352354 -0.083872974 -0.1331719 -0.05774609 0.29401225 0.15398948 -0.29338354 -0.088462725 0.04500199 0.07900223 0.20825736 -0.16812664 -0.0567333 -0.21561417 0.17439319 -0.12675068 -0.10276765 -0.15298255 0.0045326664 -0.19525944 0.3199304 0.106500246 0.122407846 -0.026973847 0.028433481 0.093645625 -0.09921747 -0.09203432 -0.18146273 -0.019048728 0.35332125 -0.12570679 0.07624267 0.34541434 -0.008182287 -0.26970336 -0.024549535 -0.06598952 -0.06331075 0.31210983 0.39870578 0.012016382 -0.06620243 -0.21013093 0.11178761 -0.0060222745 -0.15439127 -0.14566797 -0.12915356 0.08064518 -0.029488523 -0.45530516 -0.14941235 0.034694936 0.06777698 0.2185928 -0.068069935 0.051605124 -0.11697468 -0.2328914 0.28946823 0.11216103 0.069233716 -0.080922686 -0.31820506
291 -0.07812627 0.060267873 -0.27068412 -0.1489178 -0.41402784 -0.39907148 0.17428343 -0.1286861 0.29428005 -0.11385471 0.39323184 -0.43085724 -0.05038347 -0.2963399 0.04258652 0.2131789 0.14789279 -0.030634047 -0.60664046 0.22400843 -0.15401605 0.24560839 -0.14756551 -0.29953682 0.06920428 -0.16117714 0.5111372 0.02325173 0.24727066 0.11807213 -0.18619953 -0.042628407 0.061076466 0.33211887 0.17605823 -0.14903632 -0.22767141 -0.037978377 -0.24596813 0.18816169 -0.0019340159 -0.108693026 0.10507246 -0.3605986 0.01981332 -0.11392775 -0.017260972 0.18611993 0.017209403 0.11217844 0.1970772 0.021135269 0.24550447 0.4250777 0.063492216 0.0835219 0.20019454 -0.07838551 0.08482793 0.03924716 0.0965192 0.2507335 -0.008441822 -0.09759553 -0.27791318 -0.47283924 0.024621734 0.23220178 0.25373325 -0.099424765 -0.17268331 0.07301856 -0.017219001 -0.04834763 0.17270651 -0.07010887 0.14459223 0.03382207 -0.05840754 -0.20184104 -0.09232392 0.14644273 -0.08730037 0.011457836 -0.29963556 -0.043050006 -0.34037519 -0.011683184 -0.07093652 -0.0065250057 -0.34982583 -0.3426313 -0.07411373 0.23954642 0.013186132 -0.20079046 0.48864138 0.11485373 -0.05487021 -0.007027216 0.0731872 -0.22356725 -0.09528553 0.17337978 0.10577798 -0.045542043 -0.18264887 -0.21792193 0.012439775 0.02082019 -0.33520177 -0.12079421 0.06401079 0.19418387 -0.22741796 0.0127831055 0.18969864 0.09601191 0.11672508 0.26736528 0.43042958 -0.29151192 -0.034623526 0.12298878 0.17277424 -0.2538708 0.2855449 -0.3698667
591 -0.11735052 -6.830868e-05 -0.40714148 -0.23974732 0.36129773 -0.31730923 0.23388983 -0.030643167 -0.43570754 -0.03202081 0.07824164 -0.466416 0.18564525 -0.12556566 -0.16587691 -0.18889864 0.59807134 0.07065046 0.027963774 -0.23102282 -0.022587925 -0.20925584 -0.1921681 -0.29781637 0.46159458 0.19456996 0.024731087 -0.19976114 -0.017448982 -0.3862298 -0.011600943 0.1972642 0.29567462 0.08799318 -0.00071819563 -0.20544952 -0.52866745 0.82056916 0.12321811 0.12922053 -0.2859946 -0.04689228 0.17516883 -0.29935622 -0.04896536 0.054963157 0.120332114 0.03898829 0.2400081 0.16620812 0.2863151 -0.26322442 0.09592375 -0.008478692 0.23784752 0.088493936 0.07770012 -0.2950039 0.033425312 -0.22796178 0.11338863 -0.19764163 -0.19442293 0.2739054 -0.11933957 -0.09745626 0.062416516 0.13951208 0.021477444 -0.24075207 0.21603115 -0.23428108 0.27260226 -0.16481063 0.28173456 -0.04681966 -0.27664855 0.27021593 0.13281217 0.34392613 -0.34477434 0.06340629 -0.2124015 -0.013892812 -0.23646455 0.50211114 0.05474282 0.045925546 -0.13840394 0.0008314405 -0.01678227 -0.22492984 0.014426426 -0.21275656 0.22736286 -0.06498286 0.20306845 0.12946767 -0.08742963 -0.07203347 -0.4042895 -0.06474552 -0.1404272 -0.01849883 -0.372201 0.096282214 -0.05761322 0.19358313 -0.26441285 -0.045324862 -0.17982717 -0.08621159 0.20560995 0.38961372 -0.2786374 -0.12084655 0.13215101 0.22907673 -0.27850693 0.2165978 0.036369096 -0.31748936 0.12998264 0.06975357 0.15504564 -0.09951723 -0.44965446 -0.25814587
590 -0.10332364 -0.12051818 0.24323699 0.11139706 0.16253558 -0.055897772 -0.118166946 -0.16928166 0.027321016 -0.6371017 0.35752788 0.007896871 0.12309631 -0.115998276 0.01623969 -0.00821584 -0.29340354 -0.0642512 0.08135987 0.16477104 -0.038089775 0.012406585 -0.03631973 0.16603032 -0.058517892 -0.5618055 0.043222394 -0.37965062 0.122318834 0.30583102 0.09731343 0.0046467534 -0.04271259 -0.15467928 0.14842702 -0.25656307 0.064601 0.3198703 -0.417317 0.0572497 -0.29573902 0.2009702 0.17726324 -0.07237643 0.19444442 0.28013644 0.22367427 -0.3832099 -0.17217197 0.4017073 0.26654083 0.15863928 -0.02087761 -0.07519447 -0.18918847 0.078663 -0.24773356 -0.16717365 -0.020671908 0.19776465 0.10976644 0.22549635 0.30107507 0.34789574 -0.4108882 -0.21682581 -0.06636028 0.22506322 0.23469937 -0.24281318 0.020403117 0.22590835 0.11279382 -0.028374791 -0.19850522 -0.24605897 0.03259541 0.22091432 -0.13021983 0.082888894 0.15100719 0.108572386 0.40606833 -0.13020208 0.0060387948 0.33819115 0.22626977 0.23919329 -0.100577936 -0.19683382 0.11423573 -0.1536566 -0.014293715 0.14754356 -0.24071994 -0.040927958 -0.095132135 0.2598344 0.09907081 0.098925196 -0.17752141 0.15605322 0.0052663796 -0.110732764 -0.082503326 0.09680423 0.18911459 -0.22987677 -0.48110902 0.11153639 -0.22905801 -0.25014454 0.053437058 0.11701086 0.08304945 -0.16640475 0.003978114 0.042456113 -0.07907393 0.06035122 0.26359206 -0.34435824 0.101702504 0.34771198 0.13850176 0.30271247 -0.5063888 -0.16636662
593 -0.062645 0.0151511775 -0.15420684 -0.09191434 -0.1350119 -0.120281555 -0.16493097 -0.094887845 0.086405784 0.24174494 0.6585839 0.00017995347 0.0682202 -0.038625013 -0.08971129 0.3915647 0.29587194 0.21064723 -0.08523855 -0.24793482 -0.25388652 -0.10283332 -0.065570496 0.18678892 -0.009831692 0.18572278 0.123775914 -0.6541793 0.07134269 0.038471162 -0.12188619 -0.16612013 0.17537844 0.120847255 0.35856557 -0.37448397 -0.09780795 -0.060201928 -0.123866245 0.23673604 -0.23546842 -0.26559216 -0.3166199 -0.25336114 0.07436283 -0.5604754 0.012681747 0.018027144 0.12791885 0.06104694 -0.29140714 -0.016891051 0.19021632 0.07667755 -0.2658404 0.11712874 -0.08752385 0.0684253 0.1938684 0.16662301 0.053003497 0.40992236 0.14712977 0.18717709 -0.3003483 -0.04958809 0.21503721 0.15220812 0.16240275 -0.22649188 0.35575366 -0.1274009 -0.22642635 0.019968493 -0.0773262 -0.2802572 -0.04844411 0.06942051 0.12454192 -0.21677846 -0.2274872 0.07174077 0.01721885 -0.26520526 -0.32957706 0.045089666 0.061916143 -0.113681175 -0.05608538 -0.18909244 0.10397952 -0.012261435 0.10665159 0.0066634887 -0.330674 0.3393002 -0.06768539 0.33920652 -0.1883483 0.194179 0.055090573 0.032620978 0.32714713 0.40898368 0.0025258043 -0.10164943 -0.015596319 -0.11471225 -0.03471981 0.13657711 0.14365663 -0.29065922 -0.11220615 -0.2412955 -0.22414988 -0.020353775 0.114660315 0.0048985397 0.08581079 0.07077694 0.044692937 -0.11415404 -0.33857778 -0.018480659 0.21933039 0.038125582 -0.48563153 0.17342213
592 0.260497 0.08182166 -0.030586163 -0.102909245 -0.14497769 -0.3487857 0.16802011 -0.52761245 -0.19420016 -0.50356025 0.20209944 0.06716694 0.12578759 -0.0036321986 -0.011790736 0.06939294 0.1040054 -0.29938656 0.07276157 -0.3321834 0.009454785 -0.17915463 -0.5317117 0.2650333 0.27700433 -0.048238438 -0.08965464 -0.23344964 0.19503425 0.11470981 -0.07940908 -0.25383046 -0.18091653 0.16546755 0.054781485 0.34248286 -0.37397447 0.10633451 0.4928715 -0.16799094 -0.059852254 0.006294152 -0.15612687 -0.34451005 -0.13839169 -0.15747711 0.22636637 -0.06478215 -0.088262364 -0.1519587 -0.19198564 0.26778305 0.39574707 0.04846862 -0.050316572 -0.11522193 0.005494276 -0.17782319 0.25369093 -0.13951644 0.1773478 0.33158195 0.034129493 -0.1874393 -0.039279617 -0.104103886 -0.077600695 0.094547704 0.24403813 -0.035748307 0.04805438 -0.042847753 -0.031503238 0.022411164 0.03974017 -0.29232055 -0.046488553 0.28062466 0.3254004 0.04837614 0.11638478 -0.11065434 -0.1417216 -0.017248983 -0.4254436 0.22262889 -0.23211235 -0.108398594 -0.52269787 0.4073484 -0.12570605 -0.027767308 -0.29065132 0.26995572 -0.41131246 0.14628187 0.017520903 0.10745907 -0.15799098 0.31272167 -0.066237465 0.059497513 -0.17303982 -0.1365213 -0.05703115 0.14419903 -0.062492333 -0.049663518 -0.5475394 0.07531191 -0.0383714 0.64896387 0.31082866 -0.19155326 -0.065186396 -0.05503047 -0.42756897 0.2086268 -0.36146823 0.0633677 -0.19484985 -0.10758425 0.048561838 0.24664591 0.04628559 0.4383598 -0.44416857 -0.011737876
595 -0.5904785 0.3876206 -0.0938137 -0.22897361 -0.13420735 -0.462127 0.58370316 0.15279894 0.21943294 -0.13133827 -0.03624178 -0.42275006 -0.23256853 -0.093318194 -0.107328966 0.27334628 0.43105254 0.1392126 -0.4185769 -0.13794732 0.0056700828 -0.09043843 -0.17121747 0.011620017 -0.091304205 0.27724072 0.056791153 0.033692922 0.04027332 -0.2049748 0.14965977 0.107378766 0.20155676 -0.33127895 -0.059909824 0.24472763 0.09485149 0.03169217 0.10192049 -0.006055716 -0.018710252 -0.06939948 -0.10293739 0.14330609 -0.35238457 0.24857698 -0.062751584 0.344561 -0.07411827 -0.22907887 0.11005314 -0.38813877 0.41226244 0.2734272 -0.12241278 -0.028478336 0.16052696 0.044913758 0.07605076 -0.27655545 0.03281821 -0.044942804 0.15613408 -0.2628697 -0.42218485 0.42217806 0.3190868 0.444393 0.21261564 -0.14934726 0.30233365 0.19326654 0.039312664 0.5332636 0.17125373 0.08450675 0.04089536 0.12347478 0.3430001 -0.4481533 -0.24873431 -0.51206803 0.3415419 -0.06240149 -0.17009911 0.14810498 0.28096426 0.27936995 -0.23156007 -0.030775411 -0.17162141 0.0027065277 -0.16998738 0.1957128 0.11986564 -0.08319778 -0.0043002605 0.2717598 -0.06337613 0.3758658 0.055416178 0.4551741 0.3674943 0.37411857 0.26781428 -0.2776368 0.07346957 -0.2158733 -0.7254609 -0.20434201 0.2723239 -0.10614579 0.0227226 0.0811527 -0.60862595 0.30875045 -0.015135672 0.3161488 -0.27617082 -0.12734409 0.34528497 -0.25937733 -0.1401507 0.34785023 0.31894225 -0.1977175 -0.6212004 -0.05123341
594 0.0021563184 -0.005027665 0.020051721 -0.1682333 0.32420534 -0.39189085 -0.12040582 0.1664826 -0.33785418 -0.11308535 -0.14607628 -0.094249085 0.2569664 -0.17217873 0.07051664 -0.27003777 0.12986642 0.38000086 0.14519732 -0.06503593 -0.13462284 0.13949932 -0.02959922 -0.5501672 0.5696834 -0.05541205 -0.21264054 0.16810647 0.28922066 0.00804792 0.25678307 -0.28883734 -0.33955768 -0.42223665 0.2200233 -0.030252328 -0.12728815 0.2668006 0.31933886 -0.09795474 -0.077474 0.41958517 -0.08394835 -0.19634561 0.04945126 0.103708915 0.3718131 0.38199505 0.23616111 0.44275808 -0.08708082 -0.109086044 0.118231624 -0.23263048 -0.081150286 0.019313784 -0.088804096 -0.21928905 0.17103939 -0.21956344 0.4660216 -0.16724715 0.3167674 0.08721474 0.13410711 -0.027952485 0.30485523 0.46740666 0.14425883 0.2617042 -0.1067555 0.055381417 -0.2690157 0.24182452 -0.1721355 -0.034101088 -0.14756611 -0.12000115 -0.086787604 -0.33792838 -0.21264862 -0.15554854 0.022628725 -0.19752245 -0.06850151 0.2649023 0.08418825 -0.16330792 -0.104509905 -0.30931237 -0.18489195 -0.17881133 0.04975027 -0.04128169 -0.006130077 -0.18915534 0.33396682 0.011933509 0.17197035 0.15413614 0.16798182 -0.32889315 0.17113812 -0.13858406 -0.0562191 -0.23778054 -0.13761492 -0.29926035 -0.45567742 -0.03517088 -0.027627736 0.41908494 0.07626838 -0.07375227 -0.32512844 0.03348728 0.42423132 0.3578936 -0.57988465 0.3538013 0.0814255 0.05672573 -0.0490695 -0.1685804 0.372391 -0.061872277 -0.0402107 -0.0006020587
597 0.21096718 0.351645 0.59815747 -0.13963269 -0.17190425 -0.0073664016 -0.0431436 -0.053135127 -0.10862843 -0.3832882 0.18809487 0.005402851 0.042862307 0.10295822 0.1943664 0.12858583 -0.0632106 0.24619305 -0.012927897 -0.002752334 0.04810621 -0.36181462 -0.18094751 0.28560784 0.21642031 0.6483051 0.09839453 -0.46767682 0.6430509 -0.2513019 -0.12320356 0.14095818 0.42899823 0.08456152 -0.0026173603 -0.11861856 -0.3036134 0.08050549 0.1578452 -0.38251966 -0.19239153 -0.22254287 0.16133942 0.1277232 0.18404022 -0.1126164 -0.018244913 -0.18898837 0.23015918 -0.20609286 -0.10089631 0.111991644 0.20740631 0.11829049 0.099023774 0.20155051 0.3170445 -0.1711257 -0.15072277 -0.25370893 0.23592834 -0.13636617 -0.29898462 0.20551461 0.065349065 -0.46408057 0.17104073 0.10930659 0.21916272 -0.07604865 0.01788797 -0.020823644 0.244876 0.42478102 -0.5336319 0.017335873 0.29041135 -0.15771775 -0.17778522 0.21394345 -0.11526916 0.17723371 0.047491822 0.06975531 0.37364718 -0.08928714 -0.2678398 0.057770934 -0.25625983 -0.22825433 -0.3699402 -0.32842103 -0.23150231 0.093532346 -0.2808178 -0.13305254 -0.04546975 -0.36763752 -0.34564728 0.2049623 0.46620488 -0.4333534 0.15148905 -0.28509876 0.16139169 -0.054401543 -0.048330538 -0.4861461 -0.024646364 -0.3665041 -0.25930783 0.22919314 0.32274643 0.011808934 -0.1210571 0.029896252 -0.18178353 0.17523283 0.076841645 0.12765609 -0.019827781 0.122866616 0.072550744 0.22747304 0.08851873 -0.3063393 -0.30087447 -0.2940164
596 0.16460814 0.19638446 0.19777954 -0.06263062 -0.019932227 -0.2298963 0.028131906 -0.1323408 0.26160944 -0.20574506 0.35685414 0.2273114 -0.40951815 0.06263489 0.31035188 0.007124314 -0.55296177 -0.01740158 -0.18776684 -0.08900932 -0.052780587 -0.29286978 -0.20673174 0.13091458 -0.06347774 0.62864506 0.15165234 -0.3222648 0.60770106 -0.2546118 -0.26090035 -0.1265761 0.10186422 -0.37515676 0.2330139 -0.13370985 -0.1562113 0.10976174 0.28187984 -0.47034243 0.35804197 0.24429706 0.40186462 0.05069131 0.17132923 0.013749971 0.084001124 -0.13395377 0.010489714 0.44237024 -0.023486454 0.036808334 0.4741103 -0.06552883 0.27628738 0.3299142 -0.04484526 -0.35794812 -0.060717613 -0.58629507 -0.015072182 -0.5391625 0.21235949 -0.033174057 0.009977639 -0.48674008 0.40827814 -0.14293776 0.23929289 -0.0026567925 -0.09631913 -0.61695397 -0.069801606 0.18812609 -0.5912205 0.28596106 0.43944663 -0.049705643 -0.26287726 -0.099956974 -0.2893857 0.08210049 0.4363557 -0.5064414 0.04566186 0.040603813 0.16314836 0.23245335 -0.15848465 -0.26852572 -0.12882623 -0.11738037 -0.49628764 0.10640487 0.07612943 0.038242485 0.14064184 0.08046454 -0.4240142 -0.08687139 0.4357719 -0.03469384 0.25478095 -0.19792171 0.23813145 -0.16482234 -0.39646173 -0.45675465 -0.19530411 -0.2706259 -0.26144168 0.2129692 -0.09776723 0.14050658 0.0902716 0.12973362 -0.13306127 0.19793841 0.21629316 0.36021984 -0.17150901 0.24289389 0.41213268 0.27009898 -0.10410798 -0.25665948 -0.34068757 -0.27627587
195 0.15309744 0.20960417 0.18981534 -0.14294216 -0.20156586 0.2314452 -0.13355297 -0.3532831 0.034504782 -0.052018043 0.0073728748 -0.0660276 -0.012876942 -0.44366083 0.030481715 -0.03734355 -0.13150042 0.3360451 0.0091001475 0.070689775 -0.09985643 -0.11481049 0.17352252 -0.27497256 0.25016692 0.1534253 -0.05250228 -0.030608427 0.008427787 0.11427531 -0.13232481 -0.28936002 0.020694984 0.09925035 0.20131975 -0.2557366 -0.33908752 0.10719313 -0.084366076 -0.22124574 -0.11334428 0.00024629734 0.63239884 -0.18948233 0.031984273 -0.14306284 -0.17832182 -0.29203907 0.17334278 -0.16407086 -0.028283203 -0.39853454 0.17575511 -0.10305213 0.20896868 0.3644345 0.26459154 0.296863 0.26622373 -0.108997285 -0.0139269 0.34565878 0.057854436 0.15632384 0.035203204 -0.027850159 -0.044318423 -0.36619988 0.018629892 0.2600647 0.16032852 0.19766074 0.43281546 0.03440892 0.077175215 0.0014094071 -0.11193155 0.34587234 0.017320232 -0.013122563 0.091257244 0.11933338 0.020778902 0.27955946 0.033612825 -0.06303203 0.12595351 0.11878008 -0.17417184 -0.15541047 -0.20963356 0.20641416 0.028780714 0.078784816 -0.18270855 0.13805169 -0.10777281 0.32451516 -0.09511948 -0.0047933613 0.33595118 0.04168446 0.22581184 0.019090857 -0.307867 0.052322265 -0.12893558 -0.043689355 -0.41042957 0.12385952 0.06285418 0.13273384 0.53163475 -0.049128037 -0.13476945 0.14883147 0.22953227 0.46728855 0.4794868 -0.12201808 0.18222706 -0.08361717 0.17618036 0.23432073 -0.0054278765 0.026809063 0.09750839 0.032039504
194 0.04380772 0.1068191 0.28489128 -0.15573682 -0.266313 0.1999244 0.045087058 -0.012179351 -0.0026431102 -0.16555925 -0.26120865 -0.068252474 0.21034881 -0.23448174 -0.26109982 0.015088968 -0.3036428 0.22718792 -0.07812307 0.19245026 -0.030114116 -0.06011035 0.06985881 -0.4355786 0.27293023 0.24517624 0.004948932 -0.122434944 0.18144436 0.016170816 -0.08304413 -0.14404373 -0.21780327 -0.08915851 0.21944448 -0.19884732 -0.22344856 0.052038338 -0.21975036 0.05136063 0.22056265 -0.05888114 0.3385906 -0.25524133 0.39225698 -0.09257519 -0.064602666 -0.05761952 0.019619377 -0.03447503 0.05783812 -0.30347565 0.11661331 -0.048857495 0.1993939 0.24725197 0.10818553 0.2277794 0.13083339 -0.4447742 -0.076435775 0.3673978 0.19537564 0.22373678 -0.06610699 0.23968245 -0.0317181 -0.18682322 0.044029955 0.025102813 0.26986316 0.34918326 0.1846384 0.037655175 0.10652691 -0.064196974 0.069012254 0.14224848 0.14870293 0.21554632 -0.0952587 0.3587427 0.17815302 0.24971825 -0.015608719 -0.1455298 0.29754263 -0.08265531 -0.22508366 -0.10443073 -0.31806993 0.19672169 -0.1772198 -0.010116429 -0.41018412 0.12920624 0.012277192 -0.07105406 -0.2406934 0.25118738 0.1998804 -0.028624516 0.3357218 0.05948129 -0.4866816 0.056469977 -0.24325497 -0.077910624 -0.22073786 0.12742607 -0.2625082 0.014531549 0.45426407 0.043907087 -0.16104364 0.24276112 0.13414806 0.18991578 0.20292264 -0.21246813 0.31646883 -0.021041919 0.06659246 -0.14317946 0.14328954 -0.04031614 -0.1378057 0.059159994
197 -0.17044371 -0.026070576 0.023832195 -0.43745846 -0.17346525 -0.28513682 0.071979165 0.015595186 -0.065585285 -0.18067585 0.3774424 -0.1428888 -0.18942803 -0.14397462 -0.2838646 0.25440106 0.17847465 0.111343585 0.088769235 -0.17160158 0.0015996054 0.1780458 0.044587396 -0.084379986 0.08467367 0.25859416 0.06786212 -0.052045293 -0.16825652 -0.07703506 0.13564013 0.22833589 -0.08292021 -0.18456645 0.19109869 -0.36300048 -0.11153219 -0.21884039 -0.1275694 0.2201708 0.0356777 -0.1708257 -0.31414315 -0.055333804 0.116381735 -0.12906298 0.41109103 0.19105677 0.20326072 -0.21788986 0.12539777 -0.17168143 -0.019974919 -0.055665746 -0.24386036 0.02465436 -0.11732285 0.14118758 -0.12671003 0.06829459 -0.39799255 0.31554353 -0.016687809 0.18305257 -0.4960708 -0.11069552 -0.0358999 -0.017698722 0.090296805 -0.14749944 0.20731005 0.036612716 -0.044366296 -0.11869882 -0.28003317 -0.033390988 0.2000608 -0.12226433 0.07036744 -0.24678425 -0.26384792 0.11991289 0.08077668 -0.25301445 -0.29376706 0.25451586 0.14540112 0.058903877 -0.26330164 -0.11134525 -0.078961566 -0.08193979 -0.08431062 0.22270177 -0.12875307 0.03301595 0.1359335 0.45950416 -0.3762562 0.13686012 0.3083258 -0.019816354 0.442801 0.18423891 0.2215144 -0.2960141 -0.1484242 -0.039633747 -0.35187322 0.115516625 0.07842626 -0.01584432 0.019572329 -0.30663964 -0.2348051 0.02659375 -0.13784371 0.12432808 -0.03457824 -0.09861225 0.33416513 -0.22503491 0.022634499 0.14793754 0.22748232 0.3139552 -0.49819133 0.13378558
196 0.082993984 -0.27048874 0.09793655 -0.10131655 -0.31955487 -0.43685386 -0.09530508 -0.037057377 0.031299002 -0.068900965 0.44597632 -0.15574826 0.1663716 0.051249187 -0.20682082 0.33136764 0.084271014 -0.11674135 0.10297534 -0.24625757 -0.31706148 -0.22188409 -0.1132529 0.08919137 0.21614926 0.26516473 0.020624956 -0.3869279 0.27098033 0.0052181 -0.2889189 0.17322607 0.24988773 -0.14506038 0.0040367614 -0.1350122 0.064209715 -0.03304944 0.2165923 0.22671224 0.038986992 0.040473484 -0.034427255 -0.14427972 -0.12462464 -0.3020452 -0.05565418 0.039235584 0.033195775 0.20865609 -0.0060966755 -0.0977562 0.20449422 -0.14252274 -0.30241805 -0.07981076 -0.19191284 -0.14088982 0.016333714 0.08319248 -0.28056142 0.13031234 0.15022735 0.17854832 -0.3076568 -0.07946909 -0.34157056 0.11733722 0.11912257 0.08731289 -0.14076942 -0.22662473 -0.19248015 -0.094334394 -0.1456175 -0.14631632 -0.04210914 -0.07293382 -0.22126395 -0.2938301 -0.38859397 -0.022410395 0.03952473 -0.49431184 -0.07747234 0.048629243 -0.04758978 -0.15081698 -0.31506225 -0.119076714 0.15066005 -0.12526909 -0.080559984 0.12245154 -0.17358851 -0.107782215 0.4379312 0.32287514 -0.5072042 0.23151943 0.0796602 -0.15241313 0.31523442 0.27481678 0.026048377 -0.1671862 -0.34592566 -0.06455677 -0.26149872 0.13883281 0.18099098 0.086687945 -0.21138112 -0.18849735 -0.065932944 -0.06885895 0.24123974 0.0933248 0.1177363 0.20022635 0.18733126 -0.29148448 -0.20659956 0.04386392 0.03613796 0.03274609 -0.13962635 0.0018325195
191 0.14658536 0.30314612 -0.078740604 -0.07798278 0.1661423 -0.140919 0.15185285 -0.08780601 0.054448243 0.041683767 -0.13236606 -0.22328037 0.1993907 -0.18026502 0.18425895 0.02789709 -0.17191078 0.17001474 -0.034642786 0.22002137 -0.18967813 -0.11623674 0.10578007 -0.24345772 0.22736903 0.42230144 0.065311454 -0.44069123 0.09019238 0.20868628 -0.1447598 -0.117605224 -0.050866157 0.21614508 0.32188195 -0.017407835 -0.3556323 -0.10708378 0.3030956 0.16158697 -0.060774434 -0.013745055 0.027070217 -0.101188876 -0.2337552 -0.1929329 0.2428707 0.041705374 0.44393006 -0.22911909 0.13703638 -0.3077448 0.41392478 0.10664878 -0.15768407 0.080513835 0.1766835 -0.3696034 0.05326111 0.025537796 0.26249894 0.3627071 0.251706 0.23366761 -0.050971244 -0.27855423 0.018392734 0.013260505 -0.12483517 -0.29438117 0.2403726 0.20872773 -0.22032839 0.19943838 -0.21310514 -0.09818936 0.30610803 0.09976314 0.077586934 -0.7812728 -0.10840209 -0.08109503 0.32647926 -0.06503408 -0.0046262997 0.24184863 0.17888093 -0.14291775 -0.048614863 0.06645531 -0.051909648 0.08128688 0.2159454 -0.079908036 -0.26034218 -0.23953843 0.113117166 0.030240234 0.17639564 -0.028443456 -0.05050786 0.065413944 -0.18496114 0.04373235 0.020436132 -0.0292572 -0.25807846 0.06710432 0.20922132 -0.29322985 -0.031568196 -0.21686512 -0.24767339 0.07778904 -0.39879864 0.045602966 0.032261323 0.13923004 -0.09445589 -0.02663552 0.19619915 -0.19903953 0.008142159 0.1637542 0.07965777 0.025406312 -0.129354 0.15925501
190 0.07598757 0.23447704 -0.074465826 0.1315252 -0.004021424 0.29889667 -0.093302615 0.122512914 0.018328127 -0.042249102 0.14348851 0.14449984 -0.06811168 0.26533633 0.1524644 0.19926581 -0.23825265 0.04228092 -0.21995454 0.06464169 -0.2699623 -0.018450947 0.2426391 0.008041789 0.21546634 0.13634291 -0.35880202 -0.1544656 0.13366011 0.0028224722 -0.167332 -0.25649837 0.0065959613 -0.019984812 0.15018985 -0.22238268 -0.22254047 0.17030606 0.19136402 0.2518203 0.13760369 0.27248308 0.0874645 -0.050330136 -0.06400074 -0.009203904 -0.10566883 -0.21552043 -0.07140579 0.12970938 0.34323716 0.05081929 -0.024165189 0.10313148 -0.10821797 0.24275073 -0.12689382 -0.14168522 -0.2345447 -0.089008726 0.1263033 0.15643616 0.24697553 0.23058711 0.18370198 -0.14941365 -0.020024247 0.3664951 -0.14942816 -0.18057428 -0.06174832 0.050183844 0.0967186 -0.3458201 -0.013684066 -0.08203944 0.104445875 0.13095307 -0.23354012 0.10498562 -0.36982566 0.035841838 0.28286326 -0.2030696 -0.26565546 0.17082773 -0.011188755 0.072377376 -0.02654211 -0.1577803 0.2273089 0.09725794 0.06712401 0.32513928 -0.18070926 0.16597225 0.16759494 0.12977704 -0.28020757 0.3157737 -0.020576922 -0.21728052 0.22780176 -0.23376219 -0.016869873 -0.06802364 -0.10778368 0.011146181 -0.15848403 -0.12427975 0.064668745 0.14604622 0.3783706 0.37050804 -0.06825283 0.16068055 0.15917465 -0.08487638 0.09066117 -0.07783731 0.024706816 -0.096862376 -0.13179606 0.60954607 0.4263995 0.103866085 -0.102309674 -0.011828093
193 0.048797548 0.032551512 0.29192284 -0.11108671 -0.2616884 0.22099194 0.15323196 -0.055733237 -0.1519911 -0.031466912 0.08358466 -0.22867426 0.16482121 -0.20830376 0.27588522 -0.0934575 -0.26503414 0.25362188 0.264667 -0.03881532 -0.11544495 0.04940087 0.025012355 -0.22228652 0.3138539 0.21854778 0.048946664 -0.048564214 0.14754994 0.24215943 -0.07307456 -0.19161846 -0.0040382035 -0.0038907775 0.17599657 -0.2076992 -0.03998727 0.3374463 -0.110093825 -0.08148582 0.034577295 -0.024557037 0.6243717 -0.11977087 0.33177406 -0.20819603 -0.25855476 -0.14432636 0.02131311 -0.029572751 0.08311224 -0.2039428 0.22325473 -0.008728143 -0.018029232 -0.042803638 0.020374939 0.11978567 0.00064105453 -0.16054456 0.014234987 0.36396834 0.2017407 0.13102703 -0.087856844 0.06606917 -0.1655907 -0.15597473 0.061869968 0.17300257 0.11363895 0.20386907 0.38998526 0.4515399 0.15216792 -0.037108142 0.061084036 0.24521524 0.097738974 0.29974508 0.1532676 0.2623813 0.05492059 0.45208794 0.11971936 -0.058259897 0.3297041 -0.12732275 -0.010079495 -0.029993972 -0.110855296 0.3253463 -0.2684497 0.0989174 -0.35657942 0.06840034 0.043619864 0.035065807 -0.2400324 0.03370055 -0.008095385 0.2785702 0.2763683 0.03947648 -0.25197643 -0.009197368 -0.39947835 0.0302601 -0.3613641 -0.016693559 0.004739368 -0.022631384 0.5408706 -0.016106315 -0.16663562 0.12587187 0.24489918 0.61570317 0.2725505 -0.11563103 0.14664888 -0.30145675 0.13867432 -0.29119295 0.078553274 0.22045407 -0.076142035 0.07288561
192 0.24125662 0.11996531 0.2970973 0.06253695 -0.28428614 -0.10090682 -0.1459316 -0.2302937 0.13790025 -0.07234179 -0.12973331 -0.38755238 0.21425496 -0.5098874 0.020037286 -0.067479804 -0.07767207 0.19389516 0.10920304 0.09040566 -0.049936358 0.010397538 -0.09335723 -0.21866772 0.32897425 0.20004705 0.023609791 -0.29514447 -0.065800585 0.15947463 -0.21285439 -0.23484877 -0.16834176 -0.18372758 0.27775687 0.015209887 0.07426448 -0.021923346 0.032361615 -0.30463666 0.021088477 0.21793462 0.47009268 -0.0982775 0.2710865 -0.13569675 -0.2883359 -0.41583255 0.25957486 0.034381222 -0.063026905 -0.30454722 0.2614155 0.1778841 0.19725867 0.24813487 0.28012863 0.13801649 0.055528842 -0.18235692 0.29215592 0.4516096 0.42712042 -0.100477815 0.23662591 0.16181047 -0.101681195 -0.24524656 0.0053515714 0.05623921 0.22947633 0.1968821 0.42378822 0.28415987 0.38336745 -0.26202372 -0.22006142 0.36814442 0.09025155 0.06942125 -0.1291662 0.05642105 -0.17670874 0.3934112 0.15092787 -0.07802109 -0.0007352798 0.07425103 -0.2096792 0.002143973 -0.37227473 0.32551345 -0.0843167 0.2723592 -0.26663697 0.31129673 0.07869765 0.21391015 -0.17093451 0.17462663 0.21882682 -0.09046336 0.41452238 -0.15716918 -0.31557053 0.03287299 -0.40013084 0.08120953 -0.2945807 -0.0025171589 0.05255228 0.08565746 0.7325174 0.10062474 0.08631629 0.23881471 0.16140367 0.28203595 0.32192916 -0.05159608 0.36924505 -0.31647655 -0.07353406 -0.20866075 -0.09952736 0.04359298 -0.09419623 -0.12385316
270 -0.121142626 -0.082489915 0.08411733 -0.443033 0.34238312 0.010164969 -0.25597844 -0.11042548 0.20402326 0.19787236 0.2863211 -0.038134396 0.21734828 -0.17044942 -0.15283343 -0.040927127 0.013012957 -0.06718798 -0.21194583 -0.1748967 0.010619016 0.17407498 -0.43690056 0.022448426 0.11406965 0.14501926 0.27103254 -0.019022789 0.20334743 0.15232539 0.24657418 -0.19113466 0.37218618 0.5441576 0.2668353 -0.07718181 -0.03190465 0.8387267 -0.45744646 0.16346873 -0.0025897098 0.1790187 -0.0350653 -0.34018612 -0.23923539 -0.42374822 0.083877586 0.07976469 -0.20344971 0.4330995 0.030117067 -0.18852396 -0.17603433 -0.2620968 -0.22602059 0.20607378 0.20990445 -0.05378586 0.06747678 -0.31809008 -0.08540149 0.2916827 -0.36706588 0.24259982 -0.23050207 -0.24110831 -0.110501535 -0.04920421 -0.044260938 0.11821945 0.107004784 0.04774203 0.18494199 0.4977182 0.112978354 -0.1713913 -0.3635748 -0.0789009 0.016178107 -0.35246873 0.055632625 0.40826672 0.019196598 0.032988332 -0.05502075 0.117951676 -0.18210621 -0.4307592 0.17477484 -0.18946959 -0.16222377 -0.34257331 -0.18693672 0.025510557 0.14829537 0.004597329 0.054053575 -0.1346687 0.04041735 0.046707224 -0.05619438 0.2666726 0.14088577 0.02118258 0.1265437 0.0892159 0.21004719 -0.38896552 -0.20830812 0.088106275 -0.0027264457 0.038150437 -0.31214327 0.27130687 -0.27219722 0.28914905 0.5061504 -0.12283068 -0.08282604 -0.02499145 0.29777807 -0.19652727 -0.20157921 -0.25893542 0.020621156 0.04038399 -0.24752517 -0.30268893
271 -0.17919487 0.035772424 0.107499585 -0.17237888 -0.10273274 -0.14139792 0.33602118 -0.4176358 -0.04362521 -0.016438317 0.22882323 -0.114325255 0.18830782 -0.03205046 0.17884263 -0.30241343 -0.30693397 -0.2733584 0.027982555 0.15953794 -0.07703963 0.16071278 0.05563718 -0.35751566 0.29927257 0.20241816 0.06230646 -0.26454994 0.07608512 0.21630064 -0.05928174 -0.08572229 0.041903708 -0.1270177 0.13800761 0.27513212 0.08733703 0.33352694 0.16850764 -0.07309525 0.09015608 -0.17047915 0.1303499 -0.19665615 0.3287444 -0.15378147 0.35790843 -0.14175877 0.15959918 0.18776461 0.22860044 -0.031893197 0.06538535 0.28789335 -0.018084526 0.027960135 -0.033744622 -0.04067037 -0.16663723 -0.061116423 0.4299305 -0.04482848 0.0054178042 0.2470645 0.3109235 0.21910676 -0.34427717 -0.16401865 0.024080034 -0.036548957 0.2962406 -0.01024727 -0.065050915 0.049984396 0.061178308 0.09389099 -0.035185065 0.2783106 0.069194786 -0.1388674 -0.11114724 -0.00692732 0.19392867 0.2346865 -0.06896487 0.37202922 0.055736415 0.13471127 0.12284335 0.08712154 -0.42115593 0.150361 -0.13002731 0.21587087 -0.13917568 -0.03307767 -0.075324 0.030314306 -0.3339982 -0.009732338 0.32902429 -0.03988207 0.17183556 -0.035505902 -0.14472489 -0.01911269 -0.482608 -0.086086884 -0.40713975 -0.028824769 -0.3392454 0.14065151 0.37058944 0.16278887 -0.032133035 0.14757109 0.09569587 0.06704442 0.108289786 -0.04380781 0.21368538 -0.07794071 -0.006647693 -0.10153561 -0.09793945 0.25712225 -0.09832879 0.16439891
272 0.059250176 0.006691804 0.008715049 -0.44357607 -0.15746045 -0.24805005 0.060557988 -0.12787248 -0.14177862 -0.31753215 0.36017832 -0.5106802 0.2670112 0.0022150788 0.029088503 -0.27364555 -0.4526088 0.041292757 0.023391854 -0.32268965 -0.07560613 -0.2928259 -0.50017923 -0.30249014 0.040058535 -0.15988946 -0.20531163 0.027650703 0.378832 0.19525298 -0.007920321 -0.30001456 0.20558918 0.12013933 0.1433735 0.036137134 -0.22167113 0.053212322 0.21663526 -0.1116591 0.18715358 -0.047882497 -0.0023030348 -0.028304255 -0.12353004 -0.19673091 -0.007894636 0.03553821 0.1724201 0.10016479 0.2095662 -0.1461397 -0.29210383 0.30967134 -0.006195615 -0.1687135 -0.16174535 0.0056618387 0.19646388 -0.21670656 0.09161659 0.30583555 -0.051793948 -0.38050392 0.01990909 0.124554716 0.29127774 0.13045673 0.41498291 0.07430452 0.2607083 -0.049881022 0.18570335 0.20628215 0.043371893 -0.21555434 0.051980995 0.35388404 0.028512422 0.12484878 -0.030637385 -0.018966604 0.11103478 0.26798952 -0.097676374 -0.06559176 0.08330177 0.14653684 -0.065017045 0.006952808 0.049699597 0.012955289 0.12097355 0.52005535 -0.22904368 0.20534737 -0.027277354 0.21531135 0.102656454 0.07741751 -0.06924982 -0.041662537 -0.11538097 -0.36411986 -0.2706707 -0.13551664 -0.03462677 -0.08067272 -0.38579464 0.111991994 -0.5368633 0.47198662 0.08750933 -0.25653115 0.09077108 0.30081695 0.1092921 0.2828244 -0.0026733433 0.10101219 -0.26449457 0.12544307 -0.1006451 0.2064999 -0.112813115 0.20532547 -0.21354248 -0.35121265
273 0.18217501 -0.03483128 0.08007821 -0.19938658 -0.052612726 -0.1521154 0.025137931 -0.26757577 -0.3093716 -0.17928495 0.0551462 -0.13267413 -0.05752338 0.0917301 -0.03564536 -0.20444019 -0.21059686 -0.2732792 -0.08685993 -0.026513303 -0.19374828 0.012801538 -0.13891153 -0.19185473 0.16285801 -0.0014266603 -0.033635836 0.011538202 0.4239899 0.18178433 -0.17983931 -0.21198869 0.0056760623 0.19357848 -0.03561923 0.25115523 -0.52278805 -0.012458655 0.20047598 0.011895284 0.30868626 -0.28549019 0.16842622 -0.4301263 0.39609256 -0.18750042 0.46089488 -0.28153655 0.21264824 -0.18137977 -0.15589307 -0.069455355 -0.108147725 0.37326622 0.15716964 0.015857762 -0.23050307 -0.33071303 0.2485695 -0.2355079 0.32678115 0.097969584 0.054444876 -0.25794113 0.3570811 -0.011518914 0.23764639 -0.083131805 0.1700008 0.017620347 0.26785314 0.05821137 0.1435082 0.11904494 -0.2179704 -0.2994109 -0.1893394 0.29856402 0.1670802 0.10969582 -0.067984514 0.031983815 0.05921867 -0.08333002 -0.23072414 0.03226802 0.0001896912 -0.043989155 0.008913872 0.124108836 0.29839864 0.19796373 -0.25311175 0.22472754 -0.42712048 0.17512494 0.0042512394 0.15547004 -0.38155988 0.12076526 0.11082922 0.21227854 0.119509324 -0.30082175 -0.12381846 0.20613466 -0.4787506 0.22798836 -0.5618609 -0.20832022 -0.11070222 0.4211748 0.204294 -0.22976124 -0.03554961 -0.17327519 -0.14863579 0.41016203 -0.050525643 0.34374133 -0.0043721357 -0.15737687 0.19075704 0.021220084 0.3035714 0.26764253 -0.38674486 0.0063772555
274 -0.11734389 0.19390607 0.07784803 -0.23316182 -0.014325757 -0.23574586 0.0058385464 -0.051565263 -0.32377204 -0.0772609 0.26560673 0.097075135 0.21992609 -0.014949152 -0.016744744 0.2201189 -0.04041525 -0.3104446 -0.28210676 -0.13800834 -0.124676384 -0.18198453 -0.32121286 -0.26825213 0.19208978 -0.031897623 0.054891076 -0.22687867 0.88798636 0.17356183 -0.20129402 -0.19579358 -0.027525933 0.0058644945 -0.026455501 0.03713727 -0.2608061 -0.09354846 0.17735752 -0.2566369 0.40084776 -0.4255587 0.04613271 -0.12992914 0.19400276 -0.08685464 0.1909872 -0.08163007 -0.1974238 0.24845485 0.24521023 0.071753025 0.08943694 0.20322745 -0.11983279 0.06823747 -0.19175875 -0.29854053 0.24255589 -0.35726747 0.215814 0.33779553 -0.19004719 -0.42865252 0.12468 -0.0032195535 -0.06626304 0.049569074 -0.051429827 -0.23515157 0.23231505 -0.26783818 -0.06542532 -0.12776195 0.089803755 -0.45969757 0.007926913 0.21016575 0.23088685 0.17779964 0.025648514 -0.02179736 -0.517558 -0.24305914 -0.16265766 -0.1739889 0.023781467 0.069995016 -0.040028322 0.20053512 -0.010271538 0.102847956 -0.17555253 0.092392124 -0.33241788 -0.027456021 0.16829838 0.22287725 0.06845466 0.29620978 -0.04316215 0.16363017 -0.21209659 -0.41286987 -0.101826705 0.1340591 -0.22196206 0.5477223 -0.46262306 0.08279127 0.03859583 0.38842252 0.28623784 -0.15851738 -0.026769515 0.13380814 -0.07736442 -0.074893676 -0.091801785 -0.09684137 -0.031950887 0.22206973 0.3409547 0.21044111 0.26836815 0.37541154 -0.29007706 0.0015009706
